layers.0.weight:
3.31696361e-01 -5.67613244e-01 7.97264636e-01
5.69172144e-01 -8.09445798e-01 -5.80563486e-01
-8.31293464e-02 -6.13938749e-01 -5.77727258e-01
-1.07055378e+00 1.15616508e-01 4.58123112e+00
2.67282110e-02 4.11940843e-01 1.16166264e-01
-5.79876065e-01 8.58121514e-01 -1.84879377e-01
-1.31842160e+00 4.86020595e-01 -9.88645032e-02
-6.01682402e-02 7.88846374e-01 -9.23566997e-01
6.03414774e-01 -9.26082134e-01 5.12713566e-02
-1.11527514e+00 5.86289167e-02 -1.64189592e-01
7.53551662e-01 -9.85680073e-02 1.41279221e+00
-7.16238439e-01 -1.31785080e-01 -1.29353356e+00
-4.30584475e-02 7.12955832e-01 -1.57757306e+00
-1.16726887e+00 2.10410804e-02 5.00053525e-01
-6.46977663e-01 1.09646142e+00 7.52028525e-01
-1.81771189e-01 9.48456824e-01 1.64468549e-02
5.46070874e-01 -6.33792400e-01 -1.45019031e+00
-1.15504665e-02 1.12846863e+00 1.84981868e-01
8.07071701e-02 -9.54183042e-01 5.35116851e-01
3.41117471e-01 -1.28724232e-01 -8.64976227e-01
2.23475501e-01 1.65966094e-01 -5.10879010e-02
-3.24195027e-01 -2.56797969e-01 -1.00232065e+00
-4.64660525e-01 1.65601885e+00 -4.46076952e-02
-1.56447518e+00 4.06930357e-01 1.75152493e+00
1.05132234e+00 3.79940838e-01 -7.78481364e-01
2.59609371e-01 6.71772659e-01 -1.17486012e+00
-1.16151750e-01 -2.13369340e-01 1.90187418e+00
-3.97779703e-01 -2.44972542e-01 1.92939892e-01
3.22416067e-01 7.57217348e-01 -1.46468067e+00
-1.04933763e-02 4.65525806e-01 1.70563948e+00
-2.89658904e+00 2.84448242e+00 -1.78299040e-01
-1.26738083e+00 -5.19488692e-01 1.02004325e+00

layers.0.bias:
8.77201200e-01
4.81547834e-03
-1.42384720e+00
-6.34384930e-01
7.07518518e-01
-2.04255387e-01
-3.54310095e-01
2.86240637e-01
-7.45998621e-01
-1.59115899e+00
1.64644122e-01
1.80825554e-02
2.46107668e-01
-1.21306002e+00
-2.90836543e-01
1.43946290e+00
9.34610724e-01
1.82654703e+00
-6.68276668e-01
5.78918040e-01
-1.44309163e-01
-1.35729384e+00
1.02535832e+00
-7.05530941e-02
1.36946186e-01
5.60703695e-01
8.80503118e-01
-1.57881156e-01
-4.88352716e-01
7.31267482e-02
8.91685039e-02
-6.70209900e-02

layers.2.weight:
-3.46118212e-01 2.05338612e-01 5.59260882e-02 -4.79072064e-01 -4.03514318e-02 -3.10676126e-03 1.06089324e-01 -6.98848218e-02 -9.74187031e-02 2.81770778e+00 8.80894735e-02 7.09251910e-02 -2.28529721e-01 2.43256116e+00 -1.79215059e-01 4.11072522e-01 -7.65294731e-02 6.36132061e-01 1.61283866e-01 -2.80487895e-01 2.39514932e-01 -8.56609344e-02 -5.58218777e-01 6.14570618e-01 -1.18930131e-01 6.08168542e-01 -7.84046113e-01 -1.30516320e-01 -2.13840052e-01 -2.12941065e-01 -2.23986521e-01 2.80529767e-01
-8.26591626e-02 1.63466021e-01 -8.35095286e-01 4.28954214e-02 -4.75096822e-01 1.35411203e-01 -7.65938580e-01 -4.87414747e-01 6.24100566e-01 6.80207729e-01 3.22009742e-01 -2.50368327e-01 2.51226544e-01 -9.60785151e-03 -3.14491779e-01 -2.23278534e-03 -3.52223277e-01 2.46801853e-01 -4.00254905e-01 -8.02304819e-02 6.50349796e-01 -1.18895032e-01 -4.53849196e-01 -3.57853211e-02 2.87717078e-02 -7.85515308e-02 -3.35698277e-01 -5.49524248e-01 8.74270722e-02 -2.36193806e-01 -2.23996267e-02 1.54187530e-01
-8.76269862e-02 -6.66727871e-02 4.98901792e-02 -7.85665751e-01 -6.24463260e-01 2.56325565e-02 -4.44954038e-01 3.73533219e-01 4.10343558e-01 7.63870299e-01 -5.88111579e-01 -4.57327552e-02 2.04385534e-01 6.24038950e-02 -3.38685811e-02 -5.60969472e-01 -1.38156801e-01 -4.91946638e-01 -1.55916557e-01 3.97286057e-01 -3.50192070e-01 -2.16707036e-01 4.48913336e-01 -1.17368460e+00 -2.45047912e-01 4.75207061e-01 -1.21177495e+00 -4.22476791e-02 4.69518930e-01 -4.08935368e-01 1.33174464e-01 2.79033393e-01
2.54828095e-01 -8.52139965e-02 3.57810594e-02 1.35865366e+00 6.36004508e-01 3.80229115e-01 6.52688861e-01 -2.39185318e-01 -1.67862386e-01 -5.65410890e-02 1.68179095e-01 -7.32617900e-02 -5.80350757e-01 1.41887575e-01 6.22940719e-01 1.04493904e+00 -2.93241888e-01 8.77882659e-01 3.00155222e-01 -9.59122777e-01 -7.90982366e-01 -1.65737033e-01 3.78526062e-01 1.43915308e+00 -5.02694845e-01 -5.35079956e-01 5.05991399e-01 2.03668505e-01 -6.72777712e-01 -1.19861864e-01 -3.06676123e-02 5.06276309e-01
2.38810778e-01 -2.47932941e-01 1.63096711e-01 -4.70769048e-01 3.04077655e-01 -4.14726496e-01 -1.16537666e+00 1.80973738e-01 7.66975507e-02 -6.98758721e-01 3.90551150e-01 -6.86596930e-01 8.32072318e-01 -9.43123937e-01 -1.86849818e-01 -6.78442180e-01 -2.21274674e-01 -6.18549168e-01 -1.28497928e-01 -2.00943034e-02 7.84797966e-01 -5.79364181e-01 1.57914817e-01 -3.73443782e-01 -8.39335084e-01 6.78924620e-01 7.87205845e-02 -5.43280900e-01 -2.45076135e-01 5.61718225e-01 -3.69845212e-01 9.39540118e-02
-4.41104531e-01 3.01768154e-01 4.09545004e-01 1.42653152e-01 -9.73362446e-01 -2.36064553e-01 -2.25381434e-01 3.22766513e-01 2.96668559e-01 6.08527893e-03 6.32437229e-01 2.52966791e-01 -5.51497489e-02 -2.02371210e-01 -3.99420530e-01 -1.01818085e+00 -2.86944270e-01 -1.40545392e+00 6.49605095e-01 -2.05164194e-01 -6.08802438e-01 1.16035212e-02 -6.26274526e-01 -2.36014396e-01 -8.64317492e-02 1.05511867e-01 1.29371643e-01 1.12875009e+00 -1.89271048e-01 -4.60228771e-01 -5.91720939e-01 4.94971812e-01
5.83016165e-02 4.62286516e-05 -2.26188332e-01 -6.35559205e-03 -1.56439111e-01 1.40864670e-01 -6.01506382e-02 -4.41160142e-01 -8.03876147e-02 2.64156133e-01 2.98250109e-01 8.29942897e-02 2.82002479e-01 5.11773638e-02 -1.70463081e-02 -3.25299352e-01 1.53929368e-02 8.58658105e-02 2.86698397e-02 -3.12689126e-01 -4.04697746e-01 7.36398473e-02 1.89156160e-02 2.62694638e-02 1.71061546e-01 2.53826588e-01 -3.57532471e-01 -4.26322997e-01 -1.46435156e-01 7.23404884e-02 1.32322395e-02 1.34791434e-01
3.66906464e-01 1.25671029e-01 -3.73379558e-01 3.47239017e-01 2.33507574e-01 -6.53978825e-01 1.14947259e-01 5.02510548e-01 8.35820660e-02 -3.12252074e-01 -1.32939726e-01 9.63876188e-01 3.23686600e-01 -5.68322659e-01 -1.85454324e-01 1.52833611e-01 5.22174716e-01 1.09109744e-01 2.43049040e-01 5.06690621e-01 -1.42506278e+00 -8.91834974e-01 1.52884170e-01 2.77476549e-01 2.27407306e-01 7.59945095e-01 5.93471467e-01 4.94353026e-01 -5.89745402e-01 4.86085474e-01 1.72548980e-01 -2.86870509e-01
1.17338277e-01 2.73881227e-01 -5.59595823e-01 -2.55390733e-01 1.25707972e+00 -4.51616079e-01 -4.43980932e-01 -3.54428738e-01 -7.21215189e-01 2.95055777e-01 4.43776160e-01 2.76761264e-01 6.83581054e-01 -1.37612954e-01 7.72142038e-02 1.72087312e+00 3.44181508e-01 1.33197594e+00 -5.28703034e-01 -1.31832734e-01 9.42879394e-02 -2.88655013e-01 3.15714441e-02 3.04608941e-01 3.01735029e-02 3.77912045e-01 5.44019751e-02 6.06608465e-02 -5.59682362e-02 1.49874076e-01 2.18038034e+00 -2.88299203e-01
-6.07807875e-01 7.93944970e-02 -1.20256841e-01 -5.15672505e-01 4.94741112e-01 1.24718370e-02 -3.52471806e-02 3.69985759e-01 3.74112308e-01 -1.76445559e-01 1.81683805e-02 2.33508021e-01 1.78002700e-01 1.90935135e-01 -3.45125914e-01 -4.48647231e-01 2.88966477e-01 -3.11598063e-01 -4.20203120e-01 -4.57875021e-02 -6.39556766e-01 -2.42125735e-01 1.16063267e-01 -8.30438733e-02 -2.05645412e-01 -9.33365002e-02 -1.66989669e-01 2.16475800e-01 2.56788731e-01 1.78694129e-01 1.29148901e-01 -1.02038160e-02
1.43151283e-01 -2.74144202e-01 -7.85304010e-02 -4.08238649e-01 -4.29572344e-01 -3.58590215e-01 -3.35918248e-01 2.04273999e-01 4.37122494e-01 2.18187258e-01 -5.74954927e-01 -6.89512119e-02 9.03373897e-01 -3.67232651e-01 -2.41695583e-01 -2.45991111e-01 -5.92324853e-01 -8.17788899e-01 -1.02070473e-01 8.46206956e-03 1.01501238e+00 -2.24183977e-01 -8.53943884e-01 1.29570723e-01 -7.44960085e-02 -1.10010142e-02 -4.80295211e-01 -5.39867520e-01 3.55218917e-01 -4.43359792e-01 -9.46370363e-02 3.41967821e-01
-1.60496309e-01 -2.23793283e-01 1.64105904e+00 -8.62872303e-01 -5.76799810e-01 2.34991908e-01 -7.81493187e-02 -3.61121386e-01 -6.87005296e-02 1.89250100e+00 9.97576863e-02 -2.53046900e-01 2.88506120e-01 3.21694303e+00 1.74219280e-01 -5.27325451e-01 1.81330055e-01 -2.21454740e+00 5.06205678e-01 -3.93510938e-01 3.53547364e-01 5.86144805e-01 -1.65554628e-01 8.54888439e-01 2.60226475e-03 -5.40519834e-01 3.00110877e-01 -1.91760093e-01 1.57156050e-01 8.73852149e-02 2.23373979e-01 -4.21600550e-01
-6.51191413e-01 -2.19582051e-01 1.01748466e+00 3.80862683e-01 -8.13292861e-01 6.45897865e-01 2.24331319e-02 -9.47049081e-01 3.66317332e-01 5.03794432e-01 2.18720347e-01 1.23642609e-01 -4.79728401e-01 -1.15706690e-01 5.12737334e-01 -4.40656471e+00 -1.57975912e-01 -6.22963142e+00 6.37131870e-01 -1.00587070e+00 -6.41154230e-01 4.78504658e-01 6.61090791e-01 -1.10809155e-01 -3.01195502e-01 -2.22774580e-01 -3.91223222e-01 6.14083111e-01 -6.24560118e-01 -3.58935446e-01 -1.12489772e+00 -2.17916444e-01
5.14545701e-02 -1.44707844e-01 -6.35495424e-01 -6.35536164e-02 -1.43361226e-01 -6.38913065e-02 2.66254157e-01 3.24868411e-01 3.24026197e-01 -2.60678381e-01 5.34152746e-01 -1.77455708e-01 3.30020398e-01 -8.28401148e-01 -3.43006581e-01 -2.26895474e-02 -2.18477711e-01 2.36615881e-01 -9.00987387e-02 1.54151812e-01 -4.76804897e-02 -1.47108838e-01 3.41556855e-02 -2.24576518e-01 -1.47485495e-01 7.56407320e-01 -4.11576871e-03 6.55824319e-02 -2.01394722e-01 2.60016054e-01 1.27848685e-01 3.77663791e-01
-1.15390193e+00 9.30079743e-02 -1.49314195e-01 4.37989205e-01 -1.18137173e-01 8.40264320e-01 -3.11466932e-01 -1.76359132e-01 3.44736367e-01 1.91689301e-02 -6.70868278e-01 1.44806504e-01 5.99568598e-02 -1.34383962e-01 -1.69838250e-01 -6.84267581e-01 1.28261700e-01 -6.06287241e-01 -3.92422318e-01 2.13652596e-01 1.40772295e+00 8.96668911e-01 1.27850816e-01 3.26095283e-01 -4.51707929e-01 4.44129342e-03 -4.92295742e-01 8.85937437e-02 6.80359662e-01 -1.47487745e-01 5.43517107e-03 2.10785523e-01
-5.25689363e-01 -6.47929162e-02 5.54420277e-02 1.34261489e-01 -2.20687777e-01 2.67176956e-01 -9.19186175e-01 -1.00184515e-01 7.95312673e-02 5.21232510e+00 5.64045668e-01 4.27273422e-01 2.18433499e-01 2.67231441e+00 -5.30488696e-03 -2.12788191e-02 -4.33113247e-01 -1.04509316e-01 6.21394515e-02 -2.03369215e-01 -7.12235570e-01 4.11000907e-01 1.98095843e-01 2.70493686e-01 -4.08827722e-01 -4.31057364e-01 -6.33141458e-01 3.48789752e-01 -1.45204008e-01 -6.58775747e-01 2.30416521e-01 -2.26595968e-01
-4.33569215e-02 1.47078440e-01 -5.84922209e-02 3.54713015e-02 -8.74874555e-03 2.38984339e-02 1.12605337e-02 -5.21301851e-02 -1.83433946e-02 -2.16145366e-01 6.48917332e-02 3.60953100e-02 4.72225063e-02 7.27782547e-02 1.10757507e-01 2.76419464e-02 4.07038406e-02 1.54288067e-02 -2.89199706e-02 1.04180366e-01 2.46288612e-01 1.34531379e-01 2.65020151e-02 2.70875152e-02 5.69365434e-02 2.08490100e-02 5.73748313e-02 3.00164342e-01 3.10547557e-03 3.44677456e-03 -2.04155948e-02 2.09251195e-02
1.69515982e-01 -1.47458240e-01 -6.22823477e-01 7.06973150e-02 2.06072673e-01 -1.88941494e-01 -2.10371748e-01 -3.24465513e-01 2.96611488e-01 -6.53435409e-01 7.65401274e-02 -3.50292660e-02 1.81858823e-01 8.70057046e-02 -5.21960706e-02 1.88454583e-01 -3.31096321e-01 5.20332277e-01 -1.40901431e-01 8.94523382e-01 3.11676651e-01 6.29842728e-02 -4.48722214e-01 -9.92755741e-02 -1.43847838e-01 -4.58170503e-01 8.65575790e-01 -5.15449584e-01 2.31197163e-01 3.32059920e-01 -1.96646042e-02 2.21396104e-01
-2.12917328e-01 -1.04754865e-01 -3.76029879e-01 -1.64706990e-01 5.34396350e-01 -1.17737213e-02 1.12499759e-01 6.76510483e-02 4.03406620e-01 -4.65734422e-01 -1.27840489e-01 -9.37888265e-01 4.30799693e-01 -1.84517503e-01 -1.67538673e-01 2.66774654e-01 -1.61811560e-01 4.44042981e-01 1.92424476e-01 -1.05279006e-01 -2.72281207e-02 -2.49923840e-01 4.74864841e-01 -3.00448954e-01 2.59348661e-01 1.55876711e-01 -1.34317130e-01 3.29807043e-01 6.94752345e-03 3.92253101e-01 4.96968061e-01 1.01784833e-01
6.44692034e-02 1.88239664e-01 -1.00820055e-02 6.99669868e-02 -5.74498102e-02 1.07171893e-01 -2.42157169e-02 -7.82109648e-02 6.08167425e-02 9.61970836e-02 6.43377155e-02 1.18095540e-01 -6.74800649e-02 -8.45850557e-02 1.17946789e-01 4.33270246e-01 7.19022229e-02 -3.09871078e-01 3.94668356e-02 -9.13125798e-02 -1.06770113e-01 -1.34009704e-01 2.58243503e-03 -3.25388610e-02 4.63317782e-02 1.27991289e-01 6.52378751e-03 2.05591600e-03 1.11773685e-01 1.56581365e-02 2.67079268e-02 3.44562866e-02
5.67217708e-01 -1.23489991e-01 6.71871901e-01 5.28385699e-01 -2.91097969e-01 -2.83781767e-01 -6.61632419e-01 -1.40714779e-01 -3.06202412e-01 -8.50368202e-01 -1.02504902e-01 9.78115857e-01 4.90206212e-01 -4.43519175e-01 6.87409699e-01 6.03413284e-01 -6.03854619e-02 -1.89760968e-01 5.13520956e-01 4.69122440e-01 -5.57440400e-01 1.02076724e-01 4.99065399e-01 1.83164641e-01 -1.32017117e-03 -3.77135277e-01 9.54963639e-02 4.49543953e-01 -1.32602677e-01 -8.48660618e-02 9.75943953e-02 5.17421842e-01
2.49341220e-01 -1.12096004e-01 7.11789951e-02 1.37489572e-01 2.20014043e-02 1.45371750e-01 9.30724263e-01 8.06921050e-02 4.51731890e-01 2.46656299e-01 3.11340570e-01 4.00708467e-01 -3.84400338e-01 -5.52806020e-01 9.96881947e-02 -9.36851799e-01 -5.31130582e-02 -6.84719741e-01 -8.34668800e-02 -4.35215652e-01 -5.22878528e-01 1.82571393e-02 2.52434134e-01 -6.15578443e-02 1.27453759e-01 -4.05526489e-01 -7.18764484e-01 4.22664732e-01 -9.49516296e-02 -1.99725658e-01 2.50307798e-01 -1.21860243e-01
1.24592222e-01 4.48982678e-02 -2.87771165e-01 3.92588019e-01 4.33384702e-02 3.06912392e-01 2.99973488e-01 -2.71839529e-01 -2.93405473e-01 2.71083295e-01 1.01920813e-02 9.96471792e-02 4.49553937e-01 4.28857088e-01 -2.29535148e-01 -4.90680933e-01 6.07585609e-01 -1.08331092e-01 7.32369125e-02 -1.89019933e-01 -4.35815901e-01 4.96401228e-02 -4.23575610e-01 1.42870292e-01 -3.54645371e-01 -9.04705152e-02 -6.67733103e-02 -4.59529668e-01 3.21617462e-02 -1.36277765e-01 -7.97610804e-02 -2.87271649e-01
7.50834107e-01 -4.50432003e-02 -2.52813101e-01 1.68132573e-01 1.43119901e-01 -4.76368129e-01 -4.46040630e-02 3.33453804e-01 2.83349067e-01 -2.53031421e+00 1.07683919e-01 1.67890504e-01 3.81094933e-01 -1.61613441e+00 1.40030220e-01 3.30474913e-01 1.35273069e-01 2.32285768e-01 -2.32509658e-01 -1.00498395e-02 4.94263172e-01 -2.07488358e-01 -3.05738807e-01 -3.76420096e-02 -3.59890640e-01 -1.90316632e-01 -5.75213097e-02 -1.64608762e-01 2.35998079e-01 1.04273356e-01 -1.63113862e-01 -1.86200902e-01
-9.00951028e-01 1.60903066e-01 1.07897855e-01 1.12947136e-01 -3.03244799e-01 -3.30096871e-01 1.09642720e+00 -1.02814093e-01 -1.07716835e+00 7.51035094e-01 -7.51459956e-01 5.69115467e-02 1.73356310e-01 7.24932253e-02 -7.17452705e-01 4.56531495e-01 6.12815678e-01 2.78754115e-01 3.53254557e-01 2.25615483e-02 -4.02451575e-01 5.35457253e-01 5.39251208e-01 9.48125064e-01 -5.21634877e-01 5.10478735e-01 -6.25330865e-01 2.54893839e-01 7.93344557e-01 -4.62626129e-01 1.01842552e-01 9.93802994e-02
-5.20451128e-01 6.07504129e-01 -5.96501008e-02 -1.23657718e-01 5.77811956e-01 1.44646570e-01 -1.56129841e-02 5.00906646e-01 -3.10707569e-01 4.67173815e-01 8.31074119e-02 -1.71780884e-01 2.02568397e-01 1.91714212e-01 -5.49342752e-01 -2.29039162e-01 -1.21321030e-01 -7.25406781e-02 4.03027892e-01 -3.69494379e-01 -2.26841401e-02 -2.94344366e-01 9.77053680e-03 -5.26198626e-01 8.01604688e-02 -2.14459121e-01 -5.46710670e-01 -4.91238236e-01 1.49928704e-01 -3.50043714e-01 -2.45446056e-01 -2.55857319e-01
-1.73523709e-01 1.96643561e-01 4.48262006e-01 3.86014879e-01 -2.77922213e-01 -2.53818721e-01 -8.74170810e-02 -1.35867428e-02 3.00156683e-01 -3.98092538e-01 -5.59298873e-01 -1.02778807e-01 -2.95665175e-01 -2.33627796e-01 1.00409456e-01 5.29754639e-01 -1.23825289e-01 1.91211894e-01 2.80948222e-01 1.57818705e-01 1.26794919e-01 -7.58343339e-01 1.94638476e-01 1.58265710e-01 2.52107084e-01 1.29600033e-01 3.65367197e-02 -5.70882738e-01 -2.63496310e-01 -8.61173570e-02 1.30073294e-01 -2.31876716e-01
-8.01333964e-01 4.61084068e-01 -6.28590286e-01 -1.01536751e+00 -1.71714887e-01 -2.21635595e-01 -3.33243400e-01 4.44324315e-01 1.11069001e-01 4.61448371e-01 -5.68663478e-02 1.87367603e-01 1.87688529e-01 2.83318490e-01 -2.82630976e-03 1.10089374e+00 6.79727495e-01 1.23565769e+00 -8.37476373e-01 6.98626637e-02 5.82232893e-01 -7.68162787e-01 -6.35916829e-01 4.02473301e-01 -1.59361839e-01 -4.26111013e-01 2.71630466e-01 2.24040642e-01 6.00854158e-01 -8.18036795e-01 2.04137713e-01 -2.39954859e-01
1.82365865e-01 -5.36915898e-01 -3.75853106e-02 -1.10194139e-01 -6.54879749e-01 5.04661441e-01 6.31262586e-02 -4.88031089e-01 5.23299277e-01 8.73564184e-01 -2.15865046e-01 1.11393780e-01 5.44249058e-01 3.89547765e-01 1.28873559e-02 -1.05462158e+00 -4.57843512e-01 -1.07878733e+00 8.11327696e-02 2.08500132e-01 2.30667278e-01 3.51095706e-01 1.79788858e-01 1.49117261e-01 2.76770711e-01 9.60045457e-02 -4.05566126e-01 -2.40523338e-01 -2.88662463e-01 -3.33155155e-01 4.25015569e-01 2.97464311e-01
-4.15416248e-02 -9.88712490e-01 3.46430749e-01 1.59767270e+00 1.48848236e-01 8.18720013e-02 -7.44545981e-02 -2.80450195e-01 -2.51979530e-01 2.28515074e-01 1.09162807e+00 -9.62281048e-01 -1.12142062e+00 -3.23603451e-01 1.87027097e-01 -5.66342659e-02 -1.21064162e+00 6.10681653e-01 6.43589139e-01 -6.88541472e-01 8.71894240e-01 1.78378001e-01 1.64976274e-03 1.93958934e-02 1.21324677e-02 -5.25215745e-01 2.20217064e-01 8.06759577e-03 -8.95646155e-01 1.28233600e+00 -6.09727681e-01 -3.14031169e-02
-6.64184570e-01 -1.43930912e-01 3.64847541e-01 8.78366828e-02 -6.44159392e-02 1.93869412e-01 2.29889050e-01 1.29650012e-01 -3.89081866e-01 -2.71200895e-01 -1.00691199e+00 3.20699841e-01 5.43867528e-01 4.05642204e-02 1.33130744e-01 -1.99080721e-01 3.94325018e-01 -1.90117076e-01 -1.33729309e-01 -3.19661677e-01 -7.05881059e-01 2.02075437e-01 -2.08354052e-02 -7.26060212e-01 2.38097459e-01 6.71824813e-01 -1.69000760e-01 -1.82568952e-02 -3.49132776e-01 -2.48484269e-01 -2.35873431e-01 -7.32735544e-02
-3.17338645e-01 -3.38558167e-01 -1.65209085e-01 -1.54953152e-01 -2.15575218e-01 -3.46594788e-02 2.11306736e-01 2.73995370e-01 -5.94727039e-01 1.33152378e+00 -1.48513198e-01 -9.81878713e-02 -4.98762071e-01 4.60952431e-01 -1.48935452e-01 -4.25527571e-03 2.73430943e-02 1.40555069e-01 -4.46039438e-02 -1.83066294e-01 2.27362171e-01 1.44599780e-01 3.45508605e-01 2.19183899e-02 5.91200739e-02 -5.31079620e-02 -1.94227412e-01 1.80081412e-01 3.03709477e-01 3.09135258e-01 1.46649200e-02 9.66648310e-02
-2.43530106e-02 -3.46975625e-01 1.88850574e-02 -1.04020037e-01 -4.30590421e-01 4.26627785e-01 -2.40075290e-01 -4.60981131e-01 1.27942219e-01 -4.45663095e-01 2.94674318e-02 4.43903178e-01 2.00187191e-01 3.91401827e-01 3.07904541e-01 -6.29593849e-01 -4.54928964e-01 -1.33646345e+00 1.29003692e-02 -3.20094466e-01 -1.14030965e-01 8.62206161e-01 4.08915222e-01 5.94617963e-01 -4.43366975e-01 1.35861039e-01 1.27423882e-01 -2.39995077e-01 -3.92648518e-01 -2.63965666e-01 -1.23629279e-01 -1.07156999e-01
4.62516695e-02 -3.04646529e-02 1.19466148e-01 -8.35631639e-02 2.58439749e-01 -1.14964120e-01 5.69720082e-02 -3.40877652e-01 -1.47021830e-01 3.85509700e-01 1.54335216e-01 1.71839729e-01 7.13173449e-02 -2.99004227e-01 -7.84597397e-02 -3.10298771e-01 8.33737999e-02 1.46628588e-01 -1.46241158e-01 -5.24949014e-01 1.54624045e-01 -1.79010123e-01 -1.46534190e-01 -5.72808906e-02 -7.66394055e-03 2.03150168e-01 -5.44819608e-02 -1.19865471e-02 1.08947016e-01 7.43820444e-02 2.76018996e-02 8.13452154e-03
1.02802053e-01 -5.58988988e-01 -1.60872996e-01 7.65103221e-01 -3.83476555e-01 -5.20777285e-01 1.44650638e-01 -1.38589606e-01 -1.07672371e-01 2.93935919e+00 -5.38707972e-01 9.26678360e-01 6.50342345e-01 8.79759431e-01 7.83148587e-01 5.27068265e-02 -1.81095470e-02 -8.24092701e-03 5.54130912e-01 3.34665924e-01 2.47689158e-01 1.73411518e-01 -2.48710424e-01 1.04982829e+00 -2.76905522e-02 1.33879483e-01 -3.05831969e-01 2.78967619e-01 8.32825005e-02 6.59750924e-02 8.77207935e-01 7.53639080e-03
-1.41416103e-01 1.79137141e-01 1.31833211e-01 7.37699717e-02 3.56061831e-02 -2.30279695e-02 -6.17682061e-04 1.26512900e-01 -1.49074839e-02 -5.20241559e-02 1.62840366e-01 7.15243891e-02 9.34321657e-02 -5.93309626e-02 1.70612648e-01 1.97166935e-01 3.49445418e-02 -1.43443078e-01 -4.75050434e-02 8.34362209e-02 -1.56948984e-01 -3.93748879e-02 2.91831791e-03 1.51597066e-02 -4.75401580e-01 -2.22622544e-01 4.61821333e-02 -1.19135171e-01 -6.31342679e-02 -5.11821620e-02 -2.60002855e-02 -4.47827637e-01
4.50232513e-02 -4.82071564e-02 -5.31757697e-02 1.74039155e-02 -2.31672332e-01 -9.76277608e-03 -5.60284257e-02 1.48658723e-01 4.71798331e-02 -6.90968931e-02 -2.97029056e-02 7.76044093e-03 -6.17334284e-02 3.91535312e-02 -1.15486212e-01 2.55198807e-01 -8.47211629e-02 -8.29145759e-02 4.68307249e-02 3.59748721e-01 -3.01602244e-01 -9.28478837e-02 -9.03616380e-03 -4.91758399e-02 5.19049307e-03 -8.67066234e-02 -6.70440197e-02 -1.22046126e-02 -7.81145692e-02 3.99347395e-02 3.39133106e-02 -1.43363629e-03
8.59579563e-01 -2.75813788e-01 2.92591393e-01 3.60140264e-01 -3.64283055e-01 6.34184713e-03 -5.84046841e-01 -1.34547148e-02 6.88060105e-01 6.31322712e-02 -1.63414419e-01 2.79732849e-02 3.72138843e-02 2.39107445e-01 7.46155262e-01 -6.90253794e-01 -4.59315509e-01 -7.23844886e-01 5.21938860e-01 -2.75960803e-01 -7.35875607e-01 1.99375063e-01 -1.27882019e-01 2.20515922e-01 8.05477381e-01 -4.64125387e-02 2.44399801e-01 -1.50591791e-01 -5.50700784e-01 2.44003758e-01 1.02616601e-01 9.09581631e-02
1.76931739e-01 -4.08980548e-01 -2.77516603e-01 4.31220025e-01 1.54155999e-01 -6.19883418e-01 4.99655716e-02 -7.14339986e-02 2.90813535e-01 -2.78340280e-01 -2.06435263e-01 4.26681161e-01 3.24327081e-01 -2.92069584e-01 2.52463937e-01 -7.09204555e-01 -3.40065181e-01 -8.62134337e-01 6.12727582e-01 -4.13747877e-01 -2.40575388e-01 -8.46682787e-02 3.41721177e-01 6.51229501e-01 -1.22010469e-01 -3.52488607e-01 4.66939658e-01 -5.33826984e-02 -1.78481683e-01 -3.98347110e-01 6.85516223e-02 2.14140505e-01
1.76898111e-02 -6.16603456e-02 7.87441492e-01 6.26308247e-02 -1.21711469e+00 -3.19372773e-01 2.07978204e-01 -1.05209842e-01 6.92895532e-01 6.01983666e-01 -1.87421978e-01 -3.20355207e-01 5.23062088e-02 7.23801374e-01 2.41755489e-02 -2.30594492e+00 -3.37649822e-01 -2.95113778e+00 1.55770153e-01 1.88040156e-02 -8.01572680e-01 6.97212100e-01 1.96816012e-01 1.11901321e-01 3.17731470e-01 1.70190662e-01 2.92571694e-01 1.61364138e-01 -1.06390268e-01 -8.05533826e-01 -5.97266078e-01 7.73991123e-02
-1.47991091e-01 -2.24657640e-01 -2.77992338e-01 -2.83024073e-01 -2.14131206e-01 5.19754708e-01 1.43496588e-01 -1.15880914e-01 -1.25524789e-01 3.25765580e-01 -1.98578089e-01 1.79426834e-01 5.85285500e-02 -3.03069085e-01 -1.62367135e-01 -4.17752713e-01 3.36121947e-01 -5.42038441e-01 -2.72466242e-01 5.84714077e-02 -3.79867166e-01 3.76830697e-01 -1.62548512e-01 3.30978394e-01 3.72017652e-01 -5.09412408e-01 4.83120531e-01 7.59545043e-02 5.38381115e-02 1.26621559e-01 -1.06384531e-01 3.10798902e-02
4.15763527e-01 6.71098173e-01 6.37860596e-01 -3.82948905e-01 2.38175884e-01 1.89392060e-01 1.64949834e-01 -1.09691828e-01 -8.27336073e-01 1.00135326e+00 -2.66902179e-01 -2.56722212e-01 -4.56095070e-01 1.15604162e+00 1.65628970e-01 1.60461694e-01 1.65137928e-02 -8.50404918e-01 2.54890144e-01 -2.97494054e-01 7.59107992e-02 6.70063198e-01 -1.19777299e-01 -3.74783188e-01 6.59182131e-01 -7.81465471e-01 5.10573149e-01 -9.93366390e-02 -2.91741967e-01 -5.85522652e-01 -4.01404162e-04 -4.69673723e-01
-4.27456349e-02 -3.84328455e-01 1.65877759e-01 -1.50522634e-01 -2.08878547e-01 1.38002157e-01 7.50086904e-02 -3.14686388e-01 -4.33227718e-01 -3.28603804e-01 -8.29552636e-02 -7.38046551e-03 -1.25223547e-01 4.71913546e-01 5.25924206e-01 2.57939816e-01 2.68924922e-01 -4.96662498e-01 6.79785162e-02 1.40974492e-01 -2.49413177e-01 2.79492706e-01 -3.73115242e-01 2.39219606e-01 -6.74639642e-02 -2.96729952e-01 4.31349337e-01 7.44172454e-01 -4.10468400e-01 -4.43264037e-01 2.91470617e-01 3.31613272e-01
-1.22890258e+00 -7.89681375e-02 8.48515779e-02 -1.27100015e+00 6.03677370e-02 -6.31625904e-03 2.67655283e-01 5.34115076e-01 -5.54571114e-02 5.26698232e-01 -1.06680655e+00 9.14735258e-01 1.04940724e+00 4.30395842e-01 -5.45937300e-01 4.86613363e-01 3.66776347e-01 -2.53820986e-01 -3.48194242e-01 9.26933944e-01 -5.98384857e-01 -3.41883421e-01 -2.51326591e-01 -2.51914114e-02 5.59804976e-01 9.47823942e-01 8.97037327e-01 6.79003775e-01 4.56802160e-01 -9.70723152e-01 2.23541126e-01 2.53975689e-01
-8.79893154e-02 1.12525508e-01 2.91853696e-01 -4.13422436e-02 3.55078340e-01 -1.10036545e-01 -1.46908875e-04 3.04579064e-02 -9.77133866e-03 2.34973073e-01 3.01122908e-02 1.32345753e-02 -1.67234279e-02 -1.26299843e-01 7.76330680e-02 -1.71370760e-01 1.10002078e-01 4.80533466e-02 1.63392462e-02 -4.07168061e-01 1.57899663e-01 -1.20261587e-01 -1.37421023e-02 -5.19121811e-03 1.53494880e-01 -2.36935280e-02 7.97637403e-02 1.09365657e-01 3.90716828e-02 -8.54512751e-02 3.88241410e-02 5.77752143e-02
-1.11697450e-01 2.50487566e-01 3.20175737e-01 -1.54893771e-01 1.57242626e-01 1.02634184e-01 6.91739500e-01 3.13094258e-01 1.02051042e-01 -1.18237722e+00 -3.77458662e-01 5.66603661e-01 6.86483800e-01 -2.92378724e-01 -4.76192772e-01 -4.11292911e-02 5.15665650e-01 -3.53042722e-01 -2.19628885e-02 -5.03499150e-01 8.70240986e-01 -2.64172643e-01 1.60193946e-02 -1.28161979e+00 -2.31855556e-01 5.36890924e-01 -1.02355754e+00 -7.73993194e-01 2.93535382e-01 -1.71011761e-01 -2.04087514e-02 -6.68444633e-02
6.59376621e-01 -3.16719025e-01 -2.61999905e-01 4.55351591e-01 -1.84927210e-01 -8.35385472e-02 -1.44483194e-01 -2.22206846e-01 5.54441869e-01 -1.20805360e-01 -9.14847106e-02 -6.77445456e-02 7.37179995e-01 -3.55370522e-01 3.67459565e-01 -5.85296631e-01 -4.16062772e-02 -7.16071844e-01 5.78229487e-01 -8.70530307e-02 -3.20450813e-01 9.89649147e-02 1.41435787e-01 1.61981970e-01 -1.03019644e-02 -2.36952171e-01 8.11387599e-01 4.77956414e-01 -4.22211498e-01 3.51718843e-01 1.55839264e-01 2.67577052e-01
-2.61931121e-01 3.27221841e-01 -1.76183119e-01 -4.89421748e-02 -5.46160579e-01 -1.81107879e-01 9.00765657e-02 4.80689436e-01 -9.47284102e-02 -5.81345797e-01 -1.89593524e-01 -1.68402400e-02 -3.35649997e-01 1.34104118e-01 2.71151990e-01 -1.50093883e-01 -9.09805894e-02 2.74368346e-01 -1.85629670e-02 3.65453601e-01 -2.25946382e-01 -4.17715721e-02 1.84171870e-02 -5.08378819e-02 -1.10037804e-01 -9.51325372e-02 2.67644018e-01 -2.82366097e-01 1.13398746e-01 6.15119655e-03 -3.72800487e-03 1.63476840e-01
9.89175513e-02 -5.13544321e-01 -1.17341802e-01 -1.17412716e-01 -1.44841243e-02 -1.89660877e-01 -8.86740983e-02 -1.73254877e-01 -3.84400785e-01 4.00289118e-01 -2.24032756e-02 9.39589664e-02 3.65532696e-01 2.55098969e-01 -1.75516069e-01 -5.92659354e-01 -1.74124181e-01 -5.90939894e-02 7.52166845e-03 8.66050422e-02 7.37275481e-02 -4.45414670e-02 5.59302568e-01 1.81149710e-02 -3.40809077e-01 2.48326331e-01 3.28944564e-01 7.35997707e-02 -7.09021986e-02 1.11960687e-01 -7.21592382e-02 -2.45619014e-01
9.56909239e-01 -7.24162757e-02 -5.84087372e-01 1.24869779e-01 4.11279947e-01 1.67569190e-01 5.43801069e-01 2.49503419e-01 -3.92007530e-01 -8.73308301e-01 -9.13603902e-01 1.44214737e+00 1.69822171e-01 -8.64712477e-01 3.71338964e-01 1.05847728e+00 -2.46321075e-02 9.71605539e-01 -2.64202267e-01 6.11580648e-02 -1.36762488e+00 -3.55814666e-01 -7.18449295e-01 -1.43373042e-01 -3.65078717e-01 1.28658503e-01 1.70220762e-01 4.59578186e-01 3.45823839e-02 1.93040203e-02 -8.33412260e-03 2.81340152e-01
-1.40206248e-01 7.31337816e-02 -9.87580657e-01 -5.86617105e-02 4.05810773e-01 3.57585222e-01 4.22117822e-02 3.17080840e-02 -2.71551497e-02 4.40914601e-01 -3.82155716e-01 -1.21340477e+00 3.69823366e-01 2.18776390e-01 -3.32632095e-01 7.24953294e-01 -5.74971773e-02 1.52914488e+00 -4.77555484e-01 1.21041313e-01 3.06975096e-01 -1.45854652e-01 1.00343777e-02 7.06270397e-01 -2.57725656e-01 7.80024290e-01 -8.48456696e-02 -2.85737932e-01 1.18515968e-01 1.48311496e-01 7.10249901e-01 -7.95528591e-02
4.15492617e-03 3.55697185e-01 -1.94192827e-01 -6.04464471e-01 -1.29165156e-02 7.21203387e-01 2.82713860e-01 7.85999537e-01 3.19739908e-01 2.73260534e-01 9.69310880e-01 -2.80978560e-01 7.48269707e-02 2.24265307e-01 4.86820824e-02 -6.71233714e-01 2.84465134e-01 -3.73851485e-03 -3.19439709e-01 -5.40682971e-01 -4.85760607e-02 -2.52192408e-01 2.54980147e-01 1.50588080e-01 -2.23438308e-01 1.69003904e-01 4.60193269e-02 -2.77643111e-02 -5.68082929e-01 2.69017488e-01 -2.25106299e-01 1.12494446e-01
8.49181563e-02 1.30165899e-02 -1.25141680e-01 -2.73877010e-03 -3.27837020e-02 4.19237986e-02 -4.13024332e-03 7.95797184e-02 -1.22512458e-02 -4.38905247e-02 -5.76999113e-02 -3.87175530e-01 2.52613395e-01 2.38205045e-01 1.29776187e-02 1.25184268e-01 5.73279932e-02 -5.22236414e-02 1.09677300e-01 2.49793485e-01 1.27396032e-01 2.83280969e-01 -9.71035007e-03 2.44897425e-01 -1.24336794e-01 -2.80188739e-01 -1.86378017e-01 -1.75701097e-01 -3.00755411e-01 -1.56635955e-01 1.73331760e-02 -2.58189857e-01
3.52143764e-01 8.92897602e-03 6.04332626e-01 3.70564580e-01 2.44574457e-01 4.80411738e-01 8.99870992e-01 -3.11386675e-01 8.06299031e-01 -1.94454566e-02 -6.09384060e-01 9.91833210e-02 -4.93687600e-01 -3.82301748e-01 1.86588932e-02 9.14859846e-02 -6.35157704e-01 -6.15975738e-01 2.19581649e-01 -3.44896913e-02 -3.00946198e-02 6.14718914e-01 2.72039771e-01 6.18490398e-01 8.61515701e-02 -1.00844465e-01 -2.61166692e-01 1.07876562e-01 2.40204185e-01 3.89801145e-01 -8.97830576e-02 -4.95601520e-02
-3.16426635e-01 -5.31680346e-01 1.52996039e+00 1.10575341e-01 -1.01670253e+00 -1.44222781e-01 -1.21935189e+00 -1.02298558e+00 3.24802905e-01 1.08712018e+00 5.63401580e-02 -5.42063415e-01 -3.15836072e-01 1.01220155e+00 6.43508017e-01 -2.19180965e+00 1.43076822e-01 -2.92763066e+00 1.83051550e+00 8.00984383e-01 -5.47041833e-01 1.70883179e+00 -3.97345513e-01 2.54752219e-01 3.03228348e-01 -7.24040091e-01 -2.32200623e-01 3.96443486e-01 1.43839076e-01 6.12133071e-02 7.97780752e-01 2.00861394e-01
-6.53686235e-03 -1.94482058e-02 7.52696916e-02 4.22301404e-02 3.83955657e-01 4.79908334e-03 -1.69282798e-02 2.29440350e-02 3.04881018e-02 -3.06023024e-02 -1.77283753e-02 -7.69118220e-02 1.03482865e-01 -3.10273021e-02 -3.94717325e-03 -3.71714979e-02 -1.52927241e-03 -4.47428674e-02 -8.43062028e-02 7.43577257e-02 1.31768510e-01 6.77358359e-02 -1.72506180e-03 1.53288599e-02 -1.45959049e-01 -1.45292357e-01 1.59920976e-02 3.77841830e-01 -5.06539792e-02 -5.37088588e-02 -2.72711143e-02 -2.36800417e-01
-3.95486355e-01 8.54454711e-02 -1.07287161e-01 -1.04673415e-01 -2.82560408e-01 -6.88853441e-03 -4.96995263e-02 7.15591669e-01 -1.15223296e-01 -4.81513999e-02 -2.02578649e-01 7.89400339e-01 5.29473782e-01 3.36237639e-01 1.98685482e-01 9.49709862e-02 -6.09146282e-02 4.16666567e-02 -1.50644913e-01 1.20225623e-02 -1.25888944e-01 -6.02569103e-01 -2.10237384e-01 -2.56225437e-01 -3.17018449e-01 -1.47233963e-01 -6.42214119e-01 3.98785770e-01 -2.27904618e-01 -2.90160626e-01 -1.95705861e-01 4.91834223e-01
-1.25242257e-02 -1.84238106e-01 6.52442634e-01 2.53908098e-01 -7.67601311e-01 2.44208992e-01 2.72350848e-01 -6.16509020e-01 5.63785732e-01 3.02077770e-01 -8.58981162e-02 3.90631109e-01 -8.97914544e-02 7.69444406e-02 1.82144374e-01 -2.16299033e+00 1.16355501e-01 -1.19532955e+00 1.14736021e-01 1.81502908e-01 -5.99760786e-02 2.24503741e-01 2.53320247e-01 1.39850482e-01 -2.01892465e-01 -5.38765550e-01 -8.30944031e-02 -1.86615884e-01 -4.40619737e-01 -4.90059137e-01 4.10164624e-01 -3.32730502e-01
-1.33005172e-01 7.45091140e-02 -1.56677037e-01 1.29259944e-01 -1.34716123e-01 -8.60768259e-02 2.79546291e-01 -1.82572111e-01 -5.70057154e-01 1.60939789e+00 -3.99264157e-01 -4.45522815e-02 -2.52424061e-01 1.24866188e+00 -2.79533029e-01 5.06456569e-02 5.56111746e-02 4.17589210e-02 -8.56226534e-02 -2.64986306e-01 5.94128575e-03 2.17855841e-01 -9.73410606e-02 -2.03688100e-01 -1.74727574e-01 8.72254893e-02 4.09042001e-01 4.77565199e-01 1.49342105e-01 -4.89541918e-01 2.33195961e-01 -5.83039187e-02
-1.74750760e-01 -2.66911775e-01 6.27807081e-01 5.11218965e-01 -1.43303484e-01 -3.07894856e-01 -1.02911735e+00 1.39195189e-01 2.13894650e-01 5.00921667e-01 1.14600927e-01 -8.68703648e-02 8.72177929e-02 2.63083518e-01 -1.74103916e-01 4.79402483e-01 -4.78637964e-02 1.57094136e-01 -1.77403852e-01 -3.80273759e-01 9.94108975e-01 3.67852002e-01 4.16925788e-01 -5.45261323e-01 2.21262295e-02 -1.10839168e-03 -1.77071914e-01 2.25564510e-01 -1.02504306e-01 3.64411980e-01 -9.20286030e-02 -2.87844032e-01
1.00645673e+00 -3.42779756e-01 5.12567103e-01 9.10922229e-01 -4.05875534e-01 2.68861353e-01 -7.23767281e-01 -4.97231424e-01 4.80169475e-01 -8.99169683e-01 -3.40175360e-01 7.89733529e-01 -1.16703963e+00 -3.00951064e-01 6.36050284e-01 -4.06795532e-01 -3.68293263e-02 -2.50070542e-02 5.16106963e-01 7.92910337e-01 2.98680246e-01 -4.04399186e-01 -2.03616500e+00 -5.80418944e-01 5.70541799e-01 6.33834362e-01 -8.81254733e-01 -3.66508424e-01 7.05218092e-02 1.18692994e+00 -5.06209373e-01 -1.26162589e-01
-4.43386361e-02 1.82083458e-01 -5.95904365e-02 -4.44599874e-02 -1.38020054e-01 -1.85849834e-02 3.19799557e-02 -2.46999692e-02 -4.93373200e-02 -3.65210623e-02 4.73033935e-02 7.88646638e-02 8.51991996e-02 -9.22839716e-02 1.70560330e-01 -1.48824438e-01 1.10619746e-01 1.78126365e-01 -5.00785969e-02 -2.83713818e-01 1.47610828e-01 3.14083919e-02 -4.98838257e-03 -6.23722607e-03 -3.14899117e-01 -4.00368012e-02 2.28678044e-02 -8.46060738e-02 -9.37019195e-03 -2.72971857e-03 -3.98426875e-02 -2.07317665e-01
1.06525600e-01 3.45711350e-01 1.67224467e+00 4.23952967e-01 -1.33432519e+00 1.50358096e-01 -1.89349666e-01 -5.81965327e-01 8.63405108e-01 5.50369203e-01 2.29277387e-01 -4.08229440e-01 -8.83354187e-01 9.09065247e-01 1.08979712e-03 -3.60603309e+00 -2.04704389e-01 -4.73934412e+00 4.29916114e-01 1.62919194e-01 -1.21569538e+00 1.00132930e+00 3.29314291e-01 1.37674898e-01 1.53148592e-01 -1.55057758e-01 -5.38029194e-01 6.70563102e-01 -2.36692712e-01 -2.65181884e-02 -1.62328370e-02 7.96776190e-02
-7.59466708e-01 2.28770033e-01 5.88651933e-02 -6.94979370e-01 1.23710915e-01 -2.08316043e-01 -2.49175191e-01 4.61446613e-01 -3.30278017e-02 -5.62019013e-02 1.65932074e-01 -3.51175964e-01 3.91707391e-01 3.72992516e-01 -4.39526021e-01 -1.96929410e-01 2.59970576e-01 2.40938757e-02 -3.22100163e-01 2.23872691e-01 9.42162052e-02 6.47753596e-01 1.77587092e-01 -3.19134325e-01 1.88451670e-02 2.83554435e-01 -6.60280764e-01 -3.46923657e-02 2.99456753e-02 -5.00149786e-01 -1.69369474e-01 -9.28003848e-01

layers.2.bias:
-1.39581835e+00
-8.27486992e-01
6.52983725e-01
-5.52532017e-01
2.67734826e-01
-3.49229544e-01
2.80509681e-01
2.15237522e+00
5.88669896e-01
8.45470905e-01
-8.93973053e-01
-1.44395113e+00
-4.01743114e-01
9.43038285e-01
-4.19150978e-01
-7.03364313e-01
-7.73608014e-02
-7.92119205e-01
3.60976368e-01
-8.45827311e-02
-1.39303744e-01
8.03741753e-01
8.99363875e-01
-1.43647581e-01
-3.82518947e-01
1.06872845e+00
-1.04062176e+00
-1.08618867e+00
5.12064159e-01
-1.13066792e+00
1.77562594e-01
-5.32479249e-02
8.03378880e-01
1.23609088e-01
-3.68076831e-01
-3.89394574e-02
-9.14756656e-02
1.40173590e+00
1.04407871e+00
-1.03375509e-01
1.03032136e+00
-2.19011053e-01
-5.45739591e-01
1.42321002e+00
2.57288724e-01
-9.82082963e-01
1.05746186e+00
-3.71642411e-01
8.46594155e-01
1.72987199e+00
1.78775579e-01
3.20542246e-01
1.10037841e-01
-7.01067269e-01
1.68413624e-01
-3.81865762e-02
8.15769732e-01
-1.14316061e-01
-3.69680487e-02
-7.09535003e-01
6.67052448e-01
5.40075935e-02
-2.53611743e-01
7.78676271e-01

layers.4.weight:
3.84726673e-01 7.16585517e-02 -5.72549663e-02 2.57880054e-02 1.85694285e-02 6.16670474e-02 2.96324288e-05 -7.51837909e-01 3.64678055e-02 -3.96119535e-01 4.65986878e-02 9.50199366e-01 -2.04895377e+00 -1.54522777e-01 -6.74543480e-05 -1.41130519e+00 -9.81401608e-05 8.29193220e-02 -2.42673475e-02 -1.73567416e-04 -2.13709548e-02 -6.79241195e-02 -3.92544530e-02 2.08159134e-01 -7.05591142e-02 -5.72243556e-02 4.31507155e-02 8.38563919e-01 -3.68660152e-01 3.98004383e-01 -2.36033630e-02 -9.64003727e-02 -4.21412885e-02 5.64621761e-04 1.01409957e-01 3.14312085e-04 -2.21044999e-02 -2.20665738e-01 -5.11768684e-02 2.13439360e-01 -7.01874495e-02 3.26418668e-01 6.62471801e-02 -1.34930432e-01 2.95823527e-04 1.18854217e-01 -5.67829497e-02 1.79819122e-04 -1.05478413e-01 -7.07387209e-01 -9.32938978e-02 8.32858309e-03 2.51702841e-05 6.49494827e-02 -1.32249296e+00 -2.12130210e-04 -1.76229719e-02 -3.31153423e-01 -5.48271835e-02 5.17033786e-02 -3.66779231e-02 6.06462068e-04 8.03817749e-01 -2.80815419e-02

layers.4.bias:
-1.13312435e+00

