layers.0.weight:
3.31696361e-01 -5.67613244e-01 7.97264636e-01
5.69172144e-01 -8.09445798e-01 -5.80563486e-01
-8.31293464e-02 -6.13938749e-01 -5.77727258e-01
-1.07055378e+00 1.15616508e-01 4.58123112e+00
2.67282110e-02 4.11940843e-01 1.16166264e-01
-5.79876065e-01 8.58121514e-01 -1.84879377e-01
-1.31842160e+00 4.86020595e-01 -9.88645032e-02
-6.01682402e-02 7.88846374e-01 -9.23566997e-01
6.03414774e-01 -9.26082134e-01 5.12713566e-02
-1.11527514e+00 5.86289167e-02 -1.64189592e-01
7.53551662e-01 -9.85680073e-02 1.41279221e+00
-7.16238439e-01 -1.31785080e-01 -1.29353356e+00
-4.30584475e-02 7.12955832e-01 -1.57757306e+00
-1.16726887e+00 2.10410804e-02 5.00053525e-01
-6.46977663e-01 1.09646142e+00 7.52028525e-01
-1.81771189e-01 9.48456824e-01 1.64468549e-02
5.46070874e-01 -6.33792400e-01 -1.45019031e+00
-1.15504665e-02 1.12846863e+00 1.84981868e-01
8.07071701e-02 -9.54183042e-01 5.35116851e-01
3.41117471e-01 -1.28724232e-01 -8.64976227e-01
2.23475501e-01 1.65966094e-01 -5.10879010e-02
-3.24195027e-01 -2.56797969e-01 -1.00232065e+00
-4.64660525e-01 1.65601885e+00 -4.46076952e-02
-1.56447518e+00 4.06930357e-01 1.75152493e+00
1.05132234e+00 3.79940838e-01 -7.78481364e-01
2.59609371e-01 6.71772659e-01 -1.17486012e+00
-1.16151750e-01 -2.13369340e-01 1.90187418e+00
-3.97779703e-01 -2.44972542e-01 1.92939892e-01
3.22416067e-01 7.57217348e-01 -1.46468067e+00
-1.04933763e-02 4.65525806e-01 1.70563948e+00
-2.89658904e+00 2.84448242e+00 -1.78299040e-01
-1.26738083e+00 -5.19488692e-01 1.02004325e+00

layers.0.bias:
8.77201200e-01
4.81547834e-03
-1.42384720e+00
-6.34384930e-01
7.07518518e-01
-2.04255387e-01
-3.54310095e-01
2.86240637e-01
-7.45998621e-01
-1.59115899e+00
1.64644122e-01
1.80825554e-02
2.46107668e-01
-1.21306002e+00
-2.90836543e-01
1.43946290e+00
9.34610724e-01
1.82654703e+00
-6.68276668e-01
5.78918040e-01
-1.44309163e-01
-1.35729384e+00
1.02535832e+00
-7.05530941e-02
1.36946186e-01
5.60703695e-01
8.80503118e-01
-1.57881156e-01
-4.88352716e-01
7.31267482e-02
8.91685039e-02
-6.70209900e-02

layers.2.weight:
-3.98973823e-01 1.57490924e-01 1.04438953e-01 -5.02567828e-01 -5.07353730e-02 7.94067532e-02 7.17427284e-02 -1.76816434e-02 -1.40390769e-01 2.82867289e+00 7.09304959e-02 5.32478914e-02 -2.00320542e-01 2.39621973e+00 -1.05840959e-01 4.44371194e-01 -9.34875160e-02 6.61642611e-01 5.64543344e-02 -2.75917917e-01 2.88152486e-01 -4.32686470e-02 -4.27877098e-01 5.89076161e-01 -7.49703124e-02 6.40473425e-01 -8.11372817e-01 -1.76514074e-01 -1.43133000e-01 -2.27966532e-01 -2.90730685e-01 2.40525708e-01
-4.85058092e-02 1.29966602e-01 -9.33548570e-01 6.95528910e-02 -1.31494939e-01 1.16243318e-01 -9.09365058e-01 -4.89733815e-01 4.99157637e-01 5.75071573e-01 3.88986498e-01 -3.40427071e-01 2.34004915e-01 -1.97637886e-01 -2.86361575e-01 4.95222211e-01 -3.71011257e-01 6.34088159e-01 -4.53689635e-01 -5.72514385e-02 6.91196024e-01 -1.86277241e-01 -3.31245542e-01 -2.54056975e-02 1.76457856e-02 -6.89924732e-02 -3.08465332e-01 -6.17185295e-01 6.24986440e-02 -1.96058661e-01 -1.91533044e-02 1.75142154e-01
1.25949800e-01 5.53448796e-02 1.33654058e-01 -5.33042848e-01 -1.05390465e+00 -1.68386906e-01 -5.14517605e-01 1.11438289e-01 6.67705119e-01 7.27456510e-01 -3.40983868e-01 -2.47779071e-01 -5.65088205e-02 3.62676680e-01 -1.98809221e-01 -1.49719632e+00 -3.76971036e-01 -1.38508415e+00 1.24855794e-01 -8.73506814e-02 -5.21964014e-01 -3.43845785e-01 2.13608101e-01 -9.91713881e-01 -8.01668465e-01 1.95127711e-01 -9.55536664e-01 5.62732458e-01 2.22483188e-01 -1.67772889e-01 -4.76086698e-02 6.07965171e-01
1.68867350e-01 -1.49884090e-01 1.57074049e-01 1.26703298e+00 3.85552615e-01 4.61879075e-01 7.37485766e-01 -1.63741902e-01 -2.23114386e-01 3.52196991e-02 8.21498036e-02 1.54761774e-02 -4.97926056e-01 2.39124656e-01 7.01310933e-01 7.92181015e-01 -3.78274024e-01 5.35363913e-01 2.44398609e-01 -1.03945386e+00 -7.17166781e-01 -7.26421401e-02 4.48014230e-01 1.50667834e+00 -5.12285829e-01 -4.73212868e-01 4.19437468e-01 3.70423883e-01 -5.87923288e-01 -2.35973284e-01 5.55863902e-02 3.41040701e-01
2.14308277e-01 -4.03595358e-01 2.40533277e-01 -4.51840609e-01 8.68476927e-02 -3.68960410e-01 -1.32785559e+00 1.40112638e-01 2.36733451e-01 -7.57742941e-01 4.21433300e-01 -7.20923245e-01 8.04061472e-01 -8.30307066e-01 -3.53693590e-02 -9.36718881e-01 -3.73600006e-01 -8.91429067e-01 -9.62015465e-02 -1.07717082e-01 8.71904194e-01 -5.96038580e-01 2.06229970e-01 -3.60881925e-01 -6.01659000e-01 6.71863377e-01 9.00977626e-02 -6.61824465e-01 -1.90424711e-01 6.13715351e-01 -1.98359892e-01 -1.53271630e-01
-4.33779001e-01 4.30165112e-01 2.00568840e-01 1.77384332e-01 -8.22787762e-01 -3.12792182e-01 -8.84004012e-02 3.36082846e-01 3.14883977e-01 -3.74445349e-01 6.43407702e-01 3.22214693e-01 -8.17472637e-02 -8.36701989e-02 -7.42746294e-01 -1.10388267e+00 -2.60163307e-01 -1.27288711e+00 5.67763269e-01 -2.36026734e-01 -6.54705703e-01 -8.62661675e-02 -5.11114836e-01 -2.77398080e-01 1.40512750e-01 1.00018367e-01 1.61346406e-01 1.12359345e+00 -7.82772303e-02 -4.46598768e-01 -1.41396534e+00 2.15541437e-01
-8.80579557e-03 -2.44821934e-03 -2.41337806e-01 -3.98024626e-04 -1.17005520e-01 2.14456841e-01 -9.92020667e-02 -4.00060058e-01 -1.49697363e-01 2.36157909e-01 2.83860236e-01 5.51825315e-02 2.88239628e-01 -3.41815948e-02 2.89377500e-03 -2.62295276e-01 3.47236954e-02 1.14680432e-01 -5.80345765e-02 -3.05470407e-01 -3.83144677e-01 9.36382636e-02 9.70119089e-02 3.39116491e-02 1.46108732e-01 2.64024317e-01 -3.49875838e-01 -4.10336792e-01 -1.63193375e-01 8.11336264e-02 -1.14497013e-01 1.55640453e-01
2.01185450e-01 1.60058007e-01 -3.39755028e-01 3.68518233e-01 1.27259940e-01 -6.83181345e-01 7.26736039e-02 5.65503836e-01 2.50875473e-01 -4.19557482e-01 -7.96583146e-02 8.78086627e-01 3.06441724e-01 -6.28762484e-01 -3.47048730e-01 -9.76119004e-03 5.20426393e-01 -3.48288082e-02 2.08993495e-01 4.83255416e-01 -1.38486230e+00 -8.95211995e-01 -7.21120909e-02 2.94954658e-01 2.81410843e-01 7.76165605e-01 6.09530151e-01 4.22053725e-01 -4.76913899e-01 5.05605936e-01 3.05242717e-01 -3.21677953e-01
1.75114036e-01 1.50308937e-01 -7.31353343e-01 -1.23258851e-01 1.52882004e+00 -4.69647050e-01 -4.15768534e-01 -4.27273244e-01 -7.36723423e-01 2.78814763e-01 5.70004702e-01 2.10648805e-01 5.59790492e-01 -3.58724259e-02 1.52122632e-01 1.87241423e+00 2.25037754e-01 1.66527224e+00 -5.14969349e-01 -2.42086798e-01 1.35756388e-01 -4.65708673e-01 3.03355344e-02 2.75927454e-01 1.84884176e-01 2.89305747e-01 1.76816702e-01 -5.09945415e-02 -3.25926505e-02 2.91407287e-01 2.40252852e+00 -4.01450187e-01
-6.35273278e-01 1.52154580e-01 -6.24472238e-02 -5.46541929e-01 3.08053821e-01 2.35037692e-02 -5.01704328e-02 3.86058867e-01 4.47120249e-01 -1.30166486e-01 -1.58342738e-02 2.86002219e-01 2.01699525e-01 2.25283697e-01 -3.69786292e-01 -8.12420726e-01 3.73770356e-01 -5.99740028e-01 -4.23714310e-01 -1.01735331e-02 -6.39208555e-01 -2.05130741e-01 1.11872941e-01 -1.23844922e-01 -1.76656470e-01 -7.72603080e-02 -1.98027462e-01 2.28941992e-01 2.86723375e-01 1.34043336e-01 1.08180329e-01 -3.59814540e-02
3.29790980e-01 -2.41135523e-01 1.03266008e-01 -4.40870196e-01 -7.78393626e-01 -5.84276378e-01 -3.82044613e-01 2.08201170e-01 5.81027269e-01 1.33029059e-01 -6.04800045e-01 -4.05824296e-02 9.32444990e-01 -4.67959642e-01 -2.39437357e-01 -3.36905688e-01 -5.94591200e-01 -9.83542264e-01 -5.33772036e-02 2.29393858e-02 1.01703572e+00 -1.75279438e-01 -1.20252550e+00 7.97155499e-02 -7.45811611e-02 2.15327665e-02 -5.13662994e-01 -5.35643518e-01 3.98417860e-01 -4.73898560e-01 -2.59168416e-01 3.48507434e-01
-8.53336304e-02 -2.95638025e-01 1.65371168e+00 -8.67918134e-01 -6.68916702e-01 1.46464437e-01 2.44602766e-02 -4.02380079e-01 -1.06026553e-01 1.98796666e+00 1.64284017e-02 -8.75578970e-02 2.87609041e-01 3.21449590e+00 3.83815497e-01 -5.01702785e-01 2.16078252e-01 -2.29172564e+00 5.89092970e-01 -3.52335930e-01 2.86698908e-01 5.91673076e-01 -2.97292382e-01 8.28252852e-01 -5.20088896e-02 -5.54667473e-01 2.98660785e-01 -1.25083685e-01 9.79677886e-02 4.86621372e-02 2.02642947e-01 -3.65115762e-01
-5.99092782e-01 -2.67725766e-01 9.47384298e-01 4.25091565e-01 -8.06187689e-01 6.16214573e-01 1.44548342e-02 -9.64742899e-01 3.09933692e-01 5.91159165e-01 1.83234304e-01 2.53888935e-01 -5.28205216e-01 -2.20138267e-01 5.76243937e-01 -4.45869875e+00 -1.51350603e-01 -6.32822752e+00 6.32643700e-01 -1.02679598e+00 -7.03120112e-01 4.36115414e-01 6.33028030e-01 -1.04023159e-01 -2.45251179e-01 -2.61281461e-01 -3.40743542e-01 6.44301772e-01 -6.35471463e-01 -3.14497888e-01 -8.42704773e-01 -2.65765548e-01
5.47284856e-02 -1.48688808e-01 -6.52523696e-01 -4.23732959e-02 -1.73259363e-01 -9.54415053e-02 2.76387155e-01 3.14018637e-01 4.00278211e-01 -2.72017032e-01 5.57874203e-01 -2.24177629e-01 3.09473902e-01 -7.70656109e-01 -3.94989938e-01 -6.14536628e-02 -2.57028520e-01 2.06780061e-01 -6.52468652e-02 1.03738777e-01 -5.73083796e-02 -1.69901416e-01 -3.41323130e-02 -1.87230468e-01 -1.63064793e-01 7.35510588e-01 1.56128714e-02 7.86836073e-02 -1.98427513e-01 2.79034615e-01 1.48586676e-01 3.96256596e-01
-9.19408619e-01 2.26867616e-01 -6.98118135e-02 3.26052606e-01 -1.92610845e-01 6.19177759e-01 -3.75035495e-01 -1.03730753e-01 4.58196342e-01 -1.98920190e-01 -7.65461743e-01 2.47802749e-01 1.67245254e-01 -3.73986393e-01 -2.88122088e-01 -7.12633371e-01 2.38534942e-01 -6.77324176e-01 -3.75404805e-01 3.31239104e-01 1.37166715e+00 9.40929115e-01 -1.79866832e-02 1.66227326e-01 -3.03853333e-01 1.18509941e-01 -6.05010629e-01 -9.16255172e-03 7.97975898e-01 -2.58684874e-01 -1.57603383e-01 7.11411238e-02
-5.83576381e-01 -8.23916420e-02 1.99131921e-01 1.24971651e-01 -3.82239312e-01 2.79519975e-01 -1.01298082e+00 -1.01110749e-02 1.92957819e-01 5.06016064e+00 5.98261178e-01 3.60562176e-01 2.28056595e-01 2.50696421e+00 6.28464371e-02 -1.22181773e-01 -4.45502102e-01 -2.24928156e-01 -4.23116609e-02 -2.16409087e-01 -6.31554484e-01 4.66489822e-01 1.49044648e-01 2.13970467e-01 -3.24620396e-01 -3.87031466e-01 -6.58130407e-01 2.72151798e-01 -7.02615175e-03 -6.60699904e-01 3.41447264e-01 -3.13532889e-01
-2.09398288e-02 1.55612946e-01 -4.11173776e-02 3.38804498e-02 -1.48473959e-02 -2.24211719e-02 3.25976722e-02 -6.46778867e-02 2.92763766e-02 -1.75063610e-01 7.49756247e-02 4.10932526e-02 4.07662056e-02 1.04688503e-01 1.00487448e-01 4.29386534e-02 3.00622322e-02 2.49676201e-02 1.20739583e-02 9.77872685e-02 2.58561134e-01 1.31051555e-01 -3.42702381e-02 1.43247303e-02 7.39178583e-02 8.52974225e-03 5.39052337e-02 2.69730955e-01 2.18991041e-02 -1.41116697e-03 4.25521769e-02 1.33533832e-02
2.11381510e-01 -1.74201816e-01 -6.71471596e-01 7.46236071e-02 2.69940317e-01 -1.76205441e-01 -1.94014132e-01 -3.12424988e-01 2.31751591e-01 -6.95153117e-01 1.23325355e-01 -5.20261712e-02 1.84922323e-01 9.41641629e-02 -2.49953438e-02 1.70978978e-01 -3.48621041e-01 5.85732937e-01 -1.89946532e-01 8.88319135e-01 3.82581800e-01 -1.67632680e-02 -3.65869492e-01 -9.43514407e-02 -1.25518829e-01 -4.43669289e-01 8.67339969e-01 -5.99289119e-01 2.51990050e-01 3.39248538e-01 1.51002919e-02 1.98753282e-01
-2.46278271e-01 -1.65803164e-01 -1.79771304e-01 -2.47388929e-01 5.83012179e-02 -4.02976759e-02 2.45126233e-01 1.28295466e-01 5.23994923e-01 -3.60243529e-01 -2.08107695e-01 -8.08078706e-01 5.08617580e-01 8.06371868e-02 -1.40017763e-01 -1.47942036e-01 -2.80907273e-01 -1.16664454e-01 2.03833401e-01 -1.73710540e-01 -8.07725117e-02 -1.43787250e-01 3.28460217e-01 -1.86802432e-01 1.97257847e-01 2.17742056e-01 -2.18562514e-01 4.56118882e-01 6.47898465e-02 3.06028783e-01 1.62629262e-01 1.17152609e-01
6.47530258e-02 1.68769255e-01 -2.81425882e-02 6.84059933e-02 -3.25159729e-02 1.27379417e-01 -1.47631485e-02 -6.86739907e-02 4.44819331e-02 6.30966276e-02 6.58596829e-02 1.12673000e-01 -5.96449971e-02 -7.03359321e-02 1.24332272e-01 4.42262471e-01 7.37697929e-02 -3.12525183e-01 2.19075475e-02 -8.29549134e-02 -1.07934624e-01 -1.47582605e-01 1.70936082e-02 -1.67479347e-02 3.09048779e-02 1.39604315e-01 7.11670518e-03 4.64802841e-03 9.64536965e-02 1.36130163e-02 -3.70168425e-02 4.69051190e-02
4.24205869e-01 -1.81009933e-01 6.99877143e-01 5.62926710e-01 -3.68339151e-01 -1.25215188e-01 -6.67123258e-01 -9.44187418e-02 -2.81080574e-01 -7.29744136e-01 -6.14955388e-02 8.75333846e-01 4.72645462e-01 -4.46903527e-01 7.94024706e-01 3.20973128e-01 -7.68850595e-02 -3.78550529e-01 4.20283228e-01 4.23817456e-01 -3.65259320e-01 1.15092903e-01 6.17302954e-01 1.55627102e-01 1.11392148e-01 -3.83469462e-01 1.23859771e-01 2.85325617e-01 -1.32484674e-01 -4.28395458e-02 1.38669282e-01 4.16853160e-01
2.36245260e-01 -1.21939197e-01 1.27944738e-01 1.27205074e-01 -7.38818794e-02 1.52171001e-01 1.10520697e+00 8.66386741e-02 4.17247891e-01 3.11402500e-01 2.95716375e-01 4.33990568e-01 -3.80611241e-01 -3.97186786e-01 1.13329411e-01 -1.01879752e+00 -6.51525706e-02 -8.47724378e-01 -9.21304226e-02 -4.43284750e-01 -5.55906355e-01 5.11577353e-02 2.27103069e-01 -7.57762939e-02 9.73098576e-02 -4.07655329e-01 -7.27436125e-01 4.79508847e-01 -8.32324475e-02 -2.14349553e-01 2.46527120e-01 -7.59881809e-02
5.92208914e-02 -5.88300452e-03 -2.21529171e-01 4.02783155e-01 -4.85998988e-02 3.57956171e-01 3.18173945e-01 -2.70961523e-01 -2.79152662e-01 3.35345775e-01 7.88868964e-03 8.49286541e-02 4.35056448e-01 4.55328226e-01 -1.67274803e-01 -6.04092777e-01 5.49273252e-01 -2.33956978e-01 5.44665866e-02 -2.39331618e-01 -3.55190665e-01 7.90034682e-02 -4.22893226e-01 1.88313648e-01 -3.91099423e-01 -1.17434233e-01 -5.92245832e-02 -4.61521149e-01 3.63153815e-02 -1.18691184e-01 -3.79213206e-02 -2.33288437e-01
7.82036066e-01 4.51276898e-02 -2.64868230e-01 1.58295840e-01 8.60374644e-02 -5.87806404e-01 -2.28252970e-02 2.98505783e-01 3.56946945e-01 -2.73905230e+00 1.07476823e-01 1.78702876e-01 3.84012073e-01 -1.64750659e+00 -5.95628098e-02 3.21768522e-01 1.72601581e-01 2.35259548e-01 -1.62748039e-01 1.64650287e-02 4.19211805e-01 -2.05893382e-01 -5.28220594e-01 -5.07708639e-02 -4.30308193e-01 -1.98013559e-01 -6.31337017e-02 -9.92562845e-02 2.23859832e-01 9.48158950e-02 -4.90034342e-01 -1.10158488e-01
-9.14869905e-01 1.65099815e-01 3.73241566e-02 1.12381905e-01 -2.28519112e-01 -3.40613157e-01 1.14288473e+00 -7.72507414e-02 -1.06524408e+00 7.82913148e-01 -7.23999560e-01 3.83484513e-02 1.66739926e-01 8.56552273e-02 -7.21881926e-01 5.66374898e-01 6.14137709e-01 4.60755110e-01 1.53161883e-01 2.28739791e-02 -2.11823076e-01 4.34911549e-01 5.39900482e-01 9.48531091e-01 -5.56149960e-01 5.00856996e-01 -6.28722668e-01 6.44144788e-02 8.48043740e-01 -4.62781787e-01 1.06115066e-01 1.78121164e-01
-5.26777506e-01 6.23451114e-01 -4.38833199e-02 -1.34617671e-01 5.04438341e-01 1.31989375e-01 6.15828531e-03 4.92367417e-01 -2.83150524e-01 4.89395618e-01 7.19296485e-02 -1.46288007e-01 2.04935923e-01 2.42487580e-01 -5.66823244e-01 -3.82647365e-01 -1.06301293e-01 -1.51705131e-01 4.24475938e-01 -3.92575800e-01 -5.28023429e-02 -2.82262206e-01 -1.82197411e-02 -5.32701850e-01 8.66175592e-02 -2.23674551e-01 -5.56991398e-01 -4.72641289e-01 1.59000888e-01 -3.61816615e-01 -3.13251346e-01 -2.41962299e-01
-9.83651429e-02 2.89621115e-01 3.84288549e-01 3.73112321e-01 -1.42407909e-01 -3.45754385e-01 -3.51300389e-01 -2.29865219e-02 3.49573255e-01 -5.60557783e-01 -5.66548586e-01 -9.12126079e-02 -2.81384736e-01 -4.31750208e-01 -7.50855356e-03 7.15057373e-01 -4.22110856e-02 3.90427023e-01 3.01046342e-01 2.38265023e-01 6.34725094e-02 -7.91973472e-01 1.58849075e-01 1.31924525e-01 2.91366637e-01 1.56428427e-01 2.81964876e-02 -5.80780685e-01 -2.68256158e-01 -1.04893893e-01 -8.44886585e-04 -2.86519855e-01
-7.13603377e-01 5.57089388e-01 -4.82809424e-01 -1.10213637e+00 -3.86908025e-01 -3.05599153e-01 -2.74328858e-01 4.74680960e-01 1.60735145e-01 4.72265929e-01 -1.72378048e-01 2.90574491e-01 2.73144275e-01 2.51054704e-01 -1.05981693e-01 9.82492447e-01 7.81184077e-01 9.87892687e-01 -5.50283492e-01 1.65656015e-01 3.89444798e-01 -6.24189258e-01 -7.39575803e-01 3.27511549e-01 -2.22356573e-01 -3.60230088e-01 1.89635649e-01 4.75038856e-01 5.55592895e-01 -9.06674802e-01 1.02946788e-01 -2.03039795e-01
1.36778697e-01 -5.44719279e-01 -4.86241095e-02 -8.61792192e-02 -6.20554745e-01 5.20071626e-01 9.12895277e-02 -5.08449852e-01 5.30785680e-01 8.92648458e-01 -1.93285435e-01 8.99073705e-02 5.19564331e-01 4.27360028e-01 2.47420538e-02 -1.07090425e+00 -4.72595125e-01 -1.08312023e+00 1.06190577e-01 1.86792657e-01 2.33526215e-01 3.36911440e-01 1.83137551e-01 1.71493128e-01 1.98827833e-01 6.76370263e-02 -3.80547464e-01 -2.15144187e-01 -3.30099344e-01 -3.11147600e-01 3.78149569e-01 3.92741948e-01
-1.36499479e-01 -1.07164407e+00 4.09632921e-01 1.50694680e+00 2.46804878e-01 1.81514025e-01 -4.81783263e-02 -1.78035229e-01 -3.19923282e-01 3.00778449e-01 1.01504707e+00 -9.38075721e-01 -1.02399051e+00 -3.80435079e-01 2.96892107e-01 1.94439203e-01 -1.28552198e+00 9.52356339e-01 5.31764984e-01 -5.59555829e-01 1.06343758e+00 2.64806151e-01 1.07658722e-01 -9.29406136e-02 1.79768384e-01 -4.19338614e-01 1.28909186e-01 -2.51520544e-01 -8.02096605e-01 1.19780123e+00 -4.80459869e-01 -1.76702112e-01
-6.78643048e-01 -1.25697508e-01 2.97100991e-01 1.86036527e-01 -1.30816877e-01 1.31359458e-01 2.62113333e-01 -7.28671104e-02 -3.57839674e-01 -2.31701136e-01 -8.91304314e-01 1.97649419e-01 3.79951239e-01 1.22541405e-01 8.79752710e-02 -2.48804644e-01 3.64118367e-01 -2.09200621e-01 8.69709440e-03 -3.99060428e-01 -8.17893803e-01 1.81010544e-01 -9.90457311e-02 -6.75160408e-01 9.13284495e-02 4.60269719e-01 -6.40832931e-02 1.82391986e-01 -4.61341262e-01 -1.72880694e-01 -3.17180961e-01 8.07573423e-02
-2.81551868e-01 -3.09664726e-01 -1.51783168e-01 -1.29758433e-01 -2.72063136e-01 -5.29463552e-02 2.64654577e-01 2.57936776e-01 -6.11897051e-01 1.43708038e+00 -1.31306827e-01 -8.67654532e-02 -5.23613870e-01 5.34854531e-01 -2.23539785e-01 -1.23150945e-02 2.35176757e-02 9.43443105e-02 -1.30144153e-02 -2.07855687e-01 1.92629293e-01 1.32233217e-01 3.15513253e-01 5.20717241e-02 2.26619337e-02 -7.90909380e-02 -1.70211941e-01 2.21427426e-01 2.59455472e-01 3.28716785e-01 -1.96402203e-02 1.31255656e-01
-6.16137311e-02 -2.79170811e-01 3.81323658e-02 -1.43751830e-01 -4.21217322e-01 4.18889493e-01 -1.47855505e-01 -4.00558025e-01 1.12903401e-01 -4.39312100e-01 -7.90146366e-03 4.77208823e-01 2.38460451e-01 4.25412923e-01 2.44449437e-01 -5.72046697e-01 -3.94779831e-01 -1.30213964e+00 -4.62224483e-02 -2.83605486e-01 -1.56550854e-01 9.03670967e-01 3.65155846e-01 5.68779528e-01 -4.71657515e-01 1.69901103e-01 8.67763758e-02 -2.05501273e-01 -3.43925774e-01 -3.08594316e-01 -9.11374986e-02 -7.07969815e-02
2.72251982e-02 -5.52913509e-02 1.16979733e-01 -8.77237767e-02 2.58996874e-01 -6.93736374e-02 1.80434491e-02 -3.16181570e-01 -1.93883628e-01 3.45738053e-01 1.43419564e-01 1.69111893e-01 8.32459852e-02 -3.08648944e-01 -5.79793081e-02 -3.13475132e-01 7.20349178e-02 1.36731848e-01 -1.98008254e-01 -5.29496491e-01 1.46357894e-01 -1.70748800e-01 -7.87595063e-02 -3.37869599e-02 -2.90717706e-02 2.21654832e-01 -5.71907237e-02 2.16310285e-02 1.01939119e-01 7.42985606e-02 -7.94832036e-02 1.45728467e-02
2.43940666e-01 -5.01001418e-01 -2.20418230e-01 7.99851120e-01 -4.24291193e-01 -6.16321623e-01 3.29355210e-01 -2.26557612e-01 3.51340733e-02 2.79792261e+00 -5.29215515e-01 9.96496618e-01 6.08061433e-01 9.60086823e-01 7.06548691e-01 -6.18422069e-02 4.59668040e-02 -2.06589207e-01 7.12600470e-01 3.45779389e-01 1.20185360e-01 1.29023850e-01 -2.38477662e-01 1.10398388e+00 -1.30703539e-01 7.99304247e-02 -2.64282823e-01 3.99858803e-01 -6.68291599e-02 6.08550049e-02 5.90969205e-01 1.03687122e-01
-1.10948272e-01 1.81904525e-01 1.46738291e-01 7.33568817e-02 2.00621057e-02 -7.44194910e-02 2.65769325e-02 1.04832925e-01 3.22543643e-03 -3.76859456e-02 1.78826123e-01 7.52135366e-02 8.45213160e-02 -4.47139872e-04 1.51051223e-01 2.06851438e-01 1.89351775e-02 -1.20229885e-01 -1.67075894e-04 8.02058503e-02 -1.58983409e-01 -4.12874781e-02 -3.68721820e-02 -1.94210876e-02 -4.50483322e-01 -2.34393820e-01 4.45417501e-02 -1.32063970e-01 -4.74278554e-02 -5.61782457e-02 2.34612953e-02 -4.66260999e-01
-1.79657619e-02 -7.48297274e-02 -2.65474468e-02 2.20991373e-02 -2.57079095e-01 1.55086513e-03 -3.75251360e-02 1.53302610e-01 7.03979954e-02 -7.69037604e-02 -8.44252761e-03 -2.51854826e-02 -6.77006543e-02 4.31881770e-02 -7.89598525e-02 2.46428519e-01 -1.29574701e-01 -1.05638042e-01 3.91370393e-02 3.17470759e-01 -2.41713375e-01 -7.56905600e-02 -1.58839934e-02 -1.88229494e-02 1.45705715e-02 -1.00605011e-01 -6.78363219e-02 -5.77933006e-02 -5.21553755e-02 4.98566814e-02 4.93222028e-02 -4.12444538e-03
8.41669798e-01 -2.83782631e-01 2.56753087e-01 3.60075474e-01 -3.11084330e-01 4.29811934e-03 -6.69645846e-01 -2.56068446e-02 7.59442210e-01 -2.69285236e-02 -1.57320142e-01 1.83538049e-02 2.61610635e-02 1.81027636e-01 7.58684218e-01 -7.40727603e-01 -4.73434567e-01 -6.09973609e-01 4.84540671e-01 -2.85144448e-01 -6.67130530e-01 1.75801232e-01 -9.56970155e-02 2.10764602e-01 8.62102866e-01 -4.92272452e-02 2.40272358e-01 -2.66687572e-01 -4.74173397e-01 2.46563092e-01 9.33672041e-02 8.29420760e-02
9.14117545e-02 -3.86740208e-01 -1.68271214e-01 3.52934331e-01 6.37144297e-02 -5.99049985e-01 1.28763199e-01 7.68324360e-02 2.22601652e-01 -2.49623418e-01 -3.14675033e-01 5.18562138e-01 4.09177750e-01 -2.78940767e-01 2.31949791e-01 -5.46690941e-01 -3.04680556e-01 -8.81209970e-01 3.11791956e-01 -3.72518629e-01 -3.25080127e-01 5.00356071e-02 3.27548116e-01 6.26570761e-01 -1.79193467e-01 -2.70865858e-01 3.84989023e-01 1.07774965e-01 -5.20308875e-02 -4.75015432e-01 3.85029018e-02 2.88362056e-01
-1.54466346e-01 -8.10353085e-02 8.55086386e-01 2.89615057e-02 -1.15504622e+00 -2.13233069e-01 1.22567177e-01 -7.27900397e-03 7.24962354e-01 6.54430747e-01 -1.80394202e-01 -3.68876249e-01 9.39848647e-02 6.86099231e-01 8.60281885e-02 -2.31879759e+00 -3.31389070e-01 -2.74357343e+00 -4.77754176e-02 3.49478647e-02 -6.22436643e-01 7.24663198e-01 2.87766755e-01 6.02419674e-02 3.90353322e-01 2.16704726e-01 2.50247955e-01 -8.01483318e-02 -2.05405499e-03 -8.38270307e-01 -4.96176571e-01 2.01353934e-02
-2.24946365e-01 -2.19035044e-01 -1.97185099e-01 -3.19133371e-01 -3.53947639e-01 5.75004756e-01 1.37272134e-01 -6.83928132e-02 -7.10616708e-02 3.91100258e-01 -2.33944476e-01 1.71121120e-01 9.29224789e-02 -2.79053837e-01 -1.33916348e-01 -5.81301808e-01 3.39543760e-01 -7.35840857e-01 -3.12540203e-01 5.22598103e-02 -3.15067351e-01 4.45498258e-01 -1.36440277e-01 3.02455693e-01 3.90608996e-01 -4.83296722e-01 4.43470716e-01 5.05314544e-02 9.81001779e-02 9.41374078e-02 -1.09810330e-01 1.96255911e-02
4.25753951e-01 6.71717763e-01 7.02059746e-01 -4.15571392e-01 1.46856651e-01 1.97364360e-01 1.51259854e-01 -1.09642699e-01 -7.60076404e-01 1.02328348e+00 -3.02678883e-01 -2.36435011e-01 -4.26727653e-01 1.09742022e+00 1.86795667e-01 3.67613174e-02 2.47253813e-02 -9.92778063e-01 2.81678200e-01 -2.74025351e-01 8.56375322e-02 7.14793146e-01 -9.67713147e-02 -4.23426509e-01 6.77108526e-01 -7.58683860e-01 4.77321178e-01 -1.02330446e-01 -2.99277544e-01 -6.11315727e-01 -8.99400562e-02 -4.96933520e-01
-3.47730070e-02 -3.80376011e-01 1.91465572e-01 -1.86626121e-01 -2.38711819e-01 1.31195918e-01 2.00454012e-01 -2.81560242e-01 -5.14198601e-01 -2.98772067e-01 -1.21884972e-01 2.53089722e-02 -8.53797868e-02 5.66064835e-01 5.21390617e-01 2.07680002e-01 2.68646032e-01 -4.98040289e-01 4.99783605e-02 1.59880519e-01 -2.67813623e-01 3.17807108e-01 -3.69651943e-01 1.64276972e-01 -6.94409162e-02 -2.55343884e-01 3.96585673e-01 7.65907049e-01 -4.26209867e-01 -4.70345289e-01 2.91131735e-01 3.37951690e-01
-1.02273536e+00 3.40007842e-01 -2.28528380e-02 -1.09179735e+00 -2.94705123e-01 -3.59300196e-01 3.04681569e-01 2.87112653e-01 4.49463755e-01 2.96044171e-01 -7.85555780e-01 6.34344161e-01 8.56499076e-01 6.15203083e-01 -1.04596102e+00 -3.68021458e-01 4.69442815e-01 -8.45978320e-01 -2.06530225e-02 7.93486118e-01 -8.40189815e-01 -5.11350393e-01 -6.65632129e-01 1.69274002e-01 3.59480053e-01 7.51289904e-01 1.07504404e+00 9.26199436e-01 2.83602118e-01 -8.28535676e-01 -4.15639639e-01 4.48485911e-01
-9.50984582e-02 8.34145248e-02 2.83242643e-01 -4.58440110e-02 3.60893250e-01 -7.52169564e-02 -1.56964678e-02 4.84521054e-02 -6.12089410e-02 1.94289550e-01 2.08891872e-02 1.80570707e-02 -5.65416273e-03 -1.17513202e-01 9.09572020e-02 -1.58131540e-01 9.64762270e-02 5.02370782e-02 -2.23837532e-02 -4.09317732e-01 1.40985772e-01 -1.19080029e-01 4.00591530e-02 1.55825848e-02 1.33704588e-01 -4.98754065e-03 7.72086680e-02 1.43306568e-01 3.12460624e-02 -8.65730196e-02 -5.45912310e-02 6.36602342e-02
-9.66579467e-02 1.70483470e-01 3.17699701e-01 -9.02832150e-02 1.58809051e-01 7.87867904e-02 6.03921950e-01 2.74663597e-01 1.87253878e-01 -1.28867817e+00 -3.16132098e-01 5.03192067e-01 6.28348827e-01 -3.75563085e-01 -3.75730574e-01 -9.67438817e-02 3.83009881e-01 -3.46639276e-01 -1.31363580e-02 -7.46868610e-01 1.21413517e+00 -3.12831312e-01 4.39979956e-02 -1.30708444e+00 1.77002162e-01 5.04977107e-01 -9.71050978e-01 -1.12072802e+00 3.48153979e-01 -7.80199468e-02 -2.43233934e-01 -5.09129345e-01
6.07189119e-01 -2.82579362e-01 -2.51260012e-01 4.08001006e-01 -8.12185705e-02 -7.45360926e-02 -9.83502269e-02 -8.96851867e-02 4.91697758e-01 -1.69602111e-01 -1.68670654e-01 -6.87952572e-03 7.91745663e-01 -3.75872433e-01 3.27232659e-01 -2.01977879e-01 2.73419823e-03 -4.94220287e-01 9.61322263e-02 -4.42666821e-02 -3.95694703e-01 1.80782974e-01 1.29029930e-01 1.31363809e-01 -2.66661663e-02 -1.76165134e-01 7.62381673e-01 5.76720536e-01 -3.21459025e-01 3.04962665e-01 1.34907022e-01 3.14403683e-01
-1.90511465e-01 3.02088678e-01 -1.38988718e-01 -6.32633865e-02 -5.99594116e-01 -2.57376134e-01 1.09082200e-01 4.33386326e-01 -4.00413983e-02 -5.52969933e-01 -1.94448471e-01 2.99600028e-02 -3.36042523e-01 2.11944371e-01 2.78018236e-01 -1.62311658e-01 -1.37643352e-01 2.37852022e-01 7.95349777e-02 3.53086829e-01 -2.55688459e-01 -4.23623435e-02 -6.60794005e-02 -4.67346869e-02 -8.34494829e-02 -1.02092266e-01 2.53113478e-01 -2.81623185e-01 1.15016922e-01 -8.74522887e-03 9.64258239e-02 1.35129854e-01
4.17327024e-02 -5.66503882e-01 -1.06977090e-01 -8.06593895e-02 -8.82986858e-02 -1.29327014e-01 -5.37367873e-02 -1.85895935e-01 -4.00143355e-01 4.59895849e-01 1.15880137e-02 5.72743155e-02 3.29994202e-01 3.51962745e-01 -1.29209474e-01 -5.93262076e-01 -2.30849013e-01 -1.25017181e-01 -3.92428366e-03 2.55182814e-02 8.98979008e-02 -6.22137561e-02 5.92103481e-01 6.93295375e-02 -3.68209422e-01 2.07400650e-01 3.63573253e-01 8.89516324e-02 -5.97356632e-02 1.49587542e-01 -3.73166800e-02 -2.16102421e-01
1.03501368e+00 6.75397590e-02 -6.14595652e-01 2.10798115e-01 1.65844977e-01 5.75104468e-02 4.72908199e-01 9.36066806e-02 -2.39384696e-01 -9.34800029e-01 -8.25963795e-01 1.35245025e+00 5.68264984e-02 -9.22806203e-01 2.42236078e-01 4.68086183e-01 1.11799903e-01 3.90326709e-01 -6.96351230e-02 1.61084607e-01 -1.64004040e+00 -4.22813714e-01 -8.58751357e-01 -2.76768535e-01 -4.56436545e-01 -5.04980572e-02 2.63104051e-01 6.59678876e-01 -7.58506060e-02 6.94072843e-02 -1.25635803e-01 5.41813493e-01
-8.67608413e-02 -1.33169934e-01 -1.01849198e+00 4.36643027e-02 2.44787052e-01 3.41435492e-01 2.23778635e-01 -7.98637345e-02 -2.80940514e-02 5.67611992e-01 -3.13196450e-01 -1.22293019e+00 2.64109552e-01 6.10253751e-01 -2.62895614e-01 5.71437955e-01 -3.08782160e-01 1.28862274e+00 -3.27757597e-01 -9.41761062e-02 1.89901590e-01 -2.20304176e-01 -3.25199589e-02 8.19319248e-01 -3.70874047e-01 6.55435562e-01 1.65302455e-02 -1.08807392e-01 5.69568714e-04 2.31795415e-01 6.59066737e-01 1.65410563e-02
1.65516913e-01 2.99256623e-01 -1.71701431e-01 -7.09033430e-01 1.08483702e-01 5.60657978e-01 2.17549175e-01 8.07403564e-01 2.96843201e-01 7.86821991e-02 8.52108419e-01 -9.24847275e-02 1.66982710e-01 2.27635100e-01 1.07704572e-01 -3.51933956e-01 2.19076723e-01 1.96897492e-01 -2.94090122e-01 -4.72370535e-01 -1.07419215e-01 -2.45285943e-01 1.75071254e-01 6.91671669e-02 -4.32211794e-02 2.70387411e-01 -5.45298867e-02 -7.89595470e-02 -4.80624586e-01 1.62793562e-01 -2.28411809e-01 -9.12356898e-02
9.72294658e-02 2.10449100e-02 -1.70057863e-01 1.35515546e-02 -2.31762370e-03 6.44796491e-02 6.52932748e-02 7.86952972e-02 -2.56302450e-02 -1.53542478e-02 -6.24134056e-02 -3.64854038e-01 2.46233895e-01 2.14553714e-01 1.77484360e-02 3.89706641e-02 9.80249792e-02 -7.87296370e-02 9.18800309e-02 2.64086127e-01 1.24064416e-01 2.50232965e-01 2.26305565e-03 2.19936997e-01 -9.51631293e-02 -2.79017538e-01 -1.69967771e-01 -1.91135660e-01 -3.24208140e-01 -1.38174221e-01 1.22481240e-02 -2.79394567e-01
4.28364247e-01 1.67179853e-01 5.75948596e-01 3.68248612e-01 2.63384283e-01 3.76590639e-01 9.61212456e-01 -3.54577690e-01 8.00996959e-01 -8.44800472e-02 -6.36226833e-01 1.88242912e-01 -4.93271649e-01 -4.09722865e-01 -1.27879336e-01 9.78799537e-02 -4.72854942e-01 -5.57042241e-01 3.01166356e-01 3.75859812e-02 -1.46367610e-01 6.00381672e-01 1.69293076e-01 6.36851668e-01 -6.67714560e-03 -1.15454033e-01 -2.56629437e-01 2.20256597e-01 1.79068267e-01 3.85468870e-01 -2.17208445e-01 3.10718473e-02
-4.51222092e-01 -4.70981359e-01 1.52687633e+00 1.50050387e-01 -1.08440530e+00 -4.74385060e-02 -1.29469144e+00 -9.50096846e-01 3.85087818e-01 1.08479512e+00 8.28403458e-02 -6.23587728e-01 -3.43666881e-01 8.98036361e-01 6.01487696e-01 -2.37388229e+00 2.03105479e-01 -3.08623481e+00 1.69512784e+00 7.79921174e-01 -5.06613135e-01 1.74182689e+00 -3.09884012e-01 2.65373826e-01 2.67187953e-01 -7.44849741e-01 -1.93714663e-01 3.99635822e-01 1.56174928e-01 9.69814658e-02 6.03449941e-01 2.56077111e-01
1.57032870e-02 -8.96646827e-03 8.02671239e-02 4.06800769e-02 3.83674234e-01 -3.46183069e-02 1.09367250e-02 1.38200708e-02 5.41306064e-02 -3.22983571e-04 -2.95068673e-03 -7.38776326e-02 9.75646079e-02 2.72001768e-03 -1.84877254e-02 -4.24696207e-02 -5.65052731e-03 -2.67022066e-02 -5.58541678e-02 7.26648569e-02 1.44516200e-01 5.70070744e-02 -3.44047658e-02 -7.53022730e-03 -1.26247466e-01 -1.52866662e-01 1.24707138e-02 3.45101237e-01 -2.16604639e-02 -5.95005564e-02 3.14659178e-02 -2.48716518e-01
-4.03440446e-01 -4.25499454e-02 -1.42755330e-01 -7.44016841e-02 -1.53644010e-01 9.82075706e-02 -3.89967076e-02 7.16686904e-01 -2.22761407e-01 4.09477092e-02 -1.95750296e-01 6.95312440e-01 5.04549265e-01 3.43017519e-01 3.70733261e-01 2.00944468e-01 -1.65795565e-01 1.29564121e-01 -2.23240808e-01 -4.29851376e-02 -1.28398478e-01 -6.19520724e-01 -3.62053588e-02 -2.10836083e-01 -3.54173392e-01 -1.77549005e-01 -6.12637639e-01 4.23380554e-01 -2.54584849e-01 -2.50364751e-01 -2.23269150e-01 5.23164928e-01
-2.44855657e-02 -8.17159638e-02 6.21147513e-01 2.56437838e-01 -7.86439300e-01 2.27072328e-01 2.85801381e-01 -5.94653845e-01 6.08251214e-01 2.65511394e-01 -1.08160056e-01 4.16667193e-01 -8.99414271e-02 5.21592386e-02 6.66220337e-02 -2.18624520e+00 2.09268525e-01 -1.26363480e+00 6.02267534e-02 2.16028497e-01 -1.37490764e-01 2.22178593e-01 2.26687595e-01 1.50737330e-01 -2.84075528e-01 -5.44431388e-01 -7.53520429e-02 -1.10919431e-01 -4.56670254e-01 -4.98520851e-01 2.89032757e-01 -2.35132143e-01
-2.14792460e-01 -1.07351504e-02 -1.45602986e-01 1.70635670e-01 -1.26853257e-01 1.01702905e-03 2.59506345e-01 -1.90549731e-01 -6.14611864e-01 1.71715343e+00 -3.51281881e-01 -9.61759835e-02 -2.92007297e-01 1.29669571e+00 -1.92378998e-01 3.91921811e-02 -1.26190530e-02 2.70949118e-03 -1.40628517e-01 -3.25082093e-01 5.64794205e-02 1.87198684e-01 4.06440999e-03 -1.61041349e-01 -1.25890270e-01 5.56286424e-02 4.46218580e-01 4.28541809e-01 2.16533244e-01 -4.42502767e-01 2.12114677e-01 -1.06929250e-01
-8.21936801e-02 -2.60107666e-01 5.64193845e-01 5.21975815e-01 9.09889787e-02 -3.50006521e-01 -1.07215798e+00 1.24896325e-01 1.63238421e-01 4.22186822e-01 1.63937762e-01 -1.17221028e-01 7.97455385e-02 1.79897904e-01 -1.79112807e-01 8.24201703e-01 -4.11679856e-02 3.58936101e-01 -2.21585378e-01 -3.50906134e-01 9.89458263e-01 3.17595780e-01 4.57474738e-01 -5.60356438e-01 5.28133586e-02 2.88511943e-02 -1.60336599e-01 1.37683690e-01 -1.63351327e-01 3.77055645e-01 -1.69032842e-01 -3.17664921e-01
1.05589569e+00 -3.84807587e-01 5.06187499e-01 9.67542589e-01 -3.38368475e-01 2.41070390e-01 -4.81486946e-01 -6.03755951e-01 5.14260709e-01 -1.32613897e+00 -2.78445631e-01 7.17549503e-01 -1.22836483e+00 -4.09380525e-01 6.68363035e-01 -4.97683436e-01 -7.92835578e-02 -1.49534300e-01 6.21067703e-01 7.58604169e-01 2.20818326e-01 -4.15079564e-01 -2.03601956e+00 -5.52877128e-01 3.71415913e-01 5.70605874e-01 -8.15329969e-01 -2.34207317e-01 -1.48837700e-01 1.24401689e+00 -7.06560552e-01 8.56322497e-02
-2.58136056e-02 1.82784513e-01 -1.97456572e-02 -4.89044897e-02 -1.85976684e-01 -5.80681190e-02 4.31849286e-02 -4.87123430e-02 -5.85509203e-02 -2.76280064e-02 5.26722930e-02 8.15046579e-02 7.90239200e-02 -3.00833341e-02 1.45855144e-01 -1.32626787e-01 8.45004767e-02 1.87677950e-01 -5.50219836e-03 -2.89652705e-01 1.39286026e-01 5.57003543e-02 -1.76993478e-02 -4.66234311e-02 -2.97300667e-01 -4.98396307e-02 1.81502327e-02 -7.56786242e-02 -4.78918571e-03 -7.45456759e-03 -8.40054546e-03 -2.23791778e-01
1.41169131e-01 3.13916475e-01 1.62393379e+00 4.90548521e-01 -1.27839708e+00 1.51225120e-01 -1.82165965e-01 -6.45575047e-01 8.97948325e-01 5.53689241e-01 1.74710706e-01 -3.39368016e-01 -9.44262803e-01 7.41041958e-01 8.85816142e-02 -3.65579033e+00 -2.00128078e-01 -4.68597317e+00 4.67855543e-01 1.19136594e-01 -1.24290204e+00 9.89631414e-01 3.52099031e-01 1.29882395e-01 2.41276756e-01 -2.11167306e-01 -4.77933466e-01 6.89424455e-01 -2.79915184e-01 3.89055312e-02 1.57957882e-01 8.04997515e-03
-8.44644248e-01 1.58357874e-01 8.16338435e-02 -6.94704950e-01 3.40371877e-02 -1.33097321e-01 -3.20124716e-01 4.56025362e-01 -2.80120373e-02 -3.80081981e-02 1.64307773e-01 -3.44184399e-01 3.82529289e-01 4.59869266e-01 -3.70906323e-01 -3.16050231e-01 1.82466507e-01 -1.00153029e-01 -3.43193501e-01 1.11314803e-01 1.52425215e-01 6.55816734e-01 2.51407325e-01 -2.13855103e-01 5.36998883e-02 2.54958034e-01 -6.68211997e-01 6.87714107e-03 1.38019636e-01 -5.16647041e-01 -6.75352216e-02 -8.91718984e-01

layers.2.bias:
-1.44612145e+00
-7.69740641e-01
5.83351016e-01
-6.52765155e-01
2.02448979e-01
-3.07472974e-01
2.40552247e-01
2.13257885e+00
6.20115459e-01
8.08510005e-01
-9.10192728e-01
-1.38419712e+00
-3.55669439e-01
9.47063208e-01
-3.06921661e-01
-7.87598968e-01
-7.32037574e-02
-7.41620421e-01
3.00941259e-01
-6.99591786e-02
-3.13533366e-01
7.93455422e-01
8.04707468e-01
-6.94197863e-02
-4.10796344e-01
1.05823874e+00
-9.35601294e-01
-9.73528862e-01
4.94478822e-01
-1.22073817e+00
1.18175089e-01
-3.08170151e-02
8.24816883e-01
1.21999457e-01
-2.43860200e-01
-2.34576147e-02
-1.62805021e-01
1.35982299e+00
1.05674398e+00
-2.26104096e-01
9.44839358e-01
-2.35592440e-01
-5.41086137e-01
1.60005224e+00
2.65775502e-01
-1.08930182e+00
1.09828007e+00
-3.38805288e-01
7.99809992e-01
1.79039621e+00
2.06642002e-01
4.59177107e-01
1.33052126e-01
-5.94558001e-01
6.57440871e-02
-2.83360723e-02
8.08414876e-01
-6.53474182e-02
-9.40049961e-02
-6.23707056e-01
7.15377688e-01
5.54157868e-02
-2.75221884e-01
6.59248590e-01

layers.4.weight:
3.72795910e-01 6.04039989e-02 -9.75580513e-02 6.84981700e-03 -7.32995048e-02 8.46038014e-02 2.23649367e-05 -7.25608647e-01 -1.08293898e-01 -3.90312463e-01 5.98311089e-02 8.83829176e-01 -2.03007054e+00 -1.13925748e-01 9.21765342e-03 -1.38630807e+00 -2.06245866e-04 5.69576696e-02 -8.28409175e-05 4.54110414e-04 -5.13794832e-04 -1.14157468e-01 -1.01684285e-02 2.63934433e-01 -5.95201217e-02 -2.87383944e-02 4.22049239e-02 7.66087115e-01 -3.50520849e-01 3.85177732e-01 -1.13641247e-02 -1.18948765e-01 -1.53031722e-02 -4.43817582e-04 6.54879808e-02 3.98669014e-04 5.48942422e-04 -1.74043179e-01 -9.56156850e-03 1.20123446e-01 -3.72060016e-02 2.92613566e-01 2.93677542e-02 -1.39459401e-01 6.48016576e-05 1.35085180e-01 -2.03584321e-03 -2.91457371e-04 -5.03286012e-02 -6.81054413e-01 -3.52151580e-02 -4.34307760e-04 4.01960533e-05 5.19345980e-04 -1.16144478e+00 7.13700603e-04 2.41285452e-04 -2.83070564e-01 -4.80718501e-02 3.53561677e-02 -8.13839361e-02 8.66944101e-05 6.88320279e-01 -1.63128600e-02

layers.4.bias:
-1.10639679e+00

