layers.0.weight:
3.31696361e-01 -5.67613244e-01 7.97264636e-01
5.69172144e-01 -8.09445798e-01 -5.80563486e-01
-8.31293464e-02 -6.13938749e-01 -5.77727258e-01
-1.07055378e+00 1.15616508e-01 4.58123112e+00
2.67282110e-02 4.11940843e-01 1.16166264e-01
-5.79876065e-01 8.58121514e-01 -1.84879377e-01
-1.31842160e+00 4.86020595e-01 -9.88645032e-02
-6.01682402e-02 7.88846374e-01 -9.23566997e-01
6.03414774e-01 -9.26082134e-01 5.12713566e-02
-1.11527514e+00 5.86289167e-02 -1.64189592e-01
7.53551662e-01 -9.85680073e-02 1.41279221e+00
-7.16238439e-01 -1.31785080e-01 -1.29353356e+00
-4.30584475e-02 7.12955832e-01 -1.57757306e+00
-1.16726887e+00 2.10410804e-02 5.00053525e-01
-6.46977663e-01 1.09646142e+00 7.52028525e-01
-1.81771189e-01 9.48456824e-01 1.64468549e-02
5.46070874e-01 -6.33792400e-01 -1.45019031e+00
-1.15504665e-02 1.12846863e+00 1.84981868e-01
8.07071701e-02 -9.54183042e-01 5.35116851e-01
3.41117471e-01 -1.28724232e-01 -8.64976227e-01
2.23475501e-01 1.65966094e-01 -5.10879010e-02
-3.24195027e-01 -2.56797969e-01 -1.00232065e+00
-4.64660525e-01 1.65601885e+00 -4.46076952e-02
-1.56447518e+00 4.06930357e-01 1.75152493e+00
1.05132234e+00 3.79940838e-01 -7.78481364e-01
2.59609371e-01 6.71772659e-01 -1.17486012e+00
-1.16151750e-01 -2.13369340e-01 1.90187418e+00
-3.97779703e-01 -2.44972542e-01 1.92939892e-01
3.22416067e-01 7.57217348e-01 -1.46468067e+00
-1.04933763e-02 4.65525806e-01 1.70563948e+00
-2.89658904e+00 2.84448242e+00 -1.78299040e-01
-1.26738083e+00 -5.19488692e-01 1.02004325e+00

layers.0.bias:
8.77201200e-01
4.81547834e-03
-1.42384720e+00
-6.34384930e-01
7.07518518e-01
-2.04255387e-01
-3.54310095e-01
2.86240637e-01
-7.45998621e-01
-1.59115899e+00
1.64644122e-01
1.80825554e-02
2.46107668e-01
-1.21306002e+00
-2.90836543e-01
1.43946290e+00
9.34610724e-01
1.82654703e+00
-6.68276668e-01
5.78918040e-01
-1.44309163e-01
-1.35729384e+00
1.02535832e+00
-7.05530941e-02
1.36946186e-01
5.60703695e-01
8.80503118e-01
-1.57881156e-01
-4.88352716e-01
7.31267482e-02
8.91685039e-02
-6.70209900e-02

layers.2.weight:
-3.61001641e-01 3.08000445e-01 1.80337504e-01 -5.71738183e-01 -2.01715216e-01 -7.78841674e-02 1.63830057e-01 -2.30434164e-03 -5.98433986e-02 2.83490181e+00 2.43961927e-03 1.49588794e-01 -1.39522865e-01 2.33772993e+00 -2.80348331e-01 3.74307901e-01 1.90776158e-02 4.86440986e-01 1.43358216e-01 -1.85131699e-01 1.71782702e-01 2.13932823e-02 -6.01037383e-01 5.11259139e-01 -1.99007273e-01 6.89067245e-01 -8.75912607e-01 -6.92758113e-02 -1.92328230e-01 -3.05691600e-01 -4.15998608e-01 3.68268520e-01
-1.01440683e-01 1.13577120e-01 -8.56976092e-01 6.22381978e-02 -3.37608516e-01 1.68793947e-01 -7.21647263e-01 -4.97060806e-01 5.20235419e-01 7.00139165e-01 3.58557254e-01 -3.00712913e-01 2.34415591e-01 -8.12277347e-02 -2.66433448e-01 3.08142304e-01 -3.68080586e-01 4.34258044e-01 -4.27823335e-01 -7.76861086e-02 6.58760309e-01 -1.19428039e-01 -3.91923457e-01 -3.34125906e-02 -2.57811118e-02 -8.94773602e-02 -3.16151381e-01 -5.30441165e-01 5.07965051e-02 -2.05809981e-01 1.06823342e-02 2.13436216e-01
5.84521256e-02 1.06144689e-01 -9.85907689e-02 -6.48050606e-01 -5.62729299e-01 -1.22839354e-01 -5.91241181e-01 2.23226443e-01 5.76113403e-01 6.15201533e-01 -4.40207511e-01 -1.99035898e-01 5.76417744e-02 -9.74233225e-02 -1.89225554e-01 -9.36141014e-01 6.54892474e-02 -5.90719104e-01 7.29783950e-03 6.58811212e-01 -4.85222310e-01 -3.66335928e-01 2.93018758e-01 -1.46087337e+00 -1.56097755e-01 3.21450800e-01 -1.06647933e+00 -2.31192753e-01 3.23498696e-01 -2.76449621e-01 -1.35529051e-02 3.35887283e-01
2.19325215e-01 -1.22937240e-01 9.17517692e-02 1.31848896e+00 5.89870274e-01 4.13847208e-01 6.88088953e-01 -2.09370822e-01 -1.89698458e-01 -1.54236779e-02 1.32638931e-01 -3.54592353e-02 -5.47760010e-01 1.88415855e-01 6.61046922e-01 1.03996992e+00 -3.70993614e-01 9.10504401e-01 2.75011092e-01 -1.03123093e+00 -6.46897316e-01 -1.23806119e-01 4.08469826e-01 1.47412848e+00 -9.63202585e-03 -5.09529829e-01 4.70264792e-01 4.75775935e-02 -6.38156474e-01 -1.77718058e-01 5.27888676e-03 1.52876347e-01
4.27085795e-02 -3.49419177e-01 3.52440178e-01 -4.95242685e-01 -6.89230785e-02 -2.52919674e-01 -1.15220749e+00 2.10022569e-01 1.08089060e-01 -4.20768023e-01 3.89688224e-01 -7.24941671e-01 8.53568256e-01 -8.03473651e-01 -4.73646596e-02 -1.14626169e+00 -3.04103136e-01 -1.04635632e+00 -1.59844771e-01 -7.74770677e-02 9.28615153e-01 -4.97386992e-01 2.75594324e-01 -3.77486050e-01 -7.59091139e-01 6.86918795e-01 4.86978926e-02 -6.70550823e-01 -1.99965537e-01 5.72917640e-01 -1.78974345e-01 1.85799152e-02
-2.25170732e-01 2.70277798e-01 1.94240525e-01 2.16204107e-01 -5.44696271e-01 -4.09025878e-01 -4.88989264e-01 2.52123624e-01 4.50651050e-01 -3.67709398e-01 7.21000731e-01 1.95674479e-01 -1.26788750e-01 -3.17035913e-01 -3.73862296e-01 -8.98795366e-01 -3.48866194e-01 -1.01288509e+00 6.63579583e-01 -2.44360894e-01 -6.00042880e-01 -1.76512316e-01 -6.90393984e-01 -2.11798862e-01 9.40005630e-02 5.32902069e-02 2.03099087e-01 1.02987802e+00 -1.79779172e-01 -3.82872343e-01 -8.53628218e-01 2.98236668e-01
3.89065295e-02 -7.91440904e-03 -2.21005470e-01 -8.90438259e-03 -1.36262357e-01 1.63906410e-01 -5.68302721e-02 -4.39210117e-01 -1.12609357e-01 2.50642896e-01 2.90573686e-01 8.25392306e-02 2.84944087e-01 1.99680142e-02 -8.48885346e-03 -2.82506347e-01 1.59153864e-02 1.07003994e-01 1.18470872e-02 -3.10480088e-01 -4.06540066e-01 9.45303887e-02 6.68269619e-02 1.89562906e-02 1.71728790e-01 2.58567482e-01 -3.59368533e-01 -4.13464963e-01 -1.64226785e-01 7.22074658e-02 1.57712586e-02 1.25903830e-01
2.96057343e-01 1.09956481e-01 -4.12181646e-01 3.71099979e-01 2.76116014e-01 -6.49506450e-01 2.82464214e-02 4.75571990e-01 1.75056681e-01 -3.39904636e-01 -1.08656429e-01 9.41520572e-01 2.99226671e-01 -5.58284163e-01 -1.67803273e-01 8.22667181e-02 5.09695828e-01 1.40580967e-01 2.67396450e-01 4.87629473e-01 -1.40437472e+00 -9.26373720e-01 1.32196546e-01 3.07899863e-01 2.65219003e-01 7.38169491e-01 6.16577744e-01 4.61507559e-01 -5.67060292e-01 5.09545863e-01 1.81247428e-01 -3.15317571e-01
-1.19672202e-01 2.19773844e-01 -4.29455251e-01 -3.10177475e-01 1.16727567e+00 -2.44599223e-01 -6.83544278e-01 -2.41263077e-01 -7.45849490e-01 4.06514555e-01 3.69631678e-01 2.78139085e-01 7.46126831e-01 -2.23163530e-01 1.80978000e-01 1.69566703e+00 3.15240234e-01 1.20798600e+00 -7.32569218e-01 -1.32009804e-01 2.13655844e-01 -1.55894279e-01 2.86839753e-01 2.96508610e-01 1.26187250e-01 4.48044032e-01 -9.07996017e-03 -4.19129357e-02 7.95259625e-02 1.10818624e-01 2.35108733e+00 -3.82103205e-01
-6.02311432e-01 1.76284879e-01 -1.14420183e-01 -5.04734218e-01 3.75759989e-01 -1.39879258e-02 -1.02581024e-01 3.53760481e-01 4.78372782e-01 -1.94326162e-01 3.41082104e-02 2.15784386e-01 1.65199116e-01 1.61042765e-01 -4.12363410e-01 -7.61472106e-01 3.85748208e-01 -4.87680793e-01 -3.86550546e-01 -2.95578390e-02 -6.60067260e-01 -2.50705987e-01 6.09049574e-02 -6.46069720e-02 -2.28873521e-01 -1.13954097e-01 -1.56294301e-01 2.43983269e-01 2.48307765e-01 1.78839296e-01 1.14691317e-01 2.48154942e-02
2.17198864e-01 -2.76344985e-01 -1.10420518e-01 -3.36709589e-01 -5.30078828e-01 -3.63394916e-01 -3.94192994e-01 9.45815444e-02 6.06260180e-01 1.95758924e-01 -5.02050877e-01 -1.45851433e-01 8.27607632e-01 -4.10216630e-01 -2.31300786e-01 -4.75482702e-01 -5.99040449e-01 -1.02170420e+00 7.92492256e-02 -3.21685374e-02 1.01541877e+00 -2.78839946e-01 -8.82338226e-01 2.04063386e-01 -1.66100830e-01 -9.45566222e-02 -4.05547321e-01 -4.99079019e-01 2.22675964e-01 -3.75719994e-01 -1.80444807e-01 4.22466457e-01
-5.28354272e-02 4.46972139e-02 1.65430856e+00 -9.04097855e-01 -7.32379794e-01 8.10505152e-02 6.90180734e-02 -3.88791353e-01 -9.07017291e-02 1.80770004e+00 -1.17070228e-03 -7.44474679e-02 3.20565373e-01 3.21313071e+00 -8.27458724e-02 -4.34784651e-01 3.92948210e-01 -2.39122415e+00 5.94489515e-01 -2.63935357e-01 1.89834312e-01 6.08121872e-01 -3.43989998e-01 8.35673034e-01 -1.49680719e-01 -5.33009410e-01 2.70801485e-01 -4.30690125e-02 6.77501708e-02 -1.26096490e-03 1.56820714e-02 -2.65500933e-01
-7.13857949e-01 -2.12951615e-01 8.38877082e-01 4.95838910e-01 -4.13592666e-01 6.79057360e-01 8.39088783e-02 -9.30495381e-01 2.78226703e-01 4.47201043e-01 2.95820266e-01 6.63942145e-03 -5.79576731e-01 -1.31414488e-01 4.98704344e-01 -3.87674356e+00 -1.59466192e-01 -5.66696930e+00 5.19274890e-01 -1.07566953e+00 -6.31500304e-01 4.13714290e-01 7.04777122e-01 -1.11556932e-01 -3.52428257e-01 -3.17280233e-01 -2.74200320e-01 6.65560663e-01 -6.85673356e-01 -2.34614000e-01 -1.26852989e+00 -1.45960480e-01
-5.93575044e-03 -1.99761391e-01 -6.50966585e-01 -3.56957726e-02 -1.65029362e-01 1.19347619e-02 2.89125472e-01 3.37647438e-01 3.60608906e-01 -1.31708950e-01 5.78175902e-01 -2.32607111e-01 3.07468683e-01 -7.69237936e-01 -2.89757460e-01 -1.15861110e-01 -2.83752590e-01 1.89939409e-01 -1.24194227e-01 7.71202222e-02 3.07807922e-02 -1.79972664e-01 7.51974285e-02 -1.83537573e-01 -1.71333477e-01 7.36224294e-01 1.87626854e-02 1.74723584e-02 -1.75101295e-01 2.89590240e-01 1.66781411e-01 4.12353665e-01
-8.98330867e-01 2.65711993e-01 -1.02318324e-01 3.12456757e-01 -1.77584514e-01 5.99838614e-01 -3.87843162e-01 -8.20948556e-02 4.60546851e-01 -2.34566748e-01 -7.77211607e-01 2.59043545e-01 1.82613999e-01 -3.72452408e-01 -3.34858000e-01 -6.67451560e-01 2.70321429e-01 -6.56028211e-01 -4.06886041e-01 3.52831870e-01 1.33042443e+00 9.55493569e-01 -5.70424944e-02 1.62273318e-01 -3.16640645e-01 1.32360294e-01 -6.18381441e-01 -5.65327657e-03 7.98019886e-01 -2.75522530e-01 -1.34688005e-01 7.50819668e-02
-4.57701832e-01 7.91216735e-03 7.90361837e-02 1.48668528e-01 -3.63455653e-01 1.85192928e-01 -8.88633728e-01 -1.07020825e-01 1.18982747e-01 5.34072208e+00 5.73503733e-01 4.35718268e-01 2.04243004e-01 2.71878910e+00 -1.39516547e-01 -4.40386981e-02 -4.26625818e-01 -1.28768668e-01 9.31159183e-02 -2.13904485e-01 -7.61829257e-01 4.11944568e-01 8.15252960e-02 2.71500587e-01 -4.75358367e-01 -4.44493055e-01 -6.18769765e-01 4.26465243e-01 -1.71815798e-01 -6.51894569e-01 1.79915398e-01 -1.62002057e-01
-3.17347348e-02 1.48990870e-01 -7.16433525e-02 3.39092314e-02 7.14130187e-03 9.24975891e-03 1.74611788e-02 -4.55402844e-02 1.00150388e-02 -1.98371053e-01 6.77595660e-02 4.06516194e-02 4.95389253e-02 9.64915082e-02 1.12711430e-01 5.14013022e-02 4.15298603e-02 2.84328274e-02 -2.35826280e-02 1.05072066e-01 2.60513961e-01 1.11803658e-01 -1.09675117e-02 3.51841971e-02 6.30715415e-02 2.28813998e-02 5.52592836e-02 2.72671729e-01 2.41088215e-02 -2.24849884e-03 -1.37368022e-02 2.19352618e-02
2.31022179e-01 -9.01662633e-02 -5.31278968e-01 1.21063115e-02 6.03815801e-02 -2.48621956e-01 -3.06122810e-01 -3.02665174e-01 3.44949901e-01 -7.42233992e-01 1.38806626e-02 2.30722912e-02 2.35924155e-01 1.87344886e-02 -1.10584177e-01 1.24705650e-01 -2.74732590e-01 3.88780385e-01 -6.53459504e-02 9.53278124e-01 2.07262143e-01 1.56793222e-01 -5.05589306e-01 -1.59287408e-01 -3.94115560e-02 -4.01971042e-01 8.08554351e-01 -4.83026803e-01 2.70929188e-01 2.74790406e-01 -6.40942007e-02 9.40461606e-02
-2.89909929e-01 -7.21982867e-02 -2.96456516e-01 -2.21446306e-01 4.19985920e-01 2.46244892e-02 1.65568233e-01 1.39045283e-01 3.86296511e-01 -3.97911996e-01 -1.77037895e-01 -9.11126614e-01 4.88872975e-01 -2.18978211e-01 -1.83038965e-01 2.27437928e-01 -1.15939192e-01 3.18988413e-01 1.21792518e-01 -6.29494414e-02 -2.19196770e-02 -1.67190552e-01 4.69053596e-01 -3.16126317e-01 2.20971033e-01 2.05791742e-01 -1.90014914e-01 3.46487522e-01 4.02101204e-02 3.36446941e-01 5.00894547e-01 1.37871951e-01
6.95440546e-02 1.80057466e-01 -1.51199475e-02 7.23733529e-02 -6.25733361e-02 9.66480970e-02 -3.28936824e-03 -8.15506652e-02 4.58573550e-02 7.31665120e-02 7.05520585e-02 1.21468581e-01 -6.96725026e-02 -6.87455684e-02 1.17915675e-01 4.47046340e-01 5.37096672e-02 -2.97753215e-01 4.12732176e-02 -1.04019798e-01 -1.14494607e-01 -1.41081944e-01 9.56417818e-04 -3.25812846e-02 4.87701185e-02 1.25214174e-01 8.10958631e-03 5.09886444e-03 1.13773651e-01 1.68262385e-02 -7.14585884e-03 2.98499204e-02
5.78795552e-01 -1.15293175e-01 5.97296953e-01 5.30464470e-01 -9.64964926e-02 -3.05167317e-01 -6.71977341e-01 -1.24293402e-01 -2.91298985e-01 -9.17305231e-01 -8.43698755e-02 9.60688949e-01 4.92734075e-01 -5.14345050e-01 6.84973121e-01 7.62890756e-01 -3.72295789e-02 -1.69259147e-03 4.73940194e-01 4.95958924e-01 -5.04514456e-01 6.32494763e-02 4.97704893e-01 1.56331629e-01 7.96643943e-02 -3.67959738e-01 9.69345868e-02 3.38052005e-01 -1.35406479e-01 -7.98522756e-02 -6.75981492e-03 4.30176139e-01
2.53686547e-01 -1.15504742e-01 4.42791842e-02 1.81208536e-01 -5.79638593e-03 1.46225452e-01 9.32919741e-01 3.86181846e-02 5.26647806e-01 2.77889520e-01 3.82563263e-01 3.25951397e-01 -4.28263903e-01 -5.36419272e-01 1.22052453e-01 -1.14756775e+00 -6.31610677e-02 -8.05729091e-01 -3.10183410e-02 -4.65796769e-01 -4.57881600e-01 -4.66155782e-02 2.24279061e-01 -2.39758175e-02 7.35170096e-02 -4.52573031e-01 -6.76157117e-01 3.71271104e-01 -1.25183165e-01 -1.57108203e-01 2.38693461e-01 -3.51341926e-02
3.57518569e-02 -3.94593701e-02 -2.47808337e-01 4.01598811e-01 -6.53526261e-02 3.96672279e-01 4.04860377e-01 -2.44851395e-01 -3.24945271e-01 3.90579075e-01 2.40100566e-02 8.69042873e-02 4.45511222e-01 5.57677150e-01 -1.25273347e-01 -6.57898009e-01 5.24394155e-01 -2.84009516e-01 2.36739330e-02 -2.54734725e-01 -2.88410515e-01 4.29600142e-02 -3.55878204e-01 1.74347043e-01 -3.56819212e-01 -1.01156235e-01 -6.34375662e-02 -5.54873526e-01 7.79955238e-02 -1.20209880e-01 -1.38949845e-02 -2.62312561e-01
7.83228397e-01 -3.87571342e-02 -2.96516389e-01 1.62706479e-01 1.84211612e-01 -5.03177643e-01 -1.16715012e-02 3.11623096e-01 2.63814509e-01 -2.78459907e+00 1.02744177e-01 1.80553228e-01 3.83226395e-01 -1.69098318e+00 1.27168298e-01 3.71163368e-01 1.54538885e-01 2.74547964e-01 -2.13442057e-01 1.17536802e-02 4.51466531e-01 -2.26478457e-01 -2.83384323e-01 -4.94621806e-02 -3.95168215e-01 -1.92647219e-01 -5.89512847e-02 -1.34541139e-01 2.33968347e-01 1.01101801e-01 -2.70080656e-01 -1.48014382e-01
-8.94598603e-01 1.77403256e-01 1.26525657e-02 9.69740227e-02 -4.57145572e-02 -3.45531195e-01 1.12872744e+00 1.90361831e-02 -1.07347989e+00 7.40263700e-01 -7.50242829e-01 6.40761405e-02 1.99237108e-01 5.83155379e-02 -7.33389497e-01 8.02013993e-01 6.28825724e-01 5.28615713e-01 -2.48786151e-01 3.93009894e-02 -2.29763895e-01 4.15934652e-01 5.16477346e-01 9.32950377e-01 -5.25924087e-01 5.48872590e-01 -6.45664752e-01 1.45393252e-01 9.18447614e-01 -4.78810519e-01 7.63185695e-02 1.27839580e-01
-5.45456886e-01 5.93677521e-01 -3.99629623e-02 -1.38867483e-01 4.87788916e-01 1.65720850e-01 1.01261418e-02 5.15468359e-01 -3.18383068e-01 4.96103913e-01 6.93550184e-02 -1.56000033e-01 2.16520712e-01 2.44953647e-01 -5.35498977e-01 -3.46560746e-01 -1.40216768e-01 -2.00959906e-01 3.98287147e-01 -4.04103696e-01 -2.42197234e-02 -2.77189970e-01 1.24688977e-02 -5.33475041e-01 7.29661956e-02 -2.10825145e-01 -5.62100351e-01 -4.69170421e-01 1.68102995e-01 -3.65716338e-01 -2.06175908e-01 -2.19786629e-01
-1.09425947e-01 2.50926971e-01 4.47646946e-01 3.58269602e-01 -2.27973863e-01 -3.20346206e-01 -1.73912242e-01 -1.66111384e-02 3.12115043e-01 -4.91508722e-01 -5.91166854e-01 -6.84785694e-02 -2.71320552e-01 -3.62731487e-01 4.12158147e-02 6.51905835e-01 -5.64143397e-02 2.62861103e-01 2.98758447e-01 2.25473672e-01 3.20701264e-02 -7.41390586e-01 1.52856946e-01 1.29473090e-01 2.58406699e-01 1.59586489e-01 1.18109100e-02 -5.30784011e-01 -2.67896354e-01 -1.20780781e-01 7.77073652e-02 -2.48008952e-01
-7.61454880e-01 4.87694055e-01 -5.63996494e-01 -1.02369964e+00 -3.16349894e-01 -2.55250961e-01 -4.13058639e-01 3.58304739e-01 1.31485492e-01 4.54888523e-01 -8.81642327e-02 2.10649431e-01 1.87121555e-01 2.80966491e-01 -3.52637805e-02 9.97561038e-01 7.09633589e-01 1.06164360e+00 -4.79337782e-01 9.39999595e-02 4.84156787e-01 -7.14493513e-01 -6.72256052e-01 3.90327096e-01 -1.32130474e-01 -4.38242108e-01 2.68793285e-01 3.37837636e-01 4.87195790e-01 -8.28390539e-01 2.14793310e-01 -2.95617968e-01
1.60809591e-01 -5.49625933e-01 -9.60176289e-02 -1.07954443e-01 -5.09917855e-01 5.24072111e-01 1.09875157e-01 -4.51877207e-01 5.19754171e-01 9.10507321e-01 -1.95565224e-01 1.01427563e-01 5.46969116e-01 4.17851269e-01 2.93544158e-02 -1.03407013e+00 -4.59473729e-01 -9.58607614e-01 -4.47491137e-03 2.06851318e-01 2.87605643e-01 2.95988858e-01 1.70168966e-01 1.63690120e-01 2.70336181e-01 1.04997151e-01 -4.05522585e-01 -3.58096182e-01 -2.22242564e-01 -3.31046611e-01 4.32903200e-01 3.26312959e-01
-9.21471640e-02 -1.01050115e+00 3.99873525e-01 1.55235744e+00 1.03206292e-01 1.30997762e-01 -1.04667142e-01 -2.26982340e-01 -2.54135579e-01 2.62370110e-01 1.05612433e+00 -9.61321950e-01 -1.07028806e+00 -3.58667880e-01 2.31338263e-01 -3.21701393e-02 -1.25639772e+00 5.52722156e-01 5.86189926e-01 -7.84034252e-01 8.61676157e-01 2.25846201e-01 5.73823154e-02 1.38412729e-01 -2.04205841e-01 -4.71566647e-01 1.72037750e-01 1.68108761e-01 -8.46864641e-01 1.23112524e+00 -5.87944865e-01 1.73114482e-02
-8.02863717e-01 -2.42062241e-01 7.69646883e-01 1.97275504e-01 -1.12951839e+00 3.03320855e-01 3.26709211e-01 -2.85757661e-01 -4.91094917e-01 -1.59987435e-01 -1.09804809e+00 2.95084864e-01 3.82813483e-01 1.38405383e-01 2.43576825e-01 -5.90226412e-01 2.93977916e-01 -1.07278061e+00 8.27163577e-01 -4.13245797e-01 -2.09277654e+00 1.16151500e+00 6.67738914e-02 -6.41942501e-01 1.47060946e-01 5.10758638e-01 -4.45149355e-02 2.80906200e-01 -5.77690065e-01 -1.58335656e-01 -1.07133284e-01 2.29624752e-02
-3.55190307e-01 -3.25242490e-01 -8.96180272e-02 -1.71279877e-01 -3.12885761e-01 -7.71879731e-03 1.69209212e-01 3.04902375e-01 -5.63396215e-01 1.47926259e+00 -1.63286790e-01 -9.50437263e-02 -4.78654981e-01 4.88814056e-01 -1.41976684e-01 -5.10217771e-02 3.26285996e-02 6.32050112e-02 -6.77580759e-02 -1.80254295e-01 2.71135628e-01 1.86050281e-01 3.29574198e-01 6.80408161e-03 1.01881921e-01 -3.14955637e-02 -2.15314433e-01 1.38130948e-01 3.23008209e-01 2.92415172e-01 1.28618374e-01 5.54455668e-02
-9.97400284e-02 -3.78272802e-01 -1.09314024e-02 -7.79765397e-02 -4.01273817e-01 4.89537746e-01 -1.49019659e-01 -4.29206222e-01 7.24122673e-02 -3.59369576e-01 5.26370518e-02 4.13502693e-01 1.81929111e-01 5.56236982e-01 3.17149550e-01 -6.21567190e-01 -5.09067714e-01 -1.30337572e+00 -6.77996352e-02 -3.86347383e-01 -1.38682202e-01 8.54868412e-01 4.35670495e-01 6.69586003e-01 -5.27720571e-01 1.14533924e-01 1.51516825e-01 -1.62904724e-01 -3.84111822e-01 -2.40010828e-01 -1.02837250e-01 -2.74482053e-02
3.63490060e-02 -4.57634740e-02 1.40131861e-01 -8.83031189e-02 2.18339384e-01 -1.03701264e-01 3.91072221e-02 -3.49474788e-01 -1.69120684e-01 3.67391348e-01 1.41539395e-01 1.82588503e-01 7.44772181e-02 -2.98491895e-01 -7.10805058e-02 -3.23394150e-01 6.55105263e-02 1.19983852e-01 -1.42032176e-01 -5.36053717e-01 1.33470848e-01 -1.54801473e-01 -1.15247883e-01 -5.29839732e-02 -1.42768640e-02 2.05874488e-01 -5.82387559e-02 2.90783774e-02 8.98797214e-02 7.29909167e-02 1.26327705e-02 3.53976432e-03
2.95887381e-01 -4.44862694e-01 -3.08870912e-01 7.58040488e-01 -2.90806472e-01 -6.64492965e-01 3.87445599e-01 -2.23300233e-01 4.11576591e-02 2.74219298e+00 -5.82535148e-01 1.04012561e+00 6.49291039e-01 8.77746999e-01 6.09535336e-01 -3.85795627e-03 1.14993103e-01 -1.05784861e-02 7.60309935e-01 4.08889741e-01 4.11271602e-02 1.27938136e-01 -3.66171420e-01 1.06263804e+00 -2.30568439e-01 1.14125058e-01 -3.02565396e-01 4.95566487e-01 -9.22129080e-02 1.54969310e-02 4.26856369e-01 1.99392542e-01
-1.18517950e-01 1.79056540e-01 1.19626865e-01 7.48788193e-02 4.80770655e-02 -4.25454341e-02 7.78947212e-03 1.19306087e-01 -1.03871049e-02 -4.01685834e-02 1.68712005e-01 7.59336725e-02 9.11326110e-02 -3.25001292e-02 1.70995072e-01 2.34204933e-01 3.71733904e-02 -1.11886315e-01 -2.90905721e-02 9.16608050e-02 -1.58772841e-01 -5.63946180e-02 -2.42374148e-02 1.57734333e-03 -4.56709802e-01 -2.25043699e-01 4.79400642e-02 -1.28159493e-01 -6.04493879e-02 -5.49768396e-02 -4.59378632e-03 -4.68033075e-01
-6.78322464e-03 -7.97317252e-02 -5.93542941e-02 2.50106733e-02 -2.18340963e-01 2.42682155e-02 -2.33598594e-02 1.74347758e-01 5.89460880e-02 -5.40905520e-02 -6.72977604e-03 -2.32581794e-02 -6.43728301e-02 4.27080952e-02 -6.45716488e-02 1.99090406e-01 -1.18269898e-01 -1.19598649e-01 -8.62635032e-04 3.24171484e-01 -2.35521749e-01 -1.10296890e-01 -3.29652592e-03 -4.02892334e-03 1.04258498e-02 -9.10790861e-02 -6.43803552e-02 -7.72893131e-02 -4.17956002e-02 5.28168604e-02 -8.30361620e-03 2.74172955e-04
8.44491303e-01 -2.71962821e-01 3.80175710e-01 3.32240045e-01 -5.06214023e-01 4.70269565e-03 -6.17417336e-01 2.12664786e-03 7.95287907e-01 6.66602179e-02 -2.01772586e-01 5.92147931e-02 6.42958805e-02 2.30071530e-01 7.48967230e-01 -1.04262531e+00 -4.57075059e-01 -8.97017837e-01 7.07056582e-01 -2.68466562e-01 -7.52434731e-01 2.54123390e-01 -1.48669422e-01 2.02757642e-01 7.84191847e-01 -2.30601132e-02 2.15347961e-01 -1.23827741e-01 -5.42634726e-01 2.18989626e-01 7.71436468e-02 1.29180148e-01
8.91067535e-02 -4.38278049e-01 -2.48301759e-01 3.86846274e-01 1.50118694e-01 -5.55278540e-01 1.77717358e-01 5.99716790e-02 2.07837373e-01 -2.04473555e-01 -2.42133260e-01 4.67347294e-01 3.78799200e-01 -2.40402237e-01 2.84071386e-01 -6.94424212e-01 -3.50832701e-01 -8.22637260e-01 3.22261006e-01 -4.15137619e-01 -2.18970329e-01 -5.56188449e-02 3.86687189e-01 6.84470236e-01 -2.38272488e-01 -2.98421264e-01 4.16650712e-01 -6.01437055e-02 -2.78936736e-02 -4.42250133e-01 1.42313972e-01 3.56761456e-01
5.77581003e-02 -6.65338784e-02 6.88924074e-01 1.46830186e-01 -1.12837541e+00 -3.16107124e-01 2.26289272e-01 -1.81544185e-01 7.05290020e-01 6.50381029e-01 -1.21818207e-01 -3.81557792e-01 -3.04929540e-02 7.32375622e-01 3.37359495e-02 -2.45035791e+00 -3.15707445e-01 -2.80809140e+00 2.06338808e-01 -6.61735190e-03 -8.13311279e-01 6.20455861e-01 1.98725358e-01 1.55623287e-01 2.98062921e-01 8.39856043e-02 3.77635300e-01 1.86938077e-01 -1.80339798e-01 -7.35797405e-01 -4.89805132e-01 9.65810195e-02
-1.67459279e-01 -2.08727449e-01 -2.54098058e-01 -2.77783096e-01 -3.18199396e-01 5.28295457e-01 1.21494867e-01 -1.12070918e-01 -5.34748659e-02 3.56423438e-01 -1.86141565e-01 1.61262229e-01 5.43847494e-02 -2.74576873e-01 -1.60587221e-01 -6.15276396e-01 3.28056335e-01 -7.00230539e-01 -2.68420160e-01 3.38167772e-02 -3.22659016e-01 3.64673823e-01 -1.81964576e-01 3.44103158e-01 3.77427816e-01 -5.18580139e-01 4.86028224e-01 2.81408001e-02 7.50194713e-02 1.33960158e-01 -1.20669998e-01 4.30218540e-02
4.65099275e-01 7.03542769e-01 7.01799333e-01 -4.22318608e-01 1.58395112e-01 1.35601699e-01 9.26545784e-02 -1.06873967e-01 -7.90217519e-01 9.11840320e-01 -3.22568804e-01 -2.14129552e-01 -4.20713782e-01 1.08509028e+00 1.37827307e-01 1.45779163e-01 4.75716852e-02 -9.44915950e-01 3.39191020e-01 -2.59566396e-01 1.24376630e-02 7.38269627e-01 -1.37859091e-01 -4.20271575e-01 7.36131310e-01 -7.46476650e-01 4.71984923e-01 -1.19667007e-02 -2.78401047e-01 -6.21185124e-01 -8.65772218e-02 -5.74947178e-01
-3.47682312e-02 -3.82162839e-01 1.88523069e-01 -1.97768703e-01 -1.22771785e-01 1.37639269e-01 1.41762227e-01 -2.54649758e-01 -5.60769618e-01 -3.26596230e-01 -1.28449753e-01 2.38949973e-02 -7.51243755e-02 4.26577419e-01 5.04443586e-01 4.53763992e-01 2.80493468e-01 -3.00352365e-01 -2.46614800e-04 1.79115564e-01 -2.53694504e-01 3.27757448e-01 -3.35169584e-01 1.44867986e-01 -6.16848469e-02 -2.37555295e-01 3.83433551e-01 7.22255170e-01 -3.77224863e-01 -4.79248226e-01 2.76737243e-01 3.36324424e-01
-1.23501050e+00 1.30508065e-01 1.28099903e-01 -1.29630876e+00 -1.62787199e-01 -1.05938829e-01 1.76747978e-01 5.12732804e-01 1.35518104e-01 3.52245450e-01 -9.64475274e-01 6.94055736e-01 1.06899023e+00 3.66884619e-01 -6.87480628e-01 2.21238375e-01 5.81302941e-01 -4.79340374e-01 -2.62947291e-01 1.06200147e+00 -5.64748764e-01 -3.18301529e-01 -3.81662905e-01 -1.18690982e-01 6.20874345e-01 9.69937503e-01 8.72859418e-01 6.34351134e-01 4.89083707e-01 -1.01924777e+00 1.48722142e-01 2.26245284e-01
-8.58130082e-02 9.26661789e-02 3.03940624e-01 -4.88495789e-02 3.42509806e-01 -1.04083456e-01 -9.63363890e-03 2.12798119e-02 -4.16248366e-02 2.07372621e-01 2.05752142e-02 2.60312352e-02 -1.13123665e-02 -1.24707505e-01 8.44812021e-02 -1.42132744e-01 8.80831033e-02 5.57996705e-02 2.10260991e-02 -4.16238129e-01 1.30808920e-01 -1.03486806e-01 2.16515083e-02 3.26492474e-03 1.49324402e-01 -1.66454539e-02 7.35406876e-02 1.51276141e-01 2.32020710e-02 -8.96598920e-02 2.68070754e-02 4.52229753e-02
-7.01967105e-02 2.64242738e-01 2.85850376e-01 -1.09954439e-01 3.24608803e-01 6.22759759e-02 6.50503874e-01 2.78276622e-01 1.24198139e-01 -1.21482420e+00 -3.36372137e-01 5.24002790e-01 6.47202373e-01 -3.17518920e-01 -5.06271124e-01 3.03253919e-01 4.84847188e-01 6.74581435e-03 -6.56270422e-03 -5.22580922e-01 1.01202571e+00 -2.95289904e-01 -1.27287265e-02 -1.29207206e+00 2.06265479e-01 5.16956210e-01 -9.82998610e-01 -1.05436563e+00 2.52688318e-01 -9.79288742e-02 -6.90490678e-02 -3.82494956e-01
5.75729311e-01 -3.19672406e-01 -3.14363182e-01 4.46940273e-01 -4.88579739e-03 -3.33193727e-02 9.07122740e-04 -1.21373050e-01 4.45379734e-01 -6.82749078e-02 -1.03408568e-01 -5.87545298e-02 7.55515695e-01 -3.28509092e-01 3.64212155e-01 -2.73066491e-01 -3.61521654e-02 -4.23363447e-01 1.21913493e-01 -8.28182995e-02 -3.23363900e-01 1.02145180e-01 1.73861563e-01 1.63889199e-01 -1.07368946e-01 -2.15939432e-01 8.01505208e-01 4.87633824e-01 -3.52490336e-01 3.43581796e-01 2.08953679e-01 3.89112353e-01
-2.56706715e-01 3.41670722e-01 -1.62962809e-01 -4.23893258e-02 -6.36946857e-01 -1.94468424e-01 7.12462440e-02 4.72498506e-01 -4.12523225e-02 -5.53624153e-01 -1.75456271e-01 -2.43071876e-02 -3.43560338e-01 1.80699542e-01 2.55810380e-01 -3.26748699e-01 -9.49236825e-02 1.63124681e-01 9.51995328e-03 3.53985846e-01 -2.10280359e-01 -5.61023876e-02 -2.78436076e-02 -4.60747331e-02 -1.21554740e-01 -1.06535196e-01 2.73295730e-01 -2.94843376e-01 1.28623396e-01 9.91600379e-03 -5.88711584e-03 1.92302197e-01
4.73922379e-02 -5.28017700e-01 -8.75514746e-02 -1.02756470e-01 -1.36257246e-01 -1.54919058e-01 -3.98254246e-02 -1.69217616e-01 -3.62423539e-01 4.68790799e-01 -3.02522164e-03 7.59277642e-02 3.52422029e-01 3.76575917e-01 -1.55262485e-01 -7.19292879e-01 -2.15506300e-01 -2.18791053e-01 2.93392478e-03 3.97254862e-02 9.45329815e-02 -5.04144914e-02 5.50717890e-01 4.66242470e-02 -3.67227226e-01 2.28881299e-01 3.41889769e-01 8.56713727e-02 -6.49260134e-02 1.27349615e-01 -5.64195178e-02 -2.12178946e-01
1.05830312e+00 4.33463380e-02 -6.40321553e-01 2.02078417e-01 2.23043472e-01 6.72196969e-02 4.48205501e-01 1.41689748e-01 -2.67848283e-01 -9.68443096e-01 -8.33053887e-01 1.36076272e+00 8.08221549e-02 -9.48583484e-01 2.65593231e-01 5.71457207e-01 8.81368369e-02 4.41970557e-01 -1.16024099e-01 1.54157311e-01 -1.57524562e+00 -4.49899435e-01 -8.35666180e-01 -2.78252095e-01 -3.55149925e-01 7.63319491e-04 2.54499763e-01 5.23728132e-01 -4.87725884e-02 6.05682246e-02 -1.04443036e-01 4.35938478e-01
-1.39964163e-01 1.27098069e-01 -9.26998913e-01 -5.57935573e-02 1.81292191e-01 3.45157683e-01 1.33907408e-01 4.59619518e-03 2.61454731e-02 5.34923136e-01 -4.05477643e-01 -1.18078125e+00 3.61969113e-01 3.51322770e-01 -3.88530999e-01 5.49817264e-01 -5.01892157e-02 1.25479949e+00 -3.93579900e-01 8.50579813e-02 2.27564320e-01 -1.21684045e-01 -6.47296160e-02 7.24064231e-01 -3.49872679e-01 7.50514627e-01 -8.03879872e-02 -1.73811331e-01 6.72302842e-02 1.31679013e-01 6.90799177e-01 1.28195127e-02
-1.52816698e-02 4.07945693e-01 -1.61540344e-01 -5.99015653e-01 -1.37354493e-01 7.30741084e-01 2.43792564e-01 7.78043091e-01 4.00381953e-01 3.07452887e-01 9.72801864e-01 -2.86475003e-01 6.76143914e-02 2.49106288e-01 1.60555132e-02 -8.96618009e-01 3.21787417e-01 -1.63279966e-01 -2.98855275e-01 -5.46835005e-01 -3.94984446e-02 -2.46491358e-01 2.19882339e-01 1.33110628e-01 -2.17698038e-01 1.55539125e-01 5.07725850e-02 -2.47448068e-02 -5.56746125e-01 2.68781900e-01 -2.29602292e-01 1.22320384e-01
8.81201103e-02 -1.16016017e-03 -1.27161428e-01 -7.84417242e-03 3.79824080e-02 4.90192808e-02 -1.55596063e-02 8.33762512e-02 -4.73534279e-02 -7.95511007e-02 -6.60305396e-02 -3.85358423e-01 2.59409636e-01 1.90650433e-01 2.72449646e-02 2.55607396e-01 5.90688549e-02 3.02468054e-02 9.08528566e-02 2.55148083e-01 1.18345968e-01 2.97920167e-01 2.81160157e-02 2.60930896e-01 -1.03133395e-01 -2.70134330e-01 -1.92643911e-01 -1.72904000e-01 -3.09953421e-01 -1.55433699e-01 1.10988449e-02 -2.98447430e-01
4.37611252e-01 3.00256517e-02 5.36918402e-01 4.08314615e-01 3.51899326e-01 4.05689865e-01 9.57558632e-01 -3.77854437e-01 7.37229049e-01 -7.64599144e-02 -5.99045753e-01 1.48721844e-01 -5.34542382e-01 -4.07812297e-01 -2.63535306e-02 2.17428342e-01 -5.31331420e-01 -4.73545462e-01 2.96198189e-01 -1.92655320e-03 -1.08316161e-01 5.65565348e-01 2.11761549e-01 6.54836774e-01 1.91661995e-02 -1.47332177e-01 -2.20054358e-01 1.75574109e-01 1.64590359e-01 4.28777665e-01 -1.19155355e-01 1.50206825e-02
-2.52819240e-01 -5.25874376e-01 1.52298701e+00 3.29389311e-02 -8.36290896e-01 -1.82743579e-01 -1.12448442e+00 -9.56477046e-01 2.69939154e-01 1.05952680e+00 4.47874976e-04 -4.30570096e-01 -2.39643410e-01 1.06900215e+00 6.09830678e-01 -2.01786184e+00 1.60269290e-01 -2.63633323e+00 1.80164564e+00 8.56034756e-01 -5.28497458e-01 1.69164264e+00 -4.30268586e-01 2.28294164e-01 3.52508992e-01 -6.31403446e-01 -3.07051510e-01 2.93188483e-01 2.39515662e-01 -1.60082728e-02 8.53356063e-01 1.53068975e-01
5.94073394e-03 -1.62928198e-02 6.06078394e-02 4.09327820e-02 4.07200545e-01 -3.56924976e-03 -5.62299835e-03 2.43638605e-02 3.99555080e-02 -1.35896904e-02 -1.32164173e-02 -7.51313642e-02 1.04639813e-01 -1.68920010e-02 -2.80052354e-03 -1.30231651e-02 8.12279992e-03 -2.47318223e-02 -7.78496191e-02 8.38828161e-02 1.39422625e-01 5.06366007e-02 -1.99155994e-02 9.48117115e-03 -1.29175097e-01 -1.42730817e-01 1.49340527e-02 3.59335244e-01 -4.00104932e-02 -5.91375530e-02 -9.46802844e-04 -2.55570352e-01
-3.85621637e-01 1.29308850e-01 -1.27588958e-01 -7.55714178e-02 -2.66082615e-01 -1.48514761e-02 -1.59388050e-01 6.98213756e-01 -1.67094022e-02 -6.79069385e-02 -1.80520147e-01 7.07535326e-01 5.03153384e-01 3.19309056e-01 1.29202709e-01 5.51176779e-02 -1.18117638e-01 3.22853848e-02 -1.43571585e-01 -3.39755677e-02 -1.42972574e-01 -6.22598290e-01 -2.05193639e-01 -2.19536781e-01 -3.36344838e-01 -1.74536824e-01 -6.14060462e-01 4.25720185e-01 -2.50478536e-01 -2.56884992e-01 -2.52601683e-01 5.10246813e-01
-5.54702505e-02 -2.34870434e-01 5.50909460e-01 2.66054332e-01 -5.01076579e-01 2.98509985e-01 4.38093722e-01 -5.54697573e-01 4.06603634e-01 4.04833049e-01 -8.09015408e-02 4.11964834e-01 -9.42547768e-02 2.11540163e-01 2.10008413e-01 -1.89252174e+00 7.89021552e-02 -8.32555473e-01 -7.14419782e-02 1.54309288e-01 -6.96836133e-03 1.62695840e-01 3.00673187e-01 1.84678063e-01 -2.11885005e-01 -5.33767402e-01 -7.14076087e-02 -2.54024208e-01 -3.85800540e-01 -4.78571147e-01 5.49783230e-01 -3.19338799e-01
-2.74264872e-01 1.32278036e-02 -1.19666360e-01 1.42689332e-01 -1.37981713e-01 4.33109812e-02 1.53589964e-01 -1.38789862e-01 -4.90054071e-01 1.70047688e+00 -3.68487000e-01 -9.67560560e-02 -2.60147452e-01 1.25654387e+00 -1.87446669e-01 -4.01426516e-02 6.45548292e-03 -3.95226739e-02 -2.04018429e-01 -3.09317142e-01 1.23059683e-01 2.25102052e-01 1.91590134e-02 -1.87852278e-01 -4.05454300e-02 9.88709256e-02 4.14328247e-01 3.51811469e-01 2.82085270e-01 -4.68686670e-01 3.81320268e-01 -1.92360267e-01
-1.18005238e-01 -1.97180167e-01 6.42994940e-01 4.70237702e-01 -7.97230378e-02 -3.75057906e-01 -1.08918381e+00 1.34759024e-01 2.34377339e-01 4.20461893e-01 6.50467724e-02 -4.10108007e-02 1.22922435e-01 1.79187700e-01 -2.52023816e-01 6.99809253e-01 2.45603211e-02 2.81615645e-01 -1.33351818e-01 -3.09566379e-01 8.28045905e-01 4.38935250e-01 3.54500264e-01 -6.27049387e-01 1.00610077e-01 3.87916602e-02 -2.12105513e-01 2.98355281e-01 -1.38144910e-01 3.22762549e-01 -1.62350520e-01 -3.94033700e-01
5.93163013e-01 -4.43526715e-01 5.82079649e-01 9.82524276e-01 -5.78152716e-01 5.05158961e-01 -9.44520116e-01 -5.43991208e-01 9.56469178e-01 -4.83044177e-01 -2.58515120e-01 6.76112175e-01 -1.23775876e+00 -1.86858892e-01 7.64762640e-01 -9.89182234e-01 -1.27494216e-01 -3.28154832e-01 4.98740196e-01 6.95284784e-01 5.38667440e-01 -4.18734908e-01 -1.88914025e+00 -5.01800537e-01 7.25704074e-01 5.57668388e-01 -8.15766633e-01 -6.07183576e-01 7.64738172e-02 1.26486695e+00 -4.23747361e-01 -2.42950559e-01
-1.76771414e-02 1.75181344e-01 -5.24875112e-02 -4.79001589e-02 -1.62392512e-01 -3.70767638e-02 3.11104972e-02 -3.88802066e-02 -5.16602919e-02 -2.18797605e-02 4.13759016e-02 9.78512466e-02 8.54365751e-02 -4.80862930e-02 1.68767452e-01 -1.27323017e-01 9.95789766e-02 1.92282677e-01 -2.14188900e-02 -2.80487299e-01 1.37680307e-01 2.84008458e-02 -1.89859122e-02 -2.48203911e-02 -2.99255222e-01 -3.95341367e-02 2.10213568e-02 -7.91687742e-02 -1.08629661e-02 -7.57832825e-03 -6.09318435e-04 -2.23200321e-01
1.06801726e-01 1.97669163e-01 1.55656457e+00 5.59359968e-01 -1.18076217e+00 1.86478481e-01 -2.59032160e-01 -6.43934131e-01 8.44331563e-01 5.42935848e-01 2.59863794e-01 -4.24332589e-01 -1.00548470e+00 1.00645065e+00 1.20589517e-01 -3.45221114e+00 -3.72408867e-01 -4.52522564e+00 4.10375714e-01 -2.87322644e-02 -1.18803608e+00 9.07546103e-01 3.94798785e-01 3.22325230e-01 2.22868159e-01 -2.65376806e-01 -4.15646434e-01 6.86703146e-01 -2.51100987e-01 1.06854513e-01 -4.85593900e-02 -2.27722209e-02
-8.10227156e-01 1.73470065e-01 1.42373517e-01 -7.53551722e-01 -5.34210019e-02 -1.54390663e-01 -1.98607087e-01 5.15526593e-01 -7.75260478e-02 -8.37616436e-03 1.05068661e-01 -2.84382641e-01 4.51712370e-01 4.45868850e-01 -3.82452399e-01 -4.02879059e-01 2.06759572e-01 -2.67040074e-01 -3.62573534e-01 1.74373314e-01 5.84775321e-02 7.07907259e-01 2.29442343e-01 -2.59055138e-01 -1.48307145e-01 3.31837773e-01 -7.22148120e-01 1.19417123e-01 9.58863050e-02 -5.76901674e-01 -1.06645584e-01 -6.84781015e-01

layers.2.bias:
-1.33267176e+00
-8.36566508e-01
8.05858314e-01
-6.01940989e-01
1.01638705e-01
-2.61267662e-01
2.77074605e-01
2.13816595e+00
4.12838280e-01
8.46481979e-01
-9.13741708e-01
-1.27524531e+00
-4.27080065e-01
8.64221215e-01
-2.73002774e-01
-6.83685184e-01
-7.57262409e-02
-7.29634285e-01
3.36782694e-01
-7.58227706e-02
-1.08865917e-01
7.65266001e-01
7.80091405e-01
-8.91438350e-02
-3.72461945e-01
1.04355073e+00
-9.52575684e-01
-1.04558122e+00
5.10566831e-01
-1.17908978e+00
2.17286646e-02
-1.00845486e-01
7.73838937e-01
1.20636538e-01
-1.72831476e-01
-2.43608225e-02
-1.41921639e-01
1.38703799e+00
1.01703513e+00
-1.04378834e-01
9.87626731e-01
-1.82642981e-01
-5.17405987e-01
1.39826810e+00
2.67739981e-01
-9.65851605e-01
1.06226170e+00
-3.92643958e-01
7.97754049e-01
1.82333434e+00
1.97766289e-01
2.89413631e-01
1.24747574e-01
-6.11962736e-01
2.31810182e-01
-2.85909567e-02
8.23270619e-01
-1.25160158e-01
-1.47578090e-01
-6.20513916e-01
4.01740462e-01
6.29552901e-02
-3.33151042e-01
7.14549124e-01

layers.4.weight:
2.93687403e-01 1.67864840e-02 -6.10893704e-02 2.31653750e-02 -4.57387343e-02 3.60056683e-02 -9.67987755e-04 -6.83915317e-01 -5.77233396e-02 -4.07492906e-01 3.28313261e-02 8.87925386e-01 -1.59067357e+00 -8.46871287e-02 1.09637147e-02 -1.53266680e+00 -2.04397846e-04 6.78456351e-02 2.92658294e-03 -4.60241063e-05 2.25163009e-02 -1.25073940e-01 -2.22965796e-02 3.15619051e-01 -1.01634555e-01 -3.42106968e-02 3.79959494e-02 7.47024119e-01 -4.21978951e-01 3.87089819e-01 -3.97350453e-02 -1.58918291e-01 -1.04640260e-01 6.90326618e-04 3.59018259e-02 5.72949124e-04 -4.19603020e-04 -1.79938376e-01 -3.56740020e-02 1.72370046e-01 -4.69440967e-02 2.68401623e-01 2.53476726e-04 -1.23802744e-01 4.55135945e-04 1.30670309e-01 -8.74824822e-03 -3.32204811e-03 -1.17582768e-01 -6.39264882e-01 -4.21564020e-02 -4.23306338e-02 4.81276214e-03 -1.52447785e-03 -1.03896737e+00 4.12357971e-04 -1.31277298e-03 -2.97063529e-01 -8.37618113e-02 2.26515252e-02 -4.72818166e-02 7.79078400e-05 1.00499892e+00 -1.77199803e-02

layers.4.bias:
-1.06520450e+00

