layers.0.weight:
3.31696361e-01 -5.67613244e-01 7.97264636e-01
5.69172144e-01 -8.09445798e-01 -5.80563486e-01
-8.31293464e-02 -6.13938749e-01 -5.77727258e-01
-1.07055378e+00 1.15616508e-01 4.58123112e+00
2.67282110e-02 4.11940843e-01 1.16166264e-01
-5.79876065e-01 8.58121514e-01 -1.84879377e-01
-1.31842160e+00 4.86020595e-01 -9.88645032e-02
-6.01682402e-02 7.88846374e-01 -9.23566997e-01
6.03414774e-01 -9.26082134e-01 5.12713566e-02
-1.11527514e+00 5.86289167e-02 -1.64189592e-01
7.53551662e-01 -9.85680073e-02 1.41279221e+00
-7.16238439e-01 -1.31785080e-01 -1.29353356e+00
-4.30584475e-02 7.12955832e-01 -1.57757306e+00
-1.16726887e+00 2.10410804e-02 5.00053525e-01
-6.46977663e-01 1.09646142e+00 7.52028525e-01
-1.81771189e-01 9.48456824e-01 1.64468549e-02
5.46070874e-01 -6.33792400e-01 -1.45019031e+00
-1.15504665e-02 1.12846863e+00 1.84981868e-01
8.07071701e-02 -9.54183042e-01 5.35116851e-01
3.41117471e-01 -1.28724232e-01 -8.64976227e-01
2.23475501e-01 1.65966094e-01 -5.10879010e-02
-3.24195027e-01 -2.56797969e-01 -1.00232065e+00
-4.64660525e-01 1.65601885e+00 -4.46076952e-02
-1.56447518e+00 4.06930357e-01 1.75152493e+00
1.05132234e+00 3.79940838e-01 -7.78481364e-01
2.59609371e-01 6.71772659e-01 -1.17486012e+00
-1.16151750e-01 -2.13369340e-01 1.90187418e+00
-3.97779703e-01 -2.44972542e-01 1.92939892e-01
3.22416067e-01 7.57217348e-01 -1.46468067e+00
-1.04933763e-02 4.65525806e-01 1.70563948e+00
-2.89658904e+00 2.84448242e+00 -1.78299040e-01
-1.26738083e+00 -5.19488692e-01 1.02004325e+00

layers.0.bias:
8.77201200e-01
4.81547834e-03
-1.42384720e+00
-6.34384930e-01
7.07518518e-01
-2.04255387e-01
-3.54310095e-01
2.86240637e-01
-7.45998621e-01
-1.59115899e+00
1.64644122e-01
1.80825554e-02
2.46107668e-01
-1.21306002e+00
-2.90836543e-01
1.43946290e+00
9.34610724e-01
1.82654703e+00
-6.68276668e-01
5.78918040e-01
-1.44309163e-01
-1.35729384e+00
1.02535832e+00
-7.05530941e-02
1.36946186e-01
5.60703695e-01
8.80503118e-01
-1.57881156e-01
-4.88352716e-01
7.31267482e-02
8.91685039e-02
-6.70209900e-02

layers.2.weight:
-2.96230465e-01 2.79303879e-01 1.02078266e-01 -5.38159907e-01 -9.22118425e-02 -7.37887472e-02 1.27927154e-01 -2.47282647e-02 -9.65362489e-02 2.62942767e+00 3.39774899e-02 1.20504707e-01 -1.71383917e-01 2.34221673e+00 -2.55989105e-01 4.54783052e-01 -1.28158210e-02 6.39434159e-01 1.28154382e-01 -2.12732553e-01 1.80694178e-01 -2.54383478e-02 -5.73196709e-01 5.40417016e-01 -1.78231567e-01 6.64227009e-01 -8.41848075e-01 -8.08375105e-02 -1.77855060e-01 -2.72432357e-01 -3.29155862e-01 3.49521160e-01
-7.37049729e-02 1.67571142e-01 -8.47157717e-01 4.89470474e-02 -4.26329136e-01 1.41869307e-01 -7.82566786e-01 -4.84222680e-01 5.76977611e-01 6.58367991e-01 3.41464847e-01 -2.71442324e-01 2.50084162e-01 -7.69529417e-02 -3.20945084e-01 1.23204544e-01 -3.37962657e-01 3.15416008e-01 -4.09681797e-01 -5.15018664e-02 6.35479033e-01 -1.21267863e-01 -4.42977309e-01 -6.47311062e-02 2.86088157e-02 -5.22553362e-02 -3.28185916e-01 -5.41576803e-01 6.63123354e-02 -2.22516879e-01 -2.54630987e-02 1.60334915e-01
-2.48648990e-02 -4.57036681e-03 1.61428023e-02 -7.29693413e-01 -6.74683332e-01 -3.87543328e-02 -4.97145236e-01 3.06019366e-01 4.78039294e-01 7.14121580e-01 -5.24190068e-01 -1.09019689e-01 1.39580786e-01 3.08656208e-02 -9.56441313e-02 -7.53585696e-01 -1.06252462e-01 -6.48118079e-01 -8.16612020e-02 3.16884786e-01 -4.85694915e-01 -2.68918216e-01 3.80832464e-01 -1.16800368e+00 -6.58142090e-01 4.03876066e-01 -1.14865625e+00 2.15752006e-01 4.05490875e-01 -3.57550174e-01 6.58766329e-02 3.77671331e-01
1.48002177e-01 -1.80034861e-01 1.83002144e-01 1.24701929e+00 3.31476390e-01 4.84052122e-01 7.60533571e-01 -1.43505707e-01 -2.49980301e-01 5.68979122e-02 6.05258010e-02 3.89826000e-02 -4.77352589e-01 2.66337097e-01 7.25090861e-01 8.03762257e-01 -4.24365938e-01 4.55135852e-01 2.26277947e-01 -1.18714702e+00 -8.11428905e-01 -5.09240963e-02 4.68102217e-01 1.68190563e+00 -1.16790545e+00 -4.57455456e-01 3.98783505e-01 6.62936270e-01 -5.67775071e-01 -2.58843780e-01 7.68674687e-02 7.08784223e-01
1.05475865e-01 -3.73081654e-01 2.14986071e-01 -3.87567461e-01 1.78192854e-01 -2.99557567e-01 -1.15726566e+00 1.17796220e-01 9.45387036e-03 -5.00509441e-01 4.99465883e-01 -8.39871824e-01 7.45659769e-01 -7.85986602e-01 -7.76933432e-02 -6.52512133e-01 -3.72238725e-01 -7.08115816e-01 -1.03197724e-01 -1.55514061e-01 8.57368708e-01 -6.04677558e-01 2.51695126e-01 -2.72443891e-01 -8.71446311e-01 5.82343876e-01 1.58068910e-01 -5.72928786e-01 -2.94729829e-01 6.80391192e-01 -2.47702613e-01 1.20007358e-01
-4.23675537e-01 2.12466717e-01 3.34801108e-01 1.57401234e-01 -7.74750292e-01 -2.10445121e-01 -2.49231324e-01 3.24678689e-01 2.10495412e-01 -5.21747880e-02 6.03220642e-01 3.15808684e-01 -6.70742467e-02 -1.41321898e-01 -3.02968025e-01 -1.01405311e+00 -3.65387112e-01 -1.19925201e+00 6.30808294e-01 -2.63606071e-01 -6.49398625e-01 -2.11449824e-02 -6.20341301e-01 -2.26587206e-01 -1.25794206e-02 9.92072970e-02 1.40829727e-01 1.25266910e+00 -1.38058811e-01 -4.42380726e-01 -5.01505554e-01 3.77560169e-01
5.08733168e-02 -2.75125913e-02 -2.40521327e-01 -8.29646364e-03 -1.28677875e-01 1.69637010e-01 -3.85804176e-02 -4.19815451e-01 -1.18720829e-01 2.37431929e-01 2.92031527e-01 8.63275528e-02 2.91051626e-01 8.82861950e-03 9.35080647e-03 -2.78357297e-01 9.74682719e-03 1.37514442e-01 -3.74564290e-04 -3.07060331e-01 -4.10105556e-01 7.36722350e-02 6.02351911e-02 1.87113713e-02 1.72894359e-01 2.75393426e-01 -3.57743949e-01 -4.36759472e-01 -1.54709563e-01 7.27039278e-02 2.09235661e-02 1.29451543e-01
2.81366348e-01 1.17626563e-01 -4.24026877e-01 3.67098153e-01 3.44403714e-01 -6.58291221e-01 8.14966708e-02 4.78485584e-01 6.73775077e-02 -3.15621167e-01 -1.18217267e-01 9.49015975e-01 3.02602232e-01 -5.58384478e-01 -1.79271534e-01 2.40408346e-01 5.22320747e-01 2.19436243e-01 2.41003320e-01 4.97076333e-01 -1.44730556e+00 -9.15728629e-01 1.40773728e-01 3.15521419e-01 2.21727297e-01 7.34162211e-01 6.14006162e-01 5.16013741e-01 -5.88055491e-01 5.04805207e-01 1.72758907e-01 -2.81878471e-01
1.87105350e-02 2.83954859e-01 -5.45989156e-01 -2.75157481e-01 1.34082246e+00 -3.83878767e-01 -7.76475132e-01 -2.87335515e-01 -6.13599598e-01 2.42731422e-01 4.71709043e-01 1.79855451e-01 7.10646510e-01 -3.16675931e-01 9.47785079e-02 1.76598501e+00 3.51375431e-01 1.40294194e+00 -6.39071763e-01 -1.14442416e-01 2.02327356e-01 -2.58820266e-01 1.23687074e-01 2.62734056e-01 7.96036124e-02 4.16641623e-01 2.56695654e-02 -7.34156892e-02 3.13748941e-02 1.46472096e-01 2.13252974e+00 -3.22271466e-01
-6.22904718e-01 1.34360626e-01 -9.08522680e-02 -5.29284596e-01 3.73263448e-01 1.66927557e-02 -4.18565422e-02 3.78008604e-01 4.32457507e-01 -1.55296281e-01 3.82936094e-03 2.55765438e-01 1.89353183e-01 2.22777441e-01 -3.67838383e-01 -8.94000888e-01 3.56421828e-01 -5.12999535e-01 -4.18293774e-01 -3.21310200e-02 -6.47244692e-01 -2.25894749e-01 1.06347941e-01 -5.63074127e-02 -2.17474997e-01 -8.86402726e-02 -1.80678234e-01 2.36023933e-01 2.70708680e-01 1.54936567e-01 1.50088847e-01 -2.99963378e-03
8.39835852e-02 -3.68261397e-01 -1.34107396e-01 -3.29624325e-01 -4.13102597e-01 -2.50516742e-01 -3.63191724e-01 1.19151197e-01 4.80656981e-01 3.15055370e-01 -4.97315496e-01 -1.47394255e-01 8.23872983e-01 -2.66271204e-01 -1.54876217e-01 -3.49453360e-01 -6.74806118e-01 -8.18038523e-01 -8.11699219e-03 -7.33384863e-02 1.08441556e+00 -2.86374807e-01 -7.52354860e-01 2.08281696e-01 -6.33822754e-02 -9.37652066e-02 -4.01011109e-01 -5.86734533e-01 2.73530006e-01 -3.64393353e-01 -6.76131202e-03 3.29071939e-01
-3.54726277e-02 1.89761594e-01 1.63629448e+00 -8.29308331e-01 -8.26762915e-01 6.77543506e-02 1.04039341e-01 -4.47883397e-01 2.23927021e-01 1.81980443e+00 8.07950273e-02 -1.61620349e-01 2.47378424e-01 3.35124874e+00 -9.27464664e-02 -8.93458366e-01 2.82346934e-01 -2.61542749e+00 6.42969728e-01 -3.73388201e-01 1.94225684e-01 5.51652610e-01 -3.51187676e-01 9.02895331e-01 -1.39008641e-01 -6.01040602e-01 3.40842813e-01 -3.43358107e-02 3.92320864e-02 7.50049949e-02 -4.70404848e-02 -2.79274434e-01
-6.90550208e-01 -2.58073181e-01 9.41152036e-01 4.26209927e-01 -6.38389111e-01 6.60496652e-01 4.40107938e-03 -8.89407635e-01 3.54016393e-01 4.07123744e-01 2.09894150e-01 1.14812866e-01 -5.14706433e-01 -8.45829677e-03 5.34414589e-01 -4.19765186e+00 -2.07845733e-01 -5.98939037e+00 5.16502142e-01 -1.06615090e+00 -6.29482806e-01 4.76161242e-01 6.98940516e-01 -1.05816491e-01 -1.78478882e-01 -2.40712345e-01 -3.46471876e-01 5.98991573e-01 -5.83464563e-01 -3.05562675e-01 -1.27299070e+00 -3.52033257e-01
2.83476338e-02 -1.35838702e-01 -6.21194601e-01 -5.45126125e-02 -1.90344423e-01 -4.10236865e-02 2.00122029e-01 3.34593415e-01 3.96875411e-01 -2.08204955e-01 5.40941954e-01 -2.05955908e-01 3.23602259e-01 -8.10079813e-01 -3.44796598e-01 -1.21236093e-01 -2.44093716e-01 1.33437738e-01 -1.02407254e-01 1.07924864e-01 -3.21149193e-02 -1.42367676e-01 4.29698937e-02 -2.02944890e-01 -1.39456853e-01 7.51929581e-01 1.80184434e-03 5.69365174e-02 -1.87173858e-01 2.69803107e-01 1.44734114e-01 3.69365335e-01
-9.12404716e-01 2.30793953e-01 -2.59493813e-02 3.35038871e-01 -2.48806685e-01 6.21499360e-01 -3.72152537e-01 -1.14711531e-01 4.55379456e-01 -1.82361856e-01 -7.65912056e-01 2.44429305e-01 1.58549502e-01 -3.27772230e-01 -2.97948688e-01 -7.13793159e-01 2.34509364e-01 -7.25396454e-01 -3.65778416e-01 3.23632926e-01 1.35728359e+00 9.61875379e-01 -5.22893034e-02 1.71658263e-01 -3.55233520e-01 1.06997646e-01 -5.95321834e-01 3.93042192e-02 7.62170196e-01 -2.51723230e-01 -9.79546905e-02 1.26652211e-01
-3.90961200e-01 5.83348237e-03 7.56934583e-02 1.39186546e-01 -2.98010767e-01 1.41490623e-01 -8.19047630e-01 -1.28577143e-01 1.42333359e-01 5.32503843e+00 5.54498255e-01 4.74485874e-01 2.10554123e-01 2.72628784e+00 -1.17388241e-01 -6.32474944e-02 -4.08118188e-01 -2.00683385e-01 1.36358827e-01 -1.99343383e-01 -8.03484380e-01 4.10526454e-01 5.29867932e-02 2.72767186e-01 -5.08850157e-01 -4.45952445e-01 -6.25124633e-01 4.62385148e-01 -2.33969763e-01 -6.63644433e-01 2.11029142e-01 -1.33725315e-01
-4.55513783e-02 1.72092140e-01 -4.52729166e-02 3.99957933e-02 -1.31759383e-02 5.21159684e-03 6.24375930e-03 -6.39734641e-02 1.44600021e-02 -1.80210590e-01 6.97438046e-02 2.80255433e-02 3.66355702e-02 9.85559598e-02 9.62832496e-02 9.63163748e-03 5.40520735e-02 -1.62278842e-02 -1.06443698e-02 1.02413230e-01 2.67359287e-01 1.39778584e-01 -6.99143019e-03 1.88328475e-02 6.29205853e-02 -1.54561386e-03 6.06381521e-02 2.92893291e-01 1.51012558e-02 4.03398508e-03 -1.75391920e-02 2.41845120e-02
1.99282601e-01 -1.25145689e-01 -5.63884556e-01 3.92436050e-02 7.93044940e-02 -2.09535077e-01 -2.69238770e-01 -2.87824064e-01 3.15842360e-01 -7.06508756e-01 6.07422441e-02 -1.67576224e-02 2.14136586e-01 3.97483297e-02 -7.29930475e-02 1.24929868e-01 -3.07412922e-01 4.21679109e-01 -1.61688074e-01 9.24419761e-01 3.14228743e-01 1.03680141e-01 -4.71472114e-01 -1.32308930e-01 -9.09374729e-02 -4.16854024e-01 8.34021091e-01 -5.88559031e-01 2.69903779e-01 3.02919477e-01 -3.47634517e-02 1.66240841e-01
-2.69928694e-01 -8.16484317e-02 -2.78946429e-01 -2.29552090e-01 3.80589515e-01 1.01661859e-02 1.75787225e-01 1.46705389e-01 3.87708634e-01 -4.03515816e-01 -1.82908744e-01 -8.90258849e-01 4.96726155e-01 -1.59271404e-01 -1.89457446e-01 1.97254017e-01 -1.47032753e-01 2.71371216e-01 1.33632690e-01 -8.46262127e-02 -3.73513475e-02 -1.67094827e-01 4.58201051e-01 -2.80527502e-01 2.05501750e-01 2.14358196e-01 -1.98920548e-01 3.59548062e-01 6.05467595e-02 3.26985180e-01 4.85842019e-01 1.51272953e-01
5.00897542e-02 2.04616472e-01 2.51465812e-02 7.44076893e-02 -9.81182158e-02 8.92866328e-02 -2.23868527e-02 -9.60837677e-02 5.54270931e-02 9.24941748e-02 7.14162067e-02 1.07197940e-01 -7.80178607e-02 -7.74684399e-02 9.95668173e-02 4.36897337e-01 6.12994097e-02 -3.35314065e-01 5.78268431e-02 -1.06275029e-01 -1.01721592e-01 -1.06897391e-01 -4.81186155e-03 -3.74903120e-02 3.58925760e-02 1.04283854e-01 9.48272087e-03 2.06412505e-02 1.07474446e-01 1.91041287e-02 -2.80866586e-02 4.89806756e-02
5.28631091e-01 -1.90276399e-01 6.61930203e-01 4.90852386e-01 -2.63189137e-01 -2.33504325e-01 -6.32548332e-01 -9.69070569e-02 -3.34250718e-01 -8.69292974e-01 -1.41615495e-01 1.01217985e+00 5.31076133e-01 -4.57430571e-01 7.58396149e-01 6.10323131e-01 -8.28581974e-02 -2.12378412e-01 4.64163780e-01 4.83476818e-01 -4.98209566e-01 1.03063852e-01 5.52041233e-01 1.42437145e-01 1.13614291e-01 -3.33814353e-01 5.52156866e-02 3.36980373e-01 -8.42208788e-02 -1.18173160e-01 7.63824359e-02 4.06056345e-01
2.21241757e-01 -1.16137497e-01 8.82233679e-02 1.36478618e-01 3.39287221e-02 1.64279968e-01 9.42670584e-01 8.72484744e-02 4.61448669e-01 2.77103126e-01 3.18479389e-01 3.75603527e-01 -3.85417521e-01 -5.69502234e-01 1.33329257e-01 -9.59926367e-01 -4.46370430e-02 -7.45040298e-01 -8.77063647e-02 -4.35861379e-01 -4.79562759e-01 3.16834636e-02 2.65771240e-01 -4.30632383e-02 1.24706767e-01 -4.17071104e-01 -7.21357346e-01 3.95497680e-01 -8.26028138e-02 -2.00095117e-01 2.45437682e-01 -1.15642272e-01
8.59913453e-02 -1.27974758e-02 -2.70966470e-01 4.18546826e-01 4.98239845e-02 3.44469011e-01 3.63924503e-01 -2.84641683e-01 -3.29803407e-01 3.28601211e-01 2.95178760e-02 7.39133582e-02 4.23342675e-01 4.91602331e-01 -1.64797321e-01 -4.63613212e-01 5.40362239e-01 -1.37333497e-01 5.41791879e-02 -2.48784170e-01 -3.96779567e-01 5.39183617e-02 -3.85347188e-01 2.13742390e-01 -4.23437476e-01 -1.26054078e-01 -4.29402590e-02 -4.08851027e-01 1.71844345e-02 -1.04343653e-01 -6.26023561e-02 -2.29371533e-01
7.69124568e-01 -5.32494001e-02 -2.88305879e-01 1.89056769e-01 1.28584951e-01 -4.81837034e-01 -6.21637814e-02 3.11486453e-01 3.21759045e-01 -2.76066875e+00 1.31347224e-01 1.47891060e-01 3.61866057e-01 -1.66215193e+00 1.27466679e-01 3.18360001e-01 1.25036418e-01 2.44822562e-01 -2.20776752e-01 -2.03165617e-02 4.88513410e-01 -2.56004572e-01 -3.09096783e-01 -2.22472195e-02 -3.66885304e-01 -2.07636401e-01 -3.39337140e-02 -1.60971031e-01 2.31363147e-01 1.27744824e-01 -3.52365792e-01 -1.77593037e-01
-8.50113690e-01 1.43732041e-01 2.10183468e-02 1.36250272e-01 -1.45504579e-01 -3.38649064e-01 9.99062836e-01 -1.28869206e-01 -9.92281139e-01 7.25567460e-01 -7.13376284e-01 2.66520604e-02 1.50224671e-01 7.83902332e-02 -6.95769787e-01 2.81740397e-01 5.90116024e-01 3.60360861e-01 3.61051500e-01 3.36116599e-03 -2.02303350e-01 3.79038721e-01 5.45642853e-01 9.69831586e-01 -3.99564713e-01 5.04131198e-01 -6.05482876e-01 5.89792952e-02 8.45461905e-01 -4.39682901e-01 1.15169547e-01 -3.16859111e-02
-5.35324633e-01 6.14332199e-01 -4.75740656e-02 -1.32637337e-01 5.36440432e-01 1.47159874e-01 -9.43697989e-03 4.99463767e-01 -2.95412272e-01 4.86103296e-01 7.59891793e-02 -1.62917867e-01 2.05780998e-01 2.21734837e-01 -5.54023325e-01 -2.43529975e-01 -1.30460560e-01 -1.23024851e-01 4.05347049e-01 -4.09558088e-01 -2.23168675e-02 -2.83855259e-01 1.31290006e-02 -4.86094743e-01 8.32881257e-02 -2.19153553e-01 -5.55833757e-01 -4.82967854e-01 1.59422025e-01 -3.58023465e-01 -2.25832239e-01 -2.55368620e-01
-1.42232418e-01 2.25488648e-01 4.48532522e-01 3.75177830e-01 -2.91034311e-01 -2.79310733e-01 -1.22972623e-01 -2.28675708e-04 3.10460389e-01 -4.38134491e-01 -5.67007065e-01 -8.06969479e-02 -2.81413287e-01 -2.54718512e-01 6.19985424e-02 5.31129539e-01 -9.37399641e-02 1.93131343e-01 2.84552515e-01 1.96367681e-01 8.39413106e-02 -7.59728789e-01 1.63122863e-01 1.02765448e-01 2.83827603e-01 1.68707177e-01 2.85753757e-02 -5.74108601e-01 -2.71531790e-01 -1.04517445e-01 1.08971544e-01 -2.55972892e-01
-7.84847438e-01 4.81518626e-01 -5.93251765e-01 -1.02479637e+00 -2.56134093e-01 -2.40217134e-01 -3.10476750e-01 4.05741125e-01 9.84274670e-02 4.91676122e-01 -5.64019084e-02 1.96374968e-01 1.92892119e-01 2.96398968e-01 -2.93342788e-02 1.03417552e+00 7.04013586e-01 1.12423921e+00 -6.36963367e-01 8.88162330e-02 5.42117834e-01 -7.59051561e-01 -6.66630685e-01 3.97574633e-01 -2.34176472e-01 -4.33677435e-01 2.66146183e-01 2.64073312e-01 5.20467579e-01 -8.29240680e-01 2.07181498e-01 -1.61424130e-01
1.77844852e-01 -5.60213625e-01 -8.01252723e-02 -8.13350230e-02 -5.60760975e-01 5.15636444e-01 2.30935812e-02 -5.14612198e-01 5.47823489e-01 8.97969723e-01 -2.03452647e-01 9.26916674e-02 5.16190350e-01 4.36672479e-01 4.01963182e-02 -1.05888498e+00 -4.78587329e-01 -1.02737451e+00 9.73920226e-02 1.84452921e-01 2.30757371e-01 3.20187956e-01 1.67469367e-01 1.90073684e-01 3.10293496e-01 6.82884008e-02 -3.76336902e-01 -2.44305536e-01 -3.16147417e-01 -3.05606157e-01 4.18432832e-01 2.46439621e-01
-2.12631881e-01 -1.08023071e+00 4.89457518e-01 1.43245351e+00 1.86685935e-01 2.53988355e-01 -7.55169392e-02 -1.01731569e-01 -3.58717233e-01 3.59854281e-01 9.44038689e-01 -8.81757200e-01 -9.48476672e-01 -5.30476034e-01 3.55541557e-01 3.91204238e-01 -1.10079300e+00 7.98731863e-01 4.55374122e-01 -4.05914396e-01 1.15363514e+00 3.40827376e-01 1.88146591e-01 -3.52807254e-01 3.38992178e-01 -3.39982957e-01 5.23594730e-02 -3.35005730e-01 -7.26140082e-01 1.11957610e+00 -4.60479677e-01 -3.19123775e-01
-6.94196105e-01 -1.46270081e-01 2.56187558e-01 1.15111165e-01 3.23205218e-02 1.98077172e-01 2.47365519e-01 2.37098653e-02 -3.73601526e-01 -2.54922628e-01 -9.43398178e-01 2.60512173e-01 4.80315953e-01 6.85742274e-02 1.41004458e-01 -1.87612668e-01 3.85581285e-01 -8.24716762e-02 -1.27151012e-01 -3.31149846e-01 -7.11058259e-01 9.11052302e-02 -3.14884968e-02 -7.15312541e-01 2.14352414e-01 5.81275702e-01 -1.34293050e-01 -9.51570738e-03 -3.82870942e-01 -2.42233902e-01 -2.10969284e-01 -3.84819582e-02
-3.16927999e-01 -3.08665842e-01 -1.10245712e-01 -1.93156779e-01 -2.63780385e-01 -3.47757153e-02 2.01720253e-01 3.02546561e-01 -6.13293588e-01 1.42118108e+00 -1.84346497e-01 -7.71491602e-02 -4.64431316e-01 4.81101453e-01 -1.52691990e-01 1.91159546e-03 5.00064902e-02 1.07069045e-01 -4.38880175e-02 -1.62461206e-01 2.34573066e-01 1.94281846e-01 3.53168160e-01 -1.26691423e-02 7.17951730e-02 -2.88557094e-02 -2.35002264e-01 1.67038366e-01 3.16164047e-01 2.71190733e-01 1.33145019e-01 8.37657079e-02
-9.38403979e-02 -3.30957562e-01 2.24997625e-02 -1.29749030e-01 -3.59131515e-01 4.70747292e-01 -1.88757345e-01 -3.97602439e-01 8.38490203e-02 -3.78273815e-01 -6.16893778e-03 4.66238707e-01 2.30255857e-01 4.29974556e-01 3.00149977e-01 -5.72526932e-01 -4.20478910e-01 -1.28122902e+00 -6.10322990e-02 -2.98152924e-01 -1.14678390e-01 9.02652025e-01 4.39872324e-01 5.88568747e-01 -4.41901565e-01 1.60321310e-01 1.00841492e-01 -2.33755365e-01 -3.51553231e-01 -2.91288465e-01 -9.45150629e-02 -1.07937463e-01
4.70868051e-02 -5.62536046e-02 1.12762608e-01 -8.67237598e-02 2.59155810e-01 -9.60282162e-02 7.16655403e-02 -3.24062556e-01 -1.82631373e-01 3.55574310e-01 1.50788546e-01 1.82995781e-01 7.90928453e-02 -3.09043109e-01 -6.58750832e-02 -2.90822774e-01 6.99194148e-02 1.86157942e-01 -1.64122626e-01 -5.27673662e-01 1.31630644e-01 -1.75958142e-01 -1.19009055e-01 -5.04122786e-02 -1.19906161e-02 2.22476751e-01 -5.63403554e-02 -2.71585654e-03 1.04423478e-01 7.46459514e-02 3.21371704e-02 3.90566606e-03
2.55970925e-01 -5.20274282e-01 -2.65991181e-01 7.65491247e-01 -3.63929898e-01 -6.19124889e-01 4.72971320e-01 -2.12295741e-01 -1.53388304e-03 2.78422117e+00 -5.81078231e-01 1.05954587e+00 6.44001424e-01 9.71049070e-01 6.91869199e-01 -9.70819220e-02 4.47817259e-02 -7.63345957e-02 7.33648121e-01 3.64793867e-01 1.10701010e-01 1.43489942e-01 -3.50091517e-01 1.05289900e+00 -1.23737849e-01 1.17419086e-01 -2.98798800e-01 4.21672732e-01 -4.20454517e-02 2.52784397e-02 4.94246781e-01 9.49025303e-02
-1.33991227e-01 2.02125669e-01 1.50638327e-01 7.66143054e-02 1.82543155e-02 -4.94248047e-02 -1.70993935e-02 1.06370382e-01 5.81880659e-03 -2.28068177e-02 1.68624327e-01 6.64958507e-02 8.27780887e-02 -2.31954698e-02 1.48224697e-01 1.90452799e-01 4.02580909e-02 -1.57541975e-01 -1.98186003e-02 8.41464177e-02 -1.47944644e-01 -2.88279336e-02 -2.65990924e-02 6.26761059e-04 -4.72465664e-01 -2.45195910e-01 4.85816188e-02 -1.11703701e-01 -5.97885512e-02 -5.32044880e-02 -1.20467562e-02 -4.45824742e-01
-2.09742375e-02 -6.30295575e-02 -3.23331431e-02 2.52732728e-02 -2.47531891e-01 1.88221298e-02 -3.30958627e-02 1.51264772e-01 5.75978756e-02 -3.85572761e-02 -1.35675007e-02 -2.78793126e-02 -6.98014051e-02 4.52122018e-02 -7.68020526e-02 2.04965323e-01 -1.14513829e-01 -1.57751188e-01 2.06224527e-02 3.21930707e-01 -2.32860550e-01 -8.61437023e-02 -2.10667402e-03 -2.29408778e-02 7.48777855e-03 -1.08783960e-01 -6.40427470e-02 -4.61681969e-02 -6.22178391e-02 5.31994998e-02 -2.87085939e-02 4.18166351e-03
7.88913548e-01 -2.59446800e-01 2.84254581e-01 3.22825253e-01 -2.49398157e-01 2.21141912e-02 -4.55087692e-01 8.70226324e-02 5.81407130e-01 9.12740380e-02 -1.95530206e-01 5.98463044e-02 8.04471225e-02 2.28119731e-01 7.27246404e-01 -3.32909822e-01 -4.38742816e-01 -4.95585918e-01 1.96897745e-01 -2.52599239e-01 -7.51374304e-01 2.24687487e-01 -1.24728106e-01 1.92564011e-01 7.39589512e-01 -2.51831766e-03 2.04916865e-01 -1.67030007e-01 -4.64860797e-01 2.09332228e-01 8.04111212e-02 1.66204482e-01
1.14854641e-01 -4.16772991e-01 -2.66911536e-01 3.99526626e-01 2.44628161e-01 -5.82437575e-01 1.28765136e-01 1.57015845e-02 2.20632866e-01 -2.39310071e-01 -2.53816277e-01 4.64502096e-01 3.62466276e-01 -2.71298885e-01 2.56491363e-01 -5.06194472e-01 -3.33920360e-01 -6.91845894e-01 3.88904423e-01 -4.03023571e-01 -2.73194432e-01 -2.97714397e-02 3.66625935e-01 6.56274557e-01 -1.59540325e-01 -3.13881695e-01 4.32490975e-01 1.28077520e-02 -1.06935859e-01 -4.28640962e-01 1.05029941e-01 2.50131309e-01
-3.55997346e-02 -1.08372234e-01 8.20159256e-01 5.09009063e-02 -1.20248830e+00 -2.37830848e-01 2.06877902e-01 -6.83766827e-02 6.39702857e-01 7.20131040e-01 -2.02762306e-01 -3.08583587e-01 6.78532794e-02 7.33431101e-01 8.76529738e-02 -2.36987376e+00 -3.39189142e-01 -2.82170558e+00 9.80079100e-02 2.63811238e-02 -7.10278094e-01 7.17709720e-01 2.74947345e-01 9.63152796e-02 4.54180717e-01 1.92856133e-01 2.76566476e-01 2.73457970e-02 -2.61003040e-02 -8.23031068e-01 -3.63911927e-01 -6.19272999e-02
-2.02186912e-01 -2.46693075e-01 -2.39980876e-01 -2.85254449e-01 -2.71320373e-01 5.62756777e-01 1.77557915e-01 -1.04124650e-01 -1.24578118e-01 3.90350133e-01 -1.99926823e-01 1.60164684e-01 6.01680018e-02 -2.59050220e-01 -1.19250067e-01 -4.81465608e-01 3.03698957e-01 -6.45791888e-01 -2.93733507e-01 1.46265738e-02 -3.19277644e-01 4.01706606e-01 -1.28779531e-01 3.63062292e-01 3.58923078e-01 -5.27612925e-01 4.76435125e-01 6.53718486e-02 7.86736012e-02 1.30400762e-01 -8.08867812e-02 4.49485108e-02
4.01084572e-01 6.53259516e-01 6.45145893e-01 -3.87094259e-01 2.32485667e-01 1.97149128e-01 2.19060630e-01 -1.07989758e-01 -8.52256238e-01 1.00883937e+00 -2.61442393e-01 -2.65510201e-01 -4.52513129e-01 1.13967216e+00 1.89516053e-01 1.61958486e-01 4.73009376e-03 -8.60736907e-01 2.45084971e-01 -2.99366772e-01 1.01371668e-01 6.73216343e-01 -8.97352695e-02 -3.87211144e-01 6.20253325e-01 -7.78725505e-01 5.05522609e-01 -1.08600102e-01 -2.78874665e-01 -5.84722221e-01 -1.45240780e-02 -4.28090930e-01
-5.12664095e-02 -3.79441738e-01 2.06801072e-01 -2.23355979e-01 -2.07194850e-01 1.52751744e-01 1.44782096e-01 -2.39614144e-01 -5.06830812e-01 -3.04190636e-01 -1.54862761e-01 4.72511277e-02 -4.81611378e-02 4.12334532e-01 5.11111081e-01 2.96648860e-01 2.92144299e-01 -4.01775777e-01 7.45521719e-03 1.95828080e-01 -2.41647735e-01 3.47747624e-01 -3.52664649e-01 1.22021824e-01 -4.93244603e-02 -2.09809154e-01 3.58673096e-01 7.17738748e-01 -3.74482423e-01 -5.04655361e-01 2.98260033e-01 3.28119427e-01
-1.20665836e+00 1.70509204e-01 1.15373969e-01 -1.26870334e+00 -1.72715902e-01 -1.46045268e-01 1.74190238e-01 4.73165244e-01 1.88264519e-01 3.42230439e-01 -9.44422662e-01 6.92311049e-01 1.03773928e+00 4.95595306e-01 -7.42374778e-01 1.27347261e-01 5.25915682e-01 -5.39666712e-01 -2.22324610e-01 9.52844501e-01 -6.50364220e-01 -3.42958391e-01 -4.24128890e-01 5.55795617e-02 4.98706311e-01 9.30296540e-01 9.00119662e-01 7.57077515e-01 4.60584551e-01 -9.94711101e-01 1.06338218e-01 3.06202590e-01
-8.23511705e-02 8.42962414e-02 2.84832090e-01 -4.60595116e-02 3.55068445e-01 -9.37711596e-02 1.17089637e-02 4.58407179e-02 -4.90216240e-02 1.95464864e-01 2.52894722e-02 2.54183132e-02 -7.63594126e-03 -1.39751971e-01 8.98690596e-02 -1.38984680e-01 9.31586847e-02 8.49710479e-02 1.35792798e-04 -4.09169286e-01 1.26590565e-01 -1.17594548e-01 1.89190134e-02 3.69106326e-03 1.43116608e-01 -2.50271847e-03 7.68593252e-02 1.27934769e-01 3.23038548e-02 -8.72566253e-02 3.89380120e-02 5.76958098e-02
-4.85538282e-02 3.16242218e-01 2.76464850e-01 -8.55220854e-02 1.82673946e-01 3.93470712e-02 6.25773370e-01 2.49416873e-01 1.69641241e-01 -1.23797798e+00 -3.11567307e-01 4.99334693e-01 6.21590078e-01 -3.40421587e-01 -5.38779259e-01 -7.27036968e-02 5.69226027e-01 -3.11335772e-01 3.96053419e-02 -4.05111194e-01 9.14558351e-01 -3.20443124e-01 -4.66928892e-02 -1.37552381e+00 4.90759239e-02 4.77645993e-01 -9.58456337e-01 -8.92950475e-01 2.30097219e-01 -8.27531219e-02 -8.74876007e-02 -2.56265491e-01
5.97788453e-01 -3.07821006e-01 -2.79111713e-01 4.36398089e-01 -7.31621608e-02 -4.86591943e-02 -7.79967606e-02 -1.39430553e-01 4.82791811e-01 -9.50616002e-02 -1.31926075e-01 -4.03789282e-02 7.62769520e-01 -3.42704773e-01 3.52634043e-01 -3.55749935e-01 -2.41594538e-02 -4.97251660e-01 2.49420911e-01 -7.10714236e-02 -3.64123404e-01 1.42729118e-01 1.62227467e-01 1.53171152e-01 -2.02768128e-02 -2.09084511e-01 7.91744828e-01 5.24020076e-01 -3.68470520e-01 3.33003730e-01 1.93395838e-01 2.76466042e-01
-2.62676567e-01 3.57298583e-01 -1.55965239e-01 -4.85797599e-02 -5.95502257e-01 -2.02337965e-01 6.40545711e-02 4.56294894e-01 -5.83696440e-02 -5.47947764e-01 -1.83511093e-01 -2.21237671e-02 -3.44302326e-01 1.72911838e-01 2.42226064e-01 -2.05557808e-01 -8.08073506e-02 2.03934804e-01 1.44242179e-02 3.62064242e-01 -2.15948865e-01 -3.66193801e-02 -1.66148040e-02 -4.79685366e-02 -1.11768760e-01 -1.17682241e-01 2.66633540e-01 -2.70956457e-01 1.18737288e-01 4.55107633e-03 -4.68807342e-03 1.68734878e-01
6.33749291e-02 -5.20720959e-01 -8.38704854e-02 -9.74866003e-02 -7.53686279e-02 -1.67038754e-01 -4.50334363e-02 -1.67003408e-01 -4.03628469e-01 4.50572997e-01 -4.20234725e-03 7.11074471e-02 3.47419232e-01 2.96543479e-01 -1.56240582e-01 -5.59031308e-01 -1.98234603e-01 -1.41182736e-01 -1.53648816e-02 5.51645160e-02 8.28617737e-02 -4.75760922e-02 5.71781516e-01 6.10110015e-02 -3.81906688e-01 2.25985244e-01 3.48347723e-01 9.30102468e-02 -7.28492513e-02 1.32721841e-01 -6.16525635e-02 -2.04520822e-01
9.16790485e-01 -8.75696465e-02 -6.25468314e-01 2.12129399e-01 3.30306590e-01 1.91444725e-01 5.97898722e-01 1.94523245e-01 -4.00175065e-01 -8.27412665e-01 -8.52573335e-01 1.36024630e+00 8.10215473e-02 -8.06245744e-01 3.84433597e-01 8.75880420e-01 -5.73612750e-02 6.68020070e-01 -2.39361569e-01 -8.57432093e-03 -1.53115666e+00 -3.81769210e-01 -7.11192191e-01 -9.24257636e-02 -5.45581758e-01 -3.14211696e-02 2.60983407e-01 6.96416557e-01 -4.42247763e-02 7.96369910e-02 1.71638187e-02 5.85370481e-01
-1.73116133e-01 3.38663049e-02 -9.03976262e-01 -8.70802179e-02 2.33780369e-01 3.83857489e-01 1.83529835e-02 4.33908999e-02 1.41133703e-02 5.32259524e-01 -4.17023152e-01 -1.19837892e+00 3.94523621e-01 1.63149208e-01 -2.81408459e-01 6.00205302e-01 -5.73230833e-02 1.30679166e+00 -4.51275021e-01 1.43359751e-01 3.80513698e-01 -9.98160467e-02 2.45563108e-02 6.50360525e-01 -2.28244781e-01 7.94031739e-01 -1.13178141e-01 -3.37440223e-01 1.13090694e-01 1.06442310e-01 6.71590507e-01 -1.11378253e-01
-2.84894351e-02 3.58540803e-01 -1.56212658e-01 -6.33530200e-01 -5.29464558e-02 7.36092627e-01 2.83018291e-01 7.97865272e-01 3.16338003e-01 3.23670536e-01 9.37961698e-01 -2.54146487e-01 1.00052923e-01 2.38701120e-01 5.32890260e-02 -6.71780467e-01 3.01625609e-01 -5.34211732e-02 -3.21458966e-01 -5.29969096e-01 -2.60871015e-02 -2.17298105e-01 2.61108488e-01 1.32060289e-01 -2.19688505e-01 1.75742686e-01 1.72215104e-02 -3.41455489e-02 -5.41149259e-01 2.36060992e-01 -1.89523339e-01 1.10751756e-01
7.17787966e-02 2.90869530e-02 -9.49886292e-02 1.80633040e-03 -4.44329828e-02 3.50049548e-02 1.87797938e-02 6.25976771e-02 -3.10771316e-02 -3.20120752e-02 -5.29551357e-02 -4.01120782e-01 2.45241806e-01 2.13505685e-01 2.15042639e-03 1.54518038e-01 6.69547170e-02 -2.73628030e-02 1.21607400e-01 2.55319238e-01 1.53186679e-01 3.09342653e-01 1.22082740e-04 2.05296174e-01 -1.18066587e-01 -2.97859728e-01 -1.84078008e-01 -1.90826312e-01 -3.14266533e-01 -1.45326868e-01 -7.10377563e-03 -2.47746274e-01
4.18201178e-01 1.85623709e-02 5.55167079e-01 3.96971792e-01 3.31805825e-01 4.29285914e-01 9.73270178e-01 -3.49985093e-01 7.32273817e-01 -6.20668456e-02 -6.10718012e-01 1.64058149e-01 -5.18773079e-01 -3.58269215e-01 -2.24025808e-02 2.47482210e-01 -5.94564438e-01 -4.79947746e-01 2.72685677e-01 -2.65878476e-02 -1.01990908e-01 5.79184294e-01 2.15104327e-01 6.54920220e-01 3.24349403e-02 -1.25083640e-01 -2.31664866e-01 1.78788066e-01 1.84514463e-01 4.18107122e-01 -1.15769938e-01 -2.24547368e-03
-2.57867813e-01 -5.04456401e-01 1.43071568e+00 1.19838156e-01 -7.91382313e-01 -1.83294907e-01 -1.10560048e+00 -1.00076497e+00 2.69200742e-01 1.08325696e+00 2.26803813e-02 -4.79510695e-01 -3.22231114e-01 1.12261522e+00 5.84284961e-01 -1.99279189e+00 1.74520120e-01 -2.61659670e+00 1.78902936e+00 8.11307847e-01 -6.20396197e-01 1.66186154e+00 -4.38541532e-01 2.81846941e-01 3.26570302e-01 -7.19521821e-01 -2.17977360e-01 4.09710914e-01 1.46762609e-01 6.51528016e-02 9.02460992e-01 1.69453502e-01
1.27793634e-02 -4.14299183e-02 3.44477333e-02 4.19388004e-02 4.42955285e-01 1.14666549e-02 -1.80973262e-02 4.31047566e-02 4.09942046e-02 -3.39457393e-02 -2.09503341e-02 -6.60486445e-02 1.09262995e-01 -3.35328542e-02 2.20546462e-02 -3.44621874e-02 1.11127999e-02 -1.72672439e-02 -1.00288749e-01 8.90408307e-02 1.24056332e-01 3.77254225e-02 -7.62860710e-03 2.61289496e-02 -1.31238565e-01 -1.28687143e-01 1.71589386e-02 3.58474374e-01 -4.06453721e-02 -5.83230704e-02 2.19234005e-02 -2.55667090e-01
-3.90803188e-01 -9.15240217e-03 -1.63242623e-01 -3.50746028e-02 -1.71778902e-01 5.06565534e-03 -9.99966189e-02 6.69718742e-01 -1.36934385e-01 -4.58446667e-02 -1.44524917e-01 6.47468865e-01 4.62694347e-01 2.64808953e-01 2.54115582e-01 2.37853855e-01 -1.92359686e-01 1.72543660e-01 -1.32478431e-01 -6.88709170e-02 -1.29036903e-01 -6.43516481e-01 -1.69671461e-01 -1.99240014e-01 -3.69123161e-01 -2.20034540e-01 -5.74925244e-01 4.27960843e-01 -2.85846680e-01 -2.10518509e-01 -1.64793581e-01 5.46708763e-01
1.01426840e-01 -1.19171314e-01 5.56239307e-01 2.74547696e-01 -6.89171374e-01 1.58270642e-01 3.21305394e-01 -6.56456172e-01 5.76877773e-01 2.85474807e-01 -9.63022336e-02 4.40599501e-01 -1.12922966e-01 1.76289767e-01 8.03382248e-02 -2.29009271e+00 1.52100950e-01 -1.14047599e+00 1.68302819e-01 1.77924424e-01 -1.99190646e-01 1.51580513e-01 1.55680299e-01 2.18615517e-01 -2.79214084e-01 -5.60733438e-01 -5.70633486e-02 -7.18102902e-02 -4.92683619e-01 -4.80112106e-01 4.25549537e-01 -2.69354224e-01
-2.66814590e-01 2.19577365e-02 -1.15202956e-01 1.23206571e-01 -1.09979481e-01 3.58635858e-02 1.84991106e-01 -1.34181932e-01 -5.24455965e-01 1.67512774e+00 -3.85538280e-01 -8.22816193e-02 -2.44083971e-01 1.23307860e+00 -1.87465385e-01 -7.63239060e-03 2.12506987e-02 -2.52470449e-02 -2.03891635e-01 -2.90587157e-01 9.84993428e-02 2.48644173e-01 7.18522444e-02 -2.09679097e-01 -5.92504852e-02 1.08853102e-01 3.94123554e-01 3.67301404e-01 2.92367101e-01 -4.86685544e-01 4.10788059e-01 -1.73035413e-01
-1.26801163e-01 -2.13182434e-01 5.99572182e-01 4.91754770e-01 -1.55271292e-01 -3.49462032e-01 -1.08209693e+00 1.47132993e-01 2.26032570e-01 4.33054894e-01 1.07401542e-01 -6.90823197e-02 1.07942604e-01 1.95506111e-01 -2.29870588e-01 5.02945304e-01 1.29487021e-02 1.78325295e-01 -1.53540611e-01 -3.27751338e-01 9.02784526e-01 3.45000714e-01 3.72135460e-01 -5.99088728e-01 5.71924411e-02 2.98350304e-02 -1.92696765e-01 2.25712255e-01 -1.01922140e-01 3.41133595e-01 -1.34431258e-01 -3.20693374e-01
1.26055145e+00 -3.50693792e-01 4.56744045e-01 9.48505700e-01 -3.26966017e-01 1.24134406e-01 -7.97492862e-01 -5.92779934e-01 5.96426308e-01 -1.07323718e+00 -3.12047690e-01 7.76241601e-01 -1.21011639e+00 -2.53933936e-01 6.38904393e-01 -4.17583525e-01 -5.90731204e-02 -3.04545555e-03 7.96222210e-01 7.71168649e-01 2.51831293e-01 -4.64104444e-01 -2.11141849e+00 -5.38807690e-01 5.50519347e-01 5.78619361e-01 -8.39854956e-01 -3.09887350e-01 -1.08621903e-01 1.22323740e+00 -7.01822460e-01 -1.16102703e-01
-2.54903808e-02 1.89181447e-01 -2.95575373e-02 -5.03040552e-02 -1.71083048e-01 -4.80609238e-02 1.96509212e-02 -5.18182069e-02 -4.26030941e-02 -8.95533524e-03 4.38986309e-02 9.23023820e-02 7.97113106e-02 -2.50070617e-02 1.49260640e-01 -1.42054856e-01 9.69562754e-02 1.78474724e-01 -1.20628662e-02 -2.86636531e-01 1.46118909e-01 4.97597270e-02 -2.35350654e-02 -2.44175717e-02 -3.06950361e-01 -5.60123175e-02 1.75027270e-02 -6.67835400e-02 -3.58671113e-03 -9.67986975e-03 -7.18302792e-03 -2.15475276e-01
1.18856721e-01 2.52719253e-01 1.60960996e+00 4.89729941e-01 -1.30297554e+00 1.41874239e-01 -3.25367212e-01 -5.90450644e-01 8.64188433e-01 4.69846278e-01 2.05617696e-01 -3.70752364e-01 -9.36337829e-01 1.11316872e+00 3.72580625e-02 -3.53696465e+00 -3.55193138e-01 -4.67737198e+00 3.97177100e-01 1.63032115e-02 -1.27657032e+00 9.59807277e-01 3.40620607e-01 2.34974384e-01 2.24179253e-01 -2.02998251e-01 -4.82736498e-01 7.72842288e-01 -2.12762579e-01 3.19738276e-02 -1.46226808e-01 -3.50679494e-02
-8.06481600e-01 1.86400563e-01 1.00033917e-01 -7.16238320e-01 4.39178236e-02 -1.70282617e-01 -2.04457119e-01 4.68070209e-01 -5.94119690e-02 -7.79863354e-03 1.38253823e-01 -3.19677442e-01 4.15271431e-01 4.44506437e-01 -4.07427192e-01 -2.11033896e-01 2.04170659e-01 -1.08366080e-01 -3.37815315e-01 1.29333854e-01 6.36729673e-02 6.78410113e-01 2.08849847e-01 -2.23927647e-01 -1.24684796e-01 2.71750957e-01 -6.85796201e-01 8.48207399e-02 6.79953843e-02 -5.35295010e-01 -1.25961870e-01 -7.34696209e-01

layers.2.bias:
-1.33166862e+00
-8.02904248e-01
6.96955085e-01
-6.74205661e-01
1.72767043e-01
-3.91882151e-01
2.96768367e-01
2.16583896e+00
5.16792417e-01
8.28655720e-01
-9.79172587e-01
-1.30166066e+00
-4.40840960e-01
9.21695530e-01
-3.16277295e-01
-6.37044966e-01
-9.95259508e-02
-7.61567950e-01
3.46467763e-01
-1.14035964e-01
-1.71437353e-01
7.65698075e-01
8.42441320e-01
-1.35653853e-01
-4.03425664e-01
1.05235815e+00
-1.00002337e+00
-1.05621469e+00
5.01506686e-01
-1.29850876e+00
1.29652113e-01
-5.68234585e-02
7.87621439e-01
1.56210840e-01
-2.55537421e-01
-5.16336001e-02
-1.78308770e-01
1.41992188e+00
1.04891169e+00
-1.70223713e-01
9.64174211e-01
-2.38951400e-01
-5.40941358e-01
1.42582357e+00
2.92330801e-01
-9.44884121e-01
1.07438636e+00
-3.96622509e-01
8.15428674e-01
1.68790567e+00
1.29781082e-01
2.89159000e-01
7.77517334e-02
-6.28960431e-01
2.48973384e-01
6.22396544e-03
8.10494661e-01
-3.35173303e-04
-1.15841046e-01
-6.39074743e-01
7.10850120e-01
4.98857982e-02
-2.84847826e-01
7.24427044e-01

layers.4.weight:
3.04799616e-01 3.62381414e-02 -3.70917805e-02 9.80675966e-03 -3.49388197e-02 4.50900458e-02 -2.13227514e-03 -7.20775902e-01 -6.67665452e-02 -3.97129387e-01 3.85157354e-02 9.29871857e-01 -1.97926795e+00 -1.16370559e-01 1.85796395e-02 -1.49697208e+00 1.55448646e-03 7.17523023e-02 -1.63340278e-03 1.61327503e-03 -6.54562609e-03 -5.79972938e-02 -1.59488712e-02 2.84854710e-01 -2.25133505e-02 -1.73323769e-02 2.00585816e-02 7.71502137e-01 -3.95327181e-01 3.78115147e-01 -3.29785212e-03 -1.32646486e-01 -6.26189113e-02 -5.04466181e-04 7.53660277e-02 2.24074186e-03 8.99928506e-04 -1.32875845e-01 -1.84699334e-02 1.78307563e-01 -2.75743157e-02 2.72858292e-01 1.72805171e-02 -1.14654735e-01 -1.17710512e-03 1.39815807e-01 -1.38965538e-02 1.74951425e-03 -1.06355183e-01 -6.76281512e-01 -5.84984757e-02 3.23249522e-04 5.13167295e-04 1.03202561e-04 -1.28729260e+00 4.74187575e-04 -2.37103016e-03 -3.76573682e-01 -6.07580915e-02 2.58359872e-02 -5.36086261e-02 1.93487977e-05 7.52605557e-01 -8.51615332e-03

layers.4.bias:
-1.10201669e+00

