layers.0.weight:
3.31696361e-01 -5.67613244e-01 7.97264636e-01
5.69172144e-01 -8.09445798e-01 -5.80563486e-01
-8.31293464e-02 -6.13938749e-01 -5.77727258e-01
-1.07055378e+00 1.15616508e-01 4.58123112e+00
2.67282110e-02 4.11940843e-01 1.16166264e-01
-5.79876065e-01 8.58121514e-01 -1.84879377e-01
-1.31842160e+00 4.86020595e-01 -9.88645032e-02
-6.01682402e-02 7.88846374e-01 -9.23566997e-01
6.03414774e-01 -9.26082134e-01 5.12713566e-02
-1.11527514e+00 5.86289167e-02 -1.64189592e-01
7.53551662e-01 -9.85680073e-02 1.41279221e+00
-7.16238439e-01 -1.31785080e-01 -1.29353356e+00
-4.30584475e-02 7.12955832e-01 -1.57757306e+00
-1.16726887e+00 2.10410804e-02 5.00053525e-01
-6.46977663e-01 1.09646142e+00 7.52028525e-01
-1.81771189e-01 9.48456824e-01 1.64468549e-02
5.46070874e-01 -6.33792400e-01 -1.45019031e+00
-1.15504665e-02 1.12846863e+00 1.84981868e-01
8.07071701e-02 -9.54183042e-01 5.35116851e-01
3.41117471e-01 -1.28724232e-01 -8.64976227e-01
2.23475501e-01 1.65966094e-01 -5.10879010e-02
-3.24195027e-01 -2.56797969e-01 -1.00232065e+00
-4.64660525e-01 1.65601885e+00 -4.46076952e-02
-1.56447518e+00 4.06930357e-01 1.75152493e+00
1.05132234e+00 3.79940838e-01 -7.78481364e-01
2.59609371e-01 6.71772659e-01 -1.17486012e+00
-1.16151750e-01 -2.13369340e-01 1.90187418e+00
-3.97779703e-01 -2.44972542e-01 1.92939892e-01
3.22416067e-01 7.57217348e-01 -1.46468067e+00
-1.04933763e-02 4.65525806e-01 1.70563948e+00
-2.89658904e+00 2.84448242e+00 -1.78299040e-01
-1.26738083e+00 -5.19488692e-01 1.02004325e+00

layers.0.bias:
8.77201200e-01
4.81547834e-03
-1.42384720e+00
-6.34384930e-01
7.07518518e-01
-2.04255387e-01
-3.54310095e-01
2.86240637e-01
-7.45998621e-01
-1.59115899e+00
1.64644122e-01
1.80825554e-02
2.46107668e-01
-1.21306002e+00
-2.90836543e-01
1.43946290e+00
9.34610724e-01
1.82654703e+00
-6.68276668e-01
5.78918040e-01
-1.44309163e-01
-1.35729384e+00
1.02535832e+00
-7.05530941e-02
1.36946186e-01
5.60703695e-01
8.80503118e-01
-1.57881156e-01
-4.88352716e-01
7.31267482e-02
8.91685039e-02
-6.70209900e-02

layers.2.weight:
-3.60933602e-01 2.08389252e-01 6.39451593e-02 -4.74162012e-01 -5.33629097e-02 1.83979552e-02 1.06686562e-01 -6.64950833e-02 -1.21565588e-01 2.81797600e+00 9.49595273e-02 6.19440675e-02 -2.31925145e-01 2.43203831e+00 -1.79743260e-01 4.16369379e-01 -8.02123025e-02 6.39057219e-01 1.41202152e-01 -2.83821940e-01 2.49276027e-01 -8.56958479e-02 -5.37917495e-01 6.13553345e-01 -1.21609710e-01 6.05995953e-01 -7.79065132e-01 -1.35166675e-01 -2.26936355e-01 -2.08358973e-01 -2.06022993e-01 2.81512111e-01
-3.79377827e-02 1.27497345e-01 -8.95069599e-01 8.68356302e-02 -2.97054023e-01 1.10746607e-01 -7.82498419e-01 -5.24454951e-01 5.70722163e-01 6.44498646e-01 3.79798442e-01 -3.14967364e-01 2.09521592e-01 -2.79704370e-02 -2.99106926e-01 2.63865739e-01 -3.91140521e-01 4.13267940e-01 -4.06946570e-01 -1.01746075e-01 6.35724306e-01 -1.68041572e-01 -4.25363183e-01 -1.69325415e-02 -1.31709315e-02 -1.08447336e-01 -2.91039675e-01 -5.26841879e-01 3.39553058e-02 -1.83950379e-01 -5.86590506e-02 2.00413078e-01
2.46275309e-02 8.00546259e-02 2.01121256e-01 -6.72783554e-01 -1.07328200e+00 -8.77088383e-02 -5.58564901e-01 2.46558771e-01 5.56420445e-01 7.46616066e-01 -4.67480212e-01 -1.75925627e-01 8.24270770e-02 8.93362090e-02 -1.69561103e-01 -1.02403414e+00 -2.46489838e-01 -1.04976404e+00 -1.55691281e-02 4.12918590e-02 -3.42840582e-01 -2.21777514e-01 3.19586337e-01 -1.21569073e+00 -7.55325079e-01 3.41661721e-01 -1.09360564e+00 3.76518577e-01 3.45509887e-01 -2.96292365e-01 4.35290709e-02 5.03010988e-01
2.84104675e-01 -3.25162001e-02 4.40926515e-02 1.38277102e+00 4.83830750e-01 3.47112596e-01 6.23109877e-01 -2.79254973e-01 -1.06829517e-01 -7.98982531e-02 1.97057247e-01 -9.93678048e-02 -6.13304496e-01 1.23672009e-01 5.85508168e-01 6.90828204e-01 -2.57708311e-01 6.04545593e-01 3.61289978e-01 -9.11477447e-01 -8.37892890e-01 -1.87834173e-01 3.31605762e-01 1.38491070e+00 -4.48503405e-01 -5.89606464e-01 5.34753621e-01 2.76342392e-01 -7.03520358e-01 -1.22791559e-01 -5.91552593e-02 4.39437777e-01
8.23605135e-02 -3.54325414e-01 2.53725976e-01 -4.41961139e-01 7.01474473e-02 -2.72879601e-01 -1.34673953e+00 1.85066506e-01 1.76072881e-01 -5.03776789e-01 4.41610485e-01 -7.70314753e-01 8.03766549e-01 -8.04695129e-01 -7.20200166e-02 -9.17132080e-01 -3.34411472e-01 -8.56502771e-01 -1.79164723e-01 -1.16333887e-01 9.25866067e-01 -5.71328580e-01 2.57619947e-01 -3.28650028e-01 -6.99017406e-01 6.50127769e-01 1.00707591e-01 -6.88005447e-01 -1.91339940e-01 6.24092281e-01 -1.71861500e-01 -6.28373548e-02
-4.81643558e-01 3.28022867e-01 4.43334073e-01 1.44169360e-01 -1.16518939e+00 -2.03641102e-01 -2.07701862e-01 3.15782070e-01 4.66668725e-01 1.62198856e-01 6.40182257e-01 2.52418667e-01 -5.62748499e-02 -1.20466687e-01 -4.32773679e-01 -1.22956598e+00 -2.68052459e-01 -1.58710504e+00 6.79750562e-01 -1.99812770e-01 -5.70046544e-01 7.72511680e-03 -6.79192543e-01 -2.78868228e-01 -5.80721833e-02 1.00834049e-01 1.29658997e-01 1.10409153e+00 -1.90953657e-01 -4.57497060e-01 -5.23258269e-01 4.69412982e-01
5.74204884e-02 -1.14380410e-02 -2.24565119e-01 -1.22228600e-02 -1.44580632e-01 1.59537122e-01 -6.08006828e-02 -4.31594461e-01 -9.11655053e-02 2.69243151e-01 2.90835589e-01 9.42689180e-02 2.89007723e-01 5.23049571e-02 -2.19917856e-03 -3.34202051e-01 1.37051148e-02 8.28525946e-02 1.19594336e-02 -3.10577095e-01 -3.88620168e-01 7.84712806e-02 3.46997567e-02 1.90946925e-02 1.76131740e-01 2.64857173e-01 -3.63460004e-01 -4.37326580e-01 -1.48521513e-01 6.76274821e-02 9.18631535e-03 1.31858483e-01
2.95544028e-01 1.40095383e-01 -3.67273152e-01 3.37225676e-01 2.07415998e-01 -6.62731588e-01 1.11999594e-01 5.01775622e-01 1.15125738e-01 -2.78040022e-01 -1.50332496e-01 9.82899070e-01 3.31707865e-01 -5.67802012e-01 -2.00660631e-01 1.19244061e-01 5.37892282e-01 1.03777729e-01 2.81750917e-01 5.16599655e-01 -1.43408000e+00 -8.81580532e-01 1.22127786e-01 2.70064980e-01 2.36014560e-01 7.62420714e-01 5.83081901e-01 5.01886785e-01 -5.68437636e-01 4.75776136e-01 1.70367435e-01 -2.95306474e-01
1.15958087e-01 2.39807889e-01 -5.71339369e-01 -2.72681177e-01 1.28892434e+00 -4.17051435e-01 -3.16524953e-01 -3.26753467e-01 -8.38606298e-01 2.97056854e-01 4.41488713e-01 2.84097552e-01 7.03349710e-01 -7.75910541e-02 1.12253584e-01 1.76889348e+00 3.19247037e-01 1.41471481e+00 -5.58686495e-01 -1.42872617e-01 6.91311508e-02 -2.87703931e-01 7.48932064e-02 2.77613133e-01 2.63568666e-02 3.96706820e-01 3.41533981e-02 9.46689546e-02 -1.01250615e-02 1.39417991e-01 2.28876972e+00 -2.87509620e-01
-6.50334895e-01 7.27568641e-02 -7.68070593e-02 -5.54834068e-01 4.32103783e-01 5.35262264e-02 -3.18918824e-02 4.09474045e-01 3.70632976e-01 -1.37269586e-01 -2.28578690e-02 2.68769920e-01 2.17347562e-01 1.81598052e-01 -3.11663002e-01 -5.38018346e-01 3.20315719e-01 -3.89317691e-01 -4.55246776e-01 5.29548200e-03 -6.00235879e-01 -2.01593310e-01 1.50746718e-01 -1.19053148e-01 -1.71328068e-01 -5.87499179e-02 -2.06083760e-01 1.81437880e-01 2.95406818e-01 1.33158356e-01 1.67092919e-01 -3.72430347e-02
1.95825890e-01 -2.66467184e-01 -4.89642359e-02 -4.09125596e-01 -5.23601055e-01 -3.82119328e-01 -3.30892950e-01 1.93855345e-01 4.61504281e-01 2.31910259e-01 -5.76115310e-01 -6.74984157e-02 9.03215051e-01 -3.60182047e-01 -2.47953728e-01 -2.76222795e-01 -5.90496898e-01 -9.35284555e-01 -5.62262237e-02 9.61306505e-03 1.00330150e+00 -2.17067391e-01 -8.97586942e-01 1.29781172e-01 -1.00589618e-01 -1.48468018e-02 -4.80383605e-01 -5.16395509e-01 3.18509251e-01 -4.44746673e-01 -9.32479501e-02 3.67191970e-01
-1.29523948e-01 -1.94633380e-01 1.61663675e+00 -8.27172995e-01 -6.05603456e-01 2.06123620e-01 -6.97156936e-02 -3.95042092e-01 -2.12651081e-02 1.84331131e+00 9.65582430e-02 -2.31411323e-01 2.52984762e-01 3.24865723e+00 1.51500136e-01 -5.37757635e-01 2.24408001e-01 -2.24921012e+00 5.41590154e-01 -3.88487965e-01 3.33798409e-01 5.54954290e-01 -1.94331497e-01 8.92254770e-01 -1.96813326e-02 -5.75778723e-01 3.36194843e-01 -1.68219775e-01 1.24066219e-01 8.89015719e-02 1.91774964e-01 -4.00948226e-01
-6.66191220e-01 -2.19447047e-01 1.00923562e+00 4.10097092e-01 -8.05013835e-01 6.60556853e-01 1.09549370e-02 -9.93202686e-01 3.74430776e-01 5.10514379e-01 2.29416534e-01 1.13802902e-01 -5.14921427e-01 -1.23326741e-01 5.23947001e-01 -4.49020576e+00 -1.37606800e-01 -6.21883821e+00 6.89788342e-01 -1.01363063e+00 -6.39817297e-01 4.84296948e-01 6.75287127e-01 -9.58601907e-02 -2.84445614e-01 -2.59375006e-01 -3.56573611e-01 6.29160881e-01 -6.92436039e-01 -3.22588503e-01 -1.12202656e+00 -2.43150815e-01
4.49139774e-02 -1.63832486e-01 -6.25519753e-01 -6.72083199e-02 -1.69284940e-01 -6.08591847e-02 2.76237816e-01 3.25439662e-01 3.50236952e-01 -2.57613838e-01 5.27722001e-01 -1.86490819e-01 3.32608491e-01 -8.09066713e-01 -3.31590354e-01 -5.60345016e-02 -2.50500202e-01 1.98642984e-01 -8.28645751e-02 1.26140475e-01 -5.35882115e-02 -1.40426755e-01 3.07401419e-02 -2.20050737e-01 -1.64848760e-01 7.54830241e-01 -7.97356945e-03 7.82995224e-02 -2.01614052e-01 2.57856697e-01 1.41092598e-01 3.98825943e-01
-1.05099118e+00 1.43723160e-01 -1.15166761e-01 3.93257767e-01 -1.56563088e-01 7.47373223e-01 -3.33035737e-01 -1.48837149e-01 3.75797302e-01 -3.97227779e-02 -7.16870368e-01 1.91076890e-01 1.02889672e-01 -2.20057264e-01 -2.17800006e-01 -6.88893080e-01 1.72546849e-01 -6.55526400e-01 -3.82348269e-01 2.60371327e-01 1.37865019e+00 9.32746649e-01 6.00172542e-02 2.65524507e-01 -4.36367005e-01 5.14746904e-02 -5.37552536e-01 9.69173461e-02 7.28167236e-01 -1.92681029e-01 -2.38079783e-02 1.99280649e-01
-5.70814610e-01 -7.13958293e-02 4.79171388e-02 1.35879934e-01 -2.11119577e-01 2.78337449e-01 -9.27569866e-01 -9.68193114e-02 8.71360451e-02 5.21780300e+00 5.64240694e-01 4.26986843e-01 2.17376947e-01 2.66470504e+00 3.25089879e-03 -2.83103082e-02 -4.30944741e-01 -1.01951241e-01 5.10698557e-02 -2.03734353e-01 -7.01395214e-01 4.07973826e-01 2.04002604e-01 2.76642621e-01 -3.92338246e-01 -4.30271089e-01 -6.32343650e-01 3.33796531e-01 -1.05302349e-01 -6.59346163e-01 2.20798656e-01 -2.43049204e-01
-5.09690344e-02 1.51465118e-01 -5.98116927e-02 3.76524217e-02 -1.57813299e-02 1.54671771e-02 1.80412605e-02 -5.55682443e-02 -3.33291432e-03 -2.19095066e-01 6.50488660e-02 3.28673050e-02 4.45482880e-02 7.57627860e-02 1.08923472e-01 2.68507265e-02 4.15410921e-02 7.27678533e-04 -1.97295975e-02 1.02576099e-01 2.39995703e-01 1.29326552e-01 1.85860340e-02 3.37138027e-02 5.53746894e-02 1.49969505e-02 5.96693382e-02 3.01376790e-01 1.19630145e-02 1.95212162e-03 -2.04898920e-02 2.39772759e-02
1.74005404e-01 -1.49549097e-01 -6.21498764e-01 7.24967346e-02 1.91700250e-01 -1.91387147e-01 -2.08861724e-01 -3.28100532e-01 2.86233723e-01 -6.57002449e-01 9.05274823e-02 -4.66247723e-02 1.78968430e-01 8.85716900e-02 -5.08116968e-02 1.93119675e-01 -3.35127801e-01 5.15185773e-01 -1.43311933e-01 8.91451776e-01 3.06400806e-01 6.38478547e-02 -4.51729208e-01 -9.76740122e-02 -1.43441096e-01 -4.60367471e-01 8.67692709e-01 -5.10717154e-01 2.26876706e-01 3.35199445e-01 -1.97618827e-02 2.13608027e-01
-2.68012226e-01 -1.09331787e-01 -3.72283369e-01 -1.69863313e-01 5.40545642e-01 2.35502962e-02 9.63421389e-02 8.04484040e-02 4.18738157e-01 -4.77418721e-01 -1.20648876e-01 -9.60065186e-01 4.35537398e-01 -1.99675083e-01 -1.56243205e-01 2.60591239e-01 -1.67013362e-01 4.58138198e-01 1.62706450e-01 -1.08365387e-01 1.77928875e-03 -2.43935764e-01 5.08212209e-01 -2.96536922e-01 2.61044383e-01 1.62171274e-01 -1.39698163e-01 3.07794899e-01 3.10134441e-02 3.88583958e-01 4.91443723e-01 1.06317483e-01
8.31680000e-02 1.83944657e-01 -1.29816793e-02 6.91603348e-02 -5.47553524e-02 1.03898086e-01 -2.60586645e-02 -8.18957165e-02 5.91568761e-02 8.43880102e-02 6.42330647e-02 1.22705735e-01 -6.66783154e-02 -7.63435587e-02 1.17849536e-01 4.38434660e-01 6.78434372e-02 -2.99550116e-01 5.35190403e-02 -9.54513475e-02 -1.08454861e-01 -1.35376588e-01 1.05282816e-03 -2.81877052e-02 4.17723320e-02 1.27619043e-01 5.43768285e-03 8.98315758e-03 1.03018843e-01 1.37046110e-02 2.23491192e-02 3.64775434e-02
5.75998604e-01 -1.32879034e-01 6.53074980e-01 5.40249169e-01 -2.80448169e-01 -2.86806494e-01 -6.46545649e-01 -1.51057318e-01 -3.39052051e-01 -8.35375130e-01 -1.03938431e-01 9.77610469e-01 4.79451299e-01 -4.36167300e-01 6.98465288e-01 6.06163800e-01 -6.21746890e-02 -2.15158105e-01 5.15295863e-01 4.63466048e-01 -5.74383199e-01 1.00078173e-01 5.02974749e-01 1.87664345e-01 -5.82734169e-03 -3.90174359e-01 1.07728325e-01 4.66861159e-01 -1.67425305e-01 -7.33342916e-02 1.08280301e-01 5.24494171e-01
2.55644053e-01 -1.13897666e-01 5.78860193e-02 1.45997167e-01 3.74188423e-02 1.35942847e-01 9.54040170e-01 7.23059773e-02 4.43184793e-01 2.30224460e-01 3.25006187e-01 3.80267709e-01 -3.93368006e-01 -5.59468746e-01 9.87497047e-02 -9.29073513e-01 -5.49335815e-02 -6.74696267e-01 -7.43820444e-02 -4.37286973e-01 -5.38089514e-01 1.34075731e-02 2.53116846e-01 -5.45162186e-02 1.00642592e-01 -4.16805744e-01 -7.09548533e-01 4.39230233e-01 -1.03902474e-01 -1.91267163e-01 2.57586122e-01 -8.31349343e-02
1.12009257e-01 2.51615886e-02 -2.75096506e-01 3.90485913e-01 1.17964260e-02 3.17063838e-01 3.14442277e-01 -2.65239209e-01 -2.95513779e-01 2.80510843e-01 2.06654170e-03 1.03243329e-01 4.52384651e-01 4.41375345e-01 -2.12297395e-01 -4.94262904e-01 5.81203222e-01 -1.46079585e-01 8.43807980e-02 -2.12414011e-01 -4.15800184e-01 6.37890399e-02 -4.12317812e-01 1.69820145e-01 -3.78630012e-01 -9.54594612e-02 -7.08407164e-02 -4.52636629e-01 4.44315709e-02 -1.32851526e-01 -5.98335266e-02 -2.53348559e-01
7.54467189e-01 -2.64005661e-02 -2.37725258e-01 1.50415018e-01 1.09186701e-01 -4.79086131e-01 -3.97819616e-02 3.48088682e-01 2.83128291e-01 -2.51936746e+00 9.64460522e-02 1.77386537e-01 3.98202986e-01 -1.60918880e+00 1.24056853e-01 3.27342391e-01 1.45528063e-01 2.15032697e-01 -2.29963839e-01 2.38818955e-03 4.88653541e-01 -1.86212122e-01 -3.14194173e-01 -6.12027459e-02 -3.67029041e-01 -1.74052626e-01 -7.53126144e-02 -1.58737540e-01 2.30300725e-01 9.08224210e-02 -1.58010229e-01 -1.77601963e-01
-8.39631438e-01 1.57495394e-01 5.81100285e-02 1.21876314e-01 -2.28482231e-01 -3.49636823e-01 1.05673420e+00 -1.30641311e-01 -9.88500834e-01 7.47257948e-01 -7.27946937e-01 4.21312489e-02 1.63827777e-01 7.88172185e-02 -7.10242212e-01 2.60038227e-01 6.04355216e-01 2.76859909e-01 4.61964339e-01 1.63882822e-02 -2.68921673e-01 4.15168226e-01 5.28020978e-01 9.56871688e-01 -4.99928772e-01 5.06281972e-01 -6.17748678e-01 1.01904765e-01 8.01574111e-01 -4.54045385e-01 9.97180566e-02 9.93305743e-02
-5.53551137e-01 5.77554584e-01 -2.21036207e-02 -1.65052041e-01 5.21239817e-01 1.75504133e-01 4.13112197e-04 5.35591125e-01 -3.25280249e-01 4.96457160e-01 4.12035957e-02 -1.31195992e-01 2.42520392e-01 2.20550627e-01 -5.16720057e-01 -2.82054782e-01 -1.48873210e-01 -1.46524221e-01 3.76902521e-01 -3.83166283e-01 -2.08998043e-02 -2.56217420e-01 3.44325677e-02 -5.06487012e-01 8.95449892e-02 -1.79565281e-01 -5.87393165e-01 -4.83322740e-01 1.86708689e-01 -3.89876842e-01 -2.11235121e-01 -2.58438468e-01
-1.52166605e-01 2.12038413e-01 4.40920979e-01 3.75539273e-01 -2.40148842e-01 -2.70524710e-01 -1.31099612e-01 -3.73294181e-03 3.00427109e-01 -4.25549060e-01 -5.71929395e-01 -8.47909674e-02 -2.84422338e-01 -2.59285897e-01 8.42580870e-02 5.85817218e-01 -1.05048992e-01 2.31890455e-01 2.61708140e-01 1.82444096e-01 1.13002606e-01 -7.60980129e-01 1.88964620e-01 1.36017010e-01 2.86365271e-01 1.47134155e-01 2.69047823e-02 -5.74937224e-01 -2.52633959e-01 -1.02538027e-01 9.32514518e-02 -2.78289288e-01
-7.95034528e-01 4.70766068e-01 -6.43392086e-01 -1.01465583e+00 -1.45171300e-01 -2.32413918e-01 -3.33988070e-01 4.40859735e-01 9.27774757e-02 4.48863894e-01 -5.66607304e-02 1.88422427e-01 1.86925873e-01 2.68830031e-01 -1.64577812e-02 1.17683446e+00 6.93109810e-01 1.26467764e+00 -9.35695052e-01 8.00220668e-02 5.73022842e-01 -7.75775313e-01 -6.43093228e-01 3.99207324e-01 -1.52816176e-01 -4.24096584e-01 2.73213625e-01 2.20879152e-01 6.03086531e-01 -8.18872690e-01 1.91304281e-01 -2.48444647e-01
1.69787258e-01 -5.42904198e-01 -4.74421121e-02 -1.09578975e-01 -6.10788167e-01 5.20970345e-01 5.07059619e-02 -4.92130250e-01 5.30586004e-01 8.78542960e-01 -2.17984125e-01 1.12969428e-01 5.43251097e-01 4.03684139e-01 2.01601312e-02 -1.06663084e+00 -4.57781851e-01 -1.05020070e+00 9.26183462e-02 2.08127141e-01 2.35792756e-01 3.46413821e-01 1.95154622e-01 1.53800562e-01 2.89256364e-01 9.50089619e-02 -4.05006051e-01 -2.55768090e-01 -2.93553054e-01 -3.32888871e-01 4.40968633e-01 2.84114808e-01
-1.96497828e-01 -1.21019566e+00 4.74904090e-01 1.44844854e+00 2.21826091e-01 2.46088937e-01 9.29554328e-02 -1.20711036e-01 -4.32250112e-01 3.94948661e-01 9.42996323e-01 -8.30209434e-01 -9.65911210e-01 -1.10707209e-01 3.84381860e-01 4.31294024e-01 -1.51048696e+00 1.03415978e+00 4.71420318e-01 -8.19414854e-01 1.08792233e+00 3.29804569e-01 1.73725486e-01 -1.83680236e-01 3.61439198e-01 -3.60410929e-01 6.82062656e-02 -2.38088652e-01 -7.42863357e-01 1.13997328e+00 -4.71951067e-01 -3.39488328e-01
-7.75240541e-01 -2.20619544e-01 4.11209196e-01 1.55633271e-01 -2.97848165e-01 2.88854778e-01 2.96534985e-01 -1.85215231e-02 -4.62010235e-01 -2.05011070e-01 -9.41287100e-01 2.37847939e-01 4.46575403e-01 1.09488271e-01 2.19368815e-01 -3.01499426e-01 3.22895467e-01 -3.86046320e-01 7.54131377e-02 -3.73918682e-01 -8.70030522e-01 3.34469169e-01 7.21372664e-02 -6.71719849e-01 1.98482975e-01 5.77193677e-01 -9.12109539e-02 7.76815936e-02 -4.57416356e-01 -1.99445754e-01 -1.46890134e-01 -2.81063411e-02
-2.90481657e-01 -3.45505893e-01 -1.94392383e-01 -1.39598563e-01 -1.87064990e-01 -5.14206737e-02 2.24836573e-01 2.53487647e-01 -6.14986062e-01 1.30239308e+00 -1.41302899e-01 -1.00014456e-01 -5.14203608e-01 4.82392520e-01 -1.50472105e-01 1.89420991e-02 2.16813684e-02 1.71969414e-01 -2.72282436e-02 -1.90680623e-01 2.14081109e-01 1.22170307e-01 3.51678312e-01 4.29991446e-02 4.47303280e-02 -7.05739707e-02 -1.77294388e-01 1.95272028e-01 2.87434667e-01 3.21096063e-01 2.05075648e-02 1.09720156e-01
-3.70470211e-02 -3.54239255e-01 3.21168676e-02 -1.04226135e-01 -4.48472500e-01 4.30512577e-01 -2.46430472e-01 -4.63881105e-01 1.56517088e-01 -4.47184294e-01 3.24677341e-02 4.32134688e-01 1.99968874e-01 4.08483148e-01 3.18524837e-01 -7.11071551e-01 -4.59000230e-01 -1.36310554e+00 2.30953377e-02 -3.24111670e-01 -1.05986893e-01 8.70093346e-01 4.09610927e-01 6.01973116e-01 -4.39963728e-01 1.33467957e-01 1.26667231e-01 -2.45902449e-01 -3.89449656e-01 -2.64125049e-01 -1.05341755e-01 -1.09126411e-01
2.78349314e-02 -5.73399961e-02 1.17566749e-01 -7.97310248e-02 2.78538287e-01 -7.64217824e-02 6.70230910e-02 -3.29628825e-01 -1.63460374e-01 4.01392013e-01 1.62132800e-01 1.64625004e-01 7.01390952e-02 -2.90428370e-01 -4.40555587e-02 -3.16387773e-01 6.66736662e-02 1.51468053e-01 -1.81989610e-01 -5.40417552e-01 2.00044215e-01 -1.83063015e-01 -1.15801573e-01 -5.15749641e-02 2.97331251e-03 2.07206056e-01 -5.15851751e-02 -4.03567068e-02 1.11917928e-01 8.22485164e-02 8.16346146e-03 -5.54169202e-03
1.01497047e-01 -5.46862304e-01 -2.08825752e-01 7.80231416e-01 -3.36866796e-01 -4.99703795e-01 1.89070523e-01 -1.56958267e-01 -1.42965347e-01 3.00502133e+00 -5.45346737e-01 9.61574554e-01 6.35752678e-01 8.98688257e-01 7.72336841e-01 2.53165830e-02 2.72153243e-02 -5.67764230e-03 5.65348566e-01 3.48944187e-01 2.42267266e-01 1.53031304e-01 -2.61983931e-01 1.07785511e+00 -3.67832929e-02 1.18583210e-01 -2.89158821e-01 2.88975000e-01 3.03516015e-02 4.96105924e-02 8.25403631e-01 9.57450457e-03
-1.43444523e-01 1.86170667e-01 1.33545980e-01 7.73725510e-02 2.20181122e-02 -3.51149142e-02 -1.76572023e-04 1.19137153e-01 -9.83164273e-03 -5.63751198e-02 1.66754127e-01 6.40019998e-02 8.88786167e-02 -5.57943471e-02 1.65143594e-01 2.00139090e-01 3.64020728e-02 -1.45873412e-01 -3.34271044e-02 8.47874656e-02 -1.63289756e-01 -4.04787622e-02 -2.73438659e-03 1.33377584e-02 -4.80200380e-01 -2.29723081e-01 5.02646565e-02 -1.12412393e-01 -6.54029474e-02 -5.19476160e-02 -2.93481033e-02 -4.43065494e-01
5.48978671e-02 -5.06477468e-02 -4.91893031e-02 1.28956120e-02 -2.50650108e-01 -1.10685462e-02 -1.85397174e-02 1.45745620e-01 3.24087404e-02 -6.30503893e-02 -3.23257186e-02 6.14886871e-03 -5.76488003e-02 4.67080474e-02 -1.15211546e-01 2.74726421e-01 -9.11669135e-02 -8.53530318e-02 7.56387934e-02 3.51331681e-01 -3.35558265e-01 -8.42355937e-02 -2.97398143e-03 -3.67514715e-02 -2.24226285e-02 -9.21712741e-02 -7.28984028e-02 2.84574497e-02 -8.09158161e-02 3.90089676e-02 6.85851872e-02 2.77139340e-02
8.18321884e-01 -2.88920045e-01 3.18336993e-01 3.55634332e-01 -4.06343222e-01 3.03643979e-02 -5.54026902e-01 -4.74113738e-03 6.72678471e-01 8.90013352e-02 -1.73861414e-01 3.35207507e-02 4.21097726e-02 2.59534180e-01 7.61229157e-01 -7.18043327e-01 -4.72749770e-01 -7.62940109e-01 5.45235515e-01 -2.85953134e-01 -7.39286542e-01 2.18948558e-01 -1.15110368e-01 2.25207567e-01 7.80289590e-01 -4.69184481e-02 2.39415661e-01 -1.27986372e-01 -5.46525002e-01 2.42086902e-01 1.12636499e-01 1.21562034e-01
1.59890682e-01 -4.26608711e-01 -2.54477769e-01 4.25830394e-01 1.27443478e-01 -5.97083092e-01 5.57972416e-02 -7.25177303e-02 2.95704663e-01 -2.66062170e-01 -2.14661300e-01 4.33889896e-01 3.29862565e-01 -2.64126271e-01 2.70700693e-01 -7.77703643e-01 -3.55923533e-01 -8.82283807e-01 6.75785840e-01 -4.25654590e-01 -2.39730567e-01 -7.23534375e-02 3.61815035e-01 6.71252131e-01 -1.41729698e-01 -3.51162314e-01 4.59919840e-01 -3.72809544e-02 -1.75937340e-01 -4.03175443e-01 7.64178187e-02 2.37244457e-01
8.50506648e-02 -2.67322883e-02 7.50262797e-01 1.01996742e-01 -1.27853072e+00 -3.69315952e-01 2.01443061e-01 -1.57584578e-01 7.52468884e-01 5.95692992e-01 -1.47467539e-01 -3.52787048e-01 1.20113390e-02 7.42483437e-01 -1.90475360e-02 -2.44879985e+00 -3.16039622e-01 -3.12197661e+00 2.27416947e-01 9.54675488e-03 -8.33332062e-01 6.47368073e-01 1.40806049e-01 1.41556382e-01 2.63843477e-01 1.24494992e-01 3.33015054e-01 1.98443711e-01 -1.66389048e-01 -7.80328333e-01 -6.28165901e-01 1.31875932e-01
-2.07000136e-01 -2.41520181e-01 -2.39816010e-01 -3.04397941e-01 -2.74448931e-01 5.64207673e-01 1.59256428e-01 -8.43430459e-02 -1.32855073e-01 3.42674762e-01 -2.19662696e-01 1.86921060e-01 8.09590966e-02 -2.90589482e-01 -1.31759033e-01 -4.56456423e-01 3.19656789e-01 -6.10653520e-01 -3.06365281e-01 4.88283150e-02 -3.47691536e-01 4.09309626e-01 -1.17978379e-01 3.24597895e-01 3.79619330e-01 -4.92045462e-01 4.59712148e-01 6.10357411e-02 8.83739665e-02 1.10318087e-01 -8.65336433e-02 2.80006081e-02
3.85806620e-01 6.59748793e-01 6.31618261e-01 -3.79080862e-01 2.56177157e-01 2.02876985e-01 1.41984522e-01 -1.02207385e-01 -8.29818368e-01 9.79399085e-01 -2.56916553e-01 -2.69459814e-01 -4.58671838e-01 1.13852394e+00 1.79655880e-01 1.75243378e-01 5.40311076e-03 -8.29810560e-01 2.13157699e-01 -3.04410577e-01 9.99437869e-02 6.64316833e-01 -9.87874344e-02 -3.71695220e-01 6.92573369e-01 -7.79079676e-01 5.13107121e-01 -1.32043093e-01 -2.57506520e-01 -5.78099668e-01 1.22609958e-02 -5.02765834e-01
-5.43430038e-02 -3.99976909e-01 1.72875002e-01 -1.46685973e-01 -1.91478178e-01 1.42653435e-01 7.33063892e-02 -3.04493666e-01 -4.74235475e-01 -3.21381837e-01 -7.67071098e-02 -2.65100189e-02 -1.27036169e-01 4.53461319e-01 5.44295847e-01 2.57730782e-01 2.48483211e-01 -4.69776094e-01 2.75721401e-02 1.28807783e-01 -2.26178840e-01 2.79358298e-01 -3.54082704e-01 2.03798488e-01 -4.14464623e-02 -2.89583951e-01 4.34330344e-01 7.12488711e-01 -4.00164604e-01 -4.30303633e-01 2.92034984e-01 3.15840274e-01
-1.01059008e+00 -1.08633451e-01 -4.38250080e-02 -1.15929067e+00 4.77931313e-02 3.09836655e-03 4.19648200e-01 3.95655096e-01 -9.31333601e-02 8.94974768e-01 -1.05026114e+00 9.52625453e-01 7.90425122e-01 6.40712857e-01 -5.07277787e-01 6.04387045e-01 3.36402059e-01 -1.54962212e-01 -2.84944355e-01 7.97004402e-01 -9.84737337e-01 -4.84032601e-01 -2.70829767e-01 1.38729423e-01 3.78388584e-01 7.29491174e-01 1.01169348e+00 1.02844691e+00 3.16213906e-01 -8.76204073e-01 3.93273860e-01 4.19255286e-01
-8.42196345e-02 1.01110958e-01 2.84854770e-01 -4.21568453e-02 3.80670369e-01 -9.30322036e-02 -3.94781120e-03 3.62469256e-02 -1.73373837e-02 2.32148007e-01 3.27891186e-02 1.36828655e-02 -1.46114677e-02 -1.28452063e-01 9.10370350e-02 -1.64839238e-01 1.05702579e-01 6.77792653e-02 -2.02590902e-03 -4.10508931e-01 1.79224804e-01 -1.24429278e-01 1.31851790e-04 -1.14722205e-02 1.61355019e-01 -1.65869389e-02 7.90194869e-02 9.55499709e-02 3.61917578e-02 -8.32137913e-02 1.62741430e-02 4.81684618e-02
-8.16246718e-02 2.83523202e-01 2.86133677e-01 -1.26364246e-01 2.29662061e-01 6.75028712e-02 6.66322410e-01 2.90268660e-01 1.23426266e-01 -1.21153414e+00 -3.52694571e-01 5.40899932e-01 6.62692666e-01 -3.28358054e-01 -5.13301969e-01 1.00688405e-01 5.52929699e-01 -2.14820817e-01 -4.33110166e-03 -4.39182788e-01 8.95647168e-01 -2.90526003e-01 -1.91609524e-02 -1.32245755e+00 -1.07399933e-01 5.22023380e-01 -9.98683631e-01 -8.75452280e-01 2.66123980e-01 -1.22326881e-01 -4.68265526e-02 -2.10024208e-01
6.53817654e-01 -3.22468162e-01 -2.57173270e-01 4.60158825e-01 -1.97999671e-01 -6.98774979e-02 -1.45357549e-01 -2.43889764e-01 5.72764635e-01 -1.15265742e-01 -8.89415219e-02 -7.14219585e-02 7.30978191e-01 -3.34886849e-01 3.73203665e-01 -6.56439185e-01 -4.73497137e-02 -7.10449219e-01 6.94485664e-01 -9.27529782e-02 -3.20752770e-01 9.80067626e-02 1.50847152e-01 1.69342577e-01 -2.72115562e-02 -2.45972782e-01 8.16566110e-01 4.87158656e-01 -4.48376507e-01 3.56590033e-01 1.59794375e-01 2.90472955e-01
-2.61720717e-01 3.39511842e-01 -1.69810638e-01 -4.44526933e-02 -5.74861228e-01 -1.97580710e-01 8.63641500e-02 4.68901604e-01 -8.90137553e-02 -5.84262192e-01 -1.82460561e-01 -2.75386497e-02 -3.42301905e-01 1.36244223e-01 2.53138125e-01 -1.49857074e-01 -8.84278566e-02 2.66791552e-01 1.79181737e-03 3.65061313e-01 -2.45216548e-01 -4.18061651e-02 9.41175409e-03 -4.88468930e-02 -1.14773780e-01 -1.05957843e-01 2.72562474e-01 -2.66918600e-01 1.13320559e-01 9.56840347e-03 1.05078919e-02 1.66170463e-01
9.12735015e-02 -5.16085804e-01 -1.10782720e-01 -1.19871348e-01 -4.76504527e-02 -1.79389477e-01 -8.65083411e-02 -1.79515541e-01 -3.69255543e-01 3.98359150e-01 -2.30838731e-02 9.07102227e-02 3.65799993e-01 2.71991551e-01 -1.73381031e-01 -6.13993406e-01 -1.81763962e-01 -9.67834219e-02 3.16736363e-02 8.04888457e-02 7.13776052e-02 -4.03108373e-02 5.67475200e-01 2.20810771e-02 -3.49048644e-01 2.42327049e-01 3.26568991e-01 7.99819082e-02 -6.50923550e-02 1.11030981e-01 -5.65707646e-02 -2.34608889e-01
1.00785744e+00 1.35418456e-02 -5.99066973e-01 1.63916945e-01 2.10607916e-01 1.10724732e-01 4.89863783e-01 1.77525818e-01 -3.00050259e-01 -9.22999382e-01 -8.64472687e-01 1.39027739e+00 1.16677657e-01 -9.21341538e-01 2.97469050e-01 5.89428961e-01 6.77422509e-02 4.52631861e-01 -1.55294970e-01 1.65773928e-01 -1.51602769e+00 -4.02874082e-01 -8.05168867e-01 -2.51684874e-01 -3.72608185e-01 2.83519868e-02 2.16208413e-01 5.34833968e-01 -1.75743122e-02 2.30480134e-02 -5.91969900e-02 4.46877360e-01
-1.94815904e-01 7.39950761e-02 -9.43590760e-01 -8.42848644e-02 3.28173697e-01 3.95630538e-01 5.97837158e-02 5.99154867e-02 -4.32649329e-02 4.67296541e-01 -4.23690379e-01 -1.17706919e+00 3.93861741e-01 2.23026380e-01 -3.26200694e-01 6.91197753e-01 -6.03374317e-02 1.44691253e+00 -4.99573112e-01 1.28705248e-01 3.30229253e-01 -1.10176891e-01 2.95675341e-02 6.50043666e-01 -2.09909797e-01 8.00713360e-01 -1.11315541e-01 -3.14537197e-01 1.71390310e-01 1.08083874e-01 7.40147710e-01 -1.24450088e-01
-1.28150114e-03 3.71195287e-01 -1.83334902e-01 -6.05685532e-01 -3.61783095e-02 7.22577691e-01 2.83274829e-01 7.81449497e-01 3.28794688e-01 2.68204570e-01 9.67127085e-01 -2.82155007e-01 7.38335326e-02 2.28158772e-01 2.98595522e-02 -6.72394335e-01 2.82778084e-01 -8.29558913e-03 -3.11173469e-01 -5.44363379e-01 -5.84116466e-02 -2.46420324e-01 2.50625879e-01 1.55354261e-01 -2.37775221e-01 1.62140086e-01 4.53490019e-02 -1.02423262e-02 -5.63587427e-01 2.65191197e-01 -2.14682072e-01 1.26536012e-01
9.61619616e-02 9.09736194e-03 -1.25120729e-01 -5.49908215e-03 -1.73536353e-02 4.74255718e-02 -1.31909726e-02 8.44456777e-02 -9.28561110e-03 -3.86634506e-02 -5.91385663e-02 -3.81263465e-01 2.57473350e-01 2.39157155e-01 1.47853792e-02 1.23396516e-01 5.98021261e-02 -4.01065052e-02 1.06495962e-01 2.48335212e-01 1.36043668e-01 2.84568578e-01 -1.35802198e-02 2.54546463e-01 -1.19087525e-01 -2.72749037e-01 -1.91059723e-01 -1.83276609e-01 -3.06490004e-01 -1.54918507e-01 2.89191119e-02 -2.65731096e-01
3.71282429e-01 2.16680206e-02 5.81795871e-01 3.79370809e-01 3.06940705e-01 4.66727465e-01 9.43779469e-01 -3.20292801e-01 7.24261582e-01 -4.02489826e-02 -6.20005131e-01 1.56635329e-01 -5.01788855e-01 -3.92292768e-01 -1.92125735e-03 1.82113796e-01 -5.88386118e-01 -5.27375162e-01 2.20537066e-01 -1.79705918e-02 -4.15001661e-02 6.03818953e-01 2.72684485e-01 6.36545479e-01 6.48221225e-02 -1.07916251e-01 -2.51984507e-01 1.17100596e-01 2.25328058e-01 4.00586337e-01 -1.18331946e-01 -2.74469070e-02
-3.64438623e-01 -5.45702398e-01 1.53619230e+00 1.06072105e-01 -9.48812127e-01 -1.05174541e-01 -1.20265329e+00 -1.03368521e+00 3.08175743e-01 1.10515153e+00 2.87624709e-02 -5.09914458e-01 -3.15540999e-01 9.91565406e-01 6.67629182e-01 -2.15048289e+00 1.57538936e-01 -2.80168080e+00 1.84631121e+00 8.16822231e-01 -5.12055755e-01 1.73161507e+00 -3.58438462e-01 2.56358564e-01 3.21538866e-01 -7.22676218e-01 -2.31613919e-01 3.68935198e-01 1.05164044e-01 5.76135926e-02 8.10419440e-01 1.89431220e-01
-1.68951172e-02 -1.78537443e-02 7.24570155e-02 4.36568148e-02 3.84511739e-01 2.09838196e-04 -7.29858875e-03 2.22627800e-02 3.76975462e-02 -3.06153111e-02 -1.65957846e-02 -8.12307745e-02 1.01815507e-01 -3.05968132e-02 -2.65569746e-04 -3.62184905e-02 -2.25015301e-05 -5.35357893e-02 -8.39342549e-02 7.63622373e-02 1.33113831e-01 6.26105666e-02 -5.85408835e-03 1.26288654e-02 -1.44568935e-01 -1.48050785e-01 1.76612828e-02 3.73377979e-01 -4.08371575e-02 -5.58680370e-02 -3.17984782e-02 -2.35891685e-01
-4.34060127e-01 8.81454125e-02 -6.80473521e-02 -1.42761052e-01 -3.20569068e-01 3.21574435e-02 -8.79899785e-02 7.51706481e-01 -7.48850405e-02 -1.73758715e-03 -2.50779182e-01 7.89686799e-01 5.67641258e-01 2.96718627e-01 1.84744626e-01 5.26057743e-02 -8.11150447e-02 2.75313947e-03 -1.87248290e-01 3.47153619e-02 -9.47544351e-02 -5.63815773e-01 -1.67978734e-01 -2.80000776e-01 -2.84351289e-01 -1.11986257e-01 -6.80383980e-01 3.73299599e-01 -1.90951765e-01 -3.23633194e-01 -1.42918512e-01 4.57494348e-01
1.97531283e-02 -1.91731319e-01 6.37247741e-01 2.64070421e-01 -7.36954749e-01 2.34591380e-01 2.84455001e-01 -6.57208502e-01 5.66812992e-01 3.04260224e-01 -9.66421068e-02 4.13889825e-01 -1.03805110e-01 1.07283041e-01 1.84575275e-01 -2.20415878e+00 1.18584253e-01 -1.16398299e+00 2.20237494e-01 1.79299563e-01 -5.85325100e-02 2.10708633e-01 2.46711820e-01 1.56316906e-01 -1.91407889e-01 -5.55349767e-01 -6.95279986e-02 -1.90934420e-01 -5.04340887e-01 -4.81950700e-01 4.10550833e-01 -3.40292573e-01
-1.36758268e-01 7.50995278e-02 -1.69187322e-01 1.27909437e-01 -1.05292268e-01 -9.28941518e-02 2.86798924e-01 -1.94812849e-01 -5.76015174e-01 1.60253263e+00 -3.95877182e-01 -4.79518659e-02 -2.52424419e-01 1.25059390e+00 -2.75777608e-01 5.08646406e-02 5.63942790e-02 2.31897403e-02 -6.81196153e-02 -2.63290584e-01 -3.78858298e-03 2.13004276e-01 -8.96060988e-02 -2.00810462e-01 -1.85555398e-01 8.32510963e-02 4.08848584e-01 4.85314429e-01 1.54944658e-01 -4.88785475e-01 2.66712487e-01 -4.82808538e-02
-1.30118176e-01 -2.23003209e-01 6.09290123e-01 4.86328036e-01 -6.35370910e-02 -3.52238715e-01 -1.08191788e+00 1.49691120e-01 2.39058107e-01 4.47668791e-01 9.50330868e-02 -6.27167076e-02 1.10725045e-01 2.13082328e-01 -2.17593983e-01 5.47230661e-01 -1.14402117e-03 2.55721450e-01 -1.68874368e-01 -3.35442692e-01 9.34022188e-01 3.69763553e-01 3.77712518e-01 -5.94805539e-01 8.75929743e-02 3.04530822e-02 -1.98836833e-01 2.03132451e-01 -9.21504945e-02 3.37694436e-01 -1.44207731e-01 -3.70320529e-01
1.06835890e+00 -3.41074497e-01 4.86260384e-01 9.13357258e-01 -3.26569408e-01 2.35675514e-01 -7.58759379e-01 -4.93162215e-01 4.71851379e-01 -1.05679619e+00 -3.41837019e-01 7.95747757e-01 -1.16880441e+00 -3.23538125e-01 6.34060264e-01 -3.36985350e-01 -3.49666364e-02 7.41289556e-02 4.84078258e-01 7.95435905e-01 2.93831527e-01 -4.20480400e-01 -2.03285241e+00 -5.83085239e-01 6.20555758e-01 6.36025667e-01 -8.79437327e-01 -3.88468802e-01 9.91313308e-02 1.19027984e+00 -6.14194095e-01 -1.65904820e-01
-5.80808148e-02 1.83505893e-01 -5.31244129e-02 -4.32699211e-02 -1.52915314e-01 -2.01737974e-02 3.24844979e-02 -2.56216880e-02 -5.31526320e-02 -4.09476236e-02 4.81465533e-02 7.66254365e-02 8.34016576e-02 -9.51528698e-02 1.70590088e-01 -1.38716653e-01 1.06815286e-01 1.65079013e-01 -6.19780235e-02 -2.84398735e-01 1.48942024e-01 3.29836942e-02 -2.10192380e-03 -5.43025229e-03 -3.21842045e-01 -4.08670045e-02 2.49727573e-02 -7.70342052e-02 -5.29269408e-03 -2.50264001e-03 -5.92776760e-02 -2.01184198e-01
9.94287506e-02 3.55393797e-01 1.67327082e+00 4.75013822e-01 -1.37557232e+00 1.59652978e-01 -2.16746256e-01 -6.24469876e-01 8.89651477e-01 5.76419652e-01 2.01262906e-01 -3.86125535e-01 -9.28905725e-01 8.73665094e-01 -2.94625480e-03 -3.75168180e+00 -1.92123443e-01 -4.81023884e+00 4.71607357e-01 1.28290907e-01 -1.20920455e+00 1.01435769e+00 3.38692725e-01 1.17498383e-01 1.74411446e-01 -2.04046994e-01 -4.93464202e-01 6.88843250e-01 -2.91718721e-01 1.96778029e-02 2.04897597e-02 7.38828182e-02
-8.17531347e-01 1.72506198e-01 1.41033649e-01 -7.46606946e-01 -2.18139831e-02 -1.40623495e-01 -2.32452393e-01 4.98836964e-01 -5.04845716e-02 -3.22026177e-03 1.12525873e-01 -2.94681996e-01 4.43287969e-01 4.57087487e-01 -3.82290661e-01 -3.80659997e-01 2.06182197e-01 -2.08098531e-01 -3.39013010e-01 1.76480725e-01 8.33410099e-02 7.04177856e-01 2.39995971e-01 -2.51177967e-01 -7.35071823e-02 3.22398186e-01 -7.15253294e-01 6.71606138e-02 8.72475952e-02 -5.66713095e-01 -1.43594056e-01 -7.89236367e-01

layers.2.bias:
-1.40726650e+00
-7.82581091e-01
5.29656470e-01
-5.37301838e-01
1.23043634e-01
-3.88873249e-01
2.76039332e-01
2.15351534e+00
6.01637542e-01
8.04476023e-01
-8.90941679e-01
-1.42562962e+00
-4.22277361e-01
9.41073537e-01
-3.75896722e-01
-7.11860776e-01
-8.00041556e-02
-7.87768900e-01
3.32138419e-01
-7.76529536e-02
-1.33482069e-01
8.12821269e-01
8.79553080e-01
-1.39952987e-01
-3.84349495e-01
1.03558624e+00
-1.01596963e+00
-1.07257569e+00
5.11608422e-01
-1.28262866e+00
7.06108138e-02
-3.93769406e-02
7.89886236e-01
9.77193192e-02
-3.68290871e-01
-4.27761860e-02
-7.58619234e-02
1.38285661e+00
1.02527690e+00
-7.20102340e-02
9.86647606e-01
-2.36694917e-01
-5.60873747e-01
1.61128008e+00
2.54912853e-01
-9.43713486e-01
1.05149436e+00
-3.67057502e-01
8.40854943e-01
1.77567577e+00
1.48457736e-01
3.22056681e-01
1.14976272e-01
-6.78648174e-01
1.34315580e-01
-4.25010845e-02
7.78021455e-01
-1.11305811e-01
-2.51487456e-02
-6.58228397e-01
6.89027011e-01
4.37924378e-02
-2.81688184e-01
7.06147373e-01

layers.4.weight:
3.91138136e-01 6.89385831e-02 -6.43280596e-02 1.96761731e-02 -4.92547527e-02 1.01724282e-01 -1.05369277e-03 -7.42068946e-01 1.16324790e-01 -4.07810479e-01 5.31464741e-02 9.38228130e-01 -2.09574032e+00 -1.41575307e-01 -2.31265882e-03 -1.39824843e+00 7.70838815e-04 9.22729596e-02 -3.58818471e-02 -2.57993612e-04 -2.52496935e-02 -1.08421825e-01 -3.83436270e-02 1.99763551e-01 -5.38909584e-02 -5.09400293e-02 6.11298233e-02 8.57584417e-01 -3.74545306e-01 4.00922686e-01 -2.68513095e-02 -9.95040014e-02 -7.95228630e-02 1.20520415e-02 1.01358384e-01 1.12007395e-03 -2.66635139e-02 -2.29513139e-01 -6.49914294e-02 2.68539727e-01 -6.02783039e-02 3.10166121e-01 5.61227277e-02 -1.40249953e-01 1.01785874e-03 1.16889127e-01 -6.68258294e-02 -6.43786858e-04 -1.09351888e-01 -6.97456300e-01 -8.62090215e-02 2.25348733e-04 5.09625068e-04 4.30333987e-02 -1.34086466e+00 1.43676845e-03 -2.12926716e-02 -3.83202791e-01 -5.57915829e-02 5.91038652e-02 -4.19479273e-02 4.20295110e-04 9.20301795e-01 -3.14240344e-02

layers.4.bias:
-1.12325656e+00

