layers.0.weight:
3.31696361e-01 -5.67613244e-01 7.97264636e-01
5.69172144e-01 -8.09445798e-01 -5.80563486e-01
-8.31293464e-02 -6.13938749e-01 -5.77727258e-01
-1.07055378e+00 1.15616508e-01 4.58123112e+00
2.67282110e-02 4.11940843e-01 1.16166264e-01
-5.79876065e-01 8.58121514e-01 -1.84879377e-01
-1.31842160e+00 4.86020595e-01 -9.88645032e-02
-6.01682402e-02 7.88846374e-01 -9.23566997e-01
6.03414774e-01 -9.26082134e-01 5.12713566e-02
-1.11527514e+00 5.86289167e-02 -1.64189592e-01
7.53551662e-01 -9.85680073e-02 1.41279221e+00
-7.16238439e-01 -1.31785080e-01 -1.29353356e+00
-4.30584475e-02 7.12955832e-01 -1.57757306e+00
-1.16726887e+00 2.10410804e-02 5.00053525e-01
-6.46977663e-01 1.09646142e+00 7.52028525e-01
-1.81771189e-01 9.48456824e-01 1.64468549e-02
5.46070874e-01 -6.33792400e-01 -1.45019031e+00
-1.15504665e-02 1.12846863e+00 1.84981868e-01
8.07071701e-02 -9.54183042e-01 5.35116851e-01
3.41117471e-01 -1.28724232e-01 -8.64976227e-01
2.23475501e-01 1.65966094e-01 -5.10879010e-02
-3.24195027e-01 -2.56797969e-01 -1.00232065e+00
-4.64660525e-01 1.65601885e+00 -4.46076952e-02
-1.56447518e+00 4.06930357e-01 1.75152493e+00
1.05132234e+00 3.79940838e-01 -7.78481364e-01
2.59609371e-01 6.71772659e-01 -1.17486012e+00
-1.16151750e-01 -2.13369340e-01 1.90187418e+00
-3.97779703e-01 -2.44972542e-01 1.92939892e-01
3.22416067e-01 7.57217348e-01 -1.46468067e+00
-1.04933763e-02 4.65525806e-01 1.70563948e+00
-2.89658904e+00 2.84448242e+00 -1.78299040e-01
-1.26738083e+00 -5.19488692e-01 1.02004325e+00

layers.0.bias:
8.77201200e-01
4.81547834e-03
-1.42384720e+00
-6.34384930e-01
7.07518518e-01
-2.04255387e-01
-3.54310095e-01
2.86240637e-01
-7.45998621e-01
-1.59115899e+00
1.64644122e-01
1.80825554e-02
2.46107668e-01
-1.21306002e+00
-2.90836543e-01
1.43946290e+00
9.34610724e-01
1.82654703e+00
-6.68276668e-01
5.78918040e-01
-1.44309163e-01
-1.35729384e+00
1.02535832e+00
-7.05530941e-02
1.36946186e-01
5.60703695e-01
8.80503118e-01
-1.57881156e-01
-4.88352716e-01
7.31267482e-02
8.91685039e-02
-6.70209900e-02

layers.2.weight:
-3.72879773e-01 2.10236520e-01 5.96532114e-02 -4.87744749e-01 -3.13353091e-02 2.33869348e-02 1.15791701e-01 -6.70426637e-02 -1.13098904e-01 2.80898142e+00 8.20598602e-02 7.43236318e-02 -2.20643133e-01 2.41574502e+00 -1.79724380e-01 4.23228741e-01 -6.60331100e-02 6.41203880e-01 1.44487903e-01 -2.68443495e-01 2.44344294e-01 -7.97444880e-02 -5.10917723e-01 6.08765185e-01 -1.18917465e-01 6.13309145e-01 -7.92069793e-01 -1.37480885e-01 -2.26674467e-01 -2.21406281e-01 -2.47756720e-01 2.76128799e-01
-3.34453471e-02 1.64405078e-01 -8.75403821e-01 8.78188312e-02 -3.94550502e-01 1.07687175e-01 -8.18625927e-01 -5.39736450e-01 6.60809100e-01 6.40772641e-01 3.96564752e-01 -3.23344588e-01 2.06274569e-01 -5.43277450e-02 -3.36990029e-01 4.67634276e-02 -3.65501612e-01 2.68565714e-01 -3.67747098e-01 -9.22805443e-02 6.45762086e-01 -1.75671443e-01 -4.41326022e-01 -1.98583975e-02 -2.13071331e-02 -1.13467544e-01 -2.89978415e-01 -5.36726475e-01 2.72749010e-02 -1.84435174e-01 -8.24279115e-02 2.13957384e-01
1.29505508e-02 -1.20882042e-01 3.07684600e-01 -6.33291304e-01 -9.73314881e-01 3.80548909e-02 -6.25653267e-01 1.73884392e-01 8.76007259e-01 1.09840798e+00 -4.42643315e-01 -2.05258429e-01 4.02689502e-02 4.31923032e-01 -7.67629370e-02 -1.25398445e+00 -3.97136718e-01 -1.07906413e+00 1.55505419e-01 7.18229711e-02 -3.52150500e-01 -5.02834320e-02 1.41171545e-01 -9.83954728e-01 -6.49183810e-01 2.95611382e-01 -1.05486667e+00 3.13785404e-01 2.95307875e-01 -2.55284667e-01 2.61179984e-01 6.93029046e-01
1.63725853e-01 -1.49479032e-01 1.62378445e-01 1.26126230e+00 3.85809839e-01 4.66617376e-01 7.42960274e-01 -1.58399895e-01 -2.25320846e-01 4.08017486e-02 7.62643665e-02 2.09953040e-02 -4.92138654e-01 2.43091643e-01 7.03379393e-01 7.10439801e-01 -3.73776555e-01 5.13021827e-01 2.40041018e-01 -9.99020219e-01 -7.35681117e-01 -6.66513368e-02 4.50868160e-01 1.48647046e+00 -5.40307224e-01 -4.67336088e-01 4.13619667e-01 3.57408673e-01 -5.82715154e-01 -2.41429731e-01 6.14168383e-02 4.00960028e-01
8.99497345e-02 -3.68463784e-01 2.45362371e-01 -4.67511266e-01 2.02814847e-01 -2.96483964e-01 -1.33880544e+00 2.17616633e-01 1.81569643e-02 -5.66809952e-01 4.14276510e-01 -7.45057523e-01 8.30379546e-01 -8.56027424e-01 -5.98161854e-02 -6.27425551e-01 -3.35830957e-01 -6.27248704e-01 -2.22536191e-01 -9.15442184e-02 9.24127162e-01 -5.56133211e-01 2.43207470e-01 -3.60657156e-01 -6.54500067e-01 6.82540774e-01 7.41029978e-02 -7.14393377e-01 -1.49953082e-01 6.01430476e-01 -2.30984971e-01 -1.13579325e-01
-3.21324676e-01 2.16161087e-01 3.27624500e-01 1.86528295e-01 -7.86637604e-01 -2.72276103e-01 -3.96330744e-01 2.66615033e-01 3.99601102e-01 -8.13520551e-02 6.82107508e-01 2.26950601e-01 -9.88031849e-02 -2.89691895e-01 -3.05100352e-01 -1.01000249e+00 -3.75383615e-01 -1.27034485e+00 6.89068675e-01 -2.55591691e-01 -5.41865468e-01 -8.74724761e-02 -5.74788213e-01 -2.00816303e-01 -2.38042269e-02 7.78026283e-02 1.70545623e-01 1.01384735e+00 -1.81883439e-01 -4.10552621e-01 -7.25812495e-01 4.46839392e-01
6.50564060e-02 -2.20893640e-02 -2.38926336e-01 -1.26852142e-02 -9.91363302e-02 1.74830422e-01 -4.02532220e-02 -4.30127680e-01 -9.68621150e-02 2.51547545e-01 2.87716806e-01 9.02609304e-02 2.89804608e-01 2.06301380e-02 1.96721572e-02 -3.28556865e-01 1.70710180e-02 7.34286234e-02 -7.06524961e-03 -3.06458026e-01 -3.83094847e-01 7.13762343e-02 6.04128502e-02 2.26670317e-02 1.82943866e-01 2.64300406e-01 -3.63197029e-01 -4.58602905e-01 -1.58520788e-01 6.80589452e-02 -2.65549067e-02 1.24360107e-01
1.98919564e-01 1.74973890e-01 -3.40811580e-01 3.41704339e-01 1.20996989e-01 -6.70256078e-01 1.09579496e-01 5.13297319e-01 2.02385858e-01 -2.64477342e-01 -1.35336578e-01 9.67817307e-01 3.28795135e-01 -5.26376545e-01 -2.63535798e-01 5.62935509e-02 5.39024174e-01 5.35456091e-02 2.76537091e-01 5.06477773e-01 -1.41816854e+00 -8.69950294e-01 1.54912565e-02 2.72515893e-01 2.46073395e-01 7.61669457e-01 5.85999012e-01 4.95864928e-01 -5.00812650e-01 4.78673488e-01 1.25137493e-01 -3.05211276e-01
1.05807088e-01 3.25627267e-01 -6.65605307e-01 -2.30104581e-01 1.47326756e+00 -4.61485386e-01 -5.39401174e-01 -3.32270086e-01 -6.58613920e-01 1.06835239e-01 5.16815186e-01 1.88989937e-01 6.65381372e-01 -2.25427896e-01 6.33860053e-03 1.99901593e+00 3.63995165e-01 1.65700436e+00 -5.92111170e-01 -1.26874402e-01 1.27577767e-01 -3.54305774e-01 2.33274009e-02 2.53737479e-01 7.12221414e-02 3.78547549e-01 7.39527419e-02 -5.60742896e-03 2.06816550e-02 1.81412280e-01 2.16973305e+00 -3.02927464e-01
-6.66353643e-01 1.10344037e-01 -5.91763258e-02 -5.70289016e-01 4.03551549e-01 5.93872406e-02 -7.62076899e-02 4.21148509e-01 4.03503716e-01 -1.25218719e-01 -3.50568034e-02 2.80004740e-01 2.31651172e-01 1.07288241e-01 -3.18257928e-01 -6.07730091e-01 3.77644151e-01 -4.04162228e-01 -4.62025434e-01 2.49819811e-02 -5.85367084e-01 -1.83498353e-01 1.52727380e-01 -9.95069742e-02 -1.79071188e-01 -4.46037427e-02 -2.21907809e-01 1.67103514e-01 3.12582135e-01 1.17473342e-01 1.81183070e-01 -3.46519463e-02
2.70613879e-01 -2.73336589e-01 -4.18821312e-02 -4.03668731e-01 -5.89654982e-01 -4.32161838e-01 -3.74360800e-01 1.76725864e-01 5.19868314e-01 1.35834143e-01 -5.70449352e-01 -7.24541396e-02 8.95914912e-01 -3.88001978e-01 -2.31952652e-01 -3.24537605e-01 -6.03745401e-01 -1.04691589e+00 -1.83322672e-02 1.97142363e-03 1.02834630e+00 -2.29239821e-01 -9.35293972e-01 1.12604029e-01 -1.03594642e-02 -2.15229802e-02 -4.75556821e-01 -5.66346586e-01 3.20981324e-01 -4.38646704e-01 -2.49296650e-01 2.80627429e-01
-6.63452446e-02 -8.41129050e-02 1.66880560e+00 -8.79086256e-01 -7.60342419e-01 1.00617155e-01 -1.71970911e-02 -4.13577318e-01 2.58635223e-01 1.79252648e+00 2.88555361e-02 -1.37568220e-01 2.96109885e-01 3.19363093e+00 5.93546107e-02 -7.67899752e-01 3.01546037e-01 -2.47805476e+00 6.06103301e-01 -3.20001930e-01 2.66817123e-01 5.97018123e-01 -3.00358832e-01 8.14284742e-01 -7.05035329e-02 -5.55061042e-01 2.90194601e-01 -1.11884832e-01 8.53998140e-02 2.99881417e-02 1.80196483e-02 -3.43817145e-01
-6.37378871e-01 -1.60288841e-01 9.40760732e-01 3.95034343e-01 -6.81552529e-01 6.24242306e-01 -3.66229215e-03 -9.29727793e-01 3.40229183e-01 4.82921332e-01 2.30934039e-01 1.35661140e-01 -4.92935658e-01 -3.07877045e-02 4.31154400e-01 -4.31247091e+00 -9.65256989e-02 -6.05811787e+00 5.97458184e-01 -9.88167107e-01 -7.00591564e-01 4.44636017e-01 6.25473976e-01 -9.05724838e-02 -2.77358890e-01 -2.32571319e-01 -3.70416850e-01 6.53663695e-01 -6.33946121e-01 -3.42966229e-01 -9.79609609e-01 -2.61966079e-01
4.59884619e-03 -1.75675124e-01 -6.10433042e-01 -6.61725253e-02 -2.05445871e-01 -5.07465936e-02 2.63390630e-01 3.44680190e-01 3.50249082e-01 -1.99256986e-01 5.36557376e-01 -2.05057383e-01 3.35809439e-01 -8.02432835e-01 -3.27150494e-01 -6.71757832e-02 -2.62779117e-01 1.96946576e-01 -9.69546065e-02 1.13989010e-01 -7.33216386e-03 -1.28816113e-01 4.28678840e-03 -2.21878991e-01 -1.33472160e-01 7.61291325e-01 -1.17324069e-02 4.04356495e-02 -1.69388309e-01 2.59288400e-01 1.29643708e-01 3.66045982e-01
-9.47862029e-01 2.22635955e-01 -6.78842440e-02 2.84363031e-01 -1.69601768e-01 6.23569667e-01 -3.49246711e-01 -5.62677681e-02 4.28388208e-01 -1.60696313e-01 -8.09184194e-01 2.90748864e-01 2.09980980e-01 -3.93512070e-01 -2.87443399e-01 -6.66166008e-01 2.77893782e-01 -6.65622592e-01 -4.26197559e-01 3.71001482e-01 1.33343327e+00 9.82765615e-01 -5.04455417e-02 1.52327359e-01 -3.14637035e-01 1.63117960e-01 -6.47267580e-01 6.16665650e-03 8.42531800e-01 -3.00307721e-01 -9.85188037e-02 8.69719535e-02
-5.77540278e-01 -6.11093231e-02 6.57419264e-02 1.45287946e-01 -3.27497512e-01 2.73078322e-01 -9.44720566e-01 -9.83571857e-02 1.01864830e-01 5.21798992e+00 5.74296057e-01 4.15767610e-01 2.09132314e-01 2.67099977e+00 -1.02403080e-02 -4.23844270e-02 -4.37736541e-01 -1.39484897e-01 5.93422651e-02 -2.13312775e-01 -6.90587103e-01 4.07130152e-01 1.84133112e-01 2.74274349e-01 -3.86437774e-01 -4.35882688e-01 -6.22774243e-01 3.28726351e-01 -1.00390673e-01 -6.50513470e-01 2.57929504e-01 -2.47194290e-01
-2.63079237e-02 1.57487869e-01 -5.49970269e-02 3.45487855e-02 -2.41271015e-02 -1.17966048e-02 2.68117543e-02 -6.13012537e-02 1.34074502e-02 -1.89585119e-01 7.61827603e-02 3.70395370e-02 4.63071950e-02 1.10295832e-01 9.42835808e-02 3.32711786e-02 3.88578251e-02 2.71875802e-02 6.58387179e-03 1.05976962e-01 2.55774975e-01 1.13659084e-01 -9.85524151e-03 2.21819952e-02 6.59380704e-02 2.07588226e-02 5.59957735e-02 2.70647943e-01 2.46303845e-02 -1.29720801e-03 3.29710543e-02 1.78501718e-02
2.29902595e-01 -1.45216748e-01 -6.47572339e-01 6.87052161e-02 2.37500831e-01 -2.05067396e-01 -1.80066079e-01 -3.50897253e-01 2.84370661e-01 -6.76389873e-01 9.31361467e-02 -3.63716856e-02 1.80400044e-01 8.69632065e-02 -5.67032024e-02 1.53101325e-01 -3.28457087e-01 5.42657614e-01 -6.82907328e-02 9.00038779e-01 2.73335874e-01 3.56534645e-02 -4.50016409e-01 -9.93952528e-02 -1.77103817e-01 -4.60376769e-01 8.65459561e-01 -4.89332885e-01 1.95189238e-01 3.30574274e-01 -1.50046321e-02 2.48287573e-01
-2.85686731e-01 -1.08325042e-01 -3.51365298e-01 -1.80585817e-01 5.35585463e-01 3.42723615e-02 7.78892115e-02 1.07504092e-01 3.75734299e-01 -4.50785309e-01 -1.38102815e-01 -9.50756848e-01 4.48256671e-01 -2.20405355e-01 -1.50867209e-01 3.44661385e-01 -1.55735359e-01 4.78570014e-01 1.23883426e-01 -9.68649685e-02 8.56118370e-03 -2.19599441e-01 5.18633306e-01 -2.98726201e-01 2.67622024e-01 1.74621552e-01 -1.50801346e-01 2.88562596e-01 4.78862561e-02 3.78682137e-01 4.88269210e-01 9.96472910e-02
7.22319409e-02 1.79545328e-01 -1.59680452e-02 6.69878051e-02 -5.39131053e-02 1.03426792e-01 -3.06072570e-02 -7.73636475e-02 5.76079153e-02 8.22755471e-02 6.89111650e-02 1.17973447e-01 -6.40430003e-02 -7.12447986e-02 1.12015642e-01 4.55063194e-01 6.14415966e-02 -2.93176651e-01 4.70990092e-02 -9.78957638e-02 -1.05421633e-01 -1.34136930e-01 -4.01388621e-03 -1.72483791e-02 3.66402380e-02 1.30104870e-01 3.29183252e-03 3.70499911e-03 1.11891024e-01 1.14744101e-02 1.88027706e-03 4.00203764e-02
6.78140998e-01 -1.12624727e-01 6.39247179e-01 5.36687315e-01 -2.51810253e-01 -3.85140091e-01 -7.36008167e-01 -1.62518367e-01 -1.86566785e-01 -9.93562222e-01 -8.63281116e-02 9.66450691e-01 4.81196880e-01 -5.11988938e-01 6.94011033e-01 5.34839451e-01 -5.56037948e-02 -2.57087201e-01 5.62559307e-01 4.73225981e-01 -5.21232009e-01 4.99309786e-02 3.93425316e-01 1.63191006e-01 9.28708315e-02 -3.83792669e-01 1.03161708e-01 3.52511227e-01 -1.62331745e-01 -7.59043247e-02 -6.86414316e-02 4.30295885e-01
2.56135374e-01 -1.30798444e-01 4.26131077e-02 1.81373298e-01 2.97229383e-02 1.37365133e-01 9.49210882e-01 3.46209146e-02 4.42786157e-01 2.47533098e-01 3.65735859e-01 3.39287400e-01 -4.28770989e-01 -5.25777876e-01 1.15100168e-01 -9.23987687e-01 -8.56542140e-02 -6.69221818e-01 -2.98226327e-02 -4.75163966e-01 -5.32075763e-01 -2.09487639e-02 2.37198964e-01 -3.14804516e-03 4.48822044e-02 -4.54294324e-01 -6.73679948e-01 4.84169811e-01 -1.33544028e-01 -1.56540409e-01 2.40878969e-01 -4.07035053e-02
4.82632127e-03 -3.24755646e-02 -2.55820513e-01 4.12973583e-01 -4.80844788e-02 4.01896268e-01 3.37530673e-01 -2.51248002e-01 -3.09482634e-01 3.60098124e-01 2.87811123e-02 6.96091950e-02 4.33332086e-01 5.12843788e-01 -1.36164606e-01 -6.18414223e-01 5.29952168e-01 -2.20154017e-01 2.01961678e-02 -2.59733468e-01 -2.96786487e-01 5.14929853e-02 -3.52133542e-01 1.91095725e-01 -3.15111279e-01 -1.09701656e-01 -5.19168079e-02 -5.41965723e-01 8.02868828e-02 -1.07688732e-01 -2.04898138e-02 -3.31022173e-01
7.90296972e-01 -4.12076972e-02 -2.93346018e-01 1.50885686e-01 1.89226031e-01 -4.84045476e-01 -9.84072406e-03 3.28491837e-01 2.52545387e-01 -2.55197453e+00 9.01127532e-02 1.88491970e-01 3.95057082e-01 -1.58670044e+00 1.31735146e-01 3.61246079e-01 1.47681236e-01 2.63585836e-01 -2.24990711e-01 8.48485902e-03 4.62367982e-01 -2.06667185e-01 -2.92745292e-01 -3.91917154e-02 -3.92025739e-01 -1.83755770e-01 -7.15485811e-02 -1.35200754e-01 1.82891920e-01 9.13443416e-02 -1.71289548e-01 -1.53521106e-01
-8.94036710e-01 1.58252493e-01 3.66539545e-02 1.18962027e-01 -1.87518910e-01 -3.37620527e-01 1.10055423e+00 -6.63486496e-02 -1.01888835e+00 7.72516370e-01 -7.29523242e-01 3.93446535e-02 1.71891719e-01 8.55611414e-02 -7.12141693e-01 5.20735204e-01 6.06284916e-01 4.21523929e-01 1.30614221e-01 1.65696647e-02 -2.30003536e-01 4.26896423e-01 5.32322109e-01 9.54468012e-01 -5.18392265e-01 5.13233364e-01 -6.21980906e-01 -3.55076790e-02 8.48280132e-01 -4.56218362e-01 9.65918079e-02 1.38631403e-01
-5.97195923e-01 5.43991506e-01 4.14222386e-03 -1.90070927e-01 5.27601719e-01 2.16871604e-01 1.59407090e-02 5.71545124e-01 -3.51310790e-01 5.38536549e-01 1.98161770e-02 -1.19379751e-01 2.69068807e-01 2.47050866e-01 -4.80574161e-01 -1.24461874e-01 -1.81864426e-01 -9.27474797e-02 3.33094150e-01 -4.16730404e-01 3.53218690e-02 -2.24726915e-01 7.01807812e-02 -4.85970199e-01 1.12744182e-01 -1.45700827e-01 -6.13923848e-01 -5.15475690e-01 2.24641159e-01 -4.10546005e-01 -1.60871401e-01 -2.93521792e-01
-1.28649086e-01 2.27795854e-01 4.43472266e-01 3.52674663e-01 -2.12268636e-01 -2.89094239e-01 -1.25906497e-01 2.12971318e-05 2.86693960e-01 -4.48511660e-01 -5.90532482e-01 -5.96526377e-02 -2.63988554e-01 -2.92497486e-01 6.53376877e-02 6.50461435e-01 -7.94759542e-02 2.38231659e-01 2.69110262e-01 2.18051434e-01 8.57061818e-02 -7.46466517e-01 1.97671473e-01 9.80769992e-02 2.99814075e-01 1.67725191e-01 5.77172358e-03 -5.98338783e-01 -2.59743840e-01 -1.25309557e-01 7.85475522e-02 -2.77443081e-01
-7.72495508e-01 4.66251671e-01 -6.09789610e-01 -1.00738692e+00 -2.36221775e-01 -2.38248840e-01 -3.53322506e-01 3.82240981e-01 1.30171612e-01 4.59586442e-01 -6.39395192e-02 1.88368410e-01 1.75496027e-01 2.77961254e-01 -1.05538405e-02 1.05709672e+00 6.86405063e-01 1.14644492e+00 -6.53027892e-01 7.34533742e-02 5.36799729e-01 -7.53969193e-01 -6.44405186e-01 4.07596350e-01 -1.71710357e-01 -4.45842206e-01 2.81967998e-01 2.97238201e-01 5.20752847e-01 -8.11710954e-01 1.76558256e-01 -2.44396091e-01
1.36594355e-01 -5.39082527e-01 -4.40432280e-02 -1.02207236e-01 -6.21085882e-01 5.33783197e-01 9.18304697e-02 -4.76404995e-01 4.97319281e-01 9.27187920e-01 -2.05070391e-01 1.02402791e-01 5.38462281e-01 4.31643635e-01 1.54490350e-02 -1.04412413e+00 -4.62817937e-01 -1.04379845e+00 4.82887067e-02 2.00187221e-01 2.46449515e-01 3.42094690e-01 1.91547871e-01 1.57386795e-01 2.41554499e-01 9.20272470e-02 -3.97742242e-01 -2.53829956e-01 -2.77481228e-01 -3.26210350e-01 4.38585460e-01 3.40382844e-01
-2.54001785e-02 -9.40220714e-01 3.32069010e-01 1.61698866e+00 1.56415343e-01 6.46713376e-02 -1.55289993e-01 -2.94506162e-01 -1.85564548e-01 1.96631610e-01 1.12200820e+00 -1.02749825e+00 -1.13631678e+00 -3.97598952e-01 1.63062945e-01 -9.72227380e-02 -1.18705022e+00 5.96002638e-01 6.56833172e-01 -6.61636174e-01 8.69882941e-01 1.58815265e-01 -1.30812889e-02 -5.50313704e-02 2.79833861e-02 -5.39581358e-01 2.38288149e-01 -1.44797182e-02 -9.12724555e-01 1.29576647e+00 -6.58630729e-01 -3.66639607e-02
-8.58275712e-01 -2.54261822e-01 5.04400074e-01 1.92371756e-01 -5.81661582e-01 3.34301025e-01 3.31046432e-01 -7.26991668e-02 -5.35669506e-01 -1.49109036e-01 -9.47637320e-01 2.20513195e-01 4.04625446e-01 1.52439296e-01 2.49644011e-01 -2.88538426e-01 2.85587817e-01 -5.79104602e-01 2.01011837e-01 -4.12296683e-01 -1.06134641e+00 5.36961138e-01 1.13453925e-01 -6.35599911e-01 1.58784285e-01 5.33517838e-01 -5.29285520e-02 2.05205604e-01 -5.16834080e-01 -1.62806511e-01 -1.03936061e-01 5.12253912e-03
-2.77431101e-01 -3.36159825e-01 -1.75560325e-01 -1.33531675e-01 -2.35228121e-01 -8.36716071e-02 2.36962706e-01 2.40328237e-01 -6.24468625e-01 1.29903650e+00 -1.34812444e-01 -1.03537180e-01 -5.20497024e-01 5.09436727e-01 -1.69432402e-01 3.04764546e-02 1.94748230e-02 1.67361423e-01 1.56191336e-02 -1.94358051e-01 2.00795993e-01 1.21144153e-01 2.95688361e-01 5.08794375e-02 2.71437746e-02 -7.95716569e-02 -1.70584843e-01 2.13553816e-01 2.73163944e-01 3.26073498e-01 6.90692756e-03 1.26302361e-01
-6.90598786e-02 -3.18939060e-01 1.44130038e-02 -1.14252008e-01 -3.63793820e-01 4.27446038e-01 -2.64879525e-01 -4.18770254e-01 1.28327101e-01 -4.42171931e-01 2.60007512e-02 4.28695679e-01 2.14528739e-01 3.51932436e-01 2.81428427e-01 -5.17658353e-01 -4.27540183e-01 -1.21149647e+00 -4.54286411e-02 -3.00844997e-01 -1.11745946e-01 8.76965463e-01 3.94627541e-01 5.89517057e-01 -4.57774848e-01 1.51384518e-01 1.15864590e-01 -2.52423823e-01 -3.54744464e-01 -2.74227977e-01 -1.43991768e-01 -8.53292346e-02
3.59371603e-02 -5.80543838e-02 1.24891475e-01 -8.96434709e-02 2.58140326e-01 -8.08635801e-02 2.28345599e-02 -3.34333956e-01 -1.71639442e-01 3.57479274e-01 1.33725405e-01 1.84897885e-01 7.79825523e-02 -3.14080805e-01 -4.96511050e-02 -2.95503944e-01 6.87372833e-02 1.23090737e-01 -1.72908604e-01 -5.34565747e-01 1.36386216e-01 -1.55503392e-01 -1.07801236e-01 -3.93825769e-02 -1.46012856e-02 2.08587125e-01 -5.96137941e-02 3.11117172e-02 8.99850205e-02 7.19747320e-02 -3.51517498e-02 4.00490919e-03
8.85042697e-02 -5.54620922e-01 -2.44692102e-01 7.67568231e-01 -1.78383604e-01 -4.59533155e-01 2.32443571e-01 -1.38732910e-01 -2.70533085e-01 2.95544076e+00 -5.56558073e-01 9.66977060e-01 6.47864103e-01 8.96989822e-01 7.74165154e-01 1.85639173e-01 4.13033180e-02 2.04333693e-01 5.26733816e-01 3.64299297e-01 2.18752533e-01 1.58101782e-01 -1.60825729e-01 1.07849669e+00 -6.84785992e-02 1.29886240e-01 -3.00124615e-01 3.05349261e-01 2.73607448e-02 3.83243971e-02 1.02039230e+00 3.87533642e-02
-1.06236927e-01 1.82629347e-01 1.32486075e-01 7.33764991e-02 1.67310592e-02 -6.23228997e-02 1.77415777e-02 1.06372476e-01 3.54137970e-04 -4.71189655e-02 1.74689710e-01 7.75199234e-02 9.02239531e-02 -1.38081936e-02 1.57411635e-01 1.97562695e-01 2.92287283e-02 -1.23065241e-01 -2.65635340e-03 8.77518058e-02 -1.60070419e-01 -6.05048351e-02 -1.48312561e-02 -3.78374709e-03 -4.58692431e-01 -2.23316684e-01 4.59082648e-02 -1.34937167e-01 -4.54916023e-02 -5.64178266e-02 3.34249623e-02 -4.58583504e-01
-6.87304931e-03 -5.58409207e-02 -3.57847102e-02 2.86662877e-02 -2.83775955e-01 3.51387821e-03 -7.29009360e-02 1.57467693e-01 6.50232062e-02 -2.30056010e-02 -5.69568295e-03 -2.45346781e-02 -7.00591952e-02 6.68204352e-02 -1.12368628e-01 2.34947324e-01 -1.16216682e-01 -7.24864528e-02 5.71293011e-02 3.25103909e-01 -2.50851452e-01 -8.29864219e-02 -6.18091552e-03 -2.77476665e-02 2.02133078e-02 -9.83278453e-02 -5.94984218e-02 -4.40063775e-02 -5.27679399e-02 5.54149635e-02 8.59231576e-02 -2.13580951e-02
8.12728763e-01 -2.86787957e-01 3.26255649e-01 3.54449630e-01 -4.41524774e-01 2.20964551e-02 -6.10712051e-01 8.65178369e-03 7.22433865e-01 5.04639000e-02 -1.82907313e-01 3.75636406e-02 4.44318913e-02 2.39508212e-01 7.61149287e-01 -7.81455934e-01 -4.73013461e-01 -8.37311208e-01 4.92130995e-01 -2.85881877e-01 -7.19040394e-01 2.23357171e-01 -1.19958527e-01 2.17658892e-01 8.42731118e-01 -3.49774472e-02 2.36454651e-01 -1.84322268e-01 -4.98575062e-01 2.40999803e-01 1.17786333e-01 6.51773587e-02
1.38611764e-01 -4.07877922e-01 -2.65737653e-01 4.07689691e-01 2.09835023e-01 -5.96217930e-01 9.17726010e-02 5.38521353e-03 2.53806263e-01 -2.64430642e-01 -2.38429874e-01 4.54008520e-01 3.53818655e-01 -2.72329211e-01 2.49258444e-01 -5.51731884e-01 -3.38500261e-01 -7.43050814e-01 4.03610080e-01 -4.09362316e-01 -2.54769981e-01 -5.17671965e-02 3.58019650e-01 6.53862953e-01 -1.30723983e-01 -3.21796507e-01 4.40699637e-01 -4.46110964e-02 -1.10296212e-01 -4.20786291e-01 6.79889768e-02 2.32939750e-01
1.07098468e-01 -2.35441737e-02 7.20301986e-01 1.12699695e-01 -1.18667936e+00 -4.06652957e-01 2.24404618e-01 -1.64087489e-01 7.12606370e-01 5.27041256e-01 -1.25374869e-01 -3.79995704e-01 1.41915272e-03 6.80397511e-01 -1.75908413e-02 -2.45149684e+00 -3.23168576e-01 -2.90285158e+00 2.22208142e-01 1.61810976e-03 -8.29235435e-01 6.35997176e-01 1.19183689e-01 1.38963595e-01 2.37997055e-01 1.08355351e-01 3.44306499e-01 2.11666018e-01 -1.86276853e-01 -7.68751025e-01 -8.48814309e-01 1.48746431e-01
-2.36308828e-01 -2.46836632e-01 -2.21204758e-01 -2.99286544e-01 -3.00357461e-01 5.79167962e-01 1.43131360e-01 -7.12583289e-02 -1.29236937e-01 3.82375211e-01 -2.15041682e-01 1.69826195e-01 7.82145485e-02 -2.95889437e-01 -1.20349303e-01 -4.72640961e-01 3.12535435e-01 -6.23557150e-01 -3.27513397e-01 3.59650776e-02 -3.15227509e-01 4.20768291e-01 -1.18888736e-01 3.38748246e-01 3.80754083e-01 -4.93138909e-01 4.62323308e-01 4.68771085e-02 1.05240062e-01 1.16709352e-01 -8.67342874e-02 2.38139164e-02
5.28919160e-01 6.99744821e-01 6.81602061e-01 -4.11464214e-01 1.79645509e-01 1.25513613e-01 1.70543373e-01 -1.09176971e-01 -8.00456762e-01 9.35185194e-01 -2.98396975e-01 -2.28428245e-01 -4.29639012e-01 1.09777021e+00 1.43667728e-01 1.38454124e-01 4.04178202e-02 -9.37527537e-01 3.03999573e-01 -2.67748475e-01 3.40376832e-02 7.01883256e-01 -1.64300710e-01 -4.12600219e-01 6.42535388e-01 -7.57730722e-01 4.82381374e-01 -4.38403375e-02 -3.11163753e-01 -6.10772908e-01 -4.46757004e-02 -4.58556682e-01
-2.05558352e-02 -4.00550425e-01 1.80142373e-01 -1.65612221e-01 -1.73185989e-01 1.23240203e-01 9.98546556e-02 -3.09492767e-01 -4.83918279e-01 -3.35257560e-01 -9.79681909e-02 9.46162909e-04 -1.10746905e-01 4.66333896e-01 5.38326144e-01 2.99402177e-01 2.49839604e-01 -4.76650655e-01 4.85332757e-02 1.47728384e-01 -2.37603366e-01 2.91305006e-01 -3.49741697e-01 1.83729202e-01 -3.32208723e-02 -2.76283801e-01 4.16711181e-01 7.10823953e-01 -4.24216211e-01 -4.48902786e-01 2.61801451e-01 3.13150555e-01
-1.28108013e+00 1.02144212e-01 1.62690833e-01 -1.33409643e+00 -1.27039492e-01 -4.28169593e-02 1.91594034e-01 5.68113565e-01 9.85620320e-02 4.05490547e-01 -1.00759029e+00 7.37422407e-01 1.11382842e+00 3.51130217e-01 -6.21105850e-01 3.12916338e-01 5.64351678e-01 -4.08148646e-01 -3.30254734e-01 1.03801489e+00 -5.29892504e-01 -2.78588355e-01 -3.06948096e-01 -5.16313799e-02 6.11454070e-01 1.02210569e+00 8.33023608e-01 6.08838141e-01 5.30371010e-01 -1.05288053e+00 2.06506744e-01 2.01603994e-01
-8.97855684e-02 8.34641233e-02 2.87031919e-01 -4.88413982e-02 3.69736522e-01 -7.95955434e-02 -1.46084446e-02 3.80727015e-02 -3.95316593e-02 2.05192238e-01 1.46421129e-02 2.64803898e-02 -8.59842449e-03 -1.33360267e-01 1.01421684e-01 -1.51562124e-01 9.40540507e-02 3.92264053e-02 -1.14875678e-02 -4.15887147e-01 1.40673861e-01 -1.08238652e-01 1.91805232e-02 1.70848556e-02 1.40421107e-01 -1.52167222e-02 7.30942339e-02 1.43075973e-01 2.66418755e-02 -8.97472352e-02 -3.37432101e-02 5.94251715e-02
-7.89769813e-02 2.60793447e-01 2.73740768e-01 -1.23599246e-01 2.19055697e-01 7.28557333e-02 6.64089620e-01 2.93797106e-01 1.28981426e-01 -1.22936535e+00 -3.49791735e-01 5.37698269e-01 6.60560369e-01 -3.39129269e-01 -4.83004540e-01 -6.12315116e-03 5.48454583e-01 -2.73898482e-01 -6.24132692e-04 -4.77865040e-01 9.47097421e-01 -2.99079627e-01 -5.87933231e-03 -1.31802046e+00 -5.14212027e-02 5.20191431e-01 -9.97395754e-01 -9.07206237e-01 2.68969685e-01 -1.19849466e-01 -5.48789836e-02 -2.82109141e-01
5.90331793e-01 -3.33482921e-01 -3.17010701e-01 4.66405869e-01 -3.21777835e-02 -3.23011167e-02 -9.15018916e-02 -1.66049764e-01 4.92342263e-01 -1.04281038e-01 -8.81442949e-02 -7.54944682e-02 7.32634783e-01 -3.25614214e-01 3.78719121e-01 -3.47686350e-01 -5.37762716e-02 -4.77869272e-01 2.35075146e-01 -1.00444272e-01 -3.10600579e-01 9.02982876e-02 1.86296806e-01 1.78935349e-01 -2.52852105e-02 -2.36612111e-01 8.20871651e-01 4.60289299e-01 -3.79008859e-01 3.63036871e-01 1.71731025e-01 3.00375223e-01
-2.73902744e-01 3.52109969e-01 -1.59154579e-01 -4.30249795e-02 -6.13867581e-01 -2.10351348e-01 6.09751083e-02 4.67549354e-01 -8.79761726e-02 -5.67910910e-01 -1.78626493e-01 -2.69665346e-02 -3.43907088e-01 1.59761861e-01 2.28194118e-01 -1.43764690e-01 -8.95600468e-02 2.87077516e-01 2.20084693e-02 3.61482561e-01 -2.48319909e-01 -3.30016501e-02 -1.50898341e-02 -5.16477302e-02 -1.22741826e-01 -1.06082559e-01 2.73231924e-01 -2.43496686e-01 1.21992156e-01 1.02023939e-02 4.76396568e-02 1.73421189e-01
1.77009106e-02 -5.63340485e-01 -1.09969251e-01 -1.00201905e-01 -5.66028059e-02 -1.13591723e-01 -2.61504427e-02 -1.62838370e-01 -4.39894974e-01 4.81583744e-01 -4.88556968e-03 6.72302768e-02 3.50705117e-01 3.41151148e-01 -1.22162074e-01 -5.73173046e-01 -2.19136700e-01 -6.55908659e-02 -1.98540147e-02 4.44450788e-02 1.05205446e-01 -4.42651138e-02 6.05680048e-01 5.22727706e-02 -3.59795541e-01 2.29123473e-01 3.43883216e-01 7.39062801e-02 -4.46462855e-02 1.32354319e-01 -1.17046311e-02 -2.30243266e-01
9.86446202e-01 -2.13993173e-02 -5.97202659e-01 1.55831918e-01 2.77453810e-01 1.35030046e-01 5.04688442e-01 2.04790995e-01 -3.38777572e-01 -9.03691351e-01 -8.74218225e-01 1.39507544e+00 1.28656879e-01 -9.14185464e-01 3.33613068e-01 7.42320538e-01 3.20634469e-02 5.67259550e-01 -2.05641299e-01 1.72965646e-01 -1.42399025e+00 -3.89265954e-01 -7.56919801e-01 -2.11326167e-01 -3.55483294e-01 5.87981828e-02 2.07276449e-01 4.78672743e-01 -2.55076564e-03 2.11967677e-02 -3.69095504e-02 4.05044526e-01
-1.21618576e-01 1.42902344e-01 -9.85277176e-01 -2.31142659e-02 3.16913724e-01 3.32316697e-01 3.13723902e-03 -1.45781133e-02 8.78558159e-02 4.69186783e-01 -3.64634156e-01 -1.23247528e+00 3.30016643e-01 1.46797761e-01 -3.71601731e-01 5.87013662e-01 -2.70558242e-03 1.40524733e+00 -4.09547687e-01 1.24891050e-01 3.00759882e-01 -1.70551807e-01 -4.95824404e-02 6.59790576e-01 -2.55146205e-01 7.31871486e-01 -4.74769771e-02 -2.90403247e-01 8.14858377e-02 1.65966988e-01 6.78378344e-01 -7.49373958e-02
-6.87976135e-04 3.61188054e-01 -1.74376771e-01 -5.84939599e-01 -7.71839693e-02 7.18156219e-01 3.04944158e-01 7.68923044e-01 3.25335085e-01 2.98015445e-01 9.86961663e-01 -2.98977226e-01 5.42748272e-02 3.06747675e-01 2.74941139e-02 -7.05698907e-01 2.58120328e-01 -3.35985161e-02 -2.93609142e-01 -5.78098774e-01 -7.19305575e-02 -2.50157148e-01 2.18610227e-01 1.69876814e-01 -2.55749434e-01 1.43642128e-01 6.44264296e-02 2.63824947e-02 -5.72183907e-01 2.85090744e-01 -2.02333838e-01 1.35845214e-01
9.23762619e-02 5.71708754e-03 -1.45846054e-01 5.34949999e-04 2.65021492e-02 7.37060085e-02 3.12381592e-02 8.66083875e-02 -2.09647492e-02 -5.28827906e-02 -6.28301576e-02 -3.86144102e-01 2.52923071e-01 2.00028762e-01 3.77830602e-02 8.76373500e-02 7.69946352e-02 -7.07475916e-02 7.83523470e-02 2.55604178e-01 1.38002440e-01 2.77721405e-01 1.26043716e-02 2.43021965e-01 -1.16622478e-01 -2.78968364e-01 -1.84201613e-01 -1.99954242e-01 -3.20351601e-01 -1.48907125e-01 -1.29962582e-02 -2.55289912e-01
4.33452606e-01 3.09404209e-02 5.45259118e-01 4.05341864e-01 3.50564808e-01 4.13566053e-01 9.76449549e-01 -3.68658155e-01 7.15135753e-01 -7.60026351e-02 -6.06573105e-01 1.73883930e-01 -5.31769991e-01 -3.56351018e-01 -3.24119776e-02 2.56295979e-01 -5.98629057e-01 -4.93344516e-01 2.73466378e-01 -1.89088248e-02 -1.11796990e-01 5.67449927e-01 2.39176452e-01 6.69835746e-01 2.21392326e-02 -1.43029004e-01 -2.21382722e-01 1.79691777e-01 1.69108480e-01 4.24361885e-01 -1.34661496e-01 1.51563361e-02
-3.07489425e-01 -5.49853444e-01 1.50984776e+00 9.23786461e-02 -8.95019352e-01 -1.59946948e-01 -1.15805089e+00 -1.01039147e+00 2.86715537e-01 1.08032644e+00 9.70586389e-03 -4.65399057e-01 -2.99799204e-01 1.07820821e+00 6.45040572e-01 -2.02109718e+00 1.36052832e-01 -2.73980379e+00 1.81429470e+00 8.12551200e-01 -5.69168568e-01 1.70642483e+00 -4.15860385e-01 2.63678432e-01 3.54142964e-01 -7.05231071e-01 -2.44800642e-01 3.92161280e-01 1.46439612e-01 4.25992347e-02 7.17254639e-01 1.42216116e-01
2.00806968e-02 -1.34765962e-02 6.48477301e-02 3.96017842e-02 3.93161207e-01 -1.99710857e-02 2.23512743e-02 1.49938539e-02 5.31823337e-02 -1.22784711e-02 -5.52582182e-03 -7.49669746e-02 1.04137741e-01 -3.92709946e-04 -8.71092174e-03 -5.60977459e-02 3.92286852e-03 -3.30670848e-02 -6.11667670e-02 8.36274475e-02 1.47360295e-01 3.51212472e-02 -1.50234718e-02 -5.43864910e-04 -1.31410748e-01 -1.41423330e-01 1.30034368e-02 3.32964122e-01 -2.48258729e-02 -6.03671409e-02 2.57543921e-02 -2.42349222e-01
-4.55186456e-01 -1.78710863e-01 -1.64805561e-01 4.99718785e-02 -2.34816894e-01 1.19651020e-01 -3.46375048e-01 6.40395403e-01 7.77691752e-02 4.43972275e-03 -1.56748630e-02 4.48768854e-01 3.87296110e-01 3.33441466e-01 4.19027627e-01 -2.40641043e-01 -2.99084246e-01 -8.33506137e-03 -1.47784904e-01 -1.87704876e-01 1.27434626e-01 -7.10099339e-01 -3.05662937e-02 -1.28129900e-01 -2.32224405e-01 -2.70710588e-01 -5.00022590e-01 1.95470631e-01 -2.67731696e-01 -1.18560322e-01 -1.53777406e-01 4.08544898e-01
-3.93757299e-02 -2.27117509e-01 5.86548030e-01 2.63585895e-01 -5.99112988e-01 2.96328247e-01 3.48198175e-01 -6.01740777e-01 5.02190769e-01 3.77007157e-01 -6.92007989e-02 4.06417817e-01 -9.71010402e-02 1.84765771e-01 2.09529921e-01 -2.10058236e+00 8.96568745e-02 -1.00732374e+00 7.30562285e-02 1.60961628e-01 9.82965622e-03 1.55810937e-01 2.97297239e-01 1.89034835e-01 -1.47880450e-01 -5.33008099e-01 -7.36961141e-02 -3.21140081e-01 -3.75504047e-01 -4.80553597e-01 4.50586706e-01 -3.78967106e-01
-1.22765489e-01 5.94648458e-02 -1.44899264e-01 1.43283784e-01 -1.21531978e-01 -1.02331221e-01 2.80927777e-01 -2.06491798e-01 -6.05781794e-01 1.59758461e+00 -3.78000468e-01 -6.84999153e-02 -2.67106235e-01 1.27135324e+00 -2.59384990e-01 6.06897138e-02 3.10004223e-02 2.21940223e-02 -4.49898653e-02 -2.81899959e-01 1.10980058e-02 2.11333379e-01 -9.83666778e-02 -1.97269380e-01 -1.82232141e-01 6.96733817e-02 4.23553109e-01 4.77544606e-01 1.47192821e-01 -4.72418785e-01 2.54195362e-01 -5.05448990e-02
-6.22504912e-02 -1.73219055e-01 5.81268191e-01 4.70708668e-01 -4.48907316e-02 -4.10673946e-01 -1.10757363e+00 1.35232642e-01 2.65249342e-01 3.92172396e-01 8.51518363e-02 -4.70498465e-02 1.22725673e-01 1.59563661e-01 -2.77337372e-01 6.07515514e-01 4.25178111e-02 3.08934361e-01 -1.07305720e-01 -2.99845189e-01 8.30832124e-01 3.68270814e-01 3.27315956e-01 -6.12911940e-01 3.32030952e-02 3.77285294e-02 -2.11436749e-01 2.88836867e-01 -1.13729708e-01 3.19661736e-01 -1.98008269e-01 -3.01711708e-01
9.67115939e-01 -3.21567178e-01 5.24124920e-01 8.90794754e-01 -4.02985811e-01 2.71493435e-01 -7.03950107e-01 -4.52870041e-01 4.63017523e-01 -8.98874700e-01 -3.62171739e-01 8.15926194e-01 -1.14478970e+00 -3.22205037e-01 6.08421266e-01 -3.73294920e-01 -1.37731666e-02 -2.33805850e-02 4.40347582e-01 8.11537385e-01 2.92494208e-01 -3.86670321e-01 -2.04206800e+00 -6.00909293e-01 5.83021045e-01 6.60359144e-01 -9.01878893e-01 -3.71371686e-01 1.39455542e-01 1.16751504e+00 -4.77130115e-01 -1.42706364e-01
-2.42754593e-02 1.81585148e-01 -3.58783528e-02 -4.65022065e-02 -1.82372659e-01 -4.70967405e-02 3.05449087e-02 -4.86381501e-02 -5.32802902e-02 -2.49346830e-02 4.49241586e-02 9.08940732e-02 8.24269727e-02 -5.16834073e-02 1.57052249e-01 -1.34547338e-01 9.75585431e-02 1.87445626e-01 -6.77099545e-03 -2.81443924e-01 1.37547672e-01 3.80818732e-02 -5.85336564e-03 -3.32597382e-02 -3.01548958e-01 -4.19221558e-02 2.22414266e-02 -7.55466372e-02 -1.31068062e-02 -5.12803858e-03 8.20267387e-03 -2.19229683e-01
1.31841853e-01 2.90364981e-01 1.63069153e+00 4.35240954e-01 -1.20278621e+00 1.57575995e-01 -1.80723995e-01 -5.56967556e-01 8.22146416e-01 5.50012350e-01 1.71150118e-01 -3.24975580e-01 -8.83936882e-01 9.67767358e-01 2.77782995e-02 -3.39330864e+00 -2.52972752e-01 -4.50126743e+00 3.91016841e-01 1.15589477e-01 -1.23108292e+00 9.78162467e-01 3.52221251e-01 1.70969129e-01 2.20352769e-01 -1.43619910e-01 -5.35905778e-01 6.59391999e-01 -1.66247502e-01 -1.89917926e-02 5.56962825e-02 3.02330218e-03
-8.53081465e-01 1.02258295e-01 6.96829781e-02 -6.71462893e-01 6.51227534e-02 -8.83009881e-02 -2.90909469e-01 4.59021300e-01 -6.98496699e-02 1.16355484e-02 1.84790432e-01 -3.68535966e-01 3.73320252e-01 4.94930148e-01 -3.18436384e-01 -2.66906202e-01 1.28895521e-01 -1.08233251e-01 -3.49728972e-01 8.93168151e-02 1.71627775e-01 6.38393939e-01 3.14127624e-01 -1.75377682e-01 -2.87209451e-03 2.63846040e-01 -6.42376125e-01 -7.29937945e-03 6.25401884e-02 -4.89655495e-01 -6.87613562e-02 -8.69399428e-01

layers.2.bias:
-1.39311767e+00
-8.01987708e-01
3.77975523e-01
-6.57981157e-01
1.49502039e-01
-3.59287947e-01
2.87730068e-01
2.11213183e+00
6.12377524e-01
7.83640027e-01
-9.05788541e-01
-1.35904920e+00
-3.37449163e-01
8.88151467e-01
-2.67608851e-01
-7.29656041e-01
-7.30523542e-02
-7.41875708e-01
3.31460297e-01
-8.27141777e-02
-1.24107569e-01
7.90821493e-01
7.75134385e-01
-1.07052200e-01
-4.03659344e-01
9.91691053e-01
-9.75860357e-01
-1.07304978e+00
4.98318285e-01
-1.11167467e+00
1.57016274e-02
-3.34302932e-02
8.03052247e-01
1.24108076e-01
-3.30905437e-01
-2.18694750e-02
-1.53962255e-01
1.36859381e+00
1.04020596e+00
-7.48337656e-02
9.52522814e-01
-1.82713851e-01
-5.41778147e-01
1.35545444e+00
2.65481293e-01
-9.56339598e-01
1.04400098e+00
-3.81716251e-01
7.90133953e-01
1.75597501e+00
1.97815076e-01
3.09604734e-01
1.22563303e-01
-6.12787127e-01
1.87801614e-01
-2.15628315e-02
6.14654183e-01
-1.29189074e-01
-4.73922901e-02
-5.88043034e-01
6.78909957e-01
5.86717874e-02
-2.46157631e-01
6.53430462e-01

layers.4.weight:
3.41085166e-01 3.22395042e-02 -5.60327359e-02 -1.65156656e-04 -2.95702051e-02 5.19803762e-02 1.67961378e-04 -6.91730976e-01 1.51315987e-01 -3.84303927e-01 5.70951328e-02 8.88005614e-01 -1.66130352e+00 -8.92621130e-02 1.59740020e-02 -1.46030366e+00 -3.51927483e-05 6.92022741e-02 -2.03406569e-02 2.73300742e-04 2.42927074e-02 -4.27491814e-02 -2.01986893e-03 2.22511545e-01 -6.61871955e-02 -3.17250490e-02 2.48975232e-02 7.63249993e-01 -3.74905974e-01 3.80592316e-01 -2.19291728e-02 -1.35526881e-01 2.32389616e-03 -1.50078267e-04 9.17762369e-02 2.76611128e-04 4.65232697e-05 -1.78794160e-01 -2.47878605e-03 1.91612363e-01 -2.48638261e-02 2.57753074e-01 2.78324261e-02 -1.17632344e-01 3.46583867e-04 1.36747226e-01 -9.62335709e-03 -3.85250081e-04 -9.12204981e-02 -6.47074521e-01 -8.59957486e-02 -1.23651065e-02 2.12109051e-04 1.08068939e-02 -1.11157370e+00 1.48087100e-04 -4.57273527e-05 -3.04679573e-01 -6.58719167e-02 3.23668215e-03 -2.44169552e-02 -2.43412913e-04 8.31927061e-01 -1.16706984e-02

layers.4.bias:
-1.07256770e+00

