layers.0.weight:
3.31696361e-01 -5.67613244e-01 7.97264636e-01
5.69172144e-01 -8.09445798e-01 -5.80563486e-01
-8.31293464e-02 -6.13938749e-01 -5.77727258e-01
-1.07055378e+00 1.15616508e-01 4.58123112e+00
2.67282110e-02 4.11940843e-01 1.16166264e-01
-5.79876065e-01 8.58121514e-01 -1.84879377e-01
-1.31842160e+00 4.86020595e-01 -9.88645032e-02
-6.01682402e-02 7.88846374e-01 -9.23566997e-01
6.03414774e-01 -9.26082134e-01 5.12713566e-02
-1.11527514e+00 5.86289167e-02 -1.64189592e-01
7.53551662e-01 -9.85680073e-02 1.41279221e+00
-7.16238439e-01 -1.31785080e-01 -1.29353356e+00
-4.30584475e-02 7.12955832e-01 -1.57757306e+00
-1.16726887e+00 2.10410804e-02 5.00053525e-01
-6.46977663e-01 1.09646142e+00 7.52028525e-01
-1.81771189e-01 9.48456824e-01 1.64468549e-02
5.46070874e-01 -6.33792400e-01 -1.45019031e+00
-1.15504665e-02 1.12846863e+00 1.84981868e-01
8.07071701e-02 -9.54183042e-01 5.35116851e-01
3.41117471e-01 -1.28724232e-01 -8.64976227e-01
2.23475501e-01 1.65966094e-01 -5.10879010e-02
-3.24195027e-01 -2.56797969e-01 -1.00232065e+00
-4.64660525e-01 1.65601885e+00 -4.46076952e-02
-1.56447518e+00 4.06930357e-01 1.75152493e+00
1.05132234e+00 3.79940838e-01 -7.78481364e-01
2.59609371e-01 6.71772659e-01 -1.17486012e+00
-1.16151750e-01 -2.13369340e-01 1.90187418e+00
-3.97779703e-01 -2.44972542e-01 1.92939892e-01
3.22416067e-01 7.57217348e-01 -1.46468067e+00
-1.04933763e-02 4.65525806e-01 1.70563948e+00
-2.89658904e+00 2.84448242e+00 -1.78299040e-01
-1.26738083e+00 -5.19488692e-01 1.02004325e+00

layers.0.bias:
8.77201200e-01
4.81547834e-03
-1.42384720e+00
-6.34384930e-01
7.07518518e-01
-2.04255387e-01
-3.54310095e-01
2.86240637e-01
-7.45998621e-01
-1.59115899e+00
1.64644122e-01
1.80825554e-02
2.46107668e-01
-1.21306002e+00
-2.90836543e-01
1.43946290e+00
9.34610724e-01
1.82654703e+00
-6.68276668e-01
5.78918040e-01
-1.44309163e-01
-1.35729384e+00
1.02535832e+00
-7.05530941e-02
1.36946186e-01
5.60703695e-01
8.80503118e-01
-1.57881156e-01
-4.88352716e-01
7.31267482e-02
8.91685039e-02
-6.70209900e-02

layers.2.weight:
-3.65917206e-01 2.09120959e-01 5.97744808e-02 -4.90036637e-01 -4.26926799e-02 2.18177736e-02 1.10364154e-01 -6.03716485e-02 -9.83113423e-02 2.82311153e+00 7.95718506e-02 7.89423436e-02 -2.18007311e-01 2.41633868e+00 -1.83676451e-01 4.04388666e-01 -6.44160882e-02 6.39466465e-01 1.43744424e-01 -2.67549992e-01 2.42767826e-01 -7.61972517e-02 -5.23745179e-01 6.07057929e-01 -1.13085099e-01 6.17836893e-01 -7.94943511e-01 -1.37223005e-01 -2.00675726e-01 -2.23965317e-01 -2.16071233e-01 2.74588495e-01
-9.80113521e-02 1.52878642e-01 -8.57353628e-01 5.50971739e-02 -3.75137001e-01 1.60898104e-01 -7.87644804e-01 -4.84221220e-01 5.89735448e-01 6.88145161e-01 3.59226465e-01 -2.99788117e-01 2.42309317e-01 -7.35830069e-02 -2.95161277e-01 1.26188293e-01 -3.56849283e-01 3.35831851e-01 -4.41471368e-01 -7.34302253e-02 7.00947165e-01 -1.37011439e-01 -3.83713305e-01 -4.59050238e-02 5.86632499e-03 -7.85908550e-02 -3.23943138e-01 -5.87185860e-01 7.20974207e-02 -2.15592444e-01 6.24568015e-03 1.86751291e-01
-1.35808870e-01 -1.03618922e-02 3.71222496e-01 -6.28251553e-01 -1.45306945e+00 2.29035523e-02 -3.72640789e-01 2.06721902e-01 3.21397394e-01 8.83122742e-01 -5.07674396e-01 -1.80763945e-01 3.76881287e-02 2.43527129e-01 -9.13394094e-02 -7.06301033e-01 -4.25295442e-01 -1.25642645e+00 -2.60953140e-02 -1.80996835e-01 -5.86110353e-01 6.15396537e-02 4.05555427e-01 -1.15746009e+00 -1.03440714e+00 2.83984810e-01 -1.04452646e+00 8.60151708e-01 2.17489243e-01 -2.39666641e-01 1.02951467e-01 5.83669186e-01
2.65717447e-01 -5.19934334e-02 5.75766563e-02 1.36389482e+00 4.88794416e-01 3.65282357e-01 6.41199708e-01 -2.60629714e-01 -1.25581697e-01 -6.22508377e-02 1.78677335e-01 -8.09926391e-02 -5.94629288e-01 1.40736595e-01 6.03157759e-01 7.15774655e-01 -2.78911740e-01 6.41095638e-01 3.42574805e-01 -9.38969553e-01 -8.16908777e-01 -1.70377836e-01 3.48460406e-01 1.41181970e+00 -4.16658759e-01 -5.70442140e-01 5.16147077e-01 2.69663602e-01 -6.84925377e-01 -1.39530957e-01 -4.08020951e-02 4.60940987e-01
4.61535715e-02 -3.76380026e-01 2.90937752e-01 -4.62710351e-01 8.10446143e-02 -2.41599292e-01 -7.63317347e-01 1.83879659e-01 -2.62275249e-01 -3.79891127e-01 4.09473866e-01 -7.32593536e-01 8.21776688e-01 -7.51182377e-01 -5.47394790e-02 -7.28518486e-01 -3.32522720e-01 -8.32454145e-01 -1.65900037e-01 -9.55057368e-02 8.41645241e-01 -5.11441171e-01 2.90095627e-01 -3.39998901e-01 -9.31456566e-01 6.48548663e-01 8.53499919e-02 -5.23997664e-01 -2.80984491e-01 6.03720546e-01 -1.59551263e-01 1.89035967e-01
-3.07084411e-01 1.19265862e-01 3.87779593e-01 1.48710817e-01 -1.03238070e+00 -3.09689552e-01 -1.84161797e-01 3.10106158e-01 2.65385211e-01 -1.37097418e-01 6.15096509e-01 3.29379320e-01 -6.08115233e-02 -3.14619439e-03 -1.98380351e-01 -1.17218149e+00 -4.58278269e-01 -1.52717066e+00 6.74421668e-01 -3.09079587e-01 -6.11445963e-01 -6.38115630e-02 -6.57018304e-01 -1.88674167e-01 5.23047782e-02 1.06577195e-01 1.28510520e-01 1.12703288e+00 -7.47371912e-02 -4.50745165e-01 -8.64962041e-01 3.14116001e-01
2.32206415e-02 -9.12795030e-03 -2.22045049e-01 -6.93473779e-03 -1.32771835e-01 1.63469315e-01 -6.49686530e-02 -4.29127783e-01 -1.00852177e-01 2.49279320e-01 2.91003525e-01 7.65937418e-02 2.84188122e-01 -8.49230797e-04 2.60504684e-03 -3.05369407e-01 1.24293137e-02 6.99072629e-02 -5.25288424e-03 -3.17720860e-01 -3.93443376e-01 8.96042958e-02 4.49316241e-02 3.03706080e-02 1.73752710e-01 2.55844980e-01 -3.58380258e-01 -4.28588063e-01 -1.55669749e-01 7.45083466e-02 -1.19614862e-02 1.28826872e-01
3.07287902e-01 1.19845614e-01 -3.89250576e-01 3.54212582e-01 2.46195316e-01 -6.53447092e-01 1.33874670e-01 5.03458083e-01 7.40232542e-02 -2.99590141e-01 -1.28256053e-01 9.59365666e-01 3.17667663e-01 -5.48242748e-01 -1.82817101e-01 1.59952402e-01 5.18865764e-01 1.43103972e-01 2.37303674e-01 4.99024659e-01 -1.43169892e+00 -8.94876420e-01 1.25909999e-01 2.93007970e-01 2.13168308e-01 7.53667057e-01 6.00371480e-01 5.09393096e-01 -5.71757555e-01 4.92463648e-01 1.68962181e-01 -2.72695690e-01
1.09553620e-01 3.25235665e-01 -6.32090867e-01 -2.25788176e-01 1.39574778e+00 -4.54688132e-01 -5.27062237e-01 -3.59975964e-01 -6.36993885e-01 2.11820200e-01 5.10488629e-01 1.91334724e-01 6.57745898e-01 -2.60156035e-01 2.76684444e-02 1.89711463e+00 3.71432573e-01 1.51462781e+00 -5.45512140e-01 -1.23471066e-01 1.37150794e-01 -3.48615497e-01 3.10294647e-02 2.33664498e-01 6.39502332e-02 3.63128424e-01 7.97224790e-02 -2.76919566e-02 -3.02547850e-02 1.87297702e-01 2.16158080e+00 -2.86319196e-01
-6.21022761e-01 1.02794185e-01 -1.03178114e-01 -5.25661349e-01 4.38863277e-01 2.11316627e-02 -3.14765647e-02 3.78517985e-01 3.98428679e-01 -1.64629683e-01 8.84364918e-03 2.40257323e-01 1.87570900e-01 1.73428670e-01 -3.38730991e-01 -6.08675122e-01 3.66428941e-01 -3.91280442e-01 -4.21760231e-01 -1.28737353e-02 -6.28156424e-01 -2.29566947e-01 1.15944110e-01 -6.64553866e-02 -2.11496338e-01 -8.76302943e-02 -1.77383289e-01 2.07015291e-01 2.68696487e-01 1.61247939e-01 1.36738539e-01 6.25718618e-04
1.35467008e-01 -3.14495265e-01 -2.73419376e-02 -3.71991128e-01 -6.91148043e-01 -3.18146139e-01 -2.66165972e-01 1.35321036e-01 4.70389932e-01 3.34035546e-01 -5.40132642e-01 -1.03506334e-01 8.63182187e-01 -2.89530307e-01 -2.03126848e-01 -3.70204896e-01 -6.31245375e-01 -1.26759195e+00 5.87155372e-02 -3.13277468e-02 1.01346385e+00 -2.29015067e-01 -8.68013024e-01 1.71821147e-01 -2.12310284e-01 -6.15753084e-02 -4.41418886e-01 -4.61716026e-01 2.09861502e-01 -4.07257378e-01 -5.83750755e-02 4.73210514e-01
-9.19688419e-02 -1.01760991e-01 1.68178332e+00 -8.81894827e-01 -7.44620323e-01 1.34297788e-01 -1.57224871e-02 -3.92226875e-01 1.26976147e-01 1.86314976e+00 2.92124040e-02 -1.43983170e-01 3.00545216e-01 3.20281315e+00 7.10775703e-02 -6.95133865e-01 2.98848271e-01 -2.43697953e+00 5.82015216e-01 -3.21320623e-01 2.74193913e-01 6.06256425e-01 -2.67591596e-01 8.31697464e-01 -6.88639730e-02 -5.45035362e-01 2.85894215e-01 -1.18092991e-01 9.82418731e-02 2.93976739e-02 7.11208358e-02 -3.46646428e-01
-6.06667042e-01 -1.52191266e-01 9.13869262e-01 3.86818945e-01 -5.79835951e-01 6.02790117e-01 3.45238969e-02 -9.15923476e-01 3.30473453e-01 4.76564348e-01 2.18324333e-01 1.57189265e-01 -4.83178526e-01 -7.72957876e-02 4.23632503e-01 -4.11967468e+00 -7.95354620e-02 -5.90354443e+00 5.88117898e-01 -9.71107841e-01 -6.99452043e-01 4.27863032e-01 6.09241724e-01 -8.43353868e-02 -2.66888201e-01 -2.16163978e-01 -3.78814906e-01 6.19920194e-01 -6.05867386e-01 -3.50854248e-01 -9.90742207e-01 -2.66640455e-01
5.65384515e-02 -1.23078167e-01 -6.29269540e-01 -5.04347011e-02 -2.08640695e-01 -9.44612622e-02 2.12086424e-01 3.20087105e-01 4.24158543e-01 -2.53722161e-01 5.49770594e-01 -2.08250105e-01 3.17435473e-01 -8.12045038e-01 -3.86903942e-01 -9.83121321e-02 -2.52781630e-01 1.95681453e-01 -7.16535971e-02 1.10433109e-01 -3.60788479e-02 -1.54810593e-01 -2.33714059e-02 -2.14084461e-01 -1.39826000e-01 7.44063258e-01 7.38253538e-03 6.00779727e-02 -1.91413194e-01 2.72399247e-01 9.85639393e-02 3.71326327e-01
-1.01242292e+00 2.45274767e-01 -6.25801533e-02 2.89121121e-01 -5.06672487e-02 6.54004395e-01 -3.59567612e-01 -4.57689166e-02 4.27006662e-01 -1.59665868e-01 -8.04164946e-01 2.84353822e-01 2.06736892e-01 -3.55511785e-01 -3.09752256e-01 -6.42362177e-01 2.73732096e-01 -5.77300191e-01 -4.73828435e-01 3.65590304e-01 1.33459461e+00 9.80750620e-01 -4.00780849e-02 1.56795204e-01 -3.70641261e-01 1.60426706e-01 -6.43171310e-01 3.72490995e-02 8.71152759e-01 -2.95559555e-01 -9.27688628e-02 1.42319500e-01
-5.67894101e-01 -6.17363527e-02 7.94953331e-02 1.36833280e-01 -2.79937804e-01 2.80570716e-01 -9.42995906e-01 -9.19088647e-02 1.00418381e-01 5.23039532e+00 5.66457391e-01 4.20834512e-01 2.17380226e-01 2.65921783e+00 -1.71872985e-03 -4.36835699e-02 -4.32573348e-01 -1.41603112e-01 4.69605550e-02 -2.06307873e-01 -6.89883411e-01 4.16092426e-01 1.94290906e-01 2.65813172e-01 -3.85396004e-01 -4.28440005e-01 -6.31404817e-01 3.25630844e-01 -1.16507374e-01 -6.58241332e-01 2.52422065e-01 -2.47914389e-01
-9.96563397e-03 1.51901349e-01 -6.84091896e-02 3.26716751e-02 1.10688414e-02 6.34830911e-03 3.22715528e-02 -5.69679774e-02 1.07642682e-02 -1.84415400e-01 7.01575950e-02 4.07763496e-02 4.90263253e-02 9.98690352e-02 1.09740093e-01 -5.94585872e-05 4.48736437e-02 1.41549585e-02 -7.07723293e-03 1.11020871e-01 2.60111213e-01 1.10433482e-01 -2.54175463e-03 2.43069157e-02 6.21008873e-02 2.36018635e-02 5.47208749e-02 2.63407081e-01 1.24766966e-02 -2.94013158e-03 2.00128667e-02 2.48491205e-02
1.76918194e-01 -1.11577347e-01 -5.81241667e-01 2.99039762e-02 1.74910188e-01 -2.10238978e-01 -1.41903356e-01 -3.04181665e-01 2.51723558e-01 -6.72203064e-01 3.61931995e-02 5.88005083e-03 2.19510034e-01 5.34859709e-02 -9.05555040e-02 2.65391141e-01 -2.91044891e-01 4.85838324e-01 -1.18824102e-01 9.33532119e-01 1.79483250e-01 1.25389606e-01 -4.69664931e-01 -1.38974831e-01 -2.13143215e-01 -4.28629756e-01 8.26923430e-01 -3.88229072e-01 2.11721182e-01 2.92323411e-01 -8.32132697e-02 2.94567019e-01
-2.66948789e-01 -9.32616368e-02 -3.61782491e-01 -1.78821936e-01 5.36680043e-01 2.26198733e-02 8.98093954e-02 1.01705767e-01 4.02626932e-01 -4.61694181e-01 -1.33561149e-01 -9.54653859e-01 4.46350902e-01 -2.11856380e-01 -1.68777704e-01 2.87052304e-01 -1.52077451e-01 4.65602040e-01 1.44471213e-01 -9.64902788e-02 8.34704470e-03 -2.24297762e-01 5.14252722e-01 -3.05359870e-01 2.73183107e-01 1.72846049e-01 -1.48914561e-01 2.90539056e-01 3.68835256e-02 3.79523128e-01 4.55561817e-01 9.54095423e-02
6.75740689e-02 1.81151092e-01 -5.17862104e-03 6.88310862e-02 -6.68751895e-02 9.85800624e-02 -3.04179918e-02 -7.75811002e-02 5.86695150e-02 7.40800723e-02 6.89431652e-02 1.16456419e-01 -6.58816919e-02 -7.13318139e-02 1.12453736e-01 4.55565244e-01 5.77258132e-02 -3.00734311e-01 4.05237190e-02 -1.00423098e-01 -1.10335447e-01 -1.33132458e-01 -2.43654824e-03 -1.88012999e-02 3.49425264e-02 1.29109085e-01 4.59758053e-03 9.14788898e-03 1.15902044e-01 1.37460064e-02 5.10038529e-03 4.26844545e-02
4.81187642e-01 -2.00805724e-01 6.91106558e-01 5.54697692e-01 -3.20542574e-01 -2.00573385e-01 -6.57841444e-01 -1.40164763e-01 -3.14304441e-01 -7.82494307e-01 -7.67391771e-02 9.41266358e-01 4.67277765e-01 -3.73514384e-01 7.89298594e-01 5.06336987e-01 -1.21551126e-01 -3.21683824e-01 4.78359610e-01 4.16230261e-01 -4.42220807e-01 9.13223103e-02 5.58454692e-01 2.19701067e-01 7.65901357e-02 -3.99190515e-01 1.17791854e-01 3.36497724e-01 -1.28034368e-01 -5.34346811e-02 1.32130712e-01 4.36395317e-01
2.49883965e-01 -1.21180907e-01 3.25366482e-02 1.80531859e-01 3.05296015e-02 1.53158516e-01 9.47938621e-01 4.68704887e-02 4.65748578e-01 2.69084066e-01 3.65259111e-01 3.41977596e-01 -4.26305860e-01 -5.18660247e-01 1.07046656e-01 -1.02074444e+00 -7.87102133e-02 -7.05469072e-01 -5.52464835e-02 -4.73568439e-01 -5.11035740e-01 -3.03638410e-02 2.48163193e-01 -3.05229635e-03 6.52396604e-02 -4.48268890e-01 -6.75761282e-01 4.36049998e-01 -1.22503772e-01 -1.57566085e-01 2.57225722e-01 -5.10161445e-02
4.45947759e-02 -1.55553939e-02 -2.84339368e-01 4.19587761e-01 2.36283839e-02 3.83590758e-01 3.40527356e-01 -2.57045090e-01 -3.18492293e-01 3.47332567e-01 3.48297730e-02 6.73143044e-02 4.27031159e-01 4.95075166e-01 -1.60597339e-01 -5.64938128e-01 5.47037661e-01 -1.45013884e-01 1.47537682e-02 -2.49019146e-01 -3.21051985e-01 3.92426029e-02 -3.59291166e-01 1.99577570e-01 -3.20459485e-01 -1.13246545e-01 -4.46344465e-02 -5.54655492e-01 6.94496036e-02 -1.01535320e-01 -4.39043110e-03 -3.20480943e-01
7.74487555e-01 -3.28867882e-02 -2.60954767e-01 1.56328112e-01 1.46011993e-01 -4.92624372e-01 -1.99810304e-02 3.28200012e-01 2.68905491e-01 -2.57588983e+00 9.74060744e-02 1.84564710e-01 3.89744103e-01 -1.62020051e+00 1.20717369e-01 3.44941437e-01 1.46483153e-01 2.43858457e-01 -2.18990996e-01 2.93722912e-03 4.69822973e-01 -2.04216644e-01 -3.13340545e-01 -4.66365814e-02 -3.80868077e-01 -1.85790122e-01 -6.75042346e-02 -1.42315939e-01 2.27256745e-01 9.56052318e-02 -1.83277503e-01 -1.64705977e-01
-9.32951033e-01 1.56147182e-01 4.51052524e-02 1.16947703e-01 -1.16789013e-01 -3.16105634e-01 1.17210400e+00 -4.26479764e-02 -1.11347198e+00 7.78067529e-01 -7.41031766e-01 4.79398780e-02 1.76301301e-01 8.53719115e-02 -7.13645220e-01 8.04852545e-01 6.08533740e-01 4.77395207e-01 -1.54577941e-01 1.76167935e-02 -3.01681608e-01 4.71876919e-01 5.43609142e-01 9.52899218e-01 -5.64683795e-01 5.16784072e-01 -6.22841179e-01 3.01909298e-01 8.32140565e-01 -4.58418936e-01 9.60186273e-02 1.64285541e-01
-5.14828026e-01 6.08797908e-01 -7.68508390e-02 -1.06859148e-01 5.95556736e-01 1.35891274e-01 -1.50654567e-02 4.86467928e-01 -2.96481580e-01 4.62581575e-01 1.01949796e-01 -1.92470267e-01 1.85269356e-01 1.95087284e-01 -5.52463591e-01 -1.67239517e-01 -1.35335967e-01 -3.88734341e-02 4.17122304e-01 -4.39431846e-01 -2.43623760e-02 -3.08616221e-01 -7.98816048e-03 -4.22587126e-01 4.80543599e-02 -2.32676432e-01 -5.30130565e-01 -4.83190179e-01 1.39477685e-01 -3.29766035e-01 -2.61147231e-01 -2.17149675e-01
-1.02018356e-01 3.07861716e-01 5.01173317e-01 2.92349786e-01 -3.17404747e-01 -3.64264339e-01 -1.14609033e-01 2.74016857e-02 3.06228966e-01 -5.04902303e-01 -6.57646060e-01 1.09863505e-02 -2.07435220e-01 -3.48799616e-01 -1.82267427e-02 6.42746031e-01 -1.49644464e-02 1.57682568e-01 2.93416679e-01 2.73259133e-01 -5.14732674e-02 -6.86420619e-01 8.55166987e-02 4.64601777e-02 2.21995592e-01 2.13089332e-01 -5.06095588e-02 -4.50148076e-01 -2.52335608e-01 -1.89521939e-01 -3.25343087e-02 -2.02121973e-01
-7.86504149e-01 4.47382390e-01 -6.26698136e-01 -9.89538491e-01 -2.13867664e-01 -2.23501995e-01 -3.73325229e-01 3.75367731e-01 1.17446855e-01 4.37846780e-01 -3.25873345e-02 1.64781138e-01 1.58053786e-01 2.83394158e-01 8.19201674e-03 1.05947149e+00 6.66871548e-01 1.18321300e+00 -6.86601698e-01 5.41146919e-02 5.65677524e-01 -7.72402942e-01 -6.26462400e-01 4.26419884e-01 -1.60906777e-01 -4.58754212e-01 2.99075425e-01 2.82277703e-01 5.36641657e-01 -7.93895841e-01 2.06627697e-01 -2.54235148e-01
1.58134833e-01 -5.41327655e-01 -5.77540845e-02 -1.02894187e-01 -6.06856883e-01 5.21119475e-01 1.06417947e-01 -4.69096243e-01 4.96924847e-01 9.00342345e-01 -2.06600815e-01 1.03148513e-01 5.39881945e-01 4.10925746e-01 1.76682677e-02 -1.01923501e+00 -4.63156998e-01 -1.01610291e+00 1.87488403e-02 2.01082915e-01 2.51013905e-01 3.36140871e-01 1.93547517e-01 1.55725867e-01 2.58410901e-01 9.49992910e-02 -3.98831815e-01 -2.70778090e-01 -2.54409492e-01 -3.26486319e-01 4.18795705e-01 3.29233378e-01
-7.73351640e-02 -9.89075005e-01 3.84786487e-01 1.56496143e+00 1.08785249e-01 1.15519151e-01 -9.97055173e-02 -2.43121296e-01 -2.37757251e-01 2.54602283e-01 1.06817198e+00 -9.69884217e-01 -1.08446336e+00 -3.38958681e-01 2.16367275e-01 -1.22838438e-01 -1.21078742e+00 5.40124774e-01 6.06040359e-01 -6.36829257e-01 9.18785810e-01 2.11151630e-01 3.67733277e-02 -2.01840520e-01 1.31247371e-01 -4.85557526e-01 1.86254740e-01 -5.48176318e-02 -8.60546649e-01 1.24362898e+00 -6.03639722e-01 -1.25801533e-01
-8.13480258e-01 -2.45574340e-01 4.32990253e-01 1.94014400e-01 -4.64212894e-01 3.12168598e-01 3.34452361e-01 -7.48037696e-02 -5.13840973e-01 -1.70817420e-01 -9.12921727e-01 2.03046754e-01 4.04016465e-01 1.36239335e-01 2.41864532e-01 -3.36058378e-01 2.88558573e-01 -5.05979598e-01 2.94210911e-01 -4.13932651e-01 -8.74361455e-01 3.76769453e-01 9.34103876e-02 -6.39275312e-01 1.60219878e-01 5.36005795e-01 -5.24422079e-02 1.70318753e-01 -5.05631804e-01 -1.60855830e-01 -1.25959039e-01 1.84444222e-03
-3.04880261e-01 -3.31771910e-01 -1.51371241e-01 -1.52664930e-01 -2.41271392e-01 -4.20255661e-02 2.24916592e-01 2.72661895e-01 -6.08789325e-01 1.34880459e+00 -1.50876939e-01 -9.55261439e-02 -4.99426365e-01 4.81241405e-01 -1.56827688e-01 5.30494610e-03 2.97266003e-02 1.33631095e-01 -2.84654088e-02 -1.83685392e-01 2.20494106e-01 1.46005303e-01 3.27743471e-01 2.61973049e-02 5.10138199e-02 -5.44035435e-02 -1.91673785e-01 1.88879281e-01 2.89517075e-01 3.08740199e-01 3.46236601e-02 1.05140649e-01
-7.25778490e-02 -3.60199422e-01 4.56568692e-03 -1.11838408e-01 -3.61706018e-01 4.60824907e-01 -1.80704951e-01 -4.13265318e-01 8.00912306e-02 -3.91997457e-01 2.08859760e-02 4.42084193e-01 2.13786542e-01 4.46617812e-01 3.13511670e-01 -5.54740131e-01 -4.58251774e-01 -1.22730219e+00 -6.06390797e-02 -3.20859492e-01 -1.06473111e-01 8.72723043e-01 4.14626092e-01 5.93237817e-01 -4.54027772e-01 1.50853232e-01 1.18108399e-01 -2.46172324e-01 -3.60710740e-01 -2.71683127e-01 -1.14133470e-01 -8.82718787e-02
2.52647679e-02 -4.93704267e-02 1.42319202e-01 -8.83919001e-02 2.25050181e-01 -1.03606142e-01 1.97171904e-02 -3.36121440e-01 -1.70607284e-01 3.54361564e-01 1.40654609e-01 1.79115027e-01 7.62189031e-02 -3.06745499e-01 -6.70021847e-02 -2.84693539e-01 5.58557361e-02 1.26687989e-01 -1.60952091e-01 -5.45314670e-01 1.34499118e-01 -1.50917590e-01 -1.24627173e-01 -3.59076522e-02 -1.48837417e-02 2.07163140e-01 -5.95934615e-02 3.75631861e-02 1.03740260e-01 7.36886337e-02 -1.70954317e-02 7.28821615e-05
8.82108286e-02 -5.50458312e-01 -2.43506700e-01 7.66554773e-01 -1.90219223e-01 -4.79502231e-01 1.85819015e-01 -1.49642497e-01 -2.46881247e-01 2.91015291e+00 -5.55517852e-01 9.65418398e-01 6.47471249e-01 8.44491959e-01 7.70604968e-01 2.08861902e-01 4.18490283e-02 2.34433159e-01 5.37870347e-01 3.69945794e-01 2.24887162e-01 1.54864818e-01 -1.75524309e-01 1.06723499e+00 -4.96088490e-02 1.32019028e-01 -3.01705182e-01 2.89634526e-01 5.25605567e-02 3.76975834e-02 1.02052331e+00 2.56333258e-02
-9.06831250e-02 1.78713813e-01 1.29934028e-01 7.25454018e-02 2.96895653e-02 -4.95088212e-02 9.23092104e-03 1.11049302e-01 1.00865187e-02 -2.60205138e-02 1.68006971e-01 7.93202072e-02 9.20720920e-02 -8.46492033e-03 1.60364643e-01 1.83231503e-01 3.13478000e-02 -1.26161858e-01 -1.08249458e-02 8.97124708e-02 -1.61716029e-01 -5.66242971e-02 -1.93167198e-02 -8.01558199e-05 -4.60229158e-01 -2.21741900e-01 4.55324836e-02 -1.32082641e-01 -5.47434166e-02 -5.69354631e-02 2.79779416e-02 -4.59426343e-01
6.21423684e-03 -7.56303146e-02 -4.62573729e-02 2.55528037e-02 -2.42741480e-01 1.84469577e-02 -3.44639681e-02 1.66325450e-01 6.76733702e-02 -3.76742631e-02 -6.39099162e-03 -2.42162272e-02 -6.57602847e-02 5.79014197e-02 -8.15563872e-02 2.20118344e-01 -1.13538384e-01 -1.04750142e-01 1.70455556e-02 3.30284804e-01 -2.43380144e-01 -1.01312101e-01 6.48431154e-03 -9.57959145e-03 1.42884636e-02 -9.11031738e-02 -6.30319268e-02 -7.32588097e-02 -4.46600057e-02 5.30096069e-02 2.76308842e-02 -5.31409774e-03
8.48684549e-01 -2.83980787e-01 3.30716163e-01 3.56302291e-01 -4.52867329e-01 1.47370351e-02 -6.45406544e-01 -1.97834149e-02 7.59428203e-01 5.31352460e-02 -1.73403829e-01 3.27482410e-02 4.04672138e-02 2.37058952e-01 7.58884847e-01 -9.54414189e-01 -4.70825255e-01 -8.79107594e-01 6.69652462e-01 -2.83170879e-01 -7.27837145e-01 2.16577366e-01 -1.26861334e-01 2.16557667e-01 8.46964717e-01 -3.93628962e-02 2.39209235e-01 -1.44112438e-01 -5.35077691e-01 2.42456436e-01 1.22260466e-01 5.35561703e-02
1.47767708e-01 -4.23310816e-01 -2.87054539e-01 4.28837448e-01 2.10894331e-01 -5.98504484e-01 8.44707116e-02 -2.26767231e-02 2.57588118e-01 -2.58864760e-01 -2.13763475e-01 4.31400746e-01 3.32128465e-01 -2.75265157e-01 2.65774518e-01 -5.78346908e-01 -3.56779456e-01 -7.43498564e-01 4.57867175e-01 -4.26794291e-01 -2.27801815e-01 -7.97736347e-02 3.60935271e-01 6.66642070e-01 -1.22312188e-01 -3.40918541e-01 4.61725533e-01 -7.53773078e-02 -1.10915519e-01 -3.99679750e-01 8.72928873e-02 2.23954737e-01
9.86592621e-02 -5.07760188e-03 7.11554170e-01 1.12132013e-01 -1.17110753e+00 -3.93586040e-01 1.84023410e-01 -1.65673554e-01 7.44779289e-01 5.40352643e-01 -1.23227723e-01 -3.81993264e-01 2.04795413e-03 6.84128046e-01 -3.93490084e-02 -2.40695286e+00 -2.98217028e-01 -2.89956188e+00 2.29461029e-01 1.56419296e-02 -8.36573482e-01 6.27881289e-01 1.19041517e-01 1.39915094e-01 2.29824454e-01 1.08238667e-01 3.44508141e-01 2.09785417e-01 -1.88639760e-01 -7.70427525e-01 -7.16515720e-01 1.59305677e-01
-1.78059503e-01 -2.36552477e-01 -2.64277518e-01 -2.81830043e-01 -2.58984447e-01 5.43005705e-01 1.61252826e-01 -1.01668231e-01 -1.28801867e-01 3.50850552e-01 -2.00007558e-01 1.70329273e-01 5.95517680e-02 -2.70062119e-01 -1.42505765e-01 -4.53309000e-01 3.17585647e-01 -5.94600379e-01 -2.89057225e-01 3.02230977e-02 -3.55425864e-01 3.84933859e-01 -1.54114604e-01 3.59509557e-01 3.68699282e-01 -5.11617661e-01 4.81965452e-01 7.39581510e-02 7.40776435e-02 1.31574839e-01 -9.59938914e-02 3.37546431e-02
5.02036393e-01 6.97782218e-01 6.83450460e-01 -4.09365535e-01 1.58517167e-01 1.28329203e-01 1.74653724e-01 -1.13187335e-01 -8.04122686e-01 9.62730050e-01 -2.96366185e-01 -2.28579372e-01 -4.32127625e-01 1.11757863e+00 1.42286658e-01 1.28069580e-01 3.89619954e-02 -9.58653152e-01 3.20028901e-01 -2.70330608e-01 3.03442236e-02 7.03393877e-01 -1.68656379e-01 -4.05827612e-01 6.32459342e-01 -7.62285233e-01 4.84908611e-01 -3.57022546e-02 -3.27966273e-01 -6.08985066e-01 -4.91510741e-02 -4.51352865e-01
-4.71042953e-02 -3.76774341e-01 1.95069760e-01 -1.70257017e-01 -2.05626279e-01 1.47368491e-01 2.83607300e-02 -2.95107335e-01 -4.08337176e-01 -3.28141809e-01 -9.76600274e-02 -1.08522968e-02 -1.05252154e-01 4.06973749e-01 5.24758101e-01 2.66275942e-01 2.73044199e-01 -4.82330412e-01 4.27869260e-02 1.54464349e-01 -2.24744990e-01 3.02554846e-01 -3.32675844e-01 1.88373134e-01 -3.30591202e-02 -2.70559847e-01 4.10634398e-01 6.99289024e-01 -4.00800616e-01 -4.52876359e-01 2.92884141e-01 3.05271298e-01
-1.26519001e+00 9.86162052e-02 1.48119420e-01 -1.31956375e+00 -1.15991123e-01 -6.06399216e-02 1.96685642e-01 5.53749502e-01 9.81885046e-02 3.80061477e-01 -9.90724981e-01 7.16462672e-01 1.09950483e+00 3.50471407e-01 -6.42973781e-01 2.95719624e-01 5.69431424e-01 -4.07950878e-01 -3.15430552e-01 1.03348303e+00 -5.43086648e-01 -2.93978184e-01 -3.25746238e-01 -3.37017439e-02 5.95638514e-01 1.00706220e+00 8.47886860e-01 6.17300570e-01 5.14938295e-01 -1.03890729e+00 1.68893516e-01 2.17657730e-01
-9.87048969e-02 9.04415101e-02 3.06038827e-01 -4.82329801e-02 3.40591878e-01 -1.02474660e-01 -2.32133847e-02 3.44845839e-02 -4.03680503e-02 2.01724291e-01 1.96199510e-02 2.20356416e-02 -1.00629637e-02 -1.30188033e-01 8.90553370e-02 -1.32380143e-01 8.19789693e-02 4.56078574e-02 3.92743153e-03 -4.24532264e-01 1.38162076e-01 -1.02155358e-01 5.73952869e-03 1.58902928e-02 1.41904533e-01 -1.66586619e-02 7.26848170e-02 1.50979385e-01 3.71725038e-02 -8.83836076e-02 -6.32262696e-03 5.41840084e-02
-5.50826527e-02 3.12593967e-01 2.26042151e-01 -1.02793060e-01 3.33711803e-01 4.45747450e-02 6.41088247e-01 2.64240652e-01 1.53666586e-01 -1.24875581e+00 -3.29026669e-01 5.17325103e-01 6.38563633e-01 -3.72889966e-01 -5.41561246e-01 9.45925713e-02 6.12671793e-01 -7.56795332e-02 2.70246770e-02 -3.91814291e-01 8.43438208e-01 -3.28026831e-01 -4.90171388e-02 -1.35764337e+00 -1.11383200e-01 4.95596170e-01 -9.73927021e-01 -9.05989707e-01 2.40227938e-01 -9.90020931e-02 -6.90930039e-02 -1.25235170e-01
6.05386257e-01 -3.38257104e-01 -3.25431675e-01 4.71921057e-01 -2.15718728e-02 -4.15558778e-02 -8.59936774e-02 -1.72579244e-01 4.97473717e-01 -9.87073034e-02 -8.10342282e-02 -8.19463581e-02 7.27166712e-01 -3.32722485e-01 3.83866966e-01 -3.67255509e-01 -5.92296124e-02 -4.76138264e-01 2.52604336e-01 -1.05690405e-01 -2.99718648e-01 7.92898238e-02 1.84423223e-01 1.82437643e-01 -1.73126813e-02 -2.41839916e-01 8.26304555e-01 4.39404041e-01 -3.60880256e-01 3.68424982e-01 1.77942842e-01 2.92336941e-01
-2.30819911e-01 3.33530277e-01 -1.71166465e-01 -5.02906069e-02 -5.81631362e-01 -2.05889732e-01 9.77241024e-02 4.68244106e-01 -8.97436440e-02 -5.69401860e-01 -1.85433820e-01 -7.73778185e-03 -3.36768031e-01 1.79970205e-01 2.51230240e-01 -1.63044184e-01 -9.65452194e-02 2.72767484e-01 1.38072558e-02 3.65544021e-01 -2.42803589e-01 -4.88969125e-02 -8.36737361e-03 -4.60313894e-02 -1.08086906e-01 -9.66127142e-02 2.66776532e-01 -2.72350281e-01 1.21817164e-01 2.75387499e-03 1.57545414e-02 1.62647516e-01
4.79648933e-02 -5.66043854e-01 -1.20135456e-01 -1.00128479e-01 -2.51545776e-02 -1.40413791e-01 -2.46232259e-03 -1.64039358e-01 -4.50038999e-01 4.68110561e-01 -6.61905995e-03 7.46654496e-02 3.50602806e-01 3.55313987e-01 -1.34284988e-01 -5.49417555e-01 -2.23480090e-01 -3.73793244e-02 -2.14831624e-02 4.53639440e-02 8.82576779e-02 -4.76900823e-02 5.84923863e-01 4.74675596e-02 -3.67139339e-01 2.30013564e-01 3.44449908e-01 8.37852955e-02 -6.07239231e-02 1.31855741e-01 -3.85031402e-02 -2.17509747e-01
1.01649046e+00 4.18006144e-02 -5.73271573e-01 1.59645408e-01 1.41434103e-01 9.46369916e-02 4.87202436e-01 1.55294791e-01 -2.72421360e-01 -9.25195277e-01 -8.69318128e-01 1.39841938e+00 1.13736428e-01 -9.16873395e-01 2.68959343e-01 4.85631168e-01 8.82575512e-02 3.76338243e-01 -1.23857103e-01 1.56631380e-01 -1.55733633e+00 -3.91518950e-01 -8.29996288e-01 -1.96938500e-01 -4.26068962e-01 1.48358401e-02 2.11710021e-01 6.11024082e-01 -2.46039815e-02 1.98554210e-02 -4.83956747e-02 4.70826060e-01
-1.37585640e-01 2.11830009e-02 -9.71936285e-01 -6.01341948e-02 3.20345938e-01 3.57720137e-01 1.60021976e-01 2.59128697e-02 -9.08658728e-02 4.80891258e-01 -4.07332808e-01 -1.17033744e+00 3.68602335e-01 3.78771245e-01 -2.99704134e-01 7.58399904e-01 -9.05041099e-02 1.44164944e+00 -4.45963502e-01 1.01861075e-01 2.93804616e-01 -1.39816314e-01 1.91674456e-02 6.49589777e-01 -2.16543242e-01 7.69918084e-01 -8.60306770e-02 -2.75441170e-01 1.14088103e-01 1.29337460e-01 6.31250381e-01 -1.25444531e-01
-5.21906605e-03 3.68776023e-01 -1.79649219e-01 -6.04356349e-01 -6.86720312e-02 7.27684140e-01 3.18796873e-01 7.84888685e-01 3.10370207e-01 3.09529275e-01 9.62624967e-01 -2.72465259e-01 7.38575757e-02 2.84133583e-01 2.00200733e-02 -7.02753186e-01 2.70914406e-01 -3.41852382e-02 -3.09654921e-01 -5.59305191e-01 -6.61737993e-02 -2.40421593e-01 2.38003224e-01 1.73688561e-01 -2.63896644e-01 1.62698776e-01 4.61597778e-02 1.42354816e-02 -5.66479921e-01 2.64704406e-01 -1.98095560e-01 1.50899678e-01
6.22611791e-02 2.04842873e-02 -1.36984348e-01 1.09898606e-02 -2.34628972e-02 5.58690019e-02 3.14878598e-02 7.92432874e-02 -2.68680491e-02 -5.22585288e-02 -5.84726185e-02 -3.88728380e-01 2.42127612e-01 2.10687667e-01 1.47071080e-02 1.18420228e-01 7.88833350e-02 -4.88431826e-02 9.58234817e-02 2.50666380e-01 1.22003004e-01 2.88643956e-01 4.18546516e-03 2.09151134e-01 -1.01116270e-01 -2.90037543e-01 -1.74364373e-01 -1.67633191e-01 -3.14712346e-01 -1.39682174e-01 2.50531896e-03 -2.73345709e-01
4.13799971e-01 6.48650620e-03 5.61758280e-01 3.94301832e-01 3.25894266e-01 4.32374328e-01 9.29725647e-01 -3.56686831e-01 7.27989912e-01 -6.38299137e-02 -6.11358047e-01 1.59713820e-01 -5.20489693e-01 -4.01134729e-01 -9.03330836e-03 2.34353870e-01 -6.16284668e-01 -5.03417850e-01 2.66399980e-01 -3.19082774e-02 -1.00420386e-01 5.82507491e-01 2.51070321e-01 6.75893664e-01 2.38933656e-02 -1.33328781e-01 -2.34185427e-01 1.82241231e-01 1.87119976e-01 4.15267766e-01 -9.78968516e-02 -8.46576004e-04
-2.92554170e-01 -5.30149937e-01 1.51589167e+00 8.75637382e-02 -8.88128459e-01 -1.71139061e-01 -1.16799617e+00 -9.99291003e-01 2.97854453e-01 1.08985507e+00 7.31751043e-03 -4.69892800e-01 -2.93913692e-01 1.05477321e+00 6.27276182e-01 -2.03157902e+00 1.50681257e-01 -2.72878051e+00 1.82135761e+00 8.20570171e-01 -5.66453576e-01 1.71317220e+00 -4.28628832e-01 2.60949522e-01 3.46702039e-01 -6.99145854e-01 -2.50230104e-01 3.85924131e-01 1.40670478e-01 3.85167897e-02 7.28202105e-01 1.51905864e-01
2.28390452e-02 -2.12076642e-02 5.19558042e-02 3.80064175e-02 4.29017991e-01 -1.63923623e-03 1.71781424e-02 2.07988732e-02 4.58085872e-02 -1.35987513e-02 -1.45210298e-02 -7.04328269e-02 1.06836230e-01 -1.42283961e-02 9.07836575e-03 -7.66967610e-02 7.80641800e-03 -4.31031622e-02 -7.27011040e-02 8.55700448e-02 1.43541127e-01 3.71877588e-02 -1.46164251e-02 7.12761073e-04 -1.34670407e-01 -1.40164658e-01 1.21374736e-02 3.38642091e-01 -4.17241566e-02 -6.17148615e-02 1.43847968e-02 -2.40245134e-01
-3.83358777e-01 1.03577942e-01 -1.35076866e-01 -6.60974085e-02 -2.68254250e-01 -3.40120681e-02 -1.14273958e-01 6.86775446e-01 -3.58569436e-02 -9.15083513e-02 -1.64105177e-01 6.77877069e-01 4.93510872e-01 3.25528979e-01 1.53014630e-01 7.40459412e-02 -1.20268315e-01 6.04539104e-02 -1.21481143e-01 -3.08232550e-02 -1.43427446e-01 -6.26383066e-01 -2.40752339e-01 -2.13444874e-01 -3.51462841e-01 -1.84822783e-01 -6.04378104e-01 4.29486156e-01 -2.60842472e-01 -2.46499076e-01 -2.62334734e-01 5.26420236e-01
2.86504650e-03 -2.12429464e-01 5.86279452e-01 2.62527734e-01 -6.00217998e-01 2.69125581e-01 3.51556331e-01 -6.06520772e-01 5.21091282e-01 3.54051203e-01 -7.59835914e-02 4.08233225e-01 -9.66013521e-02 1.64520413e-01 1.95251331e-01 -2.10604382e+00 1.01463370e-01 -1.02367818e+00 9.06531960e-02 1.68670624e-01 -6.91074366e-03 1.61386982e-01 2.79848069e-01 1.82275578e-01 -1.64010108e-01 -5.35234988e-01 -7.39713460e-02 -2.98123419e-01 -3.91464800e-01 -4.82082278e-01 4.37035680e-01 -3.58641356e-01
-1.25930846e-01 7.53452182e-02 -1.67464465e-01 1.39493898e-01 -1.13357939e-01 -1.08602196e-01 2.67564803e-01 -1.90952405e-01 -5.66471875e-01 1.54928017e+00 -3.84124547e-01 -5.91480806e-02 -2.62271225e-01 1.22325552e+00 -2.78294027e-01 5.77164628e-02 4.61203307e-02 3.40431742e-02 -8.27431604e-02 -2.74138719e-01 3.48765519e-03 2.03382999e-01 -1.18167721e-01 -1.97257757e-01 -1.65336207e-01 7.95874596e-02 4.19141740e-01 4.72986162e-01 1.72577143e-01 -4.76895124e-01 1.95127949e-01 -6.41363636e-02
-1.09289438e-01 -2.09294632e-01 6.10242844e-01 4.93946135e-01 -1.22734614e-01 -3.67446899e-01 -1.05746758e+00 1.09183170e-01 2.47994974e-01 4.43442285e-01 1.07106693e-01 -7.19712004e-02 9.90021154e-02 2.02229276e-01 -2.35608667e-01 4.42164093e-01 9.03798454e-03 1.64965481e-01 -7.15203881e-02 -3.34289253e-01 8.73088956e-01 3.65461260e-01 3.62329096e-01 -5.96675694e-01 -4.05369047e-03 8.40366352e-03 -1.88659847e-01 2.80020356e-01 -1.53271213e-01 3.44432205e-01 -1.69545442e-01 -2.51888722e-01
1.14755750e+00 -3.63137901e-01 5.69538832e-01 9.35106575e-01 -5.69452465e-01 2.48360723e-01 -6.63578212e-01 -5.70090890e-01 5.76291680e-01 -5.56421816e-01 -3.20410609e-01 7.70874560e-01 -1.19598269e+00 -2.05854058e-01 6.59669638e-01 -5.96440971e-01 -5.88788465e-02 -4.81338531e-01 7.05865324e-01 7.71099150e-01 2.70627886e-01 -4.04307514e-01 -2.08011222e+00 -5.41095078e-01 3.97271812e-01 5.86141050e-01 -8.51631284e-01 -2.66332120e-01 -1.67542323e-01 1.21204638e+00 -4.68762815e-01 1.91407874e-02
-1.80870835e-02 1.70391291e-01 -5.38834073e-02 -4.96340692e-02 -1.44042775e-01 -2.48469058e-02 4.15380374e-02 -4.23439220e-02 -6.10316657e-02 -2.76536141e-02 3.82385068e-02 9.57667530e-02 8.65597427e-02 -6.56673089e-02 1.82189986e-01 -1.67595088e-01 1.04284033e-01 1.53298944e-01 -2.02718154e-02 -2.77511328e-01 1.35774329e-01 3.17922942e-02 -8.82102177e-03 -2.60057524e-02 -3.06695104e-01 -3.93041000e-02 1.97639018e-02 -7.55151659e-02 -2.71769427e-02 -8.28340556e-03 -1.44687751e-02 -2.16305420e-01
1.21896103e-01 3.11665207e-01 1.61525130e+00 4.31882113e-01 -1.17137134e+00 1.52289137e-01 -1.74371451e-01 -5.39322555e-01 8.22336555e-01 5.20173788e-01 1.69414759e-01 -3.28631908e-01 -8.78541708e-01 9.57874000e-01 5.04120672e-03 -3.31665683e+00 -2.35302284e-01 -4.45987654e+00 3.55687976e-01 1.29316196e-01 -1.23205066e+00 9.75232065e-01 3.47517192e-01 1.49616539e-01 2.19484076e-01 -1.38705894e-01 -5.39093852e-01 6.51551783e-01 -1.56715095e-01 -2.42453832e-02 1.93214081e-02 7.88811408e-03
-8.52059901e-01 1.44868433e-01 1.36987656e-01 -7.16916084e-01 -2.84857824e-02 -1.23666041e-01 -2.06357405e-01 4.85888958e-01 -7.81137049e-02 3.04268152e-02 1.38894781e-01 -3.22541386e-01 4.14722800e-01 4.75169182e-01 -3.60529095e-01 -2.80972272e-01 1.66250125e-01 -1.94002375e-01 -3.46453905e-01 1.30375668e-01 1.22545958e-01 6.92687571e-01 2.65104473e-01 -2.02482209e-01 -8.69209543e-02 2.93428630e-01 -6.88065767e-01 5.56137711e-02 9.32819992e-02 -5.34730136e-01 -1.07898906e-01 -7.83191442e-01

layers.2.bias:
-1.39513230e+00
-8.39536071e-01
3.95934105e-01
-5.53355455e-01
1.54694855e-01
-3.82645279e-01
2.69966751e-01
2.14751983e+00
6.03946328e-01
8.29403937e-01
-9.31320667e-01
-1.36441255e+00
-3.07809919e-01
9.19152081e-01
-2.73327649e-01
-7.28361070e-01
-6.13667853e-02
-7.35667884e-01
3.29800457e-01
-8.29352960e-02
-2.37463564e-01
7.87272513e-01
8.09147179e-01
-1.17124841e-01
-3.93724412e-01
1.06880271e+00
-9.07720625e-01
-1.09332955e+00
5.00672579e-01
-1.16397536e+00
2.53752396e-02
-4.95132096e-02
7.86667287e-01
1.11890249e-01
-3.30074996e-01
-1.39008015e-02
-1.36735767e-01
1.38091815e+00
1.02463067e+00
-5.85294738e-02
9.95100617e-01
-1.83629781e-01
-5.57202101e-01
1.37248266e+00
2.55407423e-01
-8.90941799e-01
1.03886056e+00
-3.60093832e-01
8.12315881e-01
1.77653098e+00
1.88698724e-01
3.09602022e-01
1.07098639e-01
-6.36768997e-01
1.97735921e-01
-1.53069319e-02
8.22843075e-01
-1.17335849e-01
-3.19452696e-02
-6.37709022e-01
6.61644161e-01
7.10028410e-02
-2.36178592e-01
6.75319135e-01

layers.4.weight:
3.47540289e-01 4.52959351e-02 -4.89090644e-02 1.35591335e-03 1.03621650e-03 7.81875774e-02 1.01828402e-04 -7.13779390e-01 9.27760899e-02 -3.81006509e-01 6.70364201e-02 9.13060784e-01 -1.56681871e+00 -1.13316551e-01 1.52332662e-02 -1.44467032e+00 -8.02914088e-04 5.69543019e-02 -1.62907783e-02 7.82813993e-04 -2.42341240e-03 -5.67978881e-02 -5.75513113e-03 2.24691883e-01 -6.52296990e-02 -2.75483336e-02 1.17804268e-02 7.56383777e-01 -3.62300336e-01 3.82582307e-01 -1.62021872e-02 -1.13652565e-01 -2.08962569e-03 4.61431482e-04 8.63574222e-02 -1.37362082e-03 -4.84246353e-04 -1.97227463e-01 -1.29802395e-02 2.13768929e-01 -3.92930210e-02 2.94282734e-01 2.35560164e-02 -1.19574234e-01 5.33061742e-04 1.34644583e-01 -1.26092862e-02 1.20426645e-04 -1.06219560e-01 -6.69147432e-01 -6.79074749e-02 -2.01840177e-02 -9.26348439e-04 1.79246888e-02 -1.10022449e+00 -5.02559124e-04 -1.90988719e-03 -2.75223941e-01 -5.48899695e-02 7.44837290e-03 -3.08650024e-02 -7.59943578e-05 8.27460885e-01 -1.35839377e-02

layers.4.bias:
-1.09469509e+00

