layers.0.weight:
3.31696361e-01 -5.67613244e-01 7.97264636e-01
5.69172144e-01 -8.09445798e-01 -5.80563486e-01
-8.31293464e-02 -6.13938749e-01 -5.77727258e-01
-1.07055378e+00 1.15616508e-01 4.58123112e+00
2.67282110e-02 4.11940843e-01 1.16166264e-01
-5.79876065e-01 8.58121514e-01 -1.84879377e-01
-1.31842160e+00 4.86020595e-01 -9.88645032e-02
-6.01682402e-02 7.88846374e-01 -9.23566997e-01
6.03414774e-01 -9.26082134e-01 5.12713566e-02
-1.11527514e+00 5.86289167e-02 -1.64189592e-01
7.53551662e-01 -9.85680073e-02 1.41279221e+00
-7.16238439e-01 -1.31785080e-01 -1.29353356e+00
-4.30584475e-02 7.12955832e-01 -1.57757306e+00
-1.16726887e+00 2.10410804e-02 5.00053525e-01
-6.46977663e-01 1.09646142e+00 7.52028525e-01
-1.81771189e-01 9.48456824e-01 1.64468549e-02
5.46070874e-01 -6.33792400e-01 -1.45019031e+00
-1.15504665e-02 1.12846863e+00 1.84981868e-01
8.07071701e-02 -9.54183042e-01 5.35116851e-01
3.41117471e-01 -1.28724232e-01 -8.64976227e-01
2.23475501e-01 1.65966094e-01 -5.10879010e-02
-3.24195027e-01 -2.56797969e-01 -1.00232065e+00
-4.64660525e-01 1.65601885e+00 -4.46076952e-02
-1.56447518e+00 4.06930357e-01 1.75152493e+00
1.05132234e+00 3.79940838e-01 -7.78481364e-01
2.59609371e-01 6.71772659e-01 -1.17486012e+00
-1.16151750e-01 -2.13369340e-01 1.90187418e+00
-3.97779703e-01 -2.44972542e-01 1.92939892e-01
3.22416067e-01 7.57217348e-01 -1.46468067e+00
-1.04933763e-02 4.65525806e-01 1.70563948e+00
-2.89658904e+00 2.84448242e+00 -1.78299040e-01
-1.26738083e+00 -5.19488692e-01 1.02004325e+00

layers.0.bias:
8.77201200e-01
4.81547834e-03
-1.42384720e+00
-6.34384930e-01
7.07518518e-01
-2.04255387e-01
-3.54310095e-01
2.86240637e-01
-7.45998621e-01
-1.59115899e+00
1.64644122e-01
1.80825554e-02
2.46107668e-01
-1.21306002e+00
-2.90836543e-01
1.43946290e+00
9.34610724e-01
1.82654703e+00
-6.68276668e-01
5.78918040e-01
-1.44309163e-01
-1.35729384e+00
1.02535832e+00
-7.05530941e-02
1.36946186e-01
5.60703695e-01
8.80503118e-01
-1.57881156e-01
-4.88352716e-01
7.31267482e-02
8.91685039e-02
-6.70209900e-02

layers.2.weight:
-3.43494982e-01 3.15305769e-01 1.42272994e-01 -5.59355795e-01 -1.56924054e-01 -5.40692806e-02 6.70737177e-02 5.09007601e-04 -1.95978284e-02 2.64129686e+00 1.47949439e-02 1.44586921e-01 -1.49905071e-01 2.30569506e+00 -2.82058120e-01 3.97021651e-01 1.75024327e-02 5.87857604e-01 1.02883846e-01 -1.88903362e-01 2.14166880e-01 -1.17326342e-03 -5.49839377e-01 5.14593065e-01 -1.16340861e-01 6.87787414e-01 -8.64114940e-01 -1.23827316e-01 -1.31751508e-01 -2.94555813e-01 -3.37914675e-01 2.91673839e-01
-7.60474801e-02 1.32874057e-01 -8.66189837e-01 5.37488870e-02 -3.70700508e-01 1.45737946e-01 -7.44042277e-01 -4.85035568e-01 5.37657499e-01 6.64500594e-01 3.52624834e-01 -2.79519498e-01 2.48835713e-01 -4.91377078e-02 -2.95264840e-01 2.66168922e-01 -3.72232109e-01 3.95885974e-01 -4.26674128e-01 -6.94904998e-02 6.47278488e-01 -1.35216221e-01 -4.17980283e-01 -3.94104645e-02 6.98571187e-03 -6.73703849e-02 -3.23872954e-01 -5.46618760e-01 6.73889071e-02 -2.15530634e-01 -3.79421450e-02 1.84057578e-01
-1.12376682e-01 -8.73887464e-02 6.22754544e-02 -8.13369453e-01 -6.08221114e-01 4.81800772e-02 -4.15828526e-01 3.93964291e-01 3.88461143e-01 7.84206748e-01 -6.08971834e-01 -2.92060878e-02 2.24517167e-01 7.69264027e-02 -1.24344938e-02 -5.56836009e-01 -1.52246505e-01 -4.78750527e-01 -1.76183403e-01 4.06862408e-01 -3.19562584e-01 -1.94491103e-01 4.70779300e-01 -1.15279889e+00 -1.99723512e-01 4.96030688e-01 -1.23248959e+00 -8.54095668e-02 4.90650862e-01 -4.35319036e-01 1.55084640e-01 9.96979475e-02
3.07260901e-01 -4.68927203e-03 2.46786904e-02 1.40548623e+00 4.78434652e-01 3.23355228e-01 5.99660456e-01 -3.03210616e-01 -8.03219974e-02 -1.02694713e-01 2.20115170e-01 -1.22329377e-01 -6.36426091e-01 1.01127781e-01 5.59776366e-01 5.76457798e-01 -2.28162274e-01 5.73230326e-01 3.87952328e-01 -8.89052272e-01 -8.83100271e-01 -2.10344970e-01 3.05846393e-01 1.35864472e+00 -5.45414567e-01 -6.15081012e-01 5.57699323e-01 3.05621535e-01 -7.26654470e-01 -1.01116374e-01 -8.22972134e-02 5.65154076e-01
7.12165385e-02 -3.89433861e-01 2.97954589e-01 -4.31737840e-01 5.15715480e-02 -2.51891047e-01 -1.12293613e+00 1.53026894e-01 5.38617969e-02 -4.27567273e-01 4.52023208e-01 -7.90121019e-01 7.90450096e-01 -7.79682517e-01 -2.88841724e-02 -8.91441882e-01 -3.59430939e-01 -9.00936306e-01 -1.15758725e-01 -1.30624354e-01 9.09332097e-01 -5.42687058e-01 2.78033227e-01 -3.19382966e-01 -8.26578319e-01 6.26332045e-01 1.12536766e-01 -6.10643685e-01 -2.56898403e-01 6.36830509e-01 -1.42092705e-01 8.04826692e-02
-3.43211383e-01 3.31833482e-01 2.30937630e-01 1.81062773e-01 -6.34089291e-01 -3.24007332e-01 -5.69314003e-01 2.99036145e-01 4.82290834e-01 -2.32146189e-01 6.47053957e-01 2.57741183e-01 -9.03076082e-02 -3.42017263e-01 -4.28897798e-01 -9.06541049e-01 -2.92924196e-01 -1.03287876e+00 6.43897653e-01 -2.12716594e-01 -6.09794915e-01 -1.08260810e-01 -6.93834841e-01 -2.37067521e-01 1.41762003e-01 8.71658623e-02 1.64078474e-01 1.05144060e+00 -1.25409991e-01 -4.19443578e-01 -6.27242863e-01 2.33481467e-01
-2.32704319e-02 9.58053954e-03 -2.27777004e-01 -3.10362643e-03 -1.45853147e-01 1.85347438e-01 -7.90646002e-02 -4.09150064e-01 -1.25301674e-01 2.48992145e-01 2.92775303e-01 5.53298630e-02 2.87805557e-01 -2.74378601e-02 -2.71356720e-02 -2.47056738e-01 2.05443911e-02 1.37508795e-01 -2.97213122e-02 -3.08536917e-01 -3.63472164e-01 1.05695240e-01 6.42063320e-02 2.36021336e-02 1.48716062e-01 2.59758919e-01 -3.53633612e-01 -4.23733562e-01 -1.59772828e-01 7.86564127e-02 -5.28219976e-02 1.61303207e-01
2.63650000e-01 1.04548022e-01 -4.03306246e-01 3.60025465e-01 3.19135249e-01 -6.24132156e-01 8.93289596e-02 4.97806102e-01 8.04662779e-02 -2.88771242e-01 -1.25509232e-01 9.53036666e-01 3.10140640e-01 -5.42444408e-01 -1.59021452e-01 1.56555563e-01 5.17903686e-01 1.69824213e-01 2.14338198e-01 4.94119257e-01 -1.42439151e+00 -8.95430207e-01 1.49164572e-01 3.06490272e-01 2.54502296e-01 7.42698789e-01 6.05083704e-01 4.85383093e-01 -5.57173550e-01 4.99424160e-01 2.22333089e-01 -3.16027880e-01
2.46992167e-02 2.39970684e-01 -5.36511898e-01 -2.36188531e-01 1.21459103e+00 -3.71986717e-01 -5.54407775e-01 -3.39176834e-01 -6.56093359e-01 3.23749453e-01 4.56779242e-01 2.41291940e-01 6.68802440e-01 -1.70722172e-01 1.25214458e-01 1.67988825e+00 2.94408739e-01 1.28029251e+00 -5.75133502e-01 -1.79125741e-01 1.47003472e-01 -2.78378129e-01 9.51064155e-02 3.26172322e-01 1.13404132e-01 3.70988339e-01 6.62167445e-02 2.19783988e-02 6.63038157e-03 1.79600820e-01 2.28949738e+00 -3.79704982e-01
-6.10041857e-01 1.12168334e-01 -1.12569422e-01 -5.14865279e-01 4.36684608e-01 7.56785041e-03 -6.25512972e-02 3.64987671e-01 4.21276957e-01 -1.72285140e-01 1.84789691e-02 2.33560145e-01 1.75821036e-01 1.90042183e-01 -3.64363849e-01 -6.14662051e-01 3.20734859e-01 -3.95281434e-01 -4.05633509e-01 -3.87296192e-02 -6.52812004e-01 -2.40556002e-01 9.52803046e-02 -6.94134235e-02 -2.25813419e-01 -1.01967610e-01 -1.66482329e-01 2.42373466e-01 2.56884456e-01 1.71399608e-01 1.53967574e-01 4.68738563e-03
1.27401337e-01 -3.03394467e-01 -9.45065990e-02 -3.87504369e-01 -4.03497994e-01 -3.11692476e-01 -3.69628280e-01 1.84769973e-01 4.70469743e-01 2.28815049e-01 -5.55596888e-01 -8.84550437e-02 8.82395387e-01 -3.46015513e-01 -2.18672916e-01 -2.63893008e-01 -6.14474297e-01 -7.56381989e-01 -8.73877183e-02 -1.40809054e-02 1.02806902e+00 -2.35593140e-01 -8.13150048e-01 1.51527703e-01 -5.12831435e-02 -3.09990309e-02 -4.59421456e-01 -5.55970192e-01 3.50458771e-01 -4.22597200e-01 -5.71149625e-02 3.24459016e-01
-8.04193839e-02 -3.64936776e-02 1.66156137e+00 -8.69351327e-01 -7.46358514e-01 1.23759210e-01 -1.89027190e-02 -4.03207362e-01 2.01648012e-01 1.84597707e+00 4.16009128e-02 -1.52993619e-01 2.88535476e-01 3.23727441e+00 6.98665716e-03 -6.28693044e-01 3.12937319e-01 -2.43819642e+00 5.91994703e-01 -3.24634105e-01 2.53825635e-01 5.90508223e-01 -2.88184434e-01 8.60400796e-01 -9.21725184e-02 -5.57907224e-01 2.99790591e-01 -9.52401757e-02 8.30899701e-02 3.89207155e-02 2.29296945e-02 -3.24954271e-01
-6.43481374e-01 -2.15778351e-01 9.24934089e-01 4.05923694e-01 -5.94767690e-01 6.08495474e-01 3.92876752e-02 -8.98865044e-01 3.41472954e-01 3.65668714e-01 2.03060299e-01 1.47042096e-01 -4.96945590e-01 -1.14069283e-01 4.92675066e-01 -4.04066610e+00 -1.61054730e-01 -5.90354681e+00 5.44323087e-01 -1.02585626e+00 -6.85899258e-01 4.60426182e-01 6.44904852e-01 -1.06526762e-01 -2.42800057e-01 -2.23268539e-01 -3.63945991e-01 6.57373250e-01 -5.92160881e-01 -3.28279346e-01 -1.32974303e+00 -2.78610587e-01
2.04169173e-02 -1.79985374e-01 -6.20475531e-01 -6.93602860e-02 -1.83955342e-01 -2.35876460e-02 2.59292901e-01 3.42048794e-01 3.59172225e-01 -1.74173862e-01 5.23885429e-01 -1.87140793e-01 3.36418062e-01 -8.05760324e-01 -3.00811738e-01 -1.00312427e-01 -2.53507137e-01 1.69268116e-01 -1.09138653e-01 1.17009901e-01 -1.54317748e-02 -1.39412060e-01 5.65330721e-02 -2.24612281e-01 -1.23554729e-01 7.62417495e-01 -1.19000934e-02 3.78304198e-02 -1.73479885e-01 2.55050927e-01 2.21820906e-01 3.54855239e-01
-8.97071660e-01 2.46981964e-01 -6.33951509e-03 3.44363660e-01 -2.57611096e-01 5.99748671e-01 -3.89896244e-01 -1.20089844e-01 4.62298632e-01 -1.76521972e-01 -7.51484334e-01 2.32484922e-01 1.49592459e-01 -3.13543797e-01 -3.12558681e-01 -7.22321987e-01 2.20873103e-01 -7.28019357e-01 -3.64418775e-01 3.11189979e-01 1.36831582e+00 9.57415879e-01 -7.16908723e-02 1.77266926e-01 -3.82781267e-01 9.81799588e-02 -5.85607529e-01 5.03512993e-02 7.55757868e-01 -2.42733642e-01 -1.07452609e-01 1.52287468e-01
-4.66314465e-01 -1.11330571e-02 1.18295223e-01 5.89885861e-02 -2.19448179e-01 1.97535917e-01 -8.57886136e-01 -3.26983109e-02 1.64334457e-02 5.31693697e+00 4.83392417e-01 5.06051600e-01 2.93423265e-01 2.61051798e+00 -1.04346862e-02 3.13196369e-02 -3.60385537e-01 -1.13913648e-01 2.40452606e-02 -1.27589881e-01 -7.64844775e-01 4.80691642e-01 1.22303560e-01 2.07091391e-01 -4.62440282e-01 -3.58578563e-01 -7.07722723e-01 4.02618915e-01 -1.30342811e-01 -7.35383987e-01 3.01834911e-01 -1.74945265e-01
-1.38907600e-02 1.46632478e-01 -6.64839670e-02 3.35013829e-02 1.25363786e-02 6.68941671e-03 2.45888364e-02 -6.01892136e-02 1.70701947e-02 -1.80208787e-01 6.64222389e-02 4.88572903e-02 4.23969254e-02 9.59972888e-02 1.12107947e-01 1.74884927e-02 4.01743799e-02 9.86774731e-03 -1.40632661e-02 1.05248868e-01 2.59321153e-01 1.17907509e-01 -7.33824493e-03 2.74453536e-02 6.44508675e-02 1.47719970e-02 5.42473048e-02 2.67816395e-01 1.20271305e-02 -4.21454723e-04 4.07594867e-04 2.38912329e-02
1.87241957e-01 -1.13201648e-01 -5.60090244e-01 3.32786366e-02 8.05147663e-02 -2.12909818e-01 -2.73287266e-01 -2.86201328e-01 3.07053566e-01 -7.07149982e-01 4.81442884e-02 -8.93807877e-03 2.18439519e-01 3.11886985e-02 -8.60185623e-02 1.44099504e-01 -2.95958638e-01 4.25726414e-01 -1.42631218e-01 9.32729363e-01 2.66916335e-01 1.25297308e-01 -4.68644738e-01 -1.38146371e-01 -9.90704298e-02 -4.14313316e-01 8.28581750e-01 -5.17303109e-01 2.50877827e-01 2.96243280e-01 -5.16834669e-02 1.69147879e-01
-2.78293639e-01 -9.07261893e-02 -2.57312387e-01 -2.26601884e-01 3.19806397e-01 2.08057947e-02 2.11022437e-01 1.33266136e-01 3.96887451e-01 -3.74127090e-01 -1.86273471e-01 -8.88581038e-01 4.94127870e-01 -1.39860138e-01 -1.74040854e-01 7.39408806e-02 -1.45184472e-01 1.98795229e-01 1.57140732e-01 -8.32375139e-02 -3.76943648e-02 -1.54025763e-01 4.48346704e-01 -3.13695699e-01 2.12823883e-01 2.08834201e-01 -1.98035374e-01 3.76140237e-01 5.07388078e-02 3.30679297e-01 4.99423772e-01 1.48004934e-01
6.45047575e-02 1.87113926e-01 -6.91383984e-03 7.18386099e-02 -6.39865696e-02 9.74744111e-02 -1.62324309e-02 -8.14253166e-02 3.98506783e-02 7.30095506e-02 7.01822713e-02 1.14808187e-01 -7.29185641e-02 -7.97426477e-02 1.15193628e-01 4.59382236e-01 6.57337233e-02 -2.97818184e-01 3.70996073e-02 -1.02074042e-01 -1.18478000e-01 -1.27238140e-01 9.80712008e-03 -3.26985680e-02 4.48596179e-02 1.19571306e-01 6.71254238e-03 9.32592433e-03 1.13376021e-01 1.67237539e-02 -8.26237816e-03 3.19444351e-02
5.96779823e-01 -1.17225192e-01 6.46409392e-01 5.26579916e-01 -2.61372924e-01 -3.17286730e-01 -7.19640434e-01 -1.45241991e-01 -2.53935575e-01 -9.21450615e-01 -9.55927595e-02 9.74402189e-01 4.92283076e-01 -4.84980613e-01 6.90095305e-01 5.79142869e-01 -5.69261014e-02 -2.09774271e-01 5.22905767e-01 4.74549830e-01 -5.22321045e-01 6.01092167e-02 4.65623051e-01 1.71132356e-01 7.83873051e-02 -3.72754544e-01 9.25359353e-02 3.57618511e-01 -1.25439942e-01 -8.54605213e-02 -9.38481838e-03 4.47271228e-01
2.45598078e-01 -1.17365293e-01 4.81483266e-02 1.47634476e-01 5.68022653e-02 1.45574987e-01 9.13027585e-01 5.91898859e-02 4.83571261e-01 2.53949583e-01 3.28697771e-01 3.65531147e-01 -3.99553150e-01 -5.62549591e-01 1.20059729e-01 -9.86975133e-01 -5.21320291e-02 -7.19701886e-01 -6.27312437e-02 -4.48325038e-01 -5.01774311e-01 -4.75814333e-03 2.42355317e-01 -3.72258537e-02 1.05231963e-01 -4.34899598e-01 -7.09114671e-01 4.21768546e-01 -1.01750702e-01 -1.88709646e-01 2.45347604e-01 -9.82502028e-02
6.16126396e-02 -1.30309928e-02 -2.70809799e-01 4.18200463e-01 1.08283358e-02 3.65844816e-01 3.75895023e-01 -2.71654457e-01 -3.12529504e-01 3.49529922e-01 3.03462986e-02 7.42992908e-02 4.25466716e-01 5.15637457e-01 -1.59737319e-01 -5.78970790e-01 5.46460211e-01 -2.04312652e-01 5.03766015e-02 -2.50886291e-01 -3.58804166e-01 5.73784634e-02 -3.80408198e-01 1.92253157e-01 -3.75600785e-01 -1.21674381e-01 -4.46739085e-02 -4.60255027e-01 4.52827364e-02 -1.04681171e-01 -3.64916362e-02 -2.70621747e-01
7.21581101e-01 -5.89598641e-02 -2.58661240e-01 1.97833344e-01 1.08869083e-01 -4.41368788e-01 -8.84893462e-02 3.05913180e-01 3.28417718e-01 -2.72468638e+00 1.46992385e-01 1.31331310e-01 3.50005835e-01 -1.66021490e+00 1.12627231e-01 3.02303970e-01 1.09714665e-01 2.28207633e-01 -2.36430973e-01 -3.73676904e-02 5.24461329e-01 -2.34686002e-01 -2.27545887e-01 -3.13969292e-02 -3.23331594e-01 -2.17481092e-01 -2.84252688e-02 -2.01654524e-01 2.79753953e-01 1.37477443e-01 -2.59025186e-01 -2.19181702e-01
-8.54054928e-01 1.39930278e-01 1.83762554e-02 1.40219763e-01 -1.43928945e-01 -3.34861726e-01 1.02429760e+00 -1.22294821e-01 -9.91058230e-01 7.39831507e-01 -7.06040382e-01 2.11806856e-02 1.47626370e-01 8.72809291e-02 -6.92207575e-01 2.82740772e-01 5.85876107e-01 3.60704035e-01 3.36965084e-01 -9.46100277e-04 -1.86391100e-01 3.67832720e-01 5.41536391e-01 9.74017382e-01 -4.12274867e-01 5.02020478e-01 -6.01567924e-01 2.76423595e-03 8.56132805e-01 -4.35421079e-01 1.17602125e-01 -9.95308533e-03
-5.41917026e-01 6.12112761e-01 -4.66399491e-02 -1.37850910e-01 5.51027179e-01 1.59271553e-01 -8.70038569e-03 5.11691451e-01 -3.02201569e-01 4.89475191e-01 7.12530389e-02 -1.62809148e-01 2.14060217e-01 2.03671202e-01 -5.44827640e-01 -3.02294880e-01 -1.04432687e-01 -1.04616515e-01 3.94149005e-01 -3.63044649e-01 -4.32515936e-03 -2.79602498e-01 1.72823481e-02 -5.35842180e-01 9.87176374e-02 -2.06390113e-01 -5.60794711e-01 -5.02194107e-01 1.66052759e-01 -3.62494528e-01 -2.00756148e-01 -2.72813529e-01
-1.36496589e-01 2.12783486e-01 4.56195056e-01 3.64638001e-01 -2.67273009e-01 -2.86145896e-01 -1.28439561e-01 2.20915736e-05 2.82440066e-01 -4.48729455e-01 -5.79379380e-01 -7.01695681e-02 -2.65443563e-01 -2.84403205e-01 7.61886537e-02 6.30773187e-01 -1.01349525e-01 2.23357365e-01 2.78335065e-01 2.06725389e-01 7.83840567e-02 -7.47640073e-01 1.77664503e-01 1.14538431e-01 2.82072842e-01 1.67734459e-01 1.90761816e-02 -5.65935433e-01 -2.65799999e-01 -1.12570040e-01 9.21156332e-02 -2.57596016e-01
-7.84880817e-01 4.83189285e-01 -5.69423497e-01 -1.02674341e+00 -2.95167327e-01 -2.41832152e-01 -3.26753289e-01 3.93430144e-01 9.47496817e-02 4.84371871e-01 -7.73555487e-02 2.05809221e-01 1.93785653e-01 2.89883465e-01 -3.11150923e-02 1.03980291e+00 7.06650078e-01 1.08884251e+00 -5.95435441e-01 9.17679220e-02 4.92838204e-01 -7.17295408e-01 -6.65786982e-01 3.95586669e-01 -2.23743707e-01 -4.34892207e-01 2.64545113e-01 3.44456911e-01 4.94729847e-01 -8.31152618e-01 2.01286778e-01 -1.86316088e-01
1.42204747e-01 -5.66453993e-01 -8.35118219e-02 -9.60543826e-02 -5.39323986e-01 5.36155701e-01 9.22312066e-02 -4.83266979e-01 5.04844129e-01 9.21099663e-01 -2.04860762e-01 1.00051686e-01 5.32607079e-01 4.33832437e-01 4.77850921e-02 -1.04393184e+00 -4.71543640e-01 -1.00376761e+00 5.89441881e-02 1.94570139e-01 2.62818903e-01 3.18107426e-01 1.79236546e-01 1.80034488e-01 2.79919833e-01 8.73895660e-02 -3.92229348e-01 -2.77017415e-01 -2.73829043e-01 -3.18875045e-01 4.42712873e-01 2.97638148e-01
-9.05175731e-02 -1.00985515e+00 3.92172247e-01 1.55224478e+00 1.30330458e-01 1.29538774e-01 -9.94013846e-02 -2.28307068e-01 -2.54624099e-01 2.62528658e-01 1.05673814e+00 -9.61780727e-01 -1.07107413e+00 -3.48362118e-01 2.31115535e-01 -3.27981077e-02 -1.24729419e+00 6.00341499e-01 5.88509917e-01 -6.53616130e-01 9.35751498e-01 2.23691598e-01 5.38954139e-02 -9.68566239e-02 1.22930869e-01 -4.71170753e-01 1.73304558e-01 -7.58048147e-02 -8.47486615e-01 1.23329794e+00 -5.91215849e-01 -1.22889347e-01
-7.66189814e-01 -1.91022411e-01 3.44550818e-01 1.22084923e-01 -1.13156579e-01 2.73312539e-01 3.06204587e-01 2.93260608e-02 -4.36935812e-01 -2.06011459e-01 -9.70370471e-01 2.64760584e-01 4.73988265e-01 1.00667730e-01 1.91782057e-01 -1.95096835e-01 3.51560622e-01 -2.04133585e-01 -1.17776707e-01 -3.61587435e-01 -7.52499044e-01 2.64380395e-01 2.67780591e-02 -6.93534732e-01 1.98079586e-01 5.79354525e-01 -1.27311587e-01 3.36234309e-02 -4.04320598e-01 -2.32584506e-01 -1.38782397e-01 -2.69100387e-02
-2.96702623e-01 -3.16593260e-01 -1.22530766e-01 -1.78737611e-01 -2.69229800e-01 -6.77902848e-02 2.25147381e-01 2.71372586e-01 -6.08851314e-01 1.43721080e+00 -1.81154937e-01 -6.48334995e-02 -4.79982674e-01 5.10237038e-01 -1.44987494e-01 -7.89155252e-03 4.24452387e-02 9.50378627e-02 -5.21397125e-03 -1.72694415e-01 2.21750453e-01 1.73404083e-01 2.91712999e-01 6.90563396e-03 4.73147221e-02 -5.00160456e-02 -2.17133477e-01 2.01450467e-01 2.71183461e-01 2.82970160e-01 7.49289840e-02 1.03714325e-01
-8.62384886e-02 -3.49548995e-01 -3.33396881e-03 -1.21599540e-01 -3.19786131e-01 4.70453382e-01 -1.82401359e-01 -4.07384962e-01 7.29699209e-02 -3.80001456e-01 8.05821549e-03 4.51322675e-01 2.23712921e-01 4.19495285e-01 3.11490715e-01 -5.22396922e-01 -4.37108487e-01 -1.20839739e+00 -6.19833209e-02 -3.08296531e-01 -1.14670217e-01 8.79116297e-01 4.35874224e-01 5.98270118e-01 -4.71222132e-01 1.53986424e-01 1.08875714e-01 -2.29600698e-01 -3.57146531e-01 -2.81601757e-01 -5.85476048e-02 -7.57201090e-02
2.89252028e-02 -4.93740030e-02 1.43385708e-01 -9.34113562e-02 2.28904471e-01 -1.03384376e-01 2.75399219e-02 -3.35327804e-01 -1.84754908e-01 3.49429846e-01 1.39154285e-01 1.70795038e-01 8.27597976e-02 -3.12738866e-01 -6.57919496e-02 -2.76191056e-01 5.50634488e-02 1.52469829e-01 -1.55769542e-01 -5.40531576e-01 1.37670740e-01 -1.46694958e-01 -1.10770136e-01 -4.10368405e-02 -1.98171232e-02 2.13040635e-01 -6.41745999e-02 2.91805957e-02 9.82513353e-02 7.03536421e-02 -1.08617730e-02 9.45923757e-03
2.14007214e-01 -6.53571606e-01 -3.06511819e-01 7.47536242e-01 -1.18985623e-01 -5.43706775e-01 3.13828588e-01 -1.67937234e-01 -3.30330580e-01 2.69258380e+00 -5.83438814e-01 1.00647020e+00 6.63611352e-01 7.66089022e-01 9.77219582e-01 2.48418272e-01 3.92474830e-02 2.39033952e-01 6.25491560e-01 4.01356965e-01 1.64472103e-01 1.42578438e-01 -7.35021830e-02 1.03825498e+00 -8.83121043e-02 1.47410661e-01 -3.17733675e-01 3.42480838e-01 1.55700753e-02 1.70366690e-02 8.21059167e-01 6.14130534e-02
-9.09878910e-02 1.80922344e-01 1.31824657e-01 7.21613765e-02 3.94958258e-02 -4.57797572e-02 1.17388861e-02 1.06082737e-01 5.03417896e-03 -2.03969143e-02 1.66715711e-01 9.01621282e-02 8.53574723e-02 -2.19175536e-02 1.66803643e-01 1.94201276e-01 3.20677832e-02 -1.41239494e-01 -2.05975827e-02 8.79710391e-02 -1.57393217e-01 -5.29852211e-02 -2.25844327e-02 -8.19046237e-03 -4.61702287e-01 -2.31942102e-01 4.45444323e-02 -1.36466473e-01 -6.86524063e-02 -5.59807494e-02 9.19284858e-03 -4.51351523e-01
-1.42383901e-03 -7.23955333e-02 -5.41200042e-02 2.68672928e-02 -2.11561561e-01 2.85404250e-02 -2.49966141e-02 1.62410975e-01 5.46507873e-02 -5.35271168e-02 -6.97859982e-03 -2.06525736e-02 -7.00128302e-02 3.28174196e-02 -6.86570853e-02 2.21375287e-01 -9.77796540e-02 -1.27152711e-01 1.12333372e-02 3.37248981e-01 -2.44484991e-01 -1.03254333e-01 1.42700542e-02 -1.65906772e-02 9.43629351e-03 -9.66593623e-02 -6.10545017e-02 -6.77708164e-02 -5.53040877e-02 5.27441129e-02 3.23125906e-02 -1.82069722e-03
7.99610317e-01 -2.64800131e-01 3.30917656e-01 3.26853424e-01 -3.78832936e-01 2.19923668e-02 -4.83983248e-01 6.06630594e-02 6.33694768e-01 8.98079872e-02 -2.02076614e-01 6.11482933e-02 7.43332580e-02 2.35647708e-01 7.36311853e-01 -5.60687542e-01 -4.45035785e-01 -6.84666514e-01 3.16686243e-01 -2.58980691e-01 -7.56735563e-01 2.48809934e-01 -1.30416259e-01 1.93276048e-01 7.52561569e-01 -9.59070679e-03 2.09289953e-01 -1.08749360e-01 -4.86459911e-01 2.13493124e-01 1.02710076e-01 1.57381654e-01
1.30785137e-01 -4.12531137e-01 -2.83373117e-01 4.02999848e-01 2.47020751e-01 -5.91579080e-01 1.11853175e-01 9.99398995e-03 2.43693545e-01 -2.49675021e-01 -2.44630590e-01 4.59233165e-01 3.58567864e-01 -2.77980328e-01 2.53594875e-01 -5.40017545e-01 -3.27461898e-01 -7.12606966e-01 3.99078965e-01 -3.99286062e-01 -2.55836874e-01 -5.47862686e-02 3.56343269e-01 6.52197719e-01 -1.36842638e-01 -3.15466613e-01 4.35711205e-01 -4.45122495e-02 -9.45884436e-02 -4.25240725e-01 1.07504785e-01 2.38527358e-01
6.88457787e-02 -6.07741289e-02 6.84533298e-01 1.08120590e-01 -1.01089096e+00 -3.34411234e-01 2.20939279e-01 -1.26093537e-01 6.67744756e-01 6.01251543e-01 -1.28692865e-01 -3.53360802e-01 1.01694344e-02 7.42003262e-01 7.18704192e-03 -2.14522028e+00 -3.33984852e-01 -2.53672838e+00 1.50985956e-01 1.28226192e-03 -8.06779087e-01 6.14951670e-01 1.86406866e-01 1.49281010e-01 3.20057571e-01 1.30410686e-01 3.37608963e-01 1.52542517e-01 -1.08110525e-01 -7.72732973e-01 -5.23021638e-01 6.32403046e-02
-1.83876261e-01 -2.46155813e-01 -2.51170993e-01 -2.78787971e-01 -2.75297165e-01 5.51351905e-01 1.71385676e-01 -1.14749998e-01 -1.08362377e-01 3.80114853e-01 -1.95859671e-01 1.60167679e-01 4.89275940e-02 -2.51271337e-01 -1.26263604e-01 -5.20422935e-01 3.01942736e-01 -6.47814512e-01 -2.77313262e-01 1.27094835e-02 -3.40050519e-01 3.88608426e-01 -1.48291916e-01 3.59766006e-01 3.49092305e-01 -5.28475463e-01 4.83526975e-01 8.05831775e-02 6.59352615e-02 1.35498837e-01 -6.58521652e-02 5.18148579e-02
4.09649432e-01 6.77332222e-01 6.60926759e-01 -3.97800177e-01 2.13657990e-01 1.79505482e-01 1.58421859e-01 -1.04135826e-01 -8.20420861e-01 9.64136422e-01 -2.77454942e-01 -2.52413601e-01 -4.41921800e-01 1.11042666e+00 1.64500177e-01 1.42129958e-01 2.34633218e-02 -8.83907855e-01 2.57313132e-01 -2.85302550e-01 7.95813352e-02 6.89654291e-01 -9.92646366e-02 -3.97968382e-01 6.64727509e-01 -7.66692400e-01 4.94546801e-01 -8.61484408e-02 -2.69497484e-01 -5.96384823e-01 -5.35720997e-02 -4.78835255e-01
-2.69243959e-03 -3.05358350e-01 2.02150464e-01 -2.19877839e-01 -1.78426534e-01 8.91133696e-02 8.58007520e-02 -2.42017835e-01 -4.94386405e-01 -3.84457678e-01 -1.50156498e-01 4.70005497e-02 -4.95187379e-02 3.21993262e-01 4.45393473e-01 4.02748436e-01 3.46708804e-01 -3.60278189e-01 1.04969880e-02 2.41121471e-01 -2.83163220e-01 3.37707639e-01 -3.84763330e-01 1.20971769e-01 -5.43804392e-02 -2.05733985e-01 3.63652259e-01 7.19431520e-01 -3.80806476e-01 -5.02607524e-01 2.16222361e-01 3.39204848e-01
-1.25242639e+00 1.11008711e-01 1.35795802e-01 -1.30730426e+00 -1.06476486e-01 -7.62016401e-02 1.93600535e-01 5.37855089e-01 1.11475699e-01 3.71252030e-01 -9.79664207e-01 7.05986202e-01 1.08633637e+00 3.62770140e-01 -6.58082604e-01 3.19621563e-01 5.70891500e-01 -3.92886132e-01 -2.97086746e-01 1.03121221e+00 -5.54389298e-01 -3.06188136e-01 -3.43693316e-01 -5.18834032e-02 5.90271056e-01 9.91811335e-01 8.60436618e-01 6.29988372e-01 5.01715064e-01 -1.02701068e+00 1.87228635e-01 2.24378303e-01
-1.04730822e-01 9.39114690e-02 3.03646654e-01 -4.93366681e-02 3.29004109e-01 -1.00866772e-01 -7.61270337e-03 3.72799635e-02 -4.88206148e-02 1.98410809e-01 2.20429711e-02 1.44570991e-02 -5.77909127e-03 -1.30725875e-01 8.09453577e-02 -1.42988726e-01 7.75326118e-02 6.42732829e-02 5.23606734e-03 -4.20564026e-01 1.48737699e-01 -1.04892120e-01 1.34544596e-02 6.71160500e-03 1.42538488e-01 -1.20752323e-02 7.23224431e-02 1.40090093e-01 3.40567529e-02 -8.93391520e-02 -1.85057335e-02 6.02250956e-02
-9.92528722e-02 2.63658494e-01 3.33965480e-01 -1.35976776e-01 1.25005454e-01 9.08152610e-02 6.76672637e-01 3.00397754e-01 1.17679104e-01 -1.18480444e+00 -3.62250715e-01 5.50242484e-01 6.72214389e-01 -2.85486579e-01 -4.87709790e-01 -6.16764203e-02 5.06368458e-01 -3.48079920e-01 -1.03240879e-02 -5.05198777e-01 9.10366952e-01 -2.66543567e-01 2.41430057e-03 -1.30183637e+00 -2.07413450e-01 5.26465714e-01 -1.00865746e+00 -7.77818561e-01 2.80666322e-01 -1.33965626e-01 -3.60854119e-02 -1.16320670e-01
6.00949883e-01 -3.08180630e-01 -2.93663263e-01 4.37388808e-01 -4.33622636e-02 -5.09131439e-02 -6.88811466e-02 -1.32237226e-01 4.86732364e-01 -9.26425532e-02 -1.21648416e-01 -4.48527858e-02 7.62225568e-01 -3.40984821e-01 3.53501529e-01 -3.38238716e-01 -2.50464231e-02 -4.72359985e-01 2.09993958e-01 -7.18613863e-02 -3.39272678e-01 1.19227514e-01 1.58123210e-01 1.54142603e-01 -2.68142819e-02 -2.07506940e-01 7.91835010e-01 4.77152854e-01 -3.48490059e-01 3.34141165e-01 1.97503567e-01 2.98667371e-01
-1.78113267e-01 2.94544280e-01 -1.45753786e-01 -6.16639219e-02 -5.61684549e-01 -2.29400769e-01 8.09058174e-02 4.39121366e-01 -4.42030281e-02 -5.61078191e-01 -1.96418166e-01 2.21731514e-02 -3.35384876e-01 2.10421011e-01 2.95632035e-01 -1.92940012e-01 -1.30170941e-01 2.26173401e-01 5.16875312e-02 3.54993552e-01 -2.65692800e-01 -4.86821495e-02 -3.36013548e-02 -2.89340373e-02 -9.06939507e-02 -9.78233367e-02 2.55510807e-01 -2.79259652e-01 1.12199850e-01 -6.19850354e-03 3.45700458e-02 1.37648836e-01
3.73857915e-02 -5.18858254e-01 -7.73147568e-02 -1.12454385e-01 -1.07225120e-01 -1.42709062e-01 -2.96081081e-02 -1.55128747e-01 -3.89507860e-01 4.77111965e-01 -1.82468910e-02 7.93850794e-02 3.62386048e-01 3.27976048e-01 -1.55385658e-01 -6.73490584e-01 -1.92016765e-01 -1.79668292e-01 -1.96159780e-02 5.77178523e-02 9.23070982e-02 -2.80364398e-02 5.75370729e-01 3.42039540e-02 -3.63882512e-01 2.39351377e-01 3.31676692e-01 8.75823647e-02 -5.46993054e-02 1.18761577e-01 -2.14796755e-02 -2.23186404e-01
1.02722609e+00 2.53489502e-02 -6.30838811e-01 2.03385875e-01 2.71350175e-01 8.10025334e-02 4.77214098e-01 1.29549444e-01 -2.88264126e-01 -9.37161088e-01 -8.35356236e-01 1.35748398e+00 7.38241971e-02 -9.29149091e-01 2.83174217e-01 6.56359792e-01 6.94554225e-02 5.32388151e-01 -1.28730342e-01 1.30696893e-01 -1.54594910e+00 -4.27386433e-01 -8.11910450e-01 -2.40246907e-01 -3.87210965e-01 -1.43443989e-02 2.55588055e-01 5.54173172e-01 -6.02574199e-02 6.57467917e-02 -8.83263871e-02 4.47234750e-01
-1.60299242e-01 1.13177717e-01 -8.95467639e-01 -8.59624445e-02 1.67948753e-01 3.65618318e-01 1.27916634e-01 2.97553949e-02 2.73357835e-02 5.63179255e-01 -4.26270276e-01 -1.16737783e+00 3.91026109e-01 3.08720678e-01 -3.65318447e-01 5.09990215e-01 -3.72123234e-02 1.23571992e+00 -4.16742802e-01 1.31806403e-01 2.83048391e-01 -9.11678523e-02 -4.60812412e-02 6.66313529e-01 -3.06265622e-01 7.81446099e-01 -1.10007025e-01 -2.31167242e-01 8.66472051e-02 1.03456669e-01 7.19606221e-01 -3.43969055e-02
-1.77215543e-02 3.70889276e-01 -1.73282444e-01 -6.19939506e-01 -6.56457320e-02 7.30548620e-01 2.91397572e-01 7.87155271e-01 3.33524287e-01 3.18944186e-01 9.46752787e-01 -2.56612241e-01 8.52050781e-02 2.77971238e-01 3.81464884e-02 -7.39546359e-01 3.08256775e-01 -6.77532181e-02 -3.09492767e-01 -5.29662728e-01 -5.72902411e-02 -2.32633293e-01 2.41460249e-01 1.35065809e-01 -2.33778864e-01 1.65711030e-01 3.06011047e-02 -7.03698388e-05 -5.53744197e-01 2.48183072e-01 -1.70509860e-01 1.17200635e-01
6.19279481e-02 3.67506668e-02 -1.42103195e-01 1.38139268e-02 -5.43155074e-02 5.95520884e-02 5.67527711e-02 8.38565603e-02 -2.40491703e-02 -3.92369740e-02 -4.98369820e-02 -3.88145655e-01 2.44649619e-01 2.23205388e-01 -8.69824924e-03 8.93315375e-02 9.09786150e-02 -6.38445392e-02 9.87210795e-02 2.56828725e-01 1.27325237e-01 2.71332949e-01 -2.74441391e-03 2.08930075e-01 -1.05932780e-01 -2.85028189e-01 -1.70854464e-01 -1.78377807e-01 -3.09240788e-01 -1.39027879e-01 9.03618429e-03 -2.64891863e-01
4.31301445e-01 5.51505666e-03 5.36440134e-01 4.18319136e-01 3.58135819e-01 4.17591363e-01 9.53485608e-01 -3.70726287e-01 7.35013068e-01 -7.70131052e-02 -5.86517453e-01 1.35094538e-01 -5.41186392e-01 -3.69597644e-01 -1.63380112e-02 2.66796172e-01 -6.23115659e-01 -4.55648959e-01 2.83619732e-01 -4.41942811e-02 -9.74040329e-02 5.59764087e-01 2.21738011e-01 6.85152888e-01 2.30327491e-02 -1.47242069e-01 -2.10504562e-01 1.67561099e-01 1.67000383e-01 4.40847754e-01 -1.42116308e-01 1.11764614e-02
-2.70947516e-01 -4.88304675e-01 1.45531869e+00 7.37660378e-02 -7.08670080e-01 -1.84426844e-01 -1.17711866e+00 -9.40859377e-01 2.61239827e-01 1.04393876e+00 1.00299309e-03 -4.63578343e-01 -2.74523765e-01 1.01337981e+00 5.79057217e-01 -1.78706992e+00 2.01720789e-01 -2.46388459e+00 1.73910618e+00 8.57144892e-01 -5.69660664e-01 1.69081438e+00 -4.31488127e-01 2.44738609e-01 3.55912417e-01 -6.67829573e-01 -2.64919370e-01 3.31753671e-01 2.13055328e-01 2.21931431e-02 8.81761730e-01 1.50373235e-01
1.65514965e-02 -2.14916728e-02 4.86303642e-02 4.18042056e-02 4.01628643e-01 9.97309107e-04 1.42039368e-02 2.19328329e-02 5.13165779e-02 -1.25993183e-02 -1.53284222e-02 -7.02913702e-02 1.06426343e-01 -1.76953934e-02 -7.06823077e-04 -7.35950470e-02 3.70828691e-03 -6.00638576e-02 -7.09560886e-02 8.37404579e-02 1.45006120e-01 3.40359211e-02 -2.13826764e-02 8.79719574e-03 -1.28888801e-01 -1.37901470e-01 1.62379164e-02 3.43739808e-01 -4.26752195e-02 -5.80121018e-02 1.79998204e-02 -2.43346378e-01
-4.92788166e-01 4.64126654e-03 -1.52222365e-01 6.74747452e-02 -2.80174613e-01 1.19838461e-01 -2.93704420e-01 5.84521830e-01 5.84479086e-02 4.71970513e-02 4.78757592e-03 4.34351295e-01 3.52540731e-01 2.89776474e-01 3.26153815e-01 -2.33646259e-01 -1.70553029e-01 -3.07610314e-02 -1.03612252e-01 -1.51282400e-01 2.11916476e-01 -6.96393490e-01 -7.48928487e-02 -1.71963170e-01 -2.93470025e-01 -3.42726856e-01 -4.81989443e-01 1.45384446e-01 -3.08281720e-01 -1.05533622e-01 -1.16204657e-01 5.01627028e-01
1.36267617e-02 -1.65616378e-01 5.95221281e-01 2.30575264e-01 -5.83037972e-01 2.31096834e-01 3.75591725e-01 -5.56819975e-01 4.70844686e-01 3.40276897e-01 -1.28919870e-01 4.53394622e-01 -6.28112778e-02 1.36842504e-01 1.42487779e-01 -1.97024620e+00 1.46764860e-01 -9.34849501e-01 2.31671482e-02 2.07506970e-01 -9.07477662e-02 2.09590644e-01 2.32605144e-01 1.50747791e-01 -2.26599649e-01 -5.05181313e-01 -1.04301535e-01 -1.99707299e-01 -4.01423335e-01 -5.15823126e-01 5.05388379e-01 -3.00468892e-01
-2.14754313e-01 2.00429074e-02 -1.47455439e-01 1.31767988e-01 -1.00817367e-01 -1.96638498e-02 2.27913171e-01 -1.63607657e-01 -5.34441292e-01 1.66439033e+00 -3.88998866e-01 -6.04678802e-02 -2.52955556e-01 1.27069509e+00 -2.04041258e-01 1.83323107e-03 2.44038235e-02 -1.52801471e-02 -1.43313214e-01 -2.87517220e-01 6.05797283e-02 2.23523542e-01 -3.93569469e-02 -1.89854503e-01 -1.05679616e-01 9.27149951e-02 4.07643825e-01 4.16954160e-01 2.24023432e-01 -4.80930477e-01 3.41439754e-01 -1.29068643e-01
-1.23087332e-01 -2.07737535e-01 6.16246581e-01 4.61963058e-01 -1.27703547e-01 -3.61308008e-01 -1.08231986e+00 1.58736706e-01 2.23349780e-01 4.26113248e-01 7.22156391e-02 -3.80006805e-02 1.33818105e-01 1.86092705e-01 -2.37277001e-01 5.86561978e-01 1.82179715e-02 2.25975752e-01 -1.53645724e-01 -3.13926011e-01 8.63955021e-01 3.91029328e-01 3.64033103e-01 -6.05844676e-01 4.35461625e-02 4.59131077e-02 -2.21778214e-01 2.61289537e-01 -9.71851647e-02 3.13113153e-01 -1.54729590e-01 -3.12877566e-01
7.75092721e-01 -4.89146382e-01 4.53779846e-01 1.05627942e+00 -3.88812900e-01 4.40906912e-01 -8.18384290e-01 -6.52776659e-01 5.72524488e-01 -7.10471869e-01 -1.91790938e-01 6.41197264e-01 -1.31737995e+00 -6.02042824e-02 7.84831882e-01 -5.50949335e-01 -1.88695595e-01 -5.50500415e-02 6.38336897e-01 6.20252550e-01 4.94704485e-01 -5.15688717e-01 -1.95711493e+00 -4.26174313e-01 6.63391411e-01 4.61741000e-01 -7.40119815e-01 -5.04528582e-01 2.34029416e-04 1.33399248e+00 -3.56512308e-01 -2.27699757e-01
-1.75090544e-02 1.72144920e-01 -3.04906182e-02 -4.97248843e-02 -1.62442252e-01 -4.30028886e-02 2.87642665e-02 -5.02768978e-02 -3.77084240e-02 -1.15769426e-03 3.62512842e-02 9.62998867e-02 8.08452442e-02 -4.59630117e-02 1.72448218e-01 -1.41644061e-01 9.24882814e-02 1.77029699e-01 -1.19209113e-02 -2.86244839e-01 1.42358020e-01 5.55659793e-02 -2.85767633e-02 -3.39283869e-02 -3.04670334e-01 -4.79187518e-02 1.75983328e-02 -7.22344294e-02 -2.78051086e-02 -5.81927504e-03 -2.23439299e-02 -2.15682447e-01
1.31728232e-01 2.88280368e-01 1.61927557e+00 4.55569565e-01 -1.19677949e+00 1.29806101e-01 -2.28239030e-01 -5.70001245e-01 8.32765281e-01 5.11409163e-01 1.57677218e-01 -3.23385566e-01 -9.05675113e-01 9.51798737e-01 3.27207819e-02 -3.28268337e+00 -2.69478977e-01 -4.49187756e+00 3.87533993e-01 9.90552232e-02 -1.26759899e+00 9.91705954e-01 3.25306416e-01 1.77670717e-01 2.54369080e-01 -1.74266592e-01 -5.12011051e-01 7.09304035e-01 -2.08026096e-01 9.01555002e-04 -1.18823089e-01 -5.01495786e-02
-8.20551336e-01 1.84529960e-01 1.22990109e-01 -7.40185559e-01 2.65649278e-02 -1.60727590e-01 -1.90705985e-01 4.92355436e-01 -7.46441483e-02 4.60453983e-03 1.14856958e-01 -2.98652411e-01 4.40025479e-01 4.40100580e-01 -3.98049861e-01 -2.31296346e-01 2.16868013e-01 -1.40682235e-01 -3.56563807e-01 1.72282085e-01 7.67590925e-02 7.01456010e-01 2.20351607e-01 -2.53605038e-01 -1.11181356e-01 3.02851766e-01 -7.09067822e-01 7.74371400e-02 8.53668228e-02 -5.59557378e-01 -1.05639972e-01 -7.49874771e-01

layers.2.bias:
-1.36375713e+00
-8.01735461e-01
6.40768290e-01
-5.14795303e-01
1.09446190e-01
-3.11272681e-01
2.44650900e-01
2.14606190e+00
5.06659210e-01
8.41311634e-01
-9.15963292e-01
-1.34702504e+00
-3.75675559e-01
9.06949103e-01
-3.30792129e-01
-6.48542941e-01
-7.13289902e-02
-7.56741226e-01
3.27987462e-01
-8.55355710e-02
-1.32123470e-01
7.85298526e-01
8.17673385e-01
-1.67821333e-01
-4.10084456e-01
1.04725361e+00
-9.88925338e-01
-1.05088162e+00
5.00438750e-01
-1.17702305e+00
7.70326108e-02
-5.37600890e-02
7.93195248e-01
1.16441488e-01
-2.51428634e-01
-2.47069448e-02
-1.38893962e-01
1.40394104e+00
1.05366719e+00
-7.26716593e-02
9.75466549e-01
-2.21993044e-01
-4.74766582e-01
1.38576996e+00
2.54360735e-01
-1.00002038e+00
1.07275581e+00
-3.47638935e-01
7.94539869e-01
1.79249895e+00
1.67486310e-01
3.02913934e-01
1.10186286e-01
-6.22032046e-01
2.50228167e-01
-1.15272589e-02
6.03541315e-01
-5.77470846e-02
-8.76197144e-02
-6.26816213e-01
4.66261059e-01
5.35642616e-02
-2.46345073e-01
7.16755450e-01

layers.4.weight:
2.85691708e-01 2.34359372e-02 -4.50429693e-02 4.68696188e-03 -1.21189561e-02 4.12650108e-02 2.58354266e-04 -7.05103993e-01 -8.42204988e-02 -3.93121958e-01 3.49370390e-02 9.07974303e-01 -1.72296381e+00 -1.01066515e-01 9.12607368e-03 -1.51019275e+00 -2.03443109e-04 7.36188218e-02 -3.34334123e-04 -1.83211145e-04 1.80078931e-02 -1.20198756e-01 -1.99713577e-02 3.03478956e-01 -2.89503690e-02 -3.33815590e-02 2.16784701e-02 7.56362438e-01 -4.10784811e-01 3.85472775e-01 -1.12966783e-02 -1.60523042e-01 -3.99011672e-02 8.74734891e-04 -1.21798562e-02 4.67926875e-05 1.92275591e-04 -1.49024010e-01 -1.40365316e-02 1.47762492e-01 -4.85352576e-02 2.59244770e-01 1.90315055e-04 -1.22422166e-01 -5.08933226e-06 1.31888688e-01 -9.24359728e-03 -3.87737266e-04 -1.15627311e-01 -6.60460472e-01 -4.86172177e-02 -1.13678603e-02 -4.16960684e-04 9.76047944e-03 -1.05781484e+00 -1.05051613e-05 -8.91666714e-05 -2.97236353e-01 -9.53878462e-02 1.04187736e-02 -8.39175936e-03 1.62554046e-04 8.88198197e-01 -1.62981339e-02

layers.4.bias:
-1.08607411e+00

