layers.0.weight:
3.31696361e-01 -5.67613244e-01 7.97264636e-01
5.69172144e-01 -8.09445798e-01 -5.80563486e-01
-8.31293464e-02 -6.13938749e-01 -5.77727258e-01
-1.07055378e+00 1.15616508e-01 4.58123112e+00
2.67282110e-02 4.11940843e-01 1.16166264e-01
-5.79876065e-01 8.58121514e-01 -1.84879377e-01
-1.31842160e+00 4.86020595e-01 -9.88645032e-02
-6.01682402e-02 7.88846374e-01 -9.23566997e-01
6.03414774e-01 -9.26082134e-01 5.12713566e-02
-1.11527514e+00 5.86289167e-02 -1.64189592e-01
7.53551662e-01 -9.85680073e-02 1.41279221e+00
-7.16238439e-01 -1.31785080e-01 -1.29353356e+00
-4.30584475e-02 7.12955832e-01 -1.57757306e+00
-1.16726887e+00 2.10410804e-02 5.00053525e-01
-6.46977663e-01 1.09646142e+00 7.52028525e-01
-1.81771189e-01 9.48456824e-01 1.64468549e-02
5.46070874e-01 -6.33792400e-01 -1.45019031e+00
-1.15504665e-02 1.12846863e+00 1.84981868e-01
8.07071701e-02 -9.54183042e-01 5.35116851e-01
3.41117471e-01 -1.28724232e-01 -8.64976227e-01
2.23475501e-01 1.65966094e-01 -5.10879010e-02
-3.24195027e-01 -2.56797969e-01 -1.00232065e+00
-4.64660525e-01 1.65601885e+00 -4.46076952e-02
-1.56447518e+00 4.06930357e-01 1.75152493e+00
1.05132234e+00 3.79940838e-01 -7.78481364e-01
2.59609371e-01 6.71772659e-01 -1.17486012e+00
-1.16151750e-01 -2.13369340e-01 1.90187418e+00
-3.97779703e-01 -2.44972542e-01 1.92939892e-01
3.22416067e-01 7.57217348e-01 -1.46468067e+00
-1.04933763e-02 4.65525806e-01 1.70563948e+00
-2.89658904e+00 2.84448242e+00 -1.78299040e-01
-1.26738083e+00 -5.19488692e-01 1.02004325e+00

layers.0.bias:
8.77201200e-01
4.81547834e-03
-1.42384720e+00
-6.34384930e-01
7.07518518e-01
-2.04255387e-01
-3.54310095e-01
2.86240637e-01
-7.45998621e-01
-1.59115899e+00
1.64644122e-01
1.80825554e-02
2.46107668e-01
-1.21306002e+00
-2.90836543e-01
1.43946290e+00
9.34610724e-01
1.82654703e+00
-6.68276668e-01
5.78918040e-01
-1.44309163e-01
-1.35729384e+00
1.02535832e+00
-7.05530941e-02
1.36946186e-01
5.60703695e-01
8.80503118e-01
-1.57881156e-01
-4.88352716e-01
7.31267482e-02
8.91685039e-02
-6.70209900e-02

layers.2.weight:
-3.53582799e-01 2.06089020e-01 9.01515558e-02 -4.84503448e-01 -5.30452169e-02 4.02918123e-02 9.05379057e-02 -5.19243516e-02 -1.11618273e-01 2.84668374e+00 8.50389674e-02 6.23277836e-02 -2.19680801e-01 2.41650724e+00 -1.60610974e-01 3.94654512e-01 -7.85371438e-02 5.97957611e-01 1.20527811e-01 -2.76594967e-01 2.65287161e-01 -7.18841925e-02 -5.23005068e-01 5.98324537e-01 -1.07997894e-01 6.17753029e-01 -7.89271891e-01 -1.54738963e-01 -2.24493667e-01 -2.16963083e-01 -1.60368517e-01 2.69875199e-01
-9.30287689e-02 1.66543737e-01 -8.49087834e-01 7.07336292e-02 -4.27714854e-01 1.39995471e-01 -8.01583290e-01 -4.93211925e-01 6.09091640e-01 6.69398129e-01 3.52379054e-01 -2.95242041e-01 2.27538764e-01 -2.63460912e-02 -3.35841626e-01 9.51211676e-02 -3.62175465e-01 2.77008444e-01 -4.28013682e-01 -9.20717493e-02 6.35941446e-01 -1.18494719e-01 -4.34389830e-01 -3.19004357e-02 9.76028573e-03 -9.37052295e-02 -3.08004975e-01 -5.17362177e-01 5.88519648e-02 -2.01216832e-01 -1.67700853e-02 1.68902427e-01
5.56614734e-02 5.89814819e-02 1.55750990e-01 -6.42199218e-01 -1.04075074e+00 -1.16521955e-01 -5.56862831e-01 2.14023441e-01 5.80875695e-01 7.25773931e-01 -4.43165451e-01 -1.95403844e-01 5.19725345e-02 9.04024765e-02 -1.52325168e-01 -9.62294936e-01 -2.53093630e-01 -9.64584649e-01 1.53303090e-02 1.15093431e-02 -3.08217585e-01 -2.48627856e-01 2.66354173e-01 -1.30423915e+00 -5.25757372e-01 3.16710591e-01 -1.06260300e+00 2.32039854e-01 3.11139464e-01 -2.56553531e-01 2.14416552e-02 3.55106980e-01
2.28918284e-01 -1.03941135e-01 8.79311040e-02 1.32740843e+00 5.41972101e-01 4.03129369e-01 6.77832127e-01 -2.20688194e-01 -1.73508748e-01 -2.52635591e-02 1.42300561e-01 -4.51849028e-02 -5.57498634e-01 1.77998632e-01 6.47558331e-01 9.29657280e-01 -3.41255993e-01 7.90461898e-01 2.91724533e-01 -9.77133870e-01 -6.84416354e-01 -1.33542433e-01 3.94281060e-01 1.44064319e+00 4.85721260e-01 -5.23671031e-01 4.79645550e-01 3.74818966e-02 -6.47751451e-01 -1.71697497e-01 -4.42032376e-03 1.66111633e-01
1.40043408e-01 -3.94164383e-01 2.35439152e-01 -4.55102056e-01 2.34944120e-01 -2.99254656e-01 -1.56416535e+00 1.90555394e-01 4.99043576e-02 -6.28142297e-01 4.25533324e-01 -7.54319966e-01 8.15670490e-01 -8.58276963e-01 -1.19841378e-02 -6.91313088e-01 -3.50932151e-01 -7.10526288e-01 -2.13858709e-01 -1.02091424e-01 9.25473154e-01 -5.79743505e-01 3.29152852e-01 -3.45881492e-01 -5.82816601e-01 6.71963036e-01 8.72840434e-02 -7.50137866e-01 -1.64538890e-01 6.12936914e-01 -1.57827303e-01 -2.01514423e-01
-2.74067789e-01 1.72245383e-01 4.34486598e-01 1.68796554e-01 -1.22828054e+00 -3.43870640e-01 4.03551608e-02 2.59636730e-01 3.96388024e-01 -6.19988749e-03 6.11324012e-01 3.37554783e-01 -8.49235058e-02 3.70584801e-02 -2.21301749e-01 -1.30184007e+00 -4.24825191e-01 -1.71061969e+00 7.95399904e-01 -3.00273389e-01 -6.38591349e-01 -4.71783727e-02 -7.76078284e-01 -2.49902353e-01 1.70191258e-01 7.65944794e-02 1.50697425e-01 1.21058035e+00 -1.65198103e-01 -4.31037784e-01 -1.12869370e+00 1.71977058e-01
3.42542827e-02 -1.33286009e-03 -2.33195037e-01 -7.05016125e-03 -1.35767758e-01 1.59760013e-01 -7.98695385e-02 -4.22294110e-01 -9.29013342e-02 2.64811903e-01 2.96978533e-01 8.30156878e-02 2.85599619e-01 4.22469676e-02 -1.83142517e-02 -3.01877916e-01 1.84378941e-02 9.67591554e-02 -1.07916938e-02 -3.15105766e-01 -3.86420846e-01 7.79441148e-02 4.75153886e-02 2.67786998e-02 1.70768067e-01 2.61129469e-01 -3.59009117e-01 -4.40956116e-01 -1.36613145e-01 7.23727196e-02 -2.89691292e-04 1.39314964e-01
3.55940253e-01 1.35548592e-01 -4.02131110e-01 3.42669129e-01 2.84590125e-01 -6.73577845e-01 1.21145993e-01 5.01736760e-01 9.88328904e-02 -3.14741582e-01 -1.49119645e-01 9.84397113e-01 3.30052167e-01 -5.59127450e-01 -2.05711409e-01 1.78058937e-01 5.38530529e-01 1.52521402e-01 2.73088932e-01 5.16573191e-01 -1.46412051e+00 -9.00824189e-01 1.21037468e-01 2.85034299e-01 2.08440766e-01 7.61448085e-01 5.89831233e-01 5.25405288e-01 -5.91417432e-01 4.80505079e-01 1.53158367e-01 -2.69605696e-01
2.17267245e-01 4.13434297e-01 -6.31296277e-01 -2.75716841e-01 1.56124604e+00 -5.68477452e-01 -3.42678279e-01 -3.94932687e-01 -7.77604759e-01 1.60912260e-01 4.33199376e-01 2.44449884e-01 6.97533727e-01 -3.39632511e-01 -5.96055537e-02 2.19219255e+00 4.76722658e-01 1.78312540e+00 -4.27887321e-01 -1.54347112e-02 -5.01396246e-02 -2.55684912e-01 -8.35915506e-02 1.65959969e-01 -1.87439457e-01 3.63977939e-01 4.41450216e-02 2.07164854e-01 -2.29717016e-01 1.36759147e-01 2.04586077e+00 -1.77503582e-02
-6.33113384e-01 9.38531309e-02 -9.56246704e-02 -5.37613571e-01 4.57156599e-01 4.14886884e-02 -5.18369041e-02 3.97082180e-01 3.89888644e-01 -1.47210613e-01 -1.02584688e-02 2.57921517e-01 2.02566281e-01 1.79135501e-01 -3.26895326e-01 -5.96652031e-01 3.37540150e-01 -3.76284748e-01 -4.43199128e-01 -1.28892642e-02 -6.22689188e-01 -2.20417038e-01 1.38241574e-01 -1.13130420e-01 -1.84270635e-01 -7.38029853e-02 -1.88850209e-01 2.02415332e-01 2.77749956e-01 1.50203511e-01 1.67909071e-01 -2.40521673e-02
2.28843644e-01 -2.89383709e-01 -2.82191020e-02 -3.82661372e-01 -6.99819744e-01 -3.78226280e-01 -3.26650590e-01 1.50294572e-01 5.16649246e-01 2.90182441e-01 -5.50677717e-01 -9.34719220e-02 8.74576628e-01 -3.33139390e-01 -2.21686259e-01 -3.54573250e-01 -6.14464104e-01 -1.19345331e+00 2.81896535e-02 -1.61912013e-02 1.01411283e+00 -2.30256453e-01 -9.19088066e-01 1.55501902e-01 -1.57308057e-01 -4.81653586e-02 -4.52741802e-01 -4.95910734e-01 2.45798036e-01 -4.18524384e-01 -1.32386282e-01 4.20564085e-01
-1.45413995e-01 -2.18863472e-01 1.63854790e+00 -8.34235907e-01 -6.17619693e-01 2.19674140e-01 -1.31505862e-01 -3.78360063e-01 1.34087339e-01 1.83880448e+00 9.86564979e-02 -2.68458754e-01 2.62518853e-01 3.20606327e+00 1.89478263e-01 -6.20320678e-01 2.06799984e-01 -2.27902770e+00 5.25822937e-01 -3.94125342e-01 3.70059431e-01 5.67596674e-01 -1.72783688e-01 8.66757214e-01 1.55460853e-02 -5.59971392e-01 3.25079322e-01 -1.99816540e-01 1.48289159e-01 8.51565376e-02 1.95977896e-01 -4.37451512e-01
-7.06059635e-01 -1.94328278e-01 1.11199355e+00 4.08632547e-01 -1.17912161e+00 6.82879329e-01 -5.67958830e-03 -1.01182520e+00 4.43789631e-01 5.59487820e-01 2.21548453e-01 1.27022699e-01 -5.17933726e-01 -5.00680916e-02 5.06751955e-01 -5.01721621e+00 -1.30688086e-01 -6.76355743e+00 7.25409031e-01 -1.03210628e+00 -6.72338307e-01 5.39932251e-01 6.77777350e-01 -1.06409580e-01 -3.05861056e-01 -2.72573173e-01 -3.57294798e-01 7.30639577e-01 -7.21937120e-01 -3.28690290e-01 -1.09398472e+00 -2.23976046e-01
7.67756999e-02 -1.78570971e-01 -6.45979524e-01 -6.55411705e-02 -1.16704985e-01 -7.03352541e-02 2.89854527e-01 3.11558664e-01 3.26896518e-01 -2.65064090e-01 5.28060377e-01 -1.73976690e-01 3.29122245e-01 -8.29100490e-01 -3.11835498e-01 -8.24883231e-04 -2.53445357e-01 2.47210220e-01 -6.69697225e-02 1.33432537e-01 -7.22650886e-02 -1.61126614e-01 3.05902269e-02 -2.18440354e-01 -1.75884783e-01 7.51788557e-01 -4.80603753e-03 8.35163072e-02 -2.13185340e-01 2.59002477e-01 8.14947709e-02 4.13593173e-01
-1.03027666e+00 1.92546263e-01 -5.83999418e-02 3.46292019e-01 -2.04021588e-01 6.99007392e-01 -3.41297895e-01 -1.16580620e-01 3.68949205e-01 -8.17592666e-02 -7.61793315e-01 2.38332793e-01 1.47905782e-01 -2.93392092e-01 -2.63610393e-01 -6.81107283e-01 2.18848050e-01 -6.77249372e-01 -3.83003563e-01 3.08064491e-01 1.34009135e+00 9.74635661e-01 2.46194080e-02 2.13423640e-01 -4.06729609e-01 1.00404821e-01 -5.84597707e-01 1.04848489e-01 7.83055484e-01 -2.39397943e-01 -3.33151408e-02 1.75037771e-01
-5.80869198e-01 -7.52714202e-02 2.44807452e-02 1.39937222e-01 -1.82111219e-01 2.98739344e-01 -9.34889376e-01 -9.26023647e-02 7.60215446e-02 5.20831347e+00 5.69616258e-01 4.22097206e-01 2.13697612e-01 2.66990542e+00 3.13859171e-04 -1.31507982e-02 -4.32446331e-01 -3.57597470e-02 4.21354361e-02 -2.07739279e-01 -6.92065954e-01 4.01775151e-01 2.42952019e-01 2.83280373e-01 -3.79447609e-01 -4.30219918e-01 -6.28841698e-01 3.24154139e-01 -9.67848822e-02 -6.55497491e-01 2.63786137e-01 -2.56045938e-01
-1.16126919e-02 1.44680858e-01 -6.36891648e-02 3.20613198e-02 4.03592177e-03 1.04157841e-02 4.00393903e-02 -6.36758506e-02 4.33286000e-03 -2.02081010e-01 6.70851395e-02 4.14929166e-02 4.84660827e-02 9.44203287e-02 1.17537104e-01 1.19340494e-02 4.29949127e-02 1.02803158e-02 3.34181311e-03 1.11721195e-01 2.50221550e-01 1.13898508e-01 5.09827631e-03 2.12398972e-02 6.39638305e-02 2.08960418e-02 5.46123944e-02 2.75979698e-01 3.95452743e-03 -3.33782192e-03 1.65173318e-02 1.90205146e-02
1.43531188e-01 -1.63423389e-01 -6.44909799e-01 8.45602080e-02 2.18696892e-01 -1.71820402e-01 -2.11266935e-01 -3.24215472e-01 2.75462419e-01 -6.44178092e-01 1.07825652e-01 -6.52794018e-02 1.67474687e-01 1.01760998e-01 -3.60649824e-02 2.19641253e-01 -3.48081201e-01 5.61298788e-01 -1.98725656e-01 8.78016353e-01 3.57002467e-01 4.98251803e-02 -4.30060983e-01 -8.53729472e-02 -1.38777897e-01 -4.70827162e-01 8.78359556e-01 -5.20617545e-01 2.30135798e-01 3.47380638e-01 5.30354620e-04 2.06482276e-01
-2.02972934e-01 -1.23843990e-01 -4.34199423e-01 -1.48554742e-01 6.73824906e-01 5.44022210e-03 8.53573009e-02 4.99693975e-02 4.00877476e-01 -5.13874054e-01 -9.98420119e-02 -9.76042509e-01 4.12983596e-01 -2.07251877e-01 -1.54899418e-01 3.77402186e-01 -1.79099575e-01 6.44341290e-01 2.01936200e-01 -1.19706571e-01 -3.42969075e-02 -2.86766171e-01 5.09681284e-01 -2.68438995e-01 2.30246603e-01 1.40019149e-01 -1.17019981e-01 3.38529944e-01 -3.41823534e-03 4.09330368e-01 4.76220399e-01 1.34993941e-01
7.40836561e-02 1.80806860e-01 -3.86957941e-03 6.87896311e-02 -5.66968881e-02 9.64372456e-02 -2.52575986e-02 -8.04971829e-02 5.52100763e-02 7.79975280e-02 6.60540536e-02 1.17680013e-01 -6.63009211e-02 -6.77633807e-02 1.14614308e-01 4.72391188e-01 5.79106547e-02 -2.82255322e-01 4.47324254e-02 -1.00962721e-01 -1.08774304e-01 -1.28725171e-01 -3.88155784e-03 -1.83587298e-02 3.94498780e-02 1.28398433e-01 4.90777055e-03 7.81323854e-03 1.11763634e-01 1.42034264e-02 -7.98583322e-04 3.65365185e-02
5.96371770e-01 -1.18305698e-01 6.42186463e-01 5.30383229e-01 -2.76390672e-01 -3.09328556e-01 -6.37413502e-01 -1.41923487e-01 -3.32405746e-01 -8.64413023e-01 -1.11891195e-01 9.93812025e-01 4.89234060e-01 -4.36987370e-01 6.78416491e-01 5.86005151e-01 -4.89847325e-02 -2.23494068e-01 5.12307286e-01 4.70811754e-01 -6.10762537e-01 8.77098888e-02 4.92817700e-01 1.90050825e-01 -3.01907752e-02 -3.78742993e-01 9.74315256e-02 5.02682209e-01 -1.33788124e-01 -8.48120451e-02 1.12348095e-01 5.47104120e-01
2.64461577e-01 -9.79130119e-02 5.57977259e-02 1.40870735e-01 6.30373275e-03 1.27424762e-01 9.51695204e-01 7.19636381e-02 4.61154133e-01 2.18552917e-01 3.23845863e-01 3.83506835e-01 -3.88645798e-01 -5.76270700e-01 9.28351954e-02 -1.08895445e+00 -3.37961838e-02 -7.62622178e-01 -7.00472221e-02 -4.27598327e-01 -5.37758887e-01 5.92974946e-03 2.56815881e-01 -5.43474406e-02 8.46627578e-02 -4.14173037e-01 -7.14074731e-01 4.37387645e-01 -1.04781941e-01 -1.98347405e-01 2.47671038e-01 -6.45276159e-02
1.52002722e-01 3.94845009e-02 -2.87160069e-01 3.82127374e-01 4.97412905e-02 2.73643136e-01 3.10377210e-01 -2.67691553e-01 -3.01781237e-01 2.45596975e-01 -5.13514085e-03 1.14472404e-01 4.58736032e-01 4.11420792e-01 -2.30349362e-01 -3.91533107e-01 5.92638910e-01 -1.20921537e-01 8.20939988e-02 -1.94798142e-01 -4.51977521e-01 5.07501401e-02 -4.33127701e-01 1.59275666e-01 -3.96940082e-01 -9.10328254e-02 -7.74931461e-02 -4.48846430e-01 3.83185558e-02 -1.41662121e-01 -9.57226306e-02 -2.29266346e-01
7.59137988e-01 -5.98248281e-02 -2.51433998e-01 1.80899844e-01 1.26276344e-01 -4.63444620e-01 -5.78656457e-02 3.17837983e-01 2.89235353e-01 -2.51835895e+00 1.26396149e-01 1.45987242e-01 3.66714954e-01 -1.59350204e+00 1.59549803e-01 3.17368597e-01 1.14349551e-01 2.15099305e-01 -2.21924379e-01 -2.68882848e-02 5.05572796e-01 -2.16817230e-01 -2.97782123e-01 -2.83915866e-02 -3.59119236e-01 -2.07102716e-01 -4.42104079e-02 -1.69280559e-01 2.08760157e-01 1.21823750e-01 -1.00956745e-01 -1.87978148e-01
-8.24913383e-01 1.55785203e-01 5.18833064e-02 1.21907502e-01 -2.09197253e-01 -3.48920465e-01 1.08451176e+00 -1.35623783e-01 -9.86060441e-01 7.58473635e-01 -7.20481038e-01 3.88892218e-02 1.64298534e-01 8.33694860e-02 -7.08335996e-01 2.48325154e-01 6.04114473e-01 2.65138090e-01 4.58355248e-01 1.66046284e-02 -2.58282185e-01 3.84704143e-01 5.25552571e-01 9.57010150e-01 -5.34229815e-01 5.05988896e-01 -6.16954267e-01 1.31585941e-01 7.86838889e-01 -4.53785717e-01 1.00182667e-01 1.45494580e-01
-5.35471261e-01 6.03808105e-01 -4.08097431e-02 -1.45994142e-01 5.26505470e-01 1.60953328e-01 -5.18097682e-03 5.19443214e-01 -3.10410798e-01 4.83905554e-01 5.78203350e-02 -1.48092985e-01 2.24716768e-01 2.10768938e-01 -5.33730388e-01 -3.73751462e-01 -1.13390334e-01 -1.55009955e-01 3.93893272e-01 -3.62416059e-01 -3.45238112e-02 -2.75345892e-01 1.95426233e-02 -5.56533992e-01 8.28962624e-02 -1.99216187e-01 -5.68061054e-01 -4.73563105e-01 1.67092174e-01 -3.71956497e-01 -2.21255764e-01 -2.34561071e-01
-1.81383058e-01 2.05039144e-01 4.74043101e-01 3.62992525e-01 -2.87921637e-01 -2.57857472e-01 -1.38439536e-01 2.64074840e-02 3.01232010e-01 -4.13444728e-01 -5.94250977e-01 -6.81197494e-02 -2.68953532e-01 -2.40714639e-01 8.92978162e-02 6.04359210e-01 -1.11153655e-01 2.00971216e-01 2.33152211e-01 1.80224314e-01 1.21081375e-01 -7.22472787e-01 1.88620999e-01 1.32520139e-01 3.24792206e-01 1.63531110e-01 1.32061392e-02 -5.75626910e-01 -2.29452580e-01 -1.13836788e-01 1.25952408e-01 -3.27472538e-01
-7.97694862e-01 4.76429105e-01 -6.56629741e-01 -1.01986265e+00 -1.11842461e-01 -2.35307679e-01 -3.52796584e-01 4.63461578e-01 1.00919850e-01 4.48423952e-01 -5.64927086e-02 1.89695373e-01 1.93420216e-01 2.67620742e-01 -2.28727479e-02 1.21008921e+00 6.99119389e-01 1.32018042e+00 -1.03262568e+00 8.57368708e-02 5.87824523e-01 -7.81452298e-01 -6.46020710e-01 3.95443827e-01 -1.13066882e-01 -4.14816320e-01 2.66344815e-01 1.86225533e-01 6.33844614e-01 -8.24074566e-01 1.99750066e-01 -2.95646071e-01
2.01061726e-01 -5.31694353e-01 -2.71973871e-02 -1.22691274e-01 -6.52665854e-01 5.07322311e-01 5.78374974e-02 -4.90668356e-01 5.41882575e-01 8.70725930e-01 -2.30404809e-01 1.27122998e-01 5.55001199e-01 3.97040397e-01 7.09683029e-03 -1.09655905e+00 -4.43966985e-01 -1.11206150e+00 1.34487331e-01 2.21148685e-01 2.15392530e-01 3.59768242e-01 1.82115152e-01 1.45695999e-01 2.61592865e-01 1.05760902e-01 -4.17410821e-01 -2.38001287e-01 -3.04452330e-01 -3.46069932e-01 4.45985705e-01 3.21028441e-01
-6.77165166e-02 -8.12510848e-01 4.54631269e-01 1.50946856e+00 -1.35417730e-01 -9.38912574e-03 -2.47882530e-01 -3.14837664e-01 -6.88064098e-02 1.72002077e-01 1.07692552e+00 -9.64770079e-01 -1.08149004e+00 -5.13327062e-01 5.73745891e-02 -4.07362163e-01 -1.02449691e+00 3.24128151e-01 7.23204672e-01 -4.45107669e-01 9.52471137e-01 2.67339438e-01 -1.03690624e-01 -1.40199974e-01 1.56854630e-01 -4.93344545e-01 1.30795717e-01 -1.02659166e-01 -8.11044812e-01 1.18023670e+00 -7.56413758e-01 -1.54290587e-01
-7.59544015e-01 -2.33930528e-01 4.14795458e-01 1.67453647e-01 -3.23909342e-01 2.90534675e-01 3.10499847e-01 -4.66030128e-02 -4.69139874e-01 -1.94516510e-01 -9.45761502e-01 2.37088814e-01 4.36048687e-01 1.20328844e-01 2.33782768e-01 -3.09450597e-01 3.09819460e-01 -4.50210035e-01 1.86971933e-01 -3.85914087e-01 -1.02243936e+00 3.48484337e-01 7.18347430e-02 -6.56970441e-01 1.81210086e-01 5.66530466e-01 -7.79216960e-02 9.79772061e-02 -4.95296896e-01 -1.87184006e-01 -1.43178418e-01 -9.95001756e-03
-2.48989075e-01 -3.35795820e-01 -2.39724487e-01 -1.15789667e-01 -1.47416577e-01 -9.26964059e-02 2.50192672e-01 2.16385007e-01 -6.14919662e-01 1.25909352e+00 -1.21640518e-01 -1.08239472e-01 -5.39973021e-01 5.42127252e-01 -1.98478118e-01 5.94203472e-02 1.58342589e-02 2.39601955e-01 3.21208537e-02 -2.04711691e-01 1.75254241e-01 9.25985575e-02 2.93455005e-01 7.75364488e-02 5.20511204e-03 -1.02113418e-01 -1.51396230e-01 2.38111213e-01 2.35273629e-01 3.42170775e-01 -5.08867539e-02 1.46834537e-01
-2.93346364e-02 -3.65582645e-01 2.34652236e-02 -1.07257292e-01 -4.09006774e-01 4.38406736e-01 -2.46395126e-01 -4.60492343e-01 1.52276069e-01 -4.53718215e-01 3.05911154e-02 4.37220156e-01 2.02970237e-01 4.11944926e-01 3.26054245e-01 -7.05811799e-01 -4.71191078e-01 -1.32971561e+00 9.49717220e-03 -3.26385140e-01 -1.07537739e-01 8.63469243e-01 4.25532222e-01 6.06569946e-01 -4.44809198e-01 1.38862595e-01 1.23688519e-01 -2.45684266e-01 -3.91118526e-01 -2.66233534e-01 -1.45245403e-01 -1.02471970e-01
3.41976322e-02 -2.88534090e-02 1.21430382e-01 -8.25664327e-02 2.60229677e-01 -1.06010430e-01 6.17199503e-02 -3.28443974e-01 -1.51851058e-01 3.91555279e-01 1.56750143e-01 1.69443280e-01 7.27485344e-02 -2.98086166e-01 -8.22367817e-02 -2.73159653e-01 8.36094320e-02 1.46856382e-01 -1.72094032e-01 -5.31613111e-01 1.68030053e-01 -1.72671571e-01 -1.46878600e-01 -5.27496524e-02 -7.29411421e-03 2.07773775e-01 -5.38350157e-02 -1.50341149e-02 1.08792461e-01 7.81657025e-02 1.03889108e-02 4.13484266e-03
1.29640117e-01 -5.33483386e-01 -1.75823256e-01 7.84331203e-01 -3.98533791e-01 -5.21760046e-01 1.29922420e-01 -1.77073926e-01 1.74606144e-02 2.95631742e+00 -5.37017524e-01 9.42399144e-01 6.30101979e-01 8.67780745e-01 7.78831363e-01 -8.59274641e-02 2.16621980e-02 -1.29118785e-01 6.14302397e-01 3.45227242e-01 2.57766157e-01 1.52449116e-01 -2.82698900e-01 1.06518841e+00 -2.56601255e-02 1.09916449e-01 -2.83886194e-01 2.75280535e-01 -7.41159730e-03 5.51049598e-02 7.87246764e-01 1.13121979e-03
-1.06027670e-01 1.84480339e-01 1.35120869e-01 7.13852644e-02 2.73710769e-02 -3.90433706e-02 -3.05366963e-02 9.94523540e-02 -1.63901225e-02 -3.09101772e-02 1.59525499e-01 7.54867047e-02 9.08794403e-02 -4.45170477e-02 1.59680665e-01 1.60946995e-01 4.30605561e-02 -1.10571146e-01 9.38098401e-06 9.91318822e-02 -1.65737629e-01 -3.70283313e-02 6.87264791e-03 -6.91033155e-03 -4.76355970e-01 -2.30106130e-01 4.60096635e-02 -1.13969356e-01 -8.21333006e-02 -5.73749766e-02 4.98289354e-02 -4.45044160e-01
4.08292711e-02 -7.33480975e-02 -5.15874960e-02 1.68499555e-02 -2.33952567e-01 -5.84442727e-03 -3.09210997e-02 1.45997331e-01 4.20962833e-02 -6.21329136e-02 -2.77707260e-02 1.97895686e-03 -6.10585734e-02 5.30283041e-02 -8.36193487e-02 1.98504761e-01 -1.04874313e-01 -1.03261970e-01 5.60141988e-02 3.43284070e-01 -2.98894227e-01 -9.39587206e-02 3.52717150e-04 -3.02342754e-02 -9.26637033e-04 -9.29343104e-02 -6.94388524e-02 -1.43657802e-02 -7.28054941e-02 4.41151299e-02 5.71068861e-02 7.69751985e-03
8.43894839e-01 -2.89163709e-01 3.14271510e-01 3.58444750e-01 -4.14012939e-01 2.14719772e-02 -5.91880262e-01 -2.42628735e-02 7.05744028e-01 7.29165375e-02 -1.71727285e-01 3.22150402e-02 3.77472788e-02 2.58195937e-01 7.61927783e-01 -8.10363472e-01 -4.74793196e-01 -8.01171780e-01 6.55390978e-01 -2.87570477e-01 -7.34667301e-01 2.06659093e-01 -1.17061578e-01 2.25915372e-01 7.94695079e-01 -5.29633872e-02 2.42584437e-01 -1.37960345e-01 -5.66040814e-01 2.44802579e-01 1.07357986e-01 1.09582029e-01
1.87311232e-01 -4.28358853e-01 -2.48186350e-01 4.31517005e-01 8.49588439e-02 -6.06867075e-01 3.27551812e-02 -9.82703716e-02 3.27553242e-01 -2.75134534e-01 -2.04136610e-01 4.26149994e-01 3.21870923e-01 -2.67275810e-01 2.73713529e-01 -8.79084468e-01 -3.61017495e-01 -9.65210021e-01 8.15453112e-01 -4.30215120e-01 -2.22565964e-01 -8.99453610e-02 3.55703294e-01 6.73793137e-01 -1.35352716e-01 -3.58572841e-01 4.65768129e-01 -7.62921721e-02 -1.95616737e-01 -3.97101074e-01 5.99823408e-02 2.34998673e-01
4.52649146e-02 -4.06975150e-02 7.58100748e-01 9.11758766e-02 -1.23085582e+00 -3.12073022e-01 1.83737859e-01 -1.61692321e-01 7.93865740e-01 6.39614999e-01 -1.55308843e-01 -3.51041555e-01 2.15817802e-02 6.66387916e-01 1.23130335e-02 -2.47013998e+00 -3.04515809e-01 -3.15329003e+00 2.80082494e-01 3.09479665e-02 -7.78715193e-01 6.40765309e-01 1.92072079e-01 1.14866585e-01 2.71297753e-01 1.41393334e-01 3.21091533e-01 1.04102857e-01 -1.40529647e-01 -7.87477434e-01 -5.32916784e-01 1.42493233e-01
-1.69974163e-01 -2.27378294e-01 -2.48312533e-01 -3.04009318e-01 -2.80218989e-01 5.42553306e-01 1.48974776e-01 -9.68808383e-02 -1.06812432e-01 3.34461927e-01 -2.19352692e-01 1.93376034e-01 7.92255849e-02 -3.06814104e-01 -1.38276458e-01 -5.56087673e-01 3.34090173e-01 -6.47821784e-01 -2.84250766e-01 5.62163480e-02 -3.59351873e-01 3.94406855e-01 -1.34648845e-01 3.22481960e-01 3.77360195e-01 -4.94501740e-01 4.60780442e-01 6.48121089e-02 7.88523480e-02 1.08686663e-01 -1.23655587e-01 3.21587548e-02
3.45944405e-01 6.66650653e-01 6.56078100e-01 -3.87553573e-01 2.14734569e-01 2.01320231e-01 1.33924022e-01 -9.53864902e-02 -8.12360525e-01 9.88112509e-01 -2.61806011e-01 -2.69656241e-01 -4.50604439e-01 1.13042390e+00 1.78222075e-01 1.47655860e-01 1.17886085e-02 -8.63670707e-01 2.17404440e-01 -2.97219038e-01 1.09938279e-01 6.81038082e-01 -1.07568651e-01 -3.83787334e-01 7.05624521e-01 -7.71781981e-01 5.03516614e-01 -1.42526671e-01 -2.43841484e-01 -5.85845232e-01 3.15066166e-02 -5.15136838e-01
-3.32201496e-02 -3.72400612e-01 1.86144501e-01 -1.59868509e-01 -2.08802909e-01 1.11779504e-01 1.01153493e-01 -2.99686283e-01 -4.51872945e-01 -3.33758235e-01 -8.86943638e-02 -1.45990681e-02 -1.14277318e-01 4.10179734e-01 5.09879887e-01 3.02933574e-01 2.64151782e-01 -4.60347235e-01 4.77441922e-02 1.48818433e-01 -2.47421756e-01 2.94129074e-01 -4.06726569e-01 1.81845516e-01 -7.54693523e-02 -2.78987437e-01 4.21887100e-01 7.31693208e-01 -4.13216889e-01 -4.43103224e-01 2.53380895e-01 3.56165648e-01
-9.06913579e-01 -8.56022090e-02 -2.65933964e-02 -1.18789303e+00 -1.27142698e-01 -2.80805435e-02 4.10638332e-01 1.24256834e-01 -9.24136937e-02 1.47642505e+00 -1.22753429e+00 1.41206050e+00 7.66488135e-01 6.46670818e-01 -4.34916139e-01 6.31252944e-01 3.68106365e-01 -1.30573601e-01 -1.22959033e-01 8.16248596e-01 -1.06855309e+00 -4.68381405e-01 -1.61163554e-01 1.01530470e-01 4.01012421e-01 5.75748265e-01 9.84005511e-01 1.13066328e+00 3.14234287e-01 -9.07415211e-01 4.03985500e-01 3.88464451e-01
-9.06880274e-02 1.00157142e-01 2.97882348e-01 -4.49239016e-02 3.46704453e-01 -1.08355530e-01 -1.30080152e-02 4.18968871e-02 -2.88644079e-02 2.18722492e-01 2.48073768e-02 2.10245065e-02 -1.15221366e-02 -1.12366185e-01 7.80026615e-02 -1.21569812e-01 9.17093307e-02 5.20583615e-02 -4.83622495e-03 -4.22603071e-01 1.50146559e-01 -1.07893594e-01 -5.68265794e-03 1.66161601e-02 1.45349279e-01 -1.53346770e-02 7.58148283e-02 1.36077523e-01 4.41656746e-02 -8.62043723e-02 -7.83929322e-03 5.49633130e-02
-1.00655004e-01 2.60511309e-01 2.96101272e-01 -1.42807707e-01 2.23357692e-01 9.04670507e-02 6.82671070e-01 3.06971818e-01 1.08635999e-01 -1.19677186e+00 -3.68978173e-01 5.56992650e-01 6.78954005e-01 -3.12040180e-01 -4.87080902e-01 8.20188522e-02 5.46003103e-01 -2.28836820e-01 -2.04001348e-02 -4.26224262e-01 9.12881494e-01 -2.77288616e-01 4.14813822e-03 -1.32136667e+00 4.01111878e-02 5.37775755e-01 -1.01474261e+00 -9.14182544e-01 2.84978360e-01 -1.40092626e-01 -2.97639221e-02 -2.54287601e-01
6.80458665e-01 -3.25936526e-01 -2.52376467e-01 4.65645254e-01 -2.35930607e-01 -7.91001245e-02 -1.72356337e-01 -2.70135880e-01 6.04252219e-01 -1.27600580e-01 -7.80643150e-02 -7.90200010e-02 7.22929895e-01 -3.41176182e-01 3.78053486e-01 -7.65112281e-01 -5.29480539e-02 -7.89677024e-01 8.42251897e-01 -9.76037979e-02 -2.99935013e-01 7.87427649e-02 1.46470919e-01 1.72622845e-01 -1.32097071e-02 -2.51960069e-01 8.21717978e-01 4.42398757e-01 -4.59340602e-01 3.62154126e-01 1.47280693e-01 2.80209988e-01
-2.17462257e-01 3.15140665e-01 -1.54725060e-01 -5.53582124e-02 -5.93914151e-01 -2.10381866e-01 1.13075413e-01 4.54805702e-01 -8.24065730e-02 -5.77521503e-01 -1.94353893e-01 -5.29192679e-04 -3.34173083e-01 1.70571774e-01 2.81210721e-01 -1.85843691e-01 -1.08969010e-01 2.18943432e-01 3.95724960e-02 3.64081591e-01 -2.54553795e-01 -4.65975776e-02 -1.63310673e-02 -4.22320664e-02 -1.06366687e-01 -9.69096571e-02 2.62457341e-01 -2.60594606e-01 1.06035933e-01 -8.53964943e-04 8.71932879e-03 1.52671337e-01
1.08542286e-01 -5.15738904e-01 -9.67216939e-02 -1.33891568e-01 -5.44331558e-02 -1.89044982e-01 -1.03098273e-01 -1.70821413e-01 -3.58779371e-01 3.73945147e-01 -3.40512171e-02 1.04386359e-01 3.78605336e-01 2.57677615e-01 -1.67103365e-01 -6.45090818e-01 -1.74687088e-01 -1.24155566e-01 2.29752082e-02 9.23114046e-02 7.08334073e-02 -3.45631093e-02 5.68711519e-01 8.10506847e-03 -3.33737373e-01 2.57766277e-01 3.12110603e-01 6.57091960e-02 -5.57460822e-02 9.72588584e-02 -8.52440074e-02 -2.46250361e-01
1.03313982e+00 3.37766632e-02 -6.14108920e-01 1.80526450e-01 2.53149897e-01 8.53298083e-02 4.63454247e-01 1.59162253e-01 -2.81715572e-01 -9.49203014e-01 -8.50188196e-01 1.37677765e+00 1.00042179e-01 -9.40036356e-01 2.75229871e-01 6.33809030e-01 8.05756450e-02 5.24416268e-01 -1.39678970e-01 1.83356956e-01 -1.53471053e+00 -4.15881008e-01 -8.22964907e-01 -2.58668929e-01 -3.55592906e-01 1.81013681e-02 2.32866988e-01 5.20468473e-01 -3.72066535e-02 4.27256897e-02 -8.46814215e-02 4.44206655e-01
-5.04730679e-02 1.38791546e-01 -1.10925782e+00 3.48285660e-02 6.08011782e-01 2.71380752e-01 -8.99095386e-02 -7.59240538e-02 9.88001153e-02 2.98095524e-01 -3.07221383e-01 -1.31117952e+00 2.71879673e-01 1.08170331e-01 -3.91817749e-01 7.72039056e-01 -1.59361884e-02 1.81913757e+00 -3.51044655e-01 1.24602199e-01 2.75647223e-01 -2.38574237e-01 -6.58167750e-02 5.83511412e-01 -2.03332528e-01 6.76237702e-01 1.15132229e-02 -2.94821501e-01 1.43238390e-02 2.27199957e-01 5.49894810e-01 -1.05651647e-01
1.76087534e-03 4.07795101e-01 -1.73322842e-01 -6.28661871e-01 -3.56285013e-02 7.12696314e-01 2.65074164e-01 7.99841642e-01 3.53804201e-01 2.57405460e-01 9.44320202e-01 -2.62706548e-01 9.69211757e-02 1.68144926e-01 1.26351323e-02 -6.66040421e-01 3.28055859e-01 -2.68411124e-03 -3.19402367e-01 -5.04754543e-01 -4.89702486e-02 -2.31042385e-01 2.22238868e-01 1.14292562e-01 -2.08152726e-01 1.86374322e-01 2.29304377e-02 -3.42666693e-02 -5.53107262e-01 2.41855457e-01 -2.33255118e-01 9.81542021e-02
6.94201067e-02 2.73828059e-02 -1.35044217e-01 7.83613417e-03 -3.64928059e-02 5.06928489e-02 5.71979443e-03 7.72738084e-02 -1.43705793e-02 -4.31408435e-02 -5.21476194e-02 -3.91259819e-01 2.44255811e-01 2.27776229e-01 -2.34735454e-03 9.76888090e-02 7.58244097e-02 -3.12870629e-02 1.01398081e-01 2.49496996e-01 1.32095695e-01 2.86844939e-01 -3.14646494e-03 2.21517518e-01 -1.06197648e-01 -2.87451178e-01 -1.77570075e-01 -1.77667588e-01 -3.07935357e-01 -1.42955840e-01 3.72348763e-02 -2.71601260e-01
3.21891040e-01 4.71425802e-02 6.19583368e-01 3.56144398e-01 2.29770690e-01 5.08777797e-01 9.64084029e-01 -2.91630208e-01 7.20690966e-01 7.26603484e-03 -6.38182342e-01 1.74944624e-01 -4.78634298e-01 -3.78402352e-01 1.06004253e-03 1.00182593e-01 -5.57542384e-01 -6.04266822e-01 1.93656817e-01 4.04678547e-04 -1.93200936e-03 6.35394752e-01 2.98413694e-01 6.08836114e-01 1.02341197e-01 -8.44305158e-02 -2.76351452e-01 8.45947936e-02 2.62886941e-01 3.76514018e-01 -4.20849696e-02 -6.41552806e-02
-3.74528646e-01 -5.88696957e-01 1.63777399e+00 8.66323858e-02 -1.17812634e+00 -9.11002234e-02 -1.19993222e+00 -1.02333426e+00 2.98925698e-01 1.08909011e+00 -3.62004153e-03 -4.70528722e-01 -2.97699988e-01 1.06874931e+00 7.08228827e-01 -2.30550194e+00 1.03611059e-01 -3.06328297e+00 1.85665739e+00 7.82655418e-01 -5.28320312e-01 1.79834390e+00 -3.34389597e-01 2.66697705e-01 3.55070204e-01 -7.02889442e-01 -2.53212988e-01 4.41833735e-01 1.36387974e-01 3.91879827e-02 7.90767014e-01 1.39332846e-01
2.57622823e-02 -1.86853595e-02 6.32359758e-02 3.96984816e-02 3.99755299e-01 -5.88050019e-03 2.18965448e-02 1.29201543e-02 4.66753095e-02 -1.87132731e-02 -1.11160837e-02 -7.31545463e-02 1.04037479e-01 -4.86503495e-03 -1.68653962e-03 -6.19410016e-02 4.22488060e-03 -3.72298062e-02 -5.65228872e-02 8.45890269e-02 1.40180796e-01 4.21302207e-02 -1.56068290e-02 -4.18715412e-03 -1.30009711e-01 -1.42982706e-01 1.39692966e-02 3.46321136e-01 -4.28882986e-02 -6.01774715e-02 2.16949582e-02 -2.46902972e-01
-3.99297178e-01 1.26382694e-01 -8.88854563e-02 -1.25690356e-01 -3.17483693e-01 -1.07615059e-02 -7.11238682e-02 7.26450384e-01 -3.00594363e-02 -4.10982408e-02 -2.33859524e-01 7.79441178e-01 5.49260139e-01 3.35871875e-01 1.55670896e-01 2.22336706e-02 -8.97395983e-02 -3.68202967e-03 -1.55598968e-01 1.93073619e-02 -1.29045442e-01 -5.88352382e-01 -2.15669677e-01 -2.62671649e-01 -3.03993762e-01 -1.30890876e-01 -6.62532866e-01 4.01067972e-01 -2.12177545e-01 -3.07983786e-01 -2.60994017e-01 4.76370424e-01
1.02294481e-03 -2.20768467e-01 6.78583682e-01 2.54066855e-01 -8.02627385e-01 2.58566201e-01 2.74757743e-01 -6.40593171e-01 5.54869413e-01 3.11486304e-01 -1.10303871e-01 4.30155188e-01 -9.38581079e-02 1.45646796e-01 2.12735772e-01 -2.23571157e+00 8.80341828e-02 -1.23873425e+00 1.79315880e-01 1.63208380e-01 -3.53298783e-02 2.34249488e-01 2.73037553e-01 1.65351897e-01 -1.49928987e-01 -5.41586459e-01 -8.10758770e-02 -2.12223098e-01 -4.71243322e-01 -4.89850640e-01 4.18097079e-01 -3.88868183e-01
-1.77444816e-01 6.42954111e-02 -1.33845717e-01 1.17252484e-01 -1.42242342e-01 -4.59039994e-02 3.22364807e-01 -1.60410136e-01 -5.95335305e-01 1.70994818e+00 -4.04263884e-01 -4.50873598e-02 -2.36945242e-01 1.28638232e+00 -2.66683012e-01 7.41020357e-03 5.63160628e-02 -3.88058461e-02 -1.06643587e-01 -2.62914002e-01 1.63375791e-02 2.35820428e-01 -7.70593286e-02 -2.01372698e-01 -1.91601679e-01 1.00710876e-01 3.96591365e-01 4.73816663e-01 1.65912271e-01 -4.97582257e-01 3.04035008e-01 -4.28938717e-02
-1.49532124e-01 -2.34434471e-01 5.85271955e-01 5.09577870e-01 -1.54238492e-02 -3.35209280e-01 -1.07742631e+00 1.25852436e-01 2.26608798e-01 4.59356040e-01 1.13543846e-01 -8.49973634e-02 8.69566128e-02 2.26051211e-01 -2.07008854e-01 5.94474494e-01 -1.46167791e-02 3.07376951e-01 -1.60575300e-01 -3.52314293e-01 9.38750267e-01 3.62530887e-01 3.91404063e-01 -5.85300505e-01 8.24903995e-02 6.91200979e-03 -1.74742892e-01 2.41736665e-01 -1.23459727e-01 3.61483455e-01 -1.26997203e-01 -3.68162900e-01
1.27204251e+00 -3.87112260e-01 5.30461550e-01 9.62033272e-01 -5.42027056e-01 2.39738092e-01 -6.92782521e-01 -6.34667993e-01 6.99935436e-01 -6.64945364e-01 -2.94070452e-01 7.48923540e-01 -1.22758675e+00 -1.51240781e-01 6.85067475e-01 -6.59847856e-01 -8.61353800e-02 -4.45729792e-01 8.74343395e-01 7.43450522e-01 2.86423087e-01 -4.47288960e-01 -2.05262923e+00 -5.15829563e-01 4.35736805e-01 5.42208612e-01 -8.23761582e-01 -2.89979219e-01 -2.70171374e-01 1.23849523e+00 -5.23200572e-01 -2.73353755e-02
-1.47971343e-02 1.73803627e-01 -4.97417115e-02 -4.79568392e-02 -1.58474132e-01 -3.07667833e-02 5.42838164e-02 -3.96404229e-02 -5.61292879e-02 -2.58940086e-02 4.16399911e-02 9.46898758e-02 8.57440904e-02 -6.05936050e-02 1.73846990e-01 -1.50432497e-01 1.01353608e-01 1.52549893e-01 -2.09274776e-02 -2.79488951e-01 1.34101406e-01 2.89270580e-02 -8.05082731e-03 -2.29308084e-02 -3.02038610e-01 -3.80502641e-02 2.09751818e-02 -7.90253133e-02 -1.80120897e-02 -7.21282279e-03 -1.73803996e-02 -2.18693137e-01
4.42231111e-02 2.63524294e-01 1.78776300e+00 4.07418579e-01 -1.50905108e+00 2.23975673e-01 -2.12732136e-01 -6.17842793e-01 8.47874105e-01 5.95314205e-01 1.59282744e-01 -3.37279379e-01 -8.67042303e-01 8.60742629e-01 1.09586746e-01 -3.91801834e+00 -2.46564031e-01 -4.96861601e+00 5.37589848e-01 1.38244420e-01 -1.12684226e+00 1.07664442e+00 4.12047595e-01 1.36283413e-01 1.70906886e-01 -1.38040185e-01 -5.62329233e-01 6.27056539e-01 -2.41988942e-01 -4.16558050e-02 -1.63776625e-03 7.68723115e-02
-8.09436262e-01 1.81273684e-01 1.48957774e-01 -7.53219903e-01 -6.59967139e-02 -1.46933720e-01 -2.38123372e-01 5.06611526e-01 -4.63444404e-02 -1.00307474e-02 1.05480850e-01 -2.86207229e-01 4.50674504e-01 4.52231169e-01 -3.88979942e-01 -4.39710796e-01 2.17328846e-01 -2.94489443e-01 -3.43784839e-01 1.85713038e-01 7.44279325e-02 7.07213581e-01 2.41589099e-01 -2.65845746e-01 -8.33352283e-02 3.29587102e-01 -7.22760618e-01 8.14905837e-02 1.01727650e-01 -5.75112045e-01 -1.43522784e-01 -7.74915278e-01

layers.2.bias:
-1.41846550e+00
-8.24753344e-01
5.67753017e-01
-5.91568172e-01
1.65103689e-01
-4.06233311e-01
2.68476993e-01
2.19476151e+00
7.38753676e-01
8.25178564e-01
-9.17198300e-01
-1.46438515e+00
-4.73124623e-01
9.71604526e-01
-3.29550713e-01
-7.20396698e-01
-6.17125146e-02
-8.12105119e-01
3.71411711e-01
-8.50275904e-02
-1.03550576e-01
8.17027450e-01
9.22723055e-01
-1.59186855e-01
-3.76185209e-01
1.05846119e+00
-1.03734958e+00
-1.07236350e+00
5.28126121e-01
-1.21980333e+00
7.48175904e-02
-5.28497715e-03
7.95807898e-01
1.11649260e-01
-3.83138359e-01
-2.05833074e-02
-9.42935795e-02
1.38578343e+00
1.02023768e+00
-9.42185819e-02
1.00393641e+00
-2.50745624e-01
-5.37003815e-01
1.63166761e+00
2.49823153e-01
-9.60944593e-01
1.04592061e+00
-3.52088034e-01
8.48158300e-01
1.80346072e+00
2.54870027e-01
3.23536396e-01
1.05160832e-01
-7.32654750e-01
8.44785050e-02
-2.08164770e-02
8.14464092e-01
-1.41663149e-01
-5.27171232e-02
-6.74272954e-01
6.52851045e-01
6.72576204e-02
-3.55140537e-01
7.10385263e-01

layers.4.weight:
3.94074291e-01 7.17247874e-02 -7.02049956e-02 3.29118557e-02 -8.17135200e-02 9.10699442e-02 1.32774410e-04 -7.56727099e-01 -7.50460178e-02 -4.12461132e-01 4.56964597e-02 9.52688634e-01 -2.36486769e+00 -1.55438423e-01 -1.17210560e-02 -1.38720787e+00 -5.08767320e-04 9.26371217e-02 -4.04655263e-02 1.05609564e-04 -2.90524140e-02 -1.34624094e-01 -5.15431352e-02 1.83258638e-01 -4.19590510e-02 -6.15475737e-02 6.30697906e-02 8.82152498e-01 -3.78863841e-01 4.10192668e-01 -3.21294703e-02 -8.31593797e-02 -8.38213116e-02 4.96939174e-04 1.12026408e-01 2.94244946e-05 -1.52331532e-03 -2.44887337e-01 -8.67426321e-02 2.13349000e-01 -6.18274212e-02 3.18407655e-01 5.48001826e-02 -1.55322835e-01 5.74719044e-04 1.06916957e-01 -8.87571648e-02 -4.20356810e-04 -8.36107582e-02 -7.12441564e-01 -9.98027399e-02 1.15112495e-03 1.41598808e-03 5.97555004e-02 -1.41780543e+00 1.96859182e-04 -3.50457579e-02 -3.84269744e-01 -4.62190285e-02 7.00937361e-02 -5.11715859e-02 -4.61225747e-04 9.11745310e-01 -4.11492921e-02

layers.4.bias:
-1.13801730e+00

