layers.0.weight:
3.31696361e-01 -5.67613244e-01 7.97264636e-01
5.69172144e-01 -8.09445798e-01 -5.80563486e-01
-8.31293464e-02 -6.13938749e-01 -5.77727258e-01
-1.07055378e+00 1.15616508e-01 4.58123112e+00
2.67282110e-02 4.11940843e-01 1.16166264e-01
-5.79876065e-01 8.58121514e-01 -1.84879377e-01
-1.31842160e+00 4.86020595e-01 -9.88645032e-02
-6.01682402e-02 7.88846374e-01 -9.23566997e-01
6.03414774e-01 -9.26082134e-01 5.12713566e-02
-1.11527514e+00 5.86289167e-02 -1.64189592e-01
7.53551662e-01 -9.85680073e-02 1.41279221e+00
-7.16238439e-01 -1.31785080e-01 -1.29353356e+00
-4.30584475e-02 7.12955832e-01 -1.57757306e+00
-1.16726887e+00 2.10410804e-02 5.00053525e-01
-6.46977663e-01 1.09646142e+00 7.52028525e-01
-1.81771189e-01 9.48456824e-01 1.64468549e-02
5.46070874e-01 -6.33792400e-01 -1.45019031e+00
-1.15504665e-02 1.12846863e+00 1.84981868e-01
8.07071701e-02 -9.54183042e-01 5.35116851e-01
3.41117471e-01 -1.28724232e-01 -8.64976227e-01
2.23475501e-01 1.65966094e-01 -5.10879010e-02
-3.24195027e-01 -2.56797969e-01 -1.00232065e+00
-4.64660525e-01 1.65601885e+00 -4.46076952e-02
-1.56447518e+00 4.06930357e-01 1.75152493e+00
1.05132234e+00 3.79940838e-01 -7.78481364e-01
2.59609371e-01 6.71772659e-01 -1.17486012e+00
-1.16151750e-01 -2.13369340e-01 1.90187418e+00
-3.97779703e-01 -2.44972542e-01 1.92939892e-01
3.22416067e-01 7.57217348e-01 -1.46468067e+00
-1.04933763e-02 4.65525806e-01 1.70563948e+00
-2.89658904e+00 2.84448242e+00 -1.78299040e-01
-1.26738083e+00 -5.19488692e-01 1.02004325e+00

layers.0.bias:
8.77201200e-01
4.81547834e-03
-1.42384720e+00
-6.34384930e-01
7.07518518e-01
-2.04255387e-01
-3.54310095e-01
2.86240637e-01
-7.45998621e-01
-1.59115899e+00
1.64644122e-01
1.80825554e-02
2.46107668e-01
-1.21306002e+00
-2.90836543e-01
1.43946290e+00
9.34610724e-01
1.82654703e+00
-6.68276668e-01
5.78918040e-01
-1.44309163e-01
-1.35729384e+00
1.02535832e+00
-7.05530941e-02
1.36946186e-01
5.60703695e-01
8.80503118e-01
-1.57881156e-01
-4.88352716e-01
7.31267482e-02
8.91685039e-02
-6.70209900e-02

layers.2.weight:
-4.10596251e-01 2.77845681e-01 1.70459539e-01 -5.07747054e-01 -3.82410228e-01 -8.07197094e-02 3.35780866e-02 -1.79872457e-02 1.40227199e-01 2.86113238e+00 8.04684982e-02 9.01485607e-02 -1.98746592e-01 2.35319853e+00 -2.81535685e-01 1.90019399e-01 -3.48526537e-02 2.88526326e-01 1.12836890e-01 -2.55605549e-01 2.61259377e-01 -3.68084200e-02 -6.73189640e-01 5.74860156e-01 -5.15398718e-02 6.47059500e-01 -8.18053901e-01 -1.71574295e-01 -8.88602957e-02 -2.46225327e-01 -3.91422480e-01 2.25264445e-01
-6.17692359e-02 1.51597738e-01 -8.59277070e-01 3.32536846e-02 -3.63434404e-01 1.22438341e-01 -7.53478706e-01 -4.72155780e-01 5.62747717e-01 6.55325055e-01 3.21940929e-01 -2.45512933e-01 2.63160169e-01 -3.80527787e-02 -2.99770921e-01 2.56101489e-01 -3.35411847e-01 3.51938397e-01 -4.48141366e-01 -4.56740856e-02 6.32140636e-01 -1.31508112e-01 -4.16343391e-01 -7.04382807e-02 1.84718221e-02 -5.77652529e-02 -3.44019979e-01 -5.48969328e-01 8.60683918e-02 -2.39891589e-01 -1.64797977e-02 1.73773259e-01
1.02201343e-01 2.23525852e-01 2.96589196e-01 -6.14352167e-01 -1.05823648e+00 -1.72254503e-01 -6.18104696e-01 1.84133515e-01 6.32050872e-01 7.57325172e-01 -4.04674709e-01 -2.39314958e-01 2.32137572e-02 1.64197817e-01 -3.25597018e-01 -1.09855199e+00 -2.96866804e-01 -9.76850212e-01 4.87407297e-02 1.71355233e-01 -2.11631745e-01 -1.82423964e-01 2.59433717e-01 -1.59339845e+00 -2.16534927e-01 2.83637762e-01 -1.03404891e+00 -2.31163651e-02 2.77539670e-01 -2.36102477e-01 -6.64961189e-02 3.48260373e-01
3.36861193e-01 2.00559963e-02 -3.26420460e-03 1.43495262e+00 5.20769238e-01 2.93998241e-01 5.70379138e-01 -3.31804335e-01 -5.46053946e-02 -1.30283937e-01 2.49488696e-01 -1.51836768e-01 -6.65657997e-01 7.49384761e-02 5.32172322e-01 6.35213017e-01 -2.14585990e-01 6.18834674e-01 4.13508534e-01 -8.87793720e-01 -8.85850251e-01 -2.37498134e-01 2.79287308e-01 1.33905780e+00 -5.16237795e-01 -6.42078996e-01 5.87074041e-01 2.56954461e-01 -7.56206870e-01 -6.96650222e-02 -1.11704960e-01 5.45790553e-01
1.13950051e-01 -3.22790444e-01 3.20268542e-01 -4.59378570e-01 -1.65131271e-01 -3.49130899e-01 -1.48436332e+00 1.35363474e-01 5.52727461e-01 -5.50589561e-01 4.20094728e-01 -7.37411141e-01 8.10974896e-01 -7.55785882e-01 -1.09659463e-01 -1.09834313e+00 -3.28452051e-01 -1.04422295e+00 -3.06302793e-02 -1.04811162e-01 8.95438850e-01 -5.53103864e-01 9.31027234e-02 -3.55317682e-01 -6.25133038e-01 6.45082653e-01 8.48499909e-02 -6.55570090e-01 -2.16453671e-01 6.05284333e-01 -2.32609510e-01 -1.60645932e-01
-3.21693748e-01 3.25819016e-01 3.05205435e-01 1.53916433e-01 -7.31214225e-01 -3.72912675e-01 -3.64403963e-01 3.06755215e-01 3.22918296e-01 -6.53768927e-02 6.18489921e-01 3.29307079e-01 -6.54675141e-02 -3.26140761e-01 -4.99388516e-01 -9.66568172e-01 -3.04954261e-01 -1.20193601e+00 6.44366384e-01 -2.00922877e-01 -6.72009110e-01 -5.95263280e-02 -6.88933969e-01 -2.14975864e-01 -1.81226786e-02 1.07796110e-01 1.40855744e-01 1.13365149e+00 -1.70569643e-01 -4.51711804e-01 -4.34756935e-01 4.13726717e-01
1.17889268e-03 -2.14206763e-02 -2.32392728e-01 -1.56130707e-02 -1.27577171e-01 1.71203241e-01 -6.39044642e-02 -4.10302013e-01 -9.48744044e-02 2.03275487e-01 3.18489552e-01 3.35351638e-02 2.94903427e-01 -4.43232851e-03 -3.79747618e-03 -3.12829494e-01 1.66677497e-02 1.05764188e-01 -2.86011957e-02 -3.07384551e-01 -3.59304309e-01 7.89874867e-02 5.55296578e-02 3.75028253e-02 1.56031519e-01 2.71245837e-01 -3.68322670e-01 -4.44421351e-01 -1.34471536e-01 6.56804442e-02 -5.34126684e-02 1.49839833e-01
3.19826275e-01 1.73449606e-01 -3.13872010e-01 3.62523854e-01 1.02964990e-01 -6.79483771e-01 1.31970674e-01 4.71488684e-01 1.99307084e-01 -1.53767824e-01 -1.26990587e-01 9.67939377e-01 3.05864185e-01 -4.61420000e-01 -2.41165116e-01 1.83615461e-02 5.12445271e-01 2.68929005e-02 3.19548100e-01 4.77113485e-01 -1.46410728e+00 -8.54793966e-01 4.77749743e-02 2.84375966e-01 1.85639322e-01 7.33274460e-01 6.09188735e-01 5.62199354e-01 -6.18802845e-01 4.96626377e-01 1.62346423e-01 -2.47242048e-01
-4.12425362e-02 1.14741333e-01 -5.68332136e-01 -2.51878202e-01 1.50410068e+00 -2.58380026e-01 -6.45836055e-01 -2.85329700e-01 -9.08347607e-01 1.38525307e-01 4.91395354e-01 9.98868346e-02 6.90202951e-01 -3.67203474e-01 3.05178553e-01 2.07426238e+00 2.75512487e-01 1.64249170e+00 -7.10454583e-01 -1.23234868e-01 2.82970637e-01 -2.67442256e-01 3.73171151e-01 2.39176154e-01 1.51420981e-01 4.06515241e-01 4.86814380e-02 -1.19970329e-01 4.95956205e-02 1.81371301e-01 2.32879329e+00 -4.07340497e-01
-6.44871831e-01 1.12284951e-01 -9.09015164e-02 -5.49473047e-01 4.88087684e-01 5.34246825e-02 -9.75980312e-02 4.02637213e-01 4.03480440e-01 -1.72711074e-01 -6.92485319e-03 2.32382625e-01 2.11225361e-01 1.19449034e-01 -3.26741695e-01 -4.62821722e-01 3.63352478e-01 -2.97303647e-01 -4.50133085e-01 2.72516068e-02 -5.79345703e-01 -2.07601637e-01 1.59184322e-01 -1.08531550e-01 -1.59810603e-01 -6.20498173e-02 -2.00951919e-01 1.52942926e-01 2.90979773e-01 1.41916335e-01 1.29762262e-01 -5.31158037e-02
1.08342245e-01 -3.03136855e-01 -7.54731745e-02 -3.92189384e-01 -4.52406913e-01 -3.28575343e-01 -2.90364772e-01 1.82313055e-01 4.39078093e-01 2.66782582e-01 -5.60525656e-01 -8.31595659e-02 8.86607647e-01 -3.56935501e-01 -2.13593781e-01 -2.78515309e-01 -6.07561350e-01 -8.47622931e-01 -6.45203739e-02 -7.58710504e-03 1.01650238e+00 -2.30419546e-01 -8.57839644e-01 1.38218507e-01 -1.31668240e-01 -2.87401248e-02 -4.63741720e-01 -5.16435504e-01 3.22757900e-01 -4.27049309e-01 -2.68518608e-02 4.05391335e-01
-1.33619353e-01 -9.88697484e-02 1.71431935e+00 -8.61449540e-01 -1.03320634e+00 1.43427804e-01 -8.63614085e-04 -3.84290457e-01 2.12846681e-01 2.46700072e+00 2.46716607e-02 9.16136242e-03 2.84700662e-01 3.25517988e+00 9.52772982e-03 -9.66979802e-01 2.74351656e-01 -2.82098055e+00 5.73151708e-01 -3.67492825e-01 3.01873833e-01 6.00829840e-01 -3.36337417e-01 8.53864610e-01 -1.26879169e-02 -5.50764501e-01 3.02108407e-01 -1.39864609e-01 1.34605378e-01 4.05096598e-02 1.38337478e-01 -4.07653600e-01
-6.82613075e-01 -8.43760446e-02 9.70589757e-01 3.55813771e-01 -6.94163740e-01 6.33377969e-01 8.56842846e-02 -8.70284677e-01 3.73068273e-01 4.56123143e-01 2.25978181e-01 8.15200210e-02 -4.48449016e-01 -4.55988646e-02 3.66378337e-01 -4.33376932e+00 -2.25672498e-02 -6.07171059e+00 5.56728840e-01 -9.37830687e-01 -6.82539165e-01 4.86498624e-01 6.33541048e-01 -1.09068513e-01 -3.25794756e-01 -1.96846321e-01 -4.10455525e-01 6.49722993e-01 -6.21137083e-01 -3.81949425e-01 -1.28719842e+00 -2.22724393e-01
6.03774786e-02 -1.94118991e-01 -6.24912500e-01 -8.10393617e-02 -9.46762040e-02 -6.76347129e-03 2.36348346e-01 3.30009311e-01 3.01042110e-01 -2.39074767e-01 4.98462111e-01 -1.63033992e-01 3.44923347e-01 -8.14993024e-01 -2.42336392e-01 1.77537370e-02 -2.50259966e-01 2.96411455e-01 -9.18576121e-02 1.35974526e-01 -4.19511311e-02 -1.27812847e-01 1.30107820e-01 -2.35446990e-01 -1.26611933e-01 7.68068373e-01 -2.08709519e-02 5.78587912e-02 -1.92177683e-01 2.47711629e-01 1.35059670e-01 3.52342695e-01
-9.68521535e-01 2.33141273e-01 -4.69301008e-02 2.64730573e-01 -1.88993737e-01 6.26534283e-01 -3.13725859e-01 -3.14342007e-02 3.81174862e-01 -2.38854975e-01 -8.37576270e-01 3.14457953e-01 2.30661720e-01 -4.19126868e-01 -2.97527850e-01 -6.25379622e-01 3.01955670e-01 -6.42959297e-01 -4.55494434e-01 3.92785817e-01 1.32797635e+00 9.86687660e-01 -4.46230471e-02 1.23782516e-01 -3.43809932e-01 1.81551859e-01 -6.66164398e-01 3.51606384e-02 8.43579054e-01 -3.20726484e-01 -5.61332479e-02 1.19424455e-01
-5.67948580e-01 -2.53552254e-02 9.75093544e-02 1.18896417e-01 -3.59442919e-01 2.90894389e-01 -9.44931448e-01 -6.81240037e-02 1.19769648e-01 5.19742107e+00 5.51806509e-01 4.34363008e-01 2.35953897e-01 2.63097978e+00 -4.31733727e-02 -4.65185083e-02 -4.01211798e-01 -1.57652840e-01 3.05178780e-02 -1.86170176e-01 -7.05407023e-01 4.33550358e-01 1.91364169e-01 2.48874515e-01 -3.92811775e-01 -4.08132821e-01 -6.50325298e-01 3.37076396e-01 -9.16233957e-02 -6.77599311e-01 1.16849758e-01 -2.40579963e-01
-1.21494895e-02 1.73830152e-01 -4.11045887e-02 4.24501374e-02 -3.55561450e-02 1.94718037e-02 -3.03521426e-03 -7.71513879e-02 9.03231930e-03 -1.57945931e-01 4.90327068e-02 5.70615828e-02 3.70345078e-02 1.09620750e-01 1.04973882e-01 2.27426551e-02 4.78213057e-02 7.82738253e-03 2.37553809e-02 1.04110613e-01 2.28489444e-01 1.43359303e-01 6.28746208e-03 1.81242451e-02 6.77333847e-02 5.28874155e-03 6.60623237e-02 3.07198137e-01 -1.00680590e-02 7.51850847e-03 1.51292840e-02 1.01919267e-02
1.52578786e-01 -7.98300281e-02 -5.45306087e-01 5.45877852e-02 -3.64407897e-02 -2.49140158e-01 -2.06041023e-01 -2.95461148e-01 3.73808801e-01 -6.61805034e-01 9.63101387e-02 -5.77068664e-02 1.99437529e-01 6.73801154e-02 -1.79380104e-01 -1.12838047e-02 -2.91468769e-01 2.53912657e-01 -1.28997847e-01 9.11404371e-01 2.88440824e-01 1.11272708e-01 -5.71074784e-01 -1.12991713e-01 -1.64319560e-01 -4.41220164e-01 8.47878218e-01 -5.00191867e-01 2.49771804e-01 3.12118858e-01 -1.89133078e-01 2.51428127e-01
-2.77465492e-01 -1.71132609e-01 -3.64013731e-01 -1.53998896e-01 5.91526747e-01 8.47209468e-02 5.99620789e-02 8.09286311e-02 3.75444025e-01 -4.41341639e-01 -1.05688117e-01 -1.01144433e+00 4.22001630e-01 -2.05210745e-01 -8.14649761e-02 3.41134369e-01 -2.01973915e-01 5.26838183e-01 1.53331742e-01 -1.31944343e-01 4.16998751e-02 -2.30372235e-01 5.97282350e-01 -2.67118663e-01 2.57845342e-01 1.46254539e-01 -1.24767214e-01 2.85054773e-01 5.62541047e-03 4.11356777e-01 4.10373986e-01 1.06280409e-01
7.39968866e-02 1.97349340e-01 2.43310537e-03 6.51673377e-02 -8.72465149e-02 1.08926147e-01 -5.43046407e-02 -9.04906616e-02 5.99609427e-02 8.65639374e-02 6.61893785e-02 1.14841998e-01 -6.50777668e-02 -7.35060796e-02 1.01744719e-01 4.50328916e-01 5.45443445e-02 -2.72076458e-01 7.22334161e-02 -9.97401476e-02 -1.12838797e-01 -1.23238474e-01 1.25132836e-02 -3.47762629e-02 3.39831635e-02 1.27170458e-01 1.78013800e-03 2.45934576e-02 1.06895491e-01 1.10596400e-02 9.39047430e-03 3.81538197e-02
5.12835979e-01 -1.42557636e-01 7.03715861e-01 4.95101333e-01 -2.67833382e-01 -2.44387433e-01 -7.09351063e-01 -9.58233401e-02 -3.20055753e-01 -8.80335331e-01 -1.21328771e-01 9.62184131e-01 5.25434554e-01 -4.90686506e-01 7.36411452e-01 6.18875325e-01 -6.24267608e-02 -1.67963579e-01 4.54862684e-01 4.83083725e-01 -4.95494246e-01 1.38860345e-01 5.63672543e-01 1.60699159e-01 4.91364747e-02 -3.39242101e-01 5.89042231e-02 3.74582916e-01 -7.66463503e-02 -1.11719504e-01 -2.86387862e-03 4.67845380e-01
2.72811204e-01 -1.14928611e-01 6.18101321e-02 1.98536828e-01 -2.93371323e-02 1.27307177e-01 8.47000182e-01 8.58612359e-03 5.63642800e-01 2.68779784e-01 3.79363120e-01 3.27523321e-01 -4.48089838e-01 -5.03502429e-01 1.05451286e-01 -1.15146923e+00 -9.60718170e-02 -7.77953982e-01 1.39750643e-02 -5.00647902e-01 -4.91650432e-01 -2.96465401e-02 1.94236264e-01 2.83579156e-03 1.31577924e-01 -4.72240776e-01 -6.58277452e-01 4.29652005e-01 -1.40084997e-01 -1.39069840e-01 2.28217781e-01 -1.45722017e-01
5.62048517e-02 8.71522948e-02 -2.02839866e-01 4.13072169e-01 -2.01481014e-01 3.38591754e-01 3.13487679e-01 -2.91591078e-01 -1.90836728e-01 3.96937877e-01 1.84731316e-02 9.71790850e-02 4.27658707e-01 5.29335976e-01 -2.56334007e-01 -8.84351671e-01 5.90632379e-01 -3.76629680e-01 1.35810554e-01 -2.49866068e-01 -3.47649723e-01 7.61807859e-02 -5.02374828e-01 1.50684386e-01 -3.17221761e-01 -1.23896606e-01 -4.98295352e-02 -4.63543355e-01 4.80220318e-02 -1.14062093e-01 -1.38146356e-02 -3.41494322e-01
7.32678771e-01 -1.46156251e-01 -3.04316670e-01 2.00263739e-01 2.40530372e-01 -3.88337970e-01 -6.02327362e-02 3.11269104e-01 2.05755040e-01 -2.70200777e+00 1.50990322e-01 1.07466228e-01 3.48542064e-01 -1.62045479e+00 2.48045281e-01 4.09706205e-01 7.73277879e-02 3.62884283e-01 -2.79723763e-01 -4.38103750e-02 5.35790741e-01 -2.50216454e-01 -1.26110062e-01 -2.69410596e-03 -3.36849511e-01 -2.20745593e-01 -2.52340678e-02 -2.07655117e-01 2.62818933e-01 1.45595908e-01 2.72817072e-02 -2.11474150e-01
-6.75221741e-01 9.53743905e-02 -1.30697295e-01 1.15315825e-01 2.57881284e-01 -4.21628177e-01 1.05772042e+00 -1.46159247e-01 -1.25797737e+00 5.78258216e-01 -7.90697098e-01 1.39294639e-01 1.69414684e-01 5.99557869e-02 -5.74612021e-01 9.90109205e-01 5.88199139e-01 8.89114320e-01 4.44912136e-01 4.08323519e-02 -5.60006559e-01 3.41206610e-01 6.14340842e-01 9.49545503e-01 -4.30795401e-01 5.19401133e-01 -6.18877888e-01 1.50399819e-01 8.17027092e-01 -4.57894921e-01 6.03666127e-01 -1.50452135e-02
-5.33153117e-01 6.00636840e-01 -5.74174114e-02 -1.29777804e-01 5.88722408e-01 1.58998281e-01 -7.12648174e-03 5.05980313e-01 -3.05083573e-01 4.76685256e-01 8.08931813e-02 -1.75675943e-01 2.07589507e-01 2.19256490e-01 -5.40209651e-01 -1.66653946e-01 -1.48860082e-01 -2.37448364e-02 4.02150005e-01 -3.95712167e-01 5.98958042e-03 -2.86254585e-01 8.26425757e-03 -5.30194342e-01 1.24109365e-01 -2.10327074e-01 -5.52667439e-01 -5.19161940e-01 1.57636821e-01 -3.51009697e-01 -2.67072171e-01 -2.97049850e-01
-1.67963877e-01 1.30234212e-01 4.14500147e-01 3.71351779e-01 -1.44467175e-01 -2.40964144e-01 -8.49515721e-02 1.47367995e-02 2.19265610e-01 -4.44059014e-01 -5.64563155e-01 -1.00009896e-01 -2.77496159e-01 -2.70546168e-01 1.53234974e-01 7.68827975e-01 -1.33539692e-01 3.04511577e-01 2.14169547e-01 1.91292644e-01 1.46371290e-01 -7.67659307e-01 2.85631895e-01 1.18325524e-01 2.76850671e-01 1.57981828e-01 2.24533677e-02 -6.29563510e-01 -2.52200633e-01 -1.03902571e-01 1.11901119e-01 -2.41345927e-01
-8.18874478e-01 4.59751278e-01 -6.49264038e-01 -1.00657213e+00 -1.39432281e-01 -2.11624801e-01 -2.93507248e-01 4.51344550e-01 8.44759196e-02 4.69102561e-01 -3.95165943e-02 1.68011293e-01 1.80999547e-01 2.77998298e-01 -5.67054329e-03 1.18280625e+00 6.83415949e-01 1.27314460e+00 -9.13864672e-01 7.09279031e-02 5.82858741e-01 -7.80305922e-01 -6.22002721e-01 4.10485893e-01 -2.37084553e-01 -4.32074070e-01 2.80482352e-01 2.58040160e-01 5.73126674e-01 -8.10161233e-01 1.86136693e-01 -1.40940145e-01
1.87956363e-01 -5.56578398e-01 -5.12929866e-03 -1.33342460e-01 -5.63424885e-01 5.56927264e-01 4.88818362e-02 -4.73731071e-01 4.95770246e-01 9.02200997e-01 -2.31897160e-01 1.04147755e-01 5.65359294e-01 4.09378737e-01 7.85829276e-02 -1.02121317e+00 -4.57624227e-01 -9.80666339e-01 3.20051089e-02 2.25872904e-01 2.77775407e-01 3.71200293e-01 2.77045071e-01 1.26950204e-01 3.05578202e-01 1.15668543e-01 -4.28413987e-01 -3.17436069e-01 -2.78617948e-01 -3.50077718e-01 4.71421838e-01 2.70715147e-01
-1.09970178e-02 -9.56733048e-01 3.31574231e-01 1.63154709e+00 9.35176313e-02 4.09738123e-02 -1.07168153e-01 -3.11255515e-01 -1.89960808e-01 2.28483498e-01 1.12434053e+00 -9.99884665e-01 -1.15101027e+00 -3.54998320e-01 1.51041478e-01 -1.96933955e-01 -1.22480690e+00 5.05614400e-01 6.81754470e-01 -7.43082285e-01 8.06198478e-01 1.48643240e-01 -5.70486449e-02 8.81835595e-02 -9.48409364e-02 -5.57077944e-01 2.52212465e-01 8.70565474e-02 -9.27035391e-01 1.30687487e+00 -6.48922086e-01 6.22238852e-02
-6.78768635e-01 -1.71824098e-01 2.86847264e-01 7.04583898e-02 4.80812155e-02 1.80701718e-01 1.87141895e-01 1.92416430e-01 -3.56049389e-01 -3.11362386e-01 -9.83812809e-01 3.01373363e-01 5.45331180e-01 2.61124484e-02 1.78302884e-01 -1.55863985e-01 3.78057361e-01 -6.67782873e-02 -2.86466837e-01 -3.06142658e-01 -5.49582839e-01 1.54142275e-01 -4.18372601e-02 -7.20245719e-01 3.48869741e-01 6.84104800e-01 -1.82165191e-01 -1.55349344e-01 -2.79993385e-01 -2.83268034e-01 -2.27781564e-01 -1.85508221e-01
-3.69483322e-01 -3.97251457e-01 -6.82916716e-02 -1.75706655e-01 -2.50990510e-01 8.89566541e-02 1.19914055e-01 3.01089168e-01 -6.29108071e-01 1.49001002e+00 -1.58499718e-01 -1.61180004e-01 -4.75871265e-01 4.56364006e-01 1.95504688e-02 2.76235603e-02 -9.12195945e-04 1.84678078e-01 -6.46418631e-02 -1.82631940e-01 3.25905979e-01 2.00069472e-01 5.36750853e-01 1.04501215e-03 1.20882578e-01 -2.97402628e-02 -2.17940792e-01 9.57408771e-02 3.13859373e-01 2.98156023e-01 2.24375248e-01 3.98189276e-02
-1.96545552e-02 -3.57736915e-01 2.72003077e-02 -1.23746797e-01 -3.95620435e-01 4.48927343e-01 -1.79232553e-01 -4.43630368e-01 1.00934990e-01 -3.06958646e-01 -1.37834363e-02 5.04516661e-01 2.19300821e-01 4.76059854e-01 3.39252204e-01 -5.67563176e-01 -4.60759789e-01 -1.24300492e+00 1.09716933e-02 -3.17877978e-01 -1.36336401e-01 8.79191101e-01 4.11238223e-01 5.87557614e-01 -4.35378402e-01 1.50085852e-01 1.08213402e-01 -2.23445415e-01 -3.77898574e-01 -2.83515871e-01 -2.60982048e-02 -1.19678497e-01
1.97399836e-02 -5.84952161e-02 1.32570237e-01 -1.06449768e-01 2.50596166e-01 -9.97170508e-02 3.94318365e-02 -3.20169181e-01 -1.77260563e-01 3.01390022e-01 1.61690563e-01 1.44819602e-01 9.42642912e-02 -2.87778229e-01 -7.21815675e-02 -2.80809373e-01 5.60262538e-02 1.78113550e-01 -1.73473448e-01 -5.33525169e-01 1.64649561e-01 -1.60835192e-01 -9.92500037e-02 -3.28255370e-02 -3.25008035e-02 2.25484967e-01 -7.78843760e-02 1.09475655e-02 1.19894423e-01 5.57505526e-02 -6.06583878e-02 2.13096607e-02
2.05739010e-02 -5.46810985e-01 -2.46553898e-01 7.48263299e-01 -2.85654634e-01 -4.68416840e-01 1.82225987e-01 -1.20944113e-01 -1.41520813e-01 3.17175412e+00 -5.91423094e-01 1.02287781e+00 6.67600572e-01 8.48000765e-01 7.43213773e-01 7.29766786e-02 4.66612875e-02 1.69194192e-01 5.51438570e-01 3.71273637e-01 2.51464605e-01 1.70633301e-01 -3.70389968e-01 1.03885055e+00 4.12730947e-02 1.56386048e-01 -3.24052393e-01 2.58770198e-01 1.32561147e-01 1.89341307e-02 6.93952382e-01 -6.17725253e-02
-1.37463182e-01 1.56726763e-01 7.70655796e-02 7.17289299e-02 9.40141529e-02 -3.97493057e-02 3.56243439e-02 1.51404455e-01 -1.03716748e-02 -7.93282613e-02 1.73791841e-01 7.06327707e-02 9.91654694e-02 -6.10424206e-02 1.84359193e-01 1.70549303e-01 5.06343022e-02 -1.60651758e-01 -9.20687988e-02 9.50922891e-02 -1.58820674e-01 -8.25928226e-02 -2.69537140e-02 3.27840708e-02 -4.85554606e-01 -2.12349579e-01 4.33849283e-02 -1.18855134e-01 -4.75363098e-02 -6.06375448e-02 2.40159640e-03 -4.33941334e-01
-2.86056101e-02 -1.07868657e-01 -1.00507952e-01 2.32779011e-02 -1.61325395e-01 2.67751943e-02 1.34819010e-02 2.02267841e-01 4.21241820e-02 -9.64277610e-02 -8.47696967e-04 -3.07669993e-02 -5.78156747e-02 1.01338448e-02 -4.40285206e-02 2.08065584e-01 -1.05802424e-01 -1.46706492e-01 -5.46804890e-02 3.31522524e-01 -2.37475231e-01 -1.33418053e-01 -6.45872951e-03 9.35329404e-03 5.37954411e-03 -7.97905251e-02 -6.69666305e-02 -6.81256205e-02 -3.59628424e-02 4.90357578e-02 -1.05432579e-02 4.66209790e-03
8.22406888e-01 -2.63841987e-01 4.30858433e-01 3.23095500e-01 -5.70398867e-01 8.08505435e-03 -5.47597110e-01 -2.30624992e-03 7.47545481e-01 9.33407098e-02 -2.27482110e-01 7.78561234e-02 7.11277798e-02 2.50933826e-01 7.41570354e-01 -9.53183651e-01 -4.46699023e-01 -9.71555829e-01 6.32631600e-01 -2.63736665e-01 -7.78405726e-01 2.96063513e-01 -1.59425244e-01 1.87017038e-01 7.74978757e-01 -3.03716920e-02 2.08807811e-01 -1.06900118e-01 -5.69103658e-01 2.09878147e-01 1.05477646e-01 1.22259140e-01
2.17685834e-01 -4.03457314e-01 -2.36914322e-01 4.43493128e-01 1.18599363e-01 -6.40729010e-01 3.74115817e-02 -1.27666175e-01 3.21367443e-01 -2.70768166e-01 -2.00697467e-01 4.19393629e-01 3.08077753e-01 -2.64724046e-01 2.47233674e-01 -8.15802515e-01 -3.48941535e-01 -9.12055671e-01 8.49679351e-01 -4.25934047e-01 -2.64285266e-01 -6.80402070e-02 3.13948333e-01 6.62388027e-01 -1.23468935e-01 -3.74975890e-01 4.80477929e-01 -1.99508611e-02 -2.21743569e-01 -3.86585981e-01 3.32533009e-02 2.05660328e-01
2.11626485e-01 5.62218279e-02 7.29670823e-01 9.59718674e-02 -1.33519495e+00 -4.82206672e-01 1.07532293e-01 -1.73697978e-01 9.12211478e-01 7.34547138e-01 -1.88095614e-01 -2.34118789e-01 1.55306337e-02 5.47106445e-01 -7.94485807e-02 -2.66619158e+00 -2.43338242e-01 -3.25659347e+00 2.81015366e-01 4.26025018e-02 -8.52241039e-01 5.87448001e-01 8.81331135e-03 1.26143634e-01 2.99606532e-01 1.37084618e-01 3.26157987e-01 1.32880926e-01 -1.23693332e-01 -7.93170989e-01 -2.65526831e-01 1.08096465e-01
-1.42275527e-01 -2.68531561e-01 -2.60592490e-01 -2.47064680e-01 -3.13378721e-01 5.38042426e-01 1.56857103e-01 -1.56731382e-01 -9.23285782e-02 4.10236120e-01 -1.81430846e-01 1.70646593e-01 2.10970286e-02 -1.93724230e-01 -1.13340244e-01 -5.62911630e-01 2.58395761e-01 -6.40640259e-01 -2.10466027e-01 -2.55501643e-02 -3.74622494e-01 3.66933018e-01 -1.78079814e-01 3.93672019e-01 3.49443793e-01 -5.56427896e-01 5.17421603e-01 1.20343514e-01 2.73943767e-02 1.66574165e-01 -4.83964346e-02 3.66431884e-02
3.55273217e-01 6.84653223e-01 6.62836611e-01 -3.70002270e-01 8.32925364e-02 1.55072883e-01 1.84856430e-01 -1.01534791e-01 -7.82309532e-01 1.07889593e+00 -2.48333886e-01 -2.64895648e-01 -4.65891451e-01 1.15246749e+00 1.22989617e-01 6.25611693e-02 8.73702671e-03 -1.01159334e+00 2.44543269e-01 -3.15259546e-01 8.20237920e-02 6.70054853e-01 -1.97139710e-01 -3.65555108e-01 6.51862681e-01 -7.88287580e-01 5.20815134e-01 -9.20674577e-02 -2.47897461e-01 -5.73573470e-01 -1.56422574e-02 -4.64720875e-01
-1.01803370e-01 -4.24569428e-01 1.85691103e-01 -2.30253443e-01 -5.87831400e-02 2.13964775e-01 1.95553526e-01 -2.02184200e-01 -9.12168443e-01 -2.86135405e-01 -1.70945019e-01 7.17556328e-02 -4.00483906e-02 3.53430092e-01 5.92978716e-01 5.62144995e-01 2.87177473e-01 -2.57952183e-01 -1.16344720e-01 2.05419734e-01 -2.21476004e-01 3.43920171e-01 -2.10349590e-01 1.14347205e-01 1.47217941e-02 -1.92172170e-01 3.49514693e-01 6.60881341e-01 -3.00084233e-01 -5.09636462e-01 5.71153283e-01 2.69057482e-01
-1.31295276e+00 1.49508432e-01 1.80603012e-01 -1.36811996e+00 -6.37811199e-02 -3.20808985e-03 9.40703601e-02 6.03740275e-01 1.15990669e-01 3.18892330e-01 -1.02474034e+00 6.81739569e-01 1.14822114e+00 2.58701533e-01 -6.10416651e-01 3.75019878e-01 6.42320693e-01 -3.24815542e-01 -3.72456998e-01 1.10491598e+00 -4.75365639e-01 -2.49655873e-01 -2.50568390e-01 -1.35584787e-01 6.80557430e-01 1.05833936e+00 7.99819291e-01 5.40680587e-01 5.62821805e-01 -1.08346808e+00 1.48446113e-01 1.38496473e-01
-1.07913658e-01 8.40327814e-02 3.05077493e-01 -6.21273294e-02 3.38687569e-01 -1.00837961e-01 -9.49999224e-03 4.33072969e-02 -4.15206477e-02 1.66335344e-01 3.65774930e-02 -3.78757832e-03 3.05998465e-03 -1.02252029e-01 7.38883987e-02 -1.40145496e-01 7.89874718e-02 8.40288699e-02 4.78134351e-03 -4.17171121e-01 1.55574486e-01 -1.03004679e-01 1.77891478e-02 1.57899819e-02 1.30983263e-01 -3.95186199e-03 5.88036776e-02 1.37440950e-01 4.73320410e-02 -1.02371842e-01 -4.21104766e-02 6.92847744e-02
-1.23105124e-01 1.13304980e-01 2.49817938e-01 -6.84660375e-02 2.32720628e-01 1.36604711e-01 5.93390226e-01 2.70066172e-01 1.96858793e-01 -1.37213516e+00 -2.94447064e-01 4.81976360e-01 6.09487295e-01 -3.64063799e-01 -3.22804809e-01 -1.23568349e-01 3.70250374e-01 -2.85623461e-01 -2.45688837e-02 -6.55767560e-01 1.13190520e+00 -3.53405923e-01 1.02087066e-01 -1.24428582e+00 1.35239780e-01 4.87632751e-01 -9.50583220e-01 -1.10324860e+00 3.94412458e-01 -5.81286028e-02 -2.17460424e-01 -4.19045895e-01
6.85826004e-01 -3.08357894e-01 -2.25877956e-01 4.50777411e-01 -2.26666465e-01 -1.00520931e-01 -1.86525494e-01 -2.50580728e-01 5.92968464e-01 -1.36329666e-01 -1.05603307e-01 -5.73420562e-02 7.38374650e-01 -3.48435611e-01 3.60306829e-01 -6.72291279e-01 -3.73873599e-02 -7.43397772e-01 7.73776352e-01 -8.31309706e-02 -3.43165368e-01 1.23836532e-01 1.21555656e-01 1.58275828e-01 2.97576897e-02 -2.39160329e-01 8.07737947e-01 5.04723549e-01 -4.58786786e-01 3.47114086e-01 1.10135943e-01 2.08385050e-01
-2.39339426e-01 3.39384288e-01 -1.77027628e-01 -3.81698161e-02 -5.52235961e-01 -1.96304187e-01 1.32050797e-01 4.65291440e-01 -1.12286605e-01 -5.43848634e-01 -1.97560355e-01 6.91049406e-03 -3.47665638e-01 1.51804358e-01 2.61476755e-01 -1.45507842e-01 -8.28999877e-02 2.27499619e-01 -7.22672511e-03 3.68968070e-01 -2.61050731e-01 -4.67970483e-02 2.36403453e-03 -5.38643152e-02 -1.22063927e-01 -1.10415086e-01 2.80376703e-01 -2.63770074e-01 9.49388668e-02 1.38074001e-02 1.19675705e-02 1.81415841e-01
4.76169251e-02 -5.07348418e-01 -3.70699912e-02 -1.28556252e-01 -1.84226424e-01 -1.56590551e-01 -8.55837241e-02 -1.64970830e-01 -3.00417632e-01 4.88742888e-01 -2.99470723e-02 9.22064707e-02 3.74349684e-01 3.30764621e-01 -1.61597580e-01 -7.46063888e-01 -1.89055532e-01 -2.29952902e-01 2.82164179e-02 6.86609223e-02 1.11803964e-01 -6.92078983e-03 5.38548172e-01 1.49311647e-02 -3.20954114e-01 2.49489367e-01 3.15689415e-01 6.30467534e-02 -5.11890166e-02 1.03759624e-01 -8.91249701e-02 -2.69259363e-01
1.09675741e+00 1.12637073e-01 -5.47639668e-01 2.30569437e-01 7.18006790e-02 2.73209270e-02 3.99434716e-01 8.36519226e-02 -2.08970934e-01 -9.74351883e-01 -7.95098424e-01 1.31729388e+00 4.79174256e-02 -9.51605678e-01 2.05707833e-01 4.13043469e-01 5.80757633e-02 3.73101115e-01 -3.56861725e-02 1.05199069e-01 -1.53188276e+00 -4.13871109e-01 -8.74399245e-01 -3.29260886e-01 -3.75525117e-01 -3.02151423e-02 2.83132583e-01 5.60676873e-01 -9.69505087e-02 9.09571797e-02 -1.44387573e-01 4.44939196e-01
-2.05698892e-01 7.84737617e-02 -9.06800568e-01 -6.42770529e-02 2.33484954e-01 4.36810762e-01 -8.55428725e-02 3.58375497e-02 1.39286086e-01 4.80179638e-01 -3.89401942e-01 -1.25943434e+00 3.72987092e-01 2.06578538e-01 -2.71098852e-01 4.71515626e-01 -4.62096035e-02 1.32298493e+00 -4.45522338e-01 1.07189126e-01 4.00509328e-01 -1.05842680e-01 4.19305526e-02 6.51749134e-01 -1.96075186e-01 7.72009254e-01 -9.38559622e-02 -3.50832760e-01 1.28250957e-01 1.32855967e-01 5.85315466e-01 -1.50139853e-01
2.93038283e-02 3.52043629e-01 -1.96614727e-01 -5.77200234e-01 -5.40864505e-02 7.33792901e-01 3.18828940e-01 7.48010397e-01 3.10914427e-01 3.52465957e-01 9.72560525e-01 -2.74677008e-01 4.47657108e-02 3.28815699e-01 6.20131567e-02 -7.07233906e-01 2.69080520e-01 -1.04079116e-02 -2.65823960e-01 -5.77001035e-01 -9.02915001e-02 -2.63941616e-01 2.49224231e-01 1.69119135e-01 -2.78589189e-01 1.27801895e-01 7.47912526e-02 4.69849817e-02 -6.07801855e-01 2.92971015e-01 -1.16596363e-01 1.53476194e-01
6.24473765e-02 -1.75776333e-02 -1.43961489e-01 -2.35983878e-02 3.50538306e-02 3.75414640e-02 9.40746069e-03 1.24704577e-01 -4.72765006e-02 -1.36060983e-01 -5.61463237e-02 -3.93445760e-01 2.79558688e-01 1.72124535e-01 3.49974930e-02 1.87085152e-01 5.78671619e-02 -3.34395654e-02 3.24698053e-02 2.61355191e-01 1.57637849e-01 2.72098690e-01 1.01103541e-02 2.70186722e-01 -1.26926407e-01 -2.45194733e-01 -2.10706651e-01 -2.12562293e-01 -2.64811516e-01 -1.73391566e-01 -2.60942169e-02 -2.50661850e-01
4.31855172e-01 1.52580708e-01 5.58299065e-01 3.94373387e-01 2.84801722e-01 3.85042489e-01 9.37200725e-01 -3.75685662e-01 8.37990880e-01 -7.05111474e-02 -6.10333681e-01 1.63112059e-01 -5.23820758e-01 -3.80868673e-01 -1.23889640e-01 1.47839159e-01 -5.02843380e-01 -5.09926319e-01 3.22381347e-01 1.45526417e-02 -1.28065094e-01 5.79998791e-01 1.27791002e-01 6.49325013e-01 7.65520288e-03 -1.42807215e-01 -2.32790753e-01 2.00351134e-01 1.71036243e-01 4.13299054e-01 -1.56723380e-01 2.61680000e-02
-3.09619099e-01 -5.18842757e-01 1.50850844e+00 5.86083494e-02 -7.94714808e-01 -1.69349700e-01 -1.18991208e+00 -9.51646924e-01 2.51075506e-01 9.31966603e-01 -1.50724808e-02 -4.69727993e-01 -2.62831658e-01 1.03352845e+00 6.18314564e-01 -1.79653931e+00 1.64201930e-01 -2.55245996e+00 1.74687040e+00 8.46070051e-01 -5.76270759e-01 1.74284875e+00 -3.92297655e-01 2.23918557e-01 4.13389981e-01 -6.58068478e-01 -2.80052841e-01 3.83432597e-01 2.02777281e-01 1.06849680e-02 6.24701738e-01 6.98540434e-02
2.29484793e-02 9.65899322e-03 1.04846232e-01 4.82656881e-02 3.34574759e-01 2.86629004e-03 -4.26185802e-02 -6.49768626e-03 5.62803596e-02 3.24432254e-02 -3.39326300e-02 -5.96067943e-02 9.32311714e-02 9.55384504e-03 -1.21767456e-02 -5.56625463e-02 2.51567410e-03 -5.36169633e-02 -2.39744205e-02 7.43411109e-02 1.13759086e-01 8.75844881e-02 -1.28248008e-02 -3.40942852e-03 -1.34214178e-01 -1.61372080e-01 2.40999050e-02 3.92122269e-01 -6.83219731e-02 -5.02622277e-02 1.18388003e-02 -2.51346022e-01
-4.17954385e-01 1.21688366e-01 -7.08785728e-02 -1.16361581e-01 -3.87316853e-01 -5.36046363e-02 -7.97741041e-02 7.41721570e-01 -1.72494613e-02 -5.39113283e-02 -2.12305307e-01 7.63875663e-01 5.45121849e-01 2.87556767e-01 9.01040956e-02 -5.13193570e-02 -8.12763497e-02 -1.33741915e-01 -1.82618916e-01 1.51393553e-02 -1.12981044e-01 -5.80674589e-01 -2.77541846e-01 -2.54902571e-01 -3.05242807e-01 -1.29992932e-01 -6.54246688e-01 3.88364792e-01 -2.12789983e-01 -3.04333746e-01 -1.25313044e-01 4.77610558e-01
-1.44075975e-01 -1.74571961e-01 7.46857584e-01 1.80469051e-01 -7.48638988e-01 3.42456996e-01 3.11480194e-01 -5.04879534e-01 5.06691456e-01 3.44665855e-01 -1.55811265e-01 4.29395974e-01 -1.36209000e-02 8.00184458e-02 1.95910364e-01 -2.15049839e+00 1.59779623e-01 -1.13806748e+00 -4.37445156e-02 2.34412491e-01 8.72099306e-03 3.16534072e-01 3.49530607e-01 9.77727175e-02 -1.51669890e-01 -4.56789255e-01 -1.58286646e-01 -2.65398532e-01 -3.52363527e-01 -5.57316482e-01 4.21649545e-01 -3.82993460e-01
-1.54154480e-01 4.69904430e-02 -8.16628411e-02 1.24125756e-01 -1.86084107e-01 -6.87263831e-02 2.59157807e-01 -1.85640588e-01 -5.18891811e-01 1.72345686e+00 -4.00286347e-01 -4.75307517e-02 -2.48392373e-01 1.27316988e+00 -2.21303731e-01 -3.77480909e-02 2.54210941e-02 -1.05315156e-01 -8.21136087e-02 -2.79197693e-01 3.05789411e-02 2.48126268e-01 -5.74342944e-02 -2.16694564e-01 -1.73499331e-01 8.92976969e-02 4.03165668e-01 4.65454370e-01 1.61877230e-01 -4.90080863e-01 2.94675469e-01 -5.04663661e-02
-7.10596964e-02 -1.96329102e-01 5.31226873e-01 5.06014705e-01 2.99066771e-03 -4.04664367e-01 -1.09621370e+00 1.19810298e-01 2.65617996e-01 3.97367775e-01 1.27989307e-01 -8.39274526e-02 8.94260183e-02 1.74386993e-01 -2.55594164e-01 6.64544225e-01 2.42992770e-02 3.45127702e-01 -1.49264395e-01 -3.20956379e-01 8.57945919e-01 2.98440278e-01 3.31979007e-01 -5.67129254e-01 -7.04109529e-03 4.52886568e-03 -1.76692650e-01 2.70270228e-01 -1.33772194e-01 3.54835808e-01 -1.84387147e-01 -2.42555141e-01
1.04843318e+00 -3.17043811e-01 4.91326481e-01 9.27777767e-01 -4.07317460e-01 1.13245063e-01 -7.90848374e-01 -5.74089229e-01 5.80038249e-01 -1.22896290e+00 -3.27397883e-01 7.85024643e-01 -1.18944061e+00 -3.06060404e-01 5.97997725e-01 -4.37828332e-01 -3.28600816e-02 -3.81042846e-02 7.70299911e-01 7.93403566e-01 2.73757756e-01 -4.33279902e-01 -2.18592381e+00 -5.60912669e-01 5.64539969e-01 5.98906159e-01 -8.59642804e-01 -3.57475758e-01 -1.10308819e-01 1.20160770e+00 -7.95196652e-01 -1.18761048e-01
-8.66599660e-03 2.14175612e-01 -1.40836574e-02 -4.05067541e-02 -2.24153608e-01 -2.16583703e-02 -3.33433622e-03 -6.84204325e-02 -3.31020504e-02 2.92215981e-02 3.15272026e-02 1.02380045e-01 7.40031973e-02 -3.57586630e-02 1.44043833e-01 -1.73028931e-01 1.08912773e-01 1.70893475e-01 2.73503158e-02 -2.83597350e-01 1.23378240e-01 6.05690852e-02 -4.55603050e-03 -3.14708985e-02 -3.06031168e-01 -5.63585795e-02 2.99879238e-02 -5.69735728e-02 -3.64294350e-02 1.17844809e-03 1.54977012e-02 -2.22582176e-01
1.87042773e-01 3.24498296e-01 1.65230823e+00 3.91413957e-01 -1.26617610e+00 8.68960097e-02 -1.97116643e-01 -5.20460963e-01 9.04790521e-01 5.94790339e-01 9.99612212e-02 -2.11511463e-01 -8.39771926e-01 8.66047978e-01 -4.70060809e-03 -3.47286296e+00 -2.27533534e-01 -4.62913465e+00 3.82940114e-01 1.45523518e-01 -1.22902226e+00 9.78441477e-01 2.68581629e-01 1.50930390e-01 2.63531536e-01 -9.65630636e-02 -5.80955207e-01 5.92488229e-01 -1.06087603e-01 -6.61622211e-02 3.02265231e-02 -2.10371036e-02
-1.05787945e+00 -9.49150231e-03 -1.12927422e-01 -5.74563265e-01 3.57949167e-01 6.63435832e-02 -2.88675815e-01 4.68424201e-01 -3.62095445e-01 6.96819723e-02 2.73582876e-01 -4.62976366e-01 2.88155228e-01 5.81885755e-01 -2.08971947e-01 1.99808896e-01 4.26838361e-02 3.06614429e-01 -1.06279027e+00 9.50591266e-03 2.65622944e-01 5.26840150e-01 4.60072786e-01 -7.86168203e-02 1.18675783e-01 1.92015648e-01 -5.47756016e-01 -1.28550813e-01 1.56447276e-01 -3.92720193e-01 1.01656854e-01 -9.94314790e-01

layers.2.bias:
-1.42515230e+00
-7.86743701e-01
4.50822443e-01
-4.89887834e-01
1.26984954e-01
-2.62374520e-01
2.35419393e-01
2.11053276e+00
4.46278453e-01
8.05145741e-01
-9.07064438e-01
-1.43621576e+00
-3.47601831e-01
9.53268051e-01
-2.44560108e-01
-7.12606966e-01
-7.50393122e-02
-8.04729462e-01
2.95079798e-01
-9.53809768e-02
-1.81957677e-01
7.48896837e-01
7.59353161e-01
-1.65502459e-01
-1.80338651e-01
1.05070233e+00
-1.00362206e+00
-1.09278965e+00
4.97532636e-01
-1.09818912e+00
1.29236296e-01
-1.60843894e-01
8.04453611e-01
9.51662883e-02
-3.83109659e-01
-7.86209386e-03
-1.21676758e-01
1.37612927e+00
1.03674233e+00
3.97325680e-03
9.92521822e-01
-2.46739194e-01
-5.27710497e-01
1.32626843e+00
2.36421853e-01
-1.12034869e+00
1.06054580e+00
-3.38106573e-01
7.69714415e-01
1.77911472e+00
7.38888755e-02
3.20798457e-01
1.16391830e-01
-6.11078203e-01
2.03213096e-01
-4.42374423e-02
7.94264913e-01
-1.71844020e-01
-8.42127427e-02
-5.90828419e-01
7.02771187e-01
4.70882170e-02
-2.11781725e-01
5.64421892e-01

layers.4.weight:
3.20596635e-01 6.67849323e-03 -3.45867425e-02 -1.67611577e-02 -3.11479308e-02 8.29184428e-02 3.73257535e-05 -6.92059994e-01 -6.42855838e-02 -3.44897479e-01 3.34126726e-02 1.06827211e+00 -1.84442794e+00 -8.02179426e-02 3.61579061e-02 -1.54413664e+00 -1.55860893e-04 1.14828005e-01 -2.97448467e-02 -7.41416530e-04 -1.04992781e-02 -1.46621451e-01 -7.00669810e-02 3.07399094e-01 -8.41161311e-02 -1.66017096e-02 3.52869593e-02 8.58342767e-01 -4.20927852e-01 3.61297190e-01 1.30438618e-02 -2.25612327e-01 -9.25669521e-02 2.32375794e-04 1.10856369e-01 3.25110188e-04 5.45140530e-04 -2.30222583e-01 -8.84209871e-02 2.44549111e-01 -7.20551834e-02 2.48777047e-01 4.94822040e-02 -9.79561284e-02 1.39603799e-05 1.57694876e-01 -8.76668468e-02 6.47118257e-04 -1.00807384e-01 -6.47409022e-01 -6.36919215e-02 -3.98309976e-02 4.78984974e-03 -1.01111066e-02 -1.08068240e+00 -6.94958202e-04 9.28155892e-03 -3.63820046e-01 -1.03547387e-01 1.00653456e-03 -3.37176919e-02 -8.25941970e-04 8.68456841e-01 1.19502069e-02

layers.4.bias:
-1.07305467e+00

