layers.0.weight:
3.31696361e-01 -5.67613244e-01 7.97264636e-01
5.69172144e-01 -8.09445798e-01 -5.80563486e-01
-8.31293464e-02 -6.13938749e-01 -5.77727258e-01
-1.07055378e+00 1.15616508e-01 4.58123112e+00
2.67282110e-02 4.11940843e-01 1.16166264e-01
-5.79876065e-01 8.58121514e-01 -1.84879377e-01
-1.31842160e+00 4.86020595e-01 -9.88645032e-02
-6.01682402e-02 7.88846374e-01 -9.23566997e-01
6.03414774e-01 -9.26082134e-01 5.12713566e-02
-1.11527514e+00 5.86289167e-02 -1.64189592e-01
7.53551662e-01 -9.85680073e-02 1.41279221e+00
-7.16238439e-01 -1.31785080e-01 -1.29353356e+00
-4.30584475e-02 7.12955832e-01 -1.57757306e+00
-1.16726887e+00 2.10410804e-02 5.00053525e-01
-6.46977663e-01 1.09646142e+00 7.52028525e-01
-1.81771189e-01 9.48456824e-01 1.64468549e-02
5.46070874e-01 -6.33792400e-01 -1.45019031e+00
-1.15504665e-02 1.12846863e+00 1.84981868e-01
8.07071701e-02 -9.54183042e-01 5.35116851e-01
3.41117471e-01 -1.28724232e-01 -8.64976227e-01
2.23475501e-01 1.65966094e-01 -5.10879010e-02
-3.24195027e-01 -2.56797969e-01 -1.00232065e+00
-4.64660525e-01 1.65601885e+00 -4.46076952e-02
-1.56447518e+00 4.06930357e-01 1.75152493e+00
1.05132234e+00 3.79940838e-01 -7.78481364e-01
2.59609371e-01 6.71772659e-01 -1.17486012e+00
-1.16151750e-01 -2.13369340e-01 1.90187418e+00
-3.97779703e-01 -2.44972542e-01 1.92939892e-01
3.22416067e-01 7.57217348e-01 -1.46468067e+00
-1.04933763e-02 4.65525806e-01 1.70563948e+00
-2.89658904e+00 2.84448242e+00 -1.78299040e-01
-1.26738083e+00 -5.19488692e-01 1.02004325e+00

layers.0.bias:
8.77201200e-01
4.81547834e-03
-1.42384720e+00
-6.34384930e-01
7.07518518e-01
-2.04255387e-01
-3.54310095e-01
2.86240637e-01
-7.45998621e-01
-1.59115899e+00
1.64644122e-01
1.80825554e-02
2.46107668e-01
-1.21306002e+00
-2.90836543e-01
1.43946290e+00
9.34610724e-01
1.82654703e+00
-6.68276668e-01
5.78918040e-01
-1.44309163e-01
-1.35729384e+00
1.02535832e+00
-7.05530941e-02
1.36946186e-01
5.60703695e-01
8.80503118e-01
-1.57881156e-01
-4.88352716e-01
7.31267482e-02
8.91685039e-02
-6.70209900e-02

layers.2.weight:
-3.98451388e-01 2.68738449e-01 1.65257022e-01 -4.96459067e-01 -3.32806289e-01 -4.10777144e-02 2.79043727e-02 -1.89369731e-02 1.21615395e-01 2.86114454e+00 1.02612026e-01 5.70936240e-02 -2.07426563e-01 2.35834384e+00 -2.74565965e-01 2.06726924e-01 -4.91258353e-02 3.53215098e-01 1.00012973e-01 -2.70175844e-01 2.77431548e-01 -3.93203497e-02 -6.09121144e-01 5.77834845e-01 -4.98210602e-02 6.41099334e-01 -8.07814658e-01 -1.77709430e-01 -1.00596696e-01 -2.34000713e-01 -4.29954767e-01 2.18940839e-01
-6.45768195e-02 1.05121888e-01 -8.39440823e-01 4.73912293e-03 -3.32768768e-01 1.33622304e-01 -7.02459872e-01 -4.42379832e-01 4.70358521e-01 6.61077023e-01 2.92235315e-01 -2.07176685e-01 2.94792175e-01 -3.27656195e-02 -2.57665008e-01 4.48884785e-01 -3.63385350e-01 3.90319169e-01 -4.82537866e-01 -2.42944621e-02 6.32871866e-01 -1.04965962e-01 -3.69185001e-01 -7.03875273e-02 4.06852514e-02 -1.79064218e-02 -3.71372044e-01 -5.76925099e-01 1.07718997e-01 -2.66243547e-01 6.50726492e-04 1.49257705e-01
-4.55983542e-02 1.54800052e-02 2.55916983e-01 -5.82198918e-01 -1.17797041e+00 4.22279648e-02 -4.79521692e-01 1.45396680e-01 5.33937216e-01 9.04362202e-01 -3.55518788e-01 -2.98007369e-01 -9.46867652e-03 2.20271751e-01 -1.10052437e-01 -1.29894483e+00 -3.85538638e-01 -1.20337069e+00 1.09326430e-01 -6.58258498e-02 -6.16668798e-02 -2.75427848e-01 3.81875336e-01 -1.15492880e+00 -6.93478525e-01 2.39900127e-01 -1.00333512e+00 1.30726174e-01 1.99970230e-01 -2.00964302e-01 1.98053092e-01 7.55970955e-01
5.01302928e-02 -2.14104444e-01 2.75753468e-01 1.14743197e+00 2.62567759e-01 5.76708913e-01 8.27351451e-01 -4.56364863e-02 -3.07700217e-01 1.47042498e-01 -3.36874351e-02 1.21488661e-01 -3.78718555e-01 2.78141588e-01 8.01802218e-01 6.27697289e-01 -3.28245312e-01 3.74985278e-01 1.28537178e-01 -8.70648563e-01 -5.37758410e-01 4.54881415e-02 5.64510405e-01 1.38860118e+00 -4.00873750e-01 -3.53564829e-01 3.00078779e-01 2.33285710e-01 -4.68701720e-01 -3.56624693e-01 1.75207585e-01 1.98162034e-01
-7.77190924e-02 -3.43205422e-01 3.58738631e-01 -4.42399442e-01 -1.81696504e-01 -1.68246776e-01 -1.12421262e+00 1.87780663e-01 1.20680824e-01 -3.46958846e-01 4.42477077e-01 -7.85295546e-01 8.01721513e-01 -7.63914108e-01 -5.45561723e-02 -1.27953362e+00 -3.26184511e-01 -1.09971535e+00 -1.78190172e-01 -1.38551682e-01 9.57519710e-01 -5.04969776e-01 2.97445238e-01 -3.26465279e-01 -7.69928813e-01 6.38081789e-01 9.81498286e-02 -6.26371145e-01 -2.00997472e-01 6.23569250e-01 -6.05855063e-02 1.32097714e-02
-3.10942531e-01 2.80053735e-01 3.40253860e-01 1.10920787e-01 -5.31854331e-01 -3.63266081e-01 -5.68026304e-01 3.31567466e-01 1.28996581e-01 -4.02342558e-01 6.17720008e-01 1.87139586e-01 -2.47492213e-02 -4.35664415e-01 -3.23582530e-01 -7.23453104e-01 -2.94508427e-01 -1.05933428e+00 5.76258123e-01 -1.43413067e-01 -6.20450974e-01 -9.92635358e-03 -4.34344977e-01 -2.20394477e-01 -1.18236192e-01 1.36830106e-01 1.02933437e-01 1.08494449e+00 -1.98825374e-01 -4.82494086e-01 -9.81567562e-01 5.22506177e-01
-3.26359384e-02 8.17312859e-03 -2.19453380e-01 4.41371842e-04 -1.51470423e-01 1.93729609e-01 -7.19134063e-02 -4.01331156e-01 -1.36127844e-01 1.85048789e-01 2.98214525e-01 3.60243246e-02 2.83724755e-01 -2.07415801e-02 -6.79953676e-03 -2.66935199e-01 2.18072440e-02 1.21247075e-01 -5.00016063e-02 -3.19876254e-01 -4.10767376e-01 1.15590639e-01 7.76124597e-02 1.92463193e-02 1.55548498e-01 2.54528493e-01 -3.51606727e-01 -3.74548972e-01 -1.52059555e-01 8.15825313e-02 -1.12876840e-01 1.41018391e-01
1.35469556e-01 1.86833605e-01 -2.78818220e-01 3.10229987e-01 -7.21993819e-02 -5.98333418e-01 2.13874131e-01 5.57422876e-01 2.59894788e-01 -1.33948803e-01 -1.77143216e-01 1.02820647e+00 3.50210756e-01 -3.79907817e-01 -3.00363928e-01 -1.21442564e-01 5.40043890e-01 -1.75690681e-01 2.54387051e-01 4.77744639e-01 -1.43235600e+00 -8.35495651e-01 -1.08683363e-01 2.49872416e-01 2.35400736e-01 7.73880899e-01 5.51218629e-01 5.30146182e-01 -4.54420418e-01 4.44655180e-01 5.16920507e-01 -2.96867251e-01
6.24074042e-02 1.40233114e-01 -5.43428898e-01 -2.07027435e-01 1.26002824e+00 -3.60646307e-01 -7.24942327e-01 -3.79269838e-01 -5.06458938e-01 2.89826691e-01 4.63749468e-01 2.65517056e-01 6.37690902e-01 -2.96948999e-01 3.08979779e-01 1.54825807e+00 2.27254108e-01 1.29677153e+00 -5.30514419e-01 -2.10611954e-01 2.67856121e-01 -3.34103435e-01 1.03905633e-01 2.66691864e-01 3.42198759e-01 3.59185368e-01 9.06798616e-02 -1.52643889e-01 4.22441810e-02 2.14235932e-01 2.43210483e+00 -5.81118882e-01
-6.54762030e-01 1.61351934e-01 -7.24248886e-02 -5.60867310e-01 4.13701892e-01 4.61543091e-02 -1.42467186e-01 4.03706312e-01 4.43697780e-01 -1.78410888e-01 -1.36119034e-02 2.34087721e-01 2.18257383e-01 8.57727379e-02 -3.56625974e-01 -6.31025016e-01 4.10891771e-01 -3.88561070e-01 -4.44128871e-01 3.88898291e-02 -5.89993656e-01 -1.95017084e-01 1.49581671e-01 -9.86696333e-02 -1.87903419e-01 -6.15174733e-02 -2.12579504e-01 1.77647367e-01 3.01882535e-01 1.26954570e-01 7.21319541e-02 -3.06878127e-02
2.75348816e-02 -3.03984702e-01 -1.40446737e-01 -4.09994125e-01 -2.07718387e-01 -3.08881730e-01 -3.08650494e-01 2.24570200e-01 3.70448321e-01 1.63315758e-01 -5.77445269e-01 -6.76929280e-02 9.06482160e-01 -3.85362446e-01 -2.09616452e-01 -1.86800241e-01 -5.89271843e-01 -6.19527936e-01 -1.74098730e-01 1.13654071e-02 1.03431225e+00 -2.44211406e-01 -7.89113879e-01 1.18411332e-01 -3.79446186e-02 -3.13086645e-03 -4.83257681e-01 -5.85953176e-01 3.99532497e-01 -4.42919999e-01 3.62832728e-03 3.17279100e-01
-8.94783437e-02 -1.02983907e-01 1.72060037e+00 -8.89390230e-01 -9.88173783e-01 9.88138467e-02 5.29764406e-02 -4.02627647e-01 9.57036763e-02 2.48699188e+00 -2.74249353e-02 4.72386628e-02 3.05045038e-01 3.25754309e+00 5.46683036e-02 -8.46525073e-01 2.94934809e-01 -2.71686935e+00 6.16998255e-01 -3.28387797e-01 2.50155419e-01 6.21250510e-01 -3.73972923e-01 8.32902908e-01 -6.90817460e-02 -5.47526598e-01 2.79863477e-01 -9.21807438e-02 8.99155810e-02 1.30403079e-02 2.34138891e-01 -3.49682510e-01
-7.16251850e-01 -1.12317041e-01 9.10597503e-01 3.82266700e-01 -4.31527346e-01 6.71678126e-01 5.52087165e-02 -8.56611073e-01 3.45440418e-01 4.04999882e-01 2.33423680e-01 4.70480882e-02 -4.70937192e-01 -1.19271539e-01 4.10152763e-01 -3.86186981e+00 -3.92578915e-02 -5.66349745e+00 4.79498923e-01 -9.53151762e-01 -6.22319102e-01 4.75035340e-01 6.92784131e-01 -6.92515075e-02 -2.61550158e-01 -2.07987845e-01 -3.84972930e-01 5.62946558e-01 -5.91693401e-01 -3.48090917e-01 -1.35242891e+00 -2.62884498e-01
2.53154896e-02 -2.05513820e-01 -6.31259084e-01 -8.28693584e-02 -8.85472372e-02 2.59439722e-02 2.47050256e-01 3.53937447e-01 2.87405461e-01 -2.15567425e-01 4.96506602e-01 -1.61373764e-01 3.49995553e-01 -8.27122211e-01 -2.25133583e-01 2.17614248e-02 -2.51654267e-01 3.03829283e-01 -1.30024225e-01 1.34780183e-01 -1.09063052e-02 -1.32036045e-01 1.42144695e-01 -2.34142601e-01 -1.08873211e-01 7.76948810e-01 -2.48292778e-02 2.90702861e-02 -1.64070323e-01 2.46246263e-01 1.85035333e-01 3.34719092e-01
-1.00988460e+00 2.33921915e-01 -1.03444003e-01 2.86302090e-01 -6.13949485e-02 6.69755876e-01 -3.35264027e-01 -3.88582423e-02 3.73901367e-01 -1.75607651e-01 -8.15147579e-01 2.92459875e-01 2.09957704e-01 -4.07762349e-01 -3.02091330e-01 -6.03513539e-01 2.79617041e-01 -5.70889533e-01 -4.84786212e-01 3.70485425e-01 1.32648098e+00 9.85544324e-01 1.84838532e-03 1.37244120e-01 -3.69830191e-01 1.65501550e-01 -6.45813644e-01 4.63837869e-02 8.74921858e-01 -2.97667265e-01 -3.93082313e-02 1.46235436e-01
-5.37464857e-01 -3.01511213e-02 7.87356719e-02 1.20436929e-01 -3.13884079e-01 2.47301966e-01 -9.23751235e-01 -8.13717246e-02 1.24326631e-01 5.22164059e+00 5.49129486e-01 4.43391770e-01 2.32655436e-01 2.64914393e+00 -4.04508933e-02 -5.75600900e-02 -4.01317269e-01 -2.07541034e-01 5.81025593e-02 -1.85771853e-01 -7.23221302e-01 4.21908140e-01 1.53628483e-01 2.64134407e-01 -4.11385566e-01 -4.14655566e-01 -6.47251606e-01 3.57963949e-01 -1.17208116e-01 -6.76071525e-01 1.04196616e-01 -2.24381328e-01
-7.79446820e-03 1.32890895e-01 -7.10426271e-02 3.76171507e-02 3.67106088e-02 -5.32313483e-04 2.50976086e-02 -6.13686331e-02 3.50463763e-02 -1.07501753e-01 5.97614385e-02 7.49213248e-02 4.40718830e-02 7.12637827e-02 1.05810635e-01 4.29729857e-02 2.95461901e-02 2.39953888e-03 -1.89644154e-02 1.07682779e-01 2.77124822e-01 1.06670626e-01 -5.34281135e-02 3.62103507e-02 7.07906857e-02 2.13377606e-02 6.03471473e-02 2.37639099e-01 -2.61759665e-03 2.66807550e-03 3.31930071e-02 2.64522694e-02
1.73936948e-01 -7.04695657e-02 -5.18913150e-01 3.93177308e-02 -5.97698763e-02 -2.38885567e-01 -2.17214942e-01 -2.76704043e-01 4.06275004e-01 -6.76111996e-01 6.77467287e-02 -1.95564125e-02 2.21370339e-01 4.81923781e-02 -1.78147316e-01 -6.65734485e-02 -2.81455666e-01 1.83462024e-01 -1.30323559e-01 9.28638160e-01 2.72312284e-01 1.36413947e-01 -5.88826954e-01 -1.32178873e-01 -1.35553166e-01 -4.08001304e-01 8.34544182e-01 -5.02729356e-01 2.41647005e-01 2.96860158e-01 -1.88134924e-01 2.14472264e-01
-2.76639104e-01 -1.14565045e-01 -3.11812937e-01 -2.23978639e-01 5.02064943e-01 5.69656752e-02 1.71770647e-01 1.41511127e-01 3.42750788e-01 -4.10624206e-01 -1.84628353e-01 -8.96367848e-01 4.91316408e-01 -2.00930297e-01 -1.24342613e-01 3.11195403e-01 -1.48696661e-01 4.10973340e-01 1.07016340e-01 -7.14798719e-02 -3.94191546e-03 -1.84000477e-01 5.53556025e-01 -3.20322454e-01 2.39932120e-01 2.14231655e-01 -1.93357185e-01 3.08452457e-01 6.30168766e-02 3.35688025e-01 5.19871175e-01 1.26087278e-01
4.72775921e-02 2.00967416e-01 1.95869594e-03 6.21238761e-02 -1.02419883e-01 9.91709232e-02 -6.37905002e-02 -9.24187526e-02 4.31513749e-02 9.64964256e-02 6.01491258e-02 1.10361069e-01 -6.67561963e-02 -4.91907112e-02 9.62978676e-02 5.02149999e-01 6.51192889e-02 -2.51739860e-01 8.11383650e-02 -9.95327979e-02 -1.14059411e-01 -1.16240501e-01 1.46669028e-02 -1.31708048e-02 3.31848934e-02 1.17891766e-01 -2.39642244e-03 3.14067230e-02 1.21950194e-01 7.76385004e-03 -3.16464156e-02 2.83893049e-02
4.98002112e-01 -2.17219904e-01 6.96916342e-01 5.25402367e-01 -3.10154915e-01 -1.96268514e-01 -6.65086687e-01 -9.34357122e-02 -3.16443264e-01 -7.85964847e-01 -1.04818791e-01 9.65068936e-01 5.01320839e-01 -4.28845733e-01 8.11988175e-01 4.60938454e-01 -1.12280570e-01 -3.19620162e-01 4.30416375e-01 4.37802136e-01 -4.09235418e-01 1.13367230e-01 5.75763047e-01 1.64182127e-01 1.23123385e-01 -3.51970494e-01 8.77299681e-02 3.05529147e-01 -1.00433558e-01 -8.20671543e-02 1.50558621e-01 3.94045532e-01
2.58863121e-01 -1.56642273e-01 5.94049208e-02 1.95517793e-01 -6.78160712e-02 1.27847686e-01 8.77643287e-01 8.87027755e-03 5.45018256e-01 2.78203517e-01 3.71318638e-01 3.33908349e-01 -4.47258145e-01 -4.62790757e-01 1.48962542e-01 -1.18426371e+00 -1.24580458e-01 -8.43138754e-01 1.94944907e-02 -5.17471433e-01 -5.01271188e-01 -3.21351774e-02 2.01707169e-01 2.55050678e-02 1.06892288e-01 -4.76520598e-01 -6.61834121e-01 4.62275475e-01 -1.38018280e-01 -1.42567158e-01 2.02980101e-01 -1.16542995e-01
3.03594656e-02 6.78463131e-02 -2.16770098e-01 3.86934429e-01 -1.88584417e-01 3.50224525e-01 3.20880920e-01 -2.57088035e-01 -2.07728907e-01 3.71361047e-01 5.58953907e-04 1.08497426e-01 4.52411354e-01 5.19733071e-01 -2.51222968e-01 -8.28903913e-01 5.94171703e-01 -3.74482423e-01 8.75702873e-02 -2.27564886e-01 -3.45056206e-01 7.87525699e-02 -4.66227859e-01 1.57090604e-01 -3.09820503e-01 -9.77267697e-02 -7.68094584e-02 -4.74878877e-01 8.80742073e-02 -1.39044464e-01 -5.76190837e-02 -3.43827099e-01
7.52056360e-01 -1.19496047e-01 -3.28584641e-01 2.22699374e-01 2.29132608e-01 -4.32833552e-01 -6.26434982e-02 2.89114624e-01 2.49668315e-01 -2.74269891e+00 1.66382015e-01 1.15060031e-01 3.27825606e-01 -1.59279442e+00 1.95717603e-01 3.65241408e-01 7.11760372e-02 3.28769386e-01 -2.36087218e-01 -6.24011233e-02 5.26285768e-01 -2.72992611e-01 -1.94301412e-01 1.39797004e-02 -3.28969032e-01 -2.39038005e-01 -1.62459142e-03 -1.97364464e-01 2.33158812e-01 1.62371010e-01 -3.90650630e-02 -2.17584834e-01
-6.17747903e-01 1.29305497e-01 -1.03079677e-01 1.21656626e-01 1.45749584e-01 -4.66777653e-01 1.03282583e+00 -1.98479369e-01 -1.11936319e+00 6.34018898e-01 -7.78452277e-01 1.37843922e-01 1.53504118e-01 5.30596636e-02 -6.45965695e-01 7.34810829e-01 5.97669661e-01 7.36046195e-01 5.52746713e-01 3.93355899e-02 -5.09869456e-01 2.96304584e-01 5.05174220e-01 9.54902172e-01 -4.50636089e-01 4.99570012e-01 -6.11159742e-01 1.30400419e-01 7.92788088e-01 -4.53574598e-01 3.54426950e-01 2.12152638e-02
-5.98388314e-01 5.55298865e-01 1.27177192e-02 -1.93778902e-01 4.94787008e-01 2.03776494e-01 2.02571154e-02 5.49719691e-01 -3.39929312e-01 5.35960555e-01 1.96298026e-02 -1.16432905e-01 2.62435645e-01 2.58959949e-01 -4.92270738e-01 -2.06337959e-01 -1.78167641e-01 -1.14752568e-01 3.58217835e-01 -4.01465774e-01 2.57341247e-02 -2.20233276e-01 6.29138947e-02 -4.55824733e-01 8.38905349e-02 -1.65837348e-01 -6.17232084e-01 -4.81626630e-01 2.22491190e-01 -4.15499061e-01 -2.39713266e-01 -2.73632079e-01
-1.43206790e-01 1.83669895e-01 4.37581688e-01 3.64627481e-01 -1.60218388e-01 -2.56230682e-01 -9.66991857e-02 9.94326919e-03 2.35545352e-01 -4.45686400e-01 -5.74476659e-01 -8.36988389e-02 -2.69840866e-01 -3.02460313e-01 1.12159111e-01 7.58552790e-01 -1.06095731e-01 2.93621927e-01 2.41350785e-01 2.05668360e-01 1.25323594e-01 -7.51365185e-01 2.44975165e-01 1.11009754e-01 2.70000339e-01 1.65682912e-01 1.72060784e-02 -6.24884903e-01 -2.66883403e-01 -1.10439353e-01 9.88878161e-02 -2.32855827e-01
-7.99317718e-01 4.84335750e-01 -5.77585220e-01 -1.02872276e+00 -2.69731283e-01 -2.41419330e-01 -2.86636710e-01 4.19537753e-01 9.08044800e-02 4.80254889e-01 -6.46282583e-02 1.95375234e-01 1.99256212e-01 2.76668787e-01 -3.02243605e-02 1.10643506e+00 7.06381261e-01 1.10522425e+00 -7.29716182e-01 9.25972611e-02 5.24954259e-01 -7.32541323e-01 -6.63374484e-01 3.91579241e-01 -2.52175897e-01 -4.28128541e-01 2.60873467e-01 3.15019876e-01 5.17497718e-01 -8.32732081e-01 1.52943537e-01 -1.53574467e-01
1.69894293e-01 -5.71310341e-01 -5.32086790e-02 -1.21668018e-01 -4.81062770e-01 5.82159102e-01 4.34954390e-02 -4.68490332e-01 4.75076467e-01 9.13005471e-01 -2.36743703e-01 1.05294839e-01 5.55499494e-01 4.12983567e-01 8.49847198e-02 -9.53296781e-01 -4.68933970e-01 -8.66628051e-01 1.53943244e-02 2.13906810e-01 2.61048764e-01 3.69705379e-01 2.92743236e-01 1.45081013e-01 3.10953975e-01 1.05477698e-01 -4.16665226e-01 -2.91696459e-01 -2.82269090e-01 -3.39043736e-01 4.88724113e-01 2.63834536e-01
8.90703872e-03 -9.61384833e-01 3.04845989e-01 1.65578008e+00 1.45247191e-01 3.64236124e-02 -1.06955081e-01 -3.20182920e-01 -1.94983423e-01 2.12881476e-01 1.14623737e+00 -1.02097738e+00 -1.16876471e+00 -3.59493434e-01 1.55028850e-01 -1.51678637e-01 -1.22331834e+00 5.51810086e-01 6.84396684e-01 -7.16523945e-01 8.23320687e-01 1.22911096e-01 -5.58581762e-02 1.80097073e-02 -3.80853638e-02 -5.67712069e-01 2.77430624e-01 3.98342349e-02 -9.49427783e-01 1.33177233e+00 -6.47628307e-01 2.62405649e-02
-9.84788537e-01 -3.31078649e-01 4.39025998e-01 2.51217753e-01 -4.50795501e-01 4.32496369e-01 4.84818935e-01 -1.19939797e-01 -6.76956534e-01 -3.55384909e-02 -9.04620349e-01 1.60379782e-01 3.34268302e-01 2.28507042e-01 3.38026196e-01 -1.01340801e-01 2.21825853e-01 -3.85265708e-01 1.23282388e-01 -4.80636537e-01 -9.24586296e-01 4.60674644e-01 1.82367116e-01 -5.82574308e-01 2.03260351e-02 4.35556650e-01 5.38796000e-03 3.74244303e-01 -5.97646058e-01 -1.01345636e-01 -3.16581689e-02 1.43198326e-01
-3.77056092e-01 -3.86371136e-01 -7.45333061e-02 -1.75587922e-01 -2.65080363e-01 5.15603311e-02 1.50193214e-01 2.89669961e-01 -6.49371028e-01 1.64933085e+00 -1.68006986e-01 -1.24654628e-01 -4.81635004e-01 4.45853382e-01 -3.87250297e-02 4.03257944e-02 5.11351041e-04 2.09037617e-01 -5.43330312e-02 -1.86778069e-01 2.81146586e-01 2.07003742e-01 5.12083530e-01 -5.75052388e-03 1.05119318e-01 -4.15114611e-02 -2.19462559e-01 1.33453578e-01 3.43878746e-01 2.95794934e-01 2.42037848e-01 4.94109467e-02
-5.35537489e-02 -3.51062924e-01 -5.32679586e-03 -1.02751024e-01 -3.40303898e-01 4.57243115e-01 -2.48334929e-01 -4.55506444e-01 8.10690075e-02 -3.04633588e-01 8.74500535e-03 4.54933643e-01 1.94437131e-01 3.90219808e-01 3.27690780e-01 -4.89910871e-01 -4.51200992e-01 -1.16601467e+00 -1.34340059e-02 -3.22773039e-01 -1.40999660e-01 8.67632449e-01 4.26189452e-01 6.13107383e-01 -4.91664499e-01 1.19717702e-01 1.28157079e-01 -2.11147070e-01 -3.87374461e-01 -2.61231750e-01 -2.98501495e-02 -5.23201860e-02
1.15393084e-02 -4.33145203e-02 1.53178662e-01 -1.03582233e-01 2.12212116e-01 -8.59498978e-02 1.43771758e-02 -3.28984201e-01 -2.04039231e-01 2.35376790e-01 1.54967383e-01 1.29338101e-01 8.98988619e-02 -2.72285819e-01 -6.11033477e-02 -2.92229950e-01 6.72320724e-02 1.67032927e-01 -1.51845828e-01 -5.33179879e-01 1.35750696e-01 -1.38493702e-01 -4.26262468e-02 -3.43297012e-02 -4.22402099e-02 2.17959210e-01 -7.48887882e-02 5.29362783e-02 1.25211671e-01 5.86357675e-02 -7.05095381e-02 1.49502615e-02
1.03338137e-02 -6.35919511e-01 -3.03146899e-01 7.49769449e-01 -1.13746665e-01 -4.16040421e-01 3.00109625e-01 -1.07025869e-01 -4.18207198e-01 3.21462417e+00 -5.97146451e-01 1.03190124e+00 6.68016493e-01 9.03579473e-01 8.13163996e-01 3.97032678e-01 9.44780372e-03 5.63281476e-01 5.44001579e-01 3.57919723e-01 2.43308946e-01 1.58848271e-01 -3.96764755e-01 1.04757798e+00 1.39962127e-02 1.61026344e-01 -3.22043419e-01 2.78474182e-01 1.30902126e-01 2.70202998e-02 5.98792315e-01 -4.07667197e-02
-1.06322020e-01 1.77100897e-01 1.23153426e-01 6.97875321e-02 4.56127226e-02 -5.01995347e-02 7.10058352e-03 1.02743328e-01 2.17995849e-02 -3.80215514e-03 1.64304689e-01 9.29637104e-02 9.07086059e-02 -2.63369945e-03 1.39625654e-01 2.02126071e-01 2.83093229e-02 -1.09308459e-01 7.13867310e-04 9.05946121e-02 -1.41352832e-01 -5.40794805e-02 -2.54847296e-02 1.28876604e-02 -4.57455635e-01 -2.24170968e-01 4.30724062e-02 -1.53823867e-01 -5.89272641e-02 -5.91566339e-02 2.12868620e-02 -4.58619833e-01
-5.65094734e-03 -6.38206527e-02 -4.93466817e-02 2.07026172e-02 -2.44541183e-01 2.00639162e-02 -5.61217405e-02 1.49501756e-01 5.65434508e-02 -1.65855773e-02 -2.06721388e-02 -1.85829680e-02 -6.78190738e-02 5.19038029e-02 -6.96879029e-02 2.37555906e-01 -1.03693880e-01 -9.37006995e-02 5.33766001e-02 3.31755430e-01 -2.54501760e-01 -9.49485153e-02 1.73556264e-02 -9.92710143e-03 1.35175120e-02 -1.02810964e-01 -6.78324848e-02 -4.73859534e-02 -5.02362400e-02 4.93621379e-02 2.12542396e-02 -1.56434365e-02
6.67837501e-01 -2.41414651e-01 4.10848022e-01 2.95667082e-01 -5.57262778e-01 6.40261546e-02 -3.22914720e-01 7.78562799e-02 5.79077244e-01 2.42052600e-01 -2.24528953e-01 8.76530856e-02 9.73055810e-02 3.23952466e-01 7.13043869e-01 -6.98054135e-01 -4.15077597e-01 -8.38430643e-01 3.25049698e-01 -2.44309992e-01 -7.71043122e-01 3.00099880e-01 -1.60554275e-01 1.60166278e-01 6.70921564e-01 -9.97162238e-03 1.77319407e-01 -4.86112759e-02 -4.75791514e-01 1.82695955e-01 1.49143353e-01 2.40438893e-01
1.40486121e-01 -4.09114540e-01 -2.45682403e-01 4.13163155e-01 1.16005510e-01 -6.02879405e-01 1.03551805e-01 -2.84441765e-02 2.72783160e-01 -2.30888024e-01 -2.34281704e-01 4.48547751e-01 3.43611509e-01 -2.46578008e-01 2.50851393e-01 -6.72684968e-01 -3.44499528e-01 -8.38917196e-01 5.26592374e-01 -4.16904122e-01 -2.54714668e-01 -4.96754311e-02 3.38833928e-01 6.64837778e-01 -1.53382793e-01 -3.39549571e-01 4.46340442e-01 -8.00497364e-03 -1.30917713e-01 -4.15135950e-01 5.57293072e-02 2.49002412e-01
1.61537398e-02 3.48732919e-02 7.61406481e-01 1.04027666e-01 -1.30532002e+00 -2.91715860e-01 1.57855913e-01 -1.55819237e-01 6.78961813e-01 6.82798505e-01 -1.54396579e-01 -3.63386482e-01 9.92047507e-03 5.89702547e-01 -6.80790618e-02 -2.62290430e+00 -2.37345338e-01 -3.11689115e+00 2.09353462e-01 4.49505374e-02 -8.30088735e-01 6.83925629e-01 1.99745610e-01 1.42393157e-01 1.99222565e-01 1.19983390e-01 3.36914480e-01 2.05377251e-01 -1.76201403e-01 -7.79412031e-01 -2.85970539e-01 2.02060044e-01
-1.55858308e-01 -2.50196964e-01 -2.62224466e-01 -2.62960136e-01 -3.31423908e-01 5.28753757e-01 1.68316588e-01 -1.47155404e-01 -8.99345055e-02 4.11530793e-01 -1.99193180e-01 1.87575787e-01 3.27918120e-02 -2.11322218e-01 -1.27690598e-01 -5.62160671e-01 2.82561868e-01 -6.49371803e-01 -2.15860292e-01 -6.57682493e-03 -3.92274857e-01 3.75318229e-01 -1.88642129e-01 3.75612080e-01 3.52621168e-01 -5.49325347e-01 5.00517249e-01 1.30995944e-01 4.98797931e-02 1.48812175e-01 -7.60798901e-02 3.98152880e-02
3.88002008e-01 7.21675217e-01 6.86356723e-01 -4.06244308e-01 8.70555192e-02 1.34510055e-01 2.31406137e-01 -7.91354552e-02 -8.23105097e-01 1.04178083e+00 -2.85307199e-01 -2.22034365e-01 -4.30788994e-01 1.12104249e+00 8.59285891e-02 1.11759469e-01 4.81007583e-02 -1.01045072e+00 2.37998813e-01 -2.75205851e-01 4.48909216e-02 7.01692820e-01 -1.94084674e-01 -4.01804894e-01 6.17858768e-01 -7.55519390e-01 4.85378742e-01 -6.49528429e-02 -2.48261556e-01 -6.10398769e-01 -8.13675392e-03 -4.24411178e-01
-8.98388475e-02 -5.58128476e-01 1.73088446e-01 -2.06424639e-01 3.65461335e-02 2.64247686e-01 4.06970948e-01 -2.07568258e-01 -1.12479603e+00 -1.27867922e-01 -1.67616799e-01 9.20828357e-02 -5.53775989e-02 5.29605925e-01 7.69911110e-01 6.57036722e-01 2.09266901e-01 -1.62342831e-01 -1.23620078e-01 1.59121528e-01 -2.20899493e-01 3.23723137e-01 -1.17916316e-01 1.30808517e-01 3.77175249e-02 -1.97939709e-01 3.73793244e-01 6.70844316e-01 -3.36604506e-01 -4.82335359e-01 9.38874304e-01 2.35333204e-01
-1.32928801e+00 1.75814688e-01 2.22695559e-01 -1.39991009e+00 -1.92249730e-01 -2.25202646e-02 9.92185175e-02 5.94668865e-01 1.55818984e-01 3.62007350e-01 -1.06011701e+00 7.56404221e-01 1.16150022e+00 2.75271416e-01 -6.53838813e-01 2.83367693e-01 6.45935953e-01 -4.27483499e-01 -3.51595879e-01 1.11018348e+00 -4.83357906e-01 -2.14309037e-01 -2.75403827e-01 -1.29106805e-01 6.75600410e-01 1.05884731e+00 7.67000496e-01 5.59652627e-01 5.90139091e-01 -1.11784172e+00 1.19665615e-01 1.38147816e-01
-1.13341570e-01 1.05687760e-01 3.14923137e-01 -5.71937971e-02 3.03483486e-01 -9.76562798e-02 -2.27123927e-02 3.30128781e-02 -5.93041182e-02 1.39365971e-01 3.25891599e-02 -1.25200721e-02 -3.81041924e-03 -7.91739151e-02 6.27082214e-02 -1.39938235e-01 9.14583132e-02 8.95251483e-02 2.95645315e-02 -4.16064829e-01 1.41447261e-01 -9.19806361e-02 4.70445156e-02 1.08168600e-02 1.29418850e-01 -1.32604036e-02 6.34525493e-02 1.58977792e-01 5.64961731e-02 -9.80137885e-02 -3.74114178e-02 5.86163066e-02
-7.24392533e-02 2.82435268e-01 2.72401899e-01 -1.03137307e-01 2.23505408e-01 6.56995252e-02 6.43628478e-01 2.73615062e-01 1.45923033e-01 -1.22894025e+00 -3.29248101e-01 5.16844332e-01 6.40525043e-01 -3.38301122e-01 -5.05307615e-01 1.20318560e-02 5.52729249e-01 -2.39326954e-01 1.16058877e-02 -4.97105598e-01 9.60304976e-01 -3.10881674e-01 -2.04412472e-02 -1.35430276e+00 1.74094588e-01 5.01022339e-01 -9.76213753e-01 -9.73648250e-01 2.58745849e-01 -9.88662839e-02 -6.57221898e-02 -3.23281109e-01
6.25696659e-01 -3.17826778e-01 -2.83453524e-01 4.53561634e-01 -1.02251098e-01 -5.52743301e-02 -1.18520997e-01 -1.76180616e-01 5.35410285e-01 -1.01971254e-01 -1.05869874e-01 -6.10745884e-02 7.42908418e-01 -3.28236341e-01 3.64700347e-01 -4.70677078e-01 -4.10556234e-02 -5.63329756e-01 4.01278138e-01 -8.76313075e-02 -3.26785117e-01 1.07398562e-01 1.54589400e-01 1.68277949e-01 -2.23273295e-03 -2.27663532e-01 8.08272481e-01 4.76785660e-01 -3.81081372e-01 3.50182950e-01 1.65319800e-01 2.70115614e-01
-1.77408800e-01 2.91042149e-01 -1.79199949e-01 -4.77089770e-02 -5.32280922e-01 -2.29398996e-01 1.35031670e-01 4.50290710e-01 -3.56221832e-02 -5.03332317e-01 -1.98512495e-01 4.18751463e-02 -3.39990675e-01 1.70692548e-01 3.06737781e-01 -2.19998255e-01 -1.10686556e-01 2.01418430e-01 2.56818589e-02 3.69039834e-01 -2.58663535e-01 -7.67285302e-02 -5.70389926e-02 -5.96465878e-02 -8.43535438e-02 -9.71650109e-02 2.70874649e-01 -3.04352224e-01 8.93094018e-02 6.06639450e-03 9.68259200e-02 1.55644566e-01
2.87625808e-02 -5.00486672e-01 -6.08405210e-02 -1.17399901e-01 -1.97084025e-01 -1.55270427e-01 -5.99921308e-02 -1.74446300e-01 -3.20339799e-01 4.73929286e-01 -2.33503170e-02 8.33852142e-02 3.60575080e-01 3.27371329e-01 -1.74000859e-01 -7.55738437e-01 -1.86468348e-01 -2.22311243e-01 3.23283076e-02 5.67706823e-02 7.99556375e-02 -1.75793171e-02 5.20791709e-01 3.13638672e-02 -3.65026593e-01 2.27510333e-01 3.26218516e-01 1.12856343e-01 -4.59385887e-02 1.13028601e-01 -9.08907279e-02 -2.29388401e-01
9.45110023e-01 1.20731518e-02 -5.61956763e-01 1.75453588e-01 1.30969971e-01 1.21304385e-01 5.46275973e-01 1.55250475e-01 -3.02038968e-01 -8.55775833e-01 -8.94785523e-01 1.39801931e+00 9.46325362e-02 -8.54543269e-01 2.92377502e-01 6.33558393e-01 4.71839979e-02 4.82984573e-01 -1.39147744e-01 7.80394748e-02 -1.63337147e+00 -3.39407802e-01 -8.01789284e-01 -2.23049700e-01 -4.86894935e-01 -3.24450992e-02 2.24955887e-01 7.14679003e-01 -3.87332328e-02 4.12226431e-02 -9.03182477e-02 5.38552284e-01
-2.15841785e-01 -6.81519955e-02 -9.01262105e-01 -1.71819683e-02 2.24376738e-01 4.79336292e-01 -4.92976606e-02 -2.95168557e-03 1.73789829e-01 5.04755855e-01 -3.32034379e-01 -1.32860923e+00 3.26858997e-01 3.22712541e-01 -1.45447150e-01 4.42148089e-01 -1.72862068e-01 1.29995728e+00 -4.13786501e-01 1.84209645e-02 4.22431171e-01 -1.28143281e-01 4.88514788e-02 7.07130551e-01 -2.15266302e-01 7.29513943e-01 -4.94979657e-02 -3.32190126e-01 9.32960957e-02 1.85321689e-01 6.47034407e-01 -1.22952498e-01
-1.00324005e-02 3.36331546e-01 -1.80194408e-01 -6.01707816e-01 -6.31439686e-02 7.84707844e-01 3.30651909e-01 7.81494856e-01 2.77178735e-01 3.78363729e-01 9.48901474e-01 -2.54241556e-01 7.01590255e-02 3.38077962e-01 8.46191421e-02 -7.03659594e-01 2.70132124e-01 -2.65391804e-02 -3.11942875e-01 -5.73225498e-01 -6.69092014e-02 -2.42666677e-01 2.98976928e-01 1.63230404e-01 -2.40988821e-01 1.56042725e-01 4.85827699e-02 1.99820381e-02 -5.65138042e-01 2.68444508e-01 -7.54419863e-02 1.20812066e-01
9.03883129e-02 -9.33384895e-03 -1.29921630e-01 -2.51942780e-03 1.45651093e-02 4.85284068e-02 4.14029472e-02 1.03597187e-01 -4.30883914e-02 -1.25001281e-01 -3.59125212e-02 -4.08834159e-01 2.62453020e-01 2.04911366e-01 2.17545833e-02 1.05150670e-01 5.55013791e-02 -9.34641361e-02 6.03096522e-02 2.52249867e-01 1.43860906e-01 2.70573795e-01 1.40443575e-02 2.54252493e-01 -1.25967264e-01 -2.57377297e-01 -1.88086435e-01 -2.02899531e-01 -3.00941020e-01 -1.52451649e-01 2.03595702e-02 -2.48139098e-01
5.03537118e-01 2.54990339e-01 4.45676595e-01 3.55229080e-01 5.98688960e-01 3.33364278e-01 8.35811734e-01 -3.14396173e-01 7.65238464e-01 -2.73839235e-01 -6.25771761e-01 1.76989600e-01 -4.77340221e-01 -6.49840653e-01 -2.08579525e-01 5.18327057e-01 -3.52292717e-01 -1.56728089e-01 2.15511844e-01 1.71484098e-01 -1.03851952e-01 5.23409128e-01 2.18639687e-01 4.92956370e-01 1.54069871e-01 -7.00706840e-02 -2.69804567e-01 3.93640399e-02 2.39248514e-01 3.72196048e-01 -1.82911865e-02 -9.82384086e-02
-3.08253527e-01 -5.40124476e-01 1.51056087e+00 7.21212327e-02 -8.97918999e-01 -1.48140803e-01 -1.13793027e+00 -9.69929755e-01 3.10926437e-01 1.07125902e+00 -1.65876327e-03 -4.49783206e-01 -2.77083039e-01 1.16229439e+00 6.11412942e-01 -2.06947589e+00 1.35753304e-01 -2.73229051e+00 1.76315939e+00 8.16360891e-01 -5.78434110e-01 1.70750237e+00 -4.01461452e-01 2.75012672e-01 4.02555645e-01 -6.74479187e-01 -2.66615510e-01 3.75070244e-01 2.00901672e-01 2.12674122e-02 6.31079972e-01 7.67837018e-02
2.12197974e-02 -2.69340873e-02 5.62323481e-02 4.16714735e-02 4.25389469e-01 -8.16949550e-03 7.08311843e-03 1.89098157e-02 6.83038384e-02 2.68312246e-02 -1.10620987e-02 -5.69181368e-02 1.03263475e-01 -5.38627338e-03 -1.93318576e-02 -4.68168259e-02 -2.61056679e-03 -4.60154973e-02 -8.20990503e-02 8.42910260e-02 1.63430065e-01 3.76841165e-02 -4.44510505e-02 7.15213316e-03 -1.30845457e-01 -1.39689863e-01 1.61117241e-02 3.21065485e-01 -4.37829271e-02 -5.83144724e-02 2.58249901e-02 -2.37644300e-01
-4.27925110e-01 -5.17963693e-02 -9.73588377e-02 -1.44734859e-01 -1.66593820e-01 1.15593009e-01 -5.89595214e-02 7.30284035e-01 -3.17121118e-01 1.38323933e-01 -3.02709252e-01 8.78622055e-01 5.61456084e-01 3.02012503e-01 5.41103125e-01 3.00353646e-01 -1.24793746e-01 2.47466251e-01 -1.75901979e-01 2.12699529e-02 -1.09746680e-01 -5.57762861e-01 8.73798281e-02 -2.78331846e-01 -2.95785218e-01 -1.28343165e-01 -6.81475878e-01 3.92959535e-01 -1.99684456e-01 -3.16800982e-01 2.90335625e-01 4.66684788e-01
-1.65834457e-01 -1.81191087e-01 7.27191627e-01 1.86557859e-01 -6.89726412e-01 3.57234418e-01 3.33252281e-01 -4.93680865e-01 4.80573475e-01 3.54204506e-01 -1.57576218e-01 4.30986315e-01 -1.71571411e-02 9.20655876e-02 1.95594639e-01 -2.09995961e+00 1.53633967e-01 -1.05730224e+00 -6.35306537e-02 2.28380606e-01 -1.59452222e-02 3.12159836e-01 3.46496224e-01 1.07242040e-01 -1.92791805e-01 -4.58527714e-01 -1.52187258e-01 -2.24633038e-01 -3.44968140e-01 -5.50707281e-01 4.35789943e-01 -3.29015106e-01
-2.34165162e-01 6.58829436e-02 -7.48009533e-02 1.45495847e-01 -3.28407347e-01 -5.89635111e-02 2.14816779e-01 -1.87466472e-01 -3.96359831e-01 1.78373265e+00 -3.67997140e-01 -7.52522200e-02 -2.69155294e-01 1.28614843e+00 -2.72115231e-01 -1.53573215e-01 2.74411589e-02 -2.42587492e-01 -7.17507303e-02 -3.03165734e-01 7.00975806e-02 2.26568878e-01 -1.10359758e-01 -1.88751385e-01 -1.08033240e-01 7.37425983e-02 4.19877738e-01 4.21338320e-01 2.33097538e-01 -4.70884025e-01 2.21194867e-02 -1.27146766e-01
-9.63050313e-03 -1.57642677e-01 5.81721723e-01 4.68986630e-01 -1.07462071e-01 -4.71346617e-01 -9.11324382e-01 8.17486271e-02 1.34741127e-01 3.88291925e-01 5.55570945e-02 1.99529193e-02 1.16290696e-01 2.45775148e-01 -3.35543722e-01 8.90441418e-01 4.59603071e-02 2.57345140e-01 -1.87312644e-02 -2.99874753e-01 4.28040445e-01 3.81808162e-01 2.51907617e-01 -5.46088278e-01 -2.08138362e-01 1.22313239e-02 -2.05447331e-01 7.06131220e-01 -1.99703306e-01 3.10639471e-01 -1.84938580e-01 -7.32022822e-02
9.26244497e-01 -3.09003681e-01 5.34781873e-01 9.29874182e-01 -3.72559667e-01 1.59692407e-01 -8.36261988e-01 -5.49568951e-01 5.91839015e-01 -1.38842738e+00 -2.55441010e-01 6.32998288e-01 -1.19073558e+00 -3.33767563e-01 5.84254980e-01 -4.75547224e-01 -2.33688466e-02 -8.33860934e-02 5.74114621e-01 8.08744907e-01 3.56411695e-01 -3.96668345e-01 -2.11562753e+00 -5.33109307e-01 5.03213704e-01 6.00398719e-01 -8.56060565e-01 -4.23650950e-01 -7.43136778e-02 1.20760369e+00 -4.56512570e-01 -4.48257439e-02
-2.70411633e-02 1.69323698e-01 -3.87564600e-02 -5.29805049e-02 -1.52662873e-01 -3.26692984e-02 3.13140526e-02 -4.92215380e-02 -3.64400372e-02 1.10436184e-03 4.36406769e-02 9.60896760e-02 8.72728974e-02 -3.43958884e-02 1.36368200e-01 -1.28486291e-01 8.75789300e-02 1.98673218e-01 -5.34963887e-03 -2.78289020e-01 1.59972399e-01 4.40688021e-02 -2.64929887e-02 -1.44361397e-02 -3.03363532e-01 -3.56792845e-02 1.67202409e-02 -1.01708546e-01 -2.02809107e-02 -1.04607726e-02 -9.15563479e-03 -2.15615898e-01
3.93848866e-02 3.24234307e-01 1.68279648e+00 4.53008980e-01 -1.47464502e+00 2.01740757e-01 -2.53826350e-01 -5.36741018e-01 8.95535588e-01 7.12550640e-01 1.13736577e-01 -2.79882908e-01 -8.96968067e-01 8.28105092e-01 3.47342864e-02 -3.77949214e+00 -2.19161689e-01 -4.94137192e+00 3.41453701e-01 1.04676776e-01 -1.22347558e+00 1.03696287e+00 3.66355538e-01 1.66026637e-01 2.16716915e-01 -1.69326186e-01 -5.18319011e-01 6.96030974e-01 -1.94816589e-01 -6.86327508e-03 7.30346143e-02 8.90692696e-03
-7.06578553e-01 3.57359350e-01 3.05983871e-01 -6.58264160e-01 -4.46314663e-01 -2.84802616e-01 -3.04551601e-01 3.73650014e-01 9.02887136e-02 1.88864559e-01 1.98302418e-01 -3.69600713e-01 3.41271967e-01 6.31839693e-01 -5.90957999e-01 -5.74205697e-01 8.50985274e-02 -4.55904782e-01 -2.10422322e-01 4.88930307e-02 -4.34923619e-02 8.15400183e-01 1.39878988e-01 -1.09355293e-01 -3.21440279e-01 2.03862607e-01 -6.24958992e-01 3.70870948e-01 -2.80358214e-02 -4.92622107e-01 -3.19913715e-01 -5.76968074e-01

layers.2.bias:
-1.44580615e+00
-7.59254813e-01
3.96877050e-01
-7.72008955e-01
2.55457964e-02
-2.46048838e-01
2.08526418e-01
2.06508589e+00
4.28374559e-01
7.90616989e-01
-8.88631463e-01
-1.37483287e+00
-3.84687483e-01
9.19927835e-01
-2.66754955e-01
-6.91863894e-01
-4.76026349e-02
-7.67301261e-01
3.36282104e-01
-1.16766013e-01
-2.56780416e-01
7.23872960e-01
7.52142251e-01
-1.67435989e-01
-1.81172058e-01
9.74578202e-01
-9.76217389e-01
-1.06211472e+00
4.92835164e-01
-1.07220078e+00
-9.44988206e-02
-1.33640930e-01
8.10374916e-01
8.22922885e-02
-3.71588528e-01
-1.55090839e-02
-1.48121327e-01
1.36777091e+00
1.02490091e+00
-8.51410553e-02
9.83805001e-01
-2.02751234e-01
-5.30725539e-01
1.29280388e+00
2.23968074e-01
-9.51515496e-01
1.05532920e+00
-2.88188398e-01
7.74576664e-01
1.70768297e+00
2.28014737e-02
2.96800196e-01
1.31096661e-01
-4.68742877e-01
1.96695000e-01
-9.37968027e-03
7.82566249e-01
-1.54283166e-01
-1.24028623e-01
-4.45170105e-01
6.34683669e-01
6.17477447e-02
-3.35079908e-01
5.48726916e-01

layers.4.weight:
3.11632544e-01 5.91843668e-03 -5.45654111e-02 4.86610876e-03 -3.41796465e-02 9.47331935e-02 3.62551713e-04 -6.81636572e-01 -9.81279537e-02 -3.78924280e-01 1.98209677e-02 1.07782257e+00 -1.56884205e+00 -6.72012120e-02 1.38523113e-02 -1.54400253e+00 -3.55765224e-04 8.84561017e-02 1.37009956e-02 4.96352906e-04 1.02926686e-03 -1.40394658e-01 -4.82285880e-02 2.99743056e-01 -5.17499633e-02 -2.98921224e-02 4.29143831e-02 7.70405293e-01 -3.82332981e-01 3.83335948e-01 -3.38856950e-02 -2.20503598e-01 -3.76704894e-02 7.15013943e-04 1.13911912e-01 3.62071914e-05 6.45843451e-04 -1.69024199e-01 -2.36247871e-02 1.70745909e-01 -6.41318634e-02 2.39069685e-01 7.07064644e-02 -1.20463833e-01 6.41250226e-04 1.33775696e-01 -1.86548978e-02 -2.60163273e-04 -7.75593594e-02 -6.37174606e-01 -5.74856400e-02 -1.33235194e-02 -5.63881476e-04 -3.59774654e-04 -1.02891076e+00 -4.43472572e-06 -3.05361748e-02 -2.92407542e-01 -8.59674662e-02 3.98450538e-06 -2.24473905e-02 -4.93380241e-04 9.81909156e-01 -1.53328469e-02

layers.4.bias:
-1.06253135e+00

