layers.0.weight:
3.31696361e-01 -5.67613244e-01 7.97264636e-01
5.69172144e-01 -8.09445798e-01 -5.80563486e-01
-8.31293464e-02 -6.13938749e-01 -5.77727258e-01
-1.07055378e+00 1.15616508e-01 4.58123112e+00
2.67282110e-02 4.11940843e-01 1.16166264e-01
-5.79876065e-01 8.58121514e-01 -1.84879377e-01
-1.31842160e+00 4.86020595e-01 -9.88645032e-02
-6.01682402e-02 7.88846374e-01 -9.23566997e-01
6.03414774e-01 -9.26082134e-01 5.12713566e-02
-1.11527514e+00 5.86289167e-02 -1.64189592e-01
7.53551662e-01 -9.85680073e-02 1.41279221e+00
-7.16238439e-01 -1.31785080e-01 -1.29353356e+00
-4.30584475e-02 7.12955832e-01 -1.57757306e+00
-1.16726887e+00 2.10410804e-02 5.00053525e-01
-6.46977663e-01 1.09646142e+00 7.52028525e-01
-1.81771189e-01 9.48456824e-01 1.64468549e-02
5.46070874e-01 -6.33792400e-01 -1.45019031e+00
-1.15504665e-02 1.12846863e+00 1.84981868e-01
8.07071701e-02 -9.54183042e-01 5.35116851e-01
3.41117471e-01 -1.28724232e-01 -8.64976227e-01
2.23475501e-01 1.65966094e-01 -5.10879010e-02
-3.24195027e-01 -2.56797969e-01 -1.00232065e+00
-4.64660525e-01 1.65601885e+00 -4.46076952e-02
-1.56447518e+00 4.06930357e-01 1.75152493e+00
1.05132234e+00 3.79940838e-01 -7.78481364e-01
2.59609371e-01 6.71772659e-01 -1.17486012e+00
-1.16151750e-01 -2.13369340e-01 1.90187418e+00
-3.97779703e-01 -2.44972542e-01 1.92939892e-01
3.22416067e-01 7.57217348e-01 -1.46468067e+00
-1.04933763e-02 4.65525806e-01 1.70563948e+00
-2.89658904e+00 2.84448242e+00 -1.78299040e-01
-1.26738083e+00 -5.19488692e-01 1.02004325e+00

layers.0.bias:
8.77201200e-01
4.81547834e-03
-1.42384720e+00
-6.34384930e-01
7.07518518e-01
-2.04255387e-01
-3.54310095e-01
2.86240637e-01
-7.45998621e-01
-1.59115899e+00
1.64644122e-01
1.80825554e-02
2.46107668e-01
-1.21306002e+00
-2.90836543e-01
1.43946290e+00
9.34610724e-01
1.82654703e+00
-6.68276668e-01
5.78918040e-01
-1.44309163e-01
-1.35729384e+00
1.02535832e+00
-7.05530941e-02
1.36946186e-01
5.60703695e-01
8.80503118e-01
-1.57881156e-01
-4.88352716e-01
7.31267482e-02
8.91685039e-02
-6.70209900e-02

layers.2.weight:
-3.69645566e-01 1.77665025e-01 4.18383889e-02 -4.74844098e-01 -1.99877359e-02 5.33297881e-02 8.92969370e-02 -5.97720258e-02 -7.67036974e-02 2.82586908e+00 9.72557738e-02 5.86961210e-02 -2.30912611e-01 2.43399334e+00 -1.51927412e-01 4.05223459e-01 -8.05457160e-02 6.58762574e-01 1.31657138e-01 -2.85520256e-01 2.56685644e-01 -8.70824978e-02 -4.90417153e-01 6.25462532e-01 -1.05148323e-01 6.09031022e-01 -7.80998945e-01 -1.42189667e-01 -1.79728046e-01 -2.08784685e-01 -2.25295663e-01 2.66135573e-01
-1.21268719e-01 1.45466819e-01 -8.52742374e-01 1.85531974e-02 -3.97758573e-01 1.79610655e-01 -7.16951609e-01 -4.39605862e-01 5.56869745e-01 7.07767844e-01 3.17707717e-01 -2.45905250e-01 2.79861182e-01 1.77599844e-02 -2.86977142e-01 1.65138721e-01 -3.49520415e-01 3.19649994e-01 -4.84378427e-01 -7.13444278e-02 7.54009724e-01 -1.35082260e-01 -3.57712567e-01 -9.08789560e-02 6.14229590e-02 -4.27494794e-02 -3.62125784e-01 -6.71092927e-01 1.27467439e-01 -2.53485799e-01 3.70039314e-04 1.46060333e-01
-9.37347710e-02 -8.05468634e-02 1.23556875e-01 -8.03689957e-01 -7.06893086e-01 3.33775058e-02 -4.07618314e-01 3.78317952e-01 4.17412013e-01 8.00043523e-01 -5.95358431e-01 -4.09644060e-02 2.14751989e-01 9.52860638e-02 -1.70746986e-02 -6.08070076e-01 -1.80410683e-01 -5.81156850e-01 -1.50378227e-01 3.48006040e-01 -3.13477069e-01 -1.77034631e-01 4.33009356e-01 -1.14173937e+00 -2.80650467e-01 4.86421883e-01 -1.22278595e+00 6.93851430e-03 4.74761724e-01 -4.24557090e-01 1.58366486e-01 1.36428505e-01
3.47543895e-01 4.03902605e-02 -1.38397245e-02 1.44508600e+00 4.88966912e-01 2.83206999e-01 5.58883309e-01 -3.43139946e-01 -3.70948426e-02 -1.43680096e-01 2.60214001e-01 -1.62442192e-01 -6.76153004e-01 5.93416207e-02 5.17824709e-01 4.95298564e-01 -1.76193982e-01 5.55404663e-01 4.30594027e-01 -8.35727036e-01 -9.26419139e-01 -2.50969559e-01 2.63458282e-01 1.30384731e+00 -5.64673841e-01 -6.56031609e-01 5.97666264e-01 3.04457426e-01 -7.66153216e-01 -6.29594252e-02 -1.21694066e-01 6.15816951e-01
1.31039813e-01 -3.29861641e-01 2.19991535e-01 -5.20399570e-01 1.89765185e-01 -3.31543654e-01 -1.16657996e+00 2.12570012e-01 9.83305126e-02 -5.42478442e-01 3.57408404e-01 -6.85586452e-01 8.77415121e-01 -8.86147380e-01 -1.04055040e-01 -7.79300153e-01 -2.91870713e-01 -7.66116917e-01 -1.43356830e-01 -4.08034138e-02 8.57440472e-01 -5.30138850e-01 1.72419965e-01 -4.23448354e-01 -7.63610542e-01 7.19404519e-01 2.50385143e-02 -6.12122536e-01 -1.96118966e-01 5.47472358e-01 -3.13790560e-01 3.22953314e-02
-2.97645688e-01 7.80707821e-02 5.04529655e-01 1.17675029e-01 -9.89507854e-01 -2.64939576e-01 -1.92201823e-01 2.96209246e-01 3.97371441e-01 -9.37628672e-02 6.01687431e-01 3.38786036e-01 -3.53083685e-02 -7.57207628e-03 -1.42516837e-01 -1.36593771e+00 -4.85624373e-01 -1.54837751e+00 7.21859097e-01 -2.95611650e-01 -5.53249478e-01 -2.47014463e-02 -5.92746139e-01 -2.35172898e-01 7.69632906e-02 1.27614230e-01 1.00195840e-01 1.03813076e+00 -1.19324468e-01 -4.76842463e-01 -7.75900841e-01 3.19258302e-01
-3.77607234e-02 7.18745496e-03 -2.12359816e-01 8.29918031e-03 -1.68471754e-01 1.81369409e-01 -9.58241224e-02 -4.07379866e-01 -1.43609107e-01 2.35795960e-01 2.89714158e-01 5.02833426e-02 2.73958802e-01 -1.77196469e-02 -1.69909541e-02 -2.07442373e-01 1.00198630e-02 1.29407197e-01 -4.93093431e-02 -3.26289654e-01 -3.92365336e-01 1.30699262e-01 7.11945146e-02 1.58814155e-02 1.72499716e-01 2.42387533e-01 -3.44482780e-01 -3.76098424e-01 -1.58424512e-01 9.02106464e-02 -1.16928451e-01 1.27890602e-01
3.68187666e-01 1.47860989e-01 -3.76680970e-01 3.58675569e-01 2.39956602e-01 -6.88982308e-01 1.25369817e-01 4.86145288e-01 5.66611551e-02 -3.30697387e-01 -1.22882083e-01 9.54509139e-01 3.11537117e-01 -5.75582862e-01 -2.10608780e-01 1.88350603e-01 5.17074466e-01 1.61650971e-01 2.53068894e-01 4.99133795e-01 -1.45400834e+00 -8.98863435e-01 1.24194689e-01 2.83316523e-01 1.98329836e-01 7.45095491e-01 6.06206596e-01 5.33057451e-01 -6.32480264e-01 4.96853709e-01 2.01004922e-01 -2.61160403e-01
1.41749412e-01 3.04254621e-01 -6.13953829e-01 -2.34252021e-01 1.26048779e+00 -4.52139944e-01 -4.73579556e-01 -3.61455262e-01 -5.48429489e-01 2.43720770e-01 5.03724039e-01 2.37182036e-01 6.64842367e-01 -1.25649020e-01 7.98437670e-02 1.57016015e+00 3.81359965e-01 1.33284867e+00 -5.17524719e-01 -1.19056404e-01 1.25433788e-01 -3.93283844e-01 8.53031501e-03 2.22620040e-01 1.15840711e-01 3.74648660e-01 6.92137107e-02 -6.16708733e-02 2.39602942e-02 1.72895253e-01 2.27341413e+00 -3.19580555e-01
-5.87767541e-01 5.88163398e-02 -1.39866695e-01 -4.94746983e-01 5.13757706e-01 -2.21788837e-03 -5.30964695e-02 3.49843055e-01 3.82288247e-01 -1.94893226e-01 3.85993794e-02 2.12488547e-01 1.57218799e-01 1.74310625e-01 -3.44918609e-01 -3.93886685e-01 2.26574540e-01 -2.96896309e-01 -4.01307285e-01 -7.21161067e-02 -6.61344945e-01 -2.61350840e-01 9.99932885e-02 -3.09408326e-02 -2.45687172e-01 -1.16271354e-01 -1.46485865e-01 2.42498770e-01 2.36877084e-01 1.94057837e-01 1.49469793e-01 1.71440858e-02
1.52351260e-02 -3.67748916e-01 -5.80813847e-02 -3.27749312e-01 -5.66534877e-01 -2.13861063e-01 -1.84703588e-01 1.03771202e-01 3.31928700e-01 3.27644408e-01 -5.01578093e-01 -1.44107729e-01 8.19828868e-01 -2.65981078e-01 -1.61025330e-01 -3.68557036e-01 -6.72121286e-01 -1.00076032e+00 5.29636443e-02 -7.66391158e-02 1.01193535e+00 -2.37110823e-01 -7.35456407e-01 2.22166523e-01 -2.39563763e-01 -1.03035606e-01 -3.96218151e-01 -3.87363791e-01 2.23036289e-01 -3.63304406e-01 3.04754172e-02 5.13942957e-01
-1.22088932e-01 -5.70418239e-02 1.65049171e+00 -8.55282187e-01 -7.46164382e-01 1.72628954e-01 -2.87309662e-02 -4.00798678e-01 2.36536786e-01 1.87243712e+00 5.26310317e-02 -1.43789276e-01 2.75412381e-01 3.24015951e+00 1.18360119e-02 -6.81749761e-01 2.98548847e-01 -2.44952822e+00 5.52205503e-01 -3.40360224e-01 2.90790856e-01 5.78458488e-01 -2.43748963e-01 8.68841171e-01 -4.74557020e-02 -5.66637516e-01 3.12202275e-01 -1.38687849e-01 1.17559195e-01 5.22830598e-02 1.25068977e-01 -3.67008269e-01
-5.95643520e-01 -1.61957905e-01 9.13191795e-01 3.85735899e-01 -6.64873600e-01 5.96844554e-01 4.96085286e-02 -9.36999917e-01 3.44049364e-01 4.35328692e-01 2.27751687e-01 1.78529173e-01 -4.85967308e-01 -8.81399587e-02 4.46209371e-01 -4.29327965e+00 -7.79338777e-02 -6.07680416e+00 6.11296773e-01 -9.68848646e-01 -7.09519565e-01 4.07546222e-01 6.13702357e-01 -1.07157998e-01 -3.08057785e-01 -2.20542401e-01 -3.77813637e-01 6.44448340e-01 -6.14282250e-01 -3.57745677e-01 -1.02798223e+00 -2.09768951e-01
7.09231049e-02 -1.37494951e-01 -6.46853805e-01 -6.45096079e-02 -1.33635268e-01 -7.52094910e-02 2.24426210e-01 3.24802160e-01 3.91591519e-01 -2.49291345e-01 5.31771839e-01 -1.85619399e-01 3.30026865e-01 -8.19502711e-01 -3.53628695e-01 -3.13427038e-02 -2.30387345e-01 2.27471307e-01 -9.02669355e-02 1.42788991e-01 -5.88180050e-02 -1.61631703e-01 1.72263458e-02 -2.24238127e-01 -1.30720735e-01 7.57189751e-01 -4.59046569e-03 6.10749982e-02 -1.92182660e-01 2.57523030e-01 1.76475927e-01 3.61296624e-01
-1.04793298e+00 8.95563364e-02 -2.13431254e-01 4.55268443e-01 1.01516865e-01 7.39392102e-01 -3.52563947e-01 -2.26073757e-01 3.54362220e-01 -8.12439322e-02 -6.41333818e-01 1.15510382e-01 3.85356583e-02 -1.92940354e-01 -1.46786064e-01 -7.78710663e-01 1.08926691e-01 -7.87290812e-01 -2.80338973e-01 1.97625548e-01 1.48675823e+00 8.15274656e-01 1.12021454e-01 3.29128146e-01 -4.30727690e-01 -1.77055467e-02 -4.74510700e-01 -4.06342559e-03 6.43172204e-01 -1.28686190e-01 -1.09395690e-01 1.97974324e-01
-5.11662662e-01 -7.01180100e-02 9.21982676e-02 1.36858150e-01 -2.83071041e-01 2.98096836e-01 -9.51497674e-01 -9.44970772e-02 1.04526728e-01 5.23572159e+00 5.67345798e-01 4.15431499e-01 2.17035666e-01 2.65401030e+00 1.09733185e-02 -4.96416241e-02 -4.38801348e-01 -1.65556863e-01 5.86023629e-02 -2.08995476e-01 -6.74841583e-01 4.14334863e-01 2.24014625e-01 2.68014997e-01 -3.72407168e-01 -4.28855419e-01 -6.31468415e-01 3.11021268e-01 -1.54921740e-01 -6.56325936e-01 2.23487794e-01 -2.60853976e-01
-6.26722630e-03 1.44397870e-01 -5.86732663e-02 2.87474561e-02 1.63790733e-02 6.35219878e-03 2.33735908e-02 -6.17730804e-02 3.41616236e-02 -1.74346834e-01 6.89612105e-02 4.19110246e-02 5.18075824e-02 9.89031792e-02 1.07893102e-01 2.08261888e-02 4.06542495e-02 1.11384308e-02 6.52527029e-04 1.20275483e-01 2.65237063e-01 1.14931718e-01 -1.46999806e-02 3.64210270e-02 5.78669906e-02 2.73490120e-02 5.16279116e-02 2.49155283e-01 4.32566646e-03 -5.44507010e-03 2.76194140e-02 2.85886377e-02
1.35030493e-01 -1.31384552e-01 -6.90026462e-01 5.02828546e-02 3.83624256e-01 -1.80576712e-01 -2.12041318e-01 -2.93162912e-01 2.77460724e-01 -6.60700083e-01 7.28460029e-02 -3.04045379e-02 2.01776415e-01 6.73440620e-02 -6.99174702e-02 2.14152157e-01 -3.13100725e-01 6.17627800e-01 -2.03663424e-01 9.09830570e-01 4.10018772e-01 2.35723425e-02 -4.16058451e-01 -1.20054357e-01 -1.37381718e-01 -4.38344330e-01 8.42833221e-01 -5.80447614e-01 2.61604816e-01 3.13251704e-01 -4.50070500e-02 2.17788577e-01
-2.68828362e-01 -8.71542171e-02 -3.36688727e-01 -1.94470376e-01 5.12042165e-01 1.33156981e-02 4.54202853e-02 1.16864868e-01 4.40009832e-01 -4.47956175e-01 -1.43352836e-01 -9.47040200e-01 4.61068600e-01 -2.26569384e-01 -1.70720607e-01 2.43762463e-01 -1.39493093e-01 4.17647749e-01 1.28168553e-01 -7.48410821e-02 4.82175276e-02 -2.10648939e-01 4.88050967e-01 -3.34176451e-01 3.40304643e-01 1.92175522e-01 -1.65651768e-01 2.12055087e-01 6.38906658e-02 3.64522725e-01 4.73993897e-01 2.51512285e-02
6.60994202e-02 1.79856807e-01 -1.65005699e-02 6.74957931e-02 -5.22269085e-02 1.02251820e-01 -2.18798742e-02 -7.20729008e-02 5.20317778e-02 6.94291666e-02 6.81443885e-02 1.18020266e-01 -6.37878031e-02 -7.31032044e-02 1.24414012e-01 4.33513075e-01 6.54092804e-02 -3.09616655e-01 3.34352627e-02 -1.02167450e-01 -1.07399829e-01 -1.44608781e-01 3.49448109e-03 -1.67768151e-02 3.10348552e-02 1.29941285e-01 2.88928626e-03 5.32459188e-03 1.19036786e-01 1.17823482e-02 -8.48253071e-03 4.65588570e-02
3.84327739e-01 -1.77190408e-01 7.11434782e-01 5.62958002e-01 -3.54202271e-01 -1.37072816e-01 -6.67337775e-01 -1.05296649e-01 -2.97047168e-01 -7.43752956e-01 -6.02402724e-02 9.03964579e-01 4.63314474e-01 -4.25747514e-01 7.66169190e-01 4.42138791e-01 -9.58397463e-02 -2.83761293e-01 3.98510724e-01 4.15840089e-01 -3.25585872e-01 1.31538600e-01 6.27678573e-01 1.66749746e-01 1.08812325e-01 -3.99548799e-01 1.24347389e-01 2.35404298e-01 -1.07309632e-01 -4.42822054e-02 1.64700702e-01 4.21534151e-01
2.53586859e-01 -1.07722558e-01 3.31790596e-02 1.41319185e-01 1.25995055e-01 1.45243347e-01 9.24505055e-01 8.76396969e-02 4.41021413e-01 2.30355695e-01 3.19427162e-01 3.83507103e-01 -3.86395484e-01 -5.93617022e-01 1.02020182e-01 -7.92949200e-01 -3.64021063e-02 -5.95790267e-01 -1.07667245e-01 -4.08663809e-01 -5.17441452e-01 2.32994626e-03 2.65583634e-01 -7.05455318e-02 1.39063776e-01 -4.02922183e-01 -7.13616252e-01 3.91030401e-01 -8.62331316e-02 -1.94919676e-01 2.65582889e-01 -1.29054293e-01
1.09834857e-01 3.77404271e-03 -3.11969042e-01 4.13076788e-01 5.03647402e-02 3.36045295e-01 3.53986889e-01 -2.88772762e-01 -2.97907770e-01 3.07476521e-01 2.82663014e-02 8.22015405e-02 4.28350866e-01 4.76287186e-01 -1.83883235e-01 -5.01820147e-01 5.63832223e-01 -1.23205341e-01 7.97970220e-02 -2.26989061e-01 -4.32327211e-01 2.85196044e-02 -4.17508632e-01 1.83152974e-01 -3.80052984e-01 -1.13198727e-01 -4.56374921e-02 -4.03911620e-01 2.58211400e-02 -1.11132018e-01 -2.24611629e-02 -2.73308814e-01
7.27261066e-01 -3.85014117e-02 -2.51990139e-01 1.58657864e-01 1.14655830e-01 -4.82037306e-01 -4.37241346e-02 3.40052783e-01 2.97150344e-01 -2.57640123e+00 1.03695109e-01 1.76072359e-01 3.88271183e-01 -1.64113784e+00 1.30423203e-01 3.20334703e-01 1.44055098e-01 2.25989670e-01 -2.44555056e-01 -2.42142216e-03 4.89202768e-01 -2.01180831e-01 -3.19562793e-01 -5.05773388e-02 -3.57229412e-01 -1.81807607e-01 -6.70959502e-02 -1.62263006e-01 2.82675862e-01 9.78227407e-02 -1.97647661e-01 -1.89076558e-01
-9.24989760e-01 1.46075621e-01 3.12168021e-02 1.28599584e-01 -5.84309734e-02 -3.15688491e-01 1.04093909e+00 -6.29720241e-02 -1.09690940e+00 7.39958107e-01 -7.43341923e-01 4.36856300e-02 1.63927212e-01 8.04378018e-02 -7.01984286e-01 7.89577186e-01 5.96947968e-01 5.53890109e-01 7.43164644e-02 8.15729983e-03 -4.07426536e-01 5.36814690e-01 5.72913110e-01 9.62425888e-01 -4.15769130e-01 5.11635661e-01 -6.11451864e-01 1.00064650e-01 8.58580589e-01 -4.46500152e-01 1.06547102e-01 -1.47594810e-02
-5.50971329e-01 5.81109166e-01 -3.82674411e-02 -1.51525021e-01 5.79382002e-01 1.73674479e-01 1.08856596e-02 5.29352605e-01 -3.31221879e-01 4.96473998e-01 5.70085086e-02 -1.47120222e-01 2.29556218e-01 2.20839560e-01 -5.21088123e-01 -1.20387167e-01 -1.37877569e-01 -5.96520305e-02 3.70728523e-01 -3.63121241e-01 3.63784023e-02 -2.67112911e-01 3.27929184e-02 -6.21819139e-01 2.06158638e-01 -1.82666063e-01 -5.74055791e-01 -5.82933366e-01 1.80163875e-01 -3.73754293e-01 -1.96103767e-01 -3.78169119e-01
-1.61433563e-01 2.30867237e-01 4.69935238e-01 3.45626682e-01 -2.80842066e-01 -2.82445401e-01 -1.24075569e-01 1.26997316e-02 2.74447262e-01 -4.38599527e-01 -6.01851523e-01 -5.38611002e-02 -2.55497575e-01 -2.66079336e-01 6.10934272e-02 6.03250384e-01 -8.40575844e-02 1.85667694e-01 2.69956350e-01 2.02869952e-01 8.53679329e-02 -7.21571326e-01 1.89897254e-01 8.55742320e-02 2.95995146e-01 1.69467717e-01 -3.07819108e-03 -5.76058149e-01 -2.51442760e-01 -1.30640104e-01 6.58753738e-02 -2.66933173e-01
-8.20579290e-01 4.43907350e-01 -6.54303014e-01 -9.90213990e-01 -1.65515438e-01 -2.06272110e-01 -3.63619834e-01 3.93708825e-01 7.98896626e-02 4.44179416e-01 -3.05742975e-02 1.64121836e-01 1.61209702e-01 2.83592761e-01 1.26858801e-02 1.10447121e+00 6.66614413e-01 1.25764382e+00 -8.23207557e-01 5.43694757e-02 5.94022036e-01 -7.94449627e-01 -6.09828711e-01 4.18601722e-01 -1.35559469e-01 -4.50124413e-01 2.96383232e-01 2.56066084e-01 5.68845212e-01 -7.94387639e-01 2.04571679e-01 -2.88828850e-01
1.50936201e-01 -5.34530461e-01 -4.82370667e-02 -1.16561204e-01 -6.34722233e-01 5.22500396e-01 7.23990053e-02 -4.77379829e-01 5.10884345e-01 8.92992377e-01 -2.24560380e-01 1.19988650e-01 5.51270306e-01 4.00867760e-01 1.02934539e-02 -1.06470358e+00 -4.49778378e-01 -1.08176243e+00 8.26526061e-02 2.15873212e-01 2.33359635e-01 3.48745883e-01 1.87114343e-01 1.45284191e-01 2.70110399e-01 1.05708629e-01 -4.12171960e-01 -2.31571928e-01 -2.65610993e-01 -3.39706928e-01 4.40850466e-01 3.15029204e-01
-1.12550691e-01 -1.06369686e+00 4.12868768e-01 1.52890635e+00 1.20658726e-01 1.52765974e-01 -6.21648729e-02 -2.06865907e-01 -2.98005044e-01 2.89561689e-01 1.03169537e+00 -9.30132329e-01 -1.04872119e+00 -2.71289051e-01 2.63927549e-01 6.53225929e-02 -1.33473933e+00 6.16699100e-01 5.66360831e-01 -7.14013517e-01 9.42700744e-01 2.46303961e-01 7.63251260e-02 -1.72229365e-01 1.89043775e-01 -4.50057417e-01 1.51183888e-01 -7.08371699e-02 -8.25054646e-01 1.21171367e+00 -5.72133958e-01 -1.72543213e-01
-6.49983764e-01 -1.18923560e-01 3.56371999e-01 7.02320263e-02 -1.21947780e-01 1.67398185e-01 2.01313913e-01 9.70575586e-02 -3.51654381e-01 -3.00944597e-01 -9.50502932e-01 2.84092814e-01 5.31702220e-01 1.02428664e-02 1.17587902e-01 -1.92281589e-01 4.15223390e-01 -1.28488928e-01 -1.01387262e-01 -2.80102551e-01 -5.99719346e-01 1.75998300e-01 -3.87842134e-02 -7.60794342e-01 2.97478467e-01 6.70436859e-01 -1.78968236e-01 -9.61624458e-02 -3.34285825e-01 -2.86157012e-01 -2.28097498e-01 -1.31636351e-01
-2.53425390e-01 -3.54223400e-01 -1.97673485e-01 -1.39046162e-01 -1.16799422e-01 -5.61722815e-02 2.36367136e-01 2.54910916e-01 -6.92411780e-01 1.28634775e+00 -1.39521331e-01 -1.07897341e-01 -5.13007522e-01 4.65626657e-01 -1.34566933e-01 8.62002969e-02 1.75410453e-02 2.36887902e-01 -3.04437336e-02 -1.87628493e-01 2.00236171e-01 1.25308707e-01 4.41885293e-01 4.44706939e-02 2.48246565e-02 -6.88708425e-02 -1.76026344e-01 2.02770546e-01 2.48019665e-01 3.22279572e-01 8.61022323e-02 1.28665626e-01
-4.76558842e-02 -2.19013751e-01 -1.23222262e-01 -1.02478631e-01 -5.73286265e-02 4.09542471e-01 -4.28759515e-01 -3.99033546e-01 1.66176140e-01 -5.17035782e-01 4.47978228e-02 3.91665518e-01 2.07407698e-01 1.55491650e-01 1.90768123e-01 -2.35730097e-01 -3.38497132e-01 -8.68037045e-01 -1.27044156e-01 -2.40390152e-01 -6.75464869e-02 8.14675152e-01 4.10078794e-01 5.49683094e-01 -3.96826118e-01 1.54832840e-01 1.28776774e-01 -3.91014278e-01 -3.60589802e-01 -2.63312519e-01 -1.38938054e-01 -1.23586446e-01
2.17809938e-02 -5.03097586e-02 1.41681656e-01 -8.53493661e-02 2.16127530e-01 -1.03203163e-01 1.64352302e-02 -3.30734938e-01 -1.92779541e-01 3.41526091e-01 1.41311482e-01 1.76963970e-01 7.42978305e-02 -2.95186192e-01 -5.88270240e-02 -2.60486126e-01 6.05323501e-02 1.39617071e-01 -1.68605328e-01 -5.47358751e-01 1.29222170e-01 -1.52842447e-01 -1.10066533e-01 -3.82737927e-02 -1.22374753e-02 2.04491556e-01 -5.77899627e-02 5.55504747e-02 1.13202706e-01 7.60699958e-02 -3.41817401e-02 -4.76076826e-03
5.24715409e-02 -5.30847251e-01 -2.35064700e-01 7.73526073e-01 -3.55216175e-01 -4.59858119e-01 2.11204052e-01 -1.40988529e-01 -1.19769476e-01 3.01456428e+00 -5.53144991e-01 9.82530773e-01 6.41827643e-01 9.05869186e-01 7.20373511e-01 1.00902118e-01 4.61713783e-02 1.20748505e-01 5.74372351e-01 3.55738342e-01 2.13568732e-01 1.52552456e-01 -2.44393855e-01 1.07885325e+00 -4.77165356e-02 1.32269263e-01 -2.96340019e-01 3.13785493e-01 1.02177806e-01 4.12977599e-02 9.20093596e-01 2.39170361e-02
-9.93261188e-02 1.72669962e-01 1.24006830e-01 6.95985779e-02 5.44501767e-02 -4.18983623e-02 1.33287096e-02 1.07359231e-01 1.59981139e-02 -3.65661345e-02 1.67261600e-01 8.97970945e-02 9.37097222e-02 -2.19537821e-02 1.67369634e-01 1.69358745e-01 3.43362838e-02 -1.36534765e-01 -8.72916169e-03 9.34207439e-02 -1.52871966e-01 -6.30987734e-02 -2.50091441e-02 5.76039730e-03 -4.67819899e-01 -2.17208073e-01 4.30765115e-02 -1.41100690e-01 -5.86744733e-02 -5.95716946e-02 3.15786116e-02 -4.47873712e-01
3.58136394e-03 -8.40367600e-02 -6.20859563e-02 2.09563188e-02 -1.95365012e-01 2.77994573e-02 -1.96410548e-02 1.67918950e-01 6.07569776e-02 -5.45611940e-02 -1.08710350e-02 -1.97328422e-02 -6.12070113e-02 2.78545339e-02 -5.37617877e-02 1.87103733e-01 -1.06019109e-01 -1.32145360e-01 1.63088366e-02 3.28676403e-01 -2.36029834e-01 -1.13613874e-01 4.28625615e-03 -5.09796385e-03 5.93511201e-03 -8.73508081e-02 -6.74745068e-02 -8.29849169e-02 -5.10641783e-02 4.89390157e-02 2.77708210e-02 4.90596751e-03
8.27229619e-01 -2.75770932e-01 2.57040918e-01 3.43658060e-01 -2.61714697e-01 1.83106307e-02 -5.80499470e-01 3.39734927e-02 6.62647426e-01 6.34031221e-02 -1.74513608e-01 3.76436710e-02 5.61214127e-02 2.34978795e-01 7.46982992e-01 -5.65705776e-01 -4.59160149e-01 -6.02406919e-01 3.44402969e-01 -2.71064430e-01 -7.24014938e-01 1.96096927e-01 -9.85473394e-02 2.10388467e-01 8.03184986e-01 -2.62423195e-02 2.26280004e-01 -1.98802888e-01 -5.02180338e-01 2.30146632e-01 1.11844711e-01 1.06554747e-01
1.66960314e-01 -3.95487547e-01 -3.01420093e-01 4.13132370e-01 2.54253268e-01 -6.13878548e-01 4.06642966e-02 -2.03957893e-02 2.80026883e-01 -2.83259422e-01 -2.33262524e-01 4.48374838e-01 3.46181333e-01 -2.97408015e-01 2.35225275e-01 -5.68443060e-01 -3.24244469e-01 -6.88716471e-01 4.95029032e-01 -3.97966325e-01 -2.54145712e-01 -7.63463899e-02 3.48279148e-01 6.37323737e-01 -8.64613354e-02 -3.25448096e-01 4.46892262e-01 -7.58025870e-02 -1.14885636e-01 -4.15346116e-01 9.64202806e-02 1.84720352e-01
2.09140815e-02 -4.63894233e-02 7.66302049e-01 9.26198065e-02 -1.19174933e+00 -3.42578739e-01 2.45945781e-01 -9.85804275e-02 6.66902661e-01 5.69652140e-01 -1.40079126e-01 -3.66592824e-01 2.68697497e-02 6.75910234e-01 1.22854626e-02 -2.28106403e+00 -3.29141915e-01 -2.83847380e+00 1.30588040e-01 5.18930657e-03 -7.87310481e-01 6.88863039e-01 1.66447908e-01 1.20087020e-01 2.23315328e-01 1.30799457e-01 3.21786106e-01 2.11706951e-01 -1.57548040e-01 -7.83086300e-01 -8.25753510e-01 1.64508149e-01
-1.67442501e-01 -2.61511326e-01 -2.72599965e-01 -2.69597381e-01 -2.29771435e-01 5.51078796e-01 1.70863211e-01 -1.18282743e-01 -1.30990431e-01 3.60013902e-01 -1.86676636e-01 1.56764016e-01 4.66049463e-02 -2.71316707e-01 -1.17501654e-01 -4.06387448e-01 2.94204146e-01 -5.76176107e-01 -2.80575007e-01 3.00433319e-02 -3.63820046e-01 3.77089202e-01 -1.46848023e-01 3.56463313e-01 3.53952140e-01 -5.22793412e-01 4.95226890e-01 9.81117934e-02 5.08117639e-02 1.44336253e-01 -5.10692596e-02 4.11842912e-02
4.36170578e-01 6.96492195e-01 7.04294026e-01 -4.16105121e-01 1.20312087e-01 1.49800301e-01 2.27198303e-01 -9.72572938e-02 -8.39982331e-01 9.93430316e-01 -3.03120583e-01 -2.21924394e-01 -4.24102485e-01 1.13637102e+00 1.39828697e-01 1.45925492e-01 4.30868454e-02 -9.71546412e-01 2.94039041e-01 -2.67004788e-01 2.12429520e-02 7.21948147e-01 -1.59547850e-01 -4.04029489e-01 5.89217424e-01 -7.56477118e-01 4.77875769e-01 -1.09213283e-02 -3.33491027e-01 -6.15626633e-01 -7.87063092e-02 -4.05946761e-01
-2.66525764e-02 -3.97858888e-01 1.99652344e-01 -1.49911046e-01 -2.72167832e-01 1.32850513e-01 6.49037659e-02 -3.09680134e-01 -4.46536273e-01 -3.28528821e-01 -7.95826167e-02 -2.08546296e-02 -1.24962099e-01 5.05169630e-01 5.39409459e-01 1.77824557e-01 2.64777869e-01 -5.52494526e-01 6.01815023e-02 1.23703457e-01 -2.64612526e-01 2.91986614e-01 -3.39650124e-01 2.32179970e-01 -7.43191540e-02 -2.91207969e-01 4.30848986e-01 7.75123954e-01 -4.19445843e-01 -4.36096430e-01 2.58898616e-01 3.38229507e-01
-1.25017071e+00 9.52288434e-02 1.27598658e-01 -1.30122340e+00 -8.55815783e-02 -6.70417324e-02 2.04414859e-01 5.45668364e-01 9.71467942e-02 3.71521235e-01 -9.77319062e-01 7.02513397e-01 1.08521068e+00 3.65901589e-01 -6.45870090e-01 3.53934109e-01 5.57964444e-01 -3.69588882e-01 -3.11984122e-01 1.02752352e+00 -5.46470106e-01 -3.12555313e-01 -3.30742389e-01 -5.30438796e-02 6.02218509e-01 9.95670021e-01 8.65321755e-01 6.12768173e-01 4.96566892e-01 -1.01981139e+00 1.77660778e-01 2.09686786e-01
-1.05742499e-01 9.69240367e-02 3.06810617e-01 -4.56889607e-02 3.12055498e-01 -1.01959564e-01 -2.19912305e-02 3.56112830e-02 -5.78354672e-02 1.86044171e-01 2.28307974e-02 1.77814011e-02 -1.20356129e-02 -1.22497432e-01 7.59254918e-02 -1.36436954e-01 7.96404257e-02 5.65402508e-02 2.59357016e-03 -4.25625980e-01 1.26784042e-01 -9.80684310e-02 2.57014446e-02 1.35039622e-02 1.47336245e-01 -1.86102726e-02 7.45788291e-02 1.65729523e-01 4.43186350e-02 -8.70661736e-02 -2.33967919e-02 5.03804795e-02
-1.36184007e-01 2.52921224e-01 3.08120966e-01 -1.80643663e-01 1.13843583e-01 1.26985967e-01 7.19585061e-01 3.39744031e-01 8.53899419e-02 -1.17460573e+00 -4.06331122e-01 5.95274210e-01 7.15415239e-01 -3.02496403e-01 -4.68829125e-01 -2.17082366e-01 6.03960514e-01 -5.09076238e-01 -3.95633169e-02 -3.04202795e-01 7.96717227e-01 -2.54809052e-01 3.39562967e-02 -1.35167861e+00 -3.71681809e-01 5.61674833e-01 -1.05096626e+00 -6.66389585e-01 3.20577353e-01 -1.90801635e-01 1.36713935e-02 -2.59989258e-02
6.35635197e-01 -3.03301185e-01 -2.84982651e-01 4.38478708e-01 -8.38084742e-02 -7.20054954e-02 -1.55315503e-01 -1.62733018e-01 5.42125702e-01 -1.23915806e-01 -1.14252791e-01 -4.85810228e-02 7.57006884e-01 -3.54661852e-01 3.51665676e-01 -4.62187678e-01 -2.57432349e-02 -5.71749389e-01 3.62194955e-01 -7.10692555e-02 -3.15683693e-01 1.01755932e-01 1.48874775e-01 1.49073601e-01 3.47302482e-02 -2.09243044e-01 7.92491138e-01 4.21215802e-01 -3.51444185e-01 3.35269928e-01 1.79584801e-01 2.32531354e-01
-1.64449096e-01 2.94387192e-01 -1.32292882e-01 -6.76766187e-02 -5.50139904e-01 -2.30571643e-01 1.02410525e-01 4.34673429e-01 -2.36536078e-02 -5.34734964e-01 -1.95790648e-01 1.19518097e-02 -3.26003730e-01 1.84680864e-01 2.93828785e-01 -1.62257776e-01 -1.19186997e-01 2.18894377e-01 7.87089542e-02 3.73206347e-01 -2.32571855e-01 -4.67310995e-02 -4.93506826e-02 -3.58442068e-02 -1.09192602e-01 -8.39508995e-02 2.52060473e-01 -3.22763294e-01 8.84246826e-02 -9.90196224e-03 9.18754265e-02 1.68076620e-01
5.73785007e-02 -5.26786685e-01 -1.13639131e-01 -1.02831714e-01 -3.41606960e-02 -1.52104214e-01 -2.26627029e-02 -1.69002637e-01 -3.99520755e-01 4.55908746e-01 -8.82136915e-03 7.42902309e-02 3.52156311e-01 2.87876725e-01 -1.67064592e-01 -5.40579379e-01 -1.90099388e-01 -4.78047989e-02 -1.02574173e-02 7.04572201e-02 6.81392699e-02 -3.77129875e-02 5.53668201e-01 4.52224910e-02 -3.79178971e-01 2.32708544e-01 3.42772633e-01 9.83822346e-02 -6.72438219e-02 1.29380077e-01 2.53769313e-03 -2.14077204e-01
1.07334435e+00 4.91789095e-02 -6.23941660e-01 1.96724638e-01 2.97049940e-01 5.73165230e-02 4.49534446e-01 1.27136409e-01 -2.57787824e-01 -9.75939274e-01 -8.22274446e-01 1.35791647e+00 8.16062540e-02 -9.67966676e-01 2.63415396e-01 6.71360791e-01 9.98439938e-02 5.67411363e-01 -1.10396519e-01 1.83821082e-01 -1.50354683e+00 -4.38762933e-01 -8.44039619e-01 -3.13897043e-01 -2.88244009e-01 1.47118280e-02 2.49962360e-01 4.50634956e-01 -6.11069426e-02 6.26101121e-02 -9.34185907e-02 3.55719298e-01
-1.53374046e-01 5.45095243e-02 -8.99434030e-01 -9.12507325e-02 2.44007677e-01 3.48382622e-01 -3.08816470e-02 5.07708937e-02 9.47430730e-02 4.93015438e-01 -4.08285350e-01 -1.19833887e+00 3.98938954e-01 2.26659536e-01 -3.34722847e-01 6.67113602e-01 -1.23873182e-01 1.33848965e+00 -4.56131518e-01 1.02536149e-01 3.69997412e-01 -1.02573499e-01 -6.78454861e-02 7.07896590e-01 -2.21908018e-01 8.01588893e-01 -1.18547305e-01 -3.51702839e-01 1.33050859e-01 1.04081705e-01 6.05940104e-01 -1.40436277e-01
-3.62124556e-04 3.84541720e-01 -1.92776605e-01 -6.13510311e-01 -2.72359494e-02 7.13064551e-01 2.50629365e-01 7.90739954e-01 3.65582377e-01 2.81822234e-01 9.55290735e-01 -2.68693000e-01 8.29712152e-02 1.97501227e-01 4.45840321e-02 -7.53332436e-01 3.28658134e-01 -5.14104962e-02 -3.17008913e-01 -5.16005397e-01 -3.04890927e-02 -2.49763176e-01 2.30414271e-01 1.30293444e-01 -1.78855345e-01 1.75879434e-01 3.68256532e-02 -7.20262602e-02 -5.59824586e-01 2.55409062e-01 -2.61686176e-01 8.96024182e-02
5.48856929e-02 3.65429670e-02 -1.53570950e-01 1.85642913e-02 -4.71324921e-02 5.54475300e-02 5.31520210e-02 8.55993703e-02 -4.45281379e-02 -6.22673333e-02 -5.37360162e-02 -3.84143502e-01 2.36295238e-01 2.14110047e-01 -1.29786972e-03 6.76447973e-02 8.63791928e-02 -4.58612964e-02 8.74289498e-02 2.41708070e-01 1.15515739e-01 2.80299395e-01 1.05310082e-02 1.96761847e-01 -9.70819965e-02 -2.94029117e-01 -1.67915538e-01 -1.50572836e-01 -2.94855207e-01 -1.34966642e-01 -9.23474506e-03 -2.78771609e-01
3.89168322e-01 7.42688477e-02 5.90617418e-01 3.77828807e-01 2.33056143e-01 4.31628048e-01 9.48269784e-01 -3.43021125e-01 8.03748250e-01 -3.51430401e-02 -6.25903010e-01 1.77274957e-01 -5.04506171e-01 -3.63285184e-01 -4.57545109e-02 6.18622936e-02 -5.32190025e-01 -5.97302258e-01 2.73303032e-01 -5.88287320e-03 -8.32106918e-02 6.02961719e-01 2.05038160e-01 6.37182772e-01 5.31935282e-02 -1.19339451e-01 -2.50864267e-01 1.69847563e-01 2.07021534e-01 3.95846218e-01 -1.80155978e-01 -2.42273137e-02
-2.89675981e-01 -5.16300619e-01 1.53234076e+00 9.98495296e-02 -9.75287437e-01 -1.82358786e-01 -1.18052197e+00 -1.01625335e+00 2.88525790e-01 1.05632055e+00 2.22824831e-02 -4.75483865e-01 -3.08148503e-01 1.04874218e+00 6.20597661e-01 -2.13954878e+00 1.68836132e-01 -2.86701369e+00 1.82284927e+00 8.23772788e-01 -5.87188363e-01 1.71799183e+00 -4.36246783e-01 2.59721726e-01 3.31082404e-01 -7.16747642e-01 -2.36763120e-01 4.20363098e-01 1.19953372e-01 4.59626913e-02 7.53371119e-01 1.70940638e-01
2.46896837e-02 -1.65074207e-02 6.61311820e-02 3.91415954e-02 3.96617889e-01 -6.19497569e-03 3.25236120e-04 1.37099084e-02 5.97199090e-02 -9.31591913e-03 -1.21289426e-02 -7.14004785e-02 1.04587026e-01 -8.59644078e-03 -1.17789134e-02 -6.63700551e-02 3.88540071e-03 -3.75290066e-02 -6.08091205e-02 9.21309888e-02 1.37779221e-01 4.80653383e-02 -2.27492098e-02 5.93978632e-03 -1.33147553e-01 -1.40491039e-01 1.37751494e-02 3.45028192e-01 -4.12396044e-02 -6.04463629e-02 3.71667854e-02 -2.45944992e-01
-3.86065632e-01 9.45781264e-03 -1.33732900e-01 -7.49549195e-02 -2.01258525e-01 1.59816947e-02 -8.01055133e-02 7.00085640e-01 -1.56616494e-01 -7.83267841e-02 -1.73469707e-01 6.86882794e-01 5.03068507e-01 3.11789870e-01 2.61820823e-01 1.78198040e-01 -1.59685209e-01 1.05014637e-01 -1.62406653e-01 -3.20165716e-02 -1.34948730e-01 -6.20862901e-01 -1.29053712e-01 -2.10243210e-01 -3.51120353e-01 -1.71858579e-01 -6.12592757e-01 4.17645842e-01 -2.55322695e-01 -2.52614290e-01 -9.53357741e-02 5.22250354e-01
1.69751439e-02 -1.78027585e-01 5.94160318e-01 2.54171401e-01 -6.40416086e-01 2.30185673e-01 3.25897366e-01 -6.16256297e-01 5.14356494e-01 3.20794076e-01 -8.91221315e-02 4.20611650e-01 -9.01936442e-02 1.27134264e-01 1.63701847e-01 -2.07339621e+00 1.28752902e-01 -1.06085694e+00 1.09824345e-01 1.87727481e-01 -4.63596955e-02 1.77591011e-01 2.36731544e-01 1.68556079e-01 -2.02436268e-01 -5.29998064e-01 -8.09279680e-02 -2.38264188e-01 -4.21317160e-01 -4.91822064e-01 4.35331196e-01 -3.18201840e-01
-1.23968631e-01 9.27364752e-02 -1.85039282e-01 1.39621153e-01 -7.45024309e-02 -1.02429710e-01 2.63833553e-01 -1.86098590e-01 -5.73084950e-01 1.56516647e+00 -3.83852512e-01 -5.93379065e-02 -2.61717528e-01 1.22938395e+00 -2.95707822e-01 3.84669080e-02 5.56932129e-02 3.63413990e-02 -1.06859863e-01 -2.70888895e-01 3.95145034e-03 1.99000105e-01 -5.85360751e-02 -1.91289961e-01 -1.60990730e-01 7.87995011e-02 4.19661760e-01 4.72872764e-01 1.61634788e-01 -4.77448285e-01 2.88999707e-01 -7.65284896e-02
-2.19046667e-01 -2.73428679e-01 6.25408053e-01 5.01960397e-01 -1.47961333e-01 -2.79800236e-01 -9.81395602e-01 1.48471579e-01 1.11696593e-01 5.05463898e-01 1.10354990e-01 -7.90408552e-02 9.49096158e-02 2.56535918e-01 -1.74353138e-01 6.17337346e-01 -4.57824357e-02 1.74131334e-01 -2.13183090e-01 -3.77243906e-01 9.49781775e-01 3.78934532e-01 4.81967717e-01 -5.19017577e-01 -6.23222440e-02 2.14517536e-03 -1.83778867e-01 2.98393160e-01 -1.17874570e-01 3.54173362e-01 -1.13248818e-01 -1.95608273e-01
1.04582584e+00 -3.19766700e-01 5.28874934e-01 9.02062833e-01 -3.90959620e-01 1.35787800e-01 -7.65338004e-01 -5.23967683e-01 6.04120851e-01 -1.17497969e+00 -3.48806232e-01 7.93786705e-01 -1.16244304e+00 -3.67984623e-01 6.19302273e-01 -4.35369670e-01 -2.02138312e-02 -1.05234914e-01 5.62950313e-01 8.13430965e-01 2.48469800e-01 -3.99155110e-01 -2.08884645e+00 -5.99987566e-01 5.87423921e-01 6.30226552e-01 -8.85343313e-01 -3.57247740e-01 2.04501916e-02 1.17939568e+00 -9.95447636e-01 -1.25492364e-01
-1.70894265e-02 1.71606213e-01 -3.10607646e-02 -4.92829643e-02 -1.69133618e-01 -2.87307967e-02 3.13003957e-02 -5.32008410e-02 -4.75529730e-02 -1.21412044e-02 4.29232717e-02 9.30098593e-02 8.43568072e-02 -5.04154526e-02 1.58226296e-01 -1.25738725e-01 9.43871289e-02 1.66832596e-01 -4.40476555e-03 -2.73356378e-01 1.37638316e-01 4.50795889e-02 -1.44441314e-02 -2.36154497e-02 -3.01866382e-01 -3.76639552e-02 2.05286518e-02 -8.22386444e-02 -2.73034647e-02 -6.74793450e-03 -5.97793283e-03 -2.19482198e-01
1.50882155e-01 3.44041467e-01 1.60263646e+00 4.19838727e-01 -1.10713923e+00 1.31765753e-01 -2.23279312e-01 -5.59603155e-01 8.46779764e-01 5.28000951e-01 1.83625162e-01 -3.56324017e-01 -8.68308544e-01 9.47043419e-01 -4.01378237e-02 -3.29766130e+00 -2.13283435e-01 -4.37565708e+00 4.12832886e-01 1.45191833e-01 -1.24668026e+00 9.57779348e-01 3.17505956e-01 1.59362331e-01 1.64234072e-01 -1.33235842e-01 -5.48906326e-01 6.48681521e-01 -1.94815725e-01 -3.37401107e-02 7.44265467e-02 5.65333627e-02
-6.75860941e-01 2.66425639e-01 -2.38837581e-02 -6.05127513e-01 2.67811090e-01 -2.82144904e-01 -3.35325807e-01 3.83172721e-01 2.02454738e-02 -1.34272859e-01 2.53892273e-01 -4.38226610e-01 3.06992143e-01 2.92854041e-01 -4.94169921e-01 3.10071021e-01 2.63247520e-01 1.46198511e-01 -2.74251968e-01 1.83456495e-01 1.63282946e-01 5.62947154e-01 1.37684241e-01 -3.96176547e-01 4.51863319e-01 2.15603277e-01 -5.73443949e-01 -3.02637905e-01 -5.58054186e-02 -4.16375488e-01 -2.45551184e-01 -1.07349539e+00

layers.2.bias:
-1.41405463e+00
-8.48882318e-01
6.15607381e-01
-4.72446084e-01
1.78613260e-01
-4.16633695e-01
2.18943268e-01
2.17752838e+00
5.98670185e-01
8.63993227e-01
-9.72216666e-01
-1.38172936e+00
-3.16616356e-01
9.58181322e-01
-4.38015670e-01
-7.38964856e-01
-6.32702559e-02
-7.94518888e-01
3.24954987e-01
-7.69199282e-02
-3.10882390e-01
8.14943433e-01
8.65713537e-01
-1.38848588e-01
-3.97069514e-01
1.03787649e+00
-1.00040579e+00
-1.09961855e+00
5.19115567e-01
-1.19846654e+00
1.63721949e-01
-1.58283152e-02
8.70663345e-01
1.09004706e-01
-3.43409777e-01
-1.14585282e-02
-1.27166018e-01
1.40267551e+00
1.06144333e+00
-1.09655991e-01
9.93929803e-01
-1.88528374e-01
-5.45975208e-01
1.39256251e+00
2.47213975e-01
-9.55210686e-01
1.07215595e+00
-3.28711390e-01
8.28138709e-01
1.83167899e+00
1.44074067e-01
3.24438274e-01
1.01229757e-01
-6.64975464e-01
2.05063269e-01
-2.28145383e-02
8.23567748e-01
-8.49445090e-02
-2.83648986e-02
-7.01821625e-01
7.26685762e-01
6.39503747e-02
-2.04629853e-01
8.47806692e-01

layers.4.weight:
3.44677150e-01 7.45314509e-02 -5.10428473e-02 1.11198695e-02 4.69087251e-02 8.78598914e-02 6.60710444e-04 -7.48059213e-01 1.52081564e-01 -3.89095306e-01 4.22378108e-02 9.49421883e-01 -1.65926945e+00 -1.46875694e-01 4.23710044e-05 -1.44457495e+00 -3.34957702e-04 7.24326000e-02 -6.10360131e-02 -2.28189252e-04 -5.83676738e-04 -4.39025909e-02 -1.97059996e-02 2.30453104e-01 -4.18213755e-02 -5.32285683e-02 1.75087415e-02 7.75750041e-01 -3.60143065e-01 3.91260892e-01 -1.65865477e-02 -1.22015543e-01 -2.54133309e-04 6.28197682e-04 6.57536909e-02 -1.58436887e-04 6.95816925e-05 -1.85354143e-01 -1.14234602e-02 1.94899470e-01 -1.05573693e-02 3.07228059e-01 4.97164279e-02 -1.28438309e-01 -4.13173926e-04 1.25463516e-01 -1.58963911e-02 -1.42911100e-04 -8.40019062e-02 -7.03423560e-01 -7.87175298e-02 8.05274677e-03 -6.56269185e-05 5.75458035e-02 -1.08638167e+00 -5.24476753e-04 -6.01194333e-03 -2.58564293e-01 -5.28098829e-02 4.44648527e-02 -1.87749583e-02 -9.07975627e-05 8.24301004e-01 -2.16018166e-02

layers.4.bias:
-1.12872577e+00

