layers.0.weight:
3.31696361e-01 -5.67613244e-01 7.97264636e-01
5.69172144e-01 -8.09445798e-01 -5.80563486e-01
-8.31293464e-02 -6.13938749e-01 -5.77727258e-01
-1.07055378e+00 1.15616508e-01 4.58123112e+00
2.67282110e-02 4.11940843e-01 1.16166264e-01
-5.79876065e-01 8.58121514e-01 -1.84879377e-01
-1.31842160e+00 4.86020595e-01 -9.88645032e-02
-6.01682402e-02 7.88846374e-01 -9.23566997e-01
6.03414774e-01 -9.26082134e-01 5.12713566e-02
-1.11527514e+00 5.86289167e-02 -1.64189592e-01
7.53551662e-01 -9.85680073e-02 1.41279221e+00
-7.16238439e-01 -1.31785080e-01 -1.29353356e+00
-4.30584475e-02 7.12955832e-01 -1.57757306e+00
-1.16726887e+00 2.10410804e-02 5.00053525e-01
-6.46977663e-01 1.09646142e+00 7.52028525e-01
-1.81771189e-01 9.48456824e-01 1.64468549e-02
5.46070874e-01 -6.33792400e-01 -1.45019031e+00
-1.15504665e-02 1.12846863e+00 1.84981868e-01
8.07071701e-02 -9.54183042e-01 5.35116851e-01
3.41117471e-01 -1.28724232e-01 -8.64976227e-01
2.23475501e-01 1.65966094e-01 -5.10879010e-02
-3.24195027e-01 -2.56797969e-01 -1.00232065e+00
-4.64660525e-01 1.65601885e+00 -4.46076952e-02
-1.56447518e+00 4.06930357e-01 1.75152493e+00
1.05132234e+00 3.79940838e-01 -7.78481364e-01
2.59609371e-01 6.71772659e-01 -1.17486012e+00
-1.16151750e-01 -2.13369340e-01 1.90187418e+00
-3.97779703e-01 -2.44972542e-01 1.92939892e-01
3.22416067e-01 7.57217348e-01 -1.46468067e+00
-1.04933763e-02 4.65525806e-01 1.70563948e+00
-2.89658904e+00 2.84448242e+00 -1.78299040e-01
-1.26738083e+00 -5.19488692e-01 1.02004325e+00

layers.0.bias:
8.77201200e-01
4.81547834e-03
-1.42384720e+00
-6.34384930e-01
7.07518518e-01
-2.04255387e-01
-3.54310095e-01
2.86240637e-01
-7.45998621e-01
-1.59115899e+00
1.64644122e-01
1.80825554e-02
2.46107668e-01
-1.21306002e+00
-2.90836543e-01
1.43946290e+00
9.34610724e-01
1.82654703e+00
-6.68276668e-01
5.78918040e-01
-1.44309163e-01
-1.35729384e+00
1.02535832e+00
-7.05530941e-02
1.36946186e-01
5.60703695e-01
8.80503118e-01
-1.57881156e-01
-4.88352716e-01
7.31267482e-02
8.91685039e-02
-6.70209900e-02

layers.2.weight:
-4.04263973e-01 1.95356652e-01 1.72234192e-01 -4.56972420e-01 -3.47707391e-01 -2.50874907e-02 -2.11313018e-03 -9.34903994e-02 7.28946254e-02 3.08192897e+00 1.16753489e-01 1.05413146e-01 -2.70398021e-01 2.45231724e+00 -2.23701999e-01 1.78803012e-01 -1.23142809e-01 3.92486006e-01 1.65702090e-01 -3.35416257e-01 2.84663349e-01 -5.16814366e-02 -6.35595322e-01 6.47100627e-01 -3.23113278e-02 5.73101103e-01 -7.74279594e-01 -1.71119168e-01 -1.03721991e-01 -1.86151981e-01 -8.23784322e-02 1.99786648e-01
1.02280341e-01 1.26088381e-01 -8.81584883e-01 -3.14476192e-02 -4.25562173e-01 -3.10522206e-02 -3.58303934e-01 -5.05064607e-01 2.25569025e-01 6.52123272e-01 1.61870375e-01 1.45844504e-01 3.14176738e-01 2.22495422e-01 -3.83392006e-01 3.67730260e-01 -3.68162513e-01 3.28601599e-01 -3.34443659e-01 -1.71788149e-02 2.85969645e-01 -1.39490694e-01 -6.05137706e-01 -8.02423507e-02 -9.51388776e-02 -2.17306595e-02 -3.95821482e-01 -2.63057917e-01 5.51256426e-02 -3.21906716e-01 1.57536894e-01 2.59762436e-01
4.96441685e-02 1.49484888e-01 1.71040460e-01 -6.70194864e-01 -9.63188350e-01 -1.11364082e-01 -5.67960382e-01 2.40854889e-01 5.55108011e-01 7.00807810e-01 -4.62591261e-01 -1.77929431e-01 7.93595314e-02 5.84744029e-02 -2.61528343e-01 -8.44704747e-01 -1.75960898e-01 -9.01141703e-01 -1.87409949e-02 3.01720619e-01 -2.74552017e-01 -2.30171442e-01 3.25672477e-01 -1.57145143e+00 1.23014361e-01 3.49187136e-01 -1.08679676e+00 -3.74219604e-02 3.24354351e-01 -2.97358304e-01 2.18773000e-02 7.66298994e-02
2.70951420e-01 -2.35654674e-02 5.63895628e-02 1.36849117e+00 3.78662199e-01 3.58534604e-01 6.35866225e-01 -2.69692004e-01 -1.05351828e-01 -6.84370697e-02 1.83505848e-01 -8.55761990e-02 -6.00344539e-01 1.32456407e-01 5.89494050e-01 4.84434664e-01 -2.18234211e-01 3.68323207e-01 3.64452839e-01 -8.40801537e-01 -9.11854267e-01 -1.78543642e-01 3.37964863e-01 1.36682534e+00 -5.27221143e-01 -5.86769521e-01 5.21121323e-01 3.95848840e-01 -6.90497637e-01 -1.41491756e-01 -4.59484383e-02 5.46262980e-01
1.22971848e-01 -1.64021432e-01 2.88668692e-01 -4.92657632e-01 7.74005577e-02 -3.58181328e-01 -1.20575643e+00 2.00924531e-01 1.48134083e-01 -6.94182754e-01 3.97590190e-01 -7.29948521e-01 8.49211097e-01 -1.20696712e+00 -2.12192938e-01 -8.84725332e-01 -1.51406229e-01 -9.95842695e-01 -1.60774410e-01 3.72334529e-04 8.09400141e-01 -5.29829204e-01 1.89858824e-01 -4.02107775e-01 -7.94391513e-01 6.97273314e-01 5.42588718e-02 -5.93104005e-01 -2.00844973e-01 5.62235892e-01 -3.19992304e-01 5.07346615e-02
-4.84722435e-01 2.06582561e-01 4.91674155e-01 1.66697472e-01 -1.05082810e+00 -2.06474587e-01 -5.15805840e-01 2.69095212e-01 5.51691353e-01 2.99577769e-02 6.54661298e-01 1.93408504e-01 -8.53902325e-02 -3.89054269e-01 -2.13069990e-01 -1.42550373e+00 -3.75077277e-01 -1.78696263e+00 6.51210964e-01 -2.37092271e-01 -4.17765200e-01 2.58164684e-04 -4.25044328e-01 -1.84437469e-01 1.17203906e-01 6.25753775e-02 1.51746929e-01 9.01797950e-01 -1.75807297e-01 -4.27437335e-01 -1.03531492e+00 3.33439082e-01
5.15845381e-02 -1.98095404e-02 -2.79539049e-01 -4.59521031e-03 -9.20003951e-02 1.85720772e-01 -8.92057046e-02 -4.09267813e-01 -1.23604603e-01 2.51248240e-01 2.91134268e-01 7.67053217e-02 2.93921649e-01 -1.61190350e-02 1.73576374e-03 -3.40530425e-01 1.18280901e-02 8.84627551e-02 -3.94620746e-02 -3.04626167e-01 -3.50382864e-01 3.83340754e-02 5.09510823e-02 1.57212671e-02 1.83770418e-01 2.86828816e-01 -3.51029575e-01 -4.76080000e-01 -1.43914387e-01 7.29914382e-02 -7.69247999e-04 1.18575111e-01
2.37454593e-01 1.00523107e-01 -3.99938941e-01 3.46373051e-01 2.97008127e-01 -5.73473752e-01 1.51379883e-01 5.10499418e-01 2.49258522e-02 -2.64895976e-01 -1.40390828e-01 9.72021401e-01 3.25408846e-01 -4.57543075e-01 -1.66333839e-01 2.37073958e-01 5.28143167e-01 1.95834428e-01 2.01117232e-01 5.09582281e-01 -1.45780265e+00 -8.92598391e-01 1.78428739e-01 3.78885388e-01 1.92814142e-01 7.56894052e-01 5.94474435e-01 5.31666577e-01 -6.30050004e-01 4.85034287e-01 1.70454517e-01 -2.57758737e-01
2.31867567e-01 2.60684907e-01 -5.89504600e-01 -2.19550133e-01 1.11548686e+00 -5.40777981e-01 -1.10086106e-01 -4.48899806e-01 -7.97206998e-01 6.41699016e-01 3.71283203e-01 5.38118601e-01 6.39458716e-01 2.28341157e-03 8.98890644e-02 1.61764395e+00 3.41981590e-01 1.05904961e+00 -4.17228043e-01 -1.26708984e-01 1.53888203e-02 -3.40248793e-01 -3.11620403e-02 1.64783776e-01 1.07357644e-01 3.25623363e-01 9.77394432e-02 6.68182299e-02 -1.29252747e-01 1.74634904e-01 2.43800187e+00 -2.91283488e-01
-6.53398573e-01 1.78727910e-01 -5.33028953e-02 -5.52483261e-01 3.20759237e-01 4.13693264e-02 -1.11299038e-01 4.08861965e-01 4.94395077e-01 -1.53394505e-01 -1.43874977e-02 2.55691826e-01 2.14570269e-01 2.29552850e-01 -4.22640771e-01 -7.11961746e-01 3.23359340e-01 -5.97382486e-01 -4.52668846e-01 -7.43235722e-02 -6.51553631e-01 -1.97898880e-01 1.38896435e-01 4.00630347e-02 -2.16626689e-01 -6.64589331e-02 -2.03970775e-01 2.80727625e-01 2.91892350e-01 1.29707947e-01 6.19585300e-03 -4.52385470e-02
1.67942241e-01 -3.54602486e-01 -5.32795414e-02 -3.32434356e-01 -5.67034364e-01 -3.74274433e-01 -2.97214210e-01 8.35569799e-02 4.95059967e-01 3.92713368e-01 -5.01045465e-01 -1.47555128e-01 8.21950555e-01 -3.42218608e-01 -1.42008752e-01 -4.35872972e-01 -6.80621922e-01 -1.21716321e+00 1.06188126e-01 -7.09817708e-02 1.08922434e+00 -2.78190851e-01 -9.66580927e-01 1.01224214e-01 -1.38622075e-01 -1.03546955e-01 -4.02796090e-01 -5.64902544e-01 1.50086477e-01 -3.64882350e-01 1.98968649e-01 4.22209531e-01
-1.13927737e-01 -3.25354673e-02 1.62957609e+00 -8.68649125e-01 -7.42140770e-01 1.13806158e-01 2.94038579e-02 -3.76949400e-01 8.63871574e-02 1.77625847e+00 3.33525464e-02 -1.04600444e-01 2.91319489e-01 3.22848153e+00 -1.27655163e-01 -6.51250720e-01 3.24290723e-01 -2.41096759e+00 5.44609666e-01 -3.18493903e-01 2.37357706e-01 5.83450437e-01 -3.48107249e-01 8.34700644e-01 -9.46863890e-02 -5.43628037e-01 2.98584878e-01 -9.19299126e-02 1.39967144e-01 3.26510631e-02 2.48602942e-01 -3.18654478e-01
-5.28201699e-01 -1.82373360e-01 8.94201577e-01 3.80009592e-01 -5.36244035e-01 5.52818298e-01 8.45187902e-02 -9.53019500e-01 2.95470387e-01 6.04148865e-01 1.44768685e-01 2.95395881e-01 -4.83748972e-01 -1.03740931e-01 4.43649590e-01 -3.98080158e+00 -6.94065988e-02 -5.82144547e+00 6.47163451e-01 -9.24675703e-01 -7.39899695e-01 4.16788220e-01 5.37561893e-01 -9.44911912e-02 -2.09712744e-01 -2.30419666e-01 -3.78734261e-01 5.86436152e-01 -6.63409650e-01 -3.62467647e-01 -6.97813690e-01 -3.12484980e-01
-1.85982184e-03 -1.42851412e-01 -6.26396656e-01 -9.41661224e-02 -5.74990660e-02 1.49866156e-02 2.51602948e-01 3.71379942e-01 2.38768384e-01 -4.32791799e-01 5.37434459e-01 -3.57425004e-01 3.64005268e-01 -8.23576033e-01 -2.62214303e-01 5.45145161e-02 -1.94606289e-01 3.27682197e-01 -1.52145043e-01 1.74167201e-01 -1.18758054e-02 -1.15577169e-01 2.02538297e-01 -2.12884307e-01 -1.68016702e-01 7.84702957e-01 -3.35242525e-02 4.26382422e-02 -1.81593284e-01 2.34049559e-01 7.72229731e-02 4.01171267e-01
-1.02614772e+00 9.59848315e-02 -1.98816255e-01 4.30049688e-01 -7.60552138e-02 7.31680393e-01 -4.63669389e-01 -1.72521278e-01 4.77159500e-01 -2.31616110e-01 -6.62814260e-01 1.41836986e-01 6.75291047e-02 -3.40980023e-01 -1.57680988e-01 -7.24169910e-01 1.34313479e-01 -4.97793913e-01 -3.79799753e-01 2.28061303e-01 1.49884164e+00 8.12048972e-01 1.29777312e-01 2.72721797e-01 -2.21147478e-01 2.97409557e-02 -5.03673851e-01 -1.03446491e-01 7.91966021e-01 -1.53234988e-01 -6.93129003e-02 -3.86659987e-03
-4.88618076e-01 -1.96581744e-02 2.11195275e-01 1.90581232e-01 -4.08525854e-01 1.76257059e-01 -1.08458924e+00 -6.67938665e-02 3.52568746e-01 4.81121683e+00 6.94598973e-01 2.41906121e-01 1.84879214e-01 2.41807461e+00 7.14536663e-03 -2.75260806e-01 -4.92399365e-01 -4.19424891e-01 3.51280533e-02 -2.75256872e-01 -5.90386271e-01 4.12374407e-01 1.04643129e-01 1.57875791e-01 -2.99896210e-01 -4.23959285e-01 -5.93233109e-01 2.29871392e-01 -1.08434349e-01 -5.95166028e-01 -2.64988810e-01 -3.32907766e-01
-4.64928262e-02 1.61537886e-01 2.54141795e-03 3.18682678e-02 -5.35684228e-02 -6.09509507e-03 2.19274461e-02 -7.26277530e-02 3.24361734e-02 -2.09835589e-01 7.62833580e-02 2.58329194e-02 3.90677117e-02 1.18304618e-01 1.05273440e-01 7.31762797e-02 4.19727266e-02 3.46342102e-02 1.84347164e-02 9.77229774e-02 2.22250089e-01 1.71524495e-01 1.63192470e-02 3.15426365e-02 6.28695190e-02 -3.75584140e-03 4.87961955e-02 3.16220671e-01 1.45091871e-02 3.49294278e-04 -8.49819556e-03 2.24742647e-02
2.44181067e-01 -1.51411012e-01 -7.77281404e-01 8.81217718e-02 3.88754755e-01 -2.55082875e-01 -2.51615852e-01 -3.61366361e-01 1.23545267e-01 -7.47216344e-01 6.76371530e-02 3.30822617e-02 1.62298813e-01 8.08660686e-02 -8.72924551e-02 4.10425276e-01 -3.37236553e-01 6.75456762e-01 -1.48644626e-01 8.94872189e-01 1.78521559e-01 -2.72096153e-02 -4.43641454e-01 -8.15275162e-02 -1.23442098e-01 -4.68121052e-01 8.86069715e-01 -4.48181123e-01 1.94448128e-01 3.46543103e-01 6.48926646e-02 1.86635092e-01
-2.49322042e-01 -1.17364675e-01 -2.44751304e-01 -2.20726758e-01 1.05317824e-01 -3.17831412e-02 2.43102163e-01 1.33973837e-01 4.69159782e-01 -3.80580395e-01 -1.98217750e-01 -8.08596671e-01 4.86813605e-01 -1.78664085e-02 -1.73742101e-01 -9.52574536e-02 -2.26997420e-01 -6.45704344e-02 1.78065360e-01 -1.64001301e-01 -7.74624348e-02 -1.85190722e-01 3.51156652e-01 -2.50432074e-01 2.03108072e-01 2.10631043e-01 -1.95152298e-01 4.36916500e-01 8.60260800e-02 3.29305112e-01 3.40595633e-01 1.27584979e-01
6.00985028e-02 1.68621957e-01 -7.60170147e-02 7.48588964e-02 2.97151320e-03 1.31354526e-01 -6.89528370e-03 -5.62397353e-02 9.14281607e-03 8.36634710e-02 5.52282035e-02 1.25505313e-01 -6.05309010e-02 -1.11846708e-01 1.25333741e-01 4.21137631e-01 7.08951354e-02 -3.42519015e-01 -9.72506590e-03 -8.58203545e-02 -9.00123194e-02 -1.78017914e-01 -1.53357480e-02 -2.05318723e-02 2.41866745e-02 1.46243840e-01 1.66621339e-02 -5.49640646e-03 9.99094248e-02 1.51948044e-02 -4.38110530e-02 5.04780523e-02
6.53855264e-01 -1.43160224e-01 5.50068140e-01 5.62992275e-01 -1.16201505e-01 -3.85507494e-01 -6.94132984e-01 -1.50290638e-01 -3.39602739e-01 -1.03810644e+00 -5.67072481e-02 9.47882831e-01 4.66726869e-01 -6.11868620e-01 7.33722329e-01 6.46812618e-01 -9.86146256e-02 -8.00946504e-02 5.13525546e-01 4.46731031e-01 -4.97636139e-01 -6.16821647e-03 4.14726347e-01 9.60836187e-02 8.74598995e-02 -3.71529043e-01 1.29690871e-01 3.31621587e-01 -1.46508604e-01 -4.79809754e-02 1.86261386e-01 4.43098783e-01
1.04635328e-01 -1.48006588e-01 1.65737405e-01 1.76375329e-01 -3.40484351e-01 2.77170956e-01 9.78322804e-01 4.68337722e-02 5.13468325e-01 4.74655896e-01 3.46082032e-01 3.81151497e-01 -4.26550776e-01 -2.25717187e-01 1.50064155e-01 -1.28188932e+00 -9.07363519e-02 -1.12546754e+00 -4.72121127e-02 -5.16818345e-01 -4.76693362e-01 1.37931751e-02 3.55731398e-01 1.19267434e-01 1.20810084e-01 -4.67821628e-01 -6.80504024e-01 4.62977588e-01 -8.07533041e-02 -1.69177622e-01 3.01946461e-01 -1.48861721e-01
-4.65112831e-03 -4.49515544e-02 -1.01957604e-01 3.57119739e-01 -2.90778279e-01 3.93742681e-01 4.86005515e-01 -2.18461677e-01 -3.10593814e-01 4.31417584e-01 -3.42717841e-02 1.68188050e-01 4.86997128e-01 6.28463209e-01 -8.24464336e-02 -7.60614932e-01 5.18546045e-01 -5.06287277e-01 4.15347889e-02 -2.59234488e-01 -3.12057376e-01 1.15334898e-01 -3.86769265e-01 1.72146320e-01 -3.08377892e-01 -5.73493280e-02 -1.09229654e-01 -5.01549542e-01 1.40779182e-01 -1.67108342e-01 -7.76376054e-02 -3.42335701e-01
7.64401019e-01 6.94764182e-02 -3.21110815e-01 1.26924574e-01 3.00368845e-01 -4.98227119e-01 2.42247600e-02 3.68373334e-01 2.56780207e-01 -2.82725930e+00 7.43259266e-02 1.96064413e-01 4.33661520e-01 -1.65254307e+00 3.44147682e-02 4.14274365e-01 2.25957662e-01 3.14343542e-01 -2.70763874e-01 6.30106553e-02 4.28028911e-01 -2.09066048e-01 -3.03219080e-01 -7.15509132e-02 -4.35423404e-01 -1.38781860e-01 -9.04510170e-02 -1.26876086e-01 2.45129108e-01 5.89915253e-02 8.16845000e-02 -1.05611905e-01
-9.23184454e-01 1.47586644e-01 2.18033325e-02 1.19829595e-01 -7.53159150e-02 -3.16932112e-01 1.14841163e+00 -1.65879317e-02 -1.04122162e+00 7.77311444e-01 -6.97857618e-01 -1.37385738e-03 1.80288598e-01 8.66055638e-02 -6.98037624e-01 5.25047123e-01 6.00092053e-01 4.47719991e-01 5.73288314e-02 1.17061483e-02 -1.34603262e-01 3.86327684e-01 5.27701020e-01 9.55561757e-01 -5.53422213e-01 5.27111053e-01 -6.22511983e-01 1.74719598e-02 8.50475550e-01 -4.53132600e-01 1.28045306e-01 1.58607379e-01
-5.82525551e-01 5.81799448e-01 -1.65492408e-02 -1.75905257e-01 5.62204480e-01 2.03139573e-01 4.77462448e-03 5.51097453e-01 -3.12357485e-01 5.29343009e-01 3.49011347e-02 -1.49084866e-01 2.52184451e-01 2.31862009e-01 -5.12145519e-01 -1.73775405e-01 -1.30386367e-01 -1.97910350e-02 3.60273153e-01 -3.51177633e-01 3.84559929e-02 -2.41356596e-01 4.73069064e-02 -5.50610125e-01 1.90466002e-01 -1.79390147e-01 -5.98366082e-01 -5.59095621e-01 1.98481321e-01 -3.96396130e-01 -2.22644299e-01 -3.34381342e-01
-8.34622458e-02 2.96433419e-01 5.14934897e-01 2.88027018e-01 -3.44563156e-01 -4.01211977e-01 -1.70593813e-01 1.50041543e-02 3.65060747e-01 -5.57951033e-01 -6.76904857e-01 6.80771694e-02 -2.09222063e-01 -2.90283591e-01 -1.38429208e-02 5.78741670e-01 -3.44489031e-02 1.04161851e-01 3.07655603e-01 2.69525021e-01 4.76408675e-02 -7.03138709e-01 5.71218804e-02 6.76065162e-02 4.10969168e-01 2.12277040e-01 -5.65944649e-02 -5.91457725e-01 -2.16355890e-01 -1.94732606e-01 -7.21889064e-02 -3.90241593e-01
-7.57430315e-01 4.48232740e-01 -5.90467572e-01 -1.01079690e+00 -3.21612954e-01 -2.67296016e-01 -3.42032850e-01 3.84600401e-01 1.56500325e-01 4.22372669e-01 -5.67196421e-02 1.97507381e-01 1.77286983e-01 2.32977405e-01 4.91402159e-03 8.94696832e-01 6.65391028e-01 1.07349813e+00 -6.02496624e-01 5.82931936e-02 5.54867268e-01 -7.50512719e-01 -6.51894510e-01 4.03440386e-01 -1.89041868e-01 -4.29449648e-01 2.75437266e-01 2.76734710e-01 6.43001616e-01 -8.15820754e-01 1.25609457e-01 -2.09684178e-01
-1.08055204e-01 -5.73423207e-01 6.12937734e-02 -8.17130953e-02 -6.95710659e-01 6.92065179e-01 -2.08583637e-03 -4.58502024e-01 5.52714705e-01 9.82111216e-01 -1.61935180e-01 1.95349902e-02 5.21235287e-01 4.60379064e-01 7.56730735e-02 -1.11088896e+00 -4.98616755e-01 -1.10095263e+00 -8.45634788e-02 1.64551079e-01 3.75907779e-01 3.65000337e-01 3.22192311e-01 2.00264141e-01 3.57541472e-01 7.17130229e-02 -3.81277531e-01 -3.87019426e-01 -2.14304939e-01 -3.00343394e-01 3.97356480e-01 2.11881578e-01
4.16257698e-03 -1.00787389e+00 3.00313950e-01 1.64511144e+00 1.90799788e-01 4.55581583e-02 -8.10079873e-02 -3.25613886e-01 -2.49135062e-01 2.35452458e-01 1.13831544e+00 -1.02184856e+00 -1.16533506e+00 -3.53695661e-01 2.15063259e-01 -6.73030913e-02 -1.24600720e+00 6.83240950e-01 6.88787341e-01 -7.10809648e-01 7.92845309e-01 1.32431120e-01 -3.24127115e-02 6.09759567e-03 -1.59285650e-01 -5.70526838e-01 2.66310304e-01 6.84699938e-02 -9.40517485e-01 1.32663500e+00 -5.41501582e-01 1.46436945e-01
-7.31748521e-01 -2.15157047e-01 6.23928070e-01 1.30737141e-01 -5.18916547e-01 3.29511106e-01 2.85175979e-01 5.03758788e-02 -4.64410394e-01 -7.42736161e-02 -1.33054829e+00 4.70596254e-01 4.43932205e-01 1.96973607e-01 2.14237198e-01 -2.05101818e-01 3.37995231e-01 -5.14488578e-01 -1.09937496e-01 -3.71126264e-01 -1.67899323e+00 9.85123515e-01 1.33931756e-01 -6.44159853e-01 1.88323393e-01 5.13425112e-01 -1.11444637e-01 2.81162679e-01 -4.61568862e-01 -2.22218916e-01 -2.18324125e-01 -4.03614230e-02
-2.92527646e-01 -4.05757636e-01 -1.31256893e-01 -1.10851124e-01 -2.56951630e-01 -3.42235453e-02 2.69487053e-01 2.32910126e-01 -7.04385340e-01 1.43807828e+00 -1.11363724e-01 -1.35254011e-01 -5.41789234e-01 6.71104729e-01 -1.09245591e-01 8.17350224e-02 -1.61490217e-02 1.80775568e-01 1.44891404e-02 -2.25941002e-01 1.89755410e-01 1.22260861e-01 3.32929134e-01 1.66589305e-01 -2.87831835e-02 -1.11396968e-01 -1.46296129e-01 2.44071215e-01 2.15504140e-01 3.51414531e-01 -1.11535542e-01 1.81274474e-01
-1.79865360e-01 -2.16806322e-01 1.23088896e-01 -1.76686615e-01 -5.03101110e-01 4.97834414e-01 -2.83026069e-01 -3.48569483e-01 1.79350063e-01 -4.41080868e-01 9.94827785e-03 4.03340757e-01 2.72104681e-01 3.75562161e-01 1.86444238e-01 -5.96049786e-01 -3.46082866e-01 -1.31115317e+00 -1.17093928e-01 -2.50210166e-01 -1.11373194e-01 9.79821444e-01 4.71194625e-01 5.68683147e-01 -4.86708730e-01 1.95043311e-01 4.78593074e-02 -2.25967988e-01 -3.03711176e-01 -3.35088640e-01 -3.51690322e-01 -6.39639273e-02
6.70385957e-02 -6.92719743e-02 4.79619429e-02 -7.98981115e-02 3.25328529e-01 -9.34123397e-02 5.35635017e-02 -3.23877156e-01 -1.91941351e-01 3.52242827e-01 1.40197650e-01 2.04008177e-01 7.82273933e-02 -3.67432654e-01 -5.20348176e-02 -3.44202012e-01 6.01978153e-02 1.31824821e-01 -1.93476543e-01 -5.30813515e-01 1.78535819e-01 -2.35523373e-01 -1.48524731e-01 -9.12521034e-02 1.98085252e-02 2.30961964e-01 -4.70557101e-02 -4.27628048e-02 1.16531946e-01 7.79995248e-02 7.49557987e-02 -2.40795426e-02
1.28227621e-01 -5.99943519e-01 -3.61998767e-01 8.86359155e-01 -2.82710940e-01 -4.38857704e-01 1.59519032e-01 -2.54024535e-01 8.52217004e-02 3.05197859e+00 -4.51505244e-01 9.00759041e-01 5.34557402e-01 1.09997606e+00 7.68231690e-01 -8.63273963e-02 -4.88264672e-02 -4.44576368e-02 6.56484187e-01 2.48998031e-01 2.49005452e-01 2.71430667e-02 -2.51123160e-01 1.20033944e+00 -4.24103700e-02 1.92524642e-02 -1.79370031e-01 3.10118586e-01 -7.61597455e-02 1.47771358e-01 7.34698772e-01 -2.95514474e-03
-1.34372383e-01 1.86157078e-01 1.94769979e-01 7.45897219e-02 -1.61841325e-02 -5.83539158e-02 4.75096237e-03 9.74640250e-02 2.61335634e-02 -5.88888228e-02 1.76346257e-01 6.66857436e-02 8.06850642e-02 -1.12141902e-02 1.65826932e-01 2.44786963e-01 2.76989881e-02 -1.08103655e-01 8.52259062e-03 7.75077865e-02 -1.87895223e-01 -1.68173399e-03 -2.72246148e-03 -3.41882533e-03 -4.55035299e-01 -2.48878136e-01 4.22049351e-02 -9.57955942e-02 -5.72099239e-02 -5.05690947e-02 5.57481617e-05 -4.61708069e-01
6.86510839e-03 -8.70698988e-02 -1.15672596e-01 2.87574846e-02 -1.72155708e-01 5.22444211e-02 -4.14213203e-02 1.88059032e-01 4.00597192e-02 -8.84121750e-03 -2.61963625e-02 9.21718194e-04 -5.83746582e-02 5.30163664e-03 -5.10284901e-02 1.99430496e-01 -1.00733876e-01 -1.62864789e-01 -2.25838125e-02 3.37312579e-01 -2.34720469e-01 -1.44070148e-01 -6.16865605e-03 2.38728877e-02 5.28994063e-03 -7.04253837e-02 -5.50636239e-02 -7.33280107e-02 -6.78387210e-02 5.35454117e-02 9.82304662e-03 -5.72884222e-03
8.16056609e-01 -2.41127938e-01 3.87648523e-01 3.28866184e-01 -5.66305876e-01 -1.00129442e-02 -5.61030984e-01 -1.31939966e-02 8.47633541e-01 9.71030146e-02 -1.97599858e-01 6.03091195e-02 5.86281717e-02 3.01468164e-01 7.04291284e-01 -9.49689448e-01 -4.32134539e-01 -8.71483922e-01 7.11682260e-01 -2.64746100e-01 -7.41282225e-01 2.34185874e-01 -2.15738922e-01 2.18269214e-01 7.96475410e-01 -5.57026714e-02 2.10925356e-01 -2.02719033e-01 -5.00202537e-01 2.14509159e-01 7.89571702e-02 1.08577631e-01
-1.88466311e-02 -5.44153929e-01 -3.08790743e-01 4.21197742e-01 2.83357799e-01 -4.51581299e-01 1.53703541e-01 3.79496850e-02 1.60642684e-01 -1.80540726e-01 -2.30433330e-01 4.41173464e-01 3.46185803e-01 -2.08288789e-01 3.87111485e-01 -5.63339651e-01 -4.38168496e-01 -8.24731112e-01 2.87933677e-01 -4.88017231e-01 -1.53601512e-01 -6.78256825e-02 5.08558810e-01 7.39071369e-01 -9.11230966e-02 -3.12346339e-01 4.48535085e-01 -1.00691415e-01 -2.60567814e-02 -4.03115988e-01 1.25011533e-01 1.51001722e-01
-1.11897513e-01 -3.58047374e-02 8.66139710e-01 4.11039442e-02 -1.26677334e+00 -2.88980961e-01 1.75462484e-01 -4.47799265e-02 6.77713811e-01 5.69527686e-01 -2.00190559e-01 -3.36980283e-01 7.84887373e-02 5.05223393e-01 3.35596353e-02 -2.29999304e+00 -3.18758398e-01 -3.02707624e+00 2.81218719e-02 3.91891450e-02 -7.32830822e-01 7.48808146e-01 2.41865039e-01 -6.69515058e-02 3.92333776e-01 2.12229371e-01 2.64111519e-01 6.54056296e-02 2.52943002e-02 -8.30431700e-01 -5.01347363e-01 4.76723257e-03
-2.52209127e-01 -1.82384685e-01 -1.35887042e-01 -3.55879992e-01 -4.51571673e-01 6.02400541e-01 1.01048425e-01 -2.89352480e-02 2.12514661e-02 3.35696191e-01 -2.42767274e-01 1.14173442e-01 1.32379517e-01 -3.10625702e-01 -1.35145873e-01 -7.06580579e-01 3.58062774e-01 -8.77067685e-01 -3.55338305e-01 5.51908314e-02 -2.67774284e-01 4.80820239e-01 -1.06001653e-01 3.69224310e-01 3.95731837e-01 -4.48489368e-01 4.06403065e-01 2.21335236e-02 1.37812853e-01 5.85271828e-02 -2.48489156e-01 -1.03054885e-02
4.88849282e-01 7.07205653e-01 6.54477060e-01 -3.98659348e-01 7.50654787e-02 9.74418968e-02 1.97008908e-01 -1.43456340e-01 -7.24215329e-01 1.16565001e+00 -3.17711979e-01 -1.62465662e-01 -4.47205216e-01 1.16699660e+00 1.08188853e-01 1.84016805e-02 2.94951685e-02 -1.07814229e+00 3.40485185e-01 -2.87220418e-01 2.27809753e-02 6.76767945e-01 -2.74299026e-01 -3.96921724e-01 6.36499166e-01 -7.83242881e-01 4.97527689e-01 -4.82859351e-02 -3.10972333e-01 -6.03997707e-01 9.76397172e-02 -4.47321892e-01
-4.00684327e-02 -5.25607646e-01 3.62367146e-02 -7.39967823e-02 9.70078707e-02 1.94487482e-01 7.04781897e-03 -3.45391959e-01 -5.05271316e-01 -3.56445640e-01 -5.41305682e-03 -9.93254334e-02 -1.91262662e-01 4.51110840e-01 6.38123035e-01 3.76226872e-01 8.18842500e-02 -1.45960107e-01 5.00428863e-02 9.74501483e-03 -1.54768780e-01 1.95347369e-01 -2.80489832e-01 2.60745078e-01 2.10148674e-02 -3.37918341e-01 5.04561365e-01 6.25457466e-01 -4.56939995e-01 -3.51532906e-01 2.96067983e-01 2.43104503e-01
-1.14544702e+00 -1.60315521e-02 5.67969680e-02 -1.26158369e+00 5.98869696e-02 2.23062247e-01 2.49950826e-01 7.49842703e-01 -4.27108556e-02 2.35019043e-01 -9.13451433e-01 5.25907576e-01 9.54477906e-01 3.72194707e-01 -4.54646438e-01 4.95372742e-01 4.80915755e-01 -2.09434077e-01 -5.97401023e-01 9.70290005e-01 -5.29031277e-01 -3.59071404e-01 -2.36362196e-03 -3.72394454e-03 5.48515677e-01 7.36213088e-01 9.05471146e-01 6.11753404e-01 4.47306335e-01 -9.68567669e-01 2.70302564e-01 2.71563053e-01
-8.07643235e-02 8.26349035e-02 2.40637064e-01 -4.16075923e-02 3.89862746e-01 -8.39407593e-02 -4.97752661e-03 5.14047295e-02 -6.78584203e-02 2.14293629e-01 1.27245057e-02 3.72822024e-02 -6.03335071e-03 -1.55001760e-01 8.62056464e-02 -1.83390915e-01 8.83545354e-02 3.07249557e-02 -3.23731527e-02 -4.11471426e-01 1.68055266e-01 -1.56497255e-01 -7.64846522e-03 7.05093335e-05 1.41352639e-01 3.43468040e-03 8.46463442e-02 1.13328986e-01 3.58980782e-02 -8.66308585e-02 -2.97196792e-03 5.69928177e-02
-1.10065311e-01 4.56014723e-02 4.05446112e-01 -2.98553333e-02 -4.07795273e-02 -2.37309206e-02 5.36978900e-01 2.27799967e-01 2.92598546e-01 -1.43761814e+00 -2.55507469e-01 4.42141920e-01 5.69767475e-01 -5.86151779e-01 -1.96307331e-01 -2.63903022e-01 2.79662520e-01 -7.60814011e-01 4.20145169e-02 -6.90102756e-01 1.15123010e+00 -3.88435036e-01 -9.26311612e-02 -1.41912293e+00 1.51929259e-01 4.53226000e-01 -9.22535419e-01 -1.14885831e+00 5.13562024e-01 -1.02868704e-02 -1.96138695e-01 -4.70229596e-01
5.71859539e-01 -3.67728561e-01 -3.60460848e-01 4.95065004e-01 4.77198437e-02 -9.60212480e-03 -5.53487837e-02 -1.78749695e-01 4.75375980e-01 -1.29227281e-01 -7.17471689e-02 -1.00242011e-01 7.05730617e-01 -3.76068681e-01 4.18591350e-01 -3.19628626e-01 -8.53759944e-02 -4.40672696e-01 1.76246911e-01 -1.29429564e-01 -2.84077466e-01 6.94526359e-02 2.03765601e-01 1.72244310e-01 -1.62138976e-02 -2.60405481e-01 8.48922253e-01 4.48834330e-01 -4.04317439e-01 3.92070562e-01 1.85835376e-01 2.91811645e-01
-2.59296626e-01 3.34654242e-01 -1.21984787e-01 -5.90308607e-02 -6.11465156e-01 -2.25902379e-01 1.18131392e-01 4.46396768e-01 -7.03906193e-02 -5.73865950e-01 -1.86875433e-01 -7.57689308e-03 -3.42048585e-01 1.99180111e-01 2.58813143e-01 -1.01805605e-01 -9.78347212e-02 2.85167754e-01 5.16871475e-02 3.56347591e-01 -2.76207656e-01 2.55020714e-05 -5.63237676e-03 -2.86706705e-02 -1.29735366e-01 -1.25441685e-01 2.54415900e-01 -2.31015503e-01 1.07189186e-01 -2.42672977e-03 1.09187409e-03 1.83303103e-01
2.29701716e-02 -5.56432128e-01 -5.23777977e-02 -9.41779539e-02 -2.50501931e-01 -1.14299469e-01 -9.88450274e-03 -2.00646698e-01 -3.89312327e-01 4.95328963e-01 -1.28027750e-03 6.68221340e-02 3.38396370e-01 4.49925542e-01 -1.13281265e-01 -6.79115891e-01 -2.11132526e-01 -2.90925831e-01 2.45790388e-02 3.94886993e-02 8.68643597e-02 -2.46574357e-02 6.37403667e-01 1.36142537e-01 -3.83737862e-01 1.99706644e-01 3.53546917e-01 1.10949859e-01 -9.06632170e-02 1.34528637e-01 -7.76009709e-02 -2.10064158e-01
9.09362495e-01 5.63175194e-02 -2.95491368e-01 2.34124467e-01 -2.75353104e-01 3.98960523e-02 6.04313970e-01 -1.31878197e-01 2.63391249e-02 -6.29988909e-01 -8.23143601e-01 1.33607221e+00 -1.64397694e-02 -6.43810868e-01 2.72917211e-01 -1.90550946e-02 6.24786839e-02 -2.93523651e-02 3.07763547e-01 7.28260353e-03 -1.64621019e+00 -2.34982982e-01 -1.12359929e+00 -2.62348831e-01 -6.63332462e-01 -2.50414073e-01 2.80628353e-01 9.86571789e-01 -1.04083583e-01 9.29821357e-02 -2.18733877e-01 7.20974267e-01
-2.16890275e-01 -2.18001842e-01 -9.16461408e-01 -5.89848906e-02 5.00404716e-01 5.38521051e-01 -1.19927615e-01 6.81463555e-02 -3.55048269e-01 4.12439018e-01 -3.81317109e-01 -1.30679178e+00 3.73249769e-01 6.73545823e-02 1.89085424e-01 8.83223236e-01 -1.65838942e-01 1.57018125e+00 -5.56131363e-01 1.01723559e-01 4.45490092e-01 -1.09603167e-01 4.12270427e-01 6.68317139e-01 -1.57743186e-01 7.92932153e-01 -9.26565379e-02 -4.30849761e-01 1.50479168e-01 1.54290468e-01 5.15585423e-01 -1.62661135e-01
-5.82229793e-02 3.37761581e-01 -8.47879872e-02 -6.44828081e-01 -1.25508606e-01 8.10419798e-01 3.67505223e-01 8.23411763e-01 1.87017217e-01 3.49916846e-01 9.64558721e-01 -3.04830194e-01 1.12641744e-01 4.24652398e-01 8.25846195e-02 -5.85109353e-01 2.79842734e-01 -1.12114400e-02 -3.57623041e-01 -5.40763259e-01 -8.54408517e-02 -1.49880648e-01 4.20643777e-01 2.29771763e-01 -2.99756587e-01 1.91994891e-01 5.36076212e-03 5.56991957e-02 -5.64696252e-01 2.28649139e-01 -1.87330335e-01 1.73805490e-01
1.23440810e-01 1.89399496e-02 -1.56210408e-01 1.27965491e-02 -3.33090536e-02 4.33596224e-02 1.64771322e-02 7.20444620e-02 -3.21934894e-02 2.17196532e-02 -7.39141107e-02 -3.55664462e-01 2.46140406e-01 2.47345492e-01 3.68622243e-02 5.57365492e-02 9.05559584e-02 -9.74862352e-02 1.09725557e-01 2.71587372e-01 1.38400406e-01 2.48854890e-01 -1.05309775e-02 2.27511629e-01 -8.64284784e-02 -2.72819608e-01 -1.66731521e-01 -2.02511251e-01 -3.35167199e-01 -1.41791776e-01 4.90392279e-03 -2.87975788e-01
4.43280667e-01 1.22765869e-01 5.25922418e-01 3.97733808e-01 2.49446914e-01 4.08994615e-01 1.09252048e+00 -4.01354611e-01 6.41275883e-01 9.78306159e-02 -6.31300092e-01 2.11195350e-01 -5.35342991e-01 -1.13669418e-01 -1.67283669e-01 2.40779296e-01 -4.80101883e-01 -5.42633116e-01 3.63990188e-01 2.09582467e-02 -3.03578377e-01 5.79851866e-01 2.07157940e-01 8.16393018e-01 -2.00259820e-01 -1.88164636e-01 -2.18601629e-01 4.26645070e-01 6.83967248e-02 4.04932350e-01 -2.38858648e-02 2.03200698e-01
-5.03746867e-01 -4.47764993e-01 1.54942274e+00 1.19764790e-01 -9.64976788e-01 -4.01814729e-02 -1.31842136e+00 -9.14549470e-01 4.20069754e-01 8.99377048e-01 9.95330587e-02 -6.68925583e-01 -3.12156230e-01 7.82989740e-01 5.78442812e-01 -2.10824370e+00 2.17696369e-01 -2.89000416e+00 1.64102781e+00 8.18775892e-01 -4.72898185e-01 1.76569760e+00 -3.02301913e-01 2.78253943e-01 2.74023682e-01 -7.06586242e-01 -2.27164403e-01 3.45462382e-01 1.99796677e-01 7.47355521e-02 4.82280642e-01 2.23315030e-01
1.97216170e-03 -7.35381339e-03 1.32139504e-01 4.30298671e-02 3.42933387e-01 -2.42717881e-02 -8.58077407e-03 -2.23748991e-03 7.98555613e-02 -2.22400799e-02 -5.52014215e-03 -8.14769790e-02 9.14621577e-02 1.11992992e-02 -6.21212041e-03 -1.14209717e-02 -3.75495991e-04 -1.37974918e-02 -3.27178538e-02 7.11356550e-02 1.11318186e-01 9.94186327e-02 -1.80659350e-03 -1.39119793e-02 -1.13515921e-01 -1.69572324e-01 1.17166210e-02 3.82304281e-01 -3.97011340e-02 -5.24577685e-02 2.53469627e-02 -2.59001285e-01
-4.09854114e-01 -7.68096223e-02 -1.02959864e-01 -1.00421816e-01 -2.53267944e-01 1.41119882e-01 1.45239178e-02 7.61536717e-01 -3.25761914e-01 3.34123820e-01 -2.80122161e-01 9.42962289e-01 5.38323283e-01 3.31196785e-01 3.99720937e-01 1.69184923e-01 -1.77889496e-01 1.91755407e-02 -2.60887027e-01 -3.52224223e-02 -1.48771882e-01 -5.80990434e-01 -7.87376389e-02 -2.35785127e-01 -3.07363570e-01 -1.25307679e-01 -6.37312829e-01 4.25148636e-01 -2.36824200e-01 -2.80142337e-01 6.36627913e-01 4.73333836e-01
-2.23261446e-01 -1.65717334e-01 7.23224163e-01 2.24653870e-01 -7.85517216e-01 3.95422220e-01 3.18587214e-01 -5.11567533e-01 5.29271781e-01 4.08131182e-01 -9.98838320e-02 3.83664250e-01 -5.41608445e-02 1.08907506e-01 1.58523947e-01 -2.13382530e+00 1.61273748e-01 -1.18033767e+00 -1.09486140e-01 2.09155381e-01 -1.73711907e-02 2.69421756e-01 3.53901714e-01 1.67213038e-01 -2.06314027e-01 -5.01631081e-01 -1.13855273e-01 -2.34302834e-01 -3.51834148e-01 -5.17083287e-01 3.78525585e-01 -3.33176225e-01
-1.68775082e-01 3.06162369e-02 -8.06312859e-02 2.38016099e-01 -3.99742812e-01 -8.16716328e-02 1.07056707e-01 -3.34307104e-01 -4.44357306e-01 1.75751722e+00 -2.75223404e-01 -1.83521748e-01 -3.82616788e-01 1.40468156e+00 -1.96884289e-01 -1.52459100e-01 -4.89541069e-02 -1.48388222e-01 8.26210435e-03 -3.81054521e-01 5.66438660e-02 1.66666269e-01 -6.01502694e-02 -8.84988010e-02 -2.07194909e-01 -6.73508644e-02 5.17246306e-01 4.88425255e-01 9.98023376e-02 -3.76805067e-01 3.73684734e-01 -2.99761202e-02
-5.37287630e-02 -8.66119489e-02 8.45126033e-01 2.84762740e-01 -2.99387306e-01 -5.30738652e-01 -1.06476104e+00 3.20573121e-01 2.66806990e-01 2.05777273e-01 -1.02461845e-01 1.36265904e-01 3.10109615e-01 -9.53706577e-02 -3.33529711e-01 5.92751503e-01 1.07805885e-01 5.28273033e-03 -2.80917883e-01 -1.81659967e-01 7.79841006e-01 5.78494012e-01 2.17960760e-01 -8.39359164e-01 1.15424633e-01 2.59601027e-01 -4.03398514e-01 2.73151577e-01 1.51596829e-01 1.36539102e-01 -3.73110980e-01 -3.83150250e-01
9.29355383e-01 -1.18356794e-01 3.91064405e-01 9.46281850e-01 -3.22613060e-01 -3.57292332e-02 -8.86466980e-01 -4.81505454e-01 9.42783713e-01 -2.45898199e+00 -1.67231321e-01 5.12039602e-01 -1.18915474e+00 -3.32542866e-01 1.25597864e-01 -6.78733349e-01 5.31728901e-02 -2.01245859e-01 4.60321248e-01 8.24721217e-01 3.32145810e-01 -5.10139763e-01 -2.26522350e+00 -5.34036219e-01 6.78402483e-01 6.37014270e-01 -8.44089031e-01 -4.82357740e-01 6.55305386e-02 1.20714414e+00 -9.15066183e-01 -2.31787249e-01
-3.62848081e-02 1.84046328e-01 1.05272019e-02 -5.00156432e-02 -2.10055009e-01 -5.13643585e-02 3.49322595e-02 -5.58140576e-02 -2.19924208e-02 -4.06610072e-02 6.15339354e-02 7.24024698e-02 7.71442875e-02 -2.73752343e-02 1.50383994e-01 -1.19188920e-01 8.74828622e-02 2.08578631e-01 6.68296916e-03 -2.96807468e-01 1.27587229e-01 7.54053146e-02 -3.47665162e-03 -3.75852585e-02 -2.95633852e-01 -6.06376380e-02 1.29783647e-02 -6.53581694e-02 -2.24073860e-03 -4.54185111e-03 5.39996056e-03 -2.23016843e-01
-9.49279368e-02 2.54959553e-01 1.80713820e+00 3.49325955e-01 -1.34583104e+00 3.40268403e-01 -2.37151220e-01 -4.17223334e-01 7.97798991e-01 6.42823875e-01 9.12357718e-02 -2.97224849e-01 -7.91565835e-01 1.01625919e+00 1.06417343e-01 -3.46158648e+00 -2.52669275e-01 -4.63719654e+00 2.11316243e-01 1.45343110e-01 -1.10964823e+00 1.11852598e+00 5.05910218e-01 1.50058106e-01 3.75991136e-01 -3.36156674e-02 -6.31559193e-01 5.55211246e-01 9.23261419e-03 -9.45075825e-02 6.32738918e-02 -1.51015505e-01
-8.09940159e-01 2.14741975e-01 1.66558072e-01 -7.15015113e-01 -6.44657612e-02 -1.82987586e-01 -2.16061845e-01 4.34993774e-01 9.23529919e-03 2.25014575e-02 1.37949988e-01 -3.14781040e-01 4.01493520e-01 5.35336614e-01 -4.35408562e-01 -2.77663589e-01 1.78427026e-01 -1.80629626e-01 -2.52380580e-01 9.96234119e-02 5.02381958e-02 7.05937386e-01 1.72448441e-01 -2.20090538e-01 -1.57984614e-01 2.39843488e-01 -6.82558954e-01 2.09998995e-01 4.23640124e-02 -5.37845016e-01 -1.95927277e-01 -7.34709442e-01

layers.2.bias:
-1.48327613e+00
-5.30587018e-01
5.81419230e-01
-5.40959179e-01
2.56277204e-01
-5.42552471e-01
2.62423664e-01
2.17858815e+00
6.96684182e-01
7.96805024e-01
-9.86526787e-01
-1.32581186e+00
-2.14469299e-01
9.25063312e-01
-4.07689482e-01
-8.12622428e-01
-7.35544264e-02
-6.57841504e-01
3.14608634e-01
-8.21171328e-02
-1.24973200e-01
6.76084280e-01
7.48669922e-01
-3.12326159e-02
-4.20663327e-01
1.01404059e+00
-9.45581794e-01
-1.09699607e+00
3.69119674e-01
-1.08362210e+00
1.34441793e-01
-3.62983383e-02
7.67535925e-01
1.34095564e-01
-3.92641813e-01
-2.69153118e-02
-1.26510113e-01
1.37357986e+00
9.48858798e-01
-1.60208702e-01
8.89340281e-01
-1.85544699e-01
-6.00253820e-01
1.43116570e+00
2.59077787e-01
-1.22748303e+00
1.01334345e+00
-3.61392409e-01
7.77099669e-01
1.47441423e+00
9.18655545e-02
2.91679978e-01
1.23506956e-01
-4.94369745e-01
6.66243806e-02
-2.78361049e-02
8.21485817e-01
-1.52125582e-01
-1.48838907e-01
-5.62849343e-01
7.58121192e-01
5.51604815e-02
-3.85537207e-01
6.74817324e-01

layers.4.weight:
4.71424758e-01 9.48641740e-04 -6.79490045e-02 6.81826100e-03 -8.57419595e-02 -1.75919995e-01 3.53882788e-04 -6.96677685e-01 -1.19037464e-01 -3.93596143e-01 2.85428371e-02 7.80951023e-01 -1.77142012e+00 -1.14477314e-01 9.11288196e-04 -1.25334668e+00 -4.67100792e-04 6.15193062e-02 -6.77881821e-04 -2.15562497e-04 3.11987866e-02 -1.19875871e-01 -1.76134203e-02 2.69876838e-01 -5.78819700e-02 -3.04528940e-02 -2.46326216e-02 7.39405453e-01 -4.15685236e-01 3.90889764e-01 -2.43427455e-02 -1.25746816e-01 -1.30176425e-01 1.94593065e-03 1.10533267e-01 9.15755809e-05 -4.92521620e-04 -1.35068133e-01 1.29184537e-02 1.30120397e-01 -5.35085239e-02 3.12757701e-01 2.99602300e-02 -1.27454042e-01 5.96041500e-04 2.72108674e-01 4.45601717e-03 -5.40370762e-04 -7.93571100e-02 -6.52431071e-01 -8.44529197e-02 -5.66295646e-02 -2.25032272e-04 -1.69095229e-02 -1.12979722e+00 3.63550178e-04 7.47080818e-02 -3.20714563e-01 -1.00488238e-01 2.98024416e-02 6.42485321e-02 3.77249598e-05 7.98209906e-01 -2.18299013e-02

layers.4.bias:
-1.07778335e+00

