layers.0.weight:
3.31696361e-01 -5.67613244e-01 7.97264636e-01
5.69172144e-01 -8.09445798e-01 -5.80563486e-01
-8.31293464e-02 -6.13938749e-01 -5.77727258e-01
-1.07055378e+00 1.15616508e-01 4.58123112e+00
2.67282110e-02 4.11940843e-01 1.16166264e-01
-5.79876065e-01 8.58121514e-01 -1.84879377e-01
-1.31842160e+00 4.86020595e-01 -9.88645032e-02
-6.01682402e-02 7.88846374e-01 -9.23566997e-01
6.03414774e-01 -9.26082134e-01 5.12713566e-02
-1.11527514e+00 5.86289167e-02 -1.64189592e-01
7.53551662e-01 -9.85680073e-02 1.41279221e+00
-7.16238439e-01 -1.31785080e-01 -1.29353356e+00
-4.30584475e-02 7.12955832e-01 -1.57757306e+00
-1.16726887e+00 2.10410804e-02 5.00053525e-01
-6.46977663e-01 1.09646142e+00 7.52028525e-01
-1.81771189e-01 9.48456824e-01 1.64468549e-02
5.46070874e-01 -6.33792400e-01 -1.45019031e+00
-1.15504665e-02 1.12846863e+00 1.84981868e-01
8.07071701e-02 -9.54183042e-01 5.35116851e-01
3.41117471e-01 -1.28724232e-01 -8.64976227e-01
2.23475501e-01 1.65966094e-01 -5.10879010e-02
-3.24195027e-01 -2.56797969e-01 -1.00232065e+00
-4.64660525e-01 1.65601885e+00 -4.46076952e-02
-1.56447518e+00 4.06930357e-01 1.75152493e+00
1.05132234e+00 3.79940838e-01 -7.78481364e-01
2.59609371e-01 6.71772659e-01 -1.17486012e+00
-1.16151750e-01 -2.13369340e-01 1.90187418e+00
-3.97779703e-01 -2.44972542e-01 1.92939892e-01
3.22416067e-01 7.57217348e-01 -1.46468067e+00
-1.04933763e-02 4.65525806e-01 1.70563948e+00
-2.89658904e+00 2.84448242e+00 -1.78299040e-01
-1.26738083e+00 -5.19488692e-01 1.02004325e+00

layers.0.bias:
8.77201200e-01
4.81547834e-03
-1.42384720e+00
-6.34384930e-01
7.07518518e-01
-2.04255387e-01
-3.54310095e-01
2.86240637e-01
-7.45998621e-01
-1.59115899e+00
1.64644122e-01
1.80825554e-02
2.46107668e-01
-1.21306002e+00
-2.90836543e-01
1.43946290e+00
9.34610724e-01
1.82654703e+00
-6.68276668e-01
5.78918040e-01
-1.44309163e-01
-1.35729384e+00
1.02535832e+00
-7.05530941e-02
1.36946186e-01
5.60703695e-01
8.80503118e-01
-1.57881156e-01
-4.88352716e-01
7.31267482e-02
8.91685039e-02
-6.70209900e-02

layers.2.weight:
-3.16105694e-01 2.31372029e-01 5.32857887e-02 -4.96240020e-01 -1.71137247e-02 -2.01553255e-02 1.57566234e-01 -4.70808521e-02 -1.88203216e-01 2.73096371e+00 6.79836422e-02 1.01605885e-01 -2.11643413e-01 2.40337276e+00 -2.37031296e-01 5.43296695e-01 -4.56398837e-02 7.63110518e-01 1.32529393e-01 -2.53098011e-01 1.77452728e-01 -6.53547794e-02 -5.57262897e-01 5.92747211e-01 -1.83907196e-01 6.28412664e-01 -8.00436080e-01 -7.02571720e-02 -1.80736214e-01 -2.31717840e-01 -1.43648744e-01 3.55707914e-01
-1.20960034e-01 1.36907429e-01 -8.15703511e-01 1.26540959e-02 -4.23243880e-01 1.71621129e-01 -7.32279599e-01 -4.63674694e-01 5.33203542e-01 6.95290983e-01 2.93119997e-01 -2.42709860e-01 2.79288888e-01 -1.50203994e-02 -2.89450884e-01 2.34736428e-01 -3.67916614e-01 3.21491271e-01 -4.36501086e-01 -7.57565051e-02 6.56335711e-01 -7.96504095e-02 -3.96183968e-01 -6.45091757e-02 4.76538241e-02 -4.74351943e-02 -3.63441736e-01 -5.71867287e-01 9.81147587e-02 -2.56931543e-01 -1.31008979e-02 1.46937922e-01
-6.98384345e-02 -4.17003073e-02 1.69365555e-02 -7.69632339e-01 -5.72195470e-01 4.87341499e-03 -4.59867954e-01 3.50467175e-01 4.34581429e-01 7.42121994e-01 -5.70076883e-01 -6.34889305e-02 1.83843464e-01 3.59737724e-02 -5.77783287e-02 -5.79437315e-01 -1.02054566e-01 -3.94805968e-01 -1.30520806e-01 4.35510069e-01 -3.69899422e-01 -2.38194644e-01 4.24548268e-01 -1.20494306e+00 -2.36900657e-01 4.52420741e-01 -1.19376397e+00 -6.34028539e-02 4.48746622e-01 -3.93983662e-01 1.12699799e-01 2.94627011e-01
2.52656162e-01 -8.19044933e-02 3.61751914e-02 1.34818459e+00 6.53676569e-01 3.84921312e-01 6.50517106e-01 -2.28659317e-01 -1.59366056e-01 -5.15691414e-02 1.69724330e-01 -8.19748193e-02 -5.72000742e-01 1.46267012e-01 6.27330661e-01 1.45745969e+00 -3.03526133e-01 9.25447047e-01 2.91835815e-01 -9.41276789e-01 -6.32099450e-01 -1.61286578e-01 3.66047740e-01 1.36077106e+00 -1.62786126e-01 -5.04774630e-01 5.03896117e-01 -5.80815189e-02 -6.63224757e-01 -9.76493433e-02 -2.21829843e-02 9.53515843e-02
1.15614697e-01 -2.78779685e-01 1.61464125e-01 -4.73008126e-01 7.99477026e-02 -3.36056709e-01 -1.41626251e+00 1.55952439e-01 5.27255058e-01 -5.17790735e-01 4.02602971e-01 -7.17749298e-01 8.30136120e-01 -8.57004523e-01 -1.41773075e-01 -8.95630538e-01 -2.57680535e-01 -8.76055181e-01 -6.34481385e-02 -5.55989258e-02 8.59800637e-01 -6.23706043e-01 1.38577923e-01 -3.69974077e-01 -7.73083210e-01 6.69668376e-01 7.34895021e-02 -5.93208730e-01 -2.48314440e-01 5.71318507e-01 -2.41277546e-01 3.43071967e-02
-3.58895093e-01 1.56684682e-01 4.67054069e-01 1.92584097e-01 -8.98194849e-01 -2.28401691e-01 -2.47089490e-02 1.85929596e-01 3.20594132e-01 -1.54752573e-02 5.84229827e-01 3.04189593e-01 -1.26705319e-01 -8.55946243e-02 -1.97963133e-01 -1.24975073e+00 -4.58350629e-01 -1.42313015e+00 9.03297246e-01 -3.03185165e-01 -5.12659788e-01 3.37929539e-02 -6.24826849e-01 -3.61515909e-01 3.94189283e-02 2.81467438e-02 1.94483951e-01 1.20730126e+00 -3.28572094e-01 -3.72792274e-01 -5.32136261e-01 3.21834356e-01
1.65556627e-03 6.11574436e-03 -2.34352037e-01 5.42625692e-03 -1.51599154e-01 1.65805012e-01 -7.63177872e-02 -4.25256431e-01 -1.29334494e-01 2.31944129e-01 3.10767233e-01 7.40089417e-02 2.74649084e-01 4.58988175e-03 -1.72403399e-02 -2.55554616e-01 5.80606190e-03 1.29924417e-01 -2.34480649e-02 -3.21339965e-01 -4.06226099e-01 9.91805047e-02 7.28200525e-02 1.38566475e-02 1.64138794e-01 2.46251360e-01 -3.46729130e-01 -3.77977818e-01 -1.54058754e-01 6.41381443e-02 -9.61642042e-02 1.36945844e-01
5.20296574e-01 1.96980119e-01 -1.51883751e-01 3.62712502e-01 -3.49703342e-01 -7.94860005e-01 1.65696397e-01 4.32954460e-01 2.25581318e-01 -1.89966723e-01 -1.19906366e-01 9.53327596e-01 3.02984536e-01 -5.15812457e-01 -2.47317955e-01 2.54544546e-04 5.14741540e-01 -1.43899485e-01 4.23774630e-01 4.96956825e-01 -1.50438213e+00 -8.50461960e-01 -4.07707393e-02 2.75618672e-01 2.08651670e-03 7.25947976e-01 6.13837004e-01 6.94025040e-01 -7.36233711e-01 4.97031599e-01 9.74314883e-02 -6.76944330e-02
9.99651700e-02 2.83164203e-01 -5.57749569e-01 -3.10405433e-01 1.30864465e+00 -4.40626830e-01 -4.31243002e-01 -3.03756088e-01 -7.70362616e-01 3.06988776e-01 2.77270138e-01 4.95193541e-01 7.51781046e-01 -1.22519754e-01 4.57672812e-02 1.99788666e+00 3.64413798e-01 1.38196492e+00 -6.05520904e-01 -1.10866927e-01 -5.35639897e-02 -2.53019065e-01 5.36585152e-02 3.39233845e-01 -7.18029961e-02 4.50211048e-01 -2.79323640e-03 2.64820367e-01 -5.70592843e-02 4.99414317e-02 2.21057057e+00 -1.50187448e-01
-5.88369250e-01 1.33087352e-01 -1.27439186e-01 -4.94093835e-01 4.52334374e-01 -8.93308502e-03 -7.77185857e-02 3.50256354e-01 4.41535950e-01 -1.94024414e-01 4.11349870e-02 2.17606485e-01 1.57127142e-01 1.67942137e-01 -3.80673021e-01 -6.03062570e-01 3.32274199e-01 -4.01895881e-01 -3.98667932e-01 -3.47735770e-02 -6.71724677e-01 -2.60278285e-01 9.26309824e-02 -1.70474071e-02 -2.37946332e-01 -1.18024811e-01 -1.45785406e-01 2.60801882e-01 2.36391574e-01 1.84524968e-01 1.02821663e-01 1.33458339e-02
1.14923142e-01 -2.99480438e-01 -8.32113624e-02 -3.84500235e-01 -4.19009328e-01 -3.19097698e-01 -3.44610453e-01 1.78063557e-01 3.73719603e-01 2.01975420e-01 -5.56173027e-01 -8.95870626e-02 8.78758192e-01 -3.59750152e-01 -2.18364313e-01 -2.80035704e-01 -6.13180101e-01 -8.33081424e-01 -6.14782684e-02 -1.39430175e-02 1.02579522e+00 -2.37403348e-01 -8.33999395e-01 1.47943482e-01 -7.55574033e-02 -3.28525342e-02 -4.56092983e-01 -5.08924901e-01 3.34264636e-01 -4.19806302e-01 -2.60357354e-02 3.56638581e-01
-1.42139211e-01 -1.25821099e-01 1.62414730e+00 -8.13839674e-01 -7.20596135e-01 2.11950943e-01 -1.00695744e-01 -4.13380176e-01 2.39773780e-01 1.85880423e+00 1.17461100e-01 -2.33597443e-01 2.36885071e-01 3.26747894e+00 1.33656412e-01 -7.62508512e-01 2.64766306e-01 -2.44380569e+00 5.46691179e-01 -3.98464561e-01 3.42336625e-01 5.41443110e-01 -1.90519720e-01 9.07690585e-01 -5.09073678e-03 -5.95602691e-01 3.49591047e-01 -1.77295610e-01 1.29207462e-01 9.89396051e-02 1.33515492e-01 -4.15011317e-01
-5.58002412e-01 -1.27699316e-01 8.63362610e-01 3.36773276e-01 -3.47345859e-01 5.65110862e-01 -1.10172108e-03 -8.97655904e-01 3.39712262e-01 4.91453201e-01 1.61491036e-01 1.96110904e-01 -4.32461441e-01 -8.18488300e-02 3.83809566e-01 -3.77093601e+00 -4.48522866e-02 -5.52486086e+00 5.83409429e-01 -9.02395070e-01 -7.19491184e-01 4.03039247e-01 5.70035517e-01 -1.43115833e-01 -2.75011361e-01 -1.71428651e-01 -4.23481137e-01 5.52225411e-01 -6.29781127e-01 -4.04582411e-01 -9.18964446e-01 -2.57906437e-01
6.50094748e-02 -1.01205580e-01 -6.40518844e-01 -4.47192118e-02 -2.07792357e-01 -8.56467783e-02 2.49856949e-01 3.06674927e-01 4.39126313e-01 -2.20380455e-01 5.51250219e-01 -1.47644773e-01 3.11081022e-01 -8.22276115e-01 -3.87105942e-01 -1.23713292e-01 -1.85274988e-01 1.34379402e-01 -6.18284270e-02 1.51841909e-01 -7.80544579e-02 -1.64828584e-01 -2.61332244e-02 -2.04458266e-01 -1.76824853e-01 7.36086845e-01 1.53662851e-02 1.02284692e-01 -2.20526963e-01 2.43747741e-01 6.75091073e-02 4.05223489e-01
-8.05823922e-01 1.51829079e-01 1.29410088e-01 4.90756929e-01 -9.43810463e-01 5.99912226e-01 -3.30336988e-01 -3.60926300e-01 6.19397461e-01 -6.72631860e-02 -6.06304109e-01 9.11027789e-02 -7.05209235e-03 -1.91423446e-01 -2.00552508e-01 -1.17044079e+00 1.05186000e-01 -1.49800408e+00 1.22608460e-01 1.82971999e-01 1.38738191e+00 8.47821236e-01 -1.73897937e-01 3.24611127e-01 -6.43831909e-01 -7.20808282e-02 -4.33164090e-01 3.13239813e-01 4.88486379e-01 -1.03769243e-01 -2.09373713e-01 4.34118032e-01
-4.90594029e-01 -6.73080236e-02 1.01237774e-01 1.20016880e-01 -2.79473037e-01 2.69156426e-01 -9.41200018e-01 -9.18897167e-02 1.20338343e-01 5.25063276e+00 5.62974632e-01 4.17592138e-01 2.31225401e-01 2.64591289e+00 9.31031350e-03 -6.48000315e-02 -4.34231699e-01 -1.98319748e-01 7.87772909e-02 -2.00920403e-01 -6.88495159e-01 4.25802618e-01 1.87460750e-01 2.57308900e-01 -3.80443245e-01 -4.18741941e-01 -6.48013234e-01 3.22383404e-01 -1.59354851e-01 -6.66583002e-01 1.58779681e-01 -2.54368305e-01
-1.42136524e-02 1.47926226e-01 -7.95918629e-02 3.65856066e-02 2.42980085e-02 1.67263020e-02 2.45411005e-02 -5.67936711e-02 2.23807432e-02 -1.73273429e-01 7.15211928e-02 5.96714318e-02 4.71860878e-02 1.00720875e-01 1.15967251e-01 7.68490601e-03 4.72211577e-02 7.43786630e-04 -1.51584148e-02 1.18232451e-01 2.59064436e-01 1.06936269e-01 7.41425483e-03 1.81332435e-02 6.83930144e-02 2.61526145e-02 5.94684146e-02 2.61569887e-01 6.12013740e-04 -1.66839752e-02 2.26760507e-02 2.51773112e-02
1.47387862e-01 -1.28587291e-01 -5.25280178e-01 4.40559909e-02 -1.51870437e-02 -1.92912251e-01 -2.45457619e-01 -3.27233315e-01 3.06802034e-01 -6.67028725e-01 5.05042374e-02 -1.67650878e-02 2.02799186e-01 6.46741390e-02 -7.02677444e-02 4.34709080e-02 -3.11565638e-01 3.26723486e-01 -5.76139428e-02 9.12138939e-01 2.95951098e-01 1.31403595e-01 -4.64371502e-01 -1.27082348e-01 -1.24893904e-01 -4.39697206e-01 8.38164628e-01 -4.92698371e-01 2.41149694e-01 3.07740241e-01 -3.93029936e-02 2.01066777e-01
-2.91924447e-01 -6.82617947e-02 -3.55682820e-01 -1.99255258e-01 5.06387770e-01 3.18241976e-02 4.42880318e-02 1.26996204e-01 4.44947213e-01 -4.37456936e-01 -1.12674773e-01 -9.85623300e-01 4.63994771e-01 -2.50300437e-01 -1.80639103e-01 2.06730649e-01 -1.26517102e-01 3.99779111e-01 9.86823142e-02 -7.29089975e-02 5.52395135e-02 -2.31585160e-01 5.08384347e-01 -3.42292905e-01 3.20928723e-01 2.03099445e-01 -1.62826791e-01 2.06451833e-01 7.12642819e-02 3.56825143e-01 4.83952373e-01 5.31515479e-02
6.50037676e-02 1.82337701e-01 -1.56298801e-02 7.28188977e-02 -5.83775230e-02 1.11357547e-01 -1.33124683e-02 -8.15718472e-02 4.88856696e-02 8.33540410e-02 7.41122589e-02 1.35298535e-01 -6.90426305e-02 -8.66140053e-02 1.23079769e-01 4.35121566e-01 6.20757453e-02 -3.11313331e-01 3.63833532e-02 -9.04172361e-02 -1.09398291e-01 -1.36411607e-01 2.90133432e-02 -3.30702811e-02 5.09266146e-02 1.26828477e-01 9.90304351e-03 -4.05171327e-03 1.03163294e-01 -1.20074640e-03 -2.95758597e-03 3.29749063e-02
3.69472027e-01 -1.82127893e-01 7.54039943e-01 5.60381889e-01 -3.77284288e-01 -1.52082324e-01 -6.74402595e-01 -8.46425220e-02 -2.83838660e-01 -7.51849174e-01 -4.23214063e-02 8.35511625e-01 4.63440686e-01 -4.42380309e-01 7.93907821e-01 4.00705516e-01 -1.26005575e-01 -3.41928035e-01 3.76343518e-01 4.17870998e-01 -2.97184646e-01 1.68705598e-01 6.09208167e-01 1.20732993e-01 1.47097468e-01 -4.05574858e-01 1.19809367e-01 1.79698810e-01 -8.88610333e-02 -2.04341002e-02 1.41509891e-01 3.92652303e-01
2.42840707e-01 -1.05723932e-01 2.27583908e-02 1.67323828e-01 7.06229061e-02 1.55832708e-01 8.96127880e-01 6.29160777e-02 4.77478236e-01 2.41835132e-01 3.55343372e-01 3.68025571e-01 -4.15359259e-01 -5.87879658e-01 1.15775980e-01 -1.00298131e+00 -4.02404964e-02 -7.13378847e-01 -8.37950632e-02 -4.26391184e-01 -4.88500237e-01 -2.86664050e-02 2.72359312e-01 -6.59545660e-02 1.34511948e-01 -4.35640633e-01 -6.84364080e-01 4.03245538e-01 -1.11667104e-01 -2.02816933e-01 2.47462168e-01 -1.27068549e-01
1.02826953e-01 -6.61594793e-04 -3.36120963e-01 3.94680351e-01 8.18031728e-02 3.42109799e-01 3.68570924e-01 -2.58862108e-01 -3.22340071e-01 3.12691212e-01 8.98625981e-03 1.03458494e-01 4.53955442e-01 4.83540475e-01 -1.77960575e-01 -4.82856065e-01 5.61960459e-01 -1.19340591e-01 2.79653817e-02 -2.27214500e-01 -4.07853335e-01 1.42017482e-02 -3.86743665e-01 1.79995671e-01 -3.66038412e-01 -8.85219947e-02 -6.76427931e-02 -4.47819650e-01 4.62126173e-02 -1.28755301e-01 -3.80861312e-02 -2.88780272e-01
7.17789590e-01 -3.12883370e-02 -2.46485025e-01 1.60216957e-01 1.20971926e-01 -4.61251736e-01 -4.32508960e-02 3.45030040e-01 2.71433502e-01 -2.62000132e+00 9.99932811e-02 1.75734654e-01 3.86400789e-01 -1.66015816e+00 1.22141108e-01 3.48850936e-01 1.45073712e-01 2.56385297e-01 -2.63969064e-01 4.79930575e-04 4.93322462e-01 -1.97183490e-01 -2.96073526e-01 -5.99522628e-02 -3.48849714e-01 -1.80295959e-01 -6.56973049e-02 -1.73449293e-01 2.98992485e-01 9.56613198e-02 -1.69700012e-01 -1.91592067e-01
-9.07546878e-01 1.56355441e-01 -9.73420043e-04 1.15059577e-01 2.48322785e-02 -3.25990975e-01 1.07249832e+00 -2.40511876e-02 -1.04658651e+00 7.48714626e-01 -7.15416729e-01 2.76714303e-02 1.80201992e-01 7.12973699e-02 -7.08605587e-01 7.17548907e-01 6.05803788e-01 6.14108384e-01 -3.41700688e-02 1.86104905e-02 -2.33715445e-01 4.33755994e-01 5.42357445e-01 9.49490428e-01 -4.41564500e-01 5.30318856e-01 -6.26906395e-01 -7.20764138e-03 8.93250465e-01 -4.57911104e-01 1.04916982e-01 1.99973769e-02
-5.13932526e-01 6.25164390e-01 -7.24083707e-02 -1.07025124e-01 5.75654685e-01 1.34542182e-01 -4.64630360e-03 4.85960692e-01 -2.89366007e-01 4.70766693e-01 9.46565196e-02 -1.71681270e-01 1.84853524e-01 2.14652270e-01 -5.70375919e-01 -2.42860809e-01 -1.05298460e-01 -8.85280818e-02 4.14757341e-01 -3.72012615e-01 -3.86962183e-02 -3.07180852e-01 -1.02416910e-02 -5.22590160e-01 7.44604170e-02 -2.31633052e-01 -5.30166566e-01 -4.50096309e-01 1.36041924e-01 -3.35598975e-01 -2.66319096e-01 -2.57820457e-01
-1.57554030e-01 2.21307606e-01 4.89724368e-01 3.35765779e-01 -2.98157364e-01 -2.83515424e-01 -1.22827634e-01 5.32893278e-03 2.96190858e-01 -4.30654109e-01 -6.00515544e-01 -7.33724460e-02 -2.48766005e-01 -2.71944642e-01 7.10190088e-02 5.81677914e-01 -9.33139101e-02 1.85678497e-01 2.93733865e-01 1.96164206e-01 9.10107791e-02 -7.12519526e-01 1.68739066e-01 1.04628429e-01 2.68122643e-01 1.63919404e-01 -1.42709343e-02 -5.80542862e-01 -2.50062793e-01 -1.15617320e-01 8.43772590e-02 -2.33249366e-01
-8.22776258e-01 4.51925963e-01 -6.35670424e-01 -9.92226958e-01 -2.03076258e-01 -2.10600033e-01 -3.38288695e-01 3.90696108e-01 7.28100985e-02 4.68735695e-01 -5.74220531e-02 1.83194384e-01 1.61388546e-01 2.97861427e-01 -1.19968224e-03 1.17832017e+00 6.73602581e-01 1.24445140e+00 -7.66411901e-01 5.90774342e-02 5.57401478e-01 -7.74138749e-01 -6.27965212e-01 4.18971390e-01 -1.69417918e-01 -4.56120074e-01 2.96006680e-01 2.68385768e-01 5.50967872e-01 -7.98452973e-01 2.72882491e-01 -2.34897107e-01
1.24656267e-01 -5.47986925e-01 -8.42676163e-02 -1.17167242e-01 -5.24467409e-01 5.47577083e-01 1.42086640e-01 -4.40687269e-01 4.65523005e-01 9.36558306e-01 -2.19391048e-01 1.16951630e-01 5.55252612e-01 4.27378982e-01 2.20456682e-02 -9.93947685e-01 -4.50635523e-01 -9.72230136e-01 -1.16581377e-02 2.13632092e-01 2.29134798e-01 3.50745469e-01 2.03527197e-01 1.61761224e-01 2.46542588e-01 1.08074158e-01 -4.12898123e-01 -2.51265198e-01 -2.55551815e-01 -3.39790702e-01 4.69389915e-01 3.30687374e-01
-5.53239807e-02 -9.43345487e-01 3.73243839e-01 1.58325541e+00 8.38577822e-02 8.88005719e-02 -1.50177628e-01 -2.67810643e-01 -1.90090150e-01 2.29481220e-01 1.08917105e+00 -9.88896191e-01 -1.10694027e+00 -4.03324246e-01 1.82885721e-01 -2.16862872e-01 -1.16949534e+00 4.94759351e-01 6.33054078e-01 -6.35907412e-01 8.79326582e-01 1.92608014e-01 1.09846191e-02 1.46325340e-03 -2.34221132e-03 -5.11861384e-01 2.05394894e-01 9.10258945e-03 -8.80383551e-01 1.25271106e+00 -6.11382365e-01 -1.92267168e-02
-6.03561044e-01 -3.73921804e-02 3.12778085e-01 1.04486562e-01 -1.12680465e-01 9.70715433e-02 1.74289376e-01 6.35957271e-02 -2.74551153e-01 -3.48195165e-01 -9.59220290e-01 3.01397860e-01 4.88068402e-01 -8.76091421e-03 2.95914281e-02 -4.26756710e-01 4.94812787e-01 -2.35147119e-01 -7.71239400e-02 -2.50980496e-01 -7.91581571e-01 1.56248674e-01 -1.32113740e-01 -7.35419452e-01 1.47605151e-01 5.92486084e-01 -1.49208128e-01 6.08456470e-02 -3.81035060e-01 -2.84941941e-01 -3.14818829e-01 4.23107371e-02
-2.83910155e-01 -3.45246822e-01 -1.69689804e-01 -1.46462381e-01 -1.82516992e-01 -2.18478441e-02 2.21909478e-01 2.75553524e-01 -6.35468662e-01 1.38367200e+00 -1.41549572e-01 -1.07962430e-01 -5.03106594e-01 4.68712986e-01 -1.37926534e-01 3.02550793e-02 1.80809144e-02 1.74242571e-01 -6.24092743e-02 -1.88569203e-01 2.13958189e-01 1.40456185e-01 4.61362243e-01 3.83373983e-02 4.79919426e-02 -5.52378632e-02 -1.85154498e-01 1.89449862e-01 2.68586755e-01 3.15496087e-01 2.59749770e-01 1.05506241e-01
-8.56455490e-02 -3.58830005e-01 1.09785562e-02 -9.71067175e-02 -3.68310928e-01 4.78009999e-01 -1.50201827e-01 -4.23249900e-01 1.00281492e-01 -3.58710468e-01 3.42726707e-02 4.53858852e-01 1.98929951e-01 4.48980212e-01 3.26693386e-01 -5.98631740e-01 -4.58204418e-01 -1.28192317e+00 -6.38737381e-02 -3.25924784e-01 -1.08739972e-01 8.76006544e-01 4.49266344e-01 6.31880462e-01 -4.70666766e-01 1.30027324e-01 1.31979898e-01 -2.28428423e-01 -3.84142190e-01 -2.51812965e-01 -1.39345571e-01 -7.83448815e-02
2.18365844e-02 -4.09314036e-02 1.44414544e-01 -8.19829181e-02 2.13794589e-01 -1.05787210e-01 1.78898573e-02 -3.41988564e-01 -1.90348968e-01 3.33679229e-01 1.44546926e-01 1.62194610e-01 6.87078163e-02 -3.27509403e-01 -7.25855008e-02 -2.89538234e-01 6.65009394e-02 1.51208594e-01 -1.53531671e-01 -5.40484846e-01 1.32225618e-01 -1.47683844e-01 -1.17953844e-01 -5.25173284e-02 -1.15961777e-02 1.92720115e-01 -5.37211858e-02 5.40464558e-02 1.02336399e-01 8.22125971e-02 -1.36592602e-02 3.54405399e-03
-5.68728987e-03 -4.70731139e-01 -1.83911145e-01 6.55661583e-01 -2.83965737e-01 -4.23854500e-01 1.76058426e-01 -6.66386448e-04 -1.78627759e-01 2.88178539e+00 -6.49025559e-01 1.03424048e+00 7.63275385e-01 7.65262008e-01 7.04567313e-01 1.54470026e-01 1.04772992e-01 1.72331691e-01 4.26157743e-01 4.39355910e-01 2.66178370e-01 2.51250356e-01 -2.23687530e-01 9.52563167e-01 6.27976879e-02 2.65874475e-01 -4.17717516e-01 2.17294455e-01 2.58009315e-01 -5.91412932e-02 7.37588942e-01 -7.54287839e-02
-1.05079219e-01 1.77336216e-01 1.11613050e-01 7.63776600e-02 5.40136993e-02 -3.10609043e-02 4.96879639e-03 1.14804767e-01 7.93057121e-03 -2.47406326e-02 1.64542586e-01 1.07837558e-01 9.13825333e-02 -2.76286155e-02 1.69460163e-01 1.76201895e-01 3.48451249e-02 -1.42919153e-01 -2.80766431e-02 9.40402970e-02 -1.58095524e-01 -6.19162694e-02 5.33222454e-04 9.12626367e-03 -4.57613051e-01 -2.19319314e-01 4.95813526e-02 -1.36865050e-01 -6.59035817e-02 -7.17773139e-02 2.56853066e-02 -4.56928909e-01
-1.62641075e-03 -8.81126449e-02 -4.59203534e-02 1.67078990e-02 -2.19764233e-01 2.41645947e-02 -1.74142830e-02 1.73680320e-01 5.55597655e-02 -5.70008904e-02 -2.11546533e-02 -3.19521502e-02 -5.71674928e-02 4.53068167e-02 -6.20048717e-02 2.13613212e-01 -1.12806961e-01 -1.35431796e-01 1.23012085e-02 3.21841061e-01 -2.40353361e-01 -1.03084810e-01 -1.34766176e-02 1.19202118e-02 5.97281009e-03 -8.48513246e-02 -7.27412924e-02 -8.05394575e-02 -4.23864238e-02 6.62860274e-02 1.88217275e-02 -4.85323835e-03
8.58445704e-01 -2.60370731e-01 2.60645211e-01 3.26930493e-01 -3.02801132e-01 2.66115327e-04 -5.04775763e-01 3.95638458e-02 7.07216620e-01 8.70618448e-02 -1.87877461e-01 5.31724170e-02 7.19642043e-02 2.36530259e-01 7.33260989e-01 -5.90061367e-01 -4.42142606e-01 -6.72271430e-01 3.80564362e-01 -2.54616678e-01 -7.39146888e-01 2.04082504e-01 -1.23892672e-01 1.93663999e-01 7.50466287e-01 -1.67876240e-02 2.10300088e-01 -1.98984846e-01 -5.22781134e-01 2.13861272e-01 4.45810147e-02 1.60017118e-01
1.43541947e-01 -4.04302299e-01 -3.26421827e-01 3.95119250e-01 2.83451557e-01 -6.00352407e-01 8.75579044e-02 2.77371667e-02 2.46238321e-01 -2.67720670e-01 -2.47712761e-01 4.64752138e-01 3.67464364e-01 -2.91452944e-01 2.42833078e-01 -5.15289605e-01 -3.22757453e-01 -6.63534582e-01 3.93590510e-01 -3.94382805e-01 -2.64934897e-01 -5.93606010e-02 3.70145082e-01 6.49115860e-01 -1.23718575e-01 -3.09724152e-01 4.26165849e-01 -5.22242300e-02 -8.10065418e-02 -4.34069097e-01 6.73107207e-02 2.22962782e-01
3.26215327e-02 5.60207432e-03 6.91288531e-01 1.48088142e-01 -1.29644489e+00 -2.95661658e-01 1.37920916e-01 -1.89324096e-01 7.90096045e-01 7.75287211e-01 -5.50600849e-02 -4.79764700e-01 -4.22686972e-02 8.00424457e-01 -3.05469353e-02 -2.67957425e+00 -2.61188567e-01 -3.08502507e+00 2.19350368e-01 3.49157713e-02 -8.00215006e-01 5.92546165e-01 1.86363548e-01 1.90609828e-01 2.15306491e-01 5.58799170e-02 3.90987635e-01 1.44078627e-01 -2.56436288e-01 -7.54883349e-01 -1.02723941e-01 1.65120348e-01
-1.66029483e-01 -2.26818964e-01 -2.71545291e-01 -2.86757380e-01 -2.61371970e-01 5.42471826e-01 1.63200080e-01 -9.44869369e-02 -1.01363301e-01 3.56745809e-01 -1.96863070e-01 1.97153673e-01 6.56504631e-02 -2.85950303e-01 -1.40698999e-01 -5.24018109e-01 3.24845254e-01 -6.37267470e-01 -3.04369986e-01 5.19922897e-02 -3.58976841e-01 3.74051273e-01 -1.46104798e-01 3.24492574e-01 3.74892384e-01 -5.01036823e-01 4.79567707e-01 8.49369392e-02 6.99217096e-02 9.34134945e-02 -7.84759521e-02 3.41151617e-02
4.32155609e-01 6.75534606e-01 7.07780302e-01 -4.07417715e-01 1.40869856e-01 1.56302437e-01 1.87659547e-01 -1.05857737e-01 -8.28457952e-01 9.90688860e-01 -2.92589158e-01 -2.37282351e-01 -4.32497025e-01 1.13099182e+00 1.68027610e-01 1.36690140e-01 2.01668385e-02 -9.74509895e-01 2.95439303e-01 -2.80957282e-01 6.96895346e-02 7.13498056e-01 -1.49052009e-01 -3.97016346e-01 6.31405175e-01 -7.63041914e-01 4.85649943e-01 -7.28222206e-02 -3.22154194e-01 -6.03829205e-01 1.53666399e-02 -4.43286449e-01
-8.46915618e-02 -4.53840256e-01 2.49874458e-01 -2.22317293e-01 -2.14551553e-01 1.89503908e-01 1.29966408e-01 -2.29191467e-01 -5.88833869e-01 -2.71469712e-01 -1.40206948e-01 9.64827742e-03 -5.12567647e-02 4.96614516e-01 5.88290453e-01 3.36641878e-01 2.04082847e-01 -4.00299788e-01 -2.04234011e-02 1.23583816e-01 -1.82644948e-01 3.62950325e-01 -3.12650859e-01 1.17643282e-01 1.92229059e-02 -2.11907521e-01 3.56067806e-01 6.54554904e-01 -3.35731477e-01 -4.81516242e-01 4.04833764e-01 2.59169519e-01
-1.21415830e+00 5.34515530e-02 6.49032667e-02 -1.24548769e+00 4.03284170e-02 -9.41042006e-02 2.26715744e-01 5.18587291e-01 4.26060334e-02 3.22671711e-01 -9.36515212e-01 6.46792293e-01 1.05581415e+00 4.02200490e-01 -6.73415780e-01 4.62060511e-01 4.92128551e-01 -2.67817587e-01 -2.81873047e-01 9.24876153e-01 -6.03877366e-01 -3.67325753e-01 -3.78193706e-01 3.80958728e-02 5.22665858e-01 9.63384211e-01 9.18748915e-01 6.78409159e-01 4.49878782e-01 -9.52777386e-01 2.64366698e-02 2.90399104e-01
-9.18672085e-02 9.82744470e-02 3.03946525e-01 -3.98665816e-02 3.36518973e-01 -1.03497133e-01 -1.79066584e-02 2.39291284e-02 -4.87187915e-02 1.94489360e-01 3.30744199e-02 3.23641673e-02 -1.65469088e-02 -1.41686082e-01 8.26334357e-02 -1.34037986e-01 8.50339308e-02 7.36717954e-02 1.21574728e-02 -4.16101724e-01 1.38729393e-01 -1.00459009e-01 3.76417786e-02 1.51490699e-03 1.48606569e-01 -2.29586791e-02 8.02142471e-02 1.47861511e-01 2.91505735e-02 -9.82890129e-02 -1.57098342e-02 5.93591891e-02
-9.14488137e-02 2.11049736e-01 3.04996192e-01 -1.21376351e-01 2.61604786e-01 1.15783274e-01 6.64364219e-01 3.45570743e-01 6.12287894e-02 -1.19791639e+00 -3.47059011e-01 5.32093346e-01 6.92761302e-01 -2.99813926e-01 -4.34557796e-01 3.20033193e-01 4.60103750e-01 -1.97612017e-01 -7.45990053e-02 -5.37865758e-01 1.08494318e+00 -2.82278597e-01 5.05160317e-02 -1.28150380e+00 -1.18128777e-01 5.93259096e-01 -9.94295239e-01 -9.28790987e-01 2.99679071e-01 -9.62247178e-02 -1.18340999e-02 -2.81236887e-01
6.08540714e-01 -3.08433950e-01 -2.94260144e-01 4.38741565e-01 -5.94977774e-02 -5.65013476e-02 -8.04510489e-02 -1.46314338e-01 5.02267838e-01 -9.57234502e-02 -1.16267890e-01 -4.86298725e-02 7.57999539e-01 -3.41904581e-01 3.54646593e-01 -3.67835343e-01 -2.70330179e-02 -5.02838612e-01 2.39481121e-01 -7.34507963e-02 -3.35662782e-01 1.14942595e-01 1.63484767e-01 1.53510243e-01 -1.78331491e-02 -2.13824570e-01 7.93196201e-01 4.73984182e-01 -3.65234643e-01 3.35656404e-01 1.38582185e-01 2.81546623e-01
-1.97218955e-01 3.07985246e-01 -1.49352431e-01 -6.21137805e-02 -5.61105430e-01 -2.15159193e-01 1.02764860e-01 4.54694629e-01 -5.68585061e-02 -5.44775367e-01 -2.13013068e-01 3.62210535e-03 -3.27310950e-01 1.92878544e-01 2.76591986e-01 -1.81097835e-01 -9.91416872e-02 2.24968553e-01 4.83265556e-02 3.63435894e-01 -2.32848302e-01 -5.21788895e-02 -4.83577214e-02 -2.98976265e-02 -9.67674926e-02 -8.43881667e-02 2.55698502e-01 -3.07316154e-01 1.03433691e-01 2.17183623e-02 7.67288208e-02 1.49016887e-01
7.85949528e-02 -4.91656035e-01 -1.32506326e-01 -9.06075090e-02 -5.49593046e-02 -1.78691730e-01 -2.90079676e-02 -1.79963857e-01 -3.75376344e-01 4.39086467e-01 -2.15076096e-03 1.10706247e-01 3.41217637e-01 2.84325212e-01 -1.93571553e-01 -6.09363496e-01 -1.55136123e-01 -1.12998597e-01 1.26470302e-04 9.63703841e-02 3.56031656e-02 -5.76602146e-02 5.45236170e-01 1.97304823e-02 -4.09215391e-01 2.23233312e-01 3.56268555e-01 1.54001877e-01 -9.04133990e-02 1.05559051e-01 -8.21192339e-02 -1.84103847e-01
9.90780115e-01 -3.64699587e-02 -6.41486824e-01 1.66993886e-01 5.33029616e-01 1.32905036e-01 5.09364963e-01 2.11041823e-01 -3.51851404e-01 -9.05287385e-01 -8.71069849e-01 1.39199197e+00 1.28979832e-01 -9.03976619e-01 3.36681396e-01 1.08473194e+00 1.03144059e-02 1.28520143e+00 -2.24651247e-01 9.56587195e-02 -1.35459018e+00 -3.94114137e-01 -7.60580778e-01 -2.15130404e-01 -3.02390963e-01 8.84566158e-02 2.10944116e-01 3.61468464e-01 -5.94868325e-03 8.75122398e-02 -3.98915745e-02 2.45754704e-01
-2.18889982e-01 9.68618691e-02 -9.11942661e-01 -1.00226410e-01 2.50473142e-01 4.20015484e-01 3.94449085e-02 1.02936544e-01 8.69101286e-02 5.35319269e-01 -4.00743932e-01 -1.22909486e+00 4.14274663e-01 2.55313575e-01 -3.32125336e-01 5.73875964e-01 -4.66344021e-02 1.33073640e+00 -5.59719145e-01 1.14666723e-01 4.15246457e-01 -9.21402946e-02 4.16328534e-02 6.51325226e-01 -8.07284862e-02 8.36955726e-01 -1.34023800e-01 -4.66602325e-01 2.06864104e-01 1.08982131e-01 7.78403521e-01 -2.58264869e-01
9.45889205e-03 4.13671732e-01 -1.77838445e-01 -6.20898128e-01 -6.77756444e-02 7.07861662e-01 2.72213012e-01 7.89388835e-01 3.66488159e-01 2.83523381e-01 9.47596371e-01 -2.52925932e-01 8.84767175e-02 2.14175165e-01 6.73942454e-03 -7.73266494e-01 3.39110672e-01 -8.33762661e-02 -3.09197217e-01 -4.67176169e-01 -8.33832547e-02 -2.39435360e-01 2.23677889e-01 1.20863579e-01 -2.28641152e-01 1.77261263e-01 3.17024738e-02 5.34403091e-03 -5.66188276e-01 2.37227902e-01 -2.19191760e-01 1.13834962e-01
7.54318610e-02 1.27987191e-02 -1.26483887e-01 4.49536630e-04 -5.13819493e-02 4.25660163e-02 2.62255557e-02 7.83601627e-02 -3.13694477e-02 -7.36425743e-02 -7.46290609e-02 -3.88627619e-01 2.47399867e-01 2.26883456e-01 1.44211529e-02 1.06012844e-01 5.43998070e-02 -5.37494570e-02 1.11154631e-01 2.38036603e-01 1.10510811e-01 2.84803838e-01 -5.06505463e-03 2.24748880e-01 -1.14548422e-01 -2.90363997e-01 -1.83601484e-01 -1.51553735e-01 -2.94729114e-01 -1.39780104e-01 1.18664000e-02 -2.70160288e-01
3.62476975e-01 -1.22489236e-01 5.82839668e-01 3.71431142e-01 3.08918178e-01 4.84312803e-01 9.89887714e-01 -3.25572163e-01 6.38399899e-01 6.08722260e-03 -6.36039078e-01 1.66598380e-01 -4.97548610e-01 -2.86831647e-01 7.60902390e-02 2.18236208e-01 -7.48075545e-01 -4.73973542e-01 2.40408391e-01 -5.30140698e-02 -2.49371007e-02 6.07969880e-01 2.67666876e-01 6.19115233e-01 1.04868002e-01 -1.06754795e-01 -2.59088904e-01 1.04596153e-01 2.36910596e-01 4.05327082e-01 -1.99777018e-02 -7.30060041e-02
-2.25575700e-01 -5.45114577e-01 1.53540671e+00 6.01096153e-02 -8.77046883e-01 -2.18038082e-01 -1.17749321e+00 -1.02320158e+00 3.04502130e-01 1.04290378e+00 8.89256364e-04 -4.35974091e-01 -2.64741272e-01 1.06079948e+00 6.30051434e-01 -2.04340768e+00 1.27433136e-01 -2.72356820e+00 1.86606753e+00 8.10566843e-01 -5.54735482e-01 1.68684113e+00 -4.63661641e-01 2.62734473e-01 3.55434328e-01 -6.68538034e-01 -2.86736131e-01 3.47944885e-01 1.66776091e-01 2.97792703e-02 6.55691266e-01 1.30722508e-01
2.15114746e-02 -1.57850292e-02 4.65240702e-02 4.45688702e-02 4.14189458e-01 -5.14088169e-05 -6.49707392e-03 2.03850865e-02 6.19725809e-02 -2.78699328e-03 -9.48552135e-03 -4.70073298e-02 1.02783717e-01 -3.29737156e-03 -6.34243852e-03 -6.18751198e-02 6.32796809e-03 -4.28622626e-02 -7.76403770e-02 8.68993104e-02 1.40816107e-01 3.57333757e-02 -5.69803501e-03 1.42566841e-02 -1.37015760e-01 -1.40764683e-01 1.82254110e-02 3.44090462e-01 -4.10051607e-02 -7.78299645e-02 2.06659157e-02 -2.35247627e-01
-4.01926965e-01 1.02388166e-01 -1.08900398e-01 -9.37667117e-02 -2.67430693e-01 1.95966400e-02 -1.10798590e-01 7.23139226e-01 -7.45952725e-02 -5.77198565e-02 -1.91506580e-01 7.24266112e-01 5.23136199e-01 2.79117554e-01 2.25987524e-01 7.28523284e-02 -5.26394248e-02 6.95883203e-03 -1.82729200e-01 -1.19349584e-02 -1.28465429e-01 -6.04183018e-01 -1.38358012e-01 -2.21951514e-01 -3.37317228e-01 -1.53250292e-01 -6.31601632e-01 4.13248211e-01 -2.35284835e-01 -2.78627038e-01 -2.03044921e-01 5.05589306e-01
1.75761450e-02 -2.16050357e-01 6.43011272e-01 2.21531555e-01 -6.85206234e-01 2.39991933e-01 4.09347355e-01 -6.09952033e-01 5.07295966e-01 3.87948483e-01 -1.26222447e-01 4.56522226e-01 -5.54990731e-02 1.99216351e-01 1.93782374e-01 -2.19661665e+00 8.81628916e-02 -1.09227240e+00 9.05757174e-02 1.71526760e-01 -2.69866735e-02 1.87191769e-01 2.44601607e-01 1.63042486e-01 -1.56452984e-01 -5.01444161e-01 -1.18636452e-01 -2.83143878e-01 -3.81631225e-01 -5.05468667e-01 3.67117107e-01 -3.83849829e-01
-1.13105766e-01 8.55179206e-02 -1.74851984e-01 1.68701306e-01 -1.42049134e-01 -1.35028586e-01 2.14495912e-01 -2.28629202e-01 -3.77012283e-01 1.58432055e+00 -3.62977922e-01 -5.86429238e-02 -2.92546600e-01 1.26402283e+00 -2.99505681e-01 -6.75213486e-02 6.35438114e-02 -1.19359948e-01 -4.95348871e-02 -2.91161090e-01 -3.83809619e-02 1.74631089e-01 -1.26253769e-01 -1.53092518e-01 -2.09049255e-01 4.56019901e-02 4.48360413e-01 5.23994505e-01 1.26004294e-01 -4.60963726e-01 1.59900531e-01 -2.85332240e-02
-2.01255888e-01 -2.49977484e-01 6.72469318e-01 4.95627493e-01 -2.02625588e-01 -2.99447089e-01 -1.01434100e+00 1.14068493e-01 1.71934173e-01 4.94716018e-01 9.69653204e-02 -6.99255541e-02 9.25464183e-02 2.51721174e-01 -1.92180291e-01 5.09390533e-01 -2.76745241e-02 1.37913540e-01 -1.42684087e-01 -3.63035828e-01 9.20952260e-01 4.23302531e-01 4.18266624e-01 -5.57106733e-01 -8.45995825e-03 -7.42438016e-04 -1.86464071e-01 3.04450631e-01 -1.34264573e-01 3.50554883e-01 -1.14289440e-01 -2.64522433e-01
9.06205177e-01 -3.77333403e-01 5.25754571e-01 9.62109506e-01 -4.50281501e-01 2.07673684e-01 -4.98148918e-01 -6.21237457e-01 3.24309468e-01 -6.36922777e-01 -3.07117194e-01 7.68575072e-01 -1.21857059e+00 -1.74951196e-01 6.62256062e-01 -5.14730573e-01 -6.71503097e-02 -2.47859269e-01 7.32066393e-01 7.68454015e-01 1.82290986e-01 -4.18844789e-01 -2.00214982e+00 -5.15664816e-01 3.46588701e-01 5.47132432e-01 -8.18228662e-01 -1.82955518e-01 -2.54837155e-01 1.23763585e+00 -4.73986089e-01 6.83704540e-02
-1.41493175e-02 1.81856424e-01 -4.34374772e-02 -4.64754179e-02 -1.48847729e-01 -2.62943972e-02 2.95783952e-02 -5.34621961e-02 -4.00625654e-02 1.40230451e-03 4.76880632e-02 9.34269130e-02 8.28692839e-02 -6.77995905e-02 1.60141334e-01 -1.39904082e-01 1.07762799e-01 1.75472066e-01 -6.62662927e-03 -2.70753711e-01 1.43326938e-01 4.31378037e-02 -4.06741444e-03 -3.30787972e-02 -3.00501287e-01 -3.28190997e-02 2.50448789e-02 -8.78469646e-02 -4.12996002e-02 -6.14969665e-03 5.65547775e-03 -2.13832706e-01
6.39661252e-02 2.96709716e-01 1.60913575e+00 4.77114469e-01 -1.22245622e+00 1.62992448e-01 -1.61205992e-01 -5.07214904e-01 8.39713395e-01 4.48060483e-01 1.67406723e-01 -3.63363564e-01 -9.21093047e-01 8.83143961e-01 4.41042930e-02 -3.26816964e+00 -2.64853239e-01 -4.52001667e+00 2.82796443e-01 8.74285474e-02 -1.23400700e+00 1.02180696e+00 3.74629110e-01 1.25580668e-01 2.95126885e-01 -1.69543788e-01 -4.92332369e-01 6.65314436e-01 -1.26412481e-01 1.80167519e-02 -2.72829056e-01 -3.73168923e-02
-8.08455467e-01 2.06514269e-01 1.27852634e-01 -7.35978425e-01 -5.13076261e-02 -1.73979804e-01 -1.86999574e-01 4.71311659e-01 -5.17777614e-02 2.35738023e-03 1.14917479e-01 -2.94140726e-01 4.14363295e-01 4.38453257e-01 -4.22462016e-01 -3.91457170e-01 2.28592962e-01 -2.14386031e-01 -3.22657526e-01 1.60698026e-01 -1.98770706e-02 6.98590755e-01 1.96161434e-01 -2.35751167e-01 -2.30840787e-01 2.66000211e-01 -7.06046879e-01 2.27125496e-01 5.26326820e-02 -5.74636400e-01 -1.14264019e-01 -5.49944401e-01

layers.2.bias:
-1.33662438e+00
-8.37267816e-01
6.81693733e-01
-5.65852523e-01
1.75178900e-01
-4.34877813e-01
2.45464087e-01
2.14519787e+00
6.25865996e-01
8.62648129e-01
-9.14709091e-01
-1.44026494e+00
-2.51050442e-01
9.52756226e-01
-4.41311330e-01
-7.24371910e-01
-6.49734139e-02
-7.95760453e-01
3.24148357e-01
-8.52073357e-02
-3.09071392e-01
7.93332458e-01
8.62109065e-01
-1.41777828e-01
-4.00876671e-01
1.07445908e+00
-1.00687909e+00
-1.08283663e+00
5.20501018e-01
-1.14417219e+00
2.27528304e-01
-3.67366821e-02
7.82718122e-01
1.10331357e-01
-3.67191702e-01
-2.19723992e-02
-1.32012784e-01
1.41792500e+00
1.06131375e+00
-8.82974789e-02
1.00149679e+00
-2.14325160e-01
-5.94724655e-01
1.44511175e+00
2.49128178e-01
-9.84048069e-01
1.07075298e+00
-3.41224551e-01
8.48218560e-01
1.76032567e+00
1.17743000e-01
3.42699349e-01
1.12079911e-01
-7.05214202e-01
2.17963398e-01
-2.35634781e-02
8.09950888e-01
-1.04016051e-01
9.07659344e-03
-6.95040524e-01
7.27297843e-01
6.21009953e-02
-2.88507104e-01
7.25143433e-01

layers.4.weight:
3.32488388e-01 6.65058270e-02 -4.34551015e-02 2.17792243e-02 1.67526938e-02 1.05864808e-01 9.47827590e-04 -7.47485876e-01 -4.12543379e-02 -4.33502674e-01 9.07636285e-02 9.49474275e-01 -1.47569203e+00 -1.45527497e-01 4.57671657e-02 -1.45750582e+00 -5.27102093e-04 5.56172393e-02 -4.27305438e-02 7.47626473e-05 -4.31055931e-04 -8.79786387e-02 -4.32410501e-02 2.43309587e-01 -5.29162958e-02 -6.80484697e-02 3.60884368e-02 7.99058795e-01 -3.63474637e-01 3.84051412e-01 -9.98966582e-03 -1.18015647e-01 -4.03451659e-02 9.86027298e-04 5.58501892e-02 -4.37130220e-04 -3.64742271e-04 -1.69844478e-01 -2.06611287e-02 2.83758849e-01 -8.82639065e-02 2.97513545e-01 5.00176065e-02 -1.21370733e-01 2.03288873e-04 1.32636949e-01 -1.56695545e-02 -3.09128751e-04 -1.05590202e-01 -7.02782929e-01 -9.72563177e-02 -5.57253044e-03 4.36219598e-05 4.81440090e-02 -1.06951904e+00 -9.43864405e-04 -1.99264381e-02 -2.63693035e-01 -4.39633168e-02 5.00087067e-02 -5.12450784e-02 3.02880617e-05 8.95708621e-01 -1.51660889e-02

layers.4.bias:
-1.12811613e+00

