layers.0.weight:
3.31696361e-01 -5.67613244e-01 7.97264636e-01
5.69172144e-01 -8.09445798e-01 -5.80563486e-01
-8.31293464e-02 -6.13938749e-01 -5.77727258e-01
-1.07055378e+00 1.15616508e-01 4.58123112e+00
2.67282110e-02 4.11940843e-01 1.16166264e-01
-5.79876065e-01 8.58121514e-01 -1.84879377e-01
-1.31842160e+00 4.86020595e-01 -9.88645032e-02
-6.01682402e-02 7.88846374e-01 -9.23566997e-01
6.03414774e-01 -9.26082134e-01 5.12713566e-02
-1.11527514e+00 5.86289167e-02 -1.64189592e-01
7.53551662e-01 -9.85680073e-02 1.41279221e+00
-7.16238439e-01 -1.31785080e-01 -1.29353356e+00
-4.30584475e-02 7.12955832e-01 -1.57757306e+00
-1.16726887e+00 2.10410804e-02 5.00053525e-01
-6.46977663e-01 1.09646142e+00 7.52028525e-01
-1.81771189e-01 9.48456824e-01 1.64468549e-02
5.46070874e-01 -6.33792400e-01 -1.45019031e+00
-1.15504665e-02 1.12846863e+00 1.84981868e-01
8.07071701e-02 -9.54183042e-01 5.35116851e-01
3.41117471e-01 -1.28724232e-01 -8.64976227e-01
2.23475501e-01 1.65966094e-01 -5.10879010e-02
-3.24195027e-01 -2.56797969e-01 -1.00232065e+00
-4.64660525e-01 1.65601885e+00 -4.46076952e-02
-1.56447518e+00 4.06930357e-01 1.75152493e+00
1.05132234e+00 3.79940838e-01 -7.78481364e-01
2.59609371e-01 6.71772659e-01 -1.17486012e+00
-1.16151750e-01 -2.13369340e-01 1.90187418e+00
-3.97779703e-01 -2.44972542e-01 1.92939892e-01
3.22416067e-01 7.57217348e-01 -1.46468067e+00
-1.04933763e-02 4.65525806e-01 1.70563948e+00
-2.89658904e+00 2.84448242e+00 -1.78299040e-01
-1.26738083e+00 -5.19488692e-01 1.02004325e+00

layers.0.bias:
8.77201200e-01
4.81547834e-03
-1.42384720e+00
-6.34384930e-01
7.07518518e-01
-2.04255387e-01
-3.54310095e-01
2.86240637e-01
-7.45998621e-01
-1.59115899e+00
1.64644122e-01
1.80825554e-02
2.46107668e-01
-1.21306002e+00
-2.90836543e-01
1.43946290e+00
9.34610724e-01
1.82654703e+00
-6.68276668e-01
5.78918040e-01
-1.44309163e-01
-1.35729384e+00
1.02535832e+00
-7.05530941e-02
1.36946186e-01
5.60703695e-01
8.80503118e-01
-1.57881156e-01
-4.88352716e-01
7.31267482e-02
8.91685039e-02
-6.70209900e-02

layers.2.weight:
-3.43789667e-01 2.14937508e-01 4.99021336e-02 -4.88308102e-01 -2.70536654e-02 1.64369922e-02 1.19117603e-01 -5.26567288e-02 -1.21179245e-01 2.74707460e+00 8.30289125e-02 8.01485851e-02 -2.18840823e-01 2.41571641e+00 -2.15687215e-01 4.77449477e-01 -5.90752512e-02 7.36152053e-01 1.33015588e-01 -2.67806172e-01 2.07798794e-01 -7.17182755e-02 -5.23729265e-01 6.03346050e-01 -1.52198240e-01 6.20767593e-01 -7.93312013e-01 -9.95962992e-02 -1.74368277e-01 -2.22263277e-01 -1.81568936e-01 3.20583701e-01
-1.21686831e-01 1.44352302e-01 -8.30612779e-01 1.23205334e-02 -4.23642963e-01 1.72297880e-01 -7.36298919e-01 -4.56489533e-01 5.52828252e-01 6.93663061e-01 2.99959689e-01 -2.51944244e-01 2.79246211e-01 -1.89271439e-02 -2.88524359e-01 1.61480203e-01 -3.61246526e-01 3.13744217e-01 -4.47507709e-01 -6.80815652e-02 6.87468112e-01 -9.82976630e-02 -3.89669120e-01 -8.69039893e-02 4.53579389e-02 -5.43852150e-02 -3.64601612e-01 -6.04887366e-01 1.08937807e-01 -2.59666026e-01 -3.44633963e-03 1.49102703e-01
-6.91519380e-02 -3.99176478e-02 2.84439623e-02 -7.71237075e-01 -6.30897343e-01 4.46425704e-03 -4.59959596e-01 3.49277288e-01 4.37227011e-01 7.42669344e-01 -5.69318712e-01 -6.38820082e-02 1.83184057e-01 3.68290879e-02 -5.73873930e-02 -6.57413542e-01 -1.01272754e-01 -5.56736946e-01 -1.26927793e-01 4.40846890e-01 -3.86022449e-01 -2.37613916e-01 4.23300117e-01 -1.20317292e+00 -2.56481737e-01 4.47260469e-01 -1.19302166e+00 -2.26305258e-02 4.48462456e-01 -4.08085018e-01 1.12055108e-01 3.36208582e-01
2.53258616e-01 -9.41591263e-02 2.78083459e-02 1.35096800e+00 7.19198167e-01 3.81946921e-01 6.51150167e-01 -2.26322442e-01 -1.80553347e-01 -5.31961806e-02 1.69458956e-01 -8.21569860e-02 -5.74457645e-01 1.43508598e-01 6.26566887e-01 1.55634511e+00 -3.07821244e-01 9.98668075e-01 2.64251471e-01 -9.50662374e-01 -6.16099298e-01 -1.63018495e-01 3.91952872e-01 1.37943828e+00 -1.90250158e-01 -4.88107741e-01 5.03994048e-01 -5.84680140e-02 -6.67527676e-01 -8.79370198e-02 -2.96547040e-02 6.20899573e-02
2.35892639e-01 -2.72292316e-01 1.11012325e-01 -4.67763722e-01 1.30922183e-01 -4.01261479e-01 -1.37596011e+00 1.16536699e-01 5.99013269e-01 -6.14150763e-01 3.82144988e-01 -6.70322955e-01 8.20927918e-01 -8.68437827e-01 -1.60740465e-01 -8.89060140e-01 -2.38454789e-01 -9.02152479e-01 2.36785747e-02 -3.96823883e-02 7.96865702e-01 -6.52674496e-01 9.41627175e-02 -3.68498504e-01 -7.64596999e-01 6.58745468e-01 8.10084417e-02 -5.26789367e-01 -2.88588732e-01 5.64182937e-01 -2.42177457e-01 1.32794166e-02
-3.95556182e-01 1.06567457e-01 5.38527906e-01 1.43794850e-01 -1.01078868e+00 -1.95465133e-01 -6.85113445e-02 2.65059173e-01 3.08769405e-01 -3.64184342e-02 5.50554931e-01 3.51734847e-01 -6.63362741e-02 -9.78887752e-02 -1.49262294e-01 -1.31261873e+00 -5.07371902e-01 -1.50285268e+00 8.10082078e-01 -3.21872503e-01 -4.86826390e-01 6.09730892e-02 -5.85205495e-01 -3.46117437e-01 6.48263246e-02 8.28480572e-02 1.32098794e-01 1.16674745e+00 -1.99832648e-01 -4.24564093e-01 -5.45709014e-01 3.07065398e-01
-1.34703573e-02 1.14489589e-02 -2.39301369e-01 7.25665269e-03 -1.58610582e-01 1.67427152e-01 -8.16224664e-02 -4.20653880e-01 -1.45064265e-01 2.25912347e-01 3.04483712e-01 6.18328452e-02 2.72947997e-01 -1.84263947e-04 -2.00446192e-02 -2.47521341e-01 7.60887144e-03 1.30442411e-01 -3.28954048e-02 -3.26632887e-01 -4.21064079e-01 1.05377831e-01 6.90397173e-02 1.60239767e-02 1.75456226e-01 2.43099824e-01 -3.43998104e-01 -3.58037889e-01 -1.56323791e-01 7.57474154e-02 -1.03917234e-01 1.21578716e-01
4.42619473e-01 1.79164127e-01 -2.92024076e-01 3.49767417e-01 6.41318876e-03 -7.33063102e-01 1.25402242e-01 4.74059761e-01 1.34334475e-01 -2.86228061e-01 -1.31123886e-01 9.65173423e-01 3.18530053e-01 -5.60230732e-01 -2.33756050e-01 8.71711150e-02 5.27846217e-01 2.29507685e-02 3.34455431e-01 5.11914790e-01 -1.45540929e+00 -8.78832638e-01 6.77260831e-02 2.60328084e-01 1.59548491e-01 7.51239479e-01 5.98063290e-01 5.61667323e-01 -6.63227141e-01 4.84605134e-01 1.30015418e-01 -2.20126882e-01
1.12789139e-01 2.97600210e-01 -6.39597416e-01 -2.01160610e-01 1.31446815e+00 -4.29858595e-01 -4.59666908e-01 -3.88530940e-01 -5.84703565e-01 2.54668534e-01 5.26925087e-01 2.33610943e-01 6.28801167e-01 -1.42308772e-01 5.64655103e-02 1.66133857e+00 3.66832584e-01 1.36955082e+00 -5.11138082e-01 -1.28443375e-01 1.34676188e-01 -4.00990009e-01 3.00198421e-02 1.64010659e-01 8.41384977e-02 3.60027701e-01 1.08752318e-01 -1.67641789e-02 -2.20047999e-02 1.68485865e-01 2.23597670e+00 -2.93479919e-01
-5.86016595e-01 1.26931608e-01 -1.36280909e-01 -4.90730375e-01 4.85395253e-01 -8.09985865e-03 -8.53125826e-02 3.49696100e-01 4.32642043e-01 -1.98813543e-01 4.52665165e-02 2.09643528e-01 1.54756114e-01 1.64099216e-01 -3.75079006e-01 -5.27265787e-01 3.27124834e-01 -3.54474038e-01 -4.03712064e-01 -4.39989716e-02 -6.65431798e-01 -2.63677746e-01 1.02850661e-01 -8.38190690e-03 -2.26657271e-01 -1.15489617e-01 -1.42595589e-01 2.47166216e-01 2.33947575e-01 1.96240559e-01 1.08981945e-01 3.23963724e-03
7.65646771e-02 -3.18030149e-01 -9.92718041e-02 -3.69441658e-01 -3.86371046e-01 -2.86223680e-01 -3.02473575e-01 1.66778401e-01 3.41190666e-01 2.33801126e-01 -5.39990008e-01 -1.04921415e-01 8.63735020e-01 -3.41323495e-01 -2.03266695e-01 -2.67973900e-01 -6.26802087e-01 -7.73584902e-01 -7.08862916e-02 -2.89334375e-02 1.02910149e+00 -2.45342210e-01 -7.85406411e-01 1.66135654e-01 -1.16198935e-01 -4.82836030e-02 -4.40637022e-01 -5.09572446e-01 3.20999801e-01 -4.05006886e-01 -6.07171282e-02 4.01399672e-01
-1.15714476e-01 -6.89596497e-03 1.67373610e+00 -8.68852973e-01 -8.46131623e-01 1.41021028e-01 -1.57188755e-02 -4.13893521e-01 2.48901471e-01 1.86248434e+00 4.16588504e-03 -9.00159180e-02 2.84327388e-01 3.24308968e+00 3.14583741e-02 -7.86562979e-01 3.77035946e-01 -2.57737494e+00 5.73279023e-01 -2.89927393e-01 2.71995753e-01 5.91269732e-01 -2.79188693e-01 8.60637248e-01 -6.22319132e-02 -5.68405688e-01 3.02134156e-01 -1.21775337e-01 1.10325120e-01 1.68594606e-02 -2.56448053e-02 -3.50659579e-01
-5.92876613e-01 -1.40199333e-01 8.73918176e-01 3.54373962e-01 -4.20695961e-01 5.88940740e-01 1.07446928e-02 -8.81446958e-01 3.28909844e-01 4.47727323e-01 2.08841264e-01 1.67213589e-01 -4.46763277e-01 -6.88425303e-02 3.98961008e-01 -3.89459729e+00 -6.30617961e-02 -5.66434097e+00 5.54558814e-01 -9.33868647e-01 -6.90438509e-01 4.00583833e-01 5.98617613e-01 -1.20423712e-01 -2.86478549e-01 -1.81821167e-01 -4.09519851e-01 5.62520683e-01 -5.90402901e-01 -3.93110722e-01 -9.66819644e-01 -2.43867218e-01
6.51262179e-02 -1.22670755e-01 -6.61030293e-01 -4.32967506e-02 -1.41911671e-01 -7.30517507e-02 2.39328325e-01 3.14583272e-01 3.85857135e-01 -2.35320285e-01 5.55781305e-01 -1.59614369e-01 3.11790198e-01 -8.29412639e-01 -3.61994654e-01 -5.23502976e-02 -2.00742081e-01 2.08324000e-01 -8.57378542e-02 1.48304477e-01 -6.81981444e-02 -1.75193459e-01 1.82931107e-02 -2.01595277e-01 -1.61148936e-01 7.40666628e-01 1.64267123e-02 8.55234787e-02 -2.11602464e-01 2.55034119e-01 8.63894299e-02 3.89042139e-01
-9.66651380e-01 1.07730642e-01 -3.64942513e-02 4.53672409e-01 -3.45485866e-01 6.85972035e-01 -3.09633434e-01 -2.66493678e-01 4.55555201e-01 -9.13017020e-02 -6.39867246e-01 1.14297695e-01 3.57512422e-02 -2.14086473e-01 -1.51719078e-01 -9.53941226e-01 1.17378511e-01 -1.08238947e+00 -1.27165824e-01 2.05593914e-01 1.46881199e+00 8.21970403e-01 -2.58880053e-02 2.89235681e-01 -5.22718489e-01 -2.04255506e-02 -4.74496543e-01 9.33739245e-02 6.01976514e-01 -1.30190983e-01 -1.40474454e-01 3.14223737e-01
-4.69367802e-01 -6.27022907e-02 1.02198452e-01 1.20831542e-01 -2.82608718e-01 2.42047101e-01 -9.25538898e-01 -9.57166925e-02 1.05347320e-01 5.24192333e+00 5.56974828e-01 4.26228791e-01 2.30776429e-01 2.65290046e+00 7.38147367e-03 -5.18821925e-02 -4.32632089e-01 -2.08068520e-01 8.77666399e-02 -1.97115287e-01 -7.05272675e-01 4.24779177e-01 1.57255709e-01 2.57672548e-01 -4.02301341e-01 -4.20508325e-01 -6.46181643e-01 3.42265576e-01 -1.81717500e-01 -6.66975021e-01 1.73213169e-01 -2.32406735e-01
-5.45690442e-03 1.47556394e-01 -7.53567740e-02 3.06308772e-02 2.43991166e-02 1.02189640e-02 2.93350909e-02 -5.83368875e-02 2.03151256e-02 -1.67700082e-01 6.71599731e-02 5.21929413e-02 5.26035875e-02 1.07527137e-01 1.12005994e-01 1.11209657e-02 4.52938639e-02 1.07049511e-03 -7.94493593e-03 1.16193421e-01 2.57527500e-01 1.08282007e-01 -6.04392437e-04 2.75106039e-02 6.94278032e-02 3.32607627e-02 5.47772944e-02 2.57858992e-01 -5.50913764e-03 -7.55278626e-03 2.87352465e-02 1.83389504e-02
1.44806191e-01 -1.31986409e-01 -5.55150926e-01 4.61953618e-02 4.56040315e-02 -1.89036906e-01 -2.30483085e-01 -3.23809385e-01 3.07971448e-01 -6.60127461e-01 6.03715889e-02 -2.44513024e-02 2.01274335e-01 6.84819669e-02 -6.62420467e-02 5.53576797e-02 -3.13670218e-01 3.62601101e-01 -8.27292874e-02 9.10058856e-01 3.28039259e-01 1.02817692e-01 -4.53268439e-01 -1.24831147e-01 -1.36689425e-01 -4.41670716e-01 8.39984894e-01 -5.13835609e-01 2.38797441e-01 3.09904128e-01 -2.58874875e-02 2.16808692e-01
-2.68664062e-01 -1.01685315e-01 -3.71409953e-01 -1.72789007e-01 5.20901024e-01 2.93905418e-02 6.40335679e-02 1.08112060e-01 4.16447014e-01 -4.33325857e-01 -1.08283624e-01 -9.71092582e-01 4.41135615e-01 -1.94452971e-01 -1.53796762e-01 2.36480862e-01 -1.60052344e-01 4.09484595e-01 1.24357350e-01 -1.03857495e-01 2.24613547e-02 -2.46692047e-01 5.14204800e-01 -3.03106874e-01 3.20320636e-01 1.74726218e-01 -1.42802581e-01 2.54570663e-01 5.35947569e-02 3.81314337e-01 5.18193364e-01 3.30718905e-02
6.59484789e-02 1.84532076e-01 -9.19032935e-03 6.77409694e-02 -6.16658516e-02 1.08479857e-01 -7.86766224e-03 -8.28849003e-02 4.02198359e-02 8.60049948e-02 7.31725693e-02 1.21165834e-01 -6.48258030e-02 -8.45312402e-02 1.17331348e-01 4.42337185e-01 6.30757660e-02 -3.13728005e-01 4.10546288e-02 -9.09948424e-02 -1.12658523e-01 -1.31564558e-01 2.31164731e-02 -2.85926182e-02 5.23984469e-02 1.33438841e-01 6.47993805e-03 -3.94022977e-03 9.57123339e-02 9.08936188e-03 -5.97482920e-03 2.66309828e-02
4.03175265e-01 -2.14855775e-01 7.74052083e-01 5.46231210e-01 -3.89981598e-01 -1.70720190e-01 -6.44612968e-01 -9.16711539e-02 -3.32717061e-01 -7.76816487e-01 -8.24247226e-02 9.02409196e-01 4.78866667e-01 -4.07231688e-01 8.10074329e-01 4.88764286e-01 -1.54588476e-01 -3.42739224e-01 3.74003798e-01 3.98343712e-01 -3.58997464e-01 1.74608707e-01 6.06726110e-01 1.86547831e-01 1.28539696e-01 -3.88341397e-01 1.05236202e-01 2.63111383e-01 -8.72737765e-02 -3.55063081e-02 1.21981226e-01 3.86768401e-01
2.60084182e-01 -1.34927377e-01 2.25033305e-04 1.86735764e-01 1.16654500e-01 1.54921666e-01 9.33088899e-01 4.45443541e-02 4.39641297e-01 2.44825646e-01 3.63971949e-01 3.65984678e-01 -4.31175441e-01 -5.47554612e-01 1.28075406e-01 -8.94170642e-01 -6.96973130e-02 -6.44945264e-01 -7.14830309e-02 -4.61833328e-01 -5.09176433e-01 -4.90281023e-02 2.81820148e-01 9.12765320e-03 7.03659654e-02 -4.49436158e-01 -6.66913629e-01 4.66717809e-01 -1.31385356e-01 -1.68549418e-01 2.64471799e-01 -7.50716776e-02
9.67353731e-02 2.11697002e-03 -3.28086644e-01 3.90498430e-01 9.15286466e-02 3.41918677e-01 3.58768821e-01 -2.42261648e-01 -3.30897570e-01 3.13916743e-01 2.27747462e-03 1.06954969e-01 4.58269447e-01 4.82195795e-01 -1.81172028e-01 -4.38092172e-01 5.61670005e-01 -9.30033177e-02 8.59595742e-03 -2.24717349e-01 -4.01368827e-01 3.49508673e-02 -3.82804662e-01 1.75056115e-01 -3.32587808e-01 -7.91478008e-02 -7.14099184e-02 -4.70269710e-01 6.41421378e-02 -1.28838196e-01 -4.63598855e-02 -3.22031140e-01
7.13178694e-01 -3.34616341e-02 -2.54907042e-01 1.60069838e-01 1.38455078e-01 -4.57751483e-01 -4.88160439e-02 3.48242402e-01 2.78549224e-01 -2.62661648e+00 1.03485845e-01 1.72023997e-01 3.87753904e-01 -1.66500401e+00 1.20146744e-01 3.47814530e-01 1.47776678e-01 2.78395742e-01 -2.73603171e-01 -2.21952578e-04 4.92383838e-01 -1.98547423e-01 -2.81992882e-01 -5.79243936e-02 -3.51461083e-01 -1.78191811e-01 -6.63016587e-02 -1.70846343e-01 3.06041926e-01 9.56111625e-02 -1.47749931e-01 -1.91974849e-01
-8.64784420e-01 1.43042535e-01 3.01782843e-02 1.31752238e-01 -7.67379254e-02 -3.32094431e-01 1.08476627e+00 -7.99621642e-02 -1.03098845e+00 7.55471349e-01 -7.15138674e-01 2.87792347e-02 1.60201222e-01 8.76442268e-02 -6.96215272e-01 5.76253414e-01 5.92669547e-01 4.71634358e-01 1.56001896e-01 6.66990504e-03 -3.08719039e-01 4.55541223e-01 5.39442182e-01 9.66115713e-01 -4.72673595e-01 5.06985843e-01 -6.08373940e-01 6.44994527e-02 8.42132866e-01 -4.42713320e-01 1.23521328e-01 5.44622205e-02
-5.23368061e-01 5.94180524e-01 -6.85938150e-02 -1.15950696e-01 6.00834489e-01 1.49658591e-01 -1.85818074e-03 5.00141203e-01 -3.28470290e-01 4.76000249e-01 8.69447887e-02 -1.68727040e-01 1.95660189e-01 2.14549795e-01 -5.45242608e-01 -1.39567018e-01 -1.30414605e-01 -5.50263226e-02 3.90651762e-01 -3.98524195e-01 -2.27778293e-02 -2.98991650e-01 2.55731679e-02 -4.79250073e-01 8.65267217e-02 -2.17459664e-01 -5.39304614e-01 -4.75295871e-01 1.45772263e-01 -3.37684929e-01 -2.31056720e-01 -2.67273247e-01
-1.57072380e-01 2.22675323e-01 4.79605377e-01 3.49574178e-01 -2.98193753e-01 -2.79961675e-01 -1.11947745e-01 -6.33425545e-03 2.93792009e-01 -4.34288621e-01 -5.88860333e-01 -8.11650231e-02 -2.64020950e-01 -2.81250119e-01 7.01571628e-02 5.40535986e-01 -8.63798559e-02 1.63516268e-01 3.08798730e-01 2.01888978e-01 8.62059295e-02 -7.25002110e-01 1.69907004e-01 9.47502702e-02 2.38238975e-01 1.49455577e-01 -2.14210286e-05 -5.66815853e-01 -2.63486505e-01 -1.17798001e-01 9.50306281e-02 -2.06503034e-01
-8.34841669e-01 4.31180954e-01 -6.35502458e-01 -9.80794311e-01 -2.11924613e-01 -1.94036350e-01 -3.15762103e-01 3.72194529e-01 5.78551404e-02 4.78163689e-01 -3.34893800e-02 1.63678989e-01 1.49477914e-01 3.11929286e-01 2.01729853e-02 1.09960103e+00 6.51985288e-01 1.21827281e+00 -7.36610711e-01 4.06795777e-02 5.85755885e-01 -7.86210060e-01 -6.08384550e-01 4.33471650e-01 -1.72535747e-01 -4.68624979e-01 3.06907266e-01 2.49732316e-01 5.44020534e-01 -7.84777164e-01 2.50981182e-01 -2.44191065e-01
1.28272861e-01 -5.37425637e-01 -7.40012601e-02 -1.23573422e-01 -5.35577357e-01 5.37522972e-01 1.42905250e-01 -4.35274035e-01 4.57462788e-01 9.20938373e-01 -2.25094467e-01 1.23688847e-01 5.61654150e-01 4.12749410e-01 1.18805142e-02 -9.71977234e-01 -4.44304615e-01 -9.71608818e-01 -2.78305076e-02 2.20430493e-01 2.27538377e-01 3.53699893e-01 1.97760358e-01 1.50847301e-01 2.44145110e-01 1.15806870e-01 -4.19436574e-01 -2.44326413e-01 -2.42658332e-01 -3.46306384e-01 4.63276774e-01 3.40283155e-01
-3.99899632e-02 -9.48926866e-01 3.46758753e-01 1.60202169e+00 1.42321497e-01 7.86242113e-02 -1.42628968e-01 -2.80781925e-01 -2.00929165e-01 2.19053000e-01 1.10173380e+00 -1.00300670e+00 -1.12144423e+00 -4.08043474e-01 1.78758264e-01 -1.20992124e-01 -1.17233968e+00 5.86128831e-01 6.44350886e-01 -6.53930187e-01 8.67747307e-01 1.73888445e-01 -2.70304190e-05 2.25066710e-02 -1.57466829e-02 -5.25319636e-01 2.23392040e-01 1.39117865e-02 -8.97464514e-01 1.28035259e+00 -5.87560356e-01 -3.59762646e-03
-6.84656799e-01 -1.22546248e-01 3.51181656e-01 7.72008002e-02 -1.40315294e-01 1.80519953e-01 2.52767265e-01 9.44198221e-02 -3.64068151e-01 -2.64118582e-01 -9.89651144e-01 3.15594763e-01 5.12722671e-01 6.45471439e-02 1.16582684e-01 -3.07861656e-01 4.08627987e-01 -2.28416339e-01 -1.26869395e-01 -3.15084726e-01 -7.21370041e-01 2.08701536e-01 -4.80033457e-02 -6.96525633e-01 1.97298124e-01 6.20905638e-01 -1.74517334e-01 1.83063839e-02 -3.57188523e-01 -2.94683665e-01 -2.33806282e-01 -3.10938023e-02
-2.57786393e-01 -3.22503597e-01 -1.53291032e-01 -1.49374306e-01 -2.24445298e-01 -8.71397704e-02 2.12471291e-01 2.63648748e-01 -6.04498386e-01 1.34954941e+00 -1.46693096e-01 -1.01378798e-01 -5.02000391e-01 4.45574760e-01 -1.55523315e-01 9.00905579e-03 2.86974348e-02 1.40293553e-01 -2.34252959e-02 -1.79500237e-01 2.15620250e-01 1.45216897e-01 3.53548914e-01 3.00987512e-02 5.29134274e-02 -5.84712215e-02 -1.86999008e-01 1.90622568e-01 2.50765830e-01 3.11545342e-01 -1.74789932e-02 9.77303982e-02
-7.81321526e-02 -4.03021663e-01 -2.39752214e-02 -8.06401968e-02 -2.82527864e-01 4.93263662e-01 -1.08265854e-01 -4.23627287e-01 -6.51083514e-02 -3.72089952e-01 4.16377373e-02 4.48060483e-01 1.86839819e-01 5.04170060e-01 3.53633642e-01 -4.47242558e-01 -4.96462554e-01 -1.16972768e+00 -8.94257799e-02 -3.57590884e-01 -1.20138325e-01 8.54238808e-01 4.94929969e-01 6.63196802e-01 -4.95680392e-01 1.22001365e-01 1.48667082e-01 -2.07385078e-01 -3.92613649e-01 -2.29910180e-01 -9.58972350e-02 -5.85606173e-02
1.72012765e-02 -4.03847396e-02 1.44782290e-01 -7.87894353e-02 2.15002552e-01 -1.03393689e-01 7.75755662e-03 -3.39819163e-01 -1.85663551e-01 3.30571651e-01 1.45281479e-01 1.67174473e-01 6.57381639e-02 -3.29209417e-01 -6.99716061e-02 -2.81593561e-01 6.77260309e-02 1.51420325e-01 -1.59543484e-01 -5.38183808e-01 1.29522771e-01 -1.46142602e-01 -1.13410324e-01 -5.63364066e-02 -1.70301273e-02 1.89684004e-01 -5.14326654e-02 5.86804561e-02 1.06929876e-01 8.10775533e-02 -1.78442691e-02 5.26991347e-03
2.76621561e-02 -6.09940052e-01 -2.15650588e-01 7.23128319e-01 -2.07256973e-01 -3.56598973e-01 1.56889737e-01 -8.48328248e-02 -2.07547471e-01 2.98556972e+00 -5.65943778e-01 9.33870912e-01 6.93498194e-01 8.46311212e-01 8.38194907e-01 1.47267908e-01 -1.38452798e-02 1.94406152e-01 4.87686723e-01 3.58067274e-01 3.02974582e-01 1.97232887e-01 -8.16950575e-02 1.02259469e+00 2.85678711e-02 1.88643217e-01 -3.49870026e-01 2.05752164e-01 1.47948295e-01 3.29034552e-02 1.31740570e+00 -4.24861535e-02
-9.62523594e-02 1.75469264e-01 1.17824286e-01 7.09717572e-02 5.10945320e-02 -3.69208790e-02 1.09157739e-02 1.11565039e-01 1.27001316e-03 -2.17708461e-02 1.58678442e-01 1.01831920e-01 9.60962251e-02 -2.06479412e-02 1.66434839e-01 1.79666847e-01 3.17221023e-02 -1.46108598e-01 -1.75356790e-02 9.14013237e-02 -1.63302839e-01 -5.82465604e-02 -5.32067660e-03 1.78668741e-02 -4.53680575e-01 -2.12277383e-01 4.54581007e-02 -1.36668667e-01 -7.24797994e-02 -6.15751706e-02 3.13189551e-02 -4.67243850e-01
-1.01639039e-03 -9.08312127e-02 -4.89898212e-02 1.95315555e-02 -2.14860857e-01 2.66616233e-02 -1.81033220e-02 1.75632164e-01 6.62318245e-02 -5.84847629e-02 -1.64930150e-02 -1.97789930e-02 -5.88791147e-02 4.51406389e-02 -5.80323040e-02 2.07809016e-01 -1.13765687e-01 -1.32984132e-01 8.75241403e-03 3.23196530e-01 -2.32407734e-01 -1.08328037e-01 -8.12691730e-03 1.04879085e-02 -1.86329894e-03 -8.76240358e-02 -7.18343556e-02 -8.33757445e-02 -3.39661241e-02 5.50283790e-02 1.02601936e-02 9.32969991e-03
8.47398341e-01 -2.65533805e-01 2.15457007e-01 3.32855910e-01 -1.93619028e-01 7.27177598e-03 -5.71757734e-01 5.62160537e-02 6.82684302e-01 5.56824021e-02 -1.83515802e-01 4.92089801e-02 6.86905459e-02 2.25258693e-01 7.37385213e-01 -4.98072177e-01 -4.46156889e-01 -5.22355855e-01 2.87251562e-01 -2.57948697e-01 -7.13753164e-01 1.82919338e-01 -1.03127174e-01 1.98006168e-01 8.23269844e-01 -1.15777403e-02 2.14887604e-01 -2.68312186e-01 -4.81896639e-01 2.19246283e-01 7.76338354e-02 8.29892308e-02
1.47140846e-01 -3.94665122e-01 -3.17388445e-01 3.92873883e-01 3.00926059e-01 -6.07352495e-01 8.08028951e-02 2.98418906e-02 2.44211853e-01 -2.72169024e-01 -2.52079695e-01 4.67952996e-01 3.69257957e-01 -2.96577632e-01 2.32990250e-01 -4.68065113e-01 -3.15842718e-01 -6.11697614e-01 3.77546221e-01 -3.87939245e-01 -2.71508098e-01 -6.05124049e-02 3.56485605e-01 6.41706586e-01 -1.05743714e-01 -3.04459304e-01 4.25140500e-01 -6.27382472e-02 -7.63545856e-02 -4.34936166e-01 8.64432454e-02 2.02433914e-01
3.53651419e-02 5.55513240e-03 6.83582544e-01 1.07481152e-01 -1.08786643e+00 -3.44415486e-01 1.98801741e-01 -1.33621037e-01 6.39999092e-01 5.87326288e-01 -1.05987333e-01 -3.96437973e-01 5.61155751e-03 6.67266428e-01 -3.94568965e-02 -2.16892076e+00 -2.69941926e-01 -2.60979009e+00 1.44729093e-01 4.47034054e-02 -8.53926778e-01 6.43058062e-01 1.63983762e-01 1.41473204e-01 2.47776434e-01 1.13766342e-01 3.45373482e-01 2.49489039e-01 -1.84490874e-01 -7.88619459e-01 -5.65357804e-01 1.06997907e-01
-1.59064621e-01 -2.35514596e-01 -2.77907759e-01 -2.84226179e-01 -2.36469701e-01 5.38540006e-01 1.75024539e-01 -1.00914374e-01 -1.31990895e-01 3.52999568e-01 -2.04816669e-01 1.98042020e-01 6.34305254e-02 -2.73795724e-01 -1.39080077e-01 -4.35010046e-01 3.15930575e-01 -5.91645360e-01 -3.01826239e-01 4.16929126e-02 -3.84347767e-01 3.76560003e-01 -1.42842576e-01 3.48474890e-01 3.73234361e-01 -4.98594224e-01 4.83198881e-01 1.14979222e-01 6.02046102e-02 1.11477293e-01 -8.65778103e-02 2.25438457e-02
4.58521724e-01 6.89488709e-01 7.09620953e-01 -4.16990429e-01 1.28753215e-01 1.40638888e-01 1.87755048e-01 -1.04606159e-01 -8.14052999e-01 9.60630894e-01 -3.05462241e-01 -2.23751098e-01 -4.23636675e-01 1.11641395e+00 1.49903595e-01 1.44495040e-01 3.57439928e-02 -9.66679037e-01 3.22513968e-01 -2.69382030e-01 3.97363044e-02 7.24512935e-01 -1.52674109e-01 -4.04729724e-01 6.26152277e-01 -7.55151212e-01 4.76235121e-01 -4.13568243e-02 -3.28872651e-01 -6.14320159e-01 -2.73730643e-02 -4.41702485e-01
-9.39550325e-02 -4.33166772e-01 2.67689645e-01 -2.28661850e-01 -2.54713684e-01 1.87683269e-01 1.20433100e-01 -2.27223814e-01 -5.18788159e-01 -2.59075433e-01 -1.43482596e-01 1.25469947e-02 -4.62060943e-02 4.75712955e-01 5.73298872e-01 2.81698316e-01 2.25093096e-01 -4.58954722e-01 -1.64025538e-02 1.43554002e-01 -1.83296382e-01 3.72441918e-01 -3.22063327e-01 1.12087958e-01 1.90588087e-02 -2.08331481e-01 3.49672884e-01 6.52156949e-01 -3.30379903e-01 -4.90112126e-01 3.53227168e-01 2.62758017e-01
-1.23743784e+00 1.29208103e-01 1.25623792e-01 -1.29225850e+00 -1.19458117e-01 -9.64506641e-02 1.59072578e-01 5.24428368e-01 1.42380372e-01 3.50178450e-01 -9.61159050e-01 6.89203024e-01 1.07182634e+00 3.52537543e-01 -6.87680721e-01 3.12016815e-01 5.64476490e-01 -4.01726991e-01 -2.81414449e-01 9.97774243e-01 -5.71802139e-01 -3.18462193e-01 -3.77785325e-01 -1.30361775e-02 5.72129369e-01 9.77333665e-01 8.73096526e-01 6.49292588e-01 4.87494677e-01 -1.01598310e+00 3.75440232e-02 2.39754423e-01
-9.28684920e-02 9.92643312e-02 3.08801770e-01 -4.35611121e-02 3.32011878e-01 -1.03685178e-01 -1.65282376e-02 2.19837222e-02 -5.76979406e-02 1.89888701e-01 3.12981904e-02 1.73873082e-02 -1.38168754e-02 -1.44526139e-01 7.83381090e-02 -1.31076425e-01 8.70171487e-02 7.09718019e-02 1.79109089e-02 -4.18358624e-01 1.33327603e-01 -9.68368798e-02 3.54269259e-02 9.80627164e-03 1.52062505e-01 -1.83765814e-02 7.76284114e-02 1.46588385e-01 2.58710887e-02 -8.68296623e-02 -1.05296774e-02 4.87199947e-02
-8.73416141e-02 1.90408528e-01 2.96308875e-01 -1.17522500e-01 3.09587359e-01 1.20272651e-01 6.61377013e-01 3.60079169e-01 3.39405686e-02 -1.20462275e+00 -3.45621645e-01 5.30911863e-01 6.98141515e-01 -3.08587819e-01 -4.18725848e-01 4.25475866e-01 4.50468808e-01 -1.81485415e-01 -1.09675460e-01 -5.38755000e-01 1.07560480e+00 -2.86132723e-01 9.15752798e-02 -1.27003407e+00 -1.09442040e-01 6.19800210e-01 -9.92509544e-01 -9.55196559e-01 3.00100744e-01 -9.06034783e-02 -1.42387608e-02 -3.02573174e-01
6.12848461e-01 -2.93441981e-01 -2.93289244e-01 4.23439085e-01 -2.15287358e-02 -6.63875490e-02 -1.02119565e-01 -1.13648564e-01 4.98102158e-01 -1.15032338e-01 -1.32764086e-01 -3.25315297e-02 7.75410712e-01 -3.58636498e-01 3.38997573e-01 -2.87169158e-01 -1.19278869e-02 -4.35301155e-01 1.46796793e-01 -5.81760891e-02 -3.42882156e-01 1.25479534e-01 1.52732685e-01 1.38804957e-01 1.25441933e-02 -1.92815900e-01 7.77215838e-01 4.40891802e-01 -3.25787097e-01 3.20398390e-01 1.66150257e-01 2.53653347e-01
-1.80780753e-01 3.10427666e-01 -1.54744521e-01 -6.39853477e-02 -5.57209790e-01 -2.15429381e-01 1.07138403e-01 4.43891972e-01 -4.08594497e-02 -5.23104072e-01 -2.05685899e-01 2.61866711e-02 -3.23813319e-01 2.00734273e-01 2.71285176e-01 -1.97248369e-01 -1.04766987e-01 2.15542957e-01 6.24969006e-02 3.67854983e-01 -2.31497332e-01 -5.41575514e-02 -2.82212198e-02 -2.10024994e-02 -9.63588282e-02 -7.43964911e-02 2.55371124e-01 -3.14890087e-01 8.46960321e-02 -2.57804291e-03 7.89502412e-02 1.53786480e-01
6.23228662e-02 -4.95520771e-01 -1.21666618e-01 -9.80213955e-02 -6.33422807e-02 -1.65324077e-01 -2.51498390e-02 -1.65512517e-01 -3.84547561e-01 4.52417493e-01 -1.12656578e-02 1.09375954e-01 3.50027770e-01 3.01666409e-01 -1.87024653e-01 -5.90099156e-01 -1.63641691e-01 -1.05415456e-01 -2.17120610e-02 8.71104226e-02 4.75924164e-02 -4.57488373e-02 5.61074018e-01 3.22677679e-02 -3.75031710e-01 2.35401183e-01 3.48219782e-01 1.33519053e-01 -7.28855133e-02 1.14316389e-01 -4.22311984e-02 -2.15019837e-01
1.02084136e+00 -8.05642107e-04 -6.50674522e-01 1.87167406e-01 4.64270234e-01 1.02086440e-01 4.79496360e-01 1.82128906e-01 -3.16060334e-01 -9.35511768e-01 -8.44259381e-01 1.36551535e+00 1.02812149e-01 -9.34210896e-01 3.05258840e-01 9.28148091e-01 4.65040356e-02 1.02184141e+00 -1.91433623e-01 1.47416458e-01 -1.39461005e+00 -4.21006113e-01 -7.90032744e-01 -2.67826140e-01 -2.44104058e-01 5.83219193e-02 2.36166745e-01 3.35351616e-01 -3.11883073e-02 8.65149423e-02 -6.96815774e-02 2.00742096e-01
-2.16593832e-01 1.07392699e-01 -9.52190161e-01 -9.68117118e-02 3.60719025e-01 3.96610916e-01 -3.93901393e-02 1.13881849e-01 -1.19558521e-01 4.52886850e-01 -4.40754503e-01 -1.19760156e+00 4.15824980e-01 2.08630323e-01 -3.41194421e-01 8.12584758e-01 -2.57366430e-02 1.47992790e+00 -6.17135644e-01 1.50750399e-01 2.90808886e-01 -6.34687096e-02 8.60427842e-02 6.33312821e-01 -5.28535917e-02 8.35760534e-01 -1.28369227e-01 -3.42950076e-01 1.82134882e-01 1.08042940e-01 6.74950600e-01 -3.01498502e-01
6.61347667e-03 4.16526407e-01 -1.82487160e-01 -6.29702330e-01 -3.36376019e-02 7.10000336e-01 2.77424037e-01 8.02753747e-01 3.33872139e-01 2.80073136e-01 9.35789168e-01 -2.37792298e-01 9.87735987e-02 2.06765577e-01 1.75638671e-03 -6.63694501e-01 3.43748569e-01 -2.77063511e-02 -3.29219818e-01 -4.61929262e-01 -8.06487948e-02 -2.35139653e-01 2.36268103e-01 1.17821895e-01 -2.14465842e-01 1.92915052e-01 2.28722785e-02 -1.01394337e-02 -5.54873705e-01 2.31088445e-01 -2.09778309e-01 1.01860903e-01
7.13818893e-02 1.16780289e-02 -1.37699217e-01 8.20333138e-03 -4.64018956e-02 4.58837524e-02 3.07497177e-02 7.92029798e-02 -3.24467421e-02 -7.56482184e-02 -7.23249763e-02 -3.74124020e-01 2.39578873e-01 2.29476869e-01 1.70713570e-02 1.04477659e-01 5.40383533e-02 -5.01793697e-02 1.04364179e-01 2.38664433e-01 1.13710970e-01 2.78434008e-01 5.45446470e-04 2.11046919e-01 -1.06467821e-01 -2.98497498e-01 -1.76062301e-01 -1.49462730e-01 -2.89188713e-01 -1.47536159e-01 5.59250219e-03 -2.74455339e-01
3.63831043e-01 -3.83028537e-02 6.02735221e-01 3.58408481e-01 2.65703022e-01 4.69210833e-01 9.76198614e-01 -3.20421547e-01 7.30081797e-01 6.21737214e-03 -6.51389182e-01 1.89735368e-01 -4.85322624e-01 -3.12598974e-01 2.99240928e-02 1.62103742e-01 -6.74645722e-01 -5.33955932e-01 2.44573355e-01 -2.15219073e-02 -3.52963172e-02 6.21554196e-01 2.34764636e-01 6.03860199e-01 1.01606213e-01 -9.67150256e-02 -2.71309793e-01 1.11481979e-01 2.37916052e-01 3.83003533e-01 -3.19347717e-02 -6.84910789e-02
-2.52220690e-01 -5.45034945e-01 1.53167582e+00 7.71921128e-02 -9.03366625e-01 -2.01679587e-01 -1.15139616e+00 -1.00952566e+00 2.73059547e-01 1.04906428e+00 7.00832950e-03 -4.39052105e-01 -2.81633794e-01 1.09066880e+00 6.30972147e-01 -2.05195093e+00 1.29311547e-01 -2.75832438e+00 1.83947289e+00 8.08931291e-01 -5.70710599e-01 1.69637978e+00 -4.49353576e-01 2.38019481e-01 3.62674832e-01 -6.90872312e-01 -2.67247200e-01 3.80271256e-01 1.67004123e-01 3.35386992e-02 6.92482889e-01 1.26379147e-01
2.76090130e-02 -1.56521536e-02 5.05214483e-02 3.90161052e-02 4.13594931e-01 -4.49963845e-03 -9.39417223e-04 1.92733519e-02 5.73936403e-02 3.93285212e-04 -1.23728188e-02 -5.59874922e-02 1.08064182e-01 1.58814585e-03 -1.08213462e-02 -6.02538809e-02 5.39705530e-03 -4.36797254e-02 -7.14805648e-02 8.49580765e-02 1.39673680e-01 3.73365916e-02 -1.01554384e-02 2.35237703e-02 -1.36295095e-01 -1.33174986e-01 1.36848120e-02 3.39601904e-01 -4.52153049e-02 -6.86229765e-02 2.41200179e-02 -2.40685627e-01
-3.92039269e-01 8.04034323e-02 -1.19513936e-01 -8.35208744e-02 -2.50355214e-01 1.58160906e-02 -8.59388411e-02 7.12516487e-01 -1.03665315e-01 -6.88479245e-02 -1.83882698e-01 7.28815496e-01 5.13226449e-01 3.21557224e-01 2.36368582e-01 1.05467573e-01 -7.18141645e-02 3.36917527e-02 -1.72691166e-01 -4.41467576e-02 -1.44479990e-01 -6.13344193e-01 -1.30702227e-01 -2.02343464e-01 -3.49693209e-01 -1.63511559e-01 -6.21417820e-01 4.33889955e-01 -2.45420143e-01 -2.65482634e-01 -2.02752993e-01 5.14627397e-01
6.05348684e-03 -2.08932221e-01 5.77289104e-01 2.55090892e-01 -5.85754216e-01 2.54679203e-01 4.00737882e-01 -6.06702924e-01 4.75081086e-01 3.80234689e-01 -7.98884481e-02 4.21593040e-01 -8.98004696e-02 2.04210699e-01 1.82772666e-01 -2.10489988e+00 9.87170190e-02 -9.85748053e-01 4.49073166e-02 1.69651762e-01 -2.27774512e-02 1.48874328e-01 2.58082032e-01 1.62601382e-01 -1.58647925e-01 -5.27615070e-01 -8.19764882e-02 -2.94374675e-01 -3.84287030e-01 -4.85673666e-01 4.50794905e-01 -3.75036180e-01
-1.33669570e-01 6.81683198e-02 -2.13158473e-01 1.63958997e-01 -2.06383374e-02 -1.09862953e-01 2.14386061e-01 -2.00672343e-01 -5.59617400e-01 1.56116545e+00 -3.60068560e-01 -7.79948533e-02 -2.84447342e-01 1.18675756e+00 -2.81039625e-01 8.92259404e-02 5.74957132e-02 6.80834204e-02 -1.08511508e-01 -2.79608786e-01 -1.86959617e-02 1.70985922e-01 -5.84492125e-02 -1.59947127e-01 -1.85196847e-01 6.06285930e-02 4.42586333e-01 4.90666330e-01 1.56152755e-01 -4.59635556e-01 2.45457888e-01 -5.62357083e-02
-2.09081948e-01 -2.65241444e-01 6.95365191e-01 4.96134549e-01 -2.68549114e-01 -2.88006216e-01 -9.94024575e-01 1.21724285e-01 1.81415334e-01 5.17023504e-01 1.02289721e-01 -7.33493641e-02 9.53722745e-02 2.71815658e-01 -1.72595888e-01 3.63194197e-01 -4.45621014e-02 4.67321016e-02 -1.42570049e-01 -3.76483023e-01 9.52673972e-01 4.13527071e-01 4.27230507e-01 -5.56936860e-01 -2.68313158e-02 -5.12044702e-04 -1.88224256e-01 3.08310002e-01 -1.27709985e-01 3.50414097e-01 -9.09589455e-02 -2.43667975e-01
1.11415613e+00 -3.13780367e-01 5.32055378e-01 9.31426108e-01 -5.16900778e-01 9.96103212e-02 -7.36687660e-01 -6.04608119e-01 6.89471364e-01 -8.31733942e-01 -3.23001653e-01 7.86288798e-01 -1.19163847e+00 -2.44629994e-01 5.95957577e-01 -6.55643582e-01 -2.30683032e-02 -3.26352119e-01 8.04055929e-01 7.97872186e-01 2.30033860e-01 -4.19274688e-01 -2.11862826e+00 -5.51990569e-01 5.74612081e-01 5.76995671e-01 -8.51744473e-01 -3.01922560e-01 -1.64887697e-01 1.20137691e+00 -9.57209170e-01 -1.53902099e-01
-1.34538645e-02 1.82066947e-01 -4.35342900e-02 -4.92558070e-02 -1.55329421e-01 -2.81763095e-02 2.36447174e-02 -5.47619686e-02 -4.51433174e-02 -5.84638212e-04 4.15460914e-02 9.13017541e-02 8.55441689e-02 -6.56033084e-02 1.57830551e-01 -1.38662949e-01 1.06028020e-01 1.72626600e-01 -3.50633962e-03 -2.73550063e-01 1.34686515e-01 4.46063243e-02 -6.75458647e-03 -2.85711419e-02 -3.02762598e-01 -3.06384917e-02 2.30972469e-02 -7.55346492e-02 -4.59989198e-02 -3.21495929e-03 9.94969439e-03 -2.18334779e-01
1.13616519e-01 2.99013346e-01 1.58854342e+00 4.52152312e-01 -1.12871158e+00 1.49669081e-01 -1.27431199e-01 -5.13141870e-01 8.33401501e-01 5.00318885e-01 1.45521358e-01 -3.32866639e-01 -8.95759165e-01 9.03648794e-01 2.81184018e-02 -3.18194985e+00 -2.53776014e-01 -4.37664747e+00 3.07600677e-01 1.04560338e-01 -1.23450327e+00 9.87068951e-01 3.56101006e-01 1.49630576e-01 2.76487350e-01 -1.39705002e-01 -5.18322468e-01 6.13096595e-01 -1.17166504e-01 3.71581386e-03 -1.31291896e-01 -1.40177067e-02
-8.30433369e-01 1.81033731e-01 1.48052767e-01 -7.53288150e-01 -6.92717880e-02 -1.49122983e-01 -1.66008011e-01 4.93737102e-01 -7.65616819e-02 2.33974401e-02 9.71547589e-02 -2.76618302e-01 4.34998184e-01 4.62358654e-01 -3.95317823e-01 -3.74396622e-01 2.02984154e-01 -2.28656009e-01 -3.42694879e-01 1.41767740e-01 2.05851737e-02 7.18547523e-01 2.16076180e-01 -2.16642871e-01 -2.21677452e-01 2.86659300e-01 -7.22949028e-01 2.20033199e-01 7.64604881e-02 -5.87790906e-01 -9.15102586e-02 -5.84447503e-01

layers.2.bias:
-1.36667144e+00
-8.38177621e-01
6.80745661e-01
-5.61714530e-01
2.40090325e-01
-4.72451836e-01
2.43040487e-01
2.15942740e+00
5.82914352e-01
8.65018964e-01
-9.28062022e-01
-1.36598611e+00
-2.85915792e-01
9.56332982e-01
-4.31683600e-01
-7.09200263e-01
-6.21452071e-02
-7.98896015e-01
3.27792943e-01
-8.47255141e-02
-2.87675947e-01
7.97184408e-01
8.59058321e-01
-1.39742434e-01
-3.94099772e-01
1.06600308e+00
-1.00129628e+00
-1.10435653e+00
5.26765704e-01
-1.12607062e+00
1.42437682e-01
-4.07026820e-02
7.92374134e-01
1.09234720e-01
-4.11493242e-01
-1.89479776e-02
-1.33480996e-01
1.41522229e+00
1.06808686e+00
-5.39807416e-02
1.00889254e+00
-1.95741117e-01
-5.95398009e-01
1.39902115e+00
2.51205534e-01
-9.74041462e-01
1.08583105e+00
-3.44597340e-01
8.35205317e-01
1.79053044e+00
1.76296815e-01
3.49475861e-01
1.10469848e-01
-6.97531581e-01
2.14118406e-01
-2.11251210e-02
8.20070684e-01
-9.56513137e-02
9.16192681e-03
-7.15370774e-01
7.15855598e-01
6.26722202e-02
-2.48758018e-01
7.02376783e-01

layers.4.weight:
3.29997450e-01 7.75626525e-02 -4.63408977e-02 1.99829116e-02 3.48305665e-02 7.99285620e-02 7.50275736e-04 -7.45269537e-01 1.24324359e-01 -4.10841346e-01 8.49726200e-02 9.47618604e-01 -1.48506248e+00 -1.42401308e-01 1.19764591e-02 -1.45712566e+00 -6.56089513e-04 5.87882027e-02 -6.48858994e-02 -5.70290140e-04 8.13692604e-05 -4.86425497e-02 -3.17907780e-02 2.43253440e-01 -4.94916402e-02 -5.06674610e-02 2.28961203e-02 7.61237621e-01 -3.58581513e-01 3.86838317e-01 -1.29130930e-02 -1.15368843e-01 -3.58975492e-02 4.77881622e-05 6.84827268e-02 -5.67242270e-04 -4.10848152e-05 -1.62661627e-01 -6.08310942e-03 1.86495453e-01 -6.57986253e-02 3.01469386e-01 3.90864126e-02 -1.24067247e-01 8.16251792e-04 1.29584387e-01 -4.40051313e-03 4.09749948e-04 -1.04767263e-01 -7.00497746e-01 -1.24841385e-01 1.77537178e-04 -1.37319381e-03 4.44731303e-02 -1.03038776e+00 -1.25452271e-03 -2.10408848e-02 -2.47131750e-01 -4.52495068e-02 4.69497889e-02 -2.33748276e-02 -2.64545815e-04 8.87035072e-01 -1.80503540e-02

layers.4.bias:
-1.12590623e+00

