layers.0.weight:
3.31696361e-01 -5.67613244e-01 7.97264636e-01
5.69172144e-01 -8.09445798e-01 -5.80563486e-01
-8.31293464e-02 -6.13938749e-01 -5.77727258e-01
-1.07055378e+00 1.15616508e-01 4.58123112e+00
2.67282110e-02 4.11940843e-01 1.16166264e-01
-5.79876065e-01 8.58121514e-01 -1.84879377e-01
-1.31842160e+00 4.86020595e-01 -9.88645032e-02
-6.01682402e-02 7.88846374e-01 -9.23566997e-01
6.03414774e-01 -9.26082134e-01 5.12713566e-02
-1.11527514e+00 5.86289167e-02 -1.64189592e-01
7.53551662e-01 -9.85680073e-02 1.41279221e+00
-7.16238439e-01 -1.31785080e-01 -1.29353356e+00
-4.30584475e-02 7.12955832e-01 -1.57757306e+00
-1.16726887e+00 2.10410804e-02 5.00053525e-01
-6.46977663e-01 1.09646142e+00 7.52028525e-01
-1.81771189e-01 9.48456824e-01 1.64468549e-02
5.46070874e-01 -6.33792400e-01 -1.45019031e+00
-1.15504665e-02 1.12846863e+00 1.84981868e-01
8.07071701e-02 -9.54183042e-01 5.35116851e-01
3.41117471e-01 -1.28724232e-01 -8.64976227e-01
2.23475501e-01 1.65966094e-01 -5.10879010e-02
-3.24195027e-01 -2.56797969e-01 -1.00232065e+00
-4.64660525e-01 1.65601885e+00 -4.46076952e-02
-1.56447518e+00 4.06930357e-01 1.75152493e+00
1.05132234e+00 3.79940838e-01 -7.78481364e-01
2.59609371e-01 6.71772659e-01 -1.17486012e+00
-1.16151750e-01 -2.13369340e-01 1.90187418e+00
-3.97779703e-01 -2.44972542e-01 1.92939892e-01
3.22416067e-01 7.57217348e-01 -1.46468067e+00
-1.04933763e-02 4.65525806e-01 1.70563948e+00
-2.89658904e+00 2.84448242e+00 -1.78299040e-01
-1.26738083e+00 -5.19488692e-01 1.02004325e+00

layers.0.bias:
8.77201200e-01
4.81547834e-03
-1.42384720e+00
-6.34384930e-01
7.07518518e-01
-2.04255387e-01
-3.54310095e-01
2.86240637e-01
-7.45998621e-01
-1.59115899e+00
1.64644122e-01
1.80825554e-02
2.46107668e-01
-1.21306002e+00
-2.90836543e-01
1.43946290e+00
9.34610724e-01
1.82654703e+00
-6.68276668e-01
5.78918040e-01
-1.44309163e-01
-1.35729384e+00
1.02535832e+00
-7.05530941e-02
1.36946186e-01
5.60703695e-01
8.80503118e-01
-1.57881156e-01
-4.88352716e-01
7.31267482e-02
8.91685039e-02
-6.70209900e-02

layers.2.weight:
-3.45334142e-01 2.15032443e-01 7.85061494e-02 -4.98404294e-01 -5.85502759e-02 3.00501008e-03 9.60270092e-02 -4.34473529e-02 -1.21979199e-01 2.75935507e+00 7.48601258e-02 7.58080706e-02 -2.08194688e-01 2.39621258e+00 -1.79233238e-01 4.61632878e-01 -5.84244058e-02 7.07742333e-01 1.32576779e-01 -2.59684026e-01 2.32739165e-01 -5.85930683e-02 -5.59709191e-01 5.88066518e-01 -1.33177742e-01 6.31474972e-01 -8.03975344e-01 -1.17520049e-01 -1.74897701e-01 -2.31890246e-01 -5.99760525e-02 3.00595850e-01
-1.20850645e-01 1.60328910e-01 -8.38047087e-01 4.03307527e-02 -4.48675036e-01 1.70466349e-01 -7.38402188e-01 -4.72108901e-01 5.78499258e-01 7.11060405e-01 3.30952913e-01 -2.69763798e-01 2.56949782e-01 -4.14894708e-02 -3.04237932e-01 1.17731854e-01 -3.33522260e-01 2.87533164e-01 -4.31797862e-01 -6.45963103e-02 6.75588906e-01 -1.14069462e-01 -4.12426084e-01 -5.82430698e-02 1.80677120e-02 -6.99294433e-02 -3.38775396e-01 -5.59553146e-01 8.84338543e-02 -2.32729286e-01 6.61479775e-04 1.70374408e-01
-5.63617349e-02 -2.58043502e-02 1.46600045e-02 -7.63183296e-01 -6.04902744e-01 -6.93579065e-03 -4.75478560e-01 3.42096686e-01 4.47530806e-01 7.30478644e-01 -5.56345820e-01 -8.13987926e-02 1.74169049e-01 2.30186228e-02 -6.94236234e-02 -6.56832993e-01 -9.10241976e-02 -5.22129118e-01 -1.21408731e-01 4.56882805e-01 -3.54147583e-01 -2.48501092e-01 4.16259140e-01 -1.24728441e+00 -2.65023202e-01 4.45475429e-01 -1.18187082e+00 -1.03566900e-01 4.39741969e-01 -3.88014168e-01 1.01475649e-01 1.24330856e-01
2.47588426e-01 -8.99686664e-02 6.48979321e-02 1.34622669e+00 5.80415606e-01 3.84761125e-01 6.59469485e-01 -2.39091754e-01 -1.57684535e-01 -4.41704765e-02 1.60812438e-01 -6.34881258e-02 -5.76070845e-01 1.59198046e-01 6.29542649e-01 9.81802285e-01 -3.35586756e-01 8.56586874e-01 3.09665948e-01 -1.01243055e+00 -7.21187532e-01 -1.52332783e-01 3.75127703e-01 1.46123433e+00 6.55708835e-02 -5.42745173e-01 4.98295546e-01 1.00948855e-01 -6.66519523e-01 -1.50920287e-01 -2.29841694e-02 2.94242501e-01
2.29616076e-01 -2.08522484e-01 1.85706258e-01 -4.65882659e-01 1.17401175e-01 -4.29246306e-01 -1.50890923e+00 1.34153411e-01 6.12233400e-01 -7.14894831e-01 4.13117468e-01 -7.19694495e-01 8.20558310e-01 -9.33670223e-01 -2.22935230e-01 -8.83869350e-01 -2.29971990e-01 -9.20792282e-01 -4.92220148e-02 -4.44009379e-02 7.74568081e-01 -6.09693766e-01 1.42878175e-01 -3.65499318e-01 -8.44589889e-01 6.61747038e-01 8.46335366e-02 -5.21693349e-01 -2.75992811e-01 5.89158177e-01 -3.06898355e-01 9.71600190e-02
-3.07218611e-01 1.87371299e-01 4.05696005e-01 1.52467698e-01 -1.09031713e+00 -2.90203899e-01 -4.68942150e-03 2.81278461e-01 4.58237290e-01 1.76923461e-02 5.74452817e-01 4.16166931e-01 -6.81394339e-02 5.59442863e-02 -2.27782041e-01 -1.40842795e+00 -3.80861729e-01 -1.53697765e+00 7.64833510e-01 -2.83574849e-01 -6.84180617e-01 -4.21378911e-02 -7.89980471e-01 -2.90430605e-01 1.46861523e-01 9.25644487e-02 1.34964794e-01 1.22802913e+00 -1.35539249e-01 -4.52620953e-01 -4.44537193e-01 2.30248854e-01
4.59424295e-02 -1.27377305e-02 -2.04970241e-01 -1.14396233e-02 -1.54053017e-01 1.54916510e-01 -6.93232641e-02 -4.40092027e-01 -1.17060483e-01 2.41018891e-01 2.92096585e-01 8.17278102e-02 2.86340982e-01 3.18659544e-02 -7.69730890e-03 -2.92428017e-01 -9.64552106e-04 1.19509719e-01 1.45597123e-02 -3.08061838e-01 -4.03002203e-01 1.02416307e-01 7.69408494e-02 1.10859266e-02 1.75868452e-01 2.60452986e-01 -3.62441272e-01 -4.27115679e-01 -1.51043698e-01 7.01666921e-02 -1.94147732e-02 1.30708888e-01
3.89219940e-01 1.34387255e-01 -3.97152871e-01 3.62805992e-01 2.72749156e-01 -6.97081923e-01 1.24884017e-01 4.68036294e-01 8.73137414e-02 -3.32142264e-01 -1.19965538e-01 9.55335855e-01 3.05878460e-01 -5.70589304e-01 -1.98860168e-01 1.67908341e-01 5.14397740e-01 1.67377353e-01 2.96819121e-01 4.98172313e-01 -1.46609855e+00 -9.08765554e-01 1.26927793e-01 2.97911614e-01 1.89217612e-01 7.38406777e-01 6.11023724e-01 5.41941762e-01 -6.47303045e-01 5.00930905e-01 1.56785071e-01 -2.49963984e-01
9.07335356e-02 3.35716069e-01 -6.01074040e-01 -2.42890432e-01 1.36423445e+00 -4.43481624e-01 -5.89835405e-01 -3.60831708e-01 -6.44632339e-01 2.03208342e-01 4.79412079e-01 2.11861253e-01 6.71844721e-01 -2.74901718e-01 3.25453915e-02 1.94625521e+00 3.99228036e-01 1.47930944e+00 -5.40782213e-01 -8.16869661e-02 1.13045916e-01 -3.19085747e-01 4.41670269e-02 2.26997212e-01 4.69623357e-02 3.69395345e-01 6.53717816e-02 2.13365648e-02 -4.07321379e-02 1.70885801e-01 2.13920832e+00 -2.77333260e-01
-5.96008062e-01 8.98735821e-02 -1.29287422e-01 -5.04104376e-01 4.90820289e-01 5.19462535e-03 -5.85504733e-02 3.58107299e-01 3.95075828e-01 -1.87878281e-01 2.99059302e-02 2.20151290e-01 1.66139290e-01 1.77568018e-01 -3.43947113e-01 -5.18812060e-01 2.88923174e-01 -3.41609418e-01 -4.08956349e-01 -4.19033505e-02 -6.49825752e-01 -2.52803475e-01 1.16112351e-01 -6.72596395e-02 -2.19941795e-01 -1.07609496e-01 -1.55534968e-01 2.24302113e-01 2.45173499e-01 1.84068620e-01 1.17751129e-01 8.44419189e-03
1.10783935e-01 -3.19070190e-01 -3.20716128e-02 -3.66523176e-01 -6.31394625e-01 -2.91552126e-01 -2.44856328e-01 1.40314415e-01 4.16948855e-01 3.05571467e-01 -5.37781179e-01 -1.07717641e-01 8.59074354e-01 -3.04693431e-01 -2.03613505e-01 -3.43735814e-01 -6.29345894e-01 -1.10412228e+00 2.84862779e-02 -3.44850123e-02 9.95047271e-01 -2.23385260e-01 -8.39578867e-01 1.84560344e-01 -2.67678767e-01 -6.35920465e-02 -4.35536176e-01 -4.18096811e-01 2.43439481e-01 -4.02183950e-01 -4.37752455e-02 5.32746017e-01
-1.10281639e-01 1.05987981e-01 1.63184977e+00 -8.01361620e-01 -8.61506343e-01 1.51012570e-01 -1.74555868e-01 -4.27699357e-01 9.46888566e-01 1.76536167e+00 1.28385127e-01 -2.54912078e-01 2.25362957e-01 3.25129437e+00 -8.18858296e-02 -1.14910018e+00 2.97614247e-01 -2.73594427e+00 5.78904390e-01 -3.92416745e-01 3.04393649e-01 5.32357812e-01 -2.56382018e-01 9.21367705e-01 -4.16776054e-02 -6.06979012e-01 3.62577587e-01 -1.40415341e-01 1.03332028e-01 1.03450179e-01 1.06092207e-02 -3.78658712e-01
-6.32297754e-01 -2.07472980e-01 9.56122756e-01 4.05599684e-01 -7.66786397e-01 6.26125753e-01 3.64701003e-02 -9.47111487e-01 3.72017115e-01 4.48148698e-01 2.48305619e-01 1.30309179e-01 -5.06387591e-01 -5.68983853e-02 4.96989638e-01 -4.51866817e+00 -1.47736892e-01 -6.26263857e+00 6.07630908e-01 -1.02531660e+00 -6.55833483e-01 4.31364685e-01 6.50138319e-01 -8.17517564e-02 -3.09698671e-01 -2.42407396e-01 -3.62059027e-01 6.23447776e-01 -6.24027133e-01 -3.31847757e-01 -1.16577840e+00 -2.08523348e-01
6.94418326e-02 -1.44535393e-01 -6.47895992e-01 -6.15551174e-02 -1.15065373e-01 -6.93741590e-02 2.34813973e-01 3.16798121e-01 3.47567648e-01 -2.45823905e-01 5.33093810e-01 -1.83684200e-01 3.26110959e-01 -8.37762356e-01 -3.45850229e-01 1.11869606e-03 -2.33694643e-01 2.35782847e-01 -8.38177949e-02 1.37949005e-01 -6.64250329e-02 -1.58061311e-01 3.68078277e-02 -2.16428250e-01 -1.58324644e-01 7.50964284e-01 -1.20051717e-03 7.70890191e-02 -2.08385006e-01 2.62025893e-01 8.89714211e-02 3.88739526e-01
-1.04179096e+00 1.06584422e-01 -1.88231647e-01 4.59123284e-01 3.06735821e-02 7.42183387e-01 -4.88365203e-01 -2.28054106e-01 4.27548587e-01 -1.42751455e-01 -6.36996150e-01 1.09658353e-01 3.58606093e-02 -2.21785367e-01 -1.64473042e-01 -8.10618997e-01 1.13103263e-01 -7.07116365e-01 -2.66426235e-01 2.01192468e-01 1.50912464e+00 7.94356346e-01 8.17049816e-02 2.95643508e-01 -3.19169283e-01 -1.43284854e-02 -4.71863270e-01 -1.04004301e-01 6.66987658e-01 -1.25131100e-01 -9.94834900e-02 8.10785890e-02
-4.81123447e-01 -5.55720888e-02 7.60605335e-02 1.18202671e-01 -2.17264920e-01 2.58729041e-01 -9.08739984e-01 -9.07214880e-02 7.81589150e-02 5.24964285e+00 5.44835508e-01 4.43694383e-01 2.34150365e-01 2.65658212e+00 -6.20757602e-03 -2.76954640e-02 -4.15986925e-01 -1.66936561e-01 7.50319064e-02 -1.87025562e-01 -7.19233871e-01 4.24941778e-01 2.09648326e-01 2.60282606e-01 -4.16764438e-01 -4.17021304e-01 -6.48927569e-01 3.55859667e-01 -1.80953026e-01 -6.76279366e-01 1.46093577e-01 -2.19344199e-01
-2.62103025e-02 1.47767752e-01 -7.12338760e-02 3.69406566e-02 3.36755738e-02 1.95915774e-02 1.95287839e-02 -5.45831174e-02 -9.40503180e-03 -2.01696709e-01 6.45602793e-02 3.81670296e-02 4.52170819e-02 8.49580616e-02 1.16253413e-01 1.47535661e-02 4.68089432e-02 2.83238851e-02 -2.79820487e-02 1.16279595e-01 2.45505750e-01 1.28732264e-01 2.53387075e-02 2.23271307e-02 6.20046631e-02 1.99583694e-02 5.91586828e-02 2.90406734e-01 5.66146895e-03 1.55654212e-03 -1.58635527e-02 2.11583916e-02
1.20585084e-01 -1.50431454e-01 -6.42479300e-01 6.75871149e-02 2.41496176e-01 -1.72824696e-01 -2.12295741e-01 -3.02383125e-01 2.94419050e-01 -6.39021814e-01 8.50900784e-02 -4.91598211e-02 1.85853571e-01 8.60833079e-02 -4.82235923e-02 1.03147618e-01 -3.29552829e-01 4.73106563e-01 -1.72367856e-01 8.92232537e-01 3.68749678e-01 5.45551442e-02 -4.41266686e-01 -1.02658704e-01 -1.42578885e-01 -4.56033945e-01 8.60717118e-01 -5.59234381e-01 2.45822936e-01 3.31011087e-01 -2.73299906e-02 2.24225059e-01
-2.90273041e-01 -8.59285370e-02 -3.14272851e-01 -2.01925129e-01 4.66606259e-01 3.84837314e-02 4.96673360e-02 1.20477594e-01 4.41012025e-01 -4.30579513e-01 -1.48013413e-01 -9.42499280e-01 4.68238503e-01 -2.22994670e-01 -1.63191736e-01 1.44346595e-01 -1.33120224e-01 3.37239534e-01 1.26482621e-01 -7.09873140e-02 5.34883812e-02 -1.96858391e-01 5.25017917e-01 -3.44635874e-01 3.12336564e-01 1.96204096e-01 -1.72907457e-01 2.35306069e-01 5.95839992e-02 3.57596904e-01 4.54122394e-01 5.85964918e-02
5.33989221e-02 1.88722238e-01 -1.22678634e-02 7.31623843e-02 -8.93838778e-02 1.03108101e-01 -9.08973720e-03 -7.51207918e-02 6.03306219e-02 8.16068798e-02 6.74144775e-02 1.18178293e-01 -6.88862950e-02 -8.84788036e-02 1.16005495e-01 4.53191996e-01 6.87862113e-02 -3.43583316e-01 4.28259708e-02 -1.07338548e-01 -1.13807768e-01 -1.43296063e-01 -2.34056208e-02 -1.80847421e-02 3.28771994e-02 1.23211592e-01 8.90710671e-03 1.71450917e-02 1.08996481e-01 1.71717443e-02 1.06147891e-02 4.39178273e-02
5.32356203e-01 -1.54290199e-01 6.92031860e-01 5.27330637e-01 -3.31736028e-01 -2.49755606e-01 -6.56102538e-01 -1.33800060e-01 -3.31007600e-01 -8.49030733e-01 -1.03211448e-01 9.75164533e-01 4.91963506e-01 -4.25108790e-01 7.22477317e-01 5.54337859e-01 -8.33988041e-02 -2.73302704e-01 4.94458646e-01 4.47217017e-01 -5.35150707e-01 1.14106417e-01 5.49796879e-01 2.17806637e-01 -7.26304483e-03 -3.75170857e-01 9.27151293e-02 4.49219346e-01 -1.19347930e-01 -8.46256688e-02 6.98587596e-02 5.18076479e-01
2.71018505e-01 -1.05240777e-01 1.65155232e-02 1.59681693e-01 1.04742959e-01 1.34047568e-01 8.97945702e-01 5.54483272e-02 4.68698233e-01 2.25327715e-01 3.41456473e-01 3.67035389e-01 -4.07521039e-01 -5.76145589e-01 1.02614991e-01 -9.36638951e-01 -3.78002264e-02 -6.63547099e-01 -6.60004318e-02 -4.26512033e-01 -5.33410370e-01 -2.45794505e-02 2.50597596e-01 -3.45431007e-02 9.18589532e-02 -4.27310646e-01 -6.94614112e-01 4.42155302e-01 -1.18208580e-01 -1.79124266e-01 2.40881503e-01 -8.46565217e-02
1.39283031e-01 3.83546986e-02 -3.21236938e-01 3.88149172e-01 9.20495465e-02 3.03746164e-01 3.16872746e-01 -2.84937501e-01 -3.09188753e-01 2.69147515e-01 1.88094319e-03 1.15048639e-01 4.51231062e-01 4.46576685e-01 -2.19523877e-01 -4.53161210e-01 5.95617533e-01 -9.63347480e-02 7.86187723e-02 -1.93033054e-01 -4.55369294e-01 3.70271839e-02 -4.18250501e-01 1.49013445e-01 -3.71181607e-01 -9.23638195e-02 -6.91418499e-02 -3.93614560e-01 2.29172520e-02 -1.38286129e-01 -7.16369078e-02 -2.69145787e-01
7.28473306e-01 -3.11579090e-02 -2.44944707e-01 1.70539662e-01 8.42986852e-02 -4.80013430e-01 -7.38456920e-02 3.33096445e-01 3.31388324e-01 -2.64426255e+00 1.18324183e-01 1.58467561e-01 3.77507687e-01 -1.65108168e+00 1.23197794e-01 3.04064155e-01 1.35030687e-01 2.30796218e-01 -2.32734963e-01 -1.34552568e-02 5.02928138e-01 -2.06864223e-01 -3.39897245e-01 -5.14485054e-02 -3.42821032e-01 -1.90613896e-01 -5.57866842e-02 -1.77618295e-01 2.81198531e-01 1.09644838e-01 -1.01728491e-01 -1.98857158e-01
-9.06706870e-01 1.65663198e-01 9.34248641e-02 1.08252794e-01 -2.03971192e-01 -3.32839578e-01 1.15311074e+00 -8.07723030e-02 -1.15132833e+00 7.42904902e-01 -7.69049227e-01 7.21969232e-02 1.79891244e-01 6.99310824e-02 -7.25310624e-01 7.99915314e-01 6.19317770e-01 3.89520705e-01 2.09468901e-01 2.90432237e-02 -4.97413754e-01 5.71541965e-01 5.45000136e-01 9.43632364e-01 -5.89075923e-01 5.12766600e-01 -6.27913535e-01 5.07348120e-01 7.67147660e-01 -4.67754871e-01 9.10666138e-02 1.63369596e-01
-5.15139103e-01 6.26330256e-01 -7.37463906e-02 -1.18259668e-01 6.06936157e-01 1.39548346e-01 -2.99004391e-02 4.94526774e-01 -2.95884490e-01 4.60112274e-01 9.09246057e-02 -1.83664337e-01 1.96180388e-01 1.75371617e-01 -5.51221848e-01 -2.34974280e-01 -7.06632361e-02 -3.72301042e-02 4.08775210e-01 -3.75610918e-01 -1.15041249e-02 -3.01665455e-01 5.76664926e-03 -5.23291707e-01 9.76836085e-02 -2.20871121e-01 -5.40815830e-01 -5.20497859e-01 1.44234031e-01 -3.41050863e-01 -2.51275063e-01 -2.55745292e-01
-1.88402817e-01 1.88850567e-01 4.73854125e-01 3.71428609e-01 -3.13469052e-01 -2.47145057e-01 -6.33408576e-02 5.03840437e-03 2.82426655e-01 -3.85704160e-01 -5.73346436e-01 -8.81778523e-02 -2.78952539e-01 -2.27346167e-01 1.01678431e-01 5.49084187e-01 -1.27822742e-01 1.71760887e-01 2.71851629e-01 1.53351873e-01 1.29529849e-01 -7.38775015e-01 1.87599003e-01 1.32927373e-01 2.53567725e-01 1.46643907e-01 2.08373852e-02 -5.76609969e-01 -2.53442228e-01 -1.04085848e-01 1.19268186e-01 -2.28976324e-01
-7.97427893e-01 4.66936946e-01 -6.59067750e-01 -1.00516164e+00 -1.39455676e-01 -2.28092223e-01 -3.50559860e-01 4.20693040e-01 9.57643837e-02 4.47021604e-01 -4.54818569e-02 1.79178566e-01 1.77428395e-01 2.75724173e-01 -1.49687398e-02 1.17574990e+00 6.87545598e-01 1.27628946e+00 -8.30857396e-01 7.24665001e-02 5.76368272e-01 -7.94765174e-01 -6.41653836e-01 4.11320716e-01 -1.51416704e-01 -4.35949892e-01 2.82734394e-01 2.34570175e-01 5.79985499e-01 -8.09810817e-01 2.17717454e-01 -2.57337242e-01
1.41693488e-01 -5.30115008e-01 -4.08489630e-02 -1.31349340e-01 -6.09062672e-01 5.26456118e-01 9.88305882e-02 -4.58600968e-01 4.88180101e-01 9.02311265e-01 -2.43087083e-01 1.36468962e-01 5.66030145e-01 3.94367397e-01 7.91913737e-03 -1.04378355e+00 -4.37355757e-01 -1.04708433e+00 6.23546280e-02 2.28683770e-01 2.10708320e-01 3.75898212e-01 1.92348376e-01 1.37621313e-01 2.53718585e-01 1.19813770e-01 -4.27057743e-01 -2.07836866e-01 -2.55109966e-01 -3.54225487e-01 4.54300553e-01 3.28547329e-01
-5.22126704e-02 -9.63669598e-01 3.61390650e-01 1.59048462e+00 1.17732026e-01 8.93596634e-02 -1.34980127e-01 -2.68461704e-01 -2.10111797e-01 2.26971015e-01 1.09414697e+00 -9.97048676e-01 -1.10972095e+00 -3.86340052e-01 1.88646570e-01 -1.32842913e-01 -1.20204890e+00 5.48627019e-01 6.32260144e-01 -7.25424170e-01 8.65428030e-01 1.86282173e-01 1.07591050e-02 2.35200450e-02 -1.49226068e-02 -5.12912333e-01 2.11301953e-01 4.75801528e-02 -8.85913372e-01 1.26868081e+00 -6.27059281e-01 -2.03621835e-02
-6.53675139e-01 -1.19619057e-01 3.45442444e-01 5.75776175e-02 -1.10621527e-01 1.67634800e-01 2.06105247e-01 9.41783637e-02 -3.67814988e-01 -3.08702737e-01 -9.92008448e-01 3.18222076e-01 5.40924728e-01 1.00324377e-02 1.16238922e-01 -3.14371675e-01 4.20303285e-01 -2.52518266e-01 -1.26496613e-01 -2.68900365e-01 -7.10333943e-01 2.07365930e-01 -2.89792940e-02 -7.57569432e-01 2.70070165e-01 6.79741740e-01 -1.89242586e-01 -2.82220878e-02 -3.40132743e-01 -3.01245242e-01 -2.53140539e-01 -1.11978196e-01
-2.56170034e-01 -3.57451349e-01 -1.83358103e-01 -1.39077052e-01 -1.77946225e-01 -6.76613450e-02 2.65577018e-01 2.45268434e-01 -6.67374909e-01 1.37011886e+00 -1.45318374e-01 -8.89943764e-02 -5.14838219e-01 5.14299989e-01 -1.45380393e-01 4.21868637e-02 1.30048795e-02 2.07416296e-01 6.75765099e-03 -1.93807691e-01 2.15250850e-01 1.27894238e-01 3.19766670e-01 4.76614274e-02 4.39997539e-02 -7.49559402e-02 -1.75899953e-01 2.00845897e-01 2.38233015e-01 3.21746886e-01 -5.53399958e-02 1.05157778e-01
-4.95851859e-02 -3.66961449e-01 5.38485497e-03 -1.26275405e-01 -3.25580746e-01 4.53691721e-01 -2.13231936e-01 -4.19988364e-01 8.19220915e-02 -4.12953079e-01 8.13172944e-03 4.63697314e-01 2.24725023e-01 4.44541514e-01 3.23880315e-01 -5.28735042e-01 -4.71402049e-01 -1.22885048e+00 -5.71556538e-02 -3.09664816e-01 -1.22165330e-01 8.73495281e-01 4.43550080e-01 5.85417092e-01 -4.34237778e-01 1.63720340e-01 1.04948543e-01 -2.49020681e-01 -3.65702420e-01 -2.85241306e-01 -1.09590501e-01 -1.11415498e-01
2.88720690e-02 -2.96592191e-02 1.41162604e-01 -8.52590650e-02 1.77916795e-01 -1.10947572e-01 5.29913269e-02 -3.40331942e-01 -1.41399220e-01 3.83658588e-01 1.53289884e-01 1.76624000e-01 7.33686909e-02 -2.95348436e-01 -8.66549388e-02 -2.90798217e-01 7.40650222e-02 1.00037284e-01 -1.38172626e-01 -5.39765418e-01 1.48154572e-01 -1.75487518e-01 -1.60808668e-01 -4.23041955e-02 -1.67411678e-02 2.04205573e-01 -5.66904768e-02 1.30377719e-02 1.11743823e-01 7.52363503e-02 3.42955478e-02 8.16755369e-03
4.39630561e-02 -6.16202056e-01 -2.62239277e-01 7.33895361e-01 2.96090301e-02 -3.89566690e-01 1.75152108e-01 -8.48769099e-02 -6.34496152e-01 2.85987568e+00 -5.80484509e-01 9.55171764e-01 6.85761452e-01 7.61422515e-01 8.72722387e-01 5.52581429e-01 4.38288562e-02 5.56444287e-01 4.71417904e-01 4.00289446e-01 2.64687568e-01 1.84244990e-01 -4.66201901e-02 1.04198778e+00 -3.80631424e-02 1.83895707e-01 -3.37636739e-01 2.38758564e-01 1.28420725e-01 1.20853707e-02 1.30196166e+00 2.29958668e-02
-1.40113682e-01 1.94576815e-01 1.12770326e-01 7.81022757e-02 1.48675041e-02 -2.98500769e-02 2.00715521e-03 1.28825977e-01 1.34377116e-02 -2.75500473e-02 1.66883126e-01 7.34315887e-02 9.01166201e-02 -3.90498564e-02 1.57823980e-01 1.79644912e-01 5.41494898e-02 -1.86473072e-01 -3.64709124e-02 8.17130953e-02 -1.58803746e-01 -6.51094168e-02 -4.80869152e-02 2.32945010e-02 -4.86775607e-01 -2.28348792e-01 5.05688637e-02 -1.07455723e-01 -6.05333261e-02 -5.28605059e-02 2.31356379e-02 -4.39451247e-01
-1.39831938e-02 -7.99680352e-02 -6.56972006e-02 2.65416186e-02 -2.17827722e-01 2.84773409e-02 -2.03945935e-02 1.76692963e-01 5.92266619e-02 -5.12818322e-02 -1.24190282e-02 -2.13394463e-02 -6.46689460e-02 3.43884751e-02 -6.07784837e-02 2.22239688e-01 -1.06208719e-01 -1.40173733e-01 3.13825766e-03 3.22347492e-01 -2.42045075e-01 -1.13465354e-01 -1.61830708e-02 -5.19295549e-03 1.47802206e-02 -9.27469432e-02 -6.22517988e-02 -6.54950589e-02 -5.22726849e-02 5.39290681e-02 1.72226597e-02 -9.09382477e-03
8.51441324e-01 -2.86989480e-01 3.20279956e-01 3.53676021e-01 -4.01652932e-01 2.01976020e-02 -5.90155423e-01 -1.42150028e-02 7.13458180e-01 8.60171244e-02 -1.71041280e-01 3.33348028e-02 4.28197049e-02 2.53990948e-01 7.59319246e-01 -8.10344398e-01 -4.70534265e-01 -8.20089519e-01 6.10122621e-01 -2.82016128e-01 -7.47137725e-01 2.15037405e-01 -1.12925254e-01 2.20802695e-01 7.88958848e-01 -4.46510836e-02 2.37898514e-01 -1.22582018e-01 -5.64550757e-01 2.40056559e-01 1.03877284e-01 9.86991897e-02
1.57098249e-01 -4.13283110e-01 -2.76866227e-01 4.10024375e-01 1.86736107e-01 -6.01179361e-01 3.87284122e-02 -3.10647171e-02 2.85109997e-01 -2.67244607e-01 -2.33580679e-01 4.51461643e-01 3.48113447e-01 -2.83484757e-01 2.55096942e-01 -6.53541803e-01 -3.36098105e-01 -7.98775494e-01 5.44572473e-01 -4.05677468e-01 -2.45217532e-01 -6.65730610e-02 3.64266485e-01 6.54376864e-01 -1.02100365e-01 -3.25176924e-01 4.43235427e-01 -6.64100051e-02 -1.20411560e-01 -4.18532789e-01 9.23339128e-02 1.90174952e-01
2.81901583e-02 4.61165933e-03 7.53647327e-01 1.07114129e-01 -1.29061866e+00 -3.15075874e-01 2.23720834e-01 -1.36938512e-01 7.58650005e-01 6.42544627e-01 -1.29266873e-01 -3.97016257e-01 1.00398669e-02 6.18357122e-01 -2.14521065e-02 -2.64982796e+00 -2.57498115e-01 -3.10933471e+00 1.80218250e-01 2.73891892e-02 -7.74878144e-01 6.66191697e-01 1.88982606e-01 1.47831559e-01 2.37305075e-01 1.17655888e-01 3.37352186e-01 1.40388578e-01 -1.57001689e-01 -7.74484694e-01 -6.11770332e-01 1.70509160e-01
-1.51830643e-01 -2.27414727e-01 -2.78541118e-01 -2.82051057e-01 -2.12267801e-01 5.33690512e-01 1.49429366e-01 -1.12236440e-01 -1.35945678e-01 3.33059430e-01 -1.96556136e-01 1.71467975e-01 5.78468889e-02 -2.90194571e-01 -1.45215988e-01 -4.17442769e-01 3.28436315e-01 -5.73118269e-01 -2.87577838e-01 5.48751876e-02 -3.75377804e-01 3.75713617e-01 -1.36816949e-01 3.43717515e-01 3.50765765e-01 -5.12443006e-01 4.83926356e-01 9.09794495e-02 5.58643527e-02 1.30529612e-01 -9.64541808e-02 5.19347936e-02
4.05687541e-01 6.91352427e-01 6.86309397e-01 -4.07368213e-01 1.58354774e-01 1.72511160e-01 2.12604865e-01 -9.14086774e-02 -8.50508869e-01 1.01706994e+00 -2.91924536e-01 -2.37740427e-01 -4.31243718e-01 1.15207398e+00 1.48208007e-01 1.76467746e-01 3.58245261e-02 -9.25975204e-01 2.65836298e-01 -2.76848525e-01 4.70199026e-02 7.08621442e-01 -1.53015688e-01 -3.92954081e-01 6.08548880e-01 -7.63848603e-01 4.86548007e-01 -5.01784794e-02 -3.20389390e-01 -6.06660843e-01 -6.77530235e-03 -4.21130985e-01
-8.09688121e-02 -4.52415973e-01 2.48861551e-01 -1.86086163e-01 -2.65343785e-01 1.82455793e-01 1.51744306e-01 -2.57946640e-01 -5.05415499e-01 -2.74954349e-01 -1.13939986e-01 5.74482046e-03 -8.61009136e-02 5.06207943e-01 5.89727402e-01 2.82798439e-01 2.38336459e-01 -4.80363250e-01 5.04829083e-03 1.43791378e-01 -1.90546975e-01 3.39041203e-01 -3.09086442e-01 1.60224020e-01 -1.43530667e-02 -2.48052731e-01 3.92003894e-01 6.78673327e-01 -3.65524322e-01 -4.66403961e-01 3.58032078e-01 2.89931327e-01
-1.25963521e+00 1.02210119e-01 1.39589131e-01 -1.31455183e+00 -9.80707183e-02 -6.47267848e-02 1.82674304e-01 5.50115883e-01 1.00010395e-01 3.74450177e-01 -9.86222923e-01 7.08405435e-01 1.09509110e+00 3.32137078e-01 -6.45522118e-01 3.45426291e-01 5.82250178e-01 -3.81164670e-01 -3.12417805e-01 1.05525005e+00 -5.33851087e-01 -3.00226837e-01 -3.31491381e-01 -8.26914310e-02 6.19026840e-01 1.00376856e+00 8.53278160e-01 5.97014546e-01 5.09455383e-01 -1.03343463e+00 1.71561435e-01 2.02918977e-01
-1.02303661e-01 9.54471976e-02 3.18498552e-01 -4.76446226e-02 3.15113664e-01 -1.05956361e-01 -1.50873475e-02 3.19217294e-02 -4.30849642e-02 1.96960017e-01 2.38783602e-02 1.73512213e-02 -1.09217726e-02 -1.18783392e-01 7.45092854e-02 -1.24593511e-01 7.32067153e-02 6.23317473e-02 1.10625606e-02 -4.27208543e-01 1.43304482e-01 -9.47600231e-02 1.19369226e-02 6.19245693e-03 1.44154206e-01 -1.71704665e-02 7.31600448e-02 1.46764934e-01 3.77115086e-02 -8.78485292e-02 -2.71569658e-02 5.77330440e-02
-1.25066489e-01 2.37766489e-01 3.33426476e-01 -1.60312027e-01 1.82394758e-01 1.16238728e-01 7.05618441e-01 3.27929676e-01 8.36986452e-02 -1.16451156e+00 -3.86716664e-01 5.74860811e-01 6.97120845e-01 -2.72039443e-01 -4.67104107e-01 9.45041925e-02 4.95103151e-01 -2.30932176e-01 -4.24310118e-02 -5.04273236e-01 9.20299947e-01 -2.48748153e-01 2.77673770e-02 -1.26683092e+00 -1.91290885e-01 5.54716349e-01 -1.03291118e+00 -8.08356822e-01 3.06360126e-01 -1.56073242e-01 4.23022639e-03 -1.53406844e-01
6.56202853e-01 -3.06649059e-01 -2.63334751e-01 4.43214566e-01 -1.61055833e-01 -7.99977854e-02 -1.68307871e-01 -2.04626128e-01 5.72771907e-01 -1.22965798e-01 -1.04650013e-01 -5.37977964e-02 7.49507308e-01 -3.54927599e-01 3.57287318e-01 -6.12473190e-01 -3.04925609e-02 -6.72124088e-01 5.64335227e-01 -7.51955807e-02 -3.18376482e-01 1.01135984e-01 1.42602965e-01 1.51574686e-01 1.79176498e-02 -2.19460458e-01 7.98155725e-01 4.47628438e-01 -3.84122103e-01 3.39803368e-01 1.52492464e-01 2.41886914e-01
-2.10617572e-01 3.11656058e-01 -1.82121515e-01 -5.49922176e-02 -5.47010720e-01 -2.15206295e-01 1.18577421e-01 4.67493057e-01 -7.83053115e-02 -5.63782692e-01 -1.93885446e-01 7.49121839e-03 -3.32823157e-01 1.94272891e-01 2.76196510e-01 -1.82367042e-01 -1.08402841e-01 2.60759830e-01 1.24411620e-02 3.64633858e-01 -2.54499048e-01 -5.60658686e-02 -3.02306041e-02 -4.70351018e-02 -1.04543447e-01 -9.34556127e-02 2.63096690e-01 -2.68078297e-01 1.14979237e-01 -2.29444122e-03 3.12115289e-02 1.52662829e-01
8.25401023e-02 -5.00977039e-01 -1.00412205e-01 -1.27927214e-01 -4.42789569e-02 -1.82688028e-01 -7.67580643e-02 -1.61373585e-01 -3.90017301e-01 4.17150378e-01 -3.12794037e-02 1.01958133e-01 3.74849021e-01 2.75663286e-01 -1.84420437e-01 -5.79153359e-01 -1.74096346e-01 -9.73653793e-02 -9.73576773e-03 9.38729197e-02 4.93452698e-02 -2.79073603e-02 5.58056891e-01 1.16505204e-02 -3.56144488e-01 2.55286753e-01 3.18714708e-01 9.44848880e-02 -6.04332462e-02 1.02856308e-01 -7.58126825e-02 -2.28228927e-01
1.08637869e+00 5.76434173e-02 -6.28795207e-01 2.04011515e-01 2.33104080e-01 4.43578288e-02 4.29477751e-01 1.09349087e-01 -2.51052022e-01 -9.90303040e-01 -8.14853609e-01 1.35275519e+00 7.25030527e-02 -9.63737607e-01 2.49626040e-01 5.88397682e-01 9.05693993e-02 4.43569183e-01 -8.95354152e-02 1.67186856e-01 -1.56661451e+00 -4.51820433e-01 -8.51784468e-01 -2.66846031e-01 -3.49094123e-01 1.13660831e-03 2.58128941e-01 5.23552477e-01 -7.22173527e-02 6.42101839e-02 -1.15543760e-01 4.22522426e-01
-9.56732705e-02 9.05366763e-02 -1.00016129e+00 -3.54223028e-02 2.99252629e-01 3.14487785e-01 1.81673959e-01 -4.40391945e-03 -7.45552480e-02 4.86380249e-01 -3.90782207e-01 -1.16715348e+00 3.43359709e-01 3.74362946e-01 -3.65697831e-01 7.17292786e-01 -6.67574853e-02 1.40142608e+00 -4.01813716e-01 7.76677951e-02 2.06846744e-01 -1.70893565e-01 -4.50857654e-02 6.91343665e-01 -2.95487344e-01 7.40882039e-01 -6.04670048e-02 -1.86008230e-01 7.60162994e-02 1.50894284e-01 6.72393441e-01 -5.05187847e-02
-1.10375723e-02 3.87487054e-01 -1.77766383e-01 -6.32003784e-01 -3.50864828e-02 7.27103055e-01 2.88853288e-01 8.07497561e-01 3.22343826e-01 2.97190756e-01 9.36706722e-01 -2.46633053e-01 1.00873560e-01 1.95772082e-01 3.52561474e-02 -6.54168189e-01 3.32747489e-01 -2.35159192e-02 -3.30400020e-01 -4.99786645e-01 -4.46934476e-02 -2.30739132e-01 2.33897299e-01 1.15353756e-01 -1.97148070e-01 1.91706628e-01 1.93955246e-02 -4.05081958e-02 -5.46082675e-01 2.37485215e-01 -1.96792662e-01 8.64650160e-02
7.38950670e-02 2.20585372e-02 -1.32110789e-01 5.67344530e-03 -4.32218201e-02 4.59259152e-02 2.75396425e-02 7.74719715e-02 -1.70981418e-02 -4.82756309e-02 -5.28343506e-02 -3.88916999e-01 2.46771753e-01 2.23687813e-01 8.47075693e-03 1.00516878e-01 7.59929940e-02 -6.18795715e-02 1.12548672e-01 2.45619461e-01 1.36160150e-01 2.75554001e-01 -9.24145617e-03 2.16272578e-01 -1.05518602e-01 -2.85966724e-01 -1.79801777e-01 -1.90606311e-01 -3.08622777e-01 -1.44934729e-01 2.60351896e-02 -2.66745239e-01
3.94434750e-01 2.60648020e-02 5.63785434e-01 4.08533096e-01 2.63269365e-01 4.34649259e-01 9.39964592e-01 -3.60679120e-01 7.97837079e-01 -3.60446312e-02 -5.96552253e-01 1.47259951e-01 -5.33144414e-01 -3.77540231e-01 -2.89845485e-02 1.05125070e-01 -5.88131607e-01 -5.45920730e-01 2.84019053e-01 -4.78100553e-02 -7.17447251e-02 5.76590896e-01 1.97902575e-01 6.77112937e-01 4.69402224e-02 -1.44570008e-01 -2.22484127e-01 1.61807686e-01 1.97949454e-01 4.28265929e-01 -8.31185132e-02 -2.07715798e-02
-3.04853529e-01 -5.82673073e-01 1.55420041e+00 6.99231178e-02 -8.91771913e-01 -1.45082116e-01 -1.14522088e+00 -9.69262421e-01 2.18134493e-01 1.08962739e+00 5.91591187e-03 -4.65500236e-01 -2.75787473e-01 1.12703991e+00 6.68844223e-01 -1.94685495e+00 1.01288982e-01 -2.67504764e+00 1.77412677e+00 8.04847062e-01 -5.37287712e-01 1.73533154e+00 -3.93522710e-01 2.48230457e-01 3.94199044e-01 -6.73172355e-01 -2.71773458e-01 3.40306431e-01 1.99274436e-01 2.73151696e-02 8.33479881e-01 1.00181893e-01
5.98001759e-03 -1.94331333e-02 6.72497377e-02 4.27177027e-02 4.22592580e-01 4.30363975e-03 -1.73029285e-02 1.98735837e-02 2.84882765e-02 -1.88706908e-02 -1.94934681e-02 -7.68203810e-02 1.02017835e-01 -2.34191995e-02 7.79817870e-04 -3.93085852e-02 3.08854273e-03 -1.72810778e-02 -8.52024108e-02 8.90861452e-02 1.32570639e-01 7.01870173e-02 9.47758835e-03 3.20688705e-04 -1.37921020e-01 -1.44885004e-01 1.71202123e-02 3.69816393e-01 -5.04672453e-02 -5.62062413e-02 -1.62265673e-02 -2.40021482e-01
-3.74271095e-01 -1.03007490e-02 -1.30714580e-01 -9.40579474e-02 -1.58983082e-01 5.47391456e-03 -1.47611052e-01 7.09561229e-01 -1.89840659e-01 -1.06743127e-01 -1.90409347e-01 7.05567360e-01 5.20946264e-01 2.72204816e-01 2.84086913e-01 2.31354848e-01 -1.59171745e-01 1.34342313e-01 -1.73474938e-01 -4.78878664e-03 -1.26467273e-01 -6.17293000e-01 -1.08866900e-01 -2.34011576e-01 -3.26543778e-01 -1.51009098e-01 -6.31036818e-01 3.91277879e-01 -2.42448762e-01 -2.71011174e-01 -2.37285182e-01 5.01768649e-01
-1.80762541e-02 -1.88301370e-01 6.96557641e-01 2.14145929e-01 -7.45661259e-01 2.46145800e-01 3.12728405e-01 -5.79646170e-01 5.10289013e-01 3.37449253e-01 -1.41538754e-01 4.59269524e-01 -5.12956381e-02 1.20407611e-01 1.80274889e-01 -2.14851022e+00 1.28809452e-01 -1.16304052e+00 6.68898448e-02 2.07431898e-01 -4.97094952e-02 2.65039504e-01 2.51371622e-01 1.16719402e-01 -1.40262887e-01 -4.94623333e-01 -1.22103781e-01 -2.35182270e-01 -3.87520999e-01 -5.28045475e-01 4.24844950e-01 -3.86426836e-01
-1.77542731e-01 -2.09516138e-02 -1.92862719e-01 1.48135632e-01 6.75795786e-03 -1.93734542e-02 2.88595051e-01 -1.84458062e-01 -6.54982328e-01 1.60893166e+00 -3.79301637e-01 -6.43136352e-02 -2.69658566e-01 1.26293766e+00 -1.73572764e-01 1.26756579e-01 -2.28259421e-04 1.52192548e-01 -1.33049235e-01 -2.98462242e-01 5.00861108e-02 1.90174699e-01 1.77405402e-03 -1.77156776e-01 -1.03024796e-01 7.63236135e-02 4.25677240e-01 4.18000638e-01 2.01561078e-01 -4.63586956e-01 2.61121154e-01 -1.30511329e-01
-1.89096749e-01 -2.71356404e-01 6.16134107e-01 5.23537934e-01 -1.24712944e-01 -2.96772450e-01 -1.02517521e+00 1.29451200e-01 2.04463318e-01 5.07981896e-01 1.33506089e-01 -1.05620027e-01 7.42267892e-02 2.62957245e-01 -1.69258073e-01 4.40225601e-01 -5.00558764e-02 1.77160069e-01 -1.78063616e-01 -3.89963239e-01 1.00297713e+00 3.54445159e-01 4.32192117e-01 -5.35079002e-01 1.02586923e-02 -1.35897687e-02 -1.63335413e-01 1.92627996e-01 -1.22180261e-01 3.76598209e-01 -9.48788300e-02 -2.70833611e-01
1.38480556e+00 -3.82170916e-01 4.41866755e-01 9.82923031e-01 -3.55018914e-01 1.41095728e-01 -6.40337646e-01 -6.39724016e-01 4.48709279e-01 -8.51298153e-01 -2.84266412e-01 7.51751602e-01 -1.24729800e+00 -1.73404187e-01 6.64583564e-01 -4.00279522e-01 -9.46614742e-02 -4.55973297e-02 7.62357414e-01 7.36468196e-01 1.91582859e-01 -4.72443998e-01 -2.07461667e+00 -4.95798349e-01 4.00589377e-01 5.28321922e-01 -8.01003039e-01 -1.68556258e-01 -2.02671722e-01 1.25675488e+00 -5.47733068e-01 7.62017164e-03
-1.74915995e-02 1.76807001e-01 -4.45215851e-02 -4.58329283e-02 -1.67150930e-01 -3.06733213e-02 3.72065715e-02 -4.36977036e-02 -5.25756255e-02 -1.74062718e-02 4.20118645e-02 9.63712335e-02 8.26627314e-02 -4.35145684e-02 1.63147315e-01 -1.44401193e-01 9.93551165e-02 1.75485343e-01 -2.32753064e-02 -2.75740445e-01 1.33733213e-01 3.82589512e-02 -7.40277907e-03 -2.77662221e-02 -3.02422673e-01 -4.15076800e-02 2.31721327e-02 -7.00391158e-02 -1.85484979e-02 -4.91233263e-03 -1.64990630e-02 -2.21853957e-01
1.14118353e-01 2.99769819e-01 1.62382519e+00 4.42294031e-01 -1.20055521e+00 1.51979074e-01 -1.93176866e-01 -5.57491899e-01 8.44374359e-01 5.02343535e-01 1.97041616e-01 -3.64506394e-01 -8.90100598e-01 9.23619688e-01 1.64421014e-02 -3.38628936e+00 -2.56919891e-01 -4.51378107e+00 3.75360519e-01 1.03336006e-01 -1.21091628e+00 9.71956134e-01 3.48212034e-01 1.96751893e-01 1.86753929e-01 -1.53032452e-01 -5.28924704e-01 6.53655946e-01 -1.79386213e-01 -1.20266872e-02 -1.10910282e-01 3.59929651e-02
-7.98565567e-01 1.81507453e-01 1.37661010e-01 -7.47739196e-01 -2.13674959e-02 -1.69030368e-01 -2.03659415e-01 5.04451334e-01 -7.65027255e-02 -9.86889843e-03 1.10540628e-01 -2.92075485e-01 4.45068002e-01 4.29809928e-01 -3.93027157e-01 -2.96020776e-01 2.04585478e-01 -2.26508945e-01 -3.58865619e-01 1.76244110e-01 7.43912905e-02 7.07134128e-01 2.28487715e-01 -2.49748603e-01 -1.09277442e-01 3.27625990e-01 -7.15364397e-01 9.31690708e-02 7.52685145e-02 -5.68533361e-01 -1.52922690e-01 -7.62721658e-01

layers.2.bias:
-1.39514005e+00
-8.54713678e-01
6.88982964e-01
-5.72075427e-01
2.73762226e-01
-3.82165879e-01
2.65838325e-01
2.18896508e+00
5.97422540e-01
8.56956601e-01
-9.28433836e-01
-1.40508807e+00
-3.85299385e-01
9.67671990e-01
-4.34981108e-01
-6.93893492e-01
-6.76985234e-02
-8.20489526e-01
3.07792276e-01
-8.16605538e-02
-1.81473717e-01
8.20977092e-01
9.07307088e-01
-1.56867877e-01
-3.52607042e-01
1.07607901e+00
-1.04842424e+00
-1.07277489e+00
5.31383872e-01
-1.13900340e+00
1.78161800e-01
-4.38131951e-02
8.18492770e-01
1.13230824e-01
-3.42634708e-01
-2.70070173e-02
-1.35235071e-01
1.39360189e+00
1.04818106e+00
-1.21711522e-01
1.02382815e+00
-2.07767755e-01
-5.97436070e-01
1.37978423e+00
2.44571403e-01
-1.00341570e+00
1.06835914e+00
-3.39332074e-01
8.56231332e-01
1.84505963e+00
2.56057203e-01
3.21583927e-01
1.07826754e-01
-6.73318207e-01
1.82960272e-01
-3.21264602e-02
8.41831028e-01
-1.01511300e-01
-6.66607022e-02
-7.17430353e-01
7.25673735e-01
6.46597743e-02
-2.64688820e-01
7.30678082e-01

layers.4.weight:
3.52800757e-01 9.99719650e-02 -5.86225279e-02 2.17038859e-02 6.28785267e-02 1.24954507e-01 -5.00210263e-05 -7.62685537e-01 1.33614138e-01 -3.97039115e-01 6.92969188e-02 9.74230707e-01 -1.75891030e+00 -1.60939172e-01 -6.79864825e-05 -1.43858397e+00 -2.45565461e-04 8.54285955e-02 -3.79853435e-02 -2.50198664e-05 -2.19262615e-02 -6.16213158e-02 -4.98302393e-02 2.29730621e-01 -5.91395311e-02 -5.55372238e-02 3.98442969e-02 8.31281543e-01 -3.82543594e-01 3.99077386e-01 -2.48360559e-02 -1.12204768e-01 -3.07720378e-02 9.79662640e-04 9.65193957e-02 -1.37179770e-04 -1.35229813e-04 -2.11238220e-01 -5.03728092e-02 3.13481480e-01 -4.72331606e-02 3.18367302e-01 6.23177588e-02 -1.36019245e-01 -3.05442110e-04 1.18128531e-01 -4.72522825e-02 -1.79010109e-04 -1.03993021e-01 -7.18470156e-01 -6.27702177e-02 -8.94752811e-05 2.73854705e-04 6.44122884e-02 -1.14097095e+00 -4.20085911e-04 -2.17427835e-02 -2.94201016e-01 -3.94438431e-02 6.77809194e-02 -5.05545661e-02 -1.06782118e-05 8.74408662e-01 -3.00113000e-02

layers.4.bias:
-1.14409077e+00

