layers.0.weight:
3.31696361e-01 -5.67613244e-01 7.97264636e-01
5.69172144e-01 -8.09445798e-01 -5.80563486e-01
-8.31293464e-02 -6.13938749e-01 -5.77727258e-01
-1.07055378e+00 1.15616508e-01 4.58123112e+00
2.67282110e-02 4.11940843e-01 1.16166264e-01
-5.79876065e-01 8.58121514e-01 -1.84879377e-01
-1.31842160e+00 4.86020595e-01 -9.88645032e-02
-6.01682402e-02 7.88846374e-01 -9.23566997e-01
6.03414774e-01 -9.26082134e-01 5.12713566e-02
-1.11527514e+00 5.86289167e-02 -1.64189592e-01
7.53551662e-01 -9.85680073e-02 1.41279221e+00
-7.16238439e-01 -1.31785080e-01 -1.29353356e+00
-4.30584475e-02 7.12955832e-01 -1.57757306e+00
-1.16726887e+00 2.10410804e-02 5.00053525e-01
-6.46977663e-01 1.09646142e+00 7.52028525e-01
-1.81771189e-01 9.48456824e-01 1.64468549e-02
5.46070874e-01 -6.33792400e-01 -1.45019031e+00
-1.15504665e-02 1.12846863e+00 1.84981868e-01
8.07071701e-02 -9.54183042e-01 5.35116851e-01
3.41117471e-01 -1.28724232e-01 -8.64976227e-01
2.23475501e-01 1.65966094e-01 -5.10879010e-02
-3.24195027e-01 -2.56797969e-01 -1.00232065e+00
-4.64660525e-01 1.65601885e+00 -4.46076952e-02
-1.56447518e+00 4.06930357e-01 1.75152493e+00
1.05132234e+00 3.79940838e-01 -7.78481364e-01
2.59609371e-01 6.71772659e-01 -1.17486012e+00
-1.16151750e-01 -2.13369340e-01 1.90187418e+00
-3.97779703e-01 -2.44972542e-01 1.92939892e-01
3.22416067e-01 7.57217348e-01 -1.46468067e+00
-1.04933763e-02 4.65525806e-01 1.70563948e+00
-2.89658904e+00 2.84448242e+00 -1.78299040e-01
-1.26738083e+00 -5.19488692e-01 1.02004325e+00

layers.0.bias:
8.77201200e-01
4.81547834e-03
-1.42384720e+00
-6.34384930e-01
7.07518518e-01
-2.04255387e-01
-3.54310095e-01
2.86240637e-01
-7.45998621e-01
-1.59115899e+00
1.64644122e-01
1.80825554e-02
2.46107668e-01
-1.21306002e+00
-2.90836543e-01
1.43946290e+00
9.34610724e-01
1.82654703e+00
-6.68276668e-01
5.78918040e-01
-1.44309163e-01
-1.35729384e+00
1.02535832e+00
-7.05530941e-02
1.36946186e-01
5.60703695e-01
8.80503118e-01
-1.57881156e-01
-4.88352716e-01
7.31267482e-02
8.91685039e-02
-6.70209900e-02

layers.2.weight:
-3.64889830e-01 1.99839115e-01 9.09934714e-02 -5.08698106e-01 -3.57595906e-02 3.84069569e-02 8.24725255e-02 -3.89409661e-02 -1.13916643e-01 2.80499220e+00 6.59113377e-02 7.62679651e-02 -1.98622897e-01 2.38151932e+00 -1.41274825e-01 4.23375964e-01 -5.63682243e-02 6.41272783e-01 1.18818499e-01 -2.52645791e-01 2.68016726e-01 -5.25547452e-02 -5.17146647e-01 5.83374083e-01 -9.73485932e-02 6.38004601e-01 -8.14439893e-01 -1.61722630e-01 -1.86566964e-01 -2.39896908e-01 -1.05786450e-01 2.58642375e-01
-9.44970399e-02 1.45690739e-01 -8.47826064e-01 4.59045470e-02 -3.91120195e-01 1.52830586e-01 -7.37013876e-01 -4.86304641e-01 5.64565361e-01 6.93851292e-01 3.39372635e-01 -2.74267912e-01 2.49750152e-01 -9.70382616e-02 -2.94951141e-01 1.79839849e-01 -3.40449661e-01 3.36205661e-01 -4.27879572e-01 -5.60400598e-02 6.69784486e-01 -1.21202148e-01 -4.05987769e-01 -5.11706509e-02 6.38361182e-03 -7.24318847e-02 -3.32179427e-01 -5.68985224e-01 7.16680586e-02 -2.25342616e-01 -1.61466151e-02 1.83689341e-01
3.86347100e-02 9.16258097e-02 -2.55166627e-02 -6.66907072e-01 -6.99850261e-01 -1.05806760e-01 -5.72401583e-01 2.41122812e-01 5.62989056e-01 6.51511431e-01 -4.58717674e-01 -1.81741029e-01 7.66181871e-02 -4.98490259e-02 -1.67479187e-01 -1.04088390e+00 2.48639535e-05 -7.12559521e-01 -8.23782384e-03 5.52684367e-01 -3.91418338e-01 -3.26070219e-01 3.09417725e-01 -1.48417354e+00 -3.99230301e-01 3.38447124e-01 -1.08563972e+00 -1.62137151e-01 3.42489541e-01 -2.93743193e-01 2.94484315e-04 3.14516395e-01
2.41805732e-01 -1.13302268e-01 3.98389064e-02 1.33961749e+00 7.16139197e-01 3.92466992e-01 6.66483402e-01 -2.28963777e-01 -1.77541897e-01 -4.51892875e-02 1.54196262e-01 -5.66262715e-02 -5.68785667e-01 1.55097678e-01 6.40023828e-01 1.28150439e+00 -3.55488211e-01 1.08247483e+00 2.88483024e-01 -1.01065516e+00 -6.50030553e-01 -1.53647318e-01 3.88457954e-01 1.48684382e+00 4.15445209e-01 -5.25243759e-01 4.92016256e-01 -8.55669826e-02 -6.59557223e-01 -1.51186764e-01 -1.65905897e-02 6.10114671e-02
1.80477947e-01 -1.90541923e-01 2.45097756e-01 -4.55001533e-01 2.61301198e-03 -4.13029492e-01 -1.27465749e+00 1.35974437e-01 5.77178538e-01 -6.60484791e-01 4.26835120e-01 -7.40343750e-01 8.09036195e-01 -8.91692996e-01 -2.54953980e-01 -9.72209811e-01 -2.27991864e-01 -9.94945645e-01 -5.40894903e-02 -5.55304363e-02 7.88457334e-01 -5.69862485e-01 1.14047430e-01 -3.48438859e-01 -8.85577798e-01 6.39050901e-01 9.56723243e-02 -5.19906223e-01 -2.93417960e-01 6.00126505e-01 -4.00807738e-01 1.45622253e-01
-2.75913537e-01 1.95400938e-01 3.82785767e-01 1.40134498e-01 -1.10123789e+00 -3.36802661e-01 -3.75975296e-02 3.00513208e-01 4.11946148e-01 6.97756112e-02 5.82362711e-01 4.10559535e-01 -5.45114167e-02 1.91357255e-01 -2.71777451e-01 -1.34227467e+00 -3.65422010e-01 -1.52524161e+00 7.50860393e-01 -2.68865824e-01 -6.44907892e-01 -5.43263927e-02 -8.23275506e-01 -3.25816542e-01 1.32741377e-01 1.07825898e-01 1.22365355e-01 1.14679337e+00 -1.18232369e-01 -4.66855407e-01 -3.71851861e-01 2.49605969e-01
1.10489177e-02 -1.09618213e-02 -2.17903808e-01 -9.20767896e-03 -1.36807382e-01 1.74263999e-01 -9.73130018e-02 -4.24775600e-01 -1.03053935e-01 2.44532242e-01 2.87117243e-01 7.24897459e-02 2.87009895e-01 -2.15317830e-02 4.75862157e-03 -2.64060825e-01 2.14464422e-02 9.94063690e-02 -6.06814725e-03 -3.13183725e-01 -3.90989423e-01 9.97145474e-02 5.73480241e-02 3.92575115e-02 1.57568917e-01 2.57826328e-01 -3.60459238e-01 -4.20596570e-01 -1.56247348e-01 7.23554641e-02 -1.89772993e-02 1.39755547e-01
3.33839953e-01 1.36673465e-01 -3.89521360e-01 3.57634217e-01 2.48621479e-01 -6.67871892e-01 1.12033643e-01 4.90235746e-01 8.35299790e-02 -3.23841631e-01 -1.24542803e-01 9.55253780e-01 3.12674165e-01 -5.72841704e-01 -2.02902228e-01 1.65109932e-01 5.20750999e-01 1.65191203e-01 2.54689008e-01 5.01340091e-01 -1.43819606e+00 -8.98694813e-01 1.39010966e-01 2.86727697e-01 2.07225651e-01 7.47284889e-01 6.04515254e-01 5.12632132e-01 -5.88617504e-01 4.95840162e-01 1.63520485e-01 -2.62170255e-01
9.67684165e-02 2.84523398e-01 -6.23372972e-01 -2.37217873e-01 1.45292032e+00 -4.46348906e-01 -5.79196870e-01 -3.42241943e-01 -6.90961897e-01 1.78813666e-01 5.03683507e-01 1.82570338e-01 6.70357704e-01 -3.14613432e-01 5.98971024e-02 2.18001437e+00 3.27000082e-01 1.60510409e+00 -5.76234758e-01 -1.24509059e-01 1.60180628e-01 -3.33781332e-01 5.84779307e-02 2.46368870e-01 9.16293636e-02 3.78794074e-01 6.73922002e-02 -5.18247411e-02 -1.35094775e-02 1.81265667e-01 2.15191793e+00 -3.32521349e-01
-6.18720591e-01 1.17205650e-01 -1.07070021e-01 -5.23459852e-01 4.46066290e-01 1.59971900e-02 -9.09075141e-02 3.76169115e-01 4.19943124e-01 -1.78721726e-01 1.37153445e-02 2.31167868e-01 1.85286716e-01 1.87673643e-01 -3.58721912e-01 -6.01969779e-01 3.41647446e-01 -3.75092328e-01 -4.18695122e-01 -1.65480394e-02 -6.28161430e-01 -2.32010588e-01 1.08980946e-01 -9.66298431e-02 -2.00086474e-01 -9.06149298e-02 -1.75144121e-01 2.05861196e-01 2.66055822e-01 1.64216369e-01 1.31682023e-01 -4.22319910e-03
1.21564344e-01 -3.00137460e-01 -4.22766432e-02 -3.61690223e-01 -7.04017401e-01 -2.99188495e-01 -1.68877825e-01 1.13709182e-01 4.05725509e-01 3.88795942e-01 -5.29696286e-01 -1.13554098e-01 8.51648211e-01 -2.84271926e-01 -2.24095166e-01 -3.76541644e-01 -6.14494920e-01 -1.30955267e+00 1.05902642e-01 -2.93852687e-02 9.67182755e-01 -2.30288401e-01 -8.55234683e-01 1.93759590e-01 -3.97398025e-01 -7.89318010e-02 -4.28600132e-01 -3.29447299e-01 1.41029611e-01 -3.99196535e-01 8.73071253e-02 6.63318455e-01
-8.23217630e-02 8.07630420e-02 1.66861713e+00 -8.56857777e-01 -9.06127095e-01 1.03382759e-01 -1.40471861e-01 -4.14095551e-01 8.80128503e-01 1.76709604e+00 6.57745823e-02 -1.88629776e-01 2.76110649e-01 3.22584844e+00 -1.08090214e-01 -1.18252754e+00 3.59137654e-01 -2.76398730e+00 6.00448012e-01 -3.25933486e-01 2.58530468e-01 5.79766512e-01 -3.06764692e-01 8.72951627e-01 -8.74405801e-02 -5.69980621e-01 3.11679631e-01 -9.83501896e-02 8.25799778e-02 4.51579839e-02 -3.45051251e-02 -3.31101030e-01
-6.07784927e-01 -1.39497086e-01 9.13831770e-01 4.08768892e-01 -6.52972937e-01 5.92641294e-01 2.31404398e-02 -9.25855756e-01 3.56193483e-01 4.96324360e-01 2.13355109e-01 1.68792367e-01 -5.04002333e-01 -1.21130742e-01 4.26284313e-01 -4.28798437e+00 -8.85769129e-02 -6.05156231e+00 5.90039670e-01 -1.00113952e+00 -7.23330259e-01 4.31890666e-01 5.98286450e-01 -8.31816494e-02 -2.78279096e-01 -2.39057153e-01 -3.57681572e-01 6.57515466e-01 -6.28298521e-01 -3.31113964e-01 -1.03037059e+00 -2.47819081e-01
1.92839224e-02 -1.53301314e-01 -6.20005131e-01 -5.84964119e-02 -1.88560247e-01 -4.48668189e-02 2.15202421e-01 3.35689634e-01 3.63937408e-01 -2.11483598e-01 5.42141616e-01 -2.13382348e-01 3.26385260e-01 -8.40246677e-01 -3.41220409e-01 -9.17304307e-02 -2.57504046e-01 1.90187171e-01 -1.02059774e-01 1.14621133e-01 -2.18663272e-03 -1.41601115e-01 4.09424715e-02 -2.16627181e-01 -1.30542293e-01 7.53094912e-01 -1.53848960e-03 3.41884978e-02 -1.80670321e-01 2.67078906e-01 9.92285535e-02 3.63067985e-01
-1.00226784e+00 2.52352297e-01 -8.93588513e-02 2.95813262e-01 -3.56307020e-03 6.51841581e-01 -3.78180653e-01 -4.84660417e-02 4.27292287e-01 -1.76590845e-01 -7.96920300e-01 2.77291238e-01 2.00549185e-01 -3.70570332e-01 -3.16690743e-01 -6.22673273e-01 2.74439216e-01 -5.29691577e-01 -4.82798100e-01 3.62896919e-01 1.33742988e+00 9.67710376e-01 -3.57574187e-02 1.57346204e-01 -3.67237508e-01 1.55597493e-01 -6.36444449e-01 3.26576307e-02 8.77407968e-01 -2.89968729e-01 -9.19044986e-02 1.37834340e-01
-5.49410343e-01 -5.24858274e-02 6.28254786e-02 1.37524813e-01 -2.79243916e-01 2.75505930e-01 -9.38226759e-01 -9.20991153e-02 1.03888772e-01 5.22473812e+00 5.66603363e-01 4.24509227e-01 2.16682002e-01 2.66792345e+00 -2.35023629e-02 -4.33939360e-02 -4.28249121e-01 -1.34171948e-01 5.47363125e-02 -2.05418140e-01 -6.96843028e-01 4.09847409e-01 2.13889018e-01 2.73702383e-01 -3.90306592e-01 -4.28627312e-01 -6.30697727e-01 3.33803385e-01 -1.23462863e-01 -6.58349335e-01 1.78457245e-01 -2.44175479e-01
-1.30976159e-02 1.45805687e-01 -7.03174472e-02 3.32395993e-02 1.81257613e-02 6.27324544e-03 3.66213806e-02 -5.64072765e-02 4.70906263e-03 -1.81800544e-01 7.05117211e-02 3.95852998e-02 4.84966598e-02 9.82202962e-02 1.06059738e-01 1.22689391e-02 4.06945758e-02 1.86622795e-02 -1.10046118e-02 1.11348286e-01 2.64483541e-01 1.10565692e-01 -5.51533885e-03 2.45230179e-02 6.32708222e-02 2.34523378e-02 5.52596487e-02 2.58504659e-01 1.25244856e-02 -1.98723655e-03 1.11435736e-02 2.16023698e-02
1.75200164e-01 -1.22512586e-01 -6.30666196e-01 4.06183340e-02 2.67787009e-01 -2.02635944e-01 -1.45849392e-01 -3.10496897e-01 2.36389890e-01 -6.76582813e-01 4.61568385e-02 -2.31467839e-03 2.09259450e-01 6.23086616e-02 -7.94233531e-02 3.27964336e-01 -2.98048556e-01 5.72393954e-01 -1.32222489e-01 9.25769389e-01 2.00554773e-01 9.15001482e-02 -4.48699802e-01 -1.26916468e-01 -1.91636264e-01 -4.36093897e-01 8.37266386e-01 -4.29844111e-01 2.15784445e-01 3.02692950e-01 -4.73809913e-02 2.68585324e-01
-2.87272185e-01 -9.56088081e-02 -2.80864418e-01 -2.23936573e-01 3.41069341e-01 2.45820861e-02 1.74418837e-01 1.34738818e-01 4.16009665e-01 -4.09056365e-01 -1.79180667e-01 -8.91741574e-01 4.89966959e-01 -1.27498403e-01 -1.72539711e-01 6.15782030e-02 -1.60716534e-01 2.09916666e-01 1.37841210e-01 -9.54464227e-02 -2.13175789e-02 -1.73558518e-01 4.76354539e-01 -3.01535636e-01 2.30702952e-01 2.08541691e-01 -1.93895906e-01 3.61177325e-01 6.41441569e-02 3.31806421e-01 4.21877444e-01 1.27522528e-01
5.99340834e-02 1.76393792e-01 -8.61686189e-03 6.92467913e-02 -5.45121394e-02 1.06408454e-01 -2.45712362e-02 -7.91731179e-02 5.64142577e-02 6.85504228e-02 6.72652051e-02 1.16043545e-01 -6.64677396e-02 -7.22296908e-02 1.21168934e-01 4.53050315e-01 6.54367581e-02 -3.06532860e-01 4.07098122e-02 -9.49362963e-02 -1.14720210e-01 -1.31037295e-01 2.64542107e-03 -3.11372820e-02 3.76239084e-02 1.27270490e-01 5.63805969e-03 1.08775757e-02 1.04169481e-01 1.41723771e-02 -1.41962338e-03 4.00378779e-02
5.92893124e-01 -1.11290149e-01 6.57609403e-01 5.20021319e-01 -2.27965057e-01 -3.36272597e-01 -7.15032041e-01 -1.34841219e-01 -2.29495943e-01 -9.15816605e-01 -1.04276985e-01 9.79104936e-01 4.99086440e-01 -4.76104856e-01 7.01907337e-01 5.80898046e-01 -4.62201387e-02 -2.25080669e-01 5.18227875e-01 4.84689504e-01 -4.98848438e-01 7.57656693e-02 4.23724711e-01 1.51215002e-01 1.14890538e-01 -3.65954667e-01 8.57694373e-02 3.28829288e-01 -1.31807342e-01 -9.10018384e-02 6.67126058e-03 4.09820676e-01
2.71510482e-01 -1.08285911e-01 1.97251011e-02 1.84910253e-01 5.66530079e-02 1.36811629e-01 9.40927148e-01 3.82425971e-02 4.64074403e-01 2.42488429e-01 3.70814919e-01 3.37181240e-01 -4.31318760e-01 -5.12559354e-01 8.77135321e-02 -1.01701617e+00 -8.10356066e-02 -6.83910251e-01 -4.63466793e-02 -4.77094710e-01 -5.46965122e-01 -3.66257690e-02 2.53917843e-01 -1.51373970e-03 3.75784338e-02 -4.56024051e-01 -6.70546830e-01 4.75794315e-01 -1.37376979e-01 -1.53855801e-01 2.47174919e-01 -2.05969196e-02
1.42314192e-02 -4.19269912e-02 -2.72505850e-01 4.20336425e-01 5.06946295e-02 4.20588911e-01 2.70784378e-01 -2.45877311e-01 -2.87085384e-01 3.51511508e-01 5.14101498e-02 3.39131616e-02 4.27927703e-01 4.57315892e-01 -1.16141148e-01 -6.18237317e-01 5.28316855e-01 -1.33578390e-01 -1.13481926e-02 -2.54029632e-01 -1.82660758e-01 3.87598015e-02 -3.03492635e-01 1.70508727e-01 -2.32917368e-01 -1.05873518e-01 -4.65489998e-02 -7.36204803e-01 9.15690213e-02 -9.62879509e-02 -1.21005755e-02 -3.90203416e-01
7.77882516e-01 -5.12952730e-02 -2.61866242e-01 1.62356585e-01 1.71948150e-01 -4.87836272e-01 -4.28996272e-02 3.21032643e-01 2.77046293e-01 -2.62577724e+00 1.06138811e-01 1.66892171e-01 3.83686185e-01 -1.63147974e+00 1.56172141e-01 3.44235539e-01 1.37755588e-01 2.52154410e-01 -2.15449974e-01 -3.03164241e-03 4.82774228e-01 -2.08498403e-01 -3.17786217e-01 -4.32904959e-02 -3.74019295e-01 -1.92281127e-01 -6.14858419e-02 -1.53911307e-01 2.15931505e-01 1.03071235e-01 -9.48063433e-02 -1.72553241e-01
-9.13764060e-01 1.67107716e-01 2.89392900e-02 1.07868098e-01 -7.15760812e-02 -3.34131747e-01 1.12450218e+00 -1.42782964e-02 -1.06743121e+00 7.63215542e-01 -7.46193945e-01 5.42787649e-02 1.86955348e-01 7.45046213e-02 -7.23679662e-01 8.14994156e-01 6.17731869e-01 5.58583975e-01 -2.99289078e-01 2.69430690e-02 -2.73200959e-01 4.57753211e-01 5.19922376e-01 9.43636239e-01 -5.14417350e-01 5.29601336e-01 -6.33065522e-01 1.17196284e-01 8.70933115e-01 -4.67471033e-01 8.61169919e-02 1.13600895e-01
-5.47320664e-01 5.81043124e-01 -4.02646624e-02 -1.42122537e-01 5.39240003e-01 1.70496821e-01 -6.06643921e-03 5.20728409e-01 -3.27028900e-01 4.91491705e-01 6.68080971e-02 -1.59497216e-01 2.20416740e-01 2.21282437e-01 -5.19870818e-01 -3.02453756e-01 -1.55109897e-01 -1.15151212e-01 3.84770900e-01 -4.02023911e-01 -1.59133528e-03 -2.73709238e-01 3.20537761e-02 -5.00796139e-01 6.94463924e-02 -2.00342715e-01 -5.65178216e-01 -4.97516841e-01 1.72709942e-01 -3.66201341e-01 -2.13069066e-01 -2.28416860e-01
-1.02655567e-01 3.64735842e-01 4.92765963e-01 2.96218097e-01 -3.18616658e-01 -3.73856246e-01 -1.39037341e-01 2.61066705e-02 3.33421260e-01 -5.14289796e-01 -6.51830852e-01 -1.49819418e-03 -2.11154595e-01 -4.72811759e-01 -4.99359071e-02 5.96353292e-01 5.97766601e-02 1.44966215e-01 2.93042153e-01 3.13597411e-01 -4.03239913e-02 -6.94944978e-01 6.73648119e-02 5.74732013e-02 2.15591669e-01 2.09992230e-01 -4.66530062e-02 -4.86653000e-01 -2.49077797e-01 -1.87970266e-01 -3.34927887e-02 -1.95124671e-01
-7.98229635e-01 4.48941857e-01 -6.41949892e-01 -9.92786825e-01 -1.79324210e-01 -2.17005223e-01 -3.62949550e-01 3.83824199e-01 9.54797491e-02 4.45516855e-01 -4.28746007e-02 1.72387674e-01 1.62328556e-01 2.87620544e-01 4.18674201e-03 1.14443898e+00 6.72734618e-01 1.23730981e+00 -7.38881528e-01 5.92001900e-02 5.55208325e-01 -7.73293853e-01 -6.22676611e-01 4.21387851e-01 -1.43730253e-01 -4.52352613e-01 2.95715868e-01 2.77663976e-01 5.47886431e-01 -7.97286868e-01 2.27041081e-01 -2.74859905e-01
1.61271274e-01 -5.29036939e-01 -3.53746451e-02 -1.12991743e-01 -6.45998716e-01 5.21845758e-01 9.71946567e-02 -4.64236140e-01 5.09167254e-01 8.94746482e-01 -2.14052200e-01 1.10944174e-01 5.49318671e-01 3.96440625e-01 2.20150920e-03 -1.03869987e+00 -4.55700994e-01 -1.04111183e+00 2.86102165e-02 2.09909722e-01 2.44161829e-01 3.50437701e-01 1.98826253e-01 1.43288970e-01 2.43923590e-01 1.03077039e-01 -4.08837318e-01 -2.55258888e-01 -2.55603522e-01 -3.36147577e-01 4.08614814e-01 3.48375499e-01
-4.05207202e-02 -9.67592597e-01 3.49343359e-01 1.60215056e+00 1.44512489e-01 8.00626501e-02 -1.42701343e-01 -2.79142261e-01 -2.09190622e-01 2.16026351e-01 1.10521865e+00 -1.00651634e+00 -1.12123048e+00 -3.90665650e-01 1.84068531e-01 -5.85679337e-02 -1.22590005e+00 6.03050768e-01 6.39058650e-01 -7.99093306e-01 8.27704847e-01 1.74799114e-01 4.61970130e-03 1.56768799e-01 -1.26095176e-01 -5.23399293e-01 2.23142162e-01 1.21328801e-01 -8.97540629e-01 1.28165495e+00 -6.34026289e-01 3.24245580e-02
-7.78652370e-01 -2.25324199e-01 4.52237993e-01 1.99520707e-01 -5.60627282e-01 2.91313320e-01 3.23840410e-01 -8.20466876e-02 -4.97804999e-01 -1.90866113e-01 -9.12991762e-01 2.01971158e-01 3.97903115e-01 1.14424258e-01 2.19078973e-01 -4.54605818e-01 2.98990816e-01 -6.25478983e-01 2.67887980e-01 -4.11881268e-01 -9.87896562e-01 3.98904443e-01 6.72428831e-02 -6.52999640e-01 1.33051574e-01 5.25855362e-01 -4.61090580e-02 2.06701130e-01 -5.14447451e-01 -1.56513065e-01 -1.50993124e-01 3.91177125e-02
-2.95621306e-01 -3.83113891e-01 -1.84527189e-01 -1.34219959e-01 -1.87932417e-01 -2.97804549e-02 2.61803985e-01 2.52337903e-01 -6.84123516e-01 1.36239660e+00 -1.37894616e-01 -9.95484963e-02 -5.18268049e-01 5.15538096e-01 -1.14651024e-01 4.35006395e-02 8.17795881e-05 1.84790954e-01 -1.49838477e-02 -2.03667805e-01 2.22661525e-01 1.25110805e-01 3.78020644e-01 5.09640723e-02 4.99314554e-02 -7.41622299e-02 -1.72555074e-01 1.89242408e-01 2.69728720e-01 3.27310920e-01 -1.29181379e-02 1.04029521e-01
-6.92498088e-02 -4.19094890e-01 8.62614997e-03 -1.04506582e-01 -3.72555465e-01 4.64895129e-01 -1.31849393e-01 -4.25763369e-01 2.02550218e-02 -3.93761992e-01 2.51058489e-02 4.47063446e-01 2.05327347e-01 6.15377903e-01 3.53980124e-01 -5.17252386e-01 -5.35077453e-01 -1.23998427e+00 -5.30261658e-02 -3.64071101e-01 -1.24375850e-01 8.72159183e-01 4.43059206e-01 6.20452285e-01 -4.72653180e-01 1.39241785e-01 1.26026765e-01 -1.98062465e-01 -3.77399653e-01 -2.63699859e-01 -1.20111115e-01 -7.98384100e-02
2.59512644e-02 -5.73084913e-02 1.39065832e-01 -9.12824348e-02 2.29467794e-01 -1.02469645e-01 1.81683917e-02 -3.34818572e-01 -1.65040985e-01 3.51569802e-01 1.38706520e-01 1.81080058e-01 7.90740550e-02 -3.10547650e-01 -6.13168776e-02 -2.91453779e-01 5.97866438e-02 1.27967104e-01 -1.58953935e-01 -5.43433547e-01 1.38056844e-01 -1.52386382e-01 -1.25534594e-01 -2.78073009e-02 -1.89293195e-02 2.09040508e-01 -6.20917194e-02 3.26865017e-02 1.01576135e-01 7.00652376e-02 -1.38563719e-02 -1.09002998e-04
7.43434206e-02 -5.91399848e-01 -2.24320933e-01 7.48692751e-01 -1.42670140e-01 -4.34952974e-01 1.87765777e-01 -1.21325821e-01 -4.22076434e-01 2.93000150e+00 -5.70703685e-01 9.60718095e-01 6.67336404e-01 8.27647328e-01 8.48243952e-01 3.14029247e-01 3.06887776e-02 3.15092176e-01 5.18221915e-01 3.76558721e-01 2.57420540e-01 1.77928820e-01 -1.21107526e-01 1.04549491e+00 -2.58851908e-02 1.54652253e-01 -3.21584195e-01 2.59698957e-01 8.23761523e-02 2.48703659e-02 1.29533064e+00 2.54643569e-03
-1.10355623e-01 1.64540619e-01 1.11872569e-01 7.23134130e-02 7.01469332e-02 -3.79513130e-02 1.89129859e-02 1.13726936e-01 6.75529242e-03 -2.83842459e-02 1.66712180e-01 8.29319805e-02 9.25190225e-02 -3.31231556e-03 1.74346223e-01 1.84607729e-01 4.26543504e-02 -1.40517622e-01 -2.05298923e-02 9.91408154e-02 -1.57652974e-01 -6.34454191e-02 -3.04146037e-02 -1.06307743e-02 -4.59366769e-01 -2.22404733e-01 4.59441133e-02 -1.38982907e-01 -6.97960407e-02 -5.71169779e-02 1.22770444e-02 -4.61432785e-01
5.69854816e-03 -7.70513937e-02 -4.84936684e-02 2.36053020e-02 -2.28411406e-01 2.32320745e-02 -4.02104221e-02 1.65600702e-01 7.19142109e-02 -3.93151380e-02 -9.05764475e-03 -2.07743105e-02 -6.42012954e-02 5.13151549e-02 -6.95175678e-02 2.15015665e-01 -1.15105025e-01 -1.06048062e-01 1.55903883e-02 3.32191408e-01 -2.47319922e-01 -1.02087684e-01 9.10441484e-03 -1.17931142e-02 1.13568678e-02 -9.05916020e-02 -6.45956099e-02 -6.80552870e-02 -5.06651551e-02 5.15035056e-02 2.65527852e-02 1.87316246e-03
8.59145939e-01 -2.84391254e-01 3.89467806e-01 3.52986217e-01 -5.75962126e-01 3.89333139e-03 -6.13701165e-01 -4.27198969e-02 7.66373038e-01 6.30712956e-02 -1.88029498e-01 4.19802256e-02 4.09327969e-02 2.39865363e-01 7.60027349e-01 -1.07320952e+00 -4.71779197e-01 -1.05426145e+00 8.47046494e-01 -2.83590198e-01 -7.70444870e-01 2.58836806e-01 -1.43611073e-01 2.17872649e-01 7.83274233e-01 -4.79759723e-02 2.37742588e-01 -8.16085376e-03 -5.94082057e-01 2.39430413e-01 1.05578855e-01 1.20633088e-01
1.09100603e-01 -4.43145156e-01 -2.20593035e-01 4.06832576e-01 9.07094032e-02 -5.73901236e-01 1.21016517e-01 5.25213778e-03 2.33381227e-01 -2.26544380e-01 -2.33672857e-01 4.52158719e-01 3.54409188e-01 -2.48038426e-01 2.88395584e-01 -6.63273513e-01 -3.72103482e-01 -9.02746856e-01 4.09215033e-01 -4.31549072e-01 -2.28071600e-01 -4.15214486e-02 3.84754360e-01 6.81776643e-01 -1.63774282e-01 -3.22619379e-01 4.38427031e-01 -3.36337835e-02 -8.58081505e-02 -4.20326889e-01 9.29497704e-02 2.61348635e-01
5.68741821e-02 4.85503599e-02 7.31056452e-01 1.15411714e-01 -1.26278722e+00 -3.60743761e-01 2.00000837e-01 -1.54264405e-01 7.56605923e-01 5.72709799e-01 -1.05956316e-01 -4.32420760e-01 5.97353966e-04 6.34620965e-01 -7.18033388e-02 -2.61708474e+00 -2.44397119e-01 -3.08901668e+00 2.06410468e-01 2.15684436e-02 -8.22562456e-01 6.46753848e-01 1.35730743e-01 1.83668062e-01 1.65180877e-01 1.00851998e-01 3.47287714e-01 2.17701063e-01 -1.94464773e-01 -7.68232286e-01 -7.04706430e-01 2.20598057e-01
-1.85986981e-01 -2.47526020e-01 -2.65481323e-01 -2.70090342e-01 -2.53435135e-01 5.57990015e-01 1.40853688e-01 -1.06847577e-01 -1.17754728e-01 3.58782202e-01 -1.80314735e-01 1.42331734e-01 4.86159548e-02 -2.68399268e-01 -1.29240066e-01 -4.97578353e-01 2.96588212e-01 -6.01414144e-01 -2.92951345e-01 1.70509554e-02 -3.21586847e-01 3.77730697e-01 -1.30067557e-01 3.55259299e-01 3.68445873e-01 -5.22006989e-01 4.92828906e-01 4.92244177e-02 6.79263249e-02 1.44777939e-01 -9.79191363e-02 4.13797460e-02
4.93753850e-01 7.06551492e-01 6.68988824e-01 -4.08573151e-01 2.00237080e-01 1.22895040e-01 1.66717246e-01 -1.09073892e-01 -8.05065215e-01 9.40801144e-01 -2.92468190e-01 -2.33524486e-01 -4.32199419e-01 1.12301850e+00 1.33046657e-01 1.62978843e-01 4.35903184e-02 -9.03233767e-01 2.97585815e-01 -2.68268317e-01 3.01164165e-02 6.93659782e-01 -1.73787206e-01 -4.00021940e-01 6.38430238e-01 -7.60340214e-01 4.85666990e-01 -5.25248908e-02 -3.18639189e-01 -6.08574033e-01 -1.54207628e-02 -4.56800491e-01
-7.84883201e-02 -4.35649365e-01 2.15353355e-01 -1.87235221e-01 -2.05521181e-01 1.78928822e-01 1.77589521e-01 -2.65160203e-01 -5.27260125e-01 -2.69039333e-01 -1.19138815e-01 1.94646902e-02 -8.62976015e-02 4.71087843e-01 5.68664551e-01 3.43870789e-01 2.50696748e-01 -4.50878859e-01 7.76941609e-03 1.58939660e-01 -2.14017913e-01 3.24292541e-01 -3.20263207e-01 1.60157308e-01 -1.25326309e-02 -2.48561069e-01 3.92291069e-01 6.81593597e-01 -3.70974660e-01 -4.67656791e-01 3.08361083e-01 2.89883018e-01
-1.27088070e+00 6.98020607e-02 1.29664063e-01 -1.30661702e+00 -8.17666054e-02 -2.65738834e-02 2.14558557e-01 5.77390790e-01 6.53133839e-02 4.04592067e-01 -9.96178865e-01 7.12883830e-01 1.10136533e+00 3.69101256e-01 -6.08448625e-01 3.17979962e-01 5.53294837e-01 -3.74495327e-01 -3.47503245e-01 1.03193212e+00 -5.35459578e-01 -3.07672977e-01 -2.94900358e-01 -8.52050632e-02 6.05070591e-01 1.01065290e+00 8.60803127e-01 6.03933692e-01 5.03245652e-01 -1.02443194e+00 2.10460678e-01 2.21070692e-01
-1.02934740e-01 8.41775760e-02 3.04513723e-01 -4.91037183e-02 3.39599192e-01 -1.01564199e-01 -1.83456559e-02 3.36729176e-02 -3.73848639e-02 1.99884713e-01 1.68700106e-02 2.45314576e-02 -9.33687948e-03 -1.28368497e-01 9.23831984e-02 -1.37281939e-01 8.72866809e-02 4.39834334e-02 8.60869233e-03 -4.21647072e-01 1.37763232e-01 -9.96102840e-02 2.29571876e-03 1.45241600e-02 1.43022463e-01 -1.73128545e-02 7.23666772e-02 1.50033563e-01 3.01455893e-02 -8.99081975e-02 -5.76868188e-03 5.04418276e-02
-9.17856544e-02 2.60362774e-01 2.70862609e-01 -1.37718782e-01 3.46582860e-01 8.18564668e-02 6.77490294e-01 3.03260356e-01 1.03996478e-01 -1.20572054e+00 -3.64024282e-01 5.51885009e-01 6.74236059e-01 -3.25508058e-01 -4.99800503e-01 3.58464777e-01 5.30542672e-01 -1.91230269e-04 -2.39480510e-02 -4.76065844e-01 9.41069365e-01 -2.84344643e-01 -3.29028349e-03 -1.29887342e+00 5.46218716e-02 5.39640248e-01 -1.00926244e+00 -9.72252905e-01 2.76684582e-01 -1.28396332e-01 -3.12309060e-02 -2.95268208e-01
6.27895772e-01 -3.20726275e-01 -2.87253737e-01 4.55769241e-01 -9.62780118e-02 -6.13555871e-02 -8.01263228e-02 -1.75567880e-01 5.16986251e-01 -1.09529480e-01 -9.71497297e-02 -6.58511519e-02 7.41359591e-01 -3.46206605e-01 3.68104607e-01 -4.26892638e-01 -4.37840447e-02 -5.73293447e-01 3.55955243e-01 -8.99952501e-02 -3.27883720e-01 1.05620228e-01 1.59451470e-01 1.64142072e-01 -5.60216233e-02 -2.32746392e-01 8.11042309e-01 4.96410280e-01 -3.91144484e-01 3.52421075e-01 1.44761354e-01 3.35228890e-01
-2.24751070e-01 3.27178597e-01 -1.70732409e-01 -5.23394383e-02 -5.72337508e-01 -2.08522946e-01 9.86487791e-02 4.66561913e-01 -9.29959863e-02 -5.68611026e-01 -1.85489416e-01 -3.53155844e-03 -3.35471064e-01 1.96786463e-01 2.54460305e-01 -1.49242684e-01 -1.13425508e-01 2.72088140e-01 1.17191672e-02 3.62882674e-01 -2.41995737e-01 -5.26517890e-02 -6.44861534e-03 -4.88241948e-02 -1.04782559e-01 -9.44964588e-02 2.64820814e-01 -2.75810599e-01 1.23255484e-01 1.16197567e-03 2.24152533e-03 1.61876515e-01
5.50981760e-02 -5.61878383e-01 -1.09356567e-01 -9.85351801e-02 -5.70713729e-02 -1.47104934e-01 -4.09104452e-02 -1.70467108e-01 -4.06279802e-01 4.52564240e-01 -2.64580804e-03 6.88489825e-02 3.48261565e-01 3.79872859e-01 -1.36842191e-01 -6.18177056e-01 -2.33537734e-01 -9.49384645e-02 -1.03086298e-02 3.59093957e-02 8.62439796e-02 -4.43714820e-02 5.85507691e-01 4.84849885e-02 -3.69616389e-01 2.26567462e-01 3.46148968e-01 9.54511166e-02 -6.74640834e-02 1.33385852e-01 -4.96346690e-02 -2.16086224e-01
1.06300199e+00 5.16983494e-02 -6.34348691e-01 2.14448497e-01 2.17346594e-01 5.99233434e-02 4.37484056e-01 1.24505013e-01 -2.59730577e-01 -9.73290026e-01 -8.10245454e-01 1.33964360e+00 6.59958646e-02 -9.44084823e-01 2.55987823e-01 4.95370537e-01 8.75592306e-02 4.25753593e-01 -1.04907699e-01 1.62596032e-01 -1.54560244e+00 -4.49458331e-01 -8.42148960e-01 -2.84817547e-01 -3.74376476e-01 -1.27494549e-02 2.66992629e-01 5.43120205e-01 -6.82771206e-02 7.41624683e-02 -1.08232878e-01 4.59874898e-01
-6.29855320e-02 7.84380436e-02 -1.01479733e+00 -2.29126662e-02 3.46167535e-01 2.77221084e-01 4.97875437e-02 -2.55410243e-02 1.55069092e-02 4.28769946e-01 -3.71217281e-01 -1.19820166e+00 3.29467863e-01 3.44245255e-01 -3.67214859e-01 8.65723789e-01 -1.14965349e-01 1.50601697e+00 -3.77431273e-01 5.14354706e-02 2.07580671e-01 -1.86906606e-01 -9.03989226e-02 7.95019329e-01 -3.44408095e-01 7.24828959e-01 -4.69009578e-02 -1.74562871e-01 5.93547709e-02 1.64932817e-01 6.20429516e-01 -4.48104506e-03
-1.16767818e-02 3.74970466e-01 -1.73454970e-01 -6.15889132e-01 -6.50848150e-02 7.34665155e-01 2.94115752e-01 7.95184731e-01 3.11373174e-01 2.96367198e-01 9.54477549e-01 -2.68748552e-01 8.52075815e-02 2.54284173e-01 2.27222852e-02 -7.17439711e-01 2.90958613e-01 -4.26260419e-02 -3.23021173e-01 -5.34707844e-01 -4.59013060e-02 -2.32760936e-01 2.72467434e-01 1.38301522e-01 -2.39279121e-01 1.74546361e-01 3.48205492e-02 -1.82521343e-02 -5.54860175e-01 2.53245831e-01 -2.10261926e-01 1.37544900e-01
7.12270066e-02 2.43328996e-02 -1.40008897e-01 1.21588139e-02 -2.89763454e-02 5.13127521e-02 4.95187305e-02 7.51749054e-02 -2.20398419e-02 -4.90110181e-02 -5.76033108e-02 -3.82639170e-01 2.40750521e-01 2.27413461e-01 2.14567166e-02 7.94150010e-02 9.04559717e-02 -7.70760328e-02 1.06482275e-01 2.53295660e-01 1.16677217e-01 2.80219585e-01 -6.61548832e-03 2.06153110e-01 -9.45070088e-02 -2.92353779e-01 -1.73164800e-01 -1.67489842e-01 -3.18217456e-01 -1.39150992e-01 1.09824296e-02 -2.79130727e-01
4.18280840e-01 4.62582149e-02 5.52333951e-01 4.08075809e-01 3.06988031e-01 4.24069166e-01 9.61137056e-01 -3.68075043e-01 7.60164976e-01 -4.89782728e-02 -5.99348426e-01 1.51002795e-01 -5.33827305e-01 -4.52207237e-01 -3.14828679e-02 1.61779106e-01 -5.55221796e-01 -5.24344921e-01 2.84473419e-01 -2.01250613e-02 -9.69759747e-02 5.70295274e-01 2.11832002e-01 6.68253720e-01 2.46967040e-02 -1.46235019e-01 -2.20911607e-01 1.73028782e-01 1.79459766e-01 4.27588463e-01 -1.01789884e-01 4.40244330e-03
-3.79729867e-01 -5.90891004e-01 1.60032105e+00 3.17079537e-02 -9.22144055e-01 -1.04006596e-01 -1.15391195e+00 -9.10366237e-01 2.27871314e-01 1.11544454e+00 -3.53626162e-02 -4.33927178e-01 -2.34743014e-01 1.09909189e+00 6.99840009e-01 -1.98455048e+00 1.12410486e-01 -2.72317290e+00 1.68661296e+00 8.26831698e-01 -4.84809756e-01 1.78171539e+00 -3.53485525e-01 2.09872186e-01 4.17170852e-01 -6.33899391e-01 -3.10638249e-01 3.10427547e-01 2.44507253e-01 -1.03793303e-02 7.44255841e-01 8.08246955e-02
1.69044957e-02 -2.24498641e-02 5.05378246e-02 4.12228629e-02 4.22701120e-01 -3.98327457e-03 2.33417675e-02 2.02149991e-02 4.12030704e-02 -5.75375464e-03 -1.18643660e-02 -7.22439587e-02 1.03781000e-01 -4.10279445e-03 -1.46631803e-03 -6.99271411e-02 1.10517833e-02 -4.39392142e-02 -7.30501637e-02 8.71751681e-02 1.48279443e-01 3.80477943e-02 -2.46613361e-02 -3.45275109e-03 -1.28694192e-01 -1.42214984e-01 1.51958996e-02 3.36328059e-01 -4.15907614e-02 -5.87972514e-02 1.38056539e-02 -2.49551281e-01
-3.85293931e-01 2.13943794e-01 -1.39924869e-01 -7.30180070e-02 -2.04505935e-01 -3.27768773e-02 -2.75644720e-01 6.96720898e-01 2.50926521e-02 -1.22289367e-01 -1.63217768e-01 6.51294112e-01 5.00945330e-01 1.20367713e-01 1.36774674e-01 1.05218664e-01 -2.08850261e-02 1.11634098e-01 -1.42996579e-01 2.94944439e-02 -9.43625718e-02 -6.24837935e-01 -2.05478385e-01 -2.77468354e-01 -2.98023373e-01 -1.72193095e-01 -6.11179829e-01 3.55778188e-01 -2.54027814e-01 -2.51005977e-01 -2.93978512e-01 4.86301035e-01
-4.04670909e-02 -2.16195613e-01 6.58483863e-01 2.20195413e-01 -6.65508151e-01 2.90188581e-01 3.68956953e-01 -5.51329434e-01 4.98392671e-01 3.72761548e-01 -1.19441666e-01 4.46225882e-01 -5.33756502e-02 1.62219614e-01 2.05817267e-01 -2.09478617e+00 1.07147537e-01 -1.06678522e+00 9.39560961e-03 1.92271292e-01 -3.85749829e-03 2.23836586e-01 2.87923962e-01 1.21702217e-01 -1.40319392e-01 -4.92967308e-01 -1.17818557e-01 -3.00023824e-01 -3.41303110e-01 -5.20989180e-01 4.14524853e-01 -3.74666512e-01
-1.91277131e-01 -2.36914586e-02 -1.72544733e-01 1.45496473e-01 -1.38993040e-02 -3.35021596e-03 2.73878604e-01 -1.81767240e-01 -6.48599505e-01 1.61033010e+00 -3.81010026e-01 -6.55853227e-02 -2.66859114e-01 1.23135602e+00 -1.62828490e-01 9.34178680e-02 -8.49651080e-03 1.13438420e-01 -1.40599117e-01 -2.98395604e-01 6.88640326e-02 1.99489370e-01 2.93790158e-02 -1.92622423e-01 -9.44828689e-02 8.12580809e-02 4.22718912e-01 3.99396211e-01 2.17025697e-01 -4.65123564e-01 2.37132818e-01 -1.33726105e-01
-9.09313783e-02 -1.96267903e-01 5.72861850e-01 5.06623268e-01 -1.42836687e-03 -3.86606127e-01 -1.10079753e+00 1.01339936e-01 2.70710856e-01 4.16248500e-01 1.16381086e-01 -8.47351179e-02 8.60997066e-02 1.74992248e-01 -2.49753222e-01 6.04953170e-01 1.79398470e-02 3.32038045e-01 -1.00432701e-01 -3.28140318e-01 9.00657475e-01 3.47882062e-01 3.52628559e-01 -6.12807214e-01 6.84302226e-02 2.33368389e-03 -1.75790161e-01 1.89651668e-01 -1.57613799e-01 3.58186364e-01 -1.83815986e-01 -3.32178324e-01
7.91777313e-01 -3.18137527e-01 6.66567385e-01 8.48164141e-01 -6.09504223e-01 3.44101131e-01 -8.37137878e-01 -4.30742234e-01 7.83488452e-01 -7.45198905e-01 -3.93142164e-01 8.13895702e-01 -1.10402238e+00 -3.67556453e-01 6.63948834e-01 -6.55461013e-01 1.89262602e-04 -3.86343867e-01 4.38732386e-01 8.36158872e-01 4.00433153e-01 -3.14008474e-01 -1.99816298e+00 -6.48849070e-01 6.97730064e-01 6.96122348e-01 -9.46429968e-01 -4.89116102e-01 1.48723885e-01 1.13022375e+00 -6.92897916e-01 -2.32895970e-01
-2.40139458e-02 1.67848960e-01 -5.51175959e-02 -4.88164499e-02 -1.44877031e-01 -2.78960336e-02 4.73895743e-02 -4.03470956e-02 -6.44106045e-02 -2.05546040e-02 4.19272967e-02 9.28641707e-02 8.59250799e-02 -5.27313985e-02 1.68334723e-01 -1.55394509e-01 1.02411650e-01 1.64561406e-01 -2.45706178e-02 -2.77555197e-01 1.45641103e-01 3.09679992e-02 -1.68456323e-02 -2.61560287e-02 -3.05840135e-01 -3.86587754e-02 2.03684587e-02 -8.45161974e-02 -2.28079855e-02 -7.51918461e-03 -2.29541045e-02 -2.20995173e-01
2.58548670e-02 3.67024034e-01 1.64241278e+00 4.39436615e-01 -1.26376212e+00 2.27238044e-01 -2.11937875e-01 -5.08456469e-01 8.34507287e-01 6.02249742e-01 1.50532603e-01 -3.49200845e-01 -8.81133854e-01 7.65269935e-01 1.42679289e-02 -3.53087354e+00 -1.27971128e-01 -4.62854052e+00 2.93778092e-01 1.59225389e-01 -1.18396413e+00 1.02180326e+00 4.15141910e-01 1.95919752e-01 2.04560012e-01 -1.45207435e-01 -5.32943130e-01 6.26062334e-01 -1.55876935e-01 -1.83337182e-02 9.00187269e-02 1.96301546e-02
-8.11810374e-01 1.49278075e-01 1.49582788e-01 -7.23551989e-01 -8.34136158e-02 -1.49732143e-01 -2.24230126e-01 4.91703898e-01 -6.78980052e-02 -5.29424800e-03 1.31853461e-01 -3.15218568e-01 4.22679424e-01 4.57936436e-01 -3.60910833e-01 -4.09791350e-01 1.65246725e-01 -3.08503538e-01 -3.47076088e-01 1.37479141e-01 1.02532126e-01 6.99202418e-01 2.52080441e-01 -2.33782172e-01 -1.14414245e-01 3.04289311e-01 -6.93508565e-01 9.17730182e-02 7.81673044e-02 -5.43881714e-01 -1.55359536e-01 -7.45339334e-01

layers.2.bias:
-1.41572630e+00
-8.28841329e-01
7.32570887e-01
-5.58176994e-01
2.42086813e-01
-3.47465336e-01
2.50761092e-01
2.15552831e+00
5.97453535e-01
8.31465662e-01
-9.08536077e-01
-1.35686624e+00
-3.10625553e-01
8.93085122e-01
-2.71395952e-01
-7.20396757e-01
-5.79232164e-02
-7.34441221e-01
3.13573569e-01
-8.27358142e-02
-1.34004071e-01
8.15625191e-01
7.43420124e-01
-1.28203556e-01
-3.89235288e-01
1.03722668e+00
-8.95737171e-01
-1.08843839e+00
5.04734576e-01
-1.12695384e+00
5.04358597e-02
-5.21161221e-02
7.72601128e-01
1.12177424e-01
-3.57852936e-01
-9.09153279e-03
-1.37280554e-01
1.38043952e+00
9.99240220e-01
-8.43223333e-02
9.74697173e-01
-1.74542740e-01
-5.69867015e-01
1.38618231e+00
2.53439844e-01
-9.40318704e-01
1.05417728e+00
-3.52257162e-01
8.06018353e-01
1.82162738e+00
2.55513072e-01
3.04890782e-01
1.11355394e-01
-6.35006368e-01
1.26113057e-01
-1.25521068e-02
8.21787715e-01
-1.29362345e-01
-8.83394033e-02
-6.21432304e-01
5.60309470e-01
7.09436759e-02
-3.05673093e-01
6.74801469e-01

layers.4.weight:
3.22304487e-01 2.57980023e-02 -5.95655404e-02 2.53756531e-02 3.56606022e-02 1.08733892e-01 -2.62326823e-04 -7.00376153e-01 1.75952390e-01 -3.69266599e-01 4.95537966e-02 9.07133937e-01 -1.52124643e+00 -9.79762301e-02 7.87749887e-03 -1.45814538e+00 8.02714727e-04 7.66225457e-02 -2.54052266e-05 -1.31564774e-03 6.16784953e-03 -4.73813862e-02 -2.20858434e-04 2.39528909e-01 -7.10166395e-02 -3.04180700e-02 1.72291286e-02 7.75231659e-01 -3.80406439e-01 3.89781535e-01 -2.59515494e-02 -1.33359492e-01 -4.94624786e-02 -3.48023343e-04 9.44424793e-02 -1.13174831e-03 3.50534479e-04 -1.96060464e-01 -2.23352779e-02 3.22784930e-01 -3.31584993e-03 2.79624045e-01 2.04751175e-02 -1.26784474e-01 -1.21826422e-03 1.27250060e-01 -1.35611286e-02 7.95054133e-04 -1.07314616e-01 -6.55733824e-01 -7.68719614e-02 -5.55667840e-03 -5.95625141e-04 1.12605356e-02 -1.11009407e+00 -6.91090478e-04 6.80319863e-06 -2.91848511e-01 -4.85227704e-02 1.14080962e-02 -1.99643560e-02 8.03399307e-05 9.28102255e-01 -2.08039060e-02

layers.4.bias:
-1.08128500e+00

