layers.0.weight:
3.31696361e-01 -5.67613244e-01 7.97264636e-01
5.69172144e-01 -8.09445798e-01 -5.80563486e-01
-8.31293464e-02 -6.13938749e-01 -5.77727258e-01
-1.07055378e+00 1.15616508e-01 4.58123112e+00
2.67282110e-02 4.11940843e-01 1.16166264e-01
-5.79876065e-01 8.58121514e-01 -1.84879377e-01
-1.31842160e+00 4.86020595e-01 -9.88645032e-02
-6.01682402e-02 7.88846374e-01 -9.23566997e-01
6.03414774e-01 -9.26082134e-01 5.12713566e-02
-1.11527514e+00 5.86289167e-02 -1.64189592e-01
7.53551662e-01 -9.85680073e-02 1.41279221e+00
-7.16238439e-01 -1.31785080e-01 -1.29353356e+00
-4.30584475e-02 7.12955832e-01 -1.57757306e+00
-1.16726887e+00 2.10410804e-02 5.00053525e-01
-6.46977663e-01 1.09646142e+00 7.52028525e-01
-1.81771189e-01 9.48456824e-01 1.64468549e-02
5.46070874e-01 -6.33792400e-01 -1.45019031e+00
-1.15504665e-02 1.12846863e+00 1.84981868e-01
8.07071701e-02 -9.54183042e-01 5.35116851e-01
3.41117471e-01 -1.28724232e-01 -8.64976227e-01
2.23475501e-01 1.65966094e-01 -5.10879010e-02
-3.24195027e-01 -2.56797969e-01 -1.00232065e+00
-4.64660525e-01 1.65601885e+00 -4.46076952e-02
-1.56447518e+00 4.06930357e-01 1.75152493e+00
1.05132234e+00 3.79940838e-01 -7.78481364e-01
2.59609371e-01 6.71772659e-01 -1.17486012e+00
-1.16151750e-01 -2.13369340e-01 1.90187418e+00
-3.97779703e-01 -2.44972542e-01 1.92939892e-01
3.22416067e-01 7.57217348e-01 -1.46468067e+00
-1.04933763e-02 4.65525806e-01 1.70563948e+00
-2.89658904e+00 2.84448242e+00 -1.78299040e-01
-1.26738083e+00 -5.19488692e-01 1.02004325e+00

layers.0.bias:
8.77201200e-01
4.81547834e-03
-1.42384720e+00
-6.34384930e-01
7.07518518e-01
-2.04255387e-01
-3.54310095e-01
2.86240637e-01
-7.45998621e-01
-1.59115899e+00
1.64644122e-01
1.80825554e-02
2.46107668e-01
-1.21306002e+00
-2.90836543e-01
1.43946290e+00
9.34610724e-01
1.82654703e+00
-6.68276668e-01
5.78918040e-01
-1.44309163e-01
-1.35729384e+00
1.02535832e+00
-7.05530941e-02
1.36946186e-01
5.60703695e-01
8.80503118e-01
-1.57881156e-01
-4.88352716e-01
7.31267482e-02
8.91685039e-02
-6.70209900e-02

layers.2.weight:
-3.74103338e-01 2.76589215e-01 1.43742651e-01 -5.54495275e-01 -2.53099501e-01 -4.90407236e-02 8.53024870e-02 -4.45212573e-02 -8.16364679e-03 2.84914780e+00 5.87971918e-02 1.21772744e-01 -1.94632426e-01 2.39107275e+00 -3.07245642e-01 3.21538448e-01 1.65973399e-02 5.23164272e-01 1.47804514e-01 -2.24967167e-01 2.12108955e-01 1.02075543e-02 -5.80690503e-01 5.68226516e-01 -1.20911315e-01 6.42680228e-01 -8.61950755e-01 -1.06929459e-01 -1.07606076e-01 -2.96335101e-01 -2.91167855e-01 2.92649955e-01
-6.72221482e-02 1.12821221e-01 -8.37620556e-01 4.36220840e-02 -3.82250220e-01 1.40948281e-01 -7.15771019e-01 -4.61957783e-01 5.07784247e-01 6.90055192e-01 3.11887026e-01 -2.38568336e-01 2.64252871e-01 -9.97760985e-03 -2.70775318e-01 2.43268996e-01 -3.81168306e-01 3.38559687e-01 -4.70379114e-01 -7.60502517e-02 6.19324446e-01 -1.11366570e-01 -3.80488902e-01 -3.20110470e-02 1.56023004e-03 -4.59764116e-02 -3.33439648e-01 -5.13754785e-01 6.38097525e-02 -2.26577401e-01 -4.45104502e-02 1.82598844e-01
-9.85749885e-02 -6.39300719e-02 3.61654162e-02 -8.09236228e-01 -5.36413848e-01 3.28192562e-02 -4.33443964e-01 3.81711930e-01 4.09621716e-01 7.70716608e-01 -5.98369181e-01 -4.02564108e-02 2.14320928e-01 6.10749610e-02 -3.61959450e-02 -4.77739960e-01 -1.22587554e-01 -2.84319431e-01 -1.65965766e-01 4.36294883e-01 -2.60073155e-01 -2.08901569e-01 4.48817164e-01 -1.21426880e+00 -4.98999581e-02 4.97517824e-01 -1.22540188e+00 -2.22745776e-01 4.80417162e-01 -4.14872050e-01 1.44120678e-01 -8.90526474e-02
2.31195062e-01 -8.54220167e-02 1.17798671e-01 1.33118188e+00 3.74706596e-01 3.96957427e-01 6.76430106e-01 -2.30972245e-01 -1.62559822e-01 -2.49188971e-02 1.43346786e-01 -4.54320386e-02 -5.63381255e-01 1.80277839e-01 6.33758485e-01 7.49189079e-01 -3.18035156e-01 5.08591175e-01 3.10876012e-01 -9.86115396e-01 -8.36550772e-01 -1.30954221e-01 3.88796598e-01 1.44701982e+00 -5.51462770e-01 -5.48678517e-01 4.81032997e-01 3.80782068e-01 -6.54350936e-01 -1.89260229e-01 -6.14904519e-03 5.10650575e-01
1.36165440e-01 -2.77351618e-01 3.43642980e-01 -4.54855770e-01 -1.00786626e-01 -3.16941023e-01 -1.17362070e+00 1.57607451e-01 2.00770363e-01 -4.84512776e-01 4.30338681e-01 -7.40780532e-01 8.05680633e-01 -8.47798169e-01 -1.28932059e-01 -1.06319928e+00 -2.66144753e-01 -1.06284571e+00 -7.27554634e-02 -7.58217052e-02 8.37307394e-01 -5.21312892e-01 1.89335406e-01 -3.40700656e-01 -8.72489691e-01 6.43140852e-01 9.17133689e-02 -5.44639885e-01 -2.76120603e-01 5.81324041e-01 -8.84059817e-02 1.14405669e-01
-5.24075985e-01 2.09098235e-01 4.91747350e-01 1.64350450e-01 -1.16992271e+00 -1.95962116e-01 -4.77140605e-01 2.89986938e-01 4.52220738e-01 -2.24224150e-01 7.01420665e-01 1.49785370e-01 -7.76947439e-02 -2.35647783e-01 -2.52447218e-01 -1.31969225e+00 -4.11861807e-01 -1.82577848e+00 6.69224262e-01 -2.96274126e-01 -5.13432562e-01 2.96491608e-02 -4.81759459e-01 -1.72553211e-01 9.70023200e-02 6.97650090e-02 1.40544683e-01 1.04285276e+00 -1.44843727e-01 -4.06526715e-01 -1.20306659e+00 2.73704648e-01
8.86206776e-02 -3.24984454e-02 -2.84733981e-01 -4.98289289e-03 -2.62718722e-02 1.38443291e-01 -3.59855779e-02 -4.21474665e-01 -1.54410556e-01 2.35754743e-01 2.96421945e-01 7.63058066e-02 2.98031211e-01 1.49999661e-02 1.30885458e-02 -2.19183713e-01 2.02738792e-02 1.54392943e-01 -7.94793107e-03 -2.90259272e-01 -3.79116714e-01 4.64903116e-02 5.51659502e-02 -1.22603569e-02 1.90034121e-01 2.86693126e-01 -3.53807211e-01 -4.58384365e-01 -1.68180019e-01 6.86797500e-02 -2.72065401e-03 1.14026576e-01
1.36932999e-01 -4.62786481e-02 -5.90776563e-01 4.61238325e-01 6.68902278e-01 -3.42062205e-01 -6.16568848e-02 4.76469606e-01 1.07024573e-01 -5.16119063e-01 -1.58440322e-02 8.47791672e-01 2.18922317e-01 -4.98978496e-01 -2.84593254e-02 2.77697384e-01 4.02977079e-01 6.58827722e-01 -9.76594239e-02 3.87396663e-01 -1.27502513e+00 -1.03230083e+00 4.44962472e-01 5.10068774e-01 4.24795270e-01 6.92376673e-01 7.02483952e-01 3.06605488e-01 -1.50923207e-01 6.01726055e-01 3.26298296e-01 -4.74344015e-01
2.15469480e-01 3.87191415e-01 -6.51583374e-01 -2.62666553e-01 1.36268449e+00 -5.51832318e-01 -4.95259285e-01 -3.74633700e-01 -6.84367001e-01 1.90580100e-01 4.16092604e-01 2.88018495e-01 6.82363093e-01 -1.96506277e-01 -1.20857293e-02 1.86237168e+00 4.47355598e-01 1.53951156e+00 -4.75469232e-01 -3.18471789e-02 1.03570372e-01 -3.35235417e-01 -4.80067246e-02 1.42240778e-01 1.05459414e-01 3.90130013e-01 5.88642135e-02 -8.68231151e-03 -6.99354485e-02 1.18123181e-01 2.18165874e+00 -3.41111749e-01
-6.42173886e-01 1.60590321e-01 -6.65769130e-02 -5.50683975e-01 3.49945247e-01 2.91530453e-02 -9.08427387e-02 3.88367057e-01 4.81449097e-01 -1.66445196e-01 -1.43436883e-02 2.20587373e-01 2.00914845e-01 1.70739532e-01 -3.56705993e-01 -7.11639166e-01 3.50223750e-01 -4.91308868e-01 -4.25269574e-01 -1.72907598e-02 -6.25273287e-01 -2.02300563e-01 1.22398145e-01 -1.06862202e-01 -1.98039636e-01 -8.15372467e-02 -2.00289413e-01 2.20915511e-01 2.83582211e-01 1.27574399e-01 8.45859200e-02 -2.72351280e-02
-8.73710439e-02 -2.75421053e-01 -1.94608018e-01 -4.67390239e-01 -9.50098559e-02 -2.62017667e-01 -2.68635392e-01 2.97631025e-01 3.46005946e-01 2.63403267e-01 -6.28630400e-01 -1.73612125e-02 9.65631008e-01 -5.40736675e-01 -2.53222972e-01 -1.13145471e-01 -5.30164242e-01 -4.64214116e-01 -2.84089953e-01 7.20278174e-02 9.98976886e-01 -2.02000186e-01 -7.12299287e-01 -1.35900415e-02 -9.01495665e-02 7.19042197e-02 -5.43958127e-01 -5.58434308e-01 6.35505319e-01 -5.02132595e-01 -1.19085866e-03 3.64535064e-01
-2.81574309e-01 -1.79806184e-02 1.58586168e+00 -1.07891059e+00 -1.90059822e-02 3.08136046e-01 2.20521286e-01 -1.45597756e-01 -3.42235565e-01 2.06113052e+00 -1.70217350e-01 5.13394997e-02 5.05800426e-01 3.12212849e+00 -6.20269105e-02 -1.92931592e-01 4.97498274e-01 -1.34461689e+00 2.43319020e-01 -1.19539380e-01 1.10680759e-01 7.56660044e-01 -1.40010580e-01 7.02372909e-01 -1.98168248e-01 -3.23995411e-01 8.77074301e-02 5.55179431e-05 3.35110813e-01 -1.69438437e-01 3.67793500e-01 -2.17159405e-01
-5.61215162e-01 -1.45706594e-01 8.58569384e-01 3.69578063e-01 -2.99635977e-01 5.65175712e-01 9.89752710e-02 -8.79663944e-01 2.61873275e-01 5.31138659e-01 1.52723923e-01 1.97831631e-01 -4.60992694e-01 -1.19413778e-01 3.72282177e-01 -3.69904208e+00 -5.21423966e-02 -5.38352489e+00 5.44015527e-01 -8.96803975e-01 -6.99349642e-01 4.15679395e-01 5.60560465e-01 -1.96238235e-01 -2.41396978e-01 -1.79634064e-01 -3.95186990e-01 5.35634518e-01 -5.81029654e-01 -3.77996176e-01 -8.29070985e-01 -2.46963844e-01
-1.04941975e-03 -2.50543416e-01 -6.60768867e-01 -6.03898689e-02 -3.06305233e-02 4.38301675e-02 2.26331383e-01 3.58203173e-01 3.14448625e-01 -2.48680562e-01 6.02385581e-01 -2.44503200e-01 3.32522780e-01 -8.05639088e-01 -2.21453607e-01 -2.18586363e-02 -2.89725959e-01 3.36732894e-01 -1.57569587e-01 1.15301177e-01 9.55510046e-03 -1.60076976e-01 1.95289314e-01 -1.85340151e-01 -1.17351674e-01 7.67690599e-01 -4.58711758e-03 1.57452598e-02 -1.56306490e-01 2.76055425e-01 2.25728914e-01 3.46379042e-01
-9.42636907e-01 2.69841254e-01 -4.52516787e-02 2.96333551e-01 -2.08914325e-01 5.85310638e-01 -3.81648600e-01 -6.72901273e-02 4.24109817e-01 -1.98446587e-01 -7.95913041e-01 2.74195224e-01 1.98157802e-01 -4.34630781e-01 -3.32573354e-01 -6.54223621e-01 2.82044649e-01 -6.61121130e-01 -4.23123032e-01 3.68676841e-01 1.34055388e+00 9.60976779e-01 -7.84850940e-02 9.66329649e-02 -3.77081364e-01 1.50341168e-01 -6.34947538e-01 6.15127161e-02 8.21776450e-01 -2.91234970e-01 -1.15653127e-01 1.47445112e-01
-5.16362965e-01 1.69483989e-01 2.60193437e-01 -3.27079818e-02 -4.21996266e-01 1.79729193e-01 -9.71260250e-01 4.81436998e-02 2.12607011e-01 4.85984612e+00 3.90890300e-01 4.36374098e-01 3.80656242e-01 2.48720765e+00 -7.15426207e-02 -1.49195239e-01 -2.67208785e-01 -3.29245925e-01 -3.99123617e-02 -2.81458832e-02 -6.84855759e-01 5.76288760e-01 2.48579364e-02 8.27293992e-02 -3.68411511e-01 -2.75179148e-01 -7.97417462e-01 3.18475753e-01 -6.81015328e-02 -8.27159524e-01 3.60035412e-02 -2.64752090e-01
-6.90579116e-02 1.78394705e-01 -1.58684049e-03 3.37166339e-02 -1.30495697e-01 2.57481467e-02 -8.85623228e-03 -7.09808618e-02 6.43303841e-02 -1.90080434e-01 6.18564300e-02 4.99875657e-02 3.11897434e-02 1.09253980e-01 8.51188153e-02 -6.75611049e-02 3.79885845e-02 -5.83478920e-02 9.67525225e-03 8.61590952e-02 2.22048134e-01 1.55879721e-01 -1.11047467e-02 6.74117953e-02 4.18581180e-02 -8.78418516e-03 5.37545830e-02 3.25723857e-01 3.01033724e-02 3.30438535e-03 -1.19509604e-02 3.85505520e-02
2.42531985e-01 -9.07862931e-02 -6.06295049e-01 3.14436071e-02 1.62340224e-01 -2.99073398e-01 -3.41666818e-01 -2.97579259e-01 3.40438873e-01 -7.85450101e-01 2.65031774e-02 5.84046766e-02 2.30720282e-01 1.64287426e-02 -1.40388131e-01 1.52725235e-01 -2.64476657e-01 4.20931935e-01 -1.13881938e-01 9.57733154e-01 2.50381619e-01 7.66722262e-02 -5.20724118e-01 -1.40328184e-01 -6.38631284e-02 -4.01932150e-01 8.27053428e-01 -5.29188812e-01 2.57044077e-01 2.85995126e-01 -1.87661290e-01 1.25660539e-01
-2.45731145e-01 -1.24290034e-01 -4.44213748e-01 -1.84998184e-01 8.23525071e-01 5.95612861e-02 1.16687931e-01 1.26752138e-01 3.35751474e-01 -5.25187314e-01 -1.46961898e-01 -9.24847364e-01 4.58460897e-01 -2.52939343e-01 -1.42943054e-01 5.10314167e-01 -1.44323692e-01 8.12263906e-01 6.71264902e-02 -6.24718480e-02 -2.01273784e-02 -2.58460909e-01 6.07277453e-01 -2.62021720e-01 2.63025820e-01 1.91199675e-01 -1.54643685e-01 2.83885241e-01 6.95549250e-02 3.76858234e-01 5.16346276e-01 1.08894698e-01
7.62090385e-02 1.57023400e-01 -7.72146732e-02 7.46303201e-02 7.21497983e-02 1.08669378e-01 1.09162796e-02 -5.48985489e-02 -1.42484121e-02 7.39193261e-02 6.55837432e-02 1.05595924e-01 -5.32892868e-02 -1.28503591e-01 1.48991153e-01 5.05371392e-01 7.89763555e-02 -2.81577736e-01 -5.81627130e-04 -7.84691721e-02 -8.11342299e-02 -1.61521614e-01 2.34306101e-02 -6.96842447e-02 5.47204465e-02 1.52376935e-01 1.20012807e-02 -2.30908506e-02 9.19973478e-02 1.12499017e-02 5.58598666e-03 2.69088130e-02
6.22634530e-01 -1.28846198e-01 5.42293131e-01 4.86318946e-01 4.32083085e-02 -3.75647217e-01 -6.13596380e-01 -6.50369450e-02 -3.70203763e-01 -1.03440094e+00 -1.46322608e-01 1.03021061e+00 5.52967370e-01 -7.40930915e-01 6.81813300e-01 8.59124839e-01 -2.16907426e-03 6.92132637e-02 4.22355741e-01 5.42916715e-01 -5.55183291e-01 6.07028231e-02 4.72083598e-01 2.84150615e-02 5.96600249e-02 -2.92431116e-01 4.27963920e-02 3.45754981e-01 -2.47261357e-02 -1.35670736e-01 4.90091369e-02 4.80419666e-01
2.16596603e-01 -1.16982892e-01 9.12739858e-02 1.45135477e-01 -1.75391082e-02 1.62904426e-01 9.33725476e-01 8.48492533e-02 4.46869344e-01 2.80663878e-01 3.31347972e-01 3.69357049e-01 -3.92755926e-01 -5.21798790e-01 1.24306686e-01 -9.33765471e-01 -7.78368935e-02 -6.99526072e-01 -1.06451266e-01 -4.51308727e-01 -4.83426929e-01 8.73025134e-03 3.02010298e-01 -1.59226339e-02 1.09783217e-01 -4.16287661e-01 -7.11175323e-01 3.92777115e-01 -8.47222283e-02 -1.89711019e-01 2.15496793e-01 -9.69591513e-02
9.55139175e-02 1.26902714e-01 -1.11799493e-01 3.58325422e-01 -4.10435796e-01 2.39114314e-01 3.26490611e-01 -2.86272764e-01 -2.18475074e-01 3.43461663e-01 -2.66395044e-02 1.45538822e-01 4.55417216e-01 5.10132790e-01 -2.81493396e-01 -7.87809789e-01 5.88844836e-01 -6.08696342e-01 1.58181682e-01 -1.99151307e-01 -4.41156477e-01 1.10411078e-01 -5.53126752e-01 1.69624865e-01 -4.20644015e-01 -1.18320040e-01 -9.57826301e-02 -3.35623413e-01 5.73465079e-02 -1.77895561e-01 -1.49869248e-01 -2.32617334e-01
6.43758416e-01 -1.70041323e-01 -2.80803204e-01 2.74073571e-01 7.08205253e-02 -3.49309355e-01 -8.25186893e-02 2.09873661e-01 3.52982700e-01 -2.41775513e+00 2.42405936e-01 4.10560332e-02 2.48598456e-01 -1.54289317e+00 2.40616530e-01 1.79765582e-01 3.56030054e-02 1.16464436e-01 -1.74134746e-01 -1.32971466e-01 6.00667655e-01 -2.84102261e-01 -1.91692457e-01 5.81212081e-02 -3.06775898e-01 -3.27083766e-01 4.57108170e-02 -2.44423628e-01 2.47208536e-01 2.21705005e-01 -1.62637532e-01 -2.40323469e-01
-8.41278493e-01 1.10373318e-01 -1.31541431e-01 1.08278595e-01 2.95641661e-01 -2.95179605e-01 1.11994314e+00 4.37291376e-02 -1.14266860e+00 7.84672976e-01 -8.06474268e-01 1.07103437e-01 2.12391913e-01 8.67623985e-02 -6.46006227e-01 9.24206376e-01 5.75153768e-01 9.87886667e-01 1.96773391e-02 2.95988284e-02 -2.65612781e-01 3.19384903e-01 6.06051683e-01 9.45478618e-01 -4.30180728e-01 5.66741228e-01 -6.33710802e-01 -5.17897867e-02 9.20561731e-01 -4.54317361e-01 2.46955410e-01 1.99940652e-02
-6.25392675e-01 5.83631158e-01 3.91053855e-02 -2.34056056e-01 4.32214260e-01 2.30632320e-01 4.40164730e-02 5.66125810e-01 -3.06053370e-01 5.61566353e-01 6.11569732e-03 -1.01851486e-01 2.77196735e-01 2.70986527e-01 -4.95447963e-01 -3.66214603e-01 -1.58821091e-01 -2.07246512e-01 3.58260572e-01 -4.01862353e-01 7.55907819e-02 -1.97023228e-01 5.74687943e-02 -4.97500837e-01 1.56578273e-01 -1.55312181e-01 -6.43631637e-01 -4.99294192e-01 2.45800585e-01 -4.52632695e-01 -1.75034791e-01 -3.79906744e-01
-1.00390434e-01 2.19680682e-01 4.57268268e-01 3.48884106e-01 -2.68471420e-01 -3.29175740e-01 -1.76224574e-01 4.82040719e-04 3.45807195e-01 -4.45053071e-01 -6.12653792e-01 -1.79047640e-02 -2.54812628e-01 -2.76761949e-01 6.74698353e-02 4.95470136e-01 -7.88748637e-02 1.48119092e-01 2.93773681e-01 2.22687885e-01 8.89788121e-02 -7.54801512e-01 9.39126387e-02 9.07540768e-02 3.16740990e-01 1.82326749e-01 2.95582204e-03 -5.79582989e-01 -2.54722446e-01 -1.33118168e-01 2.30911616e-02 -2.97908485e-01
-7.77296305e-01 4.39511925e-01 -5.50202847e-01 -9.74926174e-01 -4.36487585e-01 -2.04554066e-01 -3.41138631e-01 2.92136520e-01 1.70707881e-01 5.53839386e-01 -1.87281612e-02 1.58043936e-01 1.32733971e-01 3.61476570e-01 2.23739771e-03 7.92991996e-01 6.59829855e-01 8.28652561e-01 -3.73092026e-01 3.59029397e-02 5.30690193e-01 -7.49029875e-01 -6.74287140e-01 4.45793897e-01 -2.20648795e-01 -4.98358876e-01 3.15688699e-01 3.29884201e-01 4.56285000e-01 -7.81732678e-01 2.33142629e-01 -1.80964619e-01
1.16638422e-01 -5.21403790e-01 7.15397447e-02 -1.10312991e-01 -8.05212677e-01 5.48150182e-01 1.35780111e-01 -4.64515895e-01 5.12971342e-01 9.83143806e-01 -1.86212286e-01 7.83275887e-02 5.47193885e-01 4.68086153e-01 5.19128982e-03 -1.08702135e+00 -4.75082219e-01 -1.13279474e+00 1.52058657e-02 1.93570659e-01 2.55257189e-01 3.65711033e-01 2.11673617e-01 1.98530048e-01 1.76821664e-01 9.80260670e-02 -4.05843526e-01 -2.37712160e-01 -3.08036327e-01 -3.25010896e-01 3.73385191e-01 4.15119320e-01
-5.66372238e-02 -1.06388426e+00 3.26369315e-01 1.59510159e+00 2.62309104e-01 1.06064387e-01 -1.08883150e-01 -2.60125995e-01 -3.20316195e-01 1.99640661e-01 1.11290491e+00 -9.93788838e-01 -1.10278845e+00 -3.95555347e-01 2.35824838e-01 3.95011865e-02 -1.26879776e+00 7.93866456e-01 6.18467271e-01 -6.62457347e-01 9.11932588e-01 1.73855931e-01 3.56579944e-02 -2.64599901e-02 2.35329904e-02 -5.01813293e-01 2.16244876e-01 -4.92814146e-02 -8.85877252e-01 1.29664290e+00 -3.80166858e-01 -3.19108367e-02
-8.19694102e-01 -2.05016047e-01 6.17487550e-01 7.89572150e-02 -6.36018813e-01 2.96383709e-01 3.01512033e-01 -1.46308869e-01 -4.27609831e-01 -1.22272387e-01 -1.00590634e+00 2.97276288e-01 3.58028650e-01 1.27050161e-01 1.99756220e-01 -5.61556399e-01 3.38170022e-01 -8.43930066e-01 3.31001639e-01 -3.90493244e-01 -1.04615402e+00 5.49973428e-01 2.41342094e-02 -6.61916077e-01 1.82743549e-01 4.55904156e-01 -1.68782055e-01 2.38867342e-01 -4.18838054e-01 -2.59465486e-01 -1.40595511e-01 -2.37907339e-02
-2.51717865e-01 -3.02433878e-01 -1.53565891e-02 -6.46372661e-02 -7.35007465e-01 -9.81773287e-02 1.06481746e-01 1.61874816e-01 -4.30105597e-01 1.45077693e+00 -4.29790318e-02 -2.02838629e-01 -5.97870409e-01 7.06100464e-01 -1.49541467e-01 -2.24771619e-01 -6.71090111e-02 -2.64367104e-01 9.56391767e-02 -2.92334616e-01 2.64811575e-01 1.11875437e-01 2.44846329e-01 1.59428567e-01 3.68605554e-02 -1.69444710e-01 -1.01098858e-01 2.00071201e-01 1.46329924e-01 4.03660417e-01 -7.54982755e-02 1.15145378e-01
-1.28343076e-01 -4.46833432e-01 6.51861355e-02 -6.59536272e-02 -4.57344025e-01 5.82524002e-01 -2.36073300e-01 -4.38266724e-01 4.67201844e-02 -3.07448745e-01 8.54183510e-02 3.57530206e-01 1.63400128e-01 6.08681619e-01 4.03904468e-01 -5.48572242e-01 -6.02841437e-01 -1.19216728e+00 -9.66880023e-02 -4.32235122e-01 -7.52339587e-02 8.75932753e-01 6.12017632e-01 7.28951871e-01 -5.12800574e-01 9.57476720e-02 1.62278295e-01 -2.19372839e-01 -4.03661489e-01 -1.93844050e-01 -5.33814840e-02 -3.14061381e-02
6.57713488e-02 -6.90824017e-02 5.57490885e-02 -8.07713196e-02 4.07196164e-01 -1.11904331e-01 7.91448802e-02 -3.23216319e-01 -2.27933273e-01 3.45968217e-01 1.58708870e-01 1.57008976e-01 8.65352377e-02 -3.58515203e-01 -4.96373661e-02 -1.84488803e-01 8.20043311e-02 2.14574799e-01 -1.82532489e-01 -5.11807084e-01 1.83615386e-01 -2.02874765e-01 -1.06774032e-01 -1.16738766e-01 1.22140730e-02 2.34344572e-01 -5.06998301e-02 -4.10541296e-02 8.80972445e-02 7.65898749e-02 5.94388833e-03 -1.11292321e-02
1.85692310e-01 -4.39987868e-01 -3.26481640e-01 8.18523824e-01 -2.09684089e-01 -5.28406799e-01 1.68721408e-01 -2.30493739e-01 -6.64114356e-02 2.78307247e+00 -4.96277183e-01 9.12841558e-01 5.92424572e-01 8.95441234e-01 5.74654996e-01 1.47816494e-01 5.65772131e-02 2.72778392e-01 6.81575060e-01 3.37503374e-01 1.61276117e-01 9.98114124e-02 -2.57870317e-01 1.09749591e+00 -1.44854382e-01 5.98920099e-02 -2.46199891e-01 3.90608847e-01 -2.49181706e-02 8.81964937e-02 5.34437954e-01 1.10207602e-01
-1.57758623e-01 2.08552659e-01 1.78952783e-01 7.30861872e-02 -5.85762747e-02 -2.84992177e-02 -2.18488444e-02 9.98587385e-02 4.22301069e-02 -2.72814445e-02 1.51771367e-01 9.40455571e-02 7.66216367e-02 -1.79002509e-02 1.37563273e-01 1.77877203e-01 2.94865519e-02 -1.43833295e-01 -5.51312091e-03 7.28533119e-02 -1.80449590e-01 -1.52864642e-02 -2.40985136e-02 4.02393267e-02 -4.71396267e-01 -2.52015471e-01 4.59598489e-02 -9.90388244e-02 -4.53590043e-02 -5.15464246e-02 3.46524897e-03 -4.50250030e-01
1.59989204e-02 -1.07493855e-01 -1.08866051e-01 2.41980348e-02 -1.38002560e-01 2.77399067e-02 -1.38657037e-02 1.97859004e-01 6.38696877e-03 -5.56314625e-02 -1.34671647e-02 -2.43092123e-02 -4.60741743e-02 3.25798132e-02 -3.15849185e-02 2.06873253e-01 -1.03547424e-01 -1.47279173e-01 -3.08956988e-02 3.38771880e-01 -2.30359212e-01 -1.28337219e-01 1.23210708e-02 -1.17825046e-02 1.02064209e-02 -6.37412667e-02 -6.43406212e-02 -6.78407028e-02 -7.12169632e-02 4.42598909e-02 -4.46520234e-03 -9.50968079e-03
9.08135772e-01 -2.90692836e-01 4.02921021e-01 3.58605564e-01 -5.72260678e-01 -2.39500813e-02 -6.38858616e-01 -8.10393095e-02 8.65417838e-01 -2.20687464e-02 -2.05830172e-01 6.22906052e-02 1.41382599e-02 1.83960840e-01 7.68954813e-01 -1.25736296e+00 -4.93894130e-01 -1.07021523e+00 6.66543603e-01 -3.11712623e-01 -7.28804290e-01 2.32693538e-01 -1.62835076e-01 2.17081755e-01 8.08618665e-01 -7.45695457e-02 2.39791691e-01 -1.64512798e-01 -5.02060592e-01 2.45271012e-01 4.21597697e-02 1.24080218e-01
1.63189676e-02 -4.48938936e-01 -2.06469104e-01 3.29037935e-01 1.97072506e-01 -5.01977563e-01 1.81993037e-01 1.06893152e-01 1.81560576e-01 -1.81944415e-01 -3.24826509e-01 5.27984381e-01 4.34271544e-01 -2.19279125e-01 2.90293455e-01 -4.64975893e-01 -3.48655403e-01 -7.77226627e-01 2.83207715e-01 -3.97322357e-01 -2.41629526e-01 3.66729051e-02 4.20505941e-01 6.44285202e-01 -1.06684461e-01 -2.50084102e-01 3.56089830e-01 -5.77862710e-02 -2.82256445e-03 -4.85551089e-01 8.00731927e-02 1.88600212e-01
-4.43864986e-02 3.48911323e-02 8.05077672e-01 7.39574656e-02 -1.28130555e+00 -3.49094331e-01 1.98643371e-01 -1.23849332e-01 6.68035507e-01 5.36753178e-01 -1.25295445e-01 -4.46695358e-01 3.40620652e-02 4.35225308e-01 -2.09033173e-02 -2.33648729e+00 -2.60337681e-01 -3.09008217e+00 1.76018059e-01 8.94506723e-02 -8.26100469e-01 7.39795864e-01 1.51831821e-01 -6.95421174e-02 2.48770371e-01 1.49956331e-01 3.12490195e-01 2.05161929e-01 -2.10198984e-01 -7.87203014e-01 -5.79558790e-01 1.62388772e-01
-2.04808936e-01 -2.52307951e-01 -2.42588088e-01 -2.88634688e-01 -2.96698809e-01 5.72434068e-01 1.21822998e-01 -1.00016579e-01 -7.01588392e-02 3.16655517e-01 -1.73564032e-01 1.37760371e-01 5.54602630e-02 -3.00529182e-01 -1.06421784e-01 -5.18401206e-01 2.77683944e-01 -5.79987347e-01 -2.91651040e-01 2.29181396e-03 -2.95970052e-01 3.86139572e-01 -1.12790793e-01 3.47508490e-01 4.01440382e-01 -5.21659493e-01 4.71561015e-01 2.01989301e-02 1.05651103e-01 1.40153170e-01 -8.44044983e-02 7.69688748e-04
4.18917269e-01 7.08166182e-01 6.51366711e-01 -4.06291217e-01 1.80950090e-01 1.66426942e-01 2.20649466e-01 -1.04135856e-01 -8.80743980e-01 1.07786882e+00 -3.09477717e-01 -2.15282097e-01 -4.34105605e-01 1.16640782e+00 1.14706658e-01 1.72080308e-01 5.29167354e-02 -9.20238435e-01 2.74440110e-01 -2.69789726e-01 4.40098830e-02 7.00422525e-01 -1.75544783e-01 -4.04724300e-01 6.26369119e-01 -7.70162046e-01 4.89341885e-01 -6.14124388e-02 -2.88926572e-01 -6.19222283e-01 6.23288825e-02 -4.43413198e-01
-1.41691804e-01 -4.84512866e-01 1.55494481e-01 -2.03556418e-01 4.99557555e-02 2.41302639e-01 3.26627254e-01 -2.38590449e-01 -8.31074238e-01 -1.27689093e-01 -1.43392906e-01 3.06715053e-02 -6.31989762e-02 6.04043901e-01 5.60327113e-01 5.75202823e-01 2.25788429e-01 -5.09338528e-02 -6.19661324e-02 1.55677631e-01 -2.54175365e-01 3.44783574e-01 -2.52744824e-01 1.68694168e-01 -1.37171209e-01 -2.30325669e-01 3.78783524e-01 7.58666158e-01 -3.99968684e-01 -4.63863075e-01 3.87728602e-01 4.01235044e-01
-1.10184884e+00 2.51179546e-01 2.09608823e-01 -1.35171497e+00 -2.72736758e-01 -1.55275598e-01 1.10496417e-01 4.43611234e-01 2.55874485e-01 3.53919387e-01 -9.69803572e-01 7.75643468e-01 9.35672164e-01 3.33225846e-01 -7.58007765e-01 1.58745527e-01 6.86876416e-01 -5.88490963e-01 -2.22257257e-01 1.09638000e+00 -6.06791556e-01 -2.53972530e-01 -4.21297610e-01 -8.92144889e-02 6.12103343e-01 8.48845780e-01 8.17280293e-01 7.37059653e-01 4.74413872e-01 -1.10271239e+00 -5.40785603e-02 1.96769252e-01
-6.48900568e-02 7.56794438e-02 2.32718304e-01 -3.94058786e-02 4.87041891e-01 -1.07153982e-01 2.24006604e-02 4.68512326e-02 -9.67386439e-02 1.98285550e-01 3.03633902e-02 5.00657456e-03 -1.38559041e-03 -1.73510686e-01 1.03431858e-01 -5.21604232e-02 1.07409716e-01 1.21109545e-01 -1.82958320e-02 -3.94371450e-01 1.78472966e-01 -1.41914606e-01 2.91655771e-02 -5.61389774e-02 1.66410625e-01 7.02816108e-03 8.33198056e-02 9.17560533e-02 1.64224114e-02 -8.55187923e-02 3.01525891e-02 4.26007845e-02
-1.37119204e-01 1.57098379e-02 2.82628864e-01 -9.60038826e-02 2.51966566e-01 3.47902328e-02 6.00067735e-01 3.04759681e-01 2.46113032e-01 -1.47819972e+00 -3.42034310e-01 5.27425766e-01 6.60382926e-01 -6.86891675e-01 -1.74931109e-01 -2.88700432e-01 3.26250672e-01 -6.53973997e-01 1.61345340e-02 -6.84784830e-01 1.15468705e+00 -3.34126979e-01 -5.84833473e-02 -1.45194292e+00 1.02836043e-01 4.90005910e-01 -1.01047552e+00 -1.11453259e+00 5.40478110e-01 -7.78803676e-02 -2.49486208e-01 -4.02783900e-01
6.14681363e-01 -3.09267193e-01 -2.81891018e-01 4.37942237e-01 -7.62742162e-02 -5.80058768e-02 -5.70087209e-02 -1.37699962e-01 5.02357543e-01 -9.92303416e-02 -1.31506801e-01 -4.15515043e-02 7.61064410e-01 -3.65864903e-01 3.55936021e-01 -3.30363780e-01 -2.58504301e-02 -5.47025681e-01 2.29066610e-01 -7.33003765e-02 -3.55996639e-01 1.34581029e-01 1.44512564e-01 1.46802381e-01 -4.38559689e-02 -2.18712866e-01 7.93575704e-01 5.16422391e-01 -4.48454231e-01 3.34699839e-01 1.09330229e-01 3.07265013e-01
-2.89136261e-01 3.59709114e-01 -1.08037286e-01 -5.35900258e-02 -7.10422218e-01 -1.79307535e-01 6.04915582e-02 4.53909993e-01 -1.90867949e-02 -5.53954720e-01 -1.87481955e-01 -8.47917981e-03 -3.51363271e-01 1.73771366e-01 2.39125729e-01 -3.00024539e-01 -9.98943299e-02 1.75400883e-01 3.16073634e-02 3.39365065e-01 -2.50755340e-01 -1.02560744e-02 -1.84982419e-02 -1.42329102e-02 -1.26024485e-01 -1.29688859e-01 2.61181563e-01 -2.47350425e-01 1.32721394e-01 5.84679190e-03 3.04414015e-02 1.79484606e-01
4.75644246e-02 -5.63436627e-01 -7.13669807e-02 -4.65960801e-02 -2.44214162e-01 -1.32036760e-01 -1.09697431e-01 -2.29301855e-01 -3.04683566e-01 4.39982146e-01 5.57743907e-02 8.60494375e-03 2.91821092e-01 3.86933774e-01 -1.09399512e-01 -7.69168437e-01 -2.86682904e-01 -2.87076801e-01 4.47678044e-02 -4.59127799e-02 1.43545702e-01 -7.21495822e-02 5.86649895e-01 1.58356488e-01 -3.40833068e-01 1.62557319e-01 3.98041099e-01 5.83821088e-02 -9.28909779e-02 1.93799719e-01 -8.10749084e-02 -2.47322902e-01
1.05706406e+00 5.06711788e-02 -5.79430401e-01 2.06479654e-01 1.42568454e-01 4.93831970e-02 4.85014260e-01 9.72554684e-02 -2.12021142e-01 -9.20554578e-01 -8.20698380e-01 1.35483670e+00 4.83379029e-02 -9.15881813e-01 2.64318258e-01 5.17408073e-01 7.72832781e-02 3.84695470e-01 -6.62497580e-02 1.46427482e-01 -1.60934174e+00 -4.02851135e-01 -9.05368507e-01 -2.69459635e-01 -3.59422594e-01 -4.47928645e-02 2.63003379e-01 5.83847702e-01 -7.84652010e-02 6.09112903e-02 -6.00201152e-02 4.23832744e-01
-2.47894019e-01 -1.75972864e-01 -9.39702630e-01 -7.62860931e-04 3.91525805e-01 5.80649436e-01 9.56083760e-02 1.07211089e-02 -1.41652808e-01 4.78547454e-01 -3.15260053e-01 -1.28647554e+00 3.16072643e-01 2.70976633e-01 -1.11576840e-01 6.40121400e-01 -2.32352182e-01 1.46976912e+00 -5.31026244e-01 1.22624999e-02 3.59514207e-01 -1.45025268e-01 2.37247869e-01 8.25321853e-01 -2.73153335e-01 7.19473302e-01 -3.14322822e-02 -2.95141071e-01 1.18119210e-01 2.40570232e-01 7.46221423e-01 -6.73651323e-02
-3.10749095e-02 3.07295501e-01 -1.19106069e-01 -5.78414142e-01 -2.09640354e-01 7.88674891e-01 3.17743540e-01 7.48356044e-01 3.03329617e-01 3.98315936e-01 9.78231609e-01 -2.82446295e-01 3.48341987e-02 4.51135397e-01 8.17544013e-02 -7.53320336e-01 1.93938851e-01 -9.23569947e-02 -2.84129441e-01 -6.63067400e-01 -7.78811723e-02 -2.28834480e-01 3.03947508e-01 2.92068988e-01 -3.21602345e-01 1.03590079e-01 7.01784343e-02 6.77723736e-02 -5.92941999e-01 3.04605752e-01 -1.28444910e-01 1.98290482e-01
1.26323968e-01 -9.18158237e-03 -1.54653028e-01 -5.10881364e-04 2.93905027e-02 3.48598361e-02 -3.21419793e-03 9.31759179e-02 -5.46315983e-02 -6.15141802e-02 -5.77067770e-02 -3.90581638e-01 2.65970379e-01 2.32095823e-01 4.20075990e-02 1.34910688e-01 5.75979315e-02 -3.96096148e-02 8.64146948e-02 2.61239707e-01 1.40964150e-01 2.62805820e-01 3.83068179e-03 2.51870215e-01 -1.16977833e-01 -2.53885776e-01 -1.83233157e-01 -1.91340223e-01 -3.23442787e-01 -1.57975286e-01 2.45698784e-02 -2.70016283e-01
3.21804225e-01 -1.96194295e-02 6.86982512e-01 3.30486894e-01 2.08032236e-01 5.55233419e-01 8.90128076e-01 -2.84204155e-01 7.04376578e-01 8.87126699e-02 -6.32711112e-01 1.20609224e-01 -4.60420698e-01 -1.68919697e-01 3.10774054e-02 2.81229436e-01 -6.55433178e-01 -4.04873431e-01 1.81205735e-01 -5.52898226e-03 -7.48579204e-02 6.80030227e-01 3.96514714e-01 7.21974134e-01 7.00884871e-03 -7.71289170e-02 -2.98502833e-01 1.88168898e-01 2.11313501e-01 3.82117927e-01 -9.55669954e-02 2.62893531e-02
-3.47317219e-01 -5.40451884e-01 1.52850115e+00 1.06774032e-01 -1.01376426e+00 -1.52880073e-01 -1.27798700e+00 -9.74299312e-01 4.03150648e-01 9.27833378e-01 5.30605875e-02 -5.08245826e-01 -2.98337042e-01 9.43967521e-01 6.36526644e-01 -2.05046368e+00 1.21045023e-01 -2.96805549e+00 1.75578237e+00 7.49831021e-01 -5.42018831e-01 1.69743645e+00 -3.97758752e-01 3.33320379e-01 3.23672324e-01 -6.95661664e-01 -2.49053970e-01 3.75105202e-01 2.51605570e-01 5.01904897e-02 5.39083362e-01 1.79406971e-01
-2.47430932e-02 2.41401955e-03 1.17354423e-01 4.19093110e-02 3.12402427e-01 3.45858024e-03 -2.83026472e-02 2.25683907e-03 9.20263305e-02 -9.47053637e-03 -2.52976436e-02 -5.79501726e-02 8.68257433e-02 2.66395672e-03 -2.75419299e-02 -4.23170514e-02 -6.74835593e-03 -4.44936156e-02 -4.85054925e-02 6.21475279e-02 1.09915584e-01 8.46958905e-02 -3.11203059e-02 3.47666331e-02 -1.42217502e-01 -1.71455249e-01 1.49222324e-02 3.91796023e-01 -2.73679886e-02 -4.96850647e-02 -7.47291883e-03 -2.38346338e-01
-4.70502079e-01 1.69040766e-02 -7.05665201e-02 -1.37980834e-01 -2.53439903e-01 1.26937315e-01 -7.11880475e-02 8.08378160e-01 -1.52813002e-01 2.43063737e-02 -2.53135681e-01 6.91402912e-01 5.86052060e-01 2.76722252e-01 3.12845886e-01 8.78475606e-02 -1.47554949e-01 -2.62941141e-03 -2.84637690e-01 1.07535170e-02 -6.31526411e-02 -5.53092539e-01 -9.81426910e-02 -2.78957427e-01 -2.77398705e-01 -8.23675692e-02 -6.76227450e-01 3.48248512e-01 -1.86585665e-01 -3.08013678e-01 -1.26575083e-01 4.50170219e-01
-5.15162535e-02 -2.15721160e-01 6.17839217e-01 2.57024556e-01 -6.79038882e-01 3.26807290e-01 2.99833715e-01 -5.70823789e-01 5.90674460e-01 2.87415653e-01 -4.34225537e-02 3.78564686e-01 -9.19622555e-02 9.90658030e-02 1.96829513e-01 -2.18751454e+00 9.52919424e-02 -1.14721203e+00 9.36935749e-03 1.58975124e-01 -7.68986391e-03 1.60280749e-01 3.24200273e-01 1.63577467e-01 -1.20243423e-01 -5.12965620e-01 -8.23618695e-02 -2.88582504e-01 -3.09357911e-01 -4.79270428e-01 3.73507321e-01 -4.09567952e-01
-1.64855659e-01 -2.85927951e-03 -1.20135352e-01 2.97998607e-01 -5.07761896e-01 -2.34007854e-02 5.87461032e-02 -3.28206688e-01 -3.79358619e-01 1.70886564e+00 -2.04074875e-01 -2.28127092e-01 -4.32057738e-01 1.84930062e+00 -1.89479545e-01 -3.34194452e-01 -1.22996837e-01 -2.79882878e-01 -2.10872572e-02 -4.78264391e-01 9.28090736e-02 1.10788621e-01 1.43167479e-02 9.99516621e-02 -1.50791243e-01 -9.87398475e-02 5.75509727e-01 4.66295481e-01 8.00614357e-02 -3.12982589e-01 2.68765450e-01 -9.07643139e-02
-9.09201354e-02 -2.13843256e-01 5.81679821e-01 5.01865327e-01 1.48981828e-02 -3.93850982e-01 -1.09787118e+00 1.42190337e-01 1.98076308e-01 4.07242477e-01 1.14880994e-01 -8.51531550e-02 1.12633288e-01 1.57189265e-01 -2.33485073e-01 7.85444021e-01 1.90242771e-02 3.47005963e-01 -1.82354972e-01 -3.10319215e-01 8.29357684e-01 3.73998284e-01 3.83353531e-01 -5.93778014e-01 2.65749395e-02 4.84045073e-02 -1.80993810e-01 2.57110626e-01 -1.77927032e-01 3.48189652e-01 -2.74389774e-01 -2.85336912e-01
1.12370658e+00 -2.71549255e-01 5.02092302e-01 8.66226256e-01 -3.31790775e-01 1.55980840e-01 -6.19268775e-01 -4.52669442e-01 2.62170941e-01 -1.05031800e+00 -4.50509310e-01 9.22000229e-01 -1.11942041e+00 -4.15410399e-01 5.49844444e-01 -1.75647393e-01 4.24553603e-02 1.85321048e-01 4.41474676e-01 8.71191859e-01 1.66883662e-01 -3.45889896e-01 -2.11934471e+00 -6.33398235e-01 5.59533179e-01 6.90295517e-01 -9.19867039e-01 -2.89148450e-01 4.34280075e-02 1.12340391e+00 -2.55617529e-01 -1.07579350e-01
-5.70420250e-02 2.13783860e-01 1.22776972e-02 -4.70742136e-02 -2.85504520e-01 -2.02614032e-02 -1.47518644e-03 -6.08041547e-02 1.43649429e-02 -1.73782352e-02 4.41354662e-02 9.79162902e-02 6.73996210e-02 -5.42896725e-02 1.29749805e-01 -2.17728257e-01 1.00258075e-01 1.28090620e-01 7.11847516e-03 -2.97542125e-01 1.17390208e-01 6.51645437e-02 -2.09800117e-02 9.88170784e-03 -3.24626148e-01 -6.87212572e-02 1.99678503e-02 -4.79904078e-02 4.25153365e-03 -1.05006933e-04 -2.79833586e-03 -1.98425606e-01
8.63116458e-02 3.85750473e-01 1.62965286e+00 4.07103717e-01 -1.20892787e+00 1.76712707e-01 -2.66330272e-01 -4.99663144e-01 8.56074929e-01 5.43889463e-01 2.07399741e-01 -3.68052512e-01 -8.53646576e-01 1.00295079e+00 -3.84168178e-02 -3.42803454e+00 -1.61094770e-01 -4.57952929e+00 3.14701706e-01 1.77500010e-01 -1.22777414e+00 9.79863286e-01 3.44310910e-01 1.87660918e-01 2.26790592e-01 -1.22296579e-01 -5.62029660e-01 6.39564574e-01 -1.73476651e-01 -5.59488609e-02 9.65162292e-02 -1.33705083e-02
-8.36958110e-01 2.12735042e-01 1.46740377e-01 -7.60690570e-01 -2.94897147e-02 -1.53493017e-01 -1.89916074e-01 4.49462742e-01 -8.71160161e-03 1.80158485e-02 1.02077514e-01 -2.82376736e-01 4.29450482e-01 4.59916741e-01 -4.19991404e-01 -2.98906237e-01 2.19912544e-01 -1.99502036e-01 -3.08306396e-01 1.39944449e-01 1.02933586e-01 7.17888713e-01 1.84828132e-01 -2.39643127e-01 -1.14329189e-01 2.56797522e-01 -7.28075922e-01 1.02718070e-01 1.01546794e-01 -5.82684457e-01 -1.00851171e-01 -7.28387594e-01

layers.2.bias:
-1.39186859e+00
-7.93734074e-01
6.55487120e-01
-5.99203169e-01
1.66331977e-01
-5.13107538e-01
3.17093670e-01
2.03467107e+00
6.56258643e-01
8.04248929e-01
-8.31198096e-01
-1.15931880e+00
-2.12418020e-01
8.96002412e-01
-2.66720265e-01
-7.30891228e-01
-1.06747799e-01
-6.80590987e-01
3.90144110e-01
-6.07251860e-02
-5.13233058e-02
7.67626464e-01
7.84763098e-01
-2.70381093e-01
-3.33820164e-01
9.58120525e-01
-9.53376114e-01
-1.10844719e+00
4.78669107e-01
-1.13357222e+00
-2.48418730e-02
-1.52263671e-01
7.02500999e-01
1.50570139e-01
-2.96178073e-01
-5.90756834e-02
-1.13055564e-01
1.33680379e+00
1.01383185e+00
-9.84295458e-02
9.43972290e-01
-1.97059736e-01
-5.35496533e-01
1.34160936e+00
2.86561906e-01
-1.15655136e+00
1.07200110e+00
-4.14741039e-01
7.21230805e-01
1.77671111e+00
7.62967393e-02
2.66257077e-01
1.38664275e-01
-7.01011479e-01
1.48892403e-01
-5.46599962e-02
7.53520548e-01
-1.25902295e-01
-2.00567618e-01
-5.93499124e-01
8.08572352e-01
2.84407753e-02
-2.21018374e-01
6.72306836e-01

layers.4.weight:
4.53014523e-01 7.63192587e-03 -4.65538874e-02 6.45085704e-03 -2.30489876e-02 -1.21246159e-01 5.59066946e-04 -6.67921245e-01 -6.63127229e-02 -3.80725175e-01 2.93063484e-02 5.57549894e-01 -1.57073140e+00 -6.15863763e-02 8.55058990e-03 -1.33234835e+00 -4.78952570e-04 7.99224749e-02 -4.58718948e-02 1.58539071e-04 6.45225868e-02 -4.65420224e-02 -6.57192692e-02 1.55304134e-01 -1.01624884e-01 -3.83115932e-02 1.79649778e-02 7.23652780e-01 -3.77648890e-01 3.87285292e-01 -1.54140918e-02 -1.97052106e-01 -1.41960829e-01 2.26466917e-03 1.42421693e-01 -2.07861536e-04 1.64395664e-04 -1.90959662e-01 -9.72994894e-04 1.84193447e-01 -5.70699107e-03 3.23419303e-01 8.63716453e-02 -1.22753359e-01 4.87916725e-04 2.59283841e-01 8.57735332e-03 -6.68218173e-03 -9.19895470e-02 -6.22485995e-01 -7.91851208e-02 -8.73264894e-02 2.02452749e-04 -3.64637524e-02 -1.06498742e+00 -8.09475896e-05 8.17545503e-03 -2.51155764e-01 -1.24283157e-01 2.37513985e-02 -7.27593005e-02 -2.92554469e-04 7.04241395e-01 -1.76194999e-02

layers.4.bias:
-1.04807019e+00

