layers.0.weight:
3.31696361e-01 -5.67613244e-01 7.97264636e-01
5.69172144e-01 -8.09445798e-01 -5.80563486e-01
-8.31293464e-02 -6.13938749e-01 -5.77727258e-01
-1.07055378e+00 1.15616508e-01 4.58123112e+00
2.67282110e-02 4.11940843e-01 1.16166264e-01
-5.79876065e-01 8.58121514e-01 -1.84879377e-01
-1.31842160e+00 4.86020595e-01 -9.88645032e-02
-6.01682402e-02 7.88846374e-01 -9.23566997e-01
6.03414774e-01 -9.26082134e-01 5.12713566e-02
-1.11527514e+00 5.86289167e-02 -1.64189592e-01
7.53551662e-01 -9.85680073e-02 1.41279221e+00
-7.16238439e-01 -1.31785080e-01 -1.29353356e+00
-4.30584475e-02 7.12955832e-01 -1.57757306e+00
-1.16726887e+00 2.10410804e-02 5.00053525e-01
-6.46977663e-01 1.09646142e+00 7.52028525e-01
-1.81771189e-01 9.48456824e-01 1.64468549e-02
5.46070874e-01 -6.33792400e-01 -1.45019031e+00
-1.15504665e-02 1.12846863e+00 1.84981868e-01
8.07071701e-02 -9.54183042e-01 5.35116851e-01
3.41117471e-01 -1.28724232e-01 -8.64976227e-01
2.23475501e-01 1.65966094e-01 -5.10879010e-02
-3.24195027e-01 -2.56797969e-01 -1.00232065e+00
-4.64660525e-01 1.65601885e+00 -4.46076952e-02
-1.56447518e+00 4.06930357e-01 1.75152493e+00
1.05132234e+00 3.79940838e-01 -7.78481364e-01
2.59609371e-01 6.71772659e-01 -1.17486012e+00
-1.16151750e-01 -2.13369340e-01 1.90187418e+00
-3.97779703e-01 -2.44972542e-01 1.92939892e-01
3.22416067e-01 7.57217348e-01 -1.46468067e+00
-1.04933763e-02 4.65525806e-01 1.70563948e+00
-2.89658904e+00 2.84448242e+00 -1.78299040e-01
-1.26738083e+00 -5.19488692e-01 1.02004325e+00

layers.0.bias:
8.77201200e-01
4.81547834e-03
-1.42384720e+00
-6.34384930e-01
7.07518518e-01
-2.04255387e-01
-3.54310095e-01
2.86240637e-01
-7.45998621e-01
-1.59115899e+00
1.64644122e-01
1.80825554e-02
2.46107668e-01
-1.21306002e+00
-2.90836543e-01
1.43946290e+00
9.34610724e-01
1.82654703e+00
-6.68276668e-01
5.78918040e-01
-1.44309163e-01
-1.35729384e+00
1.02535832e+00
-7.05530941e-02
1.36946186e-01
5.60703695e-01
8.80503118e-01
-1.57881156e-01
-4.88352716e-01
7.31267482e-02
8.91685039e-02
-6.70209900e-02

layers.2.weight:
-3.46537411e-01 2.05159888e-01 8.46798643e-02 -4.99916852e-01 -4.30629887e-02 8.13580956e-03 1.04675896e-01 -5.87463006e-02 -1.48857459e-01 2.81251335e+00 7.14820772e-02 7.58909211e-02 -2.09131360e-01 2.40491581e+00 -1.56363323e-01 4.48707074e-01 -6.57440200e-02 6.77063584e-01 1.52502045e-01 -2.59290338e-01 2.47845665e-01 -5.95019534e-02 -5.40826261e-01 5.89347005e-01 -1.22158937e-01 6.23484075e-01 -8.04233491e-01 -1.36811674e-01 -2.23404571e-01 -2.31596023e-01 -1.23042993e-01 2.84208387e-01
-7.13403523e-02 1.04682058e-01 -8.76481235e-01 5.75304478e-02 -3.08311641e-01 1.42880529e-01 -7.42627919e-01 -4.90404040e-01 5.22388339e-01 6.68341517e-01 3.55559200e-01 -2.90599883e-01 2.39655480e-01 -7.57189170e-02 -2.66160190e-01 3.12204331e-01 -3.85623157e-01 4.24770921e-01 -4.38414514e-01 -7.68916905e-02 6.60826564e-01 -1.45134628e-01 -3.81258041e-01 -4.12523672e-02 -6.87275722e-04 -7.90261999e-02 -3.20532739e-01 -5.61384976e-01 6.26035705e-02 -2.11925909e-01 3.84609448e-03 1.91033155e-01
3.15885469e-02 3.30821634e-03 3.55269581e-01 -7.02523828e-01 -1.37340629e+00 -8.10929909e-02 -4.29708451e-01 2.46415183e-01 5.80958962e-01 8.23690057e-01 -5.21537840e-01 -1.19473949e-01 1.08607560e-01 1.85765892e-01 -9.05207992e-02 -9.72124219e-01 -3.45592409e-01 -1.23900974e+00 1.24400016e-02 -1.66429862e-01 -3.59386623e-01 -9.29288939e-02 1.42508626e-01 -1.26193392e+00 -7.06867278e-01 3.72227669e-01 -1.11979580e+00 5.95624268e-01 3.38746905e-01 -3.08584720e-01 1.14450403e-01 2.91049272e-01
2.25162879e-01 -1.36874080e-01 6.81539699e-02 1.32397473e+00 6.99734688e-01 4.08975452e-01 6.82083726e-01 -2.12549120e-01 -1.96825311e-01 -2.43749544e-02 1.38550967e-01 -4.13837582e-02 -5.52932382e-01 1.77930430e-01 6.61696792e-01 1.28186834e+00 -3.96941632e-01 1.10431361e+00 2.69957900e-01 -1.08265603e+00 -6.22436941e-01 -1.33948535e-01 4.05782014e-01 1.52813399e+00 4.92345244e-01 -5.08800507e-01 4.76078749e-01 -8.91829729e-02 -6.43612981e-01 -1.66143507e-01 -9.09769267e-04 1.05987459e-01
5.14371581e-02 -3.56839597e-01 2.56143391e-01 -4.60071653e-01 1.29381478e-01 -2.47644022e-01 -1.24946439e+00 2.03382388e-01 2.98520811e-02 -4.76632416e-01 4.23885614e-01 -7.65187740e-01 8.22627366e-01 -8.47230971e-01 -5.97160421e-02 -7.93487966e-01 -3.16494882e-01 -7.70617723e-01 -1.84542805e-01 -9.33851823e-02 9.24971819e-01 -5.44252336e-01 2.79077113e-01 -3.49272966e-01 -7.59961247e-01 6.64564312e-01 8.32514316e-02 -6.59218788e-01 -2.05568150e-01 6.07417762e-01 -1.90904796e-01 3.38625675e-03
-2.13206872e-01 1.65382653e-01 4.09799844e-01 1.19611800e-01 -1.05867028e+00 -3.69469196e-01 -9.07305405e-02 2.92983294e-01 2.69836932e-01 9.84110683e-03 5.83863974e-01 3.63841146e-01 -3.67220603e-02 1.51541099e-01 -2.05300167e-01 -1.24911606e+00 -3.67453843e-01 -1.52742887e+00 8.01120460e-01 -2.36274123e-01 -6.36704743e-01 -2.76300125e-02 -7.29539275e-01 -3.08956414e-01 1.34976981e-02 1.12746187e-01 1.05213799e-01 1.14865673e+00 -1.81280389e-01 -4.83614326e-01 -6.08979940e-01 3.91216666e-01
1.41249504e-02 -1.05159171e-02 -2.22699299e-01 -9.12676752e-03 -1.33354023e-01 1.75812870e-01 -9.38465819e-02 -4.19275731e-01 -1.08114436e-01 2.44524777e-01 2.88284391e-01 7.07321316e-02 2.87953675e-01 -1.80892441e-02 6.42241165e-03 -2.57191330e-01 1.96345206e-02 1.04909211e-01 -1.34278750e-02 -3.16109747e-01 -3.86878759e-01 9.58781764e-02 4.98077907e-02 4.47888523e-02 1.56728357e-01 2.61326313e-01 -3.61050814e-01 -4.17089403e-01 -1.49105594e-01 7.24120960e-02 -2.57780831e-02 1.40434861e-01
3.19625825e-01 1.24114558e-01 -3.94148231e-01 3.57634008e-01 2.41017327e-01 -6.41832054e-01 1.09110713e-01 4.97460157e-01 1.08394913e-01 -3.02345037e-01 -1.24597482e-01 9.56678450e-01 3.14353466e-01 -5.47098398e-01 -1.89128950e-01 1.17579326e-01 5.20486712e-01 1.16508350e-01 2.52805978e-01 4.96163875e-01 -1.42425787e+00 -9.03328538e-01 1.45659775e-01 2.92566925e-01 2.33361214e-01 7.50289500e-01 6.03440762e-01 4.95189101e-01 -5.68280697e-01 4.95433092e-01 1.89893842e-01 -2.95147866e-01
2.41102085e-01 2.49303430e-01 -5.66959023e-01 -3.14756572e-01 1.27484870e+00 -5.69156349e-01 -5.63338436e-02 -3.49510580e-01 -1.01227331e+00 3.48859280e-01 3.36908638e-01 4.59787756e-01 7.37991929e-01 1.21621005e-01 3.74347605e-02 2.21439743e+00 3.18611264e-01 1.41424406e+00 -4.56047475e-01 -1.05827920e-01 -1.73715875e-01 -2.52712309e-01 -1.30952626e-01 2.65234202e-01 -1.02052160e-01 4.13464218e-01 2.21567531e-03 3.21933925e-01 -1.35840043e-01 8.92021134e-02 2.16450357e+00 -1.64496571e-01
-6.07684493e-01 1.46191731e-01 -1.12075247e-01 -5.12291968e-01 4.11160082e-01 3.88684403e-03 -8.41708779e-02 3.64593953e-01 4.40198392e-01 -1.84611410e-01 2.33559161e-02 2.25324333e-01 1.74175665e-01 1.80354178e-01 -3.74924153e-01 -7.49598205e-01 3.85090232e-01 -4.45815921e-01 -4.03818905e-01 -3.17013785e-02 -6.55173063e-01 -2.42793784e-01 9.40570161e-02 -5.80409989e-02 -2.34421000e-01 -1.03303738e-01 -1.63978323e-01 2.43040308e-01 2.54848599e-01 1.72720358e-01 9.71722901e-02 2.13577300e-02
2.39277259e-01 -2.76338637e-01 -7.40162143e-03 -3.83709371e-01 -7.76873112e-01 -3.97021115e-01 -3.33984345e-01 1.27681240e-01 5.58148682e-01 3.07567298e-01 -5.50998569e-01 -9.21561420e-02 8.73031735e-01 -3.19809467e-01 -2.35751107e-01 -4.29242849e-01 -6.04906380e-01 -1.59136593e+00 1.14814200e-01 -1.34559525e-02 9.85854268e-01 -2.26258337e-01 -9.45582390e-01 1.68924317e-01 -2.29328141e-01 -5.59960604e-02 -4.52208042e-01 -4.37461406e-01 1.69743374e-01 -4.21120018e-01 -1.10489130e-01 4.88921881e-01
-9.93847772e-02 6.36570975e-02 1.67829251e+00 -8.56513739e-01 -9.19567645e-01 1.21451810e-01 -1.84484854e-01 -4.00762975e-01 8.20393503e-01 1.73549151e+00 7.32431188e-02 -2.02254891e-01 2.77720958e-01 3.20082521e+00 -9.03880745e-02 -1.18181098e+00 3.63415956e-01 -2.78149319e+00 5.85532784e-01 -3.26860666e-01 2.80168355e-01 5.83119452e-01 -2.84531027e-01 8.69973958e-01 -6.65112585e-02 -5.62810898e-01 3.09863329e-01 -1.20895579e-01 9.66127664e-02 4.58502397e-02 -1.59393065e-02 -3.51785988e-01
-6.31259322e-01 -1.68385431e-01 9.44962263e-01 3.90956938e-01 -6.70120239e-01 6.23812973e-01 -1.01599062e-03 -9.29253101e-01 3.40566754e-01 4.76656288e-01 2.34584555e-01 1.35939926e-01 -4.90035921e-01 -8.59843269e-02 4.52843994e-01 -4.30074596e+00 -1.06105268e-01 -6.07630825e+00 5.99266291e-01 -9.88322496e-01 -6.73359871e-01 4.43858057e-01 6.31839573e-01 -1.34293422e-01 -2.84881771e-01 -2.25964755e-01 -3.75005752e-01 6.29415333e-01 -6.26015604e-01 -3.45094681e-01 -1.02256107e+00 -2.27536678e-01
1.65056158e-02 -1.44500360e-01 -6.21614456e-01 -5.29805459e-02 -2.12370649e-01 -5.18484823e-02 2.41864234e-01 3.30973566e-01 4.17339385e-01 -2.18054891e-01 5.50315142e-01 -2.17098713e-01 3.20901215e-01 -8.08323324e-01 -3.70770752e-01 -1.44782573e-01 -2.53963500e-01 1.45989880e-01 -9.52481404e-02 1.07878588e-01 -4.08172514e-03 -1.47999078e-01 3.22731882e-02 -2.10229427e-01 -1.35889038e-01 7.47927904e-01 3.56528116e-03 4.07068841e-02 -1.80745408e-01 2.71141887e-01 8.79860446e-02 3.68708789e-01
-9.88390803e-01 2.51480281e-01 -4.33015823e-02 2.91693479e-01 -1.24341153e-01 6.53809309e-01 -3.54440123e-01 -5.26262820e-02 4.25695777e-01 -1.49692461e-01 -8.01557720e-01 2.82691628e-01 2.04000279e-01 -3.66471678e-01 -3.15679610e-01 -6.57279313e-01 2.73891300e-01 -6.33860648e-01 -4.45504636e-01 3.64289671e-01 1.32178640e+00 9.88064170e-01 -6.70167878e-02 1.58485144e-01 -3.97719622e-01 1.57997876e-01 -6.40160084e-01 7.54721686e-02 8.56014192e-01 -2.93825448e-01 -8.35589394e-02 1.65416583e-01
-5.60695887e-01 -6.33227825e-02 4.89435270e-02 1.41141206e-01 -2.38285810e-01 2.90897548e-01 -9.44586515e-01 -9.09567922e-02 1.06626451e-01 5.22137976e+00 5.70775688e-01 4.19493765e-01 2.13650316e-01 2.66935992e+00 -1.14105325e-02 -4.53617610e-02 -4.31039035e-01 -1.31584600e-01 4.20849510e-02 -2.09707305e-01 -6.89243793e-01 4.04494852e-01 2.24833101e-01 2.79785305e-01 -3.80807430e-01 -4.30101901e-01 -6.27549350e-01 3.24736625e-01 -1.03514619e-01 -6.54802382e-01 2.12303728e-01 -2.54871875e-01
-1.45980809e-02 1.50795564e-01 -6.51439354e-02 3.29525582e-02 1.14915539e-02 3.72905028e-03 3.52586322e-02 -6.13191687e-02 7.60266930e-03 -1.84582725e-01 7.07649142e-02 4.09521759e-02 4.78436090e-02 9.98561829e-02 1.05261609e-01 1.05411559e-02 4.30073328e-02 2.26734597e-02 -4.47313348e-03 1.14647985e-01 2.63037235e-01 1.14310957e-01 1.61920756e-03 1.49993254e-02 6.28206581e-02 2.13100966e-02 5.55761680e-02 2.62885690e-01 7.14921672e-03 -2.29333155e-03 1.52612226e-02 2.53432170e-02
1.62067041e-01 -1.50606170e-01 -6.25584900e-01 6.97188154e-02 2.06259668e-01 -1.79246381e-01 -1.86601415e-01 -3.36093515e-01 2.64285922e-01 -6.46773994e-01 8.74812528e-02 -4.37760390e-02 1.80279732e-01 9.00191218e-02 -4.84928750e-02 2.23934203e-01 -3.32634419e-01 5.24362206e-01 -1.05563231e-01 8.93088520e-01 2.67538011e-01 6.37800768e-02 -4.35221910e-01 -9.93708372e-02 -1.74472168e-01 -4.63494509e-01 8.65089715e-01 -4.68292564e-01 2.06664264e-01 3.32451850e-01 -7.72671215e-03 2.45114163e-01
-2.77110219e-01 -9.07153264e-02 -3.10967177e-01 -2.24613383e-01 4.81951505e-01 1.68500226e-02 2.24227741e-01 1.42346889e-01 3.29060107e-01 -4.09777105e-01 -1.77508399e-01 -8.97176504e-01 4.92225647e-01 -2.01425701e-01 -1.71300769e-01 3.79001707e-01 -1.39069498e-01 4.03233171e-01 1.13117799e-01 -6.54203147e-02 -3.18136364e-02 -1.81988358e-01 4.87095714e-01 -3.28599155e-01 2.16625988e-01 2.14150190e-01 -1.93112478e-01 3.47945124e-01 5.06453440e-02 3.33527416e-01 5.02141058e-01 1.48679644e-01
6.66660666e-02 1.75500721e-01 -9.01587773e-03 7.01666251e-02 -5.59997670e-02 1.02279052e-01 -1.71069615e-02 -7.91086033e-02 5.09513058e-02 7.13153556e-02 7.15032369e-02 1.11289985e-01 -6.72017112e-02 -7.59208351e-02 1.17674343e-01 4.50190753e-01 5.98196127e-02 -3.03748131e-01 4.20985594e-02 -9.70107689e-02 -1.07629292e-01 -1.33971572e-01 -2.53788661e-03 -3.17536965e-02 3.99391502e-02 1.27736807e-01 6.14105491e-03 4.30354709e-03 1.07904851e-01 1.53065622e-02 -1.40334181e-02 4.19323929e-02
3.43639284e-01 -1.68836966e-01 7.14375675e-01 5.66901743e-01 -3.80084783e-01 -4.16561179e-02 -6.98315382e-01 -1.19824745e-01 -2.41672784e-01 -7.08022058e-01 -5.06461225e-02 8.97406876e-01 4.58520830e-01 -3.59927952e-01 7.65431941e-01 3.68151993e-01 -7.90837035e-02 -3.96123797e-01 4.16605562e-01 4.25813437e-01 -4.01497304e-01 9.89321321e-02 6.48237705e-01 1.63482994e-01 8.66695866e-02 -4.01335061e-01 1.26859933e-01 2.98591256e-01 -7.48012438e-02 -4.08262722e-02 1.38826400e-01 4.49228197e-01
2.46696949e-01 -1.05735444e-01 4.77946848e-02 1.70356184e-01 -9.91651975e-03 1.54787391e-01 9.30811048e-01 5.28668948e-02 4.87176925e-01 2.58700460e-01 3.55488807e-01 3.51449639e-01 -4.16941077e-01 -5.24378181e-01 9.34499055e-02 -1.14991844e+00 -6.11282513e-02 -7.81177640e-01 -5.76096997e-02 -4.65818852e-01 -5.16397893e-01 -1.54881561e-02 2.67271250e-01 -9.21162497e-03 6.85431361e-02 -4.41855967e-01 -6.85832381e-01 4.41995263e-01 -1.15063705e-01 -1.69709519e-01 2.54960597e-01 -5.55898920e-02
3.41047384e-02 -2.63650529e-02 -2.63494045e-01 3.98788095e-01 8.35443381e-04 3.96906465e-01 3.62854332e-01 -2.46169940e-01 -3.31938058e-01 3.55282009e-01 1.60634983e-02 8.50152075e-02 4.46515232e-01 5.00532985e-01 -1.47636160e-01 -5.87742090e-01 5.40363252e-01 -1.89251155e-01 1.41048562e-02 -2.42569670e-01 -3.18689138e-01 6.05330653e-02 -3.37159872e-01 1.85811445e-01 -3.30892682e-01 -9.60004628e-02 -6.53033257e-02 -5.45846224e-01 7.92042613e-02 -1.21849209e-01 1.26754213e-03 -3.08735609e-01
7.84034967e-01 -5.21307401e-02 -2.63008237e-01 1.68934271e-01 1.51450962e-01 -4.97819722e-01 -3.53935845e-02 3.04621547e-01 2.67018467e-01 -2.57645059e+00 1.11732177e-01 1.63663238e-01 3.75310838e-01 -1.59753335e+00 1.51314318e-01 3.45238656e-01 1.27648905e-01 2.55955130e-01 -1.77412406e-01 -1.07285641e-02 4.79790509e-01 -2.10960940e-01 -3.27551931e-01 -3.68442163e-02 -3.80663782e-01 -2.04564109e-01 -5.43865710e-02 -1.45725429e-01 1.91499531e-01 1.09795175e-01 -9.17907059e-02 -1.65789083e-01
-8.72356832e-01 1.62598014e-01 1.34015512e-02 1.14787862e-01 -5.98981865e-02 -3.45507652e-01 1.09004641e+00 -5.06222658e-02 -1.02101123e+00 7.56089807e-01 -7.39959717e-01 4.91341762e-02 1.78077832e-01 7.89857507e-02 -7.16380537e-01 7.14923918e-01 6.10931277e-01 5.21984041e-01 -2.04065945e-02 2.23510228e-02 -2.64110476e-01 4.26549762e-01 5.29215515e-01 9.50337112e-01 -5.03334343e-01 5.21442711e-01 -6.25841081e-01 -1.73153654e-02 8.55036914e-01 -4.60560560e-01 9.58775356e-02 1.16865486e-01
-5.57580471e-01 5.59410751e-01 -2.52737813e-02 -1.53319791e-01 5.05339861e-01 1.81053206e-01 2.53789071e-02 5.30612886e-01 -3.42930794e-01 5.08714199e-01 5.25200889e-02 -1.37993857e-01 2.31496945e-01 2.58977622e-01 -5.06531239e-01 -2.90752828e-01 -1.82664379e-01 -1.72742546e-01 3.75987977e-01 -4.44445342e-01 -2.74778381e-02 -2.62435853e-01 4.01299298e-02 -4.34689641e-01 3.61951999e-02 -1.90475076e-01 -5.76344967e-01 -4.41529840e-01 1.83537245e-01 -3.78684253e-01 -2.20246002e-01 -2.22510606e-01
-1.37250364e-01 2.24339366e-01 4.65262592e-01 3.55217397e-01 -2.69859403e-01 -3.00155997e-01 -1.04333103e-01 6.42881123e-03 2.71786273e-01 -4.40515876e-01 -5.93598545e-01 -5.84610850e-02 -2.64963657e-01 -2.76350617e-01 5.98483682e-02 6.92170322e-01 -9.71855000e-02 2.21409455e-01 2.72935092e-01 1.94055468e-01 4.07804511e-02 -7.30816007e-01 1.54453710e-01 1.24450423e-01 2.48013750e-01 1.62572265e-01 8.04259162e-03 -5.20067036e-01 -2.61310160e-01 -1.22747801e-01 6.87223226e-02 -2.36948103e-01
-8.08720648e-01 4.37942266e-01 -6.75934076e-01 -9.79451656e-01 -1.28433377e-01 -2.01953605e-01 -3.56268793e-01 3.80604655e-01 8.10054168e-02 4.55125809e-01 -2.18828917e-02 1.54877260e-01 1.49923325e-01 2.97309786e-01 1.44555457e-02 1.15227628e+00 6.59468412e-01 1.30862784e+00 -7.58965194e-01 4.57949750e-02 5.78340113e-01 -8.01156998e-01 -6.07327938e-01 4.37624782e-01 -1.68879151e-01 -4.61820066e-01 3.08108956e-01 2.67299265e-01 5.49196541e-01 -7.84113407e-01 2.70678341e-01 -2.47400090e-01
1.57220036e-01 -5.34203053e-01 -2.94686314e-02 -1.11221261e-01 -6.59852028e-01 5.25261760e-01 9.50136408e-02 -4.83656287e-01 5.04645407e-01 9.13823903e-01 -2.09661379e-01 1.09241292e-01 5.45560539e-01 4.01617825e-01 8.52846168e-03 -1.07547128e+00 -4.56356883e-01 -1.09237504e+00 1.04837485e-01 2.08384410e-01 2.37944901e-01 3.49843711e-01 2.02107579e-01 1.48257494e-01 2.26176739e-01 9.84479487e-02 -4.06597644e-01 -2.34800056e-01 -2.68788099e-01 -3.34553033e-01 4.49776083e-01 3.63291115e-01
-4.42045964e-02 -9.59322631e-01 3.55344534e-01 1.59744442e+00 1.25617385e-01 8.18538517e-02 -1.40126228e-01 -2.76783854e-01 -2.05558404e-01 2.19382763e-01 1.10161912e+00 -1.00422764e+00 -1.11740291e+00 -3.96837205e-01 1.83814526e-01 -1.12353988e-01 -1.19848859e+00 5.54676771e-01 6.38915420e-01 -7.11097598e-01 8.51816297e-01 1.79061458e-01 5.05317701e-03 3.45649607e-02 -4.86919582e-02 -5.20193279e-01 2.18553379e-01 5.53957410e-02 -8.93067360e-01 1.27546978e+00 -6.29419267e-01 1.55332522e-03
-8.26337516e-01 -2.32437685e-01 5.83638787e-01 1.93947375e-01 -9.37624276e-01 3.09574097e-01 3.55069965e-01 -1.39961690e-01 -5.54712355e-01 -1.74670264e-01 -9.55174208e-01 2.30819345e-01 3.96214515e-01 1.26846462e-01 2.24327430e-01 -3.89755458e-01 2.97877222e-01 -8.37484300e-01 3.96205693e-01 -4.06271279e-01 -1.31867945e+00 6.47918761e-01 8.54687840e-02 -6.54774070e-01 1.34347588e-01 5.26548564e-01 -4.91198078e-02 2.88370639e-01 -5.38796067e-01 -1.62450224e-01 -1.33235097e-01 2.79268138e-02
-3.08685124e-01 -3.41349632e-01 -1.79516807e-01 -1.40894234e-01 -2.35248417e-01 -2.94226427e-02 2.35409185e-01 2.55673409e-01 -6.11324549e-01 1.36703110e+00 -1.43730164e-01 -9.30912271e-02 -5.12642503e-01 5.20176530e-01 -1.56926304e-01 -1.63063314e-02 2.27008276e-02 1.17526032e-01 -2.10235640e-02 -1.95129395e-01 2.25136340e-01 1.29931703e-01 3.65898848e-01 4.62635718e-02 5.55498265e-02 -7.07406625e-02 -1.79076478e-01 1.88693762e-01 2.87613183e-01 3.18472415e-01 7.56057426e-02 9.70673412e-02
-8.04262906e-02 -3.66145879e-01 3.72283012e-02 -1.18535995e-01 -4.44858640e-01 4.65392441e-01 -1.61803007e-01 -4.18673396e-01 1.24345541e-01 -3.86043578e-01 2.21680552e-02 4.51990157e-01 2.18242630e-01 5.27695715e-01 3.21109056e-01 -6.78733647e-01 -4.83801574e-01 -1.34316647e+00 -4.53767478e-02 -3.37758869e-01 -9.06040892e-02 8.81419182e-01 4.34723854e-01 5.92162907e-01 -4.42831516e-01 1.53341755e-01 1.10902712e-01 -2.45662108e-01 -3.53552073e-01 -2.78868109e-01 -1.52628049e-01 -1.01363704e-01
3.90145667e-02 -5.88022918e-02 1.33768246e-01 -9.28374231e-02 2.38136068e-01 -1.05795883e-01 2.60450430e-02 -3.32367986e-01 -1.65980831e-01 3.54497671e-01 1.39939889e-01 1.82264447e-01 8.10557231e-02 -3.09709251e-01 -5.26311286e-02 -2.95019746e-01 5.73149882e-02 1.32573500e-01 -1.59417227e-01 -5.44390559e-01 1.42687172e-01 -1.60712540e-01 -1.36115804e-01 -2.31860206e-02 -2.02406105e-02 2.13350028e-01 -6.41143247e-02 3.16345505e-02 1.08670764e-01 6.85004443e-02 -1.34532955e-02 1.93666853e-03
9.12760943e-02 -5.82099259e-01 -1.94665104e-01 7.49461055e-01 -2.48095989e-01 -4.70700115e-01 2.49493375e-01 -1.27885953e-01 -4.32733655e-01 3.07404280e+00 -5.79997241e-01 9.90379095e-01 6.65173769e-01 8.92458856e-01 8.17693174e-01 2.66864777e-01 2.77012922e-02 2.33932301e-01 5.41740716e-01 3.70464444e-01 2.20948517e-01 1.84875160e-01 -2.48883516e-01 1.04923391e+00 -4.58829291e-02 1.47436500e-01 -3.20102990e-01 3.01903427e-01 7.63380304e-02 2.49026082e-02 1.26029444e+00 2.23005544e-02
-9.70584825e-02 1.63643703e-01 1.12537369e-01 7.13993311e-02 6.90317228e-02 -3.90186310e-02 2.58503240e-02 1.14363059e-01 1.00077419e-02 -2.48103533e-02 1.67100400e-01 8.11549425e-02 9.35741514e-02 -1.51128732e-02 1.87527880e-01 1.65326282e-01 4.19079140e-02 -1.43845856e-01 -2.05882248e-02 9.86841395e-02 -1.51844427e-01 -6.71867505e-02 -2.80078221e-02 -8.30025319e-03 -4.61897254e-01 -2.21562743e-01 4.49071266e-02 -1.42363816e-01 -6.86397702e-02 -5.78891709e-02 7.37562450e-03 -4.56115037e-01
9.81969759e-03 -7.78589770e-02 -4.56271768e-02 2.29359772e-02 -2.32137427e-01 3.01940031e-02 -3.25744189e-02 1.62575245e-01 6.62913024e-02 -3.81254368e-02 -7.53280427e-03 -2.13239491e-02 -6.41565025e-02 4.51466590e-02 -7.57911652e-02 2.11211950e-01 -1.17730536e-01 -1.20589696e-01 2.20824853e-02 3.29951108e-01 -2.42993698e-01 -1.03265740e-01 3.17026116e-02 -7.25900568e-03 1.00130308e-02 -9.06316191e-02 -6.54703304e-02 -7.15195239e-02 -4.89098467e-02 5.11392951e-02 3.01531181e-02 -7.22819066e-04
8.39478850e-01 -2.92708844e-01 3.73105288e-01 3.58568698e-01 -5.56257308e-01 1.82584096e-02 -5.87238014e-01 -3.61634754e-02 7.41292298e-01 7.59134367e-02 -1.82474017e-01 3.59984227e-02 3.62648778e-02 2.50197649e-01 7.69079924e-01 -1.10308588e+00 -4.79049861e-01 -1.03066754e+00 7.53086507e-01 -2.91066438e-01 -7.39578962e-01 2.40162998e-01 -1.27412751e-01 2.21765846e-01 8.00602138e-01 -5.10105379e-02 2.42458686e-01 -1.27895519e-01 -5.61939061e-01 2.45232955e-01 1.20478921e-01 1.09832518e-01
1.49472296e-01 -4.35609758e-01 -2.44106412e-01 4.23524439e-01 1.39934689e-01 -5.94266236e-01 7.45506361e-02 -4.46129851e-02 2.72104561e-01 -2.61603981e-01 -2.13165522e-01 4.34684277e-01 3.34202141e-01 -2.67553270e-01 2.80036628e-01 -6.27474785e-01 -3.71438354e-01 -8.88634503e-01 5.28118193e-01 -4.33503181e-01 -2.20121250e-01 -7.02792630e-02 3.69559377e-01 6.74028456e-01 -1.30853474e-01 -3.40104342e-01 4.56217855e-01 -7.38879368e-02 -1.17503114e-01 -4.04024482e-01 6.55490533e-02 2.34185085e-01
9.26967338e-03 7.98119679e-02 7.40166187e-01 1.19692199e-01 -1.31819475e+00 -3.23911160e-01 2.33524114e-01 -1.48614258e-01 7.46248841e-01 6.51393175e-01 -9.00317132e-02 -4.52008575e-01 -2.54079117e-03 5.99166214e-01 -9.07188654e-02 -2.70458436e+00 -1.99209139e-01 -3.24987626e+00 1.96341038e-01 4.62646447e-02 -7.68729746e-01 6.50801897e-01 1.55868083e-01 1.45277739e-01 1.55630454e-01 9.49729234e-02 3.51568937e-01 1.59454629e-01 -2.01533645e-01 -7.65145004e-01 -6.36666000e-01 2.48414844e-01
-1.93308294e-01 -2.00050712e-01 -2.47095093e-01 -2.89905280e-01 -3.13846290e-01 5.48845410e-01 1.39580429e-01 -9.47297290e-02 -8.38587061e-02 3.48534048e-01 -2.03609109e-01 1.70619592e-01 6.71784580e-02 -2.77175009e-01 -1.74185023e-01 -6.12418711e-01 3.45928729e-01 -6.86529934e-01 -2.93989033e-01 4.41535898e-02 -3.37746561e-01 3.95925760e-01 -1.46165118e-01 3.43992859e-01 3.68829578e-01 -5.05532861e-01 4.73716736e-01 6.70894161e-02 8.22379813e-02 1.21522062e-01 -1.34723008e-01 3.55084836e-02
4.87152457e-01 7.08221555e-01 6.84608459e-01 -4.22276676e-01 1.99448079e-01 1.29518673e-01 1.76418453e-01 -8.88756365e-02 -8.29988658e-01 9.44725454e-01 -3.09929192e-01 -2.18979761e-01 -4.17722255e-01 1.10889018e+00 1.36576921e-01 1.93322375e-01 5.08866087e-02 -8.87373149e-01 2.66483217e-01 -2.57471293e-01 2.86236946e-02 7.13636339e-01 -1.72257677e-01 -4.15501416e-01 6.54567659e-01 -7.46568501e-01 4.71745521e-01 -5.54718152e-02 -3.04456234e-01 -6.21421874e-01 -1.88802592e-02 -4.71430808e-01
-4.67183366e-02 -3.79126430e-01 1.77016661e-01 -1.65132746e-01 -1.55372038e-01 1.45228788e-01 7.27676749e-02 -2.97255248e-01 -4.81244475e-01 -3.29573691e-01 -9.37381759e-02 -1.53576601e-02 -1.09703057e-01 3.27485204e-01 5.25338531e-01 3.68593782e-01 2.78658748e-01 -4.05978680e-01 3.14664431e-02 1.65223956e-01 -2.33615607e-01 2.94372439e-01 -3.45691949e-01 1.90069020e-01 -5.41128516e-02 -2.74619728e-01 4.16908860e-01 7.03056276e-01 -4.05661583e-01 -4.47292447e-01 2.83830315e-01 3.31454009e-01
-1.19600105e+00 -1.43596381e-01 -8.64568632e-03 -1.19155228e+00 2.07322046e-01 1.39739349e-01 3.83305907e-01 6.23769701e-01 -1.64682150e-01 4.71969634e-01 -9.61241186e-01 6.73760891e-01 1.03136253e+00 5.14627993e-01 -3.66274059e-01 6.00259721e-01 3.57841432e-01 -1.47247449e-01 -4.93226796e-01 8.61968994e-01 -6.17386878e-01 -4.34014767e-01 -1.06907010e-01 7.28438348e-02 4.75083739e-01 9.64555919e-01 9.76213038e-01 6.82617605e-01 3.89479846e-01 -9.01112497e-01 3.93339068e-01 3.40754211e-01
-9.55599695e-02 8.32695588e-02 2.99214214e-01 -4.99652699e-02 3.46401811e-01 -1.02852121e-01 -1.71117205e-02 3.81157286e-02 -3.78482267e-02 2.01837242e-01 1.95132885e-02 2.24093478e-02 -7.67438812e-03 -1.30459607e-01 9.78666767e-02 -1.35908276e-01 8.50982517e-02 4.79368232e-02 4.03027888e-03 -4.23307747e-01 1.46247998e-01 -1.06685609e-01 -8.88119359e-03 2.15635356e-02 1.40312195e-01 -1.32161230e-02 7.09166005e-02 1.45739302e-01 3.76249105e-02 -9.08205509e-02 -1.51968542e-02 5.44103757e-02
-1.09526940e-01 2.58813173e-01 3.04118991e-01 -1.58396497e-01 2.49732450e-01 9.89851207e-02 6.98006272e-01 3.21226269e-01 9.56469700e-02 -1.18446708e+00 -3.84642512e-01 5.72931886e-01 6.94790125e-01 -3.02105397e-01 -4.87985730e-01 1.41216278e-01 5.40487885e-01 -1.35005087e-01 -2.98345126e-02 -4.51520532e-01 8.94669712e-01 -2.62544662e-01 3.96381132e-03 -1.29853165e+00 -1.24098554e-01 5.52909195e-01 -1.02958548e+00 -8.60920012e-01 2.94544429e-01 -1.53568074e-01 -1.31102912e-02 -1.63580343e-01
6.52363718e-01 -3.19071800e-01 -2.78581709e-01 4.57297683e-01 -1.31099299e-01 -7.53083825e-02 -1.15610324e-01 -2.02567041e-01 5.45252323e-01 -1.24973647e-01 -8.68332237e-02 -7.04318807e-02 7.37047911e-01 -3.55545580e-01 3.69004726e-01 -5.13030052e-01 -4.49044928e-02 -6.43903732e-01 4.82478559e-01 -9.03289169e-02 -3.12347382e-01 9.17406753e-02 1.49854660e-01 1.61550656e-01 -3.03027947e-02 -2.34477654e-01 8.12314868e-01 4.58660096e-01 -3.82896960e-01 3.53899866e-01 1.36050388e-01 3.11340719e-01
-2.32664824e-01 3.28073084e-01 -1.68513581e-01 -5.23760915e-02 -5.73078394e-01 -2.07597926e-01 9.20651704e-02 4.63408142e-01 -8.40851516e-02 -5.70907056e-01 -1.88746989e-01 -1.56616617e-03 -3.36135477e-01 1.92995951e-01 2.47662991e-01 -1.59205660e-01 -1.08155541e-01 2.71054029e-01 1.51295960e-02 3.65361869e-01 -2.50011832e-01 -4.66235317e-02 1.44220528e-03 -4.98013310e-02 -1.04126491e-01 -9.78770480e-02 2.65390486e-01 -2.73366660e-01 1.17755413e-01 1.07263005e-03 8.82417429e-03 1.59519583e-01
6.00583069e-02 -5.41176736e-01 -1.10429049e-01 -1.01573214e-01 -7.05592856e-02 -1.59917042e-01 -5.12184687e-02 -1.72197551e-01 -3.74454260e-01 4.43082690e-01 -4.15268401e-03 7.22134411e-02 3.50431174e-01 3.37695062e-01 -1.50095642e-01 -6.93367183e-01 -2.08381310e-01 -1.24080554e-01 -1.52756507e-03 4.84120622e-02 9.69593376e-02 -4.69223335e-02 5.87059796e-01 3.90222669e-02 -3.47436219e-01 2.29002327e-01 3.42831492e-01 7.44127482e-02 -5.89909069e-02 1.29285216e-01 -6.18643425e-02 -2.38116145e-01
1.03136134e+00 1.08637467e-01 -5.95310271e-01 1.83287174e-01 9.58788097e-02 7.46037066e-02 4.79878038e-01 1.00351155e-01 -2.00921744e-01 -9.39467549e-01 -8.45530570e-01 1.37522674e+00 8.09541047e-02 -9.09226954e-01 1.96191967e-01 4.17482764e-01 1.43455282e-01 3.11698288e-01 -4.49284464e-02 1.39518440e-01 -1.64918625e+00 -4.14855033e-01 -9.12612736e-01 -2.14713529e-01 -4.61382985e-01 -6.54050559e-02 2.35933244e-01 6.76306188e-01 -6.75825030e-02 3.83142643e-02 -2.68954522e-04 5.32694936e-01
-1.01811104e-01 -3.02042682e-02 -1.00130677e+00 -5.07809557e-02 3.15505147e-01 3.46972287e-01 3.17695677e-01 1.04095992e-02 -1.94890648e-01 5.21040440e-01 -4.17841226e-01 -1.12121165e+00 3.58580112e-01 6.13309324e-01 -2.75822461e-01 8.94558311e-01 -1.02362230e-01 1.46705401e+00 -4.23696250e-01 7.99252465e-02 2.11682692e-01 -1.58522293e-01 1.79000981e-02 6.93042457e-01 -2.72258937e-01 7.55151033e-01 -7.43717104e-02 -1.78405866e-01 9.66346711e-02 1.33678928e-01 7.24680662e-01 -8.29070583e-02
-2.35348400e-02 3.82167190e-01 -1.63376316e-01 -6.14912629e-01 -1.04324669e-01 7.46518552e-01 2.88840830e-01 7.95333087e-01 3.45448375e-01 3.04868460e-01 9.56430316e-01 -2.70644873e-01 8.42008814e-02 2.73139358e-01 2.53688078e-02 -8.26773047e-01 2.97508508e-01 -1.01051122e-01 -3.20873082e-01 -5.46568036e-01 -3.45663056e-02 -2.30050117e-01 2.82082796e-01 1.53153926e-01 -2.30096534e-01 1.71636462e-01 3.49665396e-02 -1.94196291e-02 -5.48120677e-01 2.53020257e-01 -2.10156813e-01 1.19365446e-01
7.41546378e-02 1.93144344e-02 -1.41138986e-01 8.74328986e-03 -2.31956877e-02 5.65938726e-02 4.13925573e-02 8.27024207e-02 -2.25652214e-02 -4.31552306e-02 -5.75932525e-02 -3.85119110e-01 2.45033696e-01 2.22300529e-01 2.86637377e-02 8.11852664e-02 9.06573534e-02 -7.63121620e-02 9.73013863e-02 2.53357530e-01 1.25682086e-01 2.76142150e-01 -1.30932834e-02 2.15313882e-01 -1.01442717e-01 -2.85900623e-01 -1.77231938e-01 -1.75249144e-01 -3.08873922e-01 -1.42134398e-01 2.09728405e-02 -2.76541531e-01
4.19624001e-01 -9.95435659e-03 5.44869900e-01 4.09091711e-01 3.54321361e-01 4.27952439e-01 9.67468143e-01 -3.66943002e-01 6.98405981e-01 -5.40908538e-02 -5.98640919e-01 1.48271397e-01 -5.34479618e-01 -4.49017823e-01 1.23279649e-04 2.92982370e-01 -6.17864072e-01 -4.56683964e-01 2.75596529e-01 -3.15980576e-02 -1.00651659e-01 5.69169939e-01 2.33667538e-01 6.71401680e-01 2.20771004e-02 -1.45188332e-01 -2.19837666e-01 1.73937470e-01 1.77433088e-01 4.31179941e-01 -8.95674974e-02 1.04056420e-02
-3.75411391e-01 -5.94117522e-01 1.60526145e+00 3.80562395e-02 -9.46040750e-01 -1.02415614e-01 -1.17390740e+00 -9.39103246e-01 2.43851766e-01 1.10131252e+00 -1.74417645e-02 -4.43352282e-01 -2.43764639e-01 1.10540938e+00 6.97018147e-01 -1.99151933e+00 9.94103402e-02 -2.75081086e+00 1.74120200e+00 8.12277257e-01 -5.02599895e-01 1.76572263e+00 -3.63900453e-01 2.48053581e-01 3.71021479e-01 -6.42928183e-01 -3.04055274e-01 3.39302599e-01 2.34109774e-01 -3.67695861e-03 7.09846735e-01 1.27811030e-01
2.14475729e-02 -1.95952505e-02 5.58275096e-02 4.06377576e-02 4.15729046e-01 -1.08004576e-02 2.10659020e-02 1.68695990e-02 4.61155325e-02 -4.35534306e-03 -1.04509722e-02 -7.15609491e-02 1.03772417e-01 -6.54494972e-04 2.95222737e-03 -7.12548196e-02 9.99678485e-03 -3.76448631e-02 -6.85250610e-02 8.99378285e-02 1.49312198e-01 3.92531157e-02 -2.52968576e-02 -1.41050844e-02 -1.32692307e-01 -1.42984673e-01 1.50664272e-02 3.39719623e-01 -4.47968282e-02 -5.93644790e-02 1.41867157e-02 -2.41123378e-01
-4.01634693e-01 1.87895358e-01 -1.01591691e-01 -1.01838566e-01 -3.16729486e-01 -2.88568158e-02 -1.62380844e-01 7.19452381e-01 1.99910719e-02 -9.91041660e-02 -1.97271124e-01 7.12477386e-01 5.29117644e-01 3.04656446e-01 9.93805677e-02 -4.96351253e-03 -6.38875961e-02 -1.23020187e-02 -1.50503591e-01 7.81650282e-03 -1.24433056e-01 -5.98115563e-01 -2.49981925e-01 -2.48258203e-01 -3.21700633e-01 -1.49319559e-01 -6.39590919e-01 4.04932797e-01 -2.28287622e-01 -2.84372181e-01 -3.44768137e-01 4.95282650e-01
-2.80537233e-02 -2.24318877e-01 6.57184541e-01 2.31269076e-01 -6.78123593e-01 2.87563354e-01 3.54079932e-01 -5.83163381e-01 4.99573708e-01 3.47486138e-01 -1.01899713e-01 4.34077591e-01 -6.68646544e-02 1.54839993e-01 2.12265864e-01 -2.09483433e+00 9.52855349e-02 -1.08680940e+00 7.71625042e-02 1.80309117e-01 -6.68108044e-03 2.11197272e-01 2.87625581e-01 1.40456155e-01 -1.66820362e-01 -5.05723476e-01 -1.06420107e-01 -2.76424140e-01 -3.55881244e-01 -5.09673238e-01 3.96831900e-01 -3.50624681e-01
-2.03235552e-01 -2.11085416e-02 -1.97351575e-01 1.58907697e-01 -8.69993772e-03 9.83612798e-03 2.34739289e-01 -1.96254045e-01 -5.57938397e-01 1.60595655e+00 -3.66908699e-01 -7.98804462e-02 -2.81166822e-01 1.25941861e+00 -1.73881412e-01 2.69564316e-02 -1.13612181e-02 1.21883251e-01 -1.26019523e-01 -3.11758876e-01 8.38661119e-02 1.84712127e-01 3.11929956e-02 -1.75959200e-01 -7.82440305e-02 6.58382401e-02 4.35731143e-01 3.90779287e-01 2.15486258e-01 -4.52933609e-01 2.70071387e-01 -1.53415680e-01
-5.39981015e-02 -1.79263860e-01 5.55842757e-01 4.99654025e-01 6.20492846e-02 -4.21904474e-01 -1.16450346e+00 9.82564837e-02 2.91766137e-01 3.74137253e-01 1.12441324e-01 -7.96316415e-02 9.23845619e-02 1.33789480e-01 -2.69632727e-01 7.64777124e-01 3.03989295e-02 4.18053806e-01 -1.03967912e-01 -3.05504441e-01 8.89224470e-01 3.34543884e-01 3.27156335e-01 -6.22804105e-01 1.04986630e-01 1.29177896e-02 -1.81752369e-01 1.75056681e-01 -1.55617058e-01 3.51467997e-01 -2.10849941e-01 -3.68462354e-01
1.16329801e+00 -4.02569622e-01 4.76927519e-01 9.75221634e-01 -3.90619308e-01 2.50539005e-01 -7.65608907e-01 -6.05162859e-01 6.05652034e-01 -8.14773858e-01 -2.80216604e-01 7.32565582e-01 -1.23619270e+00 -1.98684439e-01 7.02282310e-01 -5.12361526e-01 -9.85889286e-02 -1.60047248e-01 7.18125284e-01 7.33523130e-01 3.08925509e-01 -4.68840837e-01 -2.01215172e+00 -5.06656945e-01 5.21668732e-01 5.48735797e-01 -8.12589347e-01 -3.37119222e-01 -1.23349681e-01 1.25237894e+00 -5.19968987e-01 -1.06639802e-01
-2.34600324e-02 1.69047520e-01 -5.16398512e-02 -4.83238399e-02 -1.47792920e-01 -3.37950177e-02 4.21808697e-02 -4.14514765e-02 -5.19531555e-02 -1.98850222e-02 3.97431925e-02 9.42912027e-02 8.53834003e-02 -5.20101525e-02 1.77008986e-01 -1.55598059e-01 1.01167805e-01 1.73335657e-01 -2.42143013e-02 -2.77031660e-01 1.45225674e-01 3.43425870e-02 -2.57448815e-02 -3.08524966e-02 -3.03659827e-01 -4.01075073e-02 2.11870205e-02 -8.44495669e-02 -2.69854311e-02 -6.82729343e-03 -1.84672233e-02 -2.18382403e-01
4.74161692e-02 3.49288136e-01 1.64794385e+00 4.38078761e-01 -1.28729606e+00 2.08360255e-01 -1.70117214e-01 -5.25997698e-01 8.25957477e-01 6.01297200e-01 1.61271632e-01 -3.35911781e-01 -8.82698774e-01 8.12120736e-01 1.39590548e-02 -3.55233145e+00 -1.56326398e-01 -4.67188978e+00 3.24329019e-01 1.56601161e-01 -1.19220281e+00 1.01288843e+00 3.92982334e-01 1.60858840e-01 2.22949982e-01 -1.44926518e-01 -5.33779263e-01 6.36643887e-01 -1.64518997e-01 -1.97687503e-02 1.02167986e-01 1.82942045e-03
-8.19682360e-01 1.51121840e-01 1.27015322e-01 -7.08227873e-01 -6.37835860e-02 -1.38539732e-01 -2.48361096e-01 4.71123457e-01 -3.62802260e-02 -4.87057213e-03 1.47804514e-01 -3.29857886e-01 4.05309290e-01 4.79746491e-01 -3.65595907e-01 -4.14022058e-01 1.70179993e-01 -2.70547509e-01 -3.22292328e-01 1.24618493e-01 1.11729518e-01 6.78302467e-01 2.54275739e-01 -2.12237284e-01 -7.90524706e-02 2.79077291e-01 -6.79233849e-01 6.84855357e-02 8.05003345e-02 -5.28414249e-01 -1.42865509e-01 -7.88776636e-01

layers.2.bias:
-1.40230370e+00
-8.04908633e-01
4.79591429e-01
-5.87159991e-01
1.21516258e-01
-3.35498989e-01
2.51624316e-01
2.14372015e+00
7.99768627e-01
8.42820704e-01
-9.02852714e-01
-1.37648284e+00
-3.41014624e-01
8.83975983e-01
-2.72616804e-01
-7.26392806e-01
-6.71404153e-02
-7.85755277e-01
3.43068004e-01
-8.10512155e-02
-2.86941618e-01
7.93010116e-01
7.99706161e-01
-1.31838739e-01
-3.83704424e-01
1.02756584e+00
-9.74636793e-01
-1.09910893e+00
5.05612254e-01
-1.13150847e+00
3.59668583e-02
-5.90156913e-02
7.50659883e-01
1.13128558e-01
-3.41937602e-01
-4.58894204e-03
-1.28376484e-01
1.36809838e+00
1.00735509e+00
-1.06728725e-01
9.80127752e-01
-1.73393205e-01
-5.35924017e-01
1.52473187e+00
2.52383202e-01
-9.63758647e-01
1.05283213e+00
-3.52339298e-01
8.00878286e-01
1.78981352e+00
2.29181051e-01
2.76889741e-01
1.16119072e-01
-6.27371430e-01
1.34446993e-01
-2.19766479e-02
8.08762193e-01
-1.32480159e-01
-1.09272748e-01
-5.88456810e-01
6.46492064e-01
6.15517087e-02
-2.85874605e-01
6.70006454e-01

layers.4.weight:
3.30877483e-01 2.82857604e-02 -5.07902242e-02 2.57598683e-02 -3.14255506e-02 1.20024920e-01 4.59818548e-04 -6.88352644e-01 -4.50310111e-02 -4.00317878e-01 6.50979057e-02 8.91500652e-01 -1.57483125e+00 -8.64006355e-02 7.98441935e-03 -1.44930756e+00 -5.87769435e-04 7.97564164e-02 2.25218777e-02 7.64993078e-04 -1.55964080e-04 -1.23562679e-01 -2.54580984e-03 2.37492323e-01 -6.17410429e-02 -3.73431854e-02 1.52123915e-02 8.00848961e-01 -3.91332388e-01 3.89466166e-01 -2.95817275e-02 -1.27717718e-01 -7.91139826e-02 8.32626887e-04 9.62313339e-02 -3.57154611e-04 -7.03666010e-04 -2.04286546e-01 -2.72718556e-02 2.99217314e-01 -7.27665275e-02 2.89131522e-01 2.37598326e-02 -1.26543865e-01 3.53423908e-04 1.27521738e-01 -1.97536498e-02 -5.85063535e-04 -9.88653004e-02 -6.43722057e-01 -6.13388829e-02 -2.86232904e-02 -1.32249936e-03 8.43396131e-03 -1.14555192e+00 2.52857222e-04 -8.48696008e-03 -3.03145289e-01 -5.65230809e-02 3.14835571e-02 -1.90135781e-02 5.11236954e-04 8.98631811e-01 -2.05087103e-02

layers.4.bias:
-1.06925297e+00

