layers.0.weight:
3.31696361e-01 -5.67613244e-01 7.97264636e-01
5.69172144e-01 -8.09445798e-01 -5.80563486e-01
-8.31293464e-02 -6.13938749e-01 -5.77727258e-01
-1.07055378e+00 1.15616508e-01 4.58123112e+00
2.67282110e-02 4.11940843e-01 1.16166264e-01
-5.79876065e-01 8.58121514e-01 -1.84879377e-01
-1.31842160e+00 4.86020595e-01 -9.88645032e-02
-6.01682402e-02 7.88846374e-01 -9.23566997e-01
6.03414774e-01 -9.26082134e-01 5.12713566e-02
-1.11527514e+00 5.86289167e-02 -1.64189592e-01
7.53551662e-01 -9.85680073e-02 1.41279221e+00
-7.16238439e-01 -1.31785080e-01 -1.29353356e+00
-4.30584475e-02 7.12955832e-01 -1.57757306e+00
-1.16726887e+00 2.10410804e-02 5.00053525e-01
-6.46977663e-01 1.09646142e+00 7.52028525e-01
-1.81771189e-01 9.48456824e-01 1.64468549e-02
5.46070874e-01 -6.33792400e-01 -1.45019031e+00
-1.15504665e-02 1.12846863e+00 1.84981868e-01
8.07071701e-02 -9.54183042e-01 5.35116851e-01
3.41117471e-01 -1.28724232e-01 -8.64976227e-01
2.23475501e-01 1.65966094e-01 -5.10879010e-02
-3.24195027e-01 -2.56797969e-01 -1.00232065e+00
-4.64660525e-01 1.65601885e+00 -4.46076952e-02
-1.56447518e+00 4.06930357e-01 1.75152493e+00
1.05132234e+00 3.79940838e-01 -7.78481364e-01
2.59609371e-01 6.71772659e-01 -1.17486012e+00
-1.16151750e-01 -2.13369340e-01 1.90187418e+00
-3.97779703e-01 -2.44972542e-01 1.92939892e-01
3.22416067e-01 7.57217348e-01 -1.46468067e+00
-1.04933763e-02 4.65525806e-01 1.70563948e+00
-2.89658904e+00 2.84448242e+00 -1.78299040e-01
-1.26738083e+00 -5.19488692e-01 1.02004325e+00

layers.0.bias:
8.77201200e-01
4.81547834e-03
-1.42384720e+00
-6.34384930e-01
7.07518518e-01
-2.04255387e-01
-3.54310095e-01
2.86240637e-01
-7.45998621e-01
-1.59115899e+00
1.64644122e-01
1.80825554e-02
2.46107668e-01
-1.21306002e+00
-2.90836543e-01
1.43946290e+00
9.34610724e-01
1.82654703e+00
-6.68276668e-01
5.78918040e-01
-1.44309163e-01
-1.35729384e+00
1.02535832e+00
-7.05530941e-02
1.36946186e-01
5.60703695e-01
8.80503118e-01
-1.57881156e-01
-4.88352716e-01
7.31267482e-02
8.91685039e-02
-6.70209900e-02

layers.2.weight:
-3.06856602e-01 2.95269668e-01 1.09823585e-01 -5.25081813e-01 -1.38275951e-01 -8.79862830e-02 1.11968882e-01 -3.56286205e-02 -4.34191115e-02 2.63132310e+00 4.35127094e-02 1.24391466e-01 -1.85035706e-01 2.34958839e+00 -2.96265960e-01 4.18849409e-01 -1.25782574e-02 6.06963694e-01 1.41360804e-01 -2.22137168e-01 1.80334970e-01 -3.58477831e-02 -5.86715102e-01 5.49378216e-01 -1.52101398e-01 6.52718604e-01 -8.30047309e-01 -8.59660357e-02 -1.68319419e-01 -2.63081372e-01 -4.10181314e-01 3.26666206e-01
-8.61320645e-02 1.27242342e-01 -8.54040325e-01 6.34254739e-02 -4.01556879e-01 1.56688929e-01 -7.33284652e-01 -4.99579012e-01 5.42749882e-01 6.79614961e-01 3.53402168e-01 -2.83611864e-01 2.36979857e-01 -2.45662592e-02 -2.88670182e-01 1.99187756e-01 -3.82521302e-01 3.42691183e-01 -4.12384152e-01 -8.40247199e-02 6.37942433e-01 -1.24775171e-01 -4.12126631e-01 -3.96000184e-02 5.59838954e-04 -7.97655731e-02 -3.14416468e-01 -5.26444852e-01 5.32958396e-02 -2.08187938e-01 -1.95272621e-02 1.93062186e-01
-7.87404031e-02 -5.44745065e-02 3.56293283e-02 -7.83969820e-01 -6.16480172e-01 1.50656225e-02 -4.53267843e-01 3.61750185e-01 4.26621407e-01 7.55362570e-01 -5.76880515e-01 -6.10808879e-02 1.93945214e-01 4.78691347e-02 -4.23668623e-02 -6.16424382e-01 -1.18703671e-01 -5.38346708e-01 -1.41933784e-01 4.23510909e-01 -3.40116441e-01 -2.28178412e-01 4.37592626e-01 -1.20236421e+00 -2.29355782e-01 4.65396166e-01 -1.20281005e+00 -6.83982223e-02 4.60039645e-01 -4.08410907e-01 1.21024989e-01 1.14466339e-01
2.89534479e-01 -2.46286374e-02 3.93359959e-02 1.38853776e+00 4.81522173e-01 3.41709286e-01 6.18108988e-01 -2.85185605e-01 -9.95324925e-02 -8.48267376e-02 2.02406690e-01 -1.04567640e-01 -6.18908525e-01 1.19289145e-01 5.78793049e-01 6.32981718e-01 -2.51138717e-01 6.01353943e-01 3.69191140e-01 -9.15764570e-01 -8.56199443e-01 -1.92694068e-01 3.24290186e-01 1.38391626e+00 -5.12337387e-01 -5.96653342e-01 5.40251553e-01 2.95904845e-01 -7.09145069e-01 -1.17383204e-01 -6.43908381e-02 5.24498224e-01
1.76754147e-02 -3.96478325e-01 3.16668093e-01 -4.62095380e-01 3.99425291e-02 -2.19661325e-01 -1.05212009e+00 2.02900708e-01 2.40278523e-03 -3.87271494e-01 4.20422405e-01 -7.56148994e-01 8.24024320e-01 -7.53075421e-01 -2.40337569e-02 -8.61951292e-01 -3.55666608e-01 -8.82810712e-01 -1.81950986e-01 -1.17057361e-01 9.44877625e-01 -5.13489544e-01 2.94943601e-01 -3.51127893e-01 -7.70324230e-01 6.60999298e-01 8.09932500e-02 -6.64814055e-01 -2.05202103e-01 6.08629167e-01 -1.37508944e-01 1.70112867e-02
-3.74592751e-01 2.87299573e-01 2.64702618e-01 1.90488324e-01 -6.46480143e-01 -2.70169735e-01 -5.12116611e-01 2.99755365e-01 4.35010403e-01 -1.94053173e-01 6.69762373e-01 2.05055699e-01 -9.86678228e-02 -3.33061218e-01 -3.63195747e-01 -9.28340375e-01 -3.20566952e-01 -1.06871974e+00 6.21434093e-01 -2.29130611e-01 -5.62491596e-01 -8.72849971e-02 -5.90478897e-01 -2.32327059e-01 1.11676477e-01 8.15846846e-02 1.72665805e-01 1.02320647e+00 -1.38828516e-01 -4.06104237e-01 -5.96548617e-01 2.74439454e-01
4.70103174e-02 -1.40504129e-02 -2.20044360e-01 -1.35841705e-02 -1.58221126e-01 1.53488144e-01 -3.90922986e-02 -4.29197222e-01 -1.12117633e-01 2.38206208e-01 2.90795714e-01 8.98599476e-02 2.93476760e-01 2.75475979e-02 -7.71876052e-03 -2.92659819e-01 -2.42697191e-03 1.02466151e-01 1.43471537e-02 -3.06775033e-01 -3.96474898e-01 8.39705169e-02 4.86973263e-02 2.11391896e-02 1.74946338e-01 2.69529402e-01 -3.64355057e-01 -4.35510844e-01 -1.46299809e-01 6.73300177e-02 -1.11433230e-02 1.29885986e-01
2.37058640e-01 7.29316697e-02 -4.17576075e-01 3.78137678e-01 3.37925732e-01 -5.90638936e-01 1.25317916e-01 5.00297785e-01 4.72123884e-02 -2.53980458e-01 -1.09450281e-01 9.31013048e-01 2.95309603e-01 -5.08039773e-01 -1.29081488e-01 1.83213606e-01 4.88573402e-01 1.99664414e-01 1.90587804e-01 4.65615749e-01 -1.39708006e+00 -9.07287538e-01 1.78363174e-01 3.28788519e-01 2.43872672e-01 7.25765467e-01 6.21777415e-01 4.82313991e-01 -5.64844489e-01 5.19404769e-01 2.43993148e-01 -3.08556974e-01
3.23385708e-02 2.93274373e-01 -5.46251893e-01 -2.34865651e-01 1.23800063e+00 -3.81391108e-01 -6.15552068e-01 -3.43521297e-01 -6.08570337e-01 2.84153163e-01 4.91900086e-01 1.78345710e-01 6.67210817e-01 -2.49998435e-01 1.01005711e-01 1.64073956e+00 3.68233234e-01 1.29161775e+00 -5.69935799e-01 -1.26781076e-01 1.85569480e-01 -2.94451714e-01 1.01810805e-01 2.62784541e-01 1.08844869e-01 3.69410247e-01 6.79282099e-02 -4.44833934e-02 4.48130828e-04 1.82934120e-01 2.22100997e+00 -3.57123137e-01
-6.12968802e-01 1.05038568e-01 -1.12270772e-01 -5.17989516e-01 4.53721434e-01 1.20888874e-02 -5.00002056e-02 3.69300067e-01 4.12424862e-01 -1.67878136e-01 1.56174749e-02 2.36816928e-01 1.78970784e-01 1.83743849e-01 -3.54938149e-01 -5.49132109e-01 3.20475996e-01 -3.70071203e-01 -4.12710816e-01 -3.51842903e-02 -6.43123686e-01 -2.38753095e-01 1.02060340e-01 -6.78577721e-02 -2.13237479e-01 -9.73600447e-02 -1.69269592e-01 2.27067336e-01 2.60066807e-01 1.69702888e-01 1.55434012e-01 -6.29123533e-03
1.00301005e-01 -3.36219341e-01 -1.24320112e-01 -3.55442256e-01 -3.94226819e-01 -2.81199396e-01 -3.53593767e-01 1.51797175e-01 4.62034315e-01 2.52354622e-01 -5.23496151e-01 -1.20923765e-01 8.50664556e-01 -3.17268699e-01 -1.85829207e-01 -2.95317173e-01 -6.48663521e-01 -7.72616446e-01 -5.91300316e-02 -4.67731468e-02 1.06425428e+00 -2.66179651e-01 -7.71185517e-01 1.81545630e-01 -5.91047294e-02 -6.32730126e-02 -4.27570403e-01 -5.69000959e-01 3.21893573e-01 -3.90500396e-01 -4.19213884e-02 3.25673342e-01
-7.92042091e-02 -1.40005305e-01 1.65583193e+00 -8.68974388e-01 -6.92889094e-01 1.32043704e-01 1.27929905e-02 -4.04352874e-01 -1.71044171e-01 1.86794400e+00 3.95495333e-02 -1.49098560e-01 2.87583679e-01 3.24804401e+00 1.03739515e-01 -5.15990376e-01 2.89193004e-01 -2.34879351e+00 5.90319574e-01 -3.30720663e-01 2.53793985e-01 5.89212120e-01 -2.76307315e-01 8.62743139e-01 -9.38598663e-02 -5.59439063e-01 3.01364571e-01 -9.46589261e-02 8.15474391e-02 4.23537269e-02 7.90753290e-02 -3.23589385e-01
-6.62387550e-01 -2.14591712e-01 9.29625094e-01 4.03195888e-01 -5.88832200e-01 6.28308475e-01 6.40949532e-02 -8.88334095e-01 3.33252430e-01 4.03033078e-01 1.97331771e-01 1.38750419e-01 -4.93697375e-01 -1.52639493e-01 5.02431393e-01 -4.03717232e+00 -1.39900088e-01 -5.93643475e+00 5.28965056e-01 -1.01111257e+00 -6.57084584e-01 4.70962882e-01 6.62607968e-01 -1.09034546e-01 -2.43218765e-01 -2.24209964e-01 -3.67261082e-01 6.14872873e-01 -5.88949382e-01 -3.31388891e-01 -1.31175876e+00 -2.75872499e-01
5.64595684e-03 -1.89838186e-01 -6.18850708e-01 -6.39705136e-02 -1.85704455e-01 -7.69423926e-03 2.69923687e-01 3.45933378e-01 3.47205848e-01 -1.60950184e-01 5.28350532e-01 -1.90069631e-01 3.34363103e-01 -7.97022521e-01 -2.92068571e-01 -9.49615911e-02 -2.61128992e-01 1.74452707e-01 -1.18614070e-01 1.11625329e-01 -4.56988951e-03 -1.35187626e-01 6.49472177e-02 -2.18563586e-01 -1.21105924e-01 7.61182487e-01 -9.12644062e-03 3.58854495e-02 -1.73252374e-01 2.61867106e-01 2.13805810e-01 3.50913852e-01
-8.98700297e-01 2.55132735e-01 1.44720182e-03 3.26630533e-01 -2.60132313e-01 5.94165385e-01 -3.71590346e-01 -1.04701050e-01 4.56559092e-01 -1.90485820e-01 -7.75246441e-01 2.53323793e-01 1.67298660e-01 -3.32158267e-01 -3.24551046e-01 -7.06014037e-01 2.40110770e-01 -7.21432805e-01 -3.76565844e-01 3.29807073e-01 1.34375715e+00 9.88927603e-01 -7.25194067e-02 1.59761652e-01 -3.78738135e-01 1.14990443e-01 -6.03643656e-01 7.24596605e-02 7.67821610e-01 -2.60952622e-01 -1.09608740e-01 1.48925975e-01
-4.62399632e-01 -8.91682133e-03 1.14303790e-01 6.40993863e-02 -2.21534327e-01 1.88900352e-01 -8.61136615e-01 -3.76788452e-02 3.32356840e-02 5.30850983e+00 4.90262687e-01 4.98560369e-01 2.88625360e-01 2.61577058e+00 -3.07074990e-02 2.39260718e-02 -3.62079442e-01 -1.18593864e-01 2.99487375e-02 -1.31891429e-01 -7.69590735e-01 4.76070374e-01 8.56277198e-02 2.12774202e-01 -4.66445208e-01 -3.63783270e-01 -7.03211963e-01 4.06858206e-01 -1.35250345e-01 -7.31124580e-01 2.83515513e-01 -1.71835959e-01
-2.49283910e-02 1.48871943e-01 -6.49349242e-02 3.42062227e-02 4.06815019e-03 8.31166189e-03 1.00217229e-02 -5.58818579e-02 1.24913221e-02 -1.91954732e-01 5.98865114e-02 4.63291891e-02 4.25445922e-02 1.06163360e-01 1.14663057e-01 7.81201618e-03 4.19821255e-02 -1.45572261e-03 -2.01315172e-02 9.84435305e-02 2.35871583e-01 1.26941204e-01 -4.57648654e-03 3.20838317e-02 5.33592887e-02 1.01665342e-02 5.56426533e-02 3.02298099e-01 1.08492887e-02 -1.20637356e-03 -8.85802601e-03 2.31428109e-02
1.84722453e-01 -1.16355576e-01 -5.46733618e-01 3.55684124e-02 5.41949347e-02 -2.11034849e-01 -2.58393109e-01 -2.99885392e-01 3.09847474e-01 -6.98552787e-01 5.04924543e-02 -1.04918359e-02 2.14793161e-01 3.50902304e-02 -8.24150443e-02 1.14749402e-01 -2.99461633e-01 3.92049760e-01 -1.15596175e-01 9.29695249e-01 2.65342146e-01 1.32156670e-01 -4.73110467e-01 -1.35705665e-01 -1.13256872e-01 -4.19665784e-01 8.31825078e-01 -5.13605714e-01 2.46037379e-01 2.98805088e-01 -4.55260649e-02 1.87338129e-01
-2.54900992e-01 -7.65739083e-02 -3.30948263e-01 -1.92083910e-01 4.63151634e-01 4.92501631e-03 1.55251592e-01 1.09543651e-01 4.02421594e-01 -4.14246976e-01 -1.45522237e-01 -9.37712252e-01 4.59213763e-01 -1.93575263e-01 -1.87701657e-01 2.24776089e-01 -1.32148266e-01 3.61934334e-01 1.57291457e-01 -8.31276998e-02 -2.01444123e-02 -2.07946941e-01 4.56830859e-01 -3.10361236e-01 2.11969227e-01 1.78266257e-01 -1.60963595e-01 3.33747566e-01 2.15845909e-02 3.65631402e-01 5.06114960e-01 1.57592103e-01
5.86627573e-02 1.94640070e-01 6.27129851e-03 7.03972131e-02 -7.73607865e-02 9.86434370e-02 -5.93229104e-03 -8.46444443e-02 4.51917462e-02 8.92462656e-02 6.33620545e-02 1.16827197e-01 -7.22236931e-02 -8.65910798e-02 1.09841138e-01 4.47201908e-01 7.30107129e-02 -3.14911604e-01 4.37795334e-02 -1.02312922e-01 -1.30979821e-01 -1.13963917e-01 1.39234005e-03 -3.34438495e-02 1.81058329e-02 1.16364606e-01 6.49277726e-03 3.26894447e-02 1.00394934e-01 1.53519865e-02 -7.99763948e-03 6.04091436e-02
5.62646687e-01 -1.37619495e-01 6.58804238e-01 5.25491714e-01 -2.76936710e-01 -2.85474807e-01 -6.91864610e-01 -1.35166645e-01 -2.81406343e-01 -8.99034441e-01 -1.04922868e-01 9.77953672e-01 4.94987279e-01 -4.73312736e-01 7.11462259e-01 5.75320542e-01 -6.69827908e-02 -2.31257722e-01 5.10662198e-01 4.66440737e-01 -5.21635413e-01 7.99661055e-02 4.99700993e-01 1.77769020e-01 6.65227771e-02 -3.72444838e-01 9.05329213e-02 3.77911687e-01 -1.19813703e-01 -8.68363380e-02 2.07481254e-02 4.56762463e-01
2.40614057e-01 -1.27187312e-01 5.55106066e-02 1.40555575e-01 6.68548644e-02 1.50896743e-01 9.28796232e-01 7.32165501e-02 4.77983683e-01 2.62709916e-01 3.22815418e-01 3.76004159e-01 -3.89723331e-01 -5.49851179e-01 1.28507301e-01 -9.53531384e-01 -6.11305088e-02 -7.01014340e-01 -7.42055848e-02 -4.49453056e-01 -4.93289351e-01 3.31534562e-03 2.40591675e-01 -3.29997689e-02 1.13250315e-01 -4.24771994e-01 -7.16777325e-01 4.18727010e-01 -9.15748775e-02 -1.96091563e-01 2.44426832e-01 -1.13051936e-01
6.87499568e-02 -1.04584256e-02 -2.86000550e-01 4.25501734e-01 3.34988795e-02 3.62959296e-01 3.61762434e-01 -2.78463989e-01 -3.05931360e-01 3.46838206e-01 4.04186882e-02 6.50927648e-02 4.19493496e-01 5.11368990e-01 -1.61328182e-01 -5.59941590e-01 5.48817217e-01 -1.76470801e-01 5.09459004e-02 -2.52125412e-01 -3.42875659e-01 3.79104093e-02 -3.83956015e-01 1.90698609e-01 -3.68977129e-01 -1.27543271e-01 -3.77859063e-02 -4.80887681e-01 3.81978862e-02 -9.82236788e-02 -4.18137610e-02 -2.76944220e-01
7.17571318e-01 -5.71906157e-02 -2.55827427e-01 1.94319263e-01 1.03056230e-01 -4.39636111e-01 -8.12422261e-02 3.09360534e-01 3.17591429e-01 -2.70395088e+00 1.41148746e-01 1.45389795e-01 3.53866488e-01 -1.65995061e+00 9.70726684e-02 3.05134267e-01 1.11431919e-01 2.30620399e-01 -2.36562133e-01 -3.51853296e-02 5.25873780e-01 -2.31279522e-01 -2.22552881e-01 -3.46422158e-02 -3.20017457e-01 -2.14431494e-01 -3.22460905e-02 -2.02687174e-01 2.84678370e-01 1.33797035e-01 -2.60732353e-01 -2.23097667e-01
-8.37262273e-01 1.48792103e-01 1.08473273e-02 1.32214934e-01 -1.17766298e-01 -3.47115815e-01 9.80021715e-01 -1.15229346e-01 -9.67155933e-01 7.18288064e-01 -7.11828649e-01 2.73660310e-02 1.55641750e-01 7.38078207e-02 -7.00477898e-01 2.66082764e-01 5.94366252e-01 3.83249879e-01 3.20057869e-01 7.85693154e-03 -1.65936813e-01 3.56038898e-01 5.37446141e-01 9.66224849e-01 -3.66126716e-01 5.13284087e-01 -6.10779107e-01 -5.69794327e-02 8.78105938e-01 -4.43957269e-01 1.09511599e-01 -6.34296611e-02
-5.40709972e-01 6.06887877e-01 -5.14536388e-02 -1.36392862e-01 5.75707853e-01 1.58740073e-01 -6.89179963e-03 5.11702359e-01 -3.06337446e-01 4.88752514e-01 7.27364197e-02 -1.64138958e-01 2.13157400e-01 2.02074826e-01 -5.43619275e-01 -1.99014857e-01 -1.20742679e-01 -6.07515574e-02 3.93731683e-01 -3.76703680e-01 2.26584659e-03 -2.81768441e-01 1.55955190e-02 -5.16515791e-01 1.09917931e-01 -2.06394345e-01 -5.59709907e-01 -5.18870354e-01 1.65042326e-01 -3.59664828e-01 -2.04786748e-01 -2.82601446e-01
-1.34092599e-01 2.18371242e-01 4.53872383e-01 3.65686476e-01 -2.74883032e-01 -2.88814753e-01 -1.25569850e-01 -7.33757112e-03 2.92913377e-01 -4.52016592e-01 -5.79138517e-01 -7.27360621e-02 -2.68933028e-01 -2.88150549e-01 7.04497695e-02 5.97207963e-01 -9.94917154e-02 2.13333830e-01 2.89725810e-01 2.07915142e-01 7.45001957e-02 -7.50456691e-01 1.72957703e-01 1.07210055e-01 2.81007707e-01 1.66411981e-01 1.94983855e-02 -5.65027714e-01 -2.71601409e-01 -1.11519158e-01 9.56932157e-02 -2.51799613e-01
-7.75839925e-01 4.88649309e-01 -5.57511449e-01 -1.03363669e+00 -3.18415970e-01 -2.47114316e-01 -3.13164413e-01 3.84818703e-01 1.00214928e-01 4.85130608e-01 -7.09414408e-02 2.07187697e-01 1.98592499e-01 2.85983503e-01 -3.61333452e-02 9.79800463e-01 7.11871266e-01 1.05312705e+00 -5.29816091e-01 9.71659422e-02 5.02962410e-01 -7.26121008e-01 -6.71830356e-01 3.92079562e-01 -2.42950901e-01 -4.29689080e-01 2.58740127e-01 3.05050254e-01 5.00799835e-01 -8.37979317e-01 1.95618033e-01 -1.55862212e-01
1.32343158e-01 -5.70391119e-01 -9.61163491e-02 -9.05485377e-02 -5.17118216e-01 5.41002214e-01 8.99577364e-02 -4.73093212e-01 4.95843649e-01 9.25726175e-01 -2.07858354e-01 9.76176485e-02 5.29093325e-01 4.40023780e-01 5.02991155e-02 -9.93743896e-01 -4.76724356e-01 -9.69183505e-01 -5.75497805e-04 1.89531580e-01 2.55113155e-01 3.22604418e-01 1.82390228e-01 1.85116410e-01 2.82673180e-01 8.19910020e-02 -3.86924922e-01 -2.31035799e-01 -2.80856401e-01 -3.13676596e-01 4.46965992e-01 2.86651611e-01
-1.33579597e-01 -1.05026162e+00 4.28990811e-01 1.51115501e+00 1.35934368e-01 1.72827825e-01 -5.52718714e-02 -1.85212716e-01 -2.96196818e-01 3.05127203e-01 1.01508081e+00 -9.21872556e-01 -1.02891445e+00 -3.12061399e-01 2.73961186e-01 2.41689291e-02 -1.27915502e+00 7.22022653e-01 5.45638919e-01 -6.29190564e-01 1.00481641e+00 2.66454697e-01 9.69407633e-02 -1.23793662e-01 1.78192258e-01 -4.27627325e-01 1.30462423e-01 -1.67100981e-01 -8.05366039e-01 1.19374442e+00 -5.48904538e-01 -1.69628546e-01
-7.00751781e-01 -1.30382255e-01 3.62564445e-01 5.91359399e-02 -7.65189007e-02 2.07492545e-01 2.43463889e-01 1.24932066e-01 -3.69388551e-01 -2.66322374e-01 -1.00785589e+00 3.15160871e-01 5.43166995e-01 4.13065813e-02 1.31373242e-01 -2.37744287e-01 4.12252605e-01 -1.83272123e-01 -1.70749649e-01 -3.00330162e-01 -6.56992018e-01 2.29516029e-01 -3.60351354e-02 -7.53640532e-01 2.62947440e-01 6.48908794e-01 -1.91360995e-01 -6.02105185e-02 -3.22460711e-01 -2.95589030e-01 -2.02200308e-01 -9.19906721e-02
-2.84928828e-01 -3.10167283e-01 -1.23646416e-01 -1.76443309e-01 -2.71045327e-01 -8.71506035e-02 2.30490938e-01 2.65320718e-01 -5.95708966e-01 1.42326880e+00 -1.79297686e-01 -6.68576956e-02 -4.82201815e-01 5.15149355e-01 -1.71532631e-01 -1.28677590e-02 4.68018577e-02 8.83605182e-02 1.24555337e-03 -1.72513619e-01 2.09543705e-01 1.69846699e-01 2.67900944e-01 9.56675038e-03 3.30632776e-02 -5.41404672e-02 -2.13980019e-01 2.16155872e-01 2.61291951e-01 2.84856856e-01 3.87253538e-02 1.19731046e-01
-8.29089060e-02 -3.46908659e-01 -1.35993203e-02 -1.09466717e-01 -3.15321147e-01 4.65381354e-01 -2.05524951e-01 -4.16605920e-01 8.08427483e-02 -3.85382116e-01 1.77028365e-02 4.36149806e-01 2.11705729e-01 4.09036428e-01 3.07192415e-01 -5.24303138e-01 -4.36488569e-01 -1.20436275e+00 -5.66098765e-02 -3.13590646e-01 -1.21105179e-01 8.71555626e-01 4.29887712e-01 6.09830976e-01 -4.72729921e-01 1.44833893e-01 1.21182054e-01 -2.21785367e-01 -3.68185252e-01 -2.70049423e-01 -6.89007118e-02 -7.76213333e-02
3.07906773e-02 -3.30485515e-02 1.51643932e-01 -9.35227871e-02 2.21717075e-01 -1.14744417e-01 6.10562898e-02 -3.50045413e-01 -1.71530232e-01 3.83363873e-01 1.46970004e-01 1.74829990e-01 7.34797791e-02 -2.92223126e-01 -8.58616680e-02 -2.89845824e-01 6.68057799e-02 1.55799389e-01 -1.38496459e-01 -5.39955914e-01 1.50863722e-01 -1.46903902e-01 -1.30695492e-01 -6.38448521e-02 -2.53324863e-02 1.97183773e-01 -6.50296435e-02 1.33676669e-02 1.04731210e-01 6.90672621e-02 -3.83924483e-03 2.12888326e-02
2.84423709e-01 -4.95052040e-01 -3.52233499e-01 8.18978727e-01 -1.74192458e-01 -6.67658865e-01 2.05436051e-01 -2.49112263e-01 2.72696139e-03 2.62061882e+00 -5.07231712e-01 9.37533379e-01 5.91419995e-01 8.32156360e-01 6.14926398e-01 1.50909945e-01 3.60053033e-02 1.86780199e-01 7.43883967e-01 3.43514472e-01 8.84132460e-02 7.76835680e-02 -3.37139755e-01 1.10883868e+00 -1.59182534e-01 7.07804859e-02 -2.47380376e-01 4.26375747e-01 -5.61280325e-02 8.22489932e-02 4.30081606e-01 1.32077992e-01
-1.19018197e-01 1.90037549e-01 1.31424457e-01 7.27204829e-02 3.08268629e-02 -3.95062491e-02 -4.54846816e-03 1.16143271e-01 -3.12915799e-05 -2.59197764e-02 1.57594413e-01 8.47944170e-02 8.67385343e-02 -2.48475038e-02 1.58956230e-01 1.88835368e-01 3.91381718e-02 -1.46152854e-01 -3.29754166e-02 8.21764171e-02 -1.85781479e-01 -3.75240445e-02 -2.18542740e-02 5.55387419e-03 -4.91570085e-01 -2.35974193e-01 4.59391996e-02 -9.58291367e-02 -7.01356903e-02 -5.64793721e-02 5.44055772e-04 -4.34559911e-01
-1.08373389e-02 -7.15297163e-02 -4.68123108e-02 2.32833009e-02 -2.29957476e-01 2.47992631e-02 -1.83316302e-02 1.66227236e-01 5.11173047e-02 -4.80941050e-02 -1.86945610e-02 -1.55398091e-02 -6.59940541e-02 4.23341282e-02 -6.97706938e-02 2.20993921e-01 -1.00168258e-01 -1.40280038e-01 7.45652243e-03 3.32125783e-01 -2.63339013e-01 -9.27143022e-02 -3.28090764e-03 -1.63916759e-02 1.54646824e-03 -9.60775316e-02 -6.47220910e-02 -3.54383551e-02 -6.23606034e-02 4.98552099e-02 -4.55331290e-03 5.30114491e-03
8.07836115e-01 -2.51448691e-01 3.17370981e-01 3.14966649e-01 -3.25908929e-01 1.32413972e-02 -4.80263531e-01 8.48466307e-02 6.29520714e-01 8.15111473e-02 -2.06772089e-01 6.94368929e-02 8.79336149e-02 2.24168926e-01 7.22393513e-01 -4.87419248e-01 -4.31298584e-01 -6.06358826e-01 2.68388510e-01 -2.45967641e-01 -7.53268898e-01 2.43440747e-01 -1.39494359e-01 1.79770872e-01 7.65155256e-01 5.04984893e-03 1.96896300e-01 -1.54428869e-01 -4.59864140e-01 2.01539323e-01 9.10746232e-02 1.46798715e-01
1.27411827e-01 -4.23548549e-01 -3.24457169e-01 4.26732719e-01 2.96265274e-01 -5.83570838e-01 1.09849341e-01 -1.08539453e-02 2.39547119e-01 -2.42676437e-01 -2.19946176e-01 4.34825271e-01 3.35947037e-01 -2.68080860e-01 2.63512731e-01 -5.16734123e-01 -3.40982378e-01 -6.53208852e-01 4.09911454e-01 -4.15911883e-01 -2.37209767e-01 -8.90223607e-02 3.65663290e-01 6.66522563e-01 -1.41173020e-01 -3.37950766e-01 4.59753662e-01 -4.61033210e-02 -1.18958652e-01 -4.02823329e-01 1.19087107e-01 2.40214169e-01
2.60610078e-02 -1.43113136e-01 7.11613059e-01 1.35567561e-01 -1.05944729e+00 -2.82907367e-01 2.35761389e-01 -1.40873715e-01 6.34126961e-01 6.64285004e-01 -1.26316324e-01 -3.71163309e-01 -1.56616233e-02 8.48962903e-01 8.08248669e-02 -2.12912250e+00 -4.26226467e-01 -2.55526948e+00 1.49820685e-01 -7.11146966e-02 -7.86172867e-01 6.33118927e-01 2.39235207e-01 2.20913753e-01 3.14492017e-01 1.03767186e-01 3.62960398e-01 1.74914598e-01 -1.23497508e-01 -7.41207182e-01 -4.56667006e-01 5.66103458e-02
-1.87135935e-01 -2.53815472e-01 -2.53098905e-01 -2.81169206e-01 -2.61647403e-01 5.54624915e-01 1.80011973e-01 -1.05712593e-01 -1.17696330e-01 3.83596838e-01 -1.96754515e-01 1.64089188e-01 5.33563718e-02 -2.45020106e-01 -1.19922854e-01 -4.87934709e-01 2.95269221e-01 -6.23954058e-01 -2.90698737e-01 1.04030427e-02 -3.30121428e-01 3.88342261e-01 -1.46594986e-01 3.63473028e-01 3.51209611e-01 -5.26495695e-01 4.81890678e-01 7.31097832e-02 7.25946799e-02 1.33831337e-01 -7.26278201e-02 4.50543426e-02
4.43988472e-01 6.92966580e-01 6.62834227e-01 -4.09741670e-01 2.12838411e-01 1.54757231e-01 1.51310861e-01 -1.02569684e-01 -8.00084651e-01 9.43790019e-01 -2.84399182e-01 -2.39050388e-01 -4.31960136e-01 1.09769285e+00 1.48015946e-01 1.42777637e-01 3.73359285e-02 -8.86467695e-01 2.75628954e-01 -2.71723390e-01 6.46046773e-02 6.86132729e-01 -1.20515555e-01 -4.10930902e-01 6.65854335e-01 -7.56858051e-01 4.83859658e-01 -9.92292538e-02 -2.60272354e-01 -6.08847857e-01 -7.56754726e-02 -4.73730326e-01
-5.56894811e-03 -3.61840904e-01 1.90810949e-01 -1.86699629e-01 -1.85766280e-01 1.10117011e-01 1.30020484e-01 -2.70720959e-01 -5.18056810e-01 -3.57079536e-01 -1.19262159e-01 1.99706890e-02 -8.44821557e-02 4.21460450e-01 4.88708735e-01 3.76434118e-01 2.78504193e-01 -3.74634296e-01 2.98606623e-02 1.77186430e-01 -2.80805051e-01 3.16870928e-01 -3.63864362e-01 1.63839549e-01 -8.17511380e-02 -2.42059544e-01 3.96316350e-01 7.53286898e-01 -4.06831682e-01 -4.68988329e-01 2.50250608e-01 3.60625416e-01
-1.24348903e+00 1.11853376e-01 1.27643153e-01 -1.29860508e+00 -1.02326982e-01 -8.59554783e-02 1.98674336e-01 5.28537035e-01 1.14767112e-01 3.65700454e-01 -9.71817017e-01 7.00703025e-01 1.07743716e+00 3.66633266e-01 -6.64482713e-01 3.30668062e-01 5.66200912e-01 -3.88723850e-01 -2.88490087e-01 1.02380466e+00 -5.63259721e-01 -3.15894574e-01 -3.53426695e-01 -3.63397524e-02 5.80345094e-01 9.83260930e-01 8.71026635e-01 6.39287651e-01 4.92425084e-01 -1.01881254e+00 1.77627489e-01 2.32892022e-01
-9.68749300e-02 9.82991979e-02 2.98743665e-01 -4.34102491e-02 3.42630029e-01 -9.87586528e-02 7.61831319e-03 3.34708504e-02 -4.88460995e-02 2.06293017e-01 3.00260186e-02 1.31327407e-02 -1.20506678e-02 -1.43968999e-01 7.91638270e-02 -1.36422366e-01 8.70361775e-02 7.81725943e-02 1.08078402e-02 -4.12321478e-01 1.55994251e-01 -1.08834073e-01 1.94495004e-02 -8.56771134e-03 1.48250610e-01 -1.50880534e-02 7.85900876e-02 1.18473411e-01 3.15008275e-02 -8.34385380e-02 2.12756377e-02 5.92011251e-02
-4.07136865e-02 3.23575824e-01 2.75897920e-01 -7.72395730e-02 1.72015816e-01 3.22008207e-02 6.18346930e-01 2.41649672e-01 1.77582711e-01 -1.24387825e+00 -3.03638041e-01 4.91872251e-01 6.13803267e-01 -3.43328923e-01 -5.47035575e-01 -1.02437705e-01 5.64710140e-01 -3.29126984e-01 4.94101644e-02 -4.57269549e-01 8.55454862e-01 -3.25132191e-01 -5.66426441e-02 -1.35679352e+00 -2.24133328e-01 4.67525840e-01 -9.50767338e-01 -8.15330684e-01 2.22131178e-01 -7.48150647e-02 -9.45362896e-02 -6.07593916e-02
5.72563112e-01 -3.38667601e-01 -3.31416726e-01 4.69005674e-01 1.06850907e-03 -2.11910084e-02 -5.81827983e-02 -1.56555846e-01 4.61924404e-01 -6.66293651e-02 -9.25048888e-02 -7.59309009e-02 7.32471883e-01 -3.11625838e-01 3.83985579e-01 -3.07181805e-01 -5.57368957e-02 -4.24122334e-01 1.86144933e-01 -1.02616735e-01 -3.07606339e-01 8.74455720e-02 1.88750654e-01 1.84970587e-01 -3.11681796e-02 -2.37574354e-01 8.23768675e-01 4.85717088e-01 -3.73871565e-01 3.65495384e-01 2.30870709e-01 2.93055028e-01
-2.43663177e-01 3.29713762e-01 -1.79835513e-01 -4.62331139e-02 -5.52769065e-01 -1.96063370e-01 7.04091117e-02 4.62077081e-01 -6.23012520e-02 -5.54913104e-01 -1.85440764e-01 -1.35006839e-02 -3.44846368e-01 1.76415160e-01 2.67321706e-01 -1.94571778e-01 -9.23540220e-02 2.54388452e-01 6.34717988e-03 3.56199563e-01 -2.41809219e-01 -5.12600690e-02 -9.68868751e-03 -4.19301093e-02 -1.13401510e-01 -1.10430337e-01 2.70646662e-01 -2.69074827e-01 1.12043917e-01 7.02600321e-03 2.04431377e-02 1.63114518e-01
4.73736934e-02 -5.21079421e-01 -9.06722918e-02 -1.04427174e-01 -8.70599449e-02 -1.52431458e-01 -4.13771644e-02 -1.58092603e-01 -3.92044455e-01 4.68218416e-01 -9.45210923e-03 7.32715651e-02 3.55012298e-01 3.16459090e-01 -1.56681865e-01 -6.39128447e-01 -1.94861963e-01 -1.53207675e-01 -1.87511835e-02 5.45848943e-02 8.78190696e-02 -3.63715626e-02 5.65140247e-01 4.67650034e-02 -3.68898094e-01 2.32768074e-01 3.40145171e-01 8.89953375e-02 -5.96081018e-02 1.26956925e-01 -4.03971858e-02 -2.19845161e-01
9.65060890e-01 -3.41633931e-02 -6.24442875e-01 2.06245020e-01 2.86688268e-01 1.43596902e-01 5.41240871e-01 1.66478917e-01 -3.46598268e-01 -8.75620961e-01 -8.44539344e-01 1.35803282e+00 8.17584693e-02 -8.68519008e-01 3.38728189e-01 7.58323729e-01 4.54516103e-03 5.91783822e-01 -1.84054464e-01 1.50207803e-02 -1.49786532e+00 -4.04587150e-01 -7.55218267e-01 -1.65845379e-01 -4.74890232e-01 -1.80387106e-02 2.55937874e-01 6.19361699e-01 -4.34219316e-02 7.28373975e-02 -2.67978236e-02 4.98196423e-01
-1.45101130e-01 1.32116660e-01 -9.11088407e-01 -8.44076127e-02 1.88784286e-01 3.48594815e-01 1.05956487e-01 2.49819178e-02 3.19620222e-02 5.38596869e-01 -4.23979342e-01 -1.17167127e+00 3.89408618e-01 2.98481882e-01 -3.74562055e-01 5.26578128e-01 -1.52835632e-02 1.26310754e+00 -4.10355568e-01 1.43812999e-01 2.77655184e-01 -1.02032647e-01 -5.80371171e-02 6.48294508e-01 -2.95930266e-01 7.80037105e-01 -1.07998110e-01 -2.41419241e-01 8.39800164e-02 1.04895592e-01 6.96763456e-01 -4.13596034e-02
-1.22256828e-02 3.57563972e-01 -1.82520419e-01 -6.09834492e-01 -5.09950072e-02 7.29464591e-01 2.96295017e-01 7.81333864e-01 3.32268625e-01 3.18726897e-01 9.58760858e-01 -2.67320812e-01 7.56341517e-02 2.86738306e-01 4.50456217e-02 -7.17319608e-01 2.87314206e-01 -4.70723771e-02 -3.06493193e-01 -5.51054478e-01 -5.53321652e-02 -2.42608264e-01 2.38911077e-01 1.52891278e-01 -2.36882061e-01 1.57776147e-01 4.08913195e-02 -1.04160234e-03 -5.62114239e-01 2.60036141e-01 -1.80550084e-01 1.20539881e-01
7.85121769e-02 2.49445997e-03 -1.18232116e-01 -1.44359900e-03 -4.08912338e-02 5.19416220e-02 -1.69277526e-02 8.46940801e-02 -2.05304734e-02 -7.49264583e-02 -5.42767644e-02 -3.92189890e-01 2.58196831e-01 2.08659619e-01 2.29218435e-02 1.28995568e-01 5.01720570e-02 -5.71900979e-02 1.02773182e-01 2.51561046e-01 1.45941973e-01 2.82995671e-01 1.10539813e-02 2.56559074e-01 -1.06476888e-01 -2.69011140e-01 -1.87144011e-01 -1.98882788e-01 -3.00088584e-01 -1.50671855e-01 -1.12193134e-02 -2.73098618e-01
4.37959820e-01 -3.40158353e-03 5.29573739e-01 4.27877933e-01 3.62163723e-01 4.13474590e-01 9.60328460e-01 -3.80571574e-01 7.37269223e-01 -7.91937858e-02 -5.78994036e-01 1.29910350e-01 -5.51074088e-01 -3.35603505e-01 -1.68398917e-02 2.69455194e-01 -6.52070343e-01 -4.49063808e-01 2.93654948e-01 -6.61282167e-02 -1.08221509e-01 5.52317798e-01 2.16441929e-01 6.93567634e-01 1.38461646e-02 -1.57732219e-01 -2.01835930e-01 1.84372663e-01 1.59289643e-01 4.50664908e-01 -1.34941667e-01 1.88597925e-02
-2.46567890e-01 -4.63386893e-01 1.43084145e+00 1.00488663e-01 -7.57803917e-01 -2.00381264e-01 -1.22038341e+00 -9.85295117e-01 3.07466060e-01 1.03722215e+00 2.30054557e-02 -4.90589917e-01 -3.03357691e-01 9.77435052e-01 5.64526916e-01 -1.95566201e+00 2.38108903e-01 -2.61059928e+00 1.78296697e+00 8.66719544e-01 -5.80632210e-01 1.65664232e+00 -4.46832657e-01 2.53604829e-01 3.53440553e-01 -6.97524309e-01 -2.37784266e-01 3.38239849e-01 1.77459732e-01 4.48151752e-02 8.76236200e-01 1.49050206e-01
3.27559363e-04 -2.51123905e-02 5.18739931e-02 4.55442481e-02 4.07508790e-01 7.83264358e-03 -2.05352008e-02 3.29701155e-02 4.29039113e-02 -2.57733464e-02 -1.70269050e-02 -7.63071403e-02 1.04432546e-01 -2.74648871e-02 5.44398138e-03 -4.63997349e-02 -1.37338811e-03 -4.74241227e-02 -8.95109549e-02 8.02932605e-02 1.41396463e-01 4.87039350e-02 -1.34294396e-02 1.88802239e-02 -1.31878898e-01 -1.40272051e-01 1.97296701e-02 3.59465450e-01 -4.16421220e-02 -5.40671945e-02 -1.30251807e-03 -2.52512157e-01
-4.24326897e-01 5.47942407e-02 -8.92703831e-02 -1.17104307e-01 -2.86166131e-01 1.63572729e-02 -8.03106874e-02 7.24164784e-01 -1.29744694e-01 -2.22188886e-02 -2.25356773e-01 7.54352212e-01 5.41201115e-01 3.35302323e-01 2.50762403e-01 9.00737569e-02 -9.84088928e-02 2.61406451e-02 -1.73772812e-01 8.96483753e-03 -1.19914494e-01 -5.80181181e-01 -1.47292987e-01 -2.53140748e-01 -3.21891695e-01 -1.50639206e-01 -6.55374050e-01 4.13475305e-01 -2.15012565e-01 -2.98542380e-01 -1.43366843e-01 4.91971999e-01
4.58523519e-02 -1.38714403e-01 5.42437017e-01 2.69484192e-01 -5.66973090e-01 2.05181733e-01 3.09092343e-01 -6.10746801e-01 5.18236697e-01 3.07334930e-01 -9.66863334e-02 4.15910363e-01 -1.02836035e-01 9.74581391e-02 1.19294390e-01 -2.04978156e+00 1.71821922e-01 -9.59738731e-01 7.22310245e-02 2.05650017e-01 -1.20030873e-01 1.60832524e-01 2.10233033e-01 1.65520966e-01 -2.48697743e-01 -5.47202528e-01 -6.41960353e-02 -1.47032499e-01 -4.55108672e-01 -4.81761783e-01 4.88699883e-01 -2.81161189e-01
-2.02410296e-01 7.10500479e-02 -1.48566887e-01 1.20832935e-01 -9.15878341e-02 -4.15783934e-02 2.31286913e-01 -1.59070611e-01 -5.31538785e-01 1.62885547e+00 -4.00733501e-01 -5.22922762e-02 -2.43003026e-01 1.25495613e+00 -2.59708524e-01 1.25308968e-02 4.49122638e-02 -1.05535015e-02 -1.45863771e-01 -2.72861779e-01 4.08588089e-02 2.27959484e-01 -6.02299869e-02 -2.01160282e-01 -1.21469833e-01 1.01165928e-01 3.98429245e-01 4.31573331e-01 2.22344369e-01 -4.94012594e-01 3.12845528e-01 -1.11197956e-01
-1.44693047e-01 -2.21520275e-01 6.50100529e-01 4.62102681e-01 -1.65406793e-01 -3.45105112e-01 -1.05676389e+00 1.62090167e-01 2.08712757e-01 4.46408242e-01 6.80381730e-02 -3.53619903e-02 1.34761184e-01 2.02726647e-01 -2.23643675e-01 5.62164009e-01 6.04447862e-03 1.71577036e-01 -1.62614450e-01 -3.22830886e-01 8.67086887e-01 4.18621004e-01 3.78143221e-01 -5.95802069e-01 3.25518660e-02 4.68407720e-02 -2.22728223e-01 2.77726263e-01 -9.45159495e-02 3.13554466e-01 -1.36656076e-01 -3.02617759e-01
8.71290743e-01 -4.09116477e-01 4.48137730e-01 9.78196979e-01 -3.16461235e-01 3.53686452e-01 -8.32755744e-01 -5.50386071e-01 5.04436493e-01 -8.43961775e-01 -2.73350835e-01 7.24369705e-01 -1.23470592e+00 -1.93911836e-01 7.02639520e-01 -4.10376370e-01 -1.03931092e-01 4.82356176e-02 5.20590961e-01 7.15965629e-01 4.11086679e-01 -4.73682523e-01 -1.98301387e+00 -5.06125867e-01 6.91164196e-01 5.59921682e-01 -8.17979872e-01 -4.76849526e-01 5.91496564e-02 1.25555539e+00 -4.34952050e-01 -2.47353211e-01
-2.38934476e-02 1.82884350e-01 -4.55383211e-02 -5.06334417e-02 -1.63245633e-01 -3.62634324e-02 1.91553459e-02 -4.44975868e-02 -4.05327566e-02 -1.00153284e-02 4.08521444e-02 9.40887332e-02 8.04955959e-02 -4.44946103e-02 1.59021288e-01 -1.58646196e-01 9.95384306e-02 1.78419337e-01 -2.23975498e-02 -2.91865975e-01 1.35875106e-01 4.08971570e-02 -1.59986224e-02 -1.78254526e-02 -3.16264391e-01 -4.90601286e-02 1.71511844e-02 -6.56424090e-02 -1.12778349e-02 -9.43026412e-03 -5.92026219e-04 -2.12418377e-01
1.24455407e-01 3.12855929e-01 1.59620333e+00 4.75721151e-01 -1.13553834e+00 1.35525003e-01 -2.69252121e-01 -5.76721311e-01 8.53175163e-01 4.98922080e-01 1.88035771e-01 -3.60728413e-01 -9.21647251e-01 9.10615861e-01 2.30291374e-02 -3.30502748e+00 -2.33100221e-01 -4.38525629e+00 3.81066054e-01 1.18834756e-01 -1.22210515e+00 9.68017459e-01 3.33410859e-01 1.24261186e-01 2.78493553e-01 -1.85547739e-01 -4.96323377e-01 6.45383894e-01 -2.11841792e-01 2.28286982e-02 -1.03761330e-01 -5.07564954e-02
-8.12467813e-01 1.96424246e-01 1.14695199e-01 -7.38248050e-01 3.61791477e-02 -1.72873884e-01 -2.00799480e-01 4.89882618e-01 -6.59673065e-02 -4.53214860e-03 1.19341411e-01 -3.03155690e-01 4.37785178e-01 4.27069873e-01 -4.09822881e-01 -2.21294820e-01 2.28813171e-01 -1.23342328e-01 -3.53636712e-01 1.84561923e-01 8.00300986e-02 6.95078015e-01 2.11030290e-01 -2.71386325e-01 -9.63953808e-02 3.01247507e-01 -7.06855714e-01 6.33623078e-02 8.12416822e-02 -5.57683408e-01 -1.17545806e-01 -7.62386203e-01

layers.2.bias:
-1.33647335e+00
-8.18685293e-01
6.67882204e-01
-5.33214509e-01
8.44624862e-02
-3.54766339e-01
2.85166889e-01
2.11684513e+00
5.10437429e-01
8.40163708e-01
-9.51051354e-01
-1.34620821e+00
-3.91065001e-01
8.91699612e-01
-3.12286943e-01
-6.45283759e-01
-7.53443390e-02
-7.62447536e-01
3.52247953e-01
-8.93357471e-02
-1.52634427e-01
7.80985117e-01
8.18843186e-01
-1.70836776e-01
-4.02741462e-01
1.05027270e+00
-9.86933291e-01
-1.04697824e+00
4.97289479e-01
-1.22094917e+00
1.35985509e-01
-4.50109430e-02
7.95105457e-01
1.10080078e-01
-1.95414558e-01
-3.11082695e-02
-1.44367531e-01
1.41865754e+00
1.04394591e+00
-1.35885373e-01
9.74498928e-01
-1.98476434e-01
-5.00184238e-01
1.39657629e+00
2.64600247e-01
-9.43781197e-01
1.04320979e+00
-3.74449968e-01
8.05015385e-01
1.73238301e+00
1.84828654e-01
3.04524869e-01
1.05531819e-01
-6.18425429e-01
2.59280652e-01
-2.26661582e-02
7.87908435e-01
-3.76993790e-02
-6.55078590e-02
-6.43528104e-01
5.84998846e-01
5.63337728e-02
-2.56940097e-01
7.28049815e-01

layers.4.weight:
2.91498780e-01 2.11779010e-02 -4.32511233e-02 2.95573450e-03 1.93415908e-03 3.18189114e-02 8.22542352e-04 -7.08111227e-01 -8.56837407e-02 -3.93505782e-01 3.71271260e-02 9.11356747e-01 -1.78456080e+00 -1.07765302e-01 1.24915121e-02 -1.50958180e+00 1.63596967e-04 7.75730908e-02 -1.40014319e-02 -9.54585485e-05 2.54772324e-02 -1.15997732e-01 -3.56578678e-02 3.02486748e-01 -2.28647310e-02 -3.90524790e-02 2.93300319e-02 7.56223857e-01 -4.09020543e-01 3.84129018e-01 -9.42378026e-03 -1.60785362e-01 -4.07551005e-02 -6.34685421e-06 -3.98574723e-03 3.01738211e-04 -6.31376577e-04 -1.49718970e-01 -1.83438659e-02 1.81376144e-01 -6.13733567e-02 2.67769903e-01 1.29714562e-02 -1.20716430e-01 4.18538984e-04 1.34430230e-01 -1.38737755e-02 -2.54249811e-04 -1.24513514e-01 -6.63490176e-01 -5.94698004e-02 -1.77834909e-02 4.58776689e-04 1.59465279e-02 -1.09874427e+00 -2.18653736e-06 -8.01130256e-04 -2.99948215e-01 -9.71477255e-02 1.53765548e-02 -8.97212140e-03 2.40707304e-04 8.40027750e-01 -1.45397633e-02

layers.4.bias:
-1.08954048e+00

