layers.0.weight:
3.31696361e-01 -5.67613244e-01 7.97264636e-01
5.69172144e-01 -8.09445798e-01 -5.80563486e-01
-8.31293464e-02 -6.13938749e-01 -5.77727258e-01
-1.07055378e+00 1.15616508e-01 4.58123112e+00
2.67282110e-02 4.11940843e-01 1.16166264e-01
-5.79876065e-01 8.58121514e-01 -1.84879377e-01
-1.31842160e+00 4.86020595e-01 -9.88645032e-02
-6.01682402e-02 7.88846374e-01 -9.23566997e-01
6.03414774e-01 -9.26082134e-01 5.12713566e-02
-1.11527514e+00 5.86289167e-02 -1.64189592e-01
7.53551662e-01 -9.85680073e-02 1.41279221e+00
-7.16238439e-01 -1.31785080e-01 -1.29353356e+00
-4.30584475e-02 7.12955832e-01 -1.57757306e+00
-1.16726887e+00 2.10410804e-02 5.00053525e-01
-6.46977663e-01 1.09646142e+00 7.52028525e-01
-1.81771189e-01 9.48456824e-01 1.64468549e-02
5.46070874e-01 -6.33792400e-01 -1.45019031e+00
-1.15504665e-02 1.12846863e+00 1.84981868e-01
8.07071701e-02 -9.54183042e-01 5.35116851e-01
3.41117471e-01 -1.28724232e-01 -8.64976227e-01
2.23475501e-01 1.65966094e-01 -5.10879010e-02
-3.24195027e-01 -2.56797969e-01 -1.00232065e+00
-4.64660525e-01 1.65601885e+00 -4.46076952e-02
-1.56447518e+00 4.06930357e-01 1.75152493e+00
1.05132234e+00 3.79940838e-01 -7.78481364e-01
2.59609371e-01 6.71772659e-01 -1.17486012e+00
-1.16151750e-01 -2.13369340e-01 1.90187418e+00
-3.97779703e-01 -2.44972542e-01 1.92939892e-01
3.22416067e-01 7.57217348e-01 -1.46468067e+00
-1.04933763e-02 4.65525806e-01 1.70563948e+00
-2.89658904e+00 2.84448242e+00 -1.78299040e-01
-1.26738083e+00 -5.19488692e-01 1.02004325e+00

layers.0.bias:
8.77201200e-01
4.81547834e-03
-1.42384720e+00
-6.34384930e-01
7.07518518e-01
-2.04255387e-01
-3.54310095e-01
2.86240637e-01
-7.45998621e-01
-1.59115899e+00
1.64644122e-01
1.80825554e-02
2.46107668e-01
-1.21306002e+00
-2.90836543e-01
1.43946290e+00
9.34610724e-01
1.82654703e+00
-6.68276668e-01
5.78918040e-01
-1.44309163e-01
-1.35729384e+00
1.02535832e+00
-7.05530941e-02
1.36946186e-01
5.60703695e-01
8.80503118e-01
-1.57881156e-01
-4.88352716e-01
7.31267482e-02
8.91685039e-02
-6.70209900e-02

layers.2.weight:
-3.42396647e-01 3.05255026e-01 1.40830874e-01 -5.32541513e-01 -2.20123917e-01 -5.18989637e-02 6.71861321e-02 -1.97134390e-02 1.00505002e-01 2.70038033e+00 4.31135893e-02 1.09491102e-01 -1.75657421e-01 2.34724784e+00 -2.94572443e-01 3.06792676e-01 -1.28152892e-02 5.02808034e-01 1.23196222e-01 -2.27124020e-01 2.23794505e-01 -1.94191504e-02 -5.63967466e-01 5.39380968e-01 -1.16520494e-01 6.62855864e-01 -8.38544428e-01 -1.20896429e-01 -1.46338984e-01 -2.68861920e-01 -4.87613440e-01 2.88855165e-01
-9.82469320e-02 1.33284405e-01 -8.48583102e-01 5.59494048e-02 -4.04253304e-01 1.54563054e-01 -7.37647474e-01 -5.00712514e-01 5.53395987e-01 6.90819681e-01 3.55905622e-01 -2.90951908e-01 2.38667086e-01 -2.18682699e-02 -3.01799774e-01 1.96288139e-01 -3.79657984e-01 3.48962188e-01 -4.05235916e-01 -7.49907643e-02 6.54528320e-01 -1.22951977e-01 -4.28546518e-01 -4.85081784e-02 -7.77486479e-03 -8.62717554e-02 -3.22395027e-01 -5.36321104e-01 6.19804226e-02 -2.13695616e-01 -3.08274403e-02 1.99546203e-01
-3.47507112e-02 -3.05286609e-03 -1.38746938e-02 -7.42691517e-01 -5.79318285e-01 -2.85323523e-02 -4.96373385e-01 3.20995986e-01 4.68742877e-01 7.05077350e-01 -5.35260439e-01 -1.02177657e-01 1.53167859e-01 -4.24705353e-03 -9.15527120e-02 -6.73011005e-01 -5.52509315e-02 -5.60542405e-01 -1.00486077e-01 5.20628631e-01 -3.80479723e-01 -2.73964405e-01 3.94120574e-01 -1.29268706e+00 -1.48373336e-01 4.24975991e-01 -1.16060448e+00 -1.44759163e-01 4.18029428e-01 -3.68804842e-01 7.98954144e-02 1.22662582e-01
1.68224916e-01 -1.42587319e-01 1.67333782e-01 1.26635742e+00 3.09020877e-01 4.62066591e-01 7.39309013e-01 -1.65305689e-01 -2.18181416e-01 3.66263539e-02 8.08932632e-02 1.78994499e-02 -4.97504413e-01 2.43262038e-01 6.98017955e-01 6.35532260e-01 -3.68072808e-01 3.88261825e-01 2.53398061e-01 -1.07333767e+00 -8.06333005e-01 -7.09822997e-02 4.42745715e-01 1.56541765e+00 -1.03331566e+00 -4.80103046e-01 4.18564230e-01 6.45254493e-01 -5.87743461e-01 -2.41558433e-01 5.67234308e-02 5.46001792e-01
9.08133984e-02 -2.75953889e-01 2.63136506e-01 -4.42131728e-01 1.54371336e-02 -3.03377867e-01 -1.29994857e+00 1.52526230e-01 3.16808134e-01 -4.66230690e-01 4.37083572e-01 -7.62553394e-01 7.99419403e-01 -8.04880798e-01 -1.58980742e-01 -9.44460750e-01 -2.88074613e-01 -9.20457661e-01 -9.23430696e-02 -9.88702103e-02 8.57454360e-01 -5.62040389e-01 1.63775966e-01 -3.33295077e-01 -8.56093824e-01 6.32090092e-01 1.04740523e-01 -5.62457442e-01 -2.66748518e-01 6.16533160e-01 -2.11560920e-01 1.06978223e-01
-4.63158756e-01 2.48815328e-01 3.88207257e-01 1.15770355e-01 -7.91885734e-01 -1.84062585e-01 -2.81079799e-01 3.83945256e-01 3.78889948e-01 -4.82326262e-02 5.87576568e-01 2.94348836e-01 -2.25535445e-02 -2.08304673e-01 -3.10131371e-01 -1.06460631e+00 -3.09999406e-01 -1.21779728e+00 5.48113644e-01 -2.12746307e-01 -5.18045127e-01 2.63012350e-02 -5.26045263e-01 -3.40108931e-01 1.75468996e-01 1.55745938e-01 9.38823521e-02 9.88200247e-01 -5.71697727e-02 -4.78698909e-01 -4.31093603e-01 2.29674578e-01
1.13284960e-02 3.95667879e-03 -2.12285370e-01 -1.03146611e-02 -1.43533081e-01 1.73027411e-01 -8.79450291e-02 -4.19519752e-01 -1.10555902e-01 2.50466108e-01 2.95303017e-01 5.69223091e-02 2.88877398e-01 -2.14486346e-02 -1.78508051e-02 -2.75311828e-01 2.06419285e-02 1.27251834e-01 -1.38487974e-02 -3.05904806e-01 -3.73880476e-01 1.07720159e-01 7.72831216e-02 3.09557617e-02 1.36246070e-01 2.61142462e-01 -3.61706078e-01 -4.32957888e-01 -1.45451620e-01 7.09544644e-02 -3.27203237e-02 1.65816724e-01
2.98524588e-01 1.16615653e-01 -4.56575722e-01 3.67343307e-01 3.83179903e-01 -6.41700149e-01 1.33727029e-01 4.75784302e-01 4.34803553e-02 -3.11789453e-01 -1.29025757e-01 9.72183168e-01 3.01232517e-01 -5.57979047e-01 -1.76205888e-01 2.39178702e-01 5.31797707e-01 2.32566118e-01 2.25594088e-01 5.11821389e-01 -1.47244978e+00 -9.29996490e-01 1.43098116e-01 3.12477976e-01 1.82537615e-01 7.36023545e-01 6.18170917e-01 5.42906940e-01 -6.13134146e-01 5.01127422e-01 1.94355682e-01 -2.41934091e-01
1.49676269e-02 1.91123649e-01 -5.21744311e-01 -2.75560915e-01 1.21136343e+00 -3.57035428e-01 -4.34527040e-01 -3.07358444e-01 -7.83259869e-01 3.06599915e-01 4.25693780e-01 2.68851668e-01 7.07455575e-01 -6.91599101e-02 1.72298491e-01 1.70183432e+00 2.72300959e-01 1.29523349e+00 -6.02399588e-01 -1.67455688e-01 1.24665879e-01 -2.55220622e-01 1.28337219e-01 3.13649923e-01 8.61321390e-02 4.03728694e-01 2.77364198e-02 6.05715588e-02 3.33388932e-02 1.41073644e-01 2.23100996e+00 -3.63851696e-01
-5.99457622e-01 1.12108395e-01 -1.23610213e-01 -5.05043507e-01 4.56179857e-01 4.73734085e-03 -4.95034307e-02 3.59045744e-01 4.15511459e-01 -1.78490251e-01 2.68396791e-02 2.27850348e-01 1.67024463e-01 1.88606098e-01 -3.58566046e-01 -5.77754855e-01 3.16195309e-01 -3.78429383e-01 -4.04377848e-01 -4.74601649e-02 -6.59139276e-01 -2.51058638e-01 9.93889198e-02 -5.41543067e-02 -2.25965470e-01 -1.08258337e-01 -1.56636328e-01 2.42232457e-01 2.47537225e-01 1.81172445e-01 1.59468651e-01 6.24962384e-03
8.83176625e-02 -3.70675325e-01 -1.05990164e-01 -3.22137833e-01 -5.27991951e-01 -2.52634376e-01 -4.03770089e-01 1.04187533e-01 5.15097499e-01 2.82933652e-01 -4.90544856e-01 -1.53910682e-01 8.14952552e-01 -2.85214156e-01 -1.48664162e-01 -3.92559886e-01 -6.83989823e-01 -9.07229781e-01 1.79756191e-02 -8.12058076e-02 1.09141660e+00 -2.87707150e-01 -7.55074978e-01 2.12578118e-01 -8.78560394e-02 -9.83710960e-02 -3.93685073e-01 -5.83434224e-01 2.76526511e-01 -3.57044786e-01 -2.36535049e-03 3.38926733e-01
-8.08339044e-02 -2.00542510e-01 1.64902985e+00 -8.68484974e-01 -6.55791640e-01 1.36082768e-01 2.02229396e-02 -4.02641237e-01 -3.01186770e-01 1.86756778e+00 3.88564356e-02 -1.54811159e-01 2.87986636e-01 3.24330282e+00 1.44273117e-01 -4.39288676e-01 2.75620431e-01 -2.27541733e+00 5.87843299e-01 -3.31694990e-01 2.57173330e-01 5.88941216e-01 -2.75642842e-01 8.61164212e-01 -9.21883434e-02 -5.58078766e-01 3.00491095e-01 -9.75615084e-02 8.27044696e-02 4.35608998e-02 5.99088520e-02 -3.25023025e-01
-6.37594938e-01 -2.11166561e-01 9.33532178e-01 3.89671743e-01 -5.94145715e-01 6.03967667e-01 4.15654667e-02 -9.00395691e-01 3.48728240e-01 3.77543151e-01 1.91114843e-01 1.66657865e-01 -4.83984113e-01 -1.19287640e-01 4.82079297e-01 -3.99135900e+00 -1.66771442e-01 -5.89696217e+00 5.50650716e-01 -1.01590514e+00 -6.76685393e-01 4.61737335e-01 6.37556553e-01 -9.69812274e-02 -2.29856819e-01 -2.12077931e-01 -3.78629953e-01 6.28105819e-01 -5.87339699e-01 -3.44179481e-01 -1.33498669e+00 -2.91840762e-01
6.19951151e-02 -1.58061296e-01 -6.75991476e-01 -3.96821983e-02 -1.15998879e-01 -5.57755157e-02 2.60235071e-01 3.13588351e-01 3.67194325e-01 -2.13892668e-01 5.51952600e-01 -1.88742578e-01 3.07296067e-01 -8.02449226e-01 -3.31780583e-01 -4.01104577e-02 -2.47495860e-01 2.38028288e-01 -8.57940391e-02 1.10820428e-01 -5.08776195e-02 -1.91134319e-01 2.69209538e-02 -1.89509392e-01 -1.47023156e-01 7.37759233e-01 1.85250547e-02 6.13491647e-02 -1.95479408e-01 2.82372147e-01 1.79211378e-01 3.77017379e-01
-8.67391407e-01 1.95379645e-01 -1.50954481e-02 4.00863975e-01 -3.88100028e-01 6.14265501e-01 -4.85585928e-01 -2.01836854e-01 5.70640087e-01 -1.34231821e-01 -6.83486998e-01 1.65453181e-01 9.00906548e-02 -2.61799365e-01 -2.49694943e-01 -8.71542692e-01 1.66215286e-01 -9.58404720e-01 -2.20725447e-01 2.56702006e-01 1.43884563e+00 8.77737761e-01 -9.43457037e-02 2.27572620e-01 -4.39786822e-01 3.63968275e-02 -5.28432846e-01 -7.70196468e-02 6.71001971e-01 -1.85022965e-01 -1.63403571e-01 2.34747544e-01
-4.55495864e-01 -3.15332823e-02 1.00821033e-01 6.89527616e-02 -1.87645957e-01 2.01847687e-01 -8.39109242e-01 -4.02841382e-02 -1.34328147e-02 5.29685259e+00 4.92515773e-01 4.95481014e-01 2.83420175e-01 2.61995125e+00 1.80275142e-02 5.88168055e-02 -3.70966792e-01 -8.75964239e-02 2.15922743e-02 -1.36796534e-01 -7.77087092e-01 4.67927337e-01 1.32567912e-01 2.18914092e-01 -4.74345505e-01 -3.67893398e-01 -6.97597802e-01 4.12916541e-01 -1.40402898e-01 -7.25030422e-01 3.09669256e-01 -1.63240254e-01
-2.34308038e-02 1.37988359e-01 -7.20508322e-02 3.66786644e-02 1.34301325e-02 1.19229192e-02 2.40595397e-02 -5.73783815e-02 1.65943708e-02 -1.87953278e-01 6.21210672e-02 5.33890910e-02 4.51877862e-02 9.16095600e-02 1.20029256e-01 2.51642521e-02 3.35728750e-02 5.82380965e-03 -1.47131952e-02 1.01603828e-01 2.51744598e-01 1.13497175e-01 -1.38973817e-02 3.27238105e-02 7.58055225e-02 1.97671801e-02 5.87878712e-02 2.77893901e-01 6.05682237e-03 1.98167213e-03 -1.11142732e-02 8.46420694e-03
1.34858787e-01 -1.42846778e-01 -5.35555840e-01 5.80043308e-02 2.08594166e-02 -1.79897159e-01 -2.22290277e-01 -3.27130586e-01 2.90964365e-01 -6.47486806e-01 8.50405917e-02 -4.41295914e-02 1.91398442e-01 7.88926259e-02 -5.41930310e-02 6.32838681e-02 -3.26187074e-01 3.44670147e-01 -1.07094824e-01 8.98883522e-01 3.07986706e-01 1.17186472e-01 -4.49074119e-01 -1.13325946e-01 -1.58459365e-01 -4.53030229e-01 8.52482557e-01 -5.01826167e-01 2.20736220e-01 3.21711957e-01 -2.40757614e-02 2.32935950e-01
-2.18966916e-01 -5.35641685e-02 -3.77498299e-01 -1.73864767e-01 5.09388626e-01 -2.68890951e-02 1.42044753e-01 8.03281814e-02 4.19831336e-01 -4.47691381e-01 -1.34161398e-01 -9.35433865e-01 4.39120948e-01 -1.95449054e-01 -2.14726314e-01 2.52283841e-01 -1.17229037e-01 4.00478095e-01 1.86879039e-01 -7.64155984e-02 -6.21998981e-02 -2.45624572e-01 4.29751068e-01 -3.00292611e-01 1.96666151e-01 1.60101384e-01 -1.40864894e-01 3.62879604e-01 -5.88269380e-04 3.79947841e-01 4.78891909e-01 1.73166767e-01
6.07143156e-02 1.76038951e-01 -1.37090613e-03 6.91164732e-02 -6.48660436e-02 1.02456488e-01 -1.25811826e-02 -8.22025612e-02 4.14208584e-02 6.99605271e-02 6.75965399e-02 1.12981506e-01 -6.67643994e-02 -7.92804360e-02 1.19862817e-01 4.47698087e-01 4.89514582e-02 -3.11028063e-01 4.43750247e-02 -1.05288364e-01 -1.15909860e-01 -1.27921999e-01 9.85073508e-04 -2.49914117e-02 4.64690328e-02 1.26742393e-01 5.20434836e-03 1.15074459e-02 1.02527730e-01 1.53171085e-02 -3.47589478e-02 3.43081020e-02
4.14417148e-01 -1.73037574e-01 7.56820440e-01 5.81359625e-01 -4.70526338e-01 -1.48413196e-01 -6.97302639e-01 -1.21277161e-01 -2.13837817e-01 -7.33994961e-01 -3.73037905e-02 8.55982363e-01 4.47622150e-01 -4.26938206e-01 7.86548913e-01 2.27670133e-01 -9.04110521e-02 -4.62282389e-01 4.58011448e-01 3.81610274e-01 -3.12788248e-01 1.30734265e-01 5.97919881e-01 1.62309378e-01 1.81953967e-01 -4.14058179e-01 1.36210769e-01 1.81703866e-01 -9.88916159e-02 -2.09578201e-02 1.21479288e-01 3.62837881e-01
2.54678130e-01 -1.13344416e-01 2.52004694e-02 1.48254022e-01 1.05093174e-01 1.45487294e-01 9.23582852e-01 7.85334781e-02 4.65984732e-01 2.42841840e-01 3.27151328e-01 3.78480971e-01 -3.93684298e-01 -5.74198306e-01 1.17997169e-01 -9.22816336e-01 -3.69160250e-02 -6.68223143e-01 -8.96734148e-02 -4.20661807e-01 -5.04541099e-01 -1.74349602e-02 2.54925191e-01 -4.46802303e-02 1.20052762e-01 -4.12999988e-01 -7.07127333e-01 3.97608638e-01 -9.57470909e-02 -1.90265328e-01 2.43987814e-01 -1.14962995e-01
1.03302829e-01 -6.69250544e-03 -3.54748428e-01 4.15435910e-01 1.43585801e-01 3.42814773e-01 3.52350622e-01 -2.74810016e-01 -3.35846722e-01 3.00440848e-01 2.62585692e-02 8.36632028e-02 4.28036928e-01 4.69485760e-01 -1.71023011e-01 -4.21289682e-01 5.58040142e-01 -5.90921417e-02 4.07944061e-02 -2.30920061e-01 -3.90083492e-01 5.68105315e-04 -3.70017588e-01 1.94289014e-01 -3.97647679e-01 -1.13875456e-01 -4.37919833e-02 -4.56743568e-01 3.81251387e-02 -1.10025018e-01 -5.50210588e-02 -2.51699239e-01
6.97882235e-01 -3.13440524e-02 -2.23536387e-01 1.85480252e-01 5.00708334e-02 -4.20979589e-01 -1.27600417e-01 3.19641501e-01 3.99751514e-01 -2.67389560e+00 1.38227999e-01 1.30600080e-01 3.62573534e-01 -1.66871083e+00 1.04479507e-01 2.34827593e-01 1.16832726e-01 1.61913931e-01 -2.46962368e-01 -3.23199295e-02 5.57925403e-01 -2.13193446e-01 -2.06866741e-01 -4.79032509e-02 -2.96307325e-01 -2.04635978e-01 -4.18717004e-02 -2.27985159e-01 2.97580868e-01 1.25182092e-01 -4.05812800e-01 -2.46379837e-01
-8.28857005e-01 1.59696847e-01 -1.46845067e-02 1.21382095e-01 -1.49406306e-02 -3.58269900e-01 9.57107484e-01 -7.80759081e-02 -9.58709359e-01 7.00700283e-01 -7.33909845e-01 4.50519063e-02 1.68426514e-01 6.10930137e-02 -7.11209118e-01 3.91567379e-01 6.04831636e-01 4.96797204e-01 3.14543815e-03 1.92597602e-02 -1.49482220e-01 3.47581059e-01 5.31010747e-01 9.54451203e-01 -3.21397454e-01 5.30390739e-01 -6.22064888e-01 -1.21638112e-01 9.21788037e-01 -4.54155773e-01 9.79889706e-02 -1.07870393e-01
-5.46852469e-01 5.95638275e-01 -4.25212458e-02 -1.42360792e-01 5.43933809e-01 1.71146512e-01 1.32891014e-02 5.21431983e-01 -3.20732087e-01 4.97315317e-01 6.55172393e-02 -1.53884172e-01 2.20641851e-01 2.27198586e-01 -5.28129220e-01 -2.88290024e-01 -1.21688850e-01 -1.15947537e-01 3.83903027e-01 -3.78161073e-01 -2.48774537e-03 -2.75510401e-01 2.65030321e-02 -5.30898988e-01 1.12205774e-01 -1.97688058e-01 -5.65224767e-01 -4.99338537e-01 1.72183543e-01 -3.67275238e-01 -1.89521909e-01 -2.89240271e-01
-1.54434308e-01 2.29852900e-01 5.02612352e-01 3.48099619e-01 -3.48589689e-01 -2.85603791e-01 -1.24638453e-01 -6.70246221e-03 3.24550778e-01 -4.23858613e-01 -5.93073606e-01 -6.39529452e-02 -2.61407673e-01 -2.62881219e-01 6.48540929e-02 4.88140821e-01 -8.70240927e-02 1.26225904e-01 3.03479701e-01 2.01284364e-01 9.18847322e-02 -7.14960754e-01 1.49402380e-01 7.70715922e-02 2.95314759e-01 1.64441913e-01 2.68940756e-04 -5.69976330e-01 -2.60300040e-01 -1.28548861e-01 9.23545212e-02 -2.61713952e-01
-7.91667759e-01 4.76028919e-01 -5.69851995e-01 -1.01638734e+00 -3.11260879e-01 -2.36894622e-01 -3.24598938e-01 3.70983392e-01 9.02843326e-02 4.85354275e-01 -6.52160645e-02 1.94219768e-01 1.82491064e-01 2.94107914e-01 -2.44289599e-02 1.01577032e+00 6.98100746e-01 1.07175696e+00 -5.38542330e-01 8.28218535e-02 4.89198714e-01 -7.18419909e-01 -6.62123024e-01 4.02537614e-01 -2.45968208e-01 -4.48076367e-01 2.75343180e-01 3.87142241e-01 4.68069732e-01 -8.20821881e-01 2.03103766e-01 -1.63292572e-01
1.46369845e-01 -5.49014747e-01 -8.61152187e-02 -1.18708968e-01 -5.04017115e-01 5.28404057e-01 1.20368905e-01 -4.48540211e-01 4.91942018e-01 9.17748153e-01 -2.31572703e-01 1.25288755e-01 5.56324661e-01 4.20608610e-01 2.75224019e-02 -9.67736781e-01 -4.47748154e-01 -9.63295758e-01 -1.44699663e-02 2.17194900e-01 2.34220222e-01 3.38207662e-01 1.74381554e-01 1.61423132e-01 2.81287938e-01 1.10488780e-01 -4.14868921e-01 -2.74455518e-01 -2.47017965e-01 -3.41594458e-01 4.40366715e-01 3.00362319e-01
-2.07907587e-01 -1.09504068e+00 5.00207365e-01 1.43524110e+00 7.88242072e-02 2.43854746e-01 -1.52786635e-02 -1.10860661e-01 -3.53120297e-01 3.68908852e-01 9.43121970e-01 -8.62581730e-01 -9.53219414e-01 -3.15207303e-01 3.39835346e-01 7.02609196e-02 -1.27493024e+00 6.26888216e-01 4.69625205e-01 -4.43109185e-01 1.12011731e+00 3.39583337e-01 1.72253728e-01 -2.71426171e-01 2.81299710e-01 -3.51228803e-01 5.53910621e-02 -3.15997839e-01 -7.30007350e-01 1.11733413e+00 -4.75833118e-01 -2.51708031e-01
-6.83592975e-01 -1.79433107e-01 2.65662134e-01 1.78345963e-01 -4.93816622e-02 2.04468235e-01 2.64529496e-01 -1.47241494e-02 -4.29930001e-01 -2.61777788e-01 -9.27687228e-01 2.24543333e-01 4.23336655e-01 7.32417703e-02 1.67053327e-01 -1.80193365e-01 3.47830176e-01 -1.55671671e-01 -5.71782775e-02 -3.83295357e-01 -8.04709077e-01 1.75651431e-01 8.43588379e-04 -6.71645403e-01 1.53521389e-01 5.53956509e-01 -6.87417611e-02 1.46463215e-01 -4.88931566e-01 -1.76880643e-01 -1.81837872e-01 1.57071315e-02
-2.44454727e-01 -3.20563763e-01 -1.73443049e-01 -1.51594415e-01 -1.98285118e-01 -1.05240718e-01 2.76929200e-01 2.54786074e-01 -7.09188342e-01 1.36460996e+00 -1.57347605e-01 -7.60892183e-02 -5.02526164e-01 4.93994147e-01 -1.86047822e-01 6.86480850e-02 4.00004014e-02 1.63579583e-01 2.89915333e-04 -1.69455588e-01 1.64420232e-01 1.34800166e-01 2.91508853e-01 3.80156189e-02 -1.45972800e-03 -6.29987493e-02 -1.87247679e-01 2.39600807e-01 2.30634853e-01 3.08378845e-01 1.49632677e-01 1.55659854e-01
-6.17032610e-02 -3.69301051e-01 -4.57912609e-02 -7.89441466e-02 -2.58926213e-01 4.67137754e-01 -1.75930724e-01 -4.33007568e-01 3.75479870e-02 -3.96952003e-01 4.94031981e-02 4.08695668e-01 1.83068439e-01 4.03899401e-01 3.26981843e-01 -4.61736590e-01 -4.58689839e-01 -1.15592289e+00 -6.80861399e-02 -3.36995274e-01 -1.21973135e-01 8.40027988e-01 4.56195474e-01 6.36413395e-01 -4.89739358e-01 1.23325579e-01 1.51000604e-01 -2.35699475e-01 -3.92842144e-01 -2.37467110e-01 -6.24719784e-02 -5.22939190e-02
3.51143926e-02 -4.91142049e-02 1.43766731e-01 -9.39073041e-02 2.26770356e-01 -1.08228691e-01 3.08326762e-02 -3.36421967e-01 -1.77021071e-01 3.52935255e-01 1.46717906e-01 1.72443986e-01 8.10209140e-02 -2.91400671e-01 -7.20122084e-02 -2.86529005e-01 5.36608770e-02 1.51721612e-01 -1.56655326e-01 -5.33930242e-01 1.45436212e-01 -1.53257161e-01 -1.11042194e-01 -4.35873233e-02 -3.01092546e-02 2.12303936e-01 -6.44617751e-02 2.17252541e-02 1.09614886e-01 6.68738037e-02 -1.76202320e-02 1.44599257e-02
2.29035482e-01 -6.77998781e-01 -3.09565842e-01 7.82863379e-01 -1.59340575e-01 -5.86027622e-01 2.88502365e-01 -2.05334261e-01 -2.84916908e-01 2.69635749e+00 -5.42838037e-01 9.61692810e-01 6.27317488e-01 8.18231702e-01 9.19510365e-01 2.07327664e-01 1.05279908e-02 2.12520853e-01 6.88311756e-01 3.56692940e-01 1.56934902e-01 1.19026400e-01 -2.20611185e-01 1.07349062e+00 -1.03006162e-01 1.09448954e-01 -2.83967555e-01 3.61810982e-01 -9.55596101e-03 5.20531535e-02 5.07233024e-01 7.60743991e-02
-1.12217553e-01 1.67807117e-01 1.21616811e-01 7.54458606e-02 4.80155721e-02 -4.27571982e-02 1.15557602e-02 1.08953804e-01 -1.00829304e-04 -2.90102493e-02 1.62702858e-01 8.87878165e-02 8.89799371e-02 -1.25029897e-02 1.71887249e-01 1.96319327e-01 1.85018219e-02 -1.39274299e-01 -1.78174321e-02 8.42083991e-02 -1.65523484e-01 -5.66891730e-02 -3.53329405e-02 -1.00966375e-02 -4.43567187e-01 -2.26277441e-01 4.88931611e-02 -1.22365229e-01 -7.46470988e-02 -5.26440218e-02 -8.87325872e-03 -4.71360058e-01
-9.49687976e-03 -7.85897523e-02 -5.24443425e-02 2.43413895e-02 -2.22353488e-01 2.95553822e-02 -2.32600812e-02 1.68359101e-01 5.46016656e-02 -5.22963256e-02 -1.33499522e-02 -2.04592049e-02 -6.44418746e-02 2.69014668e-02 -6.42575175e-02 2.15368450e-01 -1.14862062e-01 -1.37623295e-01 9.75491852e-03 3.18798453e-01 -2.50052869e-01 -1.01541810e-01 -1.92576996e-03 1.02171041e-02 1.39236460e-02 -9.18259919e-02 -6.41906932e-02 -6.15673140e-02 -5.80250360e-02 5.29592931e-02 9.31707118e-03 -4.81006876e-03
8.14382255e-01 -2.65474647e-01 3.17093492e-01 3.26286405e-01 -3.35564077e-01 1.95194315e-02 -4.78879273e-01 5.96532524e-02 6.18784308e-01 8.71239528e-02 -2.08693102e-01 6.60796985e-02 7.52434954e-02 2.33028069e-01 7.35702336e-01 -5.37723303e-01 -4.44390237e-01 -6.66660726e-01 3.38082403e-01 -2.56640613e-01 -7.76533604e-01 2.49128506e-01 -1.23334005e-01 1.96963981e-01 7.33700514e-01 -8.24777689e-03 2.09492415e-01 -5.93038797e-02 -4.97941792e-01 2.12749183e-01 1.05524614e-01 1.78755850e-01
1.28307104e-01 -4.06842768e-01 -3.05511653e-01 3.96238953e-01 3.09468299e-01 -5.88908732e-01 1.17653809e-01 3.07773147e-02 2.29711905e-01 -2.52508819e-01 -2.54976571e-01 4.67870086e-01 3.66908938e-01 -2.84340799e-01 2.46973947e-01 -4.71528083e-01 -3.18258941e-01 -6.38112009e-01 3.55849355e-01 -3.90520185e-01 -2.57536590e-01 -5.37051521e-02 3.64976585e-01 6.42259955e-01 -1.13455094e-01 -3.04595709e-01 4.28645045e-01 -7.67383575e-02 -7.34886080e-02 -4.32023585e-01 1.13352664e-01 2.12590083e-01
-1.64331663e-02 -1.04790732e-01 7.67649651e-01 7.91696608e-02 -9.57019687e-01 -2.64243990e-01 2.49872103e-01 -1.54653462e-02 6.20575011e-01 6.58270657e-01 -1.44069687e-01 -3.57713103e-01 4.56347950e-02 7.47555733e-01 6.96214437e-02 -2.03091741e+00 -3.56529981e-01 -2.36254406e+00 -5.69204465e-02 -9.47817403e-04 -6.71971560e-01 6.85227573e-01 2.59294659e-01 1.23802088e-01 4.03961897e-01 1.71228826e-01 3.02855134e-01 -1.06548235e-01 3.47565906e-03 -7.92996287e-01 -4.55956012e-01 -2.36837696e-02
-1.64525539e-01 -2.38080129e-01 -2.80384302e-01 -2.82549441e-01 -2.27877557e-01 5.42330503e-01 1.78091332e-01 -1.01003841e-01 -1.32518545e-01 3.55239928e-01 -2.04551488e-01 1.84181929e-01 6.04321547e-02 -2.70649761e-01 -1.35701686e-01 -4.46069419e-01 3.20207328e-01 -5.91754496e-01 -2.97663420e-01 4.72861864e-02 -3.60306174e-01 3.71180892e-01 -1.41675800e-01 3.54867101e-01 3.54212433e-01 -5.10674715e-01 4.82486904e-01 8.18713605e-02 6.72198832e-02 1.28979266e-01 -7.49184191e-02 4.37381417e-02
3.96745235e-01 6.63053334e-01 6.95058465e-01 -3.87263209e-01 1.15122899e-01 1.90897331e-01 1.15250893e-01 -1.18969962e-01 -7.87869751e-01 9.77663934e-01 -2.68506974e-01 -2.63533562e-01 -4.53085780e-01 1.12231147e+00 1.80828273e-01 5.85605204e-02 6.74803322e-03 -9.90053058e-01 2.63071507e-01 -3.01283628e-01 9.75418463e-02 6.95498705e-01 -9.31553394e-02 -3.86508971e-01 6.99870467e-01 -7.78726637e-01 5.04644454e-01 -1.11927949e-01 -2.80900389e-01 -5.85476458e-01 -6.28301799e-02 -5.19215643e-01
-2.84786467e-02 -3.71717185e-01 2.22642943e-01 -2.01494858e-01 -2.36470222e-01 1.17228523e-01 9.08192471e-02 -2.66645849e-01 -4.76204246e-01 -3.35578680e-01 -1.31004974e-01 2.53282711e-02 -7.36186951e-02 4.35679078e-01 4.89326924e-01 3.36651117e-01 2.67546654e-01 -4.04587299e-01 4.01652977e-02 1.66685551e-01 -2.50983775e-01 3.37739915e-01 -3.93518835e-01 1.37575671e-01 -4.48452942e-02 -2.39168078e-01 3.79290313e-01 7.30212629e-01 -3.80633533e-01 -4.83741403e-01 2.51313627e-01 3.18672419e-01
-1.21112573e+00 1.46728009e-01 1.03013434e-01 -1.26743579e+00 -1.16222188e-01 -1.16180621e-01 1.61195323e-01 4.97888923e-01 1.50183514e-01 3.27836275e-01 -9.38854098e-01 6.69208944e-01 1.04583526e+00 3.61628473e-01 -6.97835088e-01 2.35994101e-01 5.83865166e-01 -4.39398706e-01 -2.56741285e-01 9.96015370e-01 -6.01348162e-01 -3.45601439e-01 -3.83734912e-01 -3.68895847e-03 5.49643278e-01 9.51777875e-01 9.00203645e-01 6.81248426e-01 4.61831748e-01 -9.89985466e-01 1.54030696e-01 2.59501457e-01
-9.47657004e-02 9.21093076e-02 3.13024729e-01 -5.07650003e-02 3.28426600e-01 -1.08246736e-01 -1.25903971e-02 3.20948251e-02 -4.23726887e-02 2.01543495e-01 2.43204255e-02 1.72530413e-02 -8.25436693e-03 -1.14504650e-01 7.92809054e-02 -1.39747769e-01 7.63442665e-02 6.35254607e-02 1.02619883e-02 -4.16018486e-01 1.45789653e-01 -9.74710435e-02 1.68911312e-02 2.82010529e-03 1.31573379e-01 -1.45655395e-02 7.08098486e-02 1.43790483e-01 3.91201526e-02 -9.20715705e-02 -1.92067213e-02 6.45666048e-02
-1.39150783e-01 2.15922087e-01 3.75883907e-01 -1.76938772e-01 1.03158936e-01 1.30127847e-01 7.14627326e-01 3.40774298e-01 7.46182799e-02 -1.14347994e+00 -4.03056949e-01 5.91469526e-01 7.12964356e-01 -2.41587758e-01 -4.43712473e-01 4.23984416e-02 4.46862191e-01 -3.40301216e-01 -5.36361970e-02 -5.88788331e-01 9.60780621e-01 -2.24151716e-01 4.59469371e-02 -1.22350788e+00 -2.70178616e-01 5.68842292e-01 -1.04967320e+00 -7.38821864e-01 3.21487963e-01 -1.72687247e-01 2.01733480e-03 -1.69359133e-01
5.69158614e-01 -3.34835947e-01 -3.35032940e-01 4.61594373e-01 2.68317126e-02 -1.88101046e-02 -2.41217334e-02 -1.44303322e-01 4.47376132e-01 -5.66354655e-02 -9.64210108e-02 -6.95381537e-02 7.39062011e-01 -3.10635805e-01 3.79096061e-01 -2.63391137e-01 -4.95992303e-02 -3.98572952e-01 1.29579768e-01 -9.63183120e-02 -3.04931194e-01 8.57175440e-02 1.92554846e-01 1.80121168e-01 -4.57316115e-02 -2.29163721e-01 8.15610468e-01 4.45227027e-01 -3.58806998e-01 3.58417183e-01 2.30997518e-01 3.18149924e-01
-2.08791807e-01 2.94546753e-01 -1.76442876e-01 -5.92778660e-02 -5.51951408e-01 -2.15973333e-01 8.17620084e-02 4.56865579e-01 -6.32502809e-02 -5.70729375e-01 -1.98123991e-01 2.66143959e-02 -3.31032306e-01 2.03652531e-01 2.86530405e-01 -1.64378092e-01 -1.41155005e-01 2.52058864e-01 2.97793895e-02 3.45400184e-01 -2.50817627e-01 -6.84834048e-02 -3.68174799e-02 -1.52746188e-02 -7.83913136e-02 -8.96699578e-02 2.58580446e-01 -2.70465821e-01 1.15675084e-01 -4.74525057e-03 1.72962286e-02 1.25357509e-01
5.86139448e-02 -5.07066786e-01 -1.14484154e-01 -1.20147258e-01 -4.29778695e-02 -1.60227686e-01 -1.62073672e-02 -1.49883121e-01 -4.15815622e-01 4.46251988e-01 -2.99636163e-02 1.03918247e-01 3.70074838e-01 2.98191607e-01 -1.70048788e-01 -5.87861240e-01 -1.64709002e-01 -1.12411804e-01 -3.08182966e-02 9.07633901e-02 5.90300597e-02 -3.88195813e-02 5.75083196e-01 3.47837508e-02 -3.82875323e-01 2.48781100e-01 3.26094955e-01 1.03939526e-01 -5.66831715e-02 1.08463220e-01 -3.87554914e-02 -2.04752952e-01
1.04725635e+00 2.49858154e-03 -5.97836196e-01 2.72778988e-01 1.06459022e-01 9.12555978e-02 4.84529644e-01 5.05050309e-02 -2.84918815e-01 -9.32436585e-01 -7.92136967e-01 1.30755806e+00 6.70960592e-03 -9.19888854e-01 3.03889245e-01 5.38608730e-01 3.90752815e-02 3.29663306e-01 -3.83855216e-02 1.01072408e-01 -1.68076289e+00 -4.05387282e-01 -8.26968670e-01 -2.17079714e-01 -4.19664353e-01 -7.07936957e-02 3.25891405e-01 6.49197280e-01 -1.43146515e-01 1.35785505e-01 -6.41745552e-02 4.93779391e-01
-1.48033693e-01 9.96452719e-02 -9.03477907e-01 -9.98530090e-02 1.88615799e-01 3.51810515e-01 1.74702466e-01 3.97013985e-02 -3.73756774e-02 5.46968102e-01 -4.48203504e-01 -1.13360393e+00 4.04452682e-01 3.21881950e-01 -3.54262829e-01 5.64431906e-01 -2.55006850e-02 1.27080274e+00 -4.24005657e-01 1.43411845e-01 2.52363473e-01 -8.90480503e-02 -5.00736162e-02 6.53455913e-01 -2.98584104e-01 7.92912364e-01 -1.23150244e-01 -2.15063035e-01 9.81900096e-02 8.81512314e-02 7.12847292e-01 -4.65102717e-02
-2.45714607e-03 3.74024153e-01 -1.84811175e-01 -6.32600486e-01 -1.84943732e-02 7.27084577e-01 3.16883922e-01 8.05565655e-01 2.82784700e-01 2.95796722e-01 9.32643473e-01 -2.37473443e-01 1.01130322e-01 2.19059318e-01 4.15637679e-02 -6.23311102e-01 3.37660193e-01 -7.56048691e-03 -3.32811236e-01 -4.83192950e-01 -6.71224296e-02 -2.33261421e-01 2.55660176e-01 1.19757757e-01 -2.19727576e-01 1.91646159e-01 1.97165255e-02 -1.75763294e-02 -5.51160395e-01 2.36041516e-01 -1.74383223e-01 1.07429385e-01
6.99599385e-02 3.93472686e-02 -1.20923966e-01 1.13728466e-02 -6.44484758e-02 4.98510413e-02 4.67435643e-02 7.25623891e-02 -2.56554913e-02 -3.51116173e-02 -4.96860072e-02 -3.93541813e-01 2.41027683e-01 2.22764000e-01 -6.00070646e-03 9.29659382e-02 9.71858725e-02 -7.02269822e-02 1.14709549e-01 2.54245400e-01 1.25371903e-01 2.89599627e-01 -4.50635701e-03 1.87868521e-01 -1.06366619e-01 -2.93212950e-01 -1.74327970e-01 -1.81416079e-01 -3.18744749e-01 -1.39097944e-01 2.06577126e-02 -2.55905598e-01
4.01738107e-01 -7.70475250e-03 5.68421960e-01 3.89790356e-01 3.03646952e-01 4.32029903e-01 9.69174147e-01 -3.55104476e-01 7.38022208e-01 -4.61478196e-02 -6.14876568e-01 1.64666221e-01 -5.16534626e-01 -3.22194219e-01 -1.42007908e-02 2.10893884e-01 -5.99405289e-01 -4.92640018e-01 2.80524671e-01 -1.88428778e-02 -7.94570595e-02 5.89569211e-01 2.08026275e-01 6.43541276e-01 5.25366403e-02 -1.30449831e-01 -2.39183620e-01 1.61157846e-01 1.95886612e-01 4.11588043e-01 -1.22602388e-01 -2.16215849e-02
-2.62848943e-01 -4.42344040e-01 1.43454516e+00 8.00223053e-02 -7.83671558e-01 -1.94594562e-01 -1.21031153e+00 -9.83687699e-01 2.98234850e-01 1.03484011e+00 9.62624606e-03 -4.76819694e-01 -2.89711744e-01 1.00038302e+00 5.42807281e-01 -1.94661713e+00 2.47373179e-01 -2.61386681e+00 1.77262545e+00 8.75138640e-01 -5.97081304e-01 1.66414714e+00 -4.44882691e-01 2.32973233e-01 3.15886408e-01 -6.88283265e-01 -2.53006846e-01 3.85262609e-01 1.60738125e-01 2.22030897e-02 8.70645940e-01 1.92274228e-01
1.13523947e-02 -2.24548429e-02 5.64888008e-02 4.60166521e-02 4.04671222e-01 -4.53928439e-03 -2.63414276e-03 1.94472969e-02 5.37702069e-02 -7.01299589e-03 -1.78047679e-02 -6.26739711e-02 9.93530080e-02 1.87795516e-03 5.92768658e-04 -4.85750884e-02 1.23348960e-03 -4.80061322e-02 -7.50172362e-02 8.41013268e-02 1.36015311e-01 4.73391786e-02 -2.53016036e-02 -2.57424801e-03 -1.26311988e-01 -1.46915585e-01 2.01419294e-02 3.61789495e-01 -4.35313471e-02 -5.44628426e-02 4.78180300e-04 -2.53670365e-01
-3.79669845e-01 7.51162022e-02 -1.41204089e-01 -6.60690218e-02 -2.11223170e-01 -5.34108002e-03 -1.44427210e-01 6.97186053e-01 -1.09933279e-01 -8.76617730e-02 -1.71104088e-01 6.82982624e-01 4.95533079e-01 2.37420455e-01 2.23599285e-01 1.32512465e-01 -1.20525852e-01 7.52663463e-02 -1.61325127e-01 -2.66644023e-02 -1.38449147e-01 -6.28796041e-01 -1.46782041e-01 -2.08571166e-01 -3.49313021e-01 -1.78620666e-01 -6.04020834e-01 4.14459139e-01 -2.62422830e-01 -2.45803058e-01 -1.82836652e-01 5.24436831e-01
7.27256164e-02 -1.08974129e-01 5.71417928e-01 2.27890432e-01 -6.04703128e-01 1.75289869e-01 3.30173284e-01 -5.92769265e-01 5.25343537e-01 2.91094154e-01 -1.32823467e-01 4.59720224e-01 -6.29941300e-02 1.06595352e-01 8.04151967e-02 -2.02680206e+00 1.91425443e-01 -9.88529623e-01 1.16813302e-01 2.33561695e-01 -1.75129607e-01 1.87729120e-01 1.74978524e-01 1.45720512e-01 -2.63463348e-01 -5.09202838e-01 -1.04095660e-01 -8.77280831e-02 -4.38157141e-01 -5.23176253e-01 4.54401255e-01 -2.59096473e-01
-1.70313179e-01 7.55458400e-02 -1.95940346e-01 1.42642006e-01 -5.38760014e-02 -6.51884377e-02 2.89666951e-01 -1.82486922e-01 -5.85523844e-01 1.59234762e+00 -3.84109169e-01 -4.60624807e-02 -2.64670283e-01 1.25870419e+00 -2.82520831e-01 4.87641394e-02 5.85474111e-02 2.70568263e-02 -1.24745786e-01 -2.69764185e-01 4.84627439e-03 1.85908616e-01 -8.17925408e-02 -1.72033682e-01 -1.53445244e-01 7.98618346e-02 4.22147304e-01 4.65435743e-01 1.92963451e-01 -4.74758625e-01 2.99332619e-01 -8.07839110e-02
-1.81363821e-01 -2.47977644e-01 6.65707469e-01 4.95110571e-01 -2.10799545e-01 -3.14930350e-01 -1.02272677e+00 1.26657754e-01 1.90999463e-01 4.93192822e-01 1.07305519e-01 -7.48733059e-02 9.89034772e-02 2.46042863e-01 -1.97157070e-01 4.97457087e-01 -2.60194577e-02 1.06976464e-01 -1.52097419e-01 -3.60987961e-01 9.04330909e-01 4.14274901e-01 3.98814678e-01 -5.61079204e-01 -2.22117584e-02 6.78591011e-03 -1.88968927e-01 3.19457203e-01 -1.42938748e-01 3.47393066e-01 -1.16022058e-01 -2.44356319e-01
9.60947156e-01 -4.15686846e-01 4.66551811e-01 9.90055859e-01 -3.85272294e-01 3.08036715e-01 -6.71022177e-01 -5.95632255e-01 5.35771549e-01 -7.78698504e-01 -2.69575804e-01 7.32880354e-01 -1.24821639e+00 -1.71416163e-01 7.04465210e-01 -4.47322249e-01 -1.10703863e-01 -4.78711985e-02 6.26153946e-01 7.15725958e-01 3.27130616e-01 -4.92578655e-01 -2.02493238e+00 -4.89631206e-01 4.94506687e-01 5.43749094e-01 -7.99041569e-01 -3.55983943e-01 -4.43876162e-02 1.26579344e+00 -4.12329197e-01 -2.44751144e-02
-1.82923563e-02 1.63617074e-01 -5.31982295e-02 -4.75601181e-02 -1.56451777e-01 -3.33470963e-02 2.68116519e-02 -3.98637094e-02 -4.47544232e-02 -1.88500714e-02 4.12670858e-02 1.00662924e-01 8.48260820e-02 -3.10852677e-02 1.69389695e-01 -1.45962283e-01 8.47306624e-02 1.77821621e-01 -2.50037555e-02 -2.78305441e-01 1.42391354e-01 3.01044974e-02 -1.85110830e-02 -3.02989483e-02 -3.01014900e-01 -3.86582576e-02 2.15301104e-02 -7.38051087e-02 -1.33221084e-02 -7.01761385e-03 -3.01657841e-02 -2.26734161e-01
1.52848274e-01 2.82886326e-01 1.61742544e+00 4.40497100e-01 -1.19983900e+00 1.18270390e-01 -2.18803257e-01 -5.76176524e-01 8.37467372e-01 5.01945376e-01 1.45780191e-01 -3.03087443e-01 -8.89685154e-01 9.47254717e-01 4.08451073e-02 -3.34523106e+00 -2.67670721e-01 -4.52549648e+00 4.04151678e-01 1.02187514e-01 -1.27904236e+00 9.79379654e-01 3.17330420e-01 1.72192425e-01 2.59033352e-01 -1.56283885e-01 -5.29436231e-01 7.11638033e-01 -1.97397292e-01 -1.29837878e-02 -1.07173033e-01 -4.94926013e-02
-7.76996732e-01 2.07418814e-01 8.30176398e-02 -7.03804016e-01 4.77175228e-02 -1.87951878e-01 -2.25451425e-01 4.77013528e-01 -5.82502745e-02 -3.62412892e-02 1.51930705e-01 -3.33507866e-01 4.03891712e-01 4.02910024e-01 -4.20383126e-01 -2.50259608e-01 2.39329323e-01 -1.41890153e-01 -3.40900272e-01 1.76292956e-01 4.69835736e-02 6.61217630e-01 2.01692685e-01 -2.74299532e-01 -1.40224725e-01 2.89549202e-01 -6.72100604e-01 1.37320951e-01 4.56091575e-02 -5.25111556e-01 -1.35760918e-01 -7.35027134e-01

layers.2.bias:
-1.38896346e+00
-8.33904445e-01
7.20245123e-01
-6.53972447e-01
1.54403344e-01
-4.18034703e-01
2.41699666e-01
2.18704963e+00
5.10344386e-01
8.53421986e-01
-9.88359034e-01
-1.34729934e+00
-3.69190842e-01
9.48281169e-01
-3.85961503e-01
-6.31437600e-01
-6.87580928e-02
-8.11850727e-01
3.88636678e-01
-8.34774300e-02
-3.40677023e-01
8.04472446e-01
8.69365096e-01
-2.10521251e-01
-3.90152007e-01
1.04417861e+00
-1.01697254e+00
-1.05904675e+00
5.26981294e-01
-1.29491115e+00
1.44546092e-01
1.19065475e-02
8.17303300e-01
1.11465469e-01
-2.57624149e-01
-1.92006752e-02
-1.36039034e-01
1.41754949e+00
1.06371164e+00
-1.44814953e-01
1.00914371e+00
-2.48251110e-01
-5.35003543e-01
1.42608011e+00
2.48855054e-01
-1.04439247e+00
1.04867244e+00
-3.42514783e-01
8.39385569e-01
1.78951681e+00
1.94319546e-01
3.37713718e-01
1.05300523e-01
-6.56673431e-01
2.58295268e-01
-2.72268970e-02
8.32658350e-01
1.49342843e-04
-2.75481790e-02
-6.91110194e-01
6.21537328e-01
6.18670024e-02
-2.33645603e-01
7.62666166e-01

layers.4.weight:
3.31142753e-01 7.88698345e-02 -4.22051474e-02 9.88356583e-03 1.60007346e-02 3.06890812e-02 5.90870797e-04 -7.48045743e-01 -9.14778486e-02 -4.08288300e-01 8.85869041e-02 9.50150967e-01 -1.75050735e+00 -1.46984816e-01 1.85518172e-02 -1.46717131e+00 -7.33911409e-04 6.66292459e-02 -5.24817295e-02 3.01258755e-04 -7.38816743e-04 -7.31994510e-02 -4.62295376e-02 2.62818098e-01 -1.27999382e-02 -3.78185064e-02 5.08409888e-02 7.59998024e-01 -3.66945773e-01 3.82566065e-01 -8.77163745e-03 -1.25906676e-01 -1.35884658e-02 6.89330685e-04 2.87064184e-02 -7.42428354e-04 -2.69576994e-04 -1.58795804e-01 -2.78802160e-02 1.93213820e-01 -6.75904974e-02 3.07124227e-01 1.46114165e-02 -1.19591847e-01 7.70935731e-04 1.34542108e-01 -1.78230517e-02 -9.10616713e-04 -1.20915048e-01 -7.03413010e-01 -6.27904832e-02 -7.89909609e-05 -2.01718052e-04 2.64798850e-02 -1.05441606e+00 -7.31201028e-04 -1.37332256e-03 -2.55710959e-01 -5.93761913e-02 5.37154488e-02 -1.88156106e-02 -5.81155240e-04 8.66108000e-01 -1.35590341e-02

layers.4.bias:
-1.12897265e+00

