layers.0.weight:
3.31696361e-01 -5.67613244e-01 7.97264636e-01
5.69172144e-01 -8.09445798e-01 -5.80563486e-01
-8.31293464e-02 -6.13938749e-01 -5.77727258e-01
-1.07055378e+00 1.15616508e-01 4.58123112e+00
2.67282110e-02 4.11940843e-01 1.16166264e-01
-5.79876065e-01 8.58121514e-01 -1.84879377e-01
-1.31842160e+00 4.86020595e-01 -9.88645032e-02
-6.01682402e-02 7.88846374e-01 -9.23566997e-01
6.03414774e-01 -9.26082134e-01 5.12713566e-02
-1.11527514e+00 5.86289167e-02 -1.64189592e-01
7.53551662e-01 -9.85680073e-02 1.41279221e+00
-7.16238439e-01 -1.31785080e-01 -1.29353356e+00
-4.30584475e-02 7.12955832e-01 -1.57757306e+00
-1.16726887e+00 2.10410804e-02 5.00053525e-01
-6.46977663e-01 1.09646142e+00 7.52028525e-01
-1.81771189e-01 9.48456824e-01 1.64468549e-02
5.46070874e-01 -6.33792400e-01 -1.45019031e+00
-1.15504665e-02 1.12846863e+00 1.84981868e-01
8.07071701e-02 -9.54183042e-01 5.35116851e-01
3.41117471e-01 -1.28724232e-01 -8.64976227e-01
2.23475501e-01 1.65966094e-01 -5.10879010e-02
-3.24195027e-01 -2.56797969e-01 -1.00232065e+00
-4.64660525e-01 1.65601885e+00 -4.46076952e-02
-1.56447518e+00 4.06930357e-01 1.75152493e+00
1.05132234e+00 3.79940838e-01 -7.78481364e-01
2.59609371e-01 6.71772659e-01 -1.17486012e+00
-1.16151750e-01 -2.13369340e-01 1.90187418e+00
-3.97779703e-01 -2.44972542e-01 1.92939892e-01
3.22416067e-01 7.57217348e-01 -1.46468067e+00
-1.04933763e-02 4.65525806e-01 1.70563948e+00
-2.89658904e+00 2.84448242e+00 -1.78299040e-01
-1.26738083e+00 -5.19488692e-01 1.02004325e+00

layers.0.bias:
8.77201200e-01
4.81547834e-03
-1.42384720e+00
-6.34384930e-01
7.07518518e-01
-2.04255387e-01
-3.54310095e-01
2.86240637e-01
-7.45998621e-01
-1.59115899e+00
1.64644122e-01
1.80825554e-02
2.46107668e-01
-1.21306002e+00
-2.90836543e-01
1.43946290e+00
9.34610724e-01
1.82654703e+00
-6.68276668e-01
5.78918040e-01
-1.44309163e-01
-1.35729384e+00
1.02535832e+00
-7.05530941e-02
1.36946186e-01
5.60703695e-01
8.80503118e-01
-1.57881156e-01
-4.88352716e-01
7.31267482e-02
8.91685039e-02
-6.70209900e-02

layers.2.weight:
-4.08085853e-01 1.23968981e-01 6.63277730e-02 -4.67614859e-01 -7.86114484e-02 7.01372027e-02 5.45404926e-02 -1.12206355e-01 -2.34144866e-01 3.10146880e+00 1.00790456e-01 7.37472773e-02 -2.71443337e-01 2.42953014e+00 -9.56906304e-02 5.17445862e-01 -1.17584832e-01 7.88342416e-01 1.42727643e-01 -3.03341806e-01 2.94413805e-01 -7.01139942e-02 -4.09920484e-01 6.33867562e-01 -4.51258682e-02 5.67744076e-01 -7.77234077e-01 -1.64762363e-01 -9.66956094e-02 -1.98279530e-01 3.96737218e-01 2.10496157e-01
-7.27736875e-02 2.77317852e-01 -9.43274260e-01 1.21850796e-01 -4.42569256e-01 7.84291178e-02 -8.37826610e-01 -4.87435281e-01 7.38060772e-01 6.52731597e-01 4.23208475e-01 -3.12169403e-01 1.88131317e-01 -1.93036441e-02 -5.13048291e-01 -2.17044093e-02 -3.24160457e-01 1.75573841e-01 -4.47166324e-01 -1.05152808e-01 6.56949341e-01 -2.32542396e-01 -5.12471378e-01 -1.47089697e-02 1.98234245e-02 -1.07081436e-01 -2.58970082e-01 -5.50694525e-01 6.11106642e-02 -1.61387578e-01 -2.45366674e-02 1.66506752e-01
6.77460060e-02 1.03523031e-01 1.30211845e-01 -5.61708272e-01 -8.77805769e-01 -1.04914777e-01 -6.59118712e-01 1.43421993e-01 7.00785279e-01 6.98936760e-01 -3.36505800e-01 -3.48226100e-01 -2.72842105e-02 -9.00628860e-04 -1.89437032e-01 -1.16801178e+00 -1.42655849e-01 -8.69522154e-01 8.27812478e-02 2.52371848e-01 -4.09509897e-01 -2.63527662e-01 2.38223389e-01 -1.21494353e+00 -6.98694050e-01 2.32913882e-01 -9.83680248e-01 3.33586305e-01 2.44953439e-01 -1.80605665e-01 1.42705319e-02 5.54483652e-01
2.20309570e-01 -1.19876623e-01 1.03531875e-01 1.32071626e+00 4.97157246e-01 4.15092051e-01 6.85285330e-01 -2.10120276e-01 -1.85896546e-01 -1.60992313e-02 1.35268882e-01 -3.68103683e-02 -5.49399436e-01 1.92261070e-01 6.63699448e-01 8.11354160e-01 -3.68903220e-01 7.91485429e-01 2.84065247e-01 -1.11048365e+00 -7.76131153e-01 -1.24368109e-01 4.06837165e-01 1.55896783e+00 -7.48461843e-01 -5.18089771e-01 4.72660273e-01 3.60123187e-01 -6.38206303e-01 -1.79257616e-01 5.33099892e-03 5.02894819e-01
7.72582274e-03 -2.93962508e-01 3.20250630e-01 -4.31231737e-01 -1.15181275e-01 -2.45704219e-01 -1.52811432e+00 1.38440281e-01 3.14677775e-01 -4.39140886e-01 4.61783111e-01 -8.07783008e-01 7.77393222e-01 -8.36587787e-01 -9.07639563e-02 -1.57641184e+00 -2.82769710e-01 -1.18403149e+00 -1.50845990e-01 -1.15232825e-01 9.47095990e-01 -5.41122854e-01 3.19787294e-01 -3.24683815e-01 -7.68540561e-01 6.09035611e-01 1.10270537e-01 -6.46462679e-01 -2.46845543e-01 6.29348993e-01 -8.56260434e-02 1.96316652e-02
-3.64367992e-01 2.95778394e-01 3.25733840e-01 1.65003404e-01 -9.46955919e-01 -3.60493153e-01 -3.56195480e-01 2.93235958e-01 6.29577458e-01 -9.42426994e-02 6.39686167e-01 3.13924193e-01 -7.57634714e-02 -2.75852501e-01 -4.28099632e-01 -1.25398767e+00 -3.26585442e-01 -1.42916095e+00 6.90405309e-01 -2.42973492e-01 -5.38381875e-01 -5.98830506e-02 -7.29298115e-01 -2.96100408e-01 1.16538040e-01 1.04394041e-01 1.45083591e-01 1.01041937e+00 -1.06463745e-01 -4.43463236e-01 -8.34082782e-01 2.98108965e-01
-2.16934364e-02 -1.89295821e-02 -2.15049118e-01 -1.28468359e-02 -1.27157554e-01 2.00644597e-01 -7.62232989e-02 -4.11821067e-01 -1.36152938e-01 1.78584531e-01 3.07808846e-01 1.76963173e-02 2.95169115e-01 -3.50687862e-03 8.51042685e-04 -2.64603704e-01 1.57907978e-02 1.13346353e-01 -3.31327803e-02 -3.02255929e-01 -3.69471848e-01 1.12133138e-01 7.62741789e-02 3.22700851e-02 1.39047220e-01 2.71948785e-01 -3.62774730e-01 -4.15982872e-01 -1.75064802e-01 7.09671900e-02 -1.08720571e-01 1.71366110e-01
5.62579453e-01 2.35384420e-01 -1.36738434e-01 4.13083524e-01 -1.99165657e-01 -7.56344616e-01 1.02982067e-01 3.23303670e-01 2.59869874e-01 -2.23599046e-01 -8.33141506e-02 9.14934278e-01 2.46762782e-01 -2.44265378e-01 -3.04805636e-01 -7.06674978e-02 4.69446033e-01 -9.38651189e-02 4.91021425e-01 4.05745178e-01 -1.55679691e+00 -7.69339263e-01 2.08044332e-02 3.34736884e-01 -1.07247017e-01 6.03409767e-01 6.68706834e-01 8.72047365e-01 -8.36429417e-01 5.42222738e-01 2.10439667e-01 1.13240808e-01
-2.86985427e-01 3.31881970e-01 -3.92700493e-01 -3.77069145e-01 1.15819633e+00 -2.20633075e-01 -2.30305001e-01 -7.06968457e-02 -1.14772105e+00 7.98406422e-01 3.20186138e-01 3.68904084e-01 8.24771643e-01 -2.33250365e-01 -8.37322790e-03 1.94964850e+00 4.22971487e-01 1.31260586e+00 -9.68954623e-01 -5.82243279e-02 1.05957292e-01 -9.16478783e-02 1.68549433e-01 2.40079403e-01 -1.27712697e-01 5.18424273e-01 -7.78667778e-02 1.02119289e-01 1.06114909e-01 3.88880149e-02 2.26185417e+00 -1.29984111e-01
-7.07611144e-01 1.48140535e-01 -2.75961012e-02 -6.15700006e-01 4.27327394e-01 1.17350012e-01 -1.11715555e-01 4.73980159e-01 4.14310485e-01 -1.10016011e-01 -7.81814829e-02 2.93635070e-01 2.81826705e-01 9.23101380e-02 -2.87556797e-01 -5.75029135e-01 4.24961299e-01 -3.82857889e-01 -5.16328514e-01 1.71332389e-01 -4.96227235e-01 -1.45172000e-01 2.17917964e-01 -2.66669333e-01 -2.31358800e-02 4.05716896e-03 -2.66433924e-01 1.68644655e-02 3.48980188e-01 7.30314404e-02 1.69317827e-01 -1.49413258e-01
2.67925680e-01 -3.39722991e-01 -7.38007426e-02 -3.35785151e-01 -5.74043930e-01 -3.79417539e-01 -5.33835530e-01 4.84555066e-02 8.19007456e-01 1.64380223e-01 -4.98890072e-01 -1.47188634e-01 8.20007682e-01 -3.23853880e-01 -1.61647767e-01 -7.26869345e-01 -6.68100774e-01 -1.11644650e+00 2.25016683e-01 -5.89667819e-02 1.10568893e+00 -2.87540734e-01 -8.56530666e-01 1.82272285e-01 6.46361411e-02 -1.08819403e-01 -4.05682117e-01 -6.39935732e-01 1.86196983e-01 -3.69522393e-01 -5.60544193e-01 2.04668909e-01
-1.54645815e-01 -8.58706236e-02 1.73857260e+00 -8.69784117e-01 -1.01799309e+00 1.36595681e-01 -3.38482149e-02 -3.80549014e-01 2.19438866e-01 2.26918769e+00 1.34276524e-02 -7.89506882e-02 2.91870564e-01 3.21293259e+00 3.27666737e-02 -1.11251342e+00 2.83752471e-01 -2.86357284e+00 5.74726582e-01 -3.48835498e-01 3.33397001e-01 6.11092567e-01 -3.74266863e-01 8.16172004e-01 1.35157043e-02 -5.46998680e-01 2.94462264e-01 -1.73962429e-01 1.49982482e-01 3.42963822e-02 5.98376036e-01 -4.32093531e-01
-7.49973595e-01 -1.93284929e-01 1.19731987e+00 3.92478883e-01 -1.17854452e+00 7.30443776e-01 -1.17488705e-01 -1.06568682e+00 4.71028149e-01 5.48654914e-01 2.55111605e-01 -2.60139834e-02 -5.14444947e-01 4.94341878e-03 5.17319381e-01 -5.04064465e+00 -1.20434232e-01 -6.68868780e+00 8.00104439e-01 -9.99414384e-01 -5.96701741e-01 6.22726262e-01 7.32266963e-01 -6.27023503e-02 -3.56764674e-01 -3.00440401e-01 -3.68505418e-01 6.79786086e-01 -8.43092620e-01 -3.30240756e-01 -1.03092074e+00 -1.86903343e-01
7.69620165e-02 -2.12955698e-01 -6.19011819e-01 -1.20254233e-01 -6.91585168e-02 -4.46995534e-02 2.60290921e-01 3.37725073e-01 1.87789291e-01 -2.57311523e-01 4.36240733e-01 -8.14935938e-02 3.78729016e-01 -8.50528002e-01 -1.40059218e-01 1.07375510e-01 -2.26011053e-01 3.58600825e-01 -7.82025903e-02 1.85407907e-01 -6.44627139e-02 -1.11997001e-01 1.04779996e-01 -2.70446360e-01 -1.26069188e-01 7.98007488e-01 -5.69148064e-02 6.12167045e-02 -1.85259014e-01 2.09440038e-01 8.18253756e-02 3.57762605e-01
-9.46009278e-01 2.39918292e-01 1.06739486e-02 2.78058648e-01 -2.83735931e-01 6.27044499e-01 -3.15913677e-01 -6.09065108e-02 3.89452934e-01 -6.88111559e-02 -8.19700062e-01 2.99607128e-01 2.15045601e-01 -3.42776358e-01 -3.09373945e-01 -6.75815225e-01 2.86464065e-01 -7.32475936e-01 -3.92652512e-01 3.76464516e-01 1.32124555e+00 9.89759088e-01 -4.56391871e-02 1.72980592e-01 -3.99243206e-01 1.61997974e-01 -6.52084470e-01 8.96399245e-02 7.95913756e-01 -3.06866705e-01 -2.12058797e-02 1.68772459e-01
-5.56295991e-01 -1.87227413e-01 3.14852357e-01 4.62055318e-02 -3.26074392e-01 3.42003673e-01 -1.04912341e+00 1.02252802e-02 6.98988065e-02 5.36828423e+00 5.12085855e-01 3.55475575e-01 3.09475034e-01 2.43799043e+00 3.59229475e-01 -1.21265426e-02 -4.89749074e-01 -1.26503900e-01 -1.21825179e-02 -1.85562938e-01 -5.78010440e-01 5.74670970e-01 2.41226718e-01 7.22909495e-02 -2.98866957e-01 -3.26227307e-01 -7.38392889e-01 2.31553227e-01 -6.31309450e-02 -7.12166250e-01 3.89714181e-01 -3.33713382e-01
-5.80379274e-03 1.64017543e-01 -6.01428673e-02 4.28666100e-02 -2.26260070e-02 -9.53906681e-03 1.51135875e-02 -5.95069379e-02 3.70857976e-02 -1.39134824e-01 5.85838407e-02 7.86892027e-02 3.56733650e-02 7.51473978e-02 9.35877338e-02 -2.88399938e-03 4.78357039e-02 1.40649527e-02 5.92611358e-03 9.88050029e-02 2.37532720e-01 1.12587295e-01 -2.95274686e-02 1.64013449e-02 7.93891102e-02 4.77257092e-03 6.33288100e-02 2.78300226e-01 3.65777276e-02 5.24345273e-03 2.06686705e-02 5.63825853e-03
1.79482341e-01 -1.13658141e-02 -6.69376135e-01 4.10307497e-02 2.70946205e-01 -2.82468289e-01 -7.34244734e-02 -2.34355256e-01 1.61038175e-01 -9.20581937e-01 9.37885791e-02 -2.83606052e-02 2.24707633e-01 8.40322673e-03 -3.18370223e-01 3.15778375e-01 -2.42968917e-01 5.08302510e-01 -2.66573042e-01 9.60603356e-01 2.09639937e-01 7.07889795e-02 -5.18146873e-01 -1.30115256e-01 -2.06056178e-01 -4.01912898e-01 8.38320434e-01 -4.66511071e-01 2.59502470e-01 2.93120384e-01 -1.73442990e-01 2.85856634e-01
-3.43364656e-01 -6.61875010e-02 -2.85724193e-01 -2.32274994e-01 4.90950197e-01 7.57610872e-02 3.27181846e-01 2.45693162e-01 2.72752255e-01 -3.66901338e-01 -1.67226002e-01 -9.25324261e-01 5.12390554e-01 -1.71638787e-01 -2.08606541e-01 4.52389836e-01 -1.23053618e-01 4.39059526e-01 -1.88819338e-02 -6.87178299e-02 -2.81307679e-02 -1.51000559e-01 5.06505013e-01 -3.24995190e-01 1.70869619e-01 2.39256069e-01 -2.04607591e-01 3.56235415e-01 1.10110700e-01 3.26322556e-01 6.98037922e-01 1.94156826e-01
1.44144371e-01 2.15888843e-01 2.87198946e-02 2.73199044e-02 -1.42899439e-01 4.96252179e-02 -6.82621226e-02 -1.27778292e-01 7.37324059e-02 1.25982344e-01 -5.91779407e-03 1.97326377e-01 -3.71390618e-02 -1.09507993e-01 1.15815550e-01 4.29254144e-01 1.22926891e-01 -2.87317812e-01 1.57811701e-01 -3.59883942e-02 -1.91811815e-01 -9.43487287e-02 -5.11308387e-02 -4.74294387e-02 1.12404730e-02 1.40504688e-01 -2.98676360e-02 7.62704238e-02 6.37754425e-02 -2.82307509e-02 -2.86918804e-02 7.28532970e-02
5.32588482e-01 -9.56651568e-02 7.00973094e-01 4.71425503e-01 -2.23851338e-01 -2.30834752e-01 -6.81904018e-01 -9.11060721e-02 -3.66191417e-01 -7.53057301e-01 -1.50688604e-01 9.76506114e-01 5.44286311e-01 -5.06135225e-01 7.02148497e-01 6.98994279e-01 1.34217152e-02 -4.84550633e-02 4.59996074e-01 5.40246010e-01 -5.40418267e-01 1.73473299e-01 5.45220613e-01 1.48100555e-01 -1.62865538e-02 -3.37593913e-01 3.92775461e-02 4.18554932e-01 -1.29548192e-01 -1.34461179e-01 6.15127124e-02 5.49461544e-01
3.11625063e-01 -8.03819448e-02 4.83420566e-02 1.61168441e-01 2.37504747e-02 7.10213557e-02 9.46614325e-01 -3.90807213e-03 4.44944680e-01 2.51377553e-01 3.20457518e-01 4.00988281e-01 -4.16064322e-01 -5.77769637e-01 6.43146038e-02 -8.63955259e-01 -2.58228090e-02 -6.37903929e-01 4.25621569e-02 -4.22032893e-01 -6.54754043e-01 -1.20962607e-02 2.08162814e-01 -2.83350144e-02 -1.77932950e-03 -4.47809070e-01 -6.89181089e-01 5.70242047e-01 -1.57032356e-01 -1.80953041e-01 1.87486306e-01 1.92958992e-02
4.32821810e-02 1.15399636e-01 -9.29794163e-02 3.64018440e-01 -4.47424769e-01 2.68989742e-01 3.12168062e-01 -2.71112502e-01 -7.15462640e-02 5.82734227e-01 -5.48906662e-02 1.91106960e-01 4.74143565e-01 4.42630470e-01 -2.53884286e-01 -9.73580420e-01 6.47149920e-01 -5.81622303e-01 1.73336670e-01 -1.86139151e-01 -3.66536319e-01 1.51561990e-01 -6.50625885e-01 1.04965106e-01 -3.54784459e-01 -8.52649361e-02 -9.86247510e-02 -4.53416318e-01 6.20529614e-02 -1.64867222e-01 -1.66431099e-01 -2.67614424e-01
8.12614560e-01 1.59162477e-01 -2.37814993e-01 1.07748829e-01 7.21137598e-02 -6.15442932e-01 -1.02718845e-02 3.28079641e-01 3.28813344e-01 -2.86621308e+00 6.83201253e-02 2.08068520e-01 4.28310215e-01 -1.67386496e+00 -6.96276426e-02 3.33177626e-01 2.54065841e-01 1.83904856e-01 -1.93203807e-01 8.52737725e-02 3.74754250e-01 -1.60095453e-01 -4.71899807e-01 -1.08579643e-01 -4.77885991e-01 -1.53414503e-01 -1.10630929e-01 -5.76697364e-02 2.22563297e-01 3.95855010e-02 1.45762831e-01 -6.07800670e-02
-8.65131497e-01 -9.31896195e-02 -1.42374128e-01 2.06661254e-01 1.16408274e-01 -1.00407161e-01 1.15131521e+00 -1.11848615e-01 -1.56472111e+00 1.81346059e+00 -7.67048359e-01 2.26003200e-01 8.89505818e-02 2.74291009e-01 -3.73292357e-01 8.61195922e-01 4.33111936e-01 9.25085127e-01 2.52123088e-01 -1.24206483e-01 -2.14007780e-01 2.68451333e-01 6.82371736e-01 1.05241144e+00 -2.87752956e-01 4.60796803e-01 -5.42118609e-01 1.50498254e-02 9.42901969e-01 -3.62160653e-01 8.62274051e-01 -1.84087276e-01
-6.07533336e-01 5.79802990e-01 5.02148382e-02 -2.72844046e-01 5.52212536e-01 2.50276357e-01 6.21933080e-02 6.05863810e-01 -3.61681163e-01 5.64997554e-01 -9.11001787e-02 -1.22203752e-02 3.70755613e-01 2.76308179e-01 -4.92710233e-01 -1.79341793e-01 -1.10418595e-01 -1.18785307e-01 3.34097892e-01 -2.60516107e-01 -5.55968881e-02 -1.70709938e-01 6.34942874e-02 -6.02869451e-01 7.80882835e-02 -1.14135347e-01 -6.90030515e-01 -4.73117799e-01 2.45400131e-01 -4.96783167e-01 -1.59110695e-01 -2.54053056e-01
-1.41549349e-01 2.55998790e-01 3.08337837e-01 4.32242751e-01 1.06972791e-02 -2.59170800e-01 -1.58742890e-01 6.90618157e-03 2.88027048e-01 -6.01976335e-01 -4.66712773e-01 -2.04962716e-01 -3.28812212e-01 -3.69777799e-01 -8.05045106e-03 7.26120830e-01 -7.25580007e-02 3.76193494e-01 1.87551007e-01 1.88001350e-01 1.19294457e-01 -8.57716858e-01 2.51791596e-01 1.77019194e-01 2.48796836e-01 1.22752339e-01 8.29385370e-02 -6.03066385e-01 -2.78298646e-01 -4.87159602e-02 1.95107460e-01 -2.24821419e-01
-8.83894980e-01 4.83640581e-01 -6.99982405e-01 -1.02353561e+00 -2.36114375e-02 -2.28635907e-01 -3.59896451e-01 5.84131539e-01 6.46856427e-02 3.79690677e-01 -5.61102927e-02 1.85599059e-01 2.02239722e-01 2.36937374e-01 -3.46260965e-02 1.50987923e+00 7.08693266e-01 1.47721219e+00 -1.45732808e+00 9.14090723e-02 6.12033725e-01 -7.66959906e-01 -6.32851839e-01 3.72256935e-01 -7.19001144e-02 -3.97801638e-01 2.58359373e-01 1.64560184e-01 8.30675542e-01 -8.27537477e-01 1.94309801e-01 -3.29180330e-01
3.15154225e-01 -6.11965656e-01 -5.67975640e-02 -8.14519525e-02 -6.45997822e-01 4.71440792e-01 -2.73157302e-02 -6.14062607e-01 5.93800962e-01 8.64942908e-01 -2.31389567e-01 1.53768137e-01 5.02236009e-01 3.91234100e-01 1.32018253e-01 -1.16326070e+00 -5.13120472e-01 -1.09339559e+00 2.68972129e-01 1.76776424e-01 2.32242301e-01 3.00339907e-01 1.85525611e-01 1.58905104e-01 3.50947201e-01 4.80408445e-02 -3.72761637e-01 -2.75564790e-01 -3.93488497e-01 -3.02410811e-01 3.43104929e-01 2.24403828e-01
-1.77998524e-02 -9.89126742e-01 3.47708166e-01 1.61428034e+00 8.45426321e-02 2.75124069e-02 -2.69824676e-02 -3.21477026e-01 -2.03095540e-01 2.47641370e-01 1.10995138e+00 -9.70981538e-01 -1.14451802e+00 -2.67349690e-01 1.48130313e-01 -9.43320841e-02 -1.29683840e+00 5.17695844e-01 6.96548343e-01 -7.97193348e-01 7.62339056e-01 1.65971011e-01 -7.77920336e-02 1.15173891e-01 -1.94975719e-01 -5.58904469e-01 2.35743806e-01 2.01587468e-01 -9.12644804e-01 1.29109895e+00 -6.32557571e-01 9.86899436e-02
-5.88726163e-01 -1.52559236e-01 1.97691754e-01 1.02685668e-01 1.72846749e-01 2.52406716e-01 1.94056377e-01 1.94611952e-01 -3.28422397e-01 -2.43765235e-01 -1.02577996e+00 3.14606279e-01 5.72013140e-01 1.28900826e-01 1.42625049e-01 -1.82872042e-01 4.02216613e-01 -6.65561557e-02 -2.21142650e-01 -2.97541618e-01 -7.64929235e-01 4.77847792e-02 -1.61837507e-02 -6.51956081e-01 2.27182448e-01 6.53200448e-01 -1.38838127e-01 -2.03973651e-02 -4.56285596e-01 -2.52604604e-01 -2.15586305e-01 -6.35646433e-02
-3.41068238e-01 -3.58248025e-01 -7.39753544e-02 -1.36368081e-01 -3.81430954e-01 -3.97828706e-02 1.51910439e-01 2.30730385e-01 -5.74763536e-01 1.51890993e+00 -1.40386701e-01 -1.19146280e-01 -5.25606096e-01 4.51954782e-01 -9.31058004e-02 -2.35478245e-02 -6.12245640e-03 1.25533864e-01 3.28778923e-02 -2.14868158e-01 2.63311744e-01 1.53823376e-01 3.49600226e-01 3.12086288e-02 8.99394378e-02 -9.80529934e-02 -1.77940726e-01 1.64173782e-01 3.17042351e-01 3.29384029e-01 -2.09951177e-01 6.43761829e-02
1.28436387e-02 -4.15963411e-01 6.54416382e-02 -1.08988784e-01 -4.72370923e-01 4.12905723e-01 -2.32976288e-01 -5.04603028e-01 1.46665826e-01 -3.52695554e-01 -9.16413404e-03 5.12199044e-01 1.93630055e-01 4.32653248e-01 4.06895190e-01 -6.97635710e-01 -4.96991515e-01 -1.34627914e+00 1.10092126e-01 -3.38074446e-01 -1.32132515e-01 8.72911751e-01 4.17059571e-01 5.79993308e-01 -3.88627857e-01 1.23954244e-01 1.20748319e-01 -2.45413527e-01 -3.93098593e-01 -2.65510261e-01 -1.93852782e-01 -1.60025924e-01
1.63796637e-02 -4.92055267e-02 1.63623706e-01 -1.03536814e-01 2.33491793e-01 -8.70818496e-02 -1.82533432e-02 -3.33795637e-01 -1.82288811e-01 3.37232441e-01 1.45837680e-01 1.31637856e-01 9.08587351e-02 -3.02950531e-01 -6.29179999e-02 -2.30116904e-01 6.76526949e-02 2.02698737e-01 -1.60951108e-01 -5.21568656e-01 1.63338780e-01 -1.27116248e-01 -8.30148980e-02 -1.67929977e-02 -4.73073833e-02 2.23265246e-01 -7.24212676e-02 2.41811294e-02 8.81202072e-02 6.17755614e-02 -7.65687451e-02 3.04284450e-02
9.73304734e-02 -5.47090650e-01 -3.80607665e-01 9.01677608e-01 -2.21960664e-01 -3.11775088e-01 2.09121302e-01 -1.05955988e-01 9.43108872e-02 2.90282536e+00 -4.41987008e-01 8.92035842e-01 5.71532667e-01 1.13007677e+00 7.12847292e-01 -1.24146268e-01 -2.89490689e-02 -1.73419744e-01 4.68338341e-01 2.39191845e-01 2.56336987e-01 -2.26200535e-03 -2.49137491e-01 1.20141578e+00 -5.36195301e-02 1.06498137e-01 -1.62119195e-01 2.65578121e-01 -7.67882392e-02 1.57187328e-01 7.52286553e-01 2.00608615e-02
-1.12934545e-01 1.84670374e-01 1.13814056e-01 8.95859599e-02 3.07874642e-02 -5.46275117e-02 2.41808239e-02 1.23561449e-01 8.10297090e-04 -3.01803984e-02 1.65773377e-01 1.11277409e-01 7.55808279e-02 -3.10616158e-02 1.48380205e-01 1.88410029e-01 2.94861831e-02 -1.30455226e-01 -3.75512950e-02 7.22630471e-02 -1.70563355e-01 -6.78552017e-02 -1.87497195e-02 -1.88376587e-02 -4.48812276e-01 -2.36197650e-01 6.03161901e-02 -1.23297088e-01 -2.16360204e-02 -4.33130078e-02 2.10163184e-03 -4.69200492e-01
8.48126337e-02 -6.49111196e-02 -1.97212677e-02 -1.73319392e-02 -3.16477060e-01 -3.32013890e-02 -6.95652664e-02 1.11073472e-01 8.08175802e-02 3.19261141e-02 -9.76659134e-02 8.68837759e-02 -3.89584564e-02 4.07616459e-02 -4.76419367e-02 2.21171722e-01 -7.04931617e-02 -8.83357450e-02 1.42950445e-01 3.78050119e-01 -3.46448421e-01 -6.24233522e-02 -4.37836275e-02 -4.34258990e-02 -1.94909098e-03 -8.85603130e-02 -1.00751132e-01 2.26670131e-02 -8.49324465e-02 1.09192701e-02 -3.42337973e-02 8.76524858e-03
8.53898406e-01 -3.02647144e-01 4.09229457e-01 3.69390041e-01 -5.84820986e-01 3.10891885e-02 -5.72917461e-01 -1.39739513e-01 7.23476589e-01 1.76546916e-01 -1.78944245e-01 3.11207175e-02 2.14085709e-02 3.22301626e-01 7.75319636e-01 -1.16501486e+00 -4.89030212e-01 -9.97054279e-01 1.48600948e+00 -3.02002817e-01 -8.27344537e-01 2.62629509e-01 -1.29696041e-01 2.62404978e-01 6.52836978e-01 -9.66943204e-02 2.60735363e-01 3.96033861e-02 -8.50379646e-01 2.55548954e-01 1.20324753e-01 2.24826947e-01
2.39288226e-01 -4.50414389e-01 -2.02572480e-01 4.63704258e-01 -3.41439433e-02 -6.15354359e-01 5.00886794e-03 -2.46542871e-01 3.85876507e-01 -2.52596855e-01 -1.85797021e-01 4.02515084e-01 2.82017797e-01 -2.44778201e-01 3.00333828e-01 -1.10950911e+00 -3.87552112e-01 -1.12058008e+00 1.36077023e+00 -4.52675819e-01 -2.67555654e-01 -7.95641467e-02 3.53729635e-01 7.05773413e-01 -1.91079497e-01 -4.01478738e-01 5.03129661e-01 4.42207716e-02 -3.98315609e-01 -3.65388572e-01 -1.09941012e-03 2.85791308e-01
1.80865079e-01 -1.00485198e-01 7.53383398e-01 1.12395257e-01 -1.43534410e+00 -4.32251185e-01 2.84115583e-01 -1.92319259e-01 9.70845580e-01 7.58878410e-01 -1.70366988e-01 -2.58942932e-01 -1.81214151e-03 7.41063833e-01 8.72707069e-02 -2.94626689e+00 -3.88588130e-01 -3.40520382e+00 2.88595051e-01 -3.65592688e-02 -7.80476511e-01 5.98804653e-01 8.19329396e-02 9.44283381e-02 3.63004625e-01 1.18321955e-01 3.39738369e-01 1.06288880e-01 -1.45345539e-01 -7.70631492e-01 -5.66499889e-01 4.39342670e-02
-9.23458338e-02 -2.70158887e-01 -2.41579354e-01 -2.78014749e-01 -3.26942086e-01 4.87629920e-01 1.62216395e-01 -1.73292205e-01 -1.02689095e-01 4.49613959e-01 -2.32019663e-01 2.25877047e-01 4.71503474e-02 -2.66943842e-01 -9.47137251e-02 -5.19425154e-01 2.86612749e-01 -6.37816072e-01 -1.62794307e-01 1.23118004e-02 -4.38185930e-01 3.94604892e-01 -2.12396979e-01 3.45126778e-01 3.08533013e-01 -5.37498355e-01 4.89795029e-01 1.50944352e-01 4.31181688e-04 1.37800470e-01 -1.58241466e-01 1.01868212e-01
3.04465532e-01 7.42542803e-01 7.15240240e-01 -3.97410214e-01 3.78394164e-02 1.80086121e-01 2.89730221e-01 -4.32871692e-02 -8.10464323e-01 1.21255279e+00 -2.55427122e-01 -2.85864711e-01 -4.33089823e-01 1.20668542e+00 7.34486654e-02 4.25703414e-02 4.85837124e-02 -1.12562478e+00 1.87551230e-01 -2.87807465e-01 8.34258869e-02 7.27057040e-01 -2.40649194e-01 -3.79101008e-01 5.38231254e-01 -7.68574417e-01 4.93983895e-01 -5.43489382e-02 -3.10776532e-01 -6.00810826e-01 -5.92266247e-02 -3.47219646e-01
-7.63685117e-03 -4.44317102e-01 1.36729375e-01 -9.86198038e-02 -1.85193673e-01 1.19915448e-01 9.47151333e-02 -3.71276140e-01 -4.81273621e-01 -3.33422154e-01 -3.52544859e-02 -5.16794696e-02 -1.75522044e-01 6.45007670e-01 5.65074027e-01 2.49274746e-01 1.65215895e-01 -4.91198003e-01 1.10149562e-01 4.54199761e-02 -2.33133927e-01 2.31262282e-01 -4.14167970e-01 2.43446305e-01 -7.85071254e-02 -3.62202078e-01 4.82556224e-01 7.66124785e-01 -4.67694610e-01 -3.85110795e-01 2.79163688e-01 3.29526484e-01
-1.03051078e+00 -2.58607805e-01 -4.07147519e-02 -1.17735410e+00 4.59566563e-02 -1.45733252e-01 4.10226941e-01 4.38637376e-01 -3.94489765e-01 1.83505619e+00 -9.89779055e-01 1.33640647e+00 8.76312256e-01 5.84116220e-01 8.48860666e-02 7.72979319e-01 3.43167812e-01 8.17973837e-02 -1.71549588e-01 8.62977445e-01 -7.91178107e-01 -4.46728379e-01 -5.82544863e-01 8.03037211e-02 4.36375529e-01 7.58501172e-01 9.91506338e-01 8.70091617e-01 3.41497272e-01 -8.87318432e-01 1.20574677e+00 3.66845280e-01
-1.14106677e-01 9.04254392e-02 3.08594555e-01 -5.85674122e-02 3.49836349e-01 -9.62479338e-02 -1.68468915e-02 4.22431752e-02 -4.93738651e-02 1.57941878e-01 3.41356806e-02 -1.84210055e-02 2.07886309e-03 -9.06130522e-02 7.30585009e-02 -1.29212752e-01 9.04660225e-02 6.59419745e-02 -7.09469337e-03 -4.05052215e-01 1.58523038e-01 -9.88405496e-02 1.87504720e-02 2.41691060e-02 1.30057737e-01 -1.02505146e-03 6.45175651e-02 1.36090457e-01 2.35782117e-02 -9.80413631e-02 -3.53738554e-02 6.85942397e-02
-4.93792119e-03 1.54859215e-01 2.65869409e-01 -2.30012517e-02 2.21490413e-01 1.44408960e-02 5.49928963e-01 2.40722150e-01 1.96090087e-01 -1.36556518e+00 -2.49085024e-01 4.36227649e-01 5.68224132e-01 -4.27659988e-01 -3.47406089e-01 -2.59879716e-02 3.55005592e-01 -3.49878877e-01 2.08562147e-02 -7.04311490e-01 1.13570929e+00 -3.86507064e-01 -5.67754470e-02 -1.27901566e+00 2.73035079e-01 4.74498361e-01 -9.01119113e-01 -1.21830523e+00 2.68582910e-01 -8.34369939e-03 -1.21796951e-01 -4.11503941e-01
6.90247715e-01 -3.41132939e-01 -1.70207635e-01 4.80403006e-01 -4.13192660e-01 -6.84034154e-02 -1.55848965e-01 -4.50553536e-01 6.90652907e-01 -9.73509029e-02 -8.07830542e-02 -8.35218802e-02 6.92748368e-01 -2.89978623e-01 3.95855069e-01 -1.06912827e+00 -7.52173141e-02 -9.86417949e-01 1.42093825e+00 -1.29931629e-01 -3.57947916e-01 1.19495727e-01 1.32841721e-01 2.14198887e-01 -8.68274719e-02 -3.20901603e-01 8.39515626e-01 5.86841106e-01 -6.38200343e-01 3.76632243e-01 1.00339793e-01 3.49572182e-01
-2.54244417e-01 3.50670397e-01 -2.00855687e-01 -3.44290882e-02 -5.41681826e-01 -2.17987239e-01 1.61675349e-01 4.88480628e-01 -9.79658589e-02 -5.44821560e-01 -1.85285926e-01 1.09215835e-02 -3.50358725e-01 1.65022224e-01 2.31707394e-01 -1.26923501e-01 -1.04248188e-01 2.60348797e-01 -2.90069375e-02 3.40672880e-01 -2.50858754e-01 -6.35656714e-02 -3.63046005e-02 -6.13238513e-02 -1.19504884e-01 -1.14029109e-01 2.79636532e-01 -2.62348175e-01 1.39808163e-01 1.62128974e-02 1.87577046e-02 1.67108208e-01
1.08621649e-01 -5.09261847e-01 1.65400282e-02 -1.53576702e-01 -2.66438216e-01 -2.02266350e-01 -1.14675313e-01 -2.10742608e-01 -2.92596579e-01 3.99281323e-01 -6.56161532e-02 1.29793078e-01 3.88114393e-01 2.20620677e-01 -1.44393489e-01 -7.42807746e-01 -1.69476554e-01 -2.60504156e-01 1.05755351e-01 1.03790805e-01 5.74546345e-02 2.52108481e-02 5.34565568e-01 -1.93866473e-02 -3.23316306e-01 2.54336059e-01 2.93549865e-01 9.11237672e-02 -5.29174916e-02 7.97441602e-02 -1.34823248e-01 -2.51463890e-01
1.00577390e+00 7.80390650e-02 -5.82946956e-01 1.56735986e-01 1.65450796e-01 1.12369187e-01 4.92102206e-01 1.03723407e-01 -2.36915097e-01 -9.15028453e-01 -8.81552041e-01 1.39950442e+00 1.22053608e-01 -9.14522469e-01 2.38264203e-01 5.33775687e-01 1.31082445e-01 3.49538594e-01 -9.51508507e-02 1.21406250e-01 -1.61614847e+00 -3.87410969e-01 -8.54095101e-01 -2.32648760e-01 -4.63450789e-01 -2.52932776e-02 2.10144088e-01 6.63306117e-01 -3.19132768e-02 1.51691679e-02 -4.93212976e-02 5.09564877e-01
-1.49410769e-01 -2.20199138e-01 -9.16370630e-01 -2.82032043e-02 3.90918314e-01 4.55075115e-01 1.65334478e-01 1.17703145e-02 -1.39487490e-01 4.48562741e-01 -3.58722210e-01 -1.28199327e+00 3.38447094e-01 3.47697556e-01 6.52360246e-02 6.83370709e-01 -2.29380503e-01 1.46120954e+00 -4.49410558e-01 2.40059700e-02 3.69152158e-01 -1.40402198e-01 1.26017645e-01 6.82177603e-01 -2.13433936e-01 7.49546468e-01 -6.13744855e-02 -3.16037923e-01 1.00742914e-01 1.82261050e-01 3.19521755e-01 -1.23990342e-01
-1.01733010e-03 2.84644604e-01 -1.75857961e-01 -5.53923547e-01 -9.23903361e-02 7.37058103e-01 2.44829014e-01 7.64717638e-01 4.01351243e-01 2.83181965e-01 1.02444339e+00 -3.31828356e-01 3.18338387e-02 2.85989255e-01 1.14357673e-01 -7.81252325e-01 1.75079182e-01 -1.11246102e-01 -3.04065585e-01 -6.49468362e-01 -1.57143362e-02 -2.70284295e-01 2.69595802e-01 1.56561598e-01 -1.94280118e-01 1.39258981e-01 8.31942633e-02 -3.12799215e-02 -5.59644938e-01 3.22690904e-01 -2.25280389e-01 7.31325597e-02
-6.65913001e-02 -7.45991766e-02 -1.24977536e-01 3.45446579e-02 7.12726936e-02 1.83817029e-01 -1.69241726e-02 1.69363961e-01 -7.70443976e-02 -1.40421107e-01 2.42846869e-02 -5.16452193e-01 2.37665430e-01 2.13378474e-01 9.54176709e-02 1.27935052e-01 -3.63216884e-02 -8.89346525e-02 -9.46107060e-02 1.72235534e-01 3.14032644e-01 2.73089021e-01 1.56330362e-01 2.86644131e-01 -2.56877784e-02 -2.61981457e-01 -1.59693509e-01 -3.39579582e-01 -2.29122594e-01 -1.09490283e-01 4.14054543e-02 -3.64061385e-01
6.28220320e-01 1.62954628e-01 5.99204242e-01 4.24086869e-01 -2.01353002e-02 1.73117340e-01 8.31984341e-01 -6.29293025e-01 1.06839252e+00 -9.80300382e-02 -5.93140900e-01 2.16412097e-01 -5.87901652e-01 -3.95415306e-01 -1.61100894e-01 -3.93786222e-01 -4.95137334e-01 -8.69965076e-01 8.59246969e-01 2.06421092e-02 -2.15440527e-01 5.33420861e-01 -6.57211542e-02 6.53363585e-01 -6.21004626e-02 -2.38619402e-01 -1.95143148e-01 2.96616107e-01 -2.10002866e-02 4.33212221e-01 -4.54715699e-01 1.07016556e-01
-3.95882547e-01 -6.19169056e-01 1.63248658e+00 1.17561407e-01 -1.14045811e+00 -4.10415046e-02 -1.26126099e+00 -1.04349089e+00 3.44831407e-01 1.11480403e+00 1.14018451e-02 -5.09393752e-01 -3.31904262e-01 1.00286090e+00 7.40459263e-01 -2.36266017e+00 8.25086385e-02 -3.02044296e+00 1.83404553e+00 7.64025271e-01 -5.27069032e-01 1.80223489e+00 -2.70953536e-01 2.65226156e-01 3.49220634e-01 -7.30892122e-01 -2.23095164e-01 4.09627825e-01 1.07925542e-01 7.48384297e-02 7.06164360e-01 1.62821725e-01
1.67721249e-02 -1.05512301e-02 6.30540624e-02 5.31579405e-02 3.81746590e-01 -1.37326904e-02 4.88762092e-03 2.14971844e-02 5.53083457e-02 2.07556989e-02 -1.33938240e-02 -4.54735383e-02 8.99672136e-02 -1.45989247e-02 -2.14879643e-02 -5.96575215e-02 3.09461332e-03 -2.78373249e-02 -6.93917498e-02 7.03132004e-02 1.29791066e-01 4.19985801e-02 -1.80433504e-02 -1.28121097e-02 -1.20443180e-01 -1.55263841e-01 2.52080373e-02 3.54264617e-01 -5.33706369e-03 -4.91047725e-02 1.37158232e-02 -2.54269034e-01
-5.24199307e-01 8.21730867e-02 -1.87089257e-02 -2.18648061e-01 -2.76901007e-01 9.72731709e-02 -1.45113155e-01 8.61266732e-01 -1.38070643e-01 2.54651587e-02 -3.52242738e-01 8.43799353e-01 6.63221419e-01 2.54645139e-01 3.05761725e-01 1.17113091e-01 -2.92789843e-02 6.72474280e-02 -2.90056497e-01 1.00539513e-01 -3.59731503e-02 -4.97718424e-01 -1.45059288e-01 -3.47816646e-01 -2.35012844e-01 -3.42057832e-02 -7.55051017e-01 3.15408200e-01 -1.27707735e-01 -3.94391447e-01 -2.70366758e-01 4.01304454e-01
-1.70825899e-01 -2.16421768e-01 7.75761545e-01 2.29181319e-01 -8.34046841e-01 3.67451787e-01 1.69929370e-01 -6.02294326e-01 6.31843686e-01 2.80105501e-01 -1.13965847e-01 3.68070841e-01 -6.90086558e-02 3.36670429e-02 2.52527088e-01 -2.44454312e+00 1.16160378e-01 -1.26933503e+00 8.78195539e-02 1.90457731e-01 7.33680502e-02 3.19361567e-01 3.92209470e-01 1.08147718e-01 -1.17105164e-01 -5.20086050e-01 -1.08978495e-01 -3.06600422e-01 -4.20955002e-01 -5.05848944e-01 3.35023135e-01 -4.00798351e-01
-3.05061072e-01 -3.15225348e-02 -6.03423007e-02 1.39505312e-01 -2.17466503e-01 8.88421088e-02 2.54421979e-01 -1.46390885e-01 -6.50947928e-01 2.06017756e+00 -3.83272260e-01 -9.90524143e-02 -2.51944840e-01 1.30004120e+00 -1.39441818e-01 1.16983997e-02 -2.56435703e-02 8.95217154e-03 -1.64782390e-01 -3.16361099e-01 1.22226119e-01 2.55401105e-01 1.26780355e-02 -2.01634482e-01 -1.24807470e-01 8.58395770e-02 4.14236724e-01 3.97192210e-01 2.37873465e-01 -4.67304468e-01 1.15821593e-01 -1.12022035e-01
-1.59455806e-01 -2.16335624e-01 3.93865317e-01 4.78610247e-01 3.75035226e-01 -3.28945428e-01 -1.08293331e+00 2.64519483e-01 1.64163917e-01 3.67588192e-01 9.40830857e-02 -6.43881038e-02 1.27832413e-01 1.40616700e-01 -2.37727523e-01 9.28621054e-01 2.12497059e-02 6.70294344e-01 -3.78041834e-01 -3.11499000e-01 9.93480206e-01 2.95824796e-01 4.73550111e-01 -6.25823855e-01 1.45700738e-01 6.39218166e-02 -2.08362207e-01 1.00293189e-01 -1.92427654e-02 3.30941319e-01 -1.57272443e-01 -4.12921667e-01
9.10173059e-01 -1.15686424e-01 4.37010020e-01 8.14270973e-01 -3.54688853e-01 9.82731208e-02 -6.38803184e-01 -4.18893278e-01 5.36873639e-01 -1.53485978e+00 -4.17811811e-01 8.95170808e-01 -1.07608593e+00 -3.48127842e-01 2.56467640e-01 -3.28265965e-01 1.40722990e-01 1.23223700e-01 4.46158320e-01 9.04706657e-01 1.83380127e-01 -3.70595902e-01 -2.15078306e+00 -6.64737999e-01 6.15391910e-01 6.90179884e-01 -9.77451742e-01 -3.21206897e-01 2.09245801e-01 1.07669473e+00 -7.92635679e-01 -1.83048025e-01
-2.17355378e-02 1.87065154e-01 -1.68201048e-02 -4.34706584e-02 -2.17130184e-01 -3.72273214e-02 -2.19727750e-03 -4.92783077e-02 -4.17979881e-02 2.79986430e-02 3.02652121e-02 1.12929828e-01 7.53820911e-02 -5.18130884e-02 1.48623705e-01 -1.38537586e-01 9.82151181e-02 2.21250013e-01 4.36824327e-03 -2.91918963e-01 1.13343097e-01 6.16472922e-02 4.86401282e-03 -1.60507802e-02 -3.11284989e-01 -5.39219044e-02 2.42967475e-02 -5.67313172e-02 8.50519538e-03 -2.98766652e-03 -1.36235449e-02 -2.17579424e-01
-3.62128392e-02 2.65283704e-01 1.83713484e+00 4.99570251e-01 -1.86810982e+00 2.57799476e-01 -3.57440740e-01 -6.85899496e-01 9.92148280e-01 5.21334469e-01 1.73849791e-01 -4.42020565e-01 -9.61230695e-01 7.77925730e-01 1.40635416e-01 -4.47978210e+00 -2.72970855e-01 -5.54225302e+00 5.07213473e-01 5.70717603e-02 -1.17596710e+00 1.16003692e+00 4.48958129e-01 1.41253978e-01 1.38304830e-01 -2.57111996e-01 -4.68245625e-01 7.94867158e-01 -3.85076493e-01 5.08231670e-02 -1.99845269e-01 1.08736776e-01
-8.16391408e-01 2.14302987e-01 1.34550259e-01 -7.41702676e-01 -4.63564135e-02 -1.42816201e-01 -2.43876547e-01 3.95394206e-01 6.08795919e-02 6.96995761e-03 1.14103504e-01 -2.99055964e-01 4.33505684e-01 4.69895929e-01 -4.27838534e-01 -3.76724362e-01 2.58759916e-01 -2.63114452e-01 -2.15956718e-01 2.25400403e-01 5.69833964e-02 6.99701488e-01 2.43010551e-01 -3.16017687e-01 -9.18538198e-02 2.44921491e-01 -7.08196580e-01 7.93949738e-02 4.51389700e-02 -5.63496113e-01 -2.28921652e-01 -7.58125067e-01

layers.2.bias:
-1.49401557e+00
-7.95602858e-01
5.59324622e-01
-6.05601907e-01
6.67794272e-02
-3.97035569e-01
2.18308300e-01
2.02353764e+00
5.13943672e-01
7.54349470e-01
-9.83332753e-01
-1.45978785e+00
-5.24510145e-01
9.88173544e-01
-2.60624528e-01
-8.40801597e-01
-4.43085469e-02
-6.52616441e-01
3.48843724e-01
-2.61874273e-02
-1.49752006e-01
8.83305073e-01
7.64323175e-01
-1.73275787e-02
-4.33917582e-01
1.03459752e+00
-9.62767839e-01
-1.09994662e+00
5.27587295e-01
-1.11416221e+00
3.03752542e-01
-1.25919387e-01
8.10106933e-01
8.63280073e-02
-3.51225644e-01
-6.30215695e-03
-7.29017779e-02
1.39706767e+00
1.02586615e+00
-1.06885947e-01
1.06174529e+00
-2.69765675e-01
-6.09607339e-01
1.55932105e+00
2.37671569e-01
-1.08019614e+00
1.01251233e+00
-3.47047061e-01
8.26098800e-01
1.77395475e+00
9.24377739e-02
2.66734123e-01
-3.52113992e-02
-5.43933630e-01
7.27949217e-02
-1.04536666e-02
7.30266213e-01
-2.36547157e-01
-1.90869391e-01
-6.18042886e-01
7.91117191e-01
6.93258569e-02
-4.83735204e-01
7.06294715e-01

layers.4.weight:
4.04116392e-01 1.47077635e-01 -9.14784148e-02 6.17787801e-02 -9.63804498e-02 1.72316372e-01 -9.34124982e-04 -7.63226628e-01 -8.34213272e-02 -4.29030925e-01 -1.06183283e-01 1.10807598e+00 -2.66633320e+00 -1.40422255e-01 -3.05140074e-02 -1.44263101e+00 -3.11387004e-03 1.03215396e-01 8.75435174e-02 -2.22923495e-02 -8.50147009e-02 -1.65622771e-01 -1.10406205e-01 2.32035443e-01 -1.68203056e-01 -7.59032071e-02 8.26173201e-02 1.04379046e+00 -4.37526494e-01 4.26470667e-01 -4.75177541e-02 -1.00431994e-01 -1.76839888e-01 5.06422366e-04 1.06805339e-01 -7.01901852e-04 -2.22191866e-02 -3.56989443e-01 -1.91953182e-01 3.90492439e-01 -1.11715488e-01 3.11060071e-01 9.83119980e-02 -2.60751337e-01 -7.00749952e-05 1.13010339e-01 -2.13924706e-01 2.56736530e-04 -8.36245045e-02 -7.18921006e-01 -7.48202801e-02 3.98719497e-02 1.07595958e-01 -1.68847501e-01 -1.41893959e+00 -2.32496503e-04 -6.11719862e-02 -4.78951097e-01 -6.53463826e-02 9.50689539e-02 9.94570106e-02 2.71239056e-04 1.49864340e+00 -5.70287630e-02

layers.4.bias:
-1.14424586e+00

