layers.0.weight:
3.31696361e-01 -5.67613244e-01 7.97264636e-01
5.69172144e-01 -8.09445798e-01 -5.80563486e-01
-8.31293464e-02 -6.13938749e-01 -5.77727258e-01
-1.07055378e+00 1.15616508e-01 4.58123112e+00
2.67282110e-02 4.11940843e-01 1.16166264e-01
-5.79876065e-01 8.58121514e-01 -1.84879377e-01
-1.31842160e+00 4.86020595e-01 -9.88645032e-02
-6.01682402e-02 7.88846374e-01 -9.23566997e-01
6.03414774e-01 -9.26082134e-01 5.12713566e-02
-1.11527514e+00 5.86289167e-02 -1.64189592e-01
7.53551662e-01 -9.85680073e-02 1.41279221e+00
-7.16238439e-01 -1.31785080e-01 -1.29353356e+00
-4.30584475e-02 7.12955832e-01 -1.57757306e+00
-1.16726887e+00 2.10410804e-02 5.00053525e-01
-6.46977663e-01 1.09646142e+00 7.52028525e-01
-1.81771189e-01 9.48456824e-01 1.64468549e-02
5.46070874e-01 -6.33792400e-01 -1.45019031e+00
-1.15504665e-02 1.12846863e+00 1.84981868e-01
8.07071701e-02 -9.54183042e-01 5.35116851e-01
3.41117471e-01 -1.28724232e-01 -8.64976227e-01
2.23475501e-01 1.65966094e-01 -5.10879010e-02
-3.24195027e-01 -2.56797969e-01 -1.00232065e+00
-4.64660525e-01 1.65601885e+00 -4.46076952e-02
-1.56447518e+00 4.06930357e-01 1.75152493e+00
1.05132234e+00 3.79940838e-01 -7.78481364e-01
2.59609371e-01 6.71772659e-01 -1.17486012e+00
-1.16151750e-01 -2.13369340e-01 1.90187418e+00
-3.97779703e-01 -2.44972542e-01 1.92939892e-01
3.22416067e-01 7.57217348e-01 -1.46468067e+00
-1.04933763e-02 4.65525806e-01 1.70563948e+00
-2.89658904e+00 2.84448242e+00 -1.78299040e-01
-1.26738083e+00 -5.19488692e-01 1.02004325e+00

layers.0.bias:
8.77201200e-01
4.81547834e-03
-1.42384720e+00
-6.34384930e-01
7.07518518e-01
-2.04255387e-01
-3.54310095e-01
2.86240637e-01
-7.45998621e-01
-1.59115899e+00
1.64644122e-01
1.80825554e-02
2.46107668e-01
-1.21306002e+00
-2.90836543e-01
1.43946290e+00
9.34610724e-01
1.82654703e+00
-6.68276668e-01
5.78918040e-01
-1.44309163e-01
-1.35729384e+00
1.02535832e+00
-7.05530941e-02
1.36946186e-01
5.60703695e-01
8.80503118e-01
-1.57881156e-01
-4.88352716e-01
7.31267482e-02
8.91685039e-02
-6.70209900e-02

layers.2.weight:
-3.22529823e-01 2.67300189e-01 1.02025859e-01 -5.13381362e-01 -1.57276392e-01 -4.97741885e-02 1.04646757e-01 -3.14978324e-02 -3.30743082e-02 2.74820805e+00 5.69127239e-02 1.05723165e-01 -1.92893714e-01 2.39077520e+00 -2.62313962e-01 3.64875644e-01 -3.75678726e-02 5.84664941e-01 1.28721312e-01 -2.45443583e-01 2.14396238e-01 -4.20982502e-02 -5.61892092e-01 5.63656807e-01 -1.25916287e-01 6.46222711e-01 -8.18733931e-01 -1.06235340e-01 -1.64649427e-01 -2.49621257e-01 -4.61582303e-01 2.94687241e-01
-1.12583376e-01 1.46889761e-01 -8.29139292e-01 3.82009745e-02 -4.17769969e-01 1.67410105e-01 -7.38701940e-01 -4.81546670e-01 5.48483908e-01 6.97672546e-01 3.29323202e-01 -2.66460359e-01 2.56743550e-01 -1.88760683e-02 -2.92094469e-01 1.80492014e-01 -3.40724975e-01 3.22975934e-01 -4.30218369e-01 -5.12070209e-02 6.63989902e-01 -9.83212143e-02 -3.99474710e-01 -9.27594304e-02 2.76765451e-02 -6.53885528e-02 -3.39496166e-01 -5.59070647e-01 7.53687695e-02 -2.31653422e-01 -8.92228074e-03 1.70841068e-01
-6.64466172e-02 -4.20644805e-02 2.24408563e-02 -7.73537934e-01 -6.06258750e-01 3.07196169e-03 -4.60859686e-01 3.52909207e-01 4.33111966e-01 7.40712643e-01 -5.67521811e-01 -6.89554363e-02 1.84905082e-01 3.39150280e-02 -5.59075326e-02 -6.07924342e-01 -1.04823671e-01 -5.38425684e-01 -1.33653998e-01 4.24583882e-01 -3.72170538e-01 -2.39347801e-01 4.25249636e-01 -1.22491801e+00 -3.62312734e-01 4.56603646e-01 -1.19219077e+00 1.96559094e-02 4.49308723e-01 -3.99262249e-01 1.08427174e-01 1.72976390e-01
2.11694673e-01 -8.96932632e-02 1.20274171e-01 1.30929971e+00 3.62443477e-01 4.17940885e-01 6.94562912e-01 -2.08318278e-01 -1.69122323e-01 -7.26487534e-03 1.24714658e-01 -2.76863873e-02 -5.40825605e-01 1.94698393e-01 6.51807070e-01 6.10363066e-01 -2.99512953e-01 3.82853329e-01 2.95394063e-01 -8.90755832e-01 -7.44221807e-01 -1.15018591e-01 4.00231421e-01 1.38215816e+00 5.01626253e-01 -5.19008100e-01 4.61911231e-01 1.85789585e-01 -6.30803049e-01 -1.97515935e-01 1.32969180e-02 2.94805348e-01
7.12494645e-03 -4.56192523e-01 3.05796623e-01 -4.85680163e-01 1.19745627e-01 -1.87412769e-01 -1.02626085e+00 2.23279193e-01 -1.20891377e-01 -3.86854291e-01 3.96830559e-01 -7.42982566e-01 8.48074675e-01 -7.86718369e-01 3.95977497e-02 -7.08449721e-01 -3.68255198e-01 -7.83992350e-01 -2.17530087e-01 -9.13950130e-02 9.65455294e-01 -5.08033872e-01 3.58796716e-01 -3.74000371e-01 -7.72754312e-01 6.88234985e-01 5.81438318e-02 -6.88847721e-01 -1.99769199e-01 5.86742282e-01 -1.07781351e-01 2.69716568e-02
-4.34269190e-01 2.33419284e-01 3.27978075e-01 1.76208064e-01 -7.13960826e-01 -2.04410270e-01 -6.39713526e-01 3.25624019e-01 5.68301857e-01 -3.00582916e-01 6.89589560e-01 1.33953422e-01 -8.29940513e-02 -3.08962375e-01 -2.80386180e-01 -1.08484638e+00 -3.57384324e-01 -1.18746686e+00 5.76111615e-01 -2.50599027e-01 -4.76727158e-01 -5.15507758e-02 -4.40040261e-01 -2.38330096e-01 1.20209761e-01 9.62172970e-02 1.55251741e-01 9.82534349e-01 -1.01568475e-01 -4.16813970e-01 -1.10606515e+00 2.43153840e-01
-7.10538775e-03 8.81962187e-04 -2.12083653e-01 -3.94284027e-03 -1.60317540e-01 1.82113498e-01 -8.33179653e-02 -4.14001554e-01 -1.50481477e-01 2.12902278e-01 2.87142485e-01 5.68947345e-02 2.84310758e-01 -4.69846539e-02 5.37988916e-03 -2.61654258e-01 1.57450680e-02 1.09998070e-01 -2.64433324e-02 -3.29131901e-01 -3.94717395e-01 1.14712149e-01 9.35057625e-02 1.60877164e-02 1.55110762e-01 2.53521085e-01 -3.56315076e-01 -3.85396153e-01 -1.47530526e-01 7.78222233e-02 -9.13223326e-02 1.41151100e-01
3.23766559e-01 1.45022929e-01 -4.42425877e-01 3.56648117e-01 3.61222029e-01 -6.80813670e-01 1.64711043e-01 4.86987829e-01 4.79505882e-02 -3.24155867e-01 -1.34162515e-01 9.72621858e-01 3.11987638e-01 -5.62179863e-01 -2.19344705e-01 2.49918863e-01 5.47972679e-01 2.31154278e-01 2.33512908e-01 5.18023133e-01 -1.50573313e+00 -9.14430559e-01 1.09115437e-01 3.13853294e-01 1.53628051e-01 7.41934478e-01 6.06179535e-01 5.71416140e-01 -6.19391382e-01 4.92152900e-01 1.98483661e-01 -2.13455185e-01
1.38542857e-02 3.74563396e-01 -5.54996550e-01 -2.28533074e-01 1.27902687e+00 -3.68905753e-01 -7.02459216e-01 -3.51451218e-01 -6.01954639e-01 2.17185080e-01 5.24439454e-01 8.50804597e-02 6.60239577e-01 -3.27230304e-01 4.42243330e-02 1.64065564e+00 4.67940837e-01 1.36391282e+00 -5.59514105e-01 -8.61000270e-02 1.92920566e-01 -2.83484966e-01 1.09424941e-01 2.28878260e-01 3.74459065e-02 3.53743225e-01 7.54639581e-02 -1.36115886e-02 -3.51645388e-02 1.92094624e-01 2.23851824e+00 -2.94012010e-01
-6.07192218e-01 9.10993293e-02 -1.12003401e-01 -5.13156295e-01 4.28887963e-01 1.04560573e-02 -2.04181541e-02 3.65298718e-01 4.01816487e-01 -1.67698324e-01 1.81652568e-02 2.41282359e-01 1.74500093e-01 2.31361106e-01 -3.51813078e-01 -6.01330101e-01 2.89464712e-01 -4.05674994e-01 -4.07827318e-01 -5.70783243e-02 -6.62801266e-01 -2.42100582e-01 9.84046757e-02 -6.04435951e-02 -2.19250277e-01 -1.01959325e-01 -1.64843634e-01 2.55900890e-01 2.55488425e-01 1.72069654e-01 1.59308553e-01 -7.66045041e-03
8.30804929e-02 -3.54404688e-01 -1.35248140e-01 -3.40855926e-01 -3.69489342e-01 -2.52922803e-01 -3.82004380e-01 1.37593240e-01 4.87054348e-01 2.50784725e-01 -5.07487655e-01 -1.36527687e-01 8.35022271e-01 -2.91263163e-01 -1.66250050e-01 -3.04202944e-01 -6.65952981e-01 -7.37700522e-01 -5.53483628e-02 -6.25345632e-02 1.08657408e+00 -2.84711242e-01 -7.53374398e-01 1.91117302e-01 -2.18002796e-02 -7.67651796e-02 -4.12940085e-01 -6.12302244e-01 3.12884748e-01 -3.75192612e-01 -1.06464937e-01 3.00159782e-01
-2.03032643e-01 -6.46667406e-02 1.73794746e+00 -9.46126342e-01 -7.38101006e-01 1.75562203e-01 3.47831547e-02 -2.93304056e-01 -1.95176527e-01 1.94785714e+00 -3.41745317e-02 -8.55379403e-02 3.70175451e-01 3.13200068e+00 4.57785986e-02 -4.16145682e-01 3.51388693e-01 -2.37306952e+00 4.30395246e-01 -2.61830270e-01 2.76038468e-01 6.70611322e-01 -2.70647913e-01 7.67729640e-01 -4.93444093e-02 -4.65271324e-01 2.19416738e-01 -1.45504281e-01 2.51563132e-01 -3.31782773e-02 2.18945637e-01 -3.55855227e-01
-6.64937675e-01 -2.45754465e-01 9.63127553e-01 3.79654109e-01 -6.76413834e-01 6.30116701e-01 1.18872911e-01 -8.81089389e-01 3.41392219e-01 4.31605458e-01 1.55880556e-01 2.00820833e-01 -4.72889930e-01 -1.05327651e-01 5.33062041e-01 -4.11854553e+00 -1.72431022e-01 -6.08383799e+00 5.29308856e-01 -1.01270807e+00 -6.50913119e-01 4.91091460e-01 6.64525211e-01 -9.04523879e-02 -2.00097591e-01 -2.04208732e-01 -3.89167041e-01 6.00363016e-01 -5.70823073e-01 -3.54501665e-01 -1.35744345e+00 -3.21656704e-01
8.00002366e-02 -1.19260244e-01 -6.68523788e-01 -4.21335027e-02 -1.52095273e-01 -8.44138041e-02 2.89641678e-01 3.05195868e-01 4.00711060e-01 -2.33910203e-01 5.52343547e-01 -1.90998659e-01 3.08276296e-01 -7.86857545e-01 -3.88917089e-01 -7.56066293e-02 -2.28635579e-01 2.01768205e-01 -6.26238734e-02 1.14097424e-01 -8.76440927e-02 -1.84645116e-01 -1.27151199e-02 -1.87232882e-01 -1.82272285e-01 7.34606981e-01 1.72325708e-02 9.91790220e-02 -2.10935235e-01 2.77636111e-01 1.72882318e-01 4.13366556e-01
-9.47152913e-01 2.06540629e-01 -7.87012875e-02 3.57660264e-01 -5.34686372e-02 6.69485033e-01 -4.29890215e-01 -1.29934698e-01 4.69488353e-01 -1.99147716e-01 -7.36500561e-01 2.14046657e-01 1.36363730e-01 -2.90427446e-01 -2.73391694e-01 -7.29552686e-01 2.01989636e-01 -7.41449535e-01 -3.60241354e-01 2.96232522e-01 1.40778673e+00 9.16907668e-01 -4.89655361e-02 1.81407511e-01 -3.18753302e-01 8.67661163e-02 -5.73842824e-01 -2.21999586e-02 7.44804084e-01 -2.27041602e-01 -4.76898327e-02 1.05368242e-01
-5.02629161e-01 -4.07353453e-02 8.35278183e-02 8.89931917e-02 -1.77968800e-01 2.42291555e-01 -8.77950132e-01 -5.63655198e-02 3.97340544e-02 5.28484583e+00 5.15443206e-01 4.74321634e-01 2.63005972e-01 2.62871957e+00 -2.32057460e-02 1.50638130e-02 -3.86682928e-01 -9.15386155e-02 3.08789145e-02 -1.57623529e-01 -7.42677033e-01 4.49581593e-01 1.36826962e-01 2.37591431e-01 -4.31397319e-01 -3.86204720e-01 -6.78462803e-01 3.72589201e-01 -1.26595616e-01 -7.05087841e-01 3.16451609e-01 -2.04510987e-01
-1.67910419e-02 1.37225822e-01 -6.52466938e-02 3.22620273e-02 2.80367229e-02 6.34771865e-03 2.35751681e-02 -5.78856058e-02 3.01909614e-02 -1.59595624e-01 6.62917048e-02 4.56437021e-02 4.89663705e-02 1.01851098e-01 1.13653965e-01 4.21263613e-02 3.78388725e-02 2.00446025e-02 -8.96370318e-03 1.22284740e-01 2.73788303e-01 1.15321524e-01 -3.02514546e-02 2.54723020e-02 6.15815669e-02 2.32263152e-02 5.52223958e-02 2.46405467e-01 -8.73772951e-04 -1.47018349e-03 8.36651959e-03 3.07657905e-02
1.41352549e-01 -1.49849281e-01 -5.66818357e-01 5.82385883e-02 8.61644745e-02 -1.81861922e-01 -2.36666769e-01 -3.26124609e-01 2.87167370e-01 -6.52868927e-01 7.56456628e-02 -3.64102237e-02 1.92422882e-01 7.72677884e-02 -4.63672504e-02 1.13819875e-01 -3.29548925e-01 3.96834105e-01 -1.05855316e-01 8.98363769e-01 2.97767103e-01 1.10832162e-01 -4.47738022e-01 -1.13127686e-01 -1.48465931e-01 -4.51041788e-01 8.52822900e-01 -4.74899620e-01 2.17368558e-01 3.22341025e-01 -3.43966931e-02 2.21747428e-01
-2.64729500e-01 -6.08404353e-02 -3.14620852e-01 -2.07160845e-01 4.09674168e-01 1.24349035e-02 1.91360146e-01 1.19006902e-01 4.04478401e-01 -3.99614513e-01 -1.60818785e-01 -9.17337894e-01 4.73597437e-01 -1.64962187e-01 -1.97601035e-01 1.33740351e-01 -1.09050736e-01 2.91706622e-01 1.54075637e-01 -7.24404976e-02 -2.78703254e-02 -1.96856812e-01 4.52342331e-01 -3.11434776e-01 2.12988243e-01 1.91769093e-01 -1.75881192e-01 3.43334973e-01 3.40955108e-02 3.47988874e-01 5.33024192e-01 1.50519103e-01
5.97070716e-02 1.81202546e-01 -3.75118526e-03 6.94990829e-02 -6.92528635e-02 1.03412315e-01 -2.67610047e-02 -7.95014426e-02 4.97284643e-02 6.86136261e-02 6.83810413e-02 1.11833692e-01 -6.68713227e-02 -7.11218193e-02 1.13292612e-01 4.44637448e-01 5.52048497e-02 -3.07763696e-01 4.07544598e-02 -1.01783641e-01 -1.16515040e-01 -1.27516359e-01 2.71356641e-03 -2.63837557e-02 3.56690213e-02 1.26673877e-01 5.65186841e-03 1.55106038e-02 1.07847728e-01 1.43344095e-02 -1.62236392e-02 4.21954319e-02
4.16962922e-01 -1.32594630e-01 7.19121873e-01 5.77160239e-01 -4.38641131e-01 -1.36926517e-01 -6.12654209e-01 -1.31981090e-01 -2.38216504e-01 -6.80563211e-01 -4.77869697e-02 8.86438787e-01 4.49255377e-01 -4.02611762e-01 7.43688345e-01 1.75680563e-01 -1.22691886e-02 -4.72722352e-01 4.74827677e-01 4.38520342e-01 -3.20150584e-01 1.18161432e-01 5.83317757e-01 8.04800391e-02 1.21827610e-01 -4.16092217e-01 1.36853755e-01 2.25999981e-01 -1.33373678e-01 -3.03694941e-02 1.69541985e-01 4.50210214e-01
2.52430528e-01 -1.22612081e-01 4.18655537e-02 1.45073816e-01 7.20241144e-02 1.46627724e-01 9.41717505e-01 7.87189528e-02 4.64846522e-01 2.53232360e-01 3.26057136e-01 3.82071257e-01 -3.91205341e-01 -5.47877789e-01 1.18826456e-01 -9.32201564e-01 -5.02156503e-02 -6.83429420e-01 -8.51829723e-02 -4.29798841e-01 -5.08162260e-01 -1.02974093e-02 2.46278509e-01 -4.13700342e-02 1.33899927e-01 -4.12007421e-01 -7.10541904e-01 4.05342042e-01 -9.23264846e-02 -1.92848042e-01 2.52787650e-01 -1.34625092e-01
5.39897271e-02 -2.60198358e-02 -2.83436537e-01 3.91136020e-01 3.54837328e-02 3.85131329e-01 3.80356401e-01 -2.38986120e-01 -3.48806620e-01 3.51280332e-01 9.05426964e-03 9.62657705e-02 4.54519689e-01 4.95111167e-01 -1.43162191e-01 -5.28628647e-01 5.50066710e-01 -1.63644731e-01 6.85793487e-03 -2.23179966e-01 -3.29115808e-01 4.45932224e-02 -3.37471485e-01 1.63253367e-01 -3.32367241e-01 -8.80322978e-02 -7.13346899e-02 -5.27936637e-01 7.64313191e-02 -1.32041872e-01 -5.89566026e-03 -3.15489203e-01
7.35531390e-01 -7.04501644e-02 -2.56973624e-01 2.15290412e-01 7.15704262e-02 -4.54031110e-01 -1.00772232e-01 2.89538860e-01 3.76618475e-01 -2.66823101e+00 1.66281849e-01 1.06499381e-01 3.33435953e-01 -1.61984825e+00 1.52356490e-01 2.53864765e-01 8.50621238e-02 1.80279985e-01 -2.07598358e-01 -6.21730536e-02 5.31589806e-01 -2.43520707e-01 -2.41284326e-01 -1.42956916e-02 -3.30871016e-01 -2.34605253e-01 -1.14968484e-02 -1.92942619e-01 2.55221337e-01 1.55108422e-01 -4.51894730e-01 -2.14663878e-01
-8.61271799e-01 1.57323733e-01 -1.14240414e-02 1.21393025e-01 7.28494581e-03 -3.41178119e-01 1.08210015e+00 -7.21777081e-02 -1.05861342e+00 7.31885970e-01 -7.23991334e-01 4.18182872e-02 1.67651668e-01 7.30882064e-02 -7.13035703e-01 7.24554181e-01 6.05904102e-01 5.65925658e-01 9.42171216e-02 1.85868889e-02 -2.27820724e-01 3.78603131e-01 5.39550066e-01 9.55784619e-01 -4.60256517e-01 5.19631207e-01 -6.19771540e-01 1.04195133e-01 8.72507691e-01 -4.54229653e-01 9.70979035e-02 4.18839417e-02
-5.42115271e-01 6.15238130e-01 -4.53194790e-02 -1.38174474e-01 5.33491790e-01 1.63249537e-01 1.39045184e-02 5.14752448e-01 -3.04856390e-01 4.93883908e-01 6.99470341e-02 -1.57538727e-01 2.15760067e-01 2.24105567e-01 -5.42225897e-01 -3.54865968e-01 -8.36680606e-02 -1.29415065e-01 3.95638138e-01 -3.08796108e-01 7.89899658e-03 -2.79494405e-01 1.08266389e-02 -6.94327891e-01 1.83897391e-01 -2.03895077e-01 -5.60863137e-01 -5.41263819e-01 1.67503342e-01 -3.63956809e-01 -2.01761708e-01 -3.25844049e-01
-1.38205528e-01 2.38614053e-01 4.67215896e-01 3.61502081e-01 -2.85558373e-01 -2.96590686e-01 -1.41931206e-01 -1.91434100e-02 3.29797715e-01 -4.46880430e-01 -5.83394229e-01 -7.16933310e-02 -2.74667084e-01 -2.76160479e-01 5.47821186e-02 5.52104652e-01 -7.43587092e-02 1.91323608e-01 3.10939997e-01 2.09111646e-01 7.79031664e-02 -7.36889660e-01 1.48724958e-01 8.08219686e-02 2.81212926e-01 1.52612582e-01 1.44405980e-02 -5.69148779e-01 -2.73525298e-01 -1.15188740e-01 8.45880583e-02 -2.43190974e-01
-7.72985399e-01 4.93323863e-01 -5.51240087e-01 -1.02898908e+00 -3.39259475e-01 -2.49290809e-01 -3.64818573e-01 3.63570809e-01 1.27717704e-01 4.64145929e-01 -6.73184916e-02 2.01011643e-01 1.93327948e-01 2.71582931e-01 -3.71965244e-02 8.95479739e-01 7.16684759e-01 1.01487696e+00 -4.90179598e-01 9.92601663e-02 5.06480992e-01 -7.23038018e-01 -6.74205244e-01 3.79055887e-01 -2.14617684e-01 -4.33140486e-01 2.62007535e-01 3.52374196e-01 4.80888247e-01 -8.33324909e-01 2.12120637e-01 -1.93498299e-01
1.51992515e-01 -5.59974611e-01 -1.26408279e-01 -9.09024328e-02 -4.80120063e-01 5.31622171e-01 1.20562762e-01 -4.78889883e-01 5.01100183e-01 9.37057734e-01 -2.00803056e-01 9.56223905e-02 5.23791313e-01 4.48313832e-01 3.83663550e-02 -9.92580473e-01 -4.68401432e-01 -9.51640129e-01 1.20682567e-02 1.95220754e-01 2.51727819e-01 3.02117139e-01 1.73504427e-01 1.82636082e-01 2.70212501e-01 8.45621154e-02 -3.87570739e-01 -2.81952411e-01 -2.79469073e-01 -3.14899743e-01 4.37407911e-01 3.01752627e-01
-2.18165889e-01 -1.15499043e+00 4.98250604e-01 1.42494941e+00 1.83287919e-01 2.57875621e-01 1.68458987e-02 -9.93230864e-02 -3.95815164e-01 3.82120818e-01 9.30447042e-01 -8.41642499e-01 -9.42755401e-01 -2.05406442e-01 3.67483914e-01 2.87098676e-01 -1.39422607e+00 9.73982692e-01 4.53716129e-01 -4.96328026e-01 1.14062071e+00 3.49869967e-01 1.86467469e-01 -4.69176561e-01 3.68803471e-01 -3.38362008e-01 4.55150828e-02 -3.62579376e-01 -7.19769895e-01 1.11334312e+00 -4.65895027e-01 -3.05336058e-01
-6.27967477e-01 -7.89352134e-02 2.98761636e-01 1.04998037e-01 -4.61362377e-02 1.25819653e-01 1.66602835e-01 8.51097330e-02 -3.12545359e-01 -3.32337528e-01 -9.56370711e-01 2.70055532e-01 4.93036032e-01 -1.08448453e-02 7.16685504e-02 -2.61930138e-01 4.47088033e-01 -1.24786958e-01 -1.18936278e-01 -3.01631242e-01 -7.30998278e-01 1.73064232e-01 -9.70638096e-02 -7.58718371e-01 2.02819884e-01 6.25628650e-01 -1.43451869e-01 2.40551047e-02 -3.64952892e-01 -2.52942562e-01 -2.67275602e-01 -2.09788717e-02
-2.52789080e-01 -3.48439306e-01 -1.17674731e-01 -1.67142496e-01 -2.23934680e-01 -8.33832026e-02 2.91158170e-01 2.72043526e-01 -7.46804476e-01 1.43113494e+00 -1.71117857e-01 -7.91848674e-02 -4.86477613e-01 5.03602266e-01 -9.68084633e-02 9.58713070e-02 2.62426492e-02 1.88877851e-01 -2.84046270e-02 -1.69588998e-01 1.78570420e-01 1.73010439e-01 3.19684923e-01 2.31835581e-02 -1.98038425e-02 -4.68960963e-02 -2.03024134e-01 2.39042804e-01 2.42924199e-01 2.96219140e-01 5.25313854e-01 1.80879474e-01
-3.62110920e-02 -3.04207295e-01 -5.54516092e-02 -8.08646306e-02 -2.73520291e-01 4.28515851e-01 -2.43708685e-01 -4.43852335e-01 1.05330765e-01 -4.35844243e-01 4.99493517e-02 4.06933486e-01 1.82612449e-01 3.06423008e-01 2.57857323e-01 -4.94339347e-01 -4.14979309e-01 -1.16725755e+00 -4.15557548e-02 -3.18333030e-01 -1.63645759e-01 8.30965757e-01 3.95126700e-01 6.77094102e-01 -5.27178824e-01 1.18912704e-01 1.50623560e-01 -1.92718208e-01 -4.00310129e-01 -2.43396327e-01 -8.92790779e-02 -2.81950217e-02
2.11642701e-02 -4.18477058e-02 1.40191406e-01 -9.26782265e-02 2.08972722e-01 -9.47532803e-02 1.03658307e-02 -3.30406696e-01 -1.97414726e-01 3.15087646e-01 1.47067279e-01 1.66403234e-01 8.08122754e-02 -2.98783332e-01 -7.51955360e-02 -3.10561150e-01 6.04055263e-02 1.31531313e-01 -1.66398644e-01 -5.57423353e-01 1.24194339e-01 -1.54190302e-01 -8.11859742e-02 -3.17686051e-02 -2.87418365e-02 2.12683350e-01 -6.47349283e-02 5.66551313e-02 1.21688046e-01 6.71933144e-02 -2.10952479e-02 6.72142860e-03
1.74094081e-01 -6.43549860e-01 -3.05941910e-01 7.63030410e-01 -9.48325731e-03 -5.06215096e-01 2.49560460e-01 -1.68102980e-01 -4.45372522e-01 2.78010654e+00 -5.62723041e-01 9.67384696e-01 6.49324954e-01 8.00327718e-01 8.60225022e-01 4.37997043e-01 1.19092027e-02 4.49972183e-01 6.21549964e-01 3.74856979e-01 1.91838145e-01 1.40894562e-01 -1.44660920e-01 1.05959070e+00 -9.34680700e-02 1.34283602e-01 -3.03765357e-01 3.26565146e-01 2.24361867e-02 3.86131145e-02 7.04070389e-01 6.84791580e-02
-1.06889896e-01 1.74394220e-01 1.22706257e-01 7.55679980e-02 4.93981577e-02 -4.67999317e-02 9.74768214e-03 1.09698832e-01 1.89367402e-02 -1.07516702e-02 1.71156660e-01 7.99406022e-02 8.88620540e-02 -2.36828742e-03 1.58691540e-01 1.99857086e-01 3.34645584e-02 -1.27288997e-01 -1.55908726e-02 9.79466960e-02 -1.49656355e-01 -5.93799092e-02 -4.64251488e-02 -1.48931509e-02 -4.57090735e-01 -2.25211069e-01 4.90705259e-02 -1.54154733e-01 -7.03394711e-02 -5.32040596e-02 2.54030190e-02 -4.53115165e-01
-1.96593185e-03 -8.10489357e-02 -5.33576012e-02 2.42177267e-02 -2.14364648e-01 2.53120065e-02 -2.35111136e-02 1.66921407e-01 6.55621514e-02 -4.48416919e-02 -1.08710080e-02 -1.97669212e-02 -6.46259263e-02 2.84748338e-02 -6.00873008e-02 2.19424099e-01 -1.12771079e-01 -1.28232196e-01 1.08520659e-02 3.32827270e-01 -2.39419192e-01 -1.04381926e-01 -2.66736164e-03 5.06148394e-03 1.22711621e-02 -9.06104892e-02 -6.41139373e-02 -7.71340504e-02 -5.60791939e-02 5.27124591e-02 1.94802396e-02 -3.05976020e-03
8.03180754e-01 -2.66714633e-01 3.62656236e-01 3.22641045e-01 -4.48015571e-01 2.54327469e-02 -4.27180886e-01 3.91917937e-02 6.00477278e-01 1.01870745e-01 -2.05488071e-01 6.60507530e-02 7.51990527e-02 2.34896064e-01 7.35798478e-01 -6.44547701e-01 -4.45268840e-01 -8.05563509e-01 4.25141424e-01 -2.57649064e-01 -7.95797467e-01 2.69927800e-01 -1.26115173e-01 1.96452096e-01 6.61215007e-01 -1.47058023e-02 2.06557393e-01 -1.46926278e-02 -5.28057337e-01 2.09156573e-01 9.20672938e-02 2.56128430e-01
1.09120570e-01 -4.08374786e-01 -2.83311158e-01 3.90176952e-01 2.18759611e-01 -5.75936496e-01 1.63259923e-01 3.28009017e-02 2.12284222e-01 -2.20828667e-01 -2.56528080e-01 4.71138120e-01 3.72867107e-01 -2.65962481e-01 2.50466287e-01 -5.74459553e-01 -3.18079203e-01 -7.45658994e-01 3.64823014e-01 -3.91718388e-01 -2.60549873e-01 -4.80540358e-02 3.67921293e-01 6.45381868e-01 -1.78734362e-01 -3.02138567e-01 4.22040194e-01 -2.30448656e-02 -7.02170432e-02 -4.38242227e-01 1.35647178e-01 2.86023706e-01
-1.78873345e-01 -2.09111705e-01 8.83258283e-01 9.33587030e-02 -1.24443102e+00 -1.09302178e-01 2.35316604e-01 -9.22155306e-02 5.97093105e-01 8.41780365e-01 -1.39324665e-01 -4.04383957e-01 2.64284778e-02 8.16931605e-01 2.11905345e-01 -2.54001427e+00 -4.25811201e-01 -2.80029893e+00 1.26502424e-01 -4.42554764e-02 -5.50287843e-01 7.45584548e-01 4.02226508e-01 1.47272334e-01 3.66131306e-01 1.40851185e-01 3.16089690e-01 -1.06405756e-02 -9.80776772e-02 -7.71377087e-01 -3.03911358e-01 1.73093937e-02
-1.67166144e-01 -2.53004909e-01 -2.73159087e-01 -2.75840878e-01 -2.41781130e-01 5.43213308e-01 1.88541099e-01 -1.05486900e-01 -1.35784045e-01 3.62652153e-01 -1.92154750e-01 1.69482872e-01 5.37403040e-02 -2.50959009e-01 -1.30600110e-01 -4.35957462e-01 2.92745858e-01 -5.88852644e-01 -2.92055607e-01 2.41681468e-02 -3.55290234e-01 3.70626032e-01 -1.48084164e-01 3.65141183e-01 3.58505964e-01 -5.18068790e-01 4.87943113e-01 8.13331679e-02 6.59515411e-02 1.37075752e-01 -6.59744889e-02 3.76113430e-02
3.85734707e-01 6.23577416e-01 6.61487460e-01 -3.77531588e-01 2.03227237e-01 2.33962923e-01 8.87883380e-02 -1.14470601e-01 -7.81430364e-01 9.89289403e-01 -2.54552484e-01 -2.80999303e-01 -4.60834682e-01 1.13570881e+00 2.27658540e-01 8.26342776e-02 -1.93864889e-02 -9.14145350e-01 2.52547354e-01 -3.16688836e-01 1.43286958e-01 6.74895287e-01 -4.83443700e-02 -3.86571139e-01 7.44827509e-01 -7.81038523e-01 5.12192726e-01 -1.67136773e-01 -2.68156230e-01 -5.73028922e-01 -9.83361080e-02 -5.59631288e-01
-2.79640639e-03 -2.31195390e-01 1.81308657e-01 -1.77606359e-01 -1.71596408e-01 8.81242529e-02 -3.76997255e-02 -2.86744446e-01 -3.73734027e-01 -3.99770558e-01 -9.93643850e-02 -1.76589265e-02 -9.72536430e-02 2.11322859e-01 4.17324394e-01 2.91381896e-01 4.07717377e-01 -3.70762914e-01 4.86834161e-02 2.27022588e-01 -2.26646170e-01 3.02675664e-01 -3.91419888e-01 1.08713426e-01 -6.92990376e-03 -2.56449223e-01 4.03458267e-01 6.59993947e-01 -3.95714909e-01 -4.61180151e-01 2.24808231e-01 2.99696714e-01
-1.21019363e+00 1.55185789e-01 1.16287954e-01 -1.27066851e+00 -1.80815965e-01 -1.26810938e-01 1.91934213e-01 4.91324008e-01 1.65267393e-01 3.37665409e-01 -9.42713618e-01 6.88022196e-01 1.04453909e+00 4.03554589e-01 -7.17339277e-01 1.52935952e-01 5.76257706e-01 -5.38287997e-01 -2.47003749e-01 9.83600855e-01 -6.15482271e-01 -3.40405434e-01 -3.95942926e-01 5.85010694e-03 5.41203737e-01 9.48008239e-01 8.96402001e-01 7.00747490e-01 4.64311957e-01 -9.96053934e-01 1.24061659e-01 2.64214814e-01
-1.01974919e-01 9.66181904e-02 3.10002476e-01 -4.91517261e-02 3.21019471e-01 -1.00255609e-01 -2.47898102e-02 3.42044458e-02 -5.13245948e-02 1.84289351e-01 2.44967546e-02 1.60261635e-02 -9.26055480e-03 -1.16258293e-01 7.54291490e-02 -1.49077863e-01 8.10595155e-02 5.90974651e-02 7.47283548e-03 -4.34411615e-01 1.32996902e-01 -1.00426719e-01 2.86832787e-02 6.57517230e-03 1.39593005e-01 -1.48196304e-02 7.12954700e-02 1.59294099e-01 4.49092574e-02 -9.03047323e-02 -1.84854772e-02 5.76634705e-02
-7.12109506e-02 2.22857744e-01 3.07309389e-01 -7.20941126e-02 1.41363695e-01 6.50347322e-02 6.09405339e-01 2.49285907e-01 1.76880047e-01 -1.23971653e+00 -2.97875196e-01 4.84399319e-01 6.09645784e-01 -3.17046165e-01 -4.27295148e-01 -1.49259612e-01 4.28850383e-01 -4.34415370e-01 2.51707900e-02 -6.42773986e-01 1.11673892e+00 -3.20592880e-01 -8.43479391e-03 -1.34281588e+00 5.25224566e-01 4.74516004e-01 -9.49206829e-01 -1.14445257e+00 2.64221698e-01 -6.31513596e-02 -1.14173420e-01 -4.42266256e-01
5.34660041e-01 -3.36729109e-01 -3.29415321e-01 4.59553987e-01 1.95383746e-02 -4.18342836e-03 1.74887329e-02 -1.33565694e-01 4.00300056e-01 -1.59467552e-02 -9.87282097e-02 -6.81226477e-02 7.42183328e-01 -2.92570144e-01 3.80657166e-01 -2.58024991e-01 -5.08762859e-02 -3.85418296e-01 1.04594864e-01 -9.69997793e-02 -3.16633254e-01 9.75376815e-02 1.97840095e-01 1.82500914e-01 -8.36768448e-02 -2.26708263e-01 8.13200831e-01 4.90336955e-01 -3.56490701e-01 3.56553316e-01 2.58444369e-01 3.48841816e-01
-2.05512792e-01 2.97068954e-01 -1.60879076e-01 -6.60231337e-02 -5.29854238e-01 -2.25541547e-01 9.08107385e-02 4.54364449e-01 -2.80223172e-02 -5.19020617e-01 -1.90380096e-01 1.35723623e-02 -3.25706005e-01 2.23316640e-01 2.57650793e-01 -1.20030530e-01 -1.45655155e-01 2.80384690e-01 3.93575840e-02 3.80727500e-01 -2.06125483e-01 -5.58260307e-02 -7.18621239e-02 -1.61491446e-02 -9.73672792e-02 -8.47483501e-02 2.53512889e-01 -3.39871228e-01 9.97398272e-02 -9.23143141e-03 2.24045590e-02 1.58066615e-01
7.18755350e-02 -5.06786168e-01 -1.12596132e-01 -1.09697610e-01 -6.28134236e-02 -1.80613190e-01 -1.19866673e-02 -1.63928166e-01 -4.07890260e-01 4.43519533e-01 -1.86585039e-02 9.29327086e-02 3.59021395e-01 3.11656773e-01 -1.86782286e-01 -5.82113087e-01 -1.95947111e-01 -1.12731241e-01 -7.72664603e-03 6.32703379e-02 3.54761146e-02 -4.46559563e-02 5.37752986e-01 6.33016005e-02 -4.05734301e-01 2.33862206e-01 3.36325943e-01 1.37849197e-01 -6.98820576e-02 1.19090848e-01 -6.22411445e-02 -1.88696012e-01
1.02813137e+00 8.47656559e-03 -6.54919803e-01 2.50708878e-01 2.53184587e-01 9.30030122e-02 4.82365280e-01 1.22937813e-01 -3.03147554e-01 -9.32987928e-01 -8.20868373e-01 1.32732153e+00 3.56907770e-02 -9.20672894e-01 2.95616031e-01 7.08251119e-01 3.82506736e-02 5.51045895e-01 -1.29585266e-01 6.93109557e-02 -1.67784238e+00 -4.30393785e-01 -8.08596551e-01 -1.75982893e-01 -4.84075665e-01 -4.87867408e-02 3.02678525e-01 6.93660617e-01 -1.07530937e-01 1.13146342e-01 -8.59570280e-02 5.34906924e-01
-1.78525403e-01 4.54153977e-02 -8.86263371e-01 -1.04819156e-01 1.68794483e-01 3.91298324e-01 1.46295831e-01 5.15273884e-02 -3.06169186e-02 5.78556240e-01 -4.46965128e-01 -1.14467227e+00 4.10275340e-01 3.77215505e-01 -3.07923764e-01 5.50207019e-01 -6.80261031e-02 1.25774741e+00 -4.38368410e-01 1.28267422e-01 2.98439175e-01 -7.85936415e-02 -2.37426646e-02 6.63989663e-01 -2.78613985e-01 7.99228489e-01 -1.29575238e-01 -2.46242777e-01 1.15203947e-01 8.52800086e-02 8.20436358e-01 -6.60996139e-02
1.05966367e-01 2.99406201e-01 -1.90403149e-01 -6.99090540e-01 1.05710804e-01 6.11620426e-01 2.26650342e-01 8.23692501e-01 2.73568213e-01 1.46983609e-01 8.65556121e-01 -1.30213946e-01 1.61072105e-01 1.71793163e-01 8.29339325e-02 -2.38867715e-01 2.36758098e-01 1.74812645e-01 -3.28432024e-01 -4.10144538e-01 -1.10632643e-01 -2.43192926e-01 1.83426097e-01 8.34133849e-02 -6.43233135e-02 2.63330489e-01 -4.38224226e-02 -9.18744579e-02 -4.93363291e-01 1.71533599e-01 -3.17066312e-01 -6.09227531e-02
7.80965015e-02 3.12797613e-02 -1.47918850e-01 2.55278964e-02 -5.00359312e-02 4.68973666e-02 7.50686452e-02 7.45913088e-02 -4.77404632e-02 -5.77881634e-02 -5.18708043e-02 -3.76004100e-01 2.29464382e-01 2.25842342e-01 1.70568824e-02 5.94398677e-02 1.14515357e-01 -5.38466386e-02 1.01645999e-01 2.44717941e-01 1.06742643e-01 2.71971911e-01 1.22194486e-02 1.68130010e-01 -8.18758532e-02 -3.00420374e-01 -1.61960348e-01 -1.63808644e-01 -2.98818439e-01 -1.27548322e-01 1.35469306e-02 -2.90656924e-01
4.36350435e-01 1.06916159e-01 5.35130680e-01 4.11417931e-01 3.69149953e-01 3.95260930e-01 8.78995955e-01 -3.76969784e-01 7.93650627e-01 -9.89768058e-02 -5.88607132e-01 1.29637286e-01 -5.38083851e-01 -4.75681186e-01 -7.22718984e-02 2.66781539e-01 -5.00651658e-01 -4.40037370e-01 2.95454502e-01 1.10309850e-02 -9.02544558e-02 5.61534524e-01 1.98309720e-01 6.33043945e-01 5.04697748e-02 -1.48205221e-01 -2.16556355e-01 1.43811882e-01 1.68736845e-01 4.33397055e-01 -1.62284017e-01 -6.80399360e-03
-2.82068253e-01 -4.26452398e-01 1.43289864e+00 1.21780664e-01 -8.38163972e-01 -1.77659035e-01 -1.22879303e+00 -9.74572957e-01 3.32439333e-01 1.03354585e+00 2.85471585e-02 -5.10771394e-01 -3.19101334e-01 9.43232775e-01 5.46102166e-01 -2.09674573e+00 2.69797504e-01 -2.79132295e+00 1.75710940e+00 8.36772501e-01 -5.74887991e-01 1.66534555e+00 -4.22316670e-01 3.03179711e-01 3.45602125e-01 -7.11070299e-01 -2.18621165e-01 3.61190796e-01 1.83641642e-01 6.42077774e-02 8.61237466e-01 1.54337019e-01
1.84095651e-02 -2.49656476e-02 5.93349598e-02 4.34534363e-02 4.12162900e-01 -8.10850784e-03 4.82880481e-04 1.70874894e-02 6.24829493e-02 9.58504062e-03 -1.46151250e-02 -6.73075542e-02 1.01319313e-01 5.16868662e-04 -3.25321453e-03 -4.03401293e-02 6.64863130e-03 -3.55980694e-02 -6.82705045e-02 9.01642367e-02 1.47950187e-01 4.57646959e-02 -3.71167809e-02 -1.08755743e-02 -1.27163664e-01 -1.44428581e-01 1.77827757e-02 3.34191263e-01 -4.79907878e-02 -5.58048226e-02 2.38254052e-02 -2.41905391e-01
-3.91779393e-01 2.02312425e-01 -1.56001687e-01 -6.93994090e-02 -1.06497064e-01 -5.83089283e-03 -3.38073671e-01 7.02708840e-01 -1.94142782e-03 -1.25242054e-01 -1.57638386e-01 6.24273360e-01 4.98829812e-01 -7.63418376e-02 1.83148816e-01 2.54650593e-01 3.58604230e-02 2.24246293e-01 -1.71549365e-01 9.35098529e-02 -2.76040882e-02 -6.26777530e-01 -1.49594158e-01 -3.44192803e-01 -2.45288685e-01 -1.68640837e-01 -6.07748985e-01 2.54039347e-01 -2.55748063e-01 -2.42256403e-01 -1.64833874e-01 4.53112364e-01
3.47176902e-02 -1.37767255e-01 5.36922932e-01 2.89446235e-01 -5.93507349e-01 2.18951419e-01 3.58295470e-01 -6.04912043e-01 5.09111643e-01 3.24896902e-01 -7.47864768e-02 3.90888542e-01 -1.19221866e-01 1.23446561e-01 1.20998755e-01 -2.09603715e+00 1.63832098e-01 -1.03089058e+00 6.50852770e-02 1.70503944e-01 -1.05430387e-01 1.59029737e-01 2.28725955e-01 2.30884492e-01 -2.59797722e-01 -5.64722538e-01 -4.50348035e-02 -1.60483792e-01 -4.47516441e-01 -4.62518007e-01 5.24637520e-01 -2.76751757e-01
-9.32424515e-02 1.25037536e-01 -2.38057271e-01 1.84705228e-01 -9.65747163e-02 -1.39638677e-01 3.00050884e-01 -2.43126154e-01 -4.25457060e-01 1.51645064e+00 -3.45303446e-01 -7.00728297e-02 -3.09619218e-01 1.40658307e+00 -3.50135863e-01 -7.08478838e-02 5.74273653e-02 -4.99481633e-02 -4.40788232e-02 -3.08253527e-01 -6.65958226e-02 1.42585069e-01 -1.45307779e-01 -1.23614006e-01 -2.05177367e-01 2.76410654e-02 4.66271996e-01 5.47312617e-01 1.28099263e-01 -4.39009488e-01 2.25357205e-01 -3.42828855e-02
-1.64277554e-01 -2.51805037e-01 6.67669654e-01 4.80606139e-01 -1.59303948e-01 -3.30638647e-01 -1.05831265e+00 1.49536058e-01 1.94820851e-01 4.70220894e-01 8.54944140e-02 -5.53498194e-02 1.14785604e-01 2.29839787e-01 -1.91230923e-01 6.42193437e-01 -2.98985541e-02 1.44685656e-01 -1.80400521e-01 -3.50265801e-01 9.09528077e-01 4.30259973e-01 4.08443093e-01 -5.57898641e-01 5.12439981e-02 3.28060202e-02 -2.03228101e-01 2.55991250e-01 -1.23771124e-01 3.34603846e-01 -1.35520548e-01 -3.34091127e-01
8.28113973e-01 -3.72262716e-01 6.17200911e-01 9.75682139e-01 -5.05109072e-01 3.41397822e-01 -9.91648018e-01 -5.82997024e-01 8.91539514e-01 -8.74623239e-01 -2.13993847e-01 5.64508200e-01 -1.23646402e+00 -3.37516665e-01 6.77311242e-01 -6.81524217e-01 -8.26750100e-02 -2.51540393e-01 5.82930446e-01 7.42976665e-01 4.67711866e-01 -3.85307580e-01 -1.97829854e+00 -5.00907362e-01 5.78021407e-01 5.51611364e-01 -8.15124393e-01 -5.02386153e-01 -4.26630713e-02 1.25812840e+00 -9.85280395e-01 -1.11077286e-01
-2.17241440e-02 1.67982087e-01 -4.85717058e-02 -5.03819585e-02 -1.53090671e-01 -2.92775463e-02 2.82614622e-02 -4.37133238e-02 -3.83640490e-02 1.78316943e-04 4.64714393e-02 9.16184336e-02 8.65835249e-02 -2.61281058e-02 1.51726365e-01 -1.43328935e-01 9.22908187e-02 1.79275423e-01 -1.57054737e-02 -2.69802749e-01 1.50172859e-01 3.14263999e-02 -2.73887888e-02 -3.20386700e-02 -3.07953954e-01 -3.72639857e-02 1.92714334e-02 -9.25322548e-02 -2.22693309e-02 -8.63999408e-03 -1.32649317e-02 -2.10646704e-01
1.22790664e-01 2.11276352e-01 1.67996311e+00 3.93387944e-01 -1.27548587e+00 1.54155254e-01 -2.25312695e-01 -5.38748741e-01 8.23111653e-01 5.51965714e-01 1.39015242e-01 -2.86187261e-01 -8.46281230e-01 1.06810629e+00 9.48901400e-02 -3.34675384e+00 -3.67616266e-01 -4.60694647e+00 3.75218749e-01 7.64655024e-02 -1.20847285e+00 1.00646830e+00 3.49740088e-01 1.88890830e-01 2.66096413e-01 -1.17370874e-01 -5.76031983e-01 6.57401383e-01 -1.52855933e-01 -5.82788624e-02 -1.02046840e-01 -7.46399686e-02
-7.98864663e-01 1.91314563e-01 1.15492068e-01 -7.36248076e-01 5.45508275e-03 -1.73178524e-01 -1.93483666e-01 4.98173475e-01 -7.43499622e-02 -1.11790430e-02 1.18842475e-01 -2.97717035e-01 4.32664126e-01 4.29550201e-01 -4.07478422e-01 -2.42265239e-01 2.17681155e-01 -1.44477814e-01 -3.51803035e-01 1.61488995e-01 4.13229130e-02 6.93466425e-01 2.02914596e-01 -2.41087332e-01 -1.83089346e-01 3.12227815e-01 -7.04301417e-01 1.75256133e-01 7.30434358e-02 -5.57695270e-01 -1.25040680e-01 -6.98855162e-01

layers.2.bias:
-1.38101459e+00
-8.41709137e-01
6.84890509e-01
-6.10335588e-01
7.98265636e-02
-4.50657338e-01
2.30532438e-01
2.22577095e+00
5.15720725e-01
8.44479024e-01
-9.68701601e-01
-1.35531831e+00
-4.11441684e-01
9.77927804e-01
-3.51074547e-01
-6.65910482e-01
-6.52406067e-02
-8.04601908e-01
3.48138154e-01
-8.46138969e-02
-3.35458368e-01
7.99496353e-01
8.16198707e-01
-1.89316511e-01
-3.78228933e-01
1.04810464e+00
-9.94559884e-01
-1.05073774e+00
5.13725638e-01
-1.30448186e+00
1.97416425e-01
-1.74861383e-02
8.51168633e-01
1.11350082e-01
-2.81748533e-01
-1.47318142e-02
-1.36443794e-01
1.41143727e+00
1.05507529e+00
-3.21900904e-01
1.00071347e+00
-2.84032911e-01
-5.05929649e-01
1.42219961e+00
2.51251698e-01
-1.06481957e+00
1.04516375e+00
-3.45533967e-01
8.49837601e-01
1.79129088e+00
1.47545129e-01
4.42232698e-01
1.11996286e-01
-6.12035215e-01
2.24675834e-01
-1.94482878e-02
8.14748824e-01
-5.49045056e-02
2.56824698e-02
-6.76061869e-01
4.81256694e-01
6.61880299e-02
-2.86809564e-01
7.39178777e-01

layers.4.weight:
3.31446856e-01 3.50381173e-02 -4.60213237e-02 3.64825479e-03 1.13286665e-02 6.26989603e-02 2.71603058e-05 -7.46577442e-01 -7.61800259e-02 -3.88812333e-01 6.18951656e-02 9.40084636e-01 -1.93670213e+00 -1.42827347e-01 1.14049744e-02 -1.45902014e+00 -1.06753585e-04 6.60392419e-02 -2.38872995e-03 2.36714157e-04 3.81410027e-05 -7.45223686e-02 -6.11073617e-03 2.48308927e-01 -2.66597029e-02 -3.90961841e-02 1.81888565e-02 7.51072109e-01 -3.70393217e-01 3.88603836e-01 -1.21788597e-02 -1.20725647e-01 -1.52039975e-02 1.84704433e-04 5.45223206e-02 1.90399558e-04 -5.24796596e-05 -1.48008212e-01 -1.91709325e-02 2.25634456e-01 -1.39387324e-02 2.99371421e-01 -2.39776535e-04 -1.23377994e-01 1.49567204e-04 1.31291330e-01 -1.24326721e-02 -9.37305667e-05 -7.43509755e-02 -7.01948643e-01 -6.18108325e-02 1.62271084e-04 -9.37622157e-04 -1.62013166e-04 -1.05253804e+00 -4.92757817e-06 -6.27039408e-05 -2.74359584e-01 -7.80713931e-02 4.78839055e-02 -1.36586288e-02 3.03351000e-04 7.96905041e-01 -1.73737146e-02

layers.4.bias:
-1.12737012e+00

