layers.0.weight:
3.31696361e-01 -5.67613244e-01 7.97264636e-01
5.69172144e-01 -8.09445798e-01 -5.80563486e-01
-8.31293464e-02 -6.13938749e-01 -5.77727258e-01
-1.07055378e+00 1.15616508e-01 4.58123112e+00
2.67282110e-02 4.11940843e-01 1.16166264e-01
-5.79876065e-01 8.58121514e-01 -1.84879377e-01
-1.31842160e+00 4.86020595e-01 -9.88645032e-02
-6.01682402e-02 7.88846374e-01 -9.23566997e-01
6.03414774e-01 -9.26082134e-01 5.12713566e-02
-1.11527514e+00 5.86289167e-02 -1.64189592e-01
7.53551662e-01 -9.85680073e-02 1.41279221e+00
-7.16238439e-01 -1.31785080e-01 -1.29353356e+00
-4.30584475e-02 7.12955832e-01 -1.57757306e+00
-1.16726887e+00 2.10410804e-02 5.00053525e-01
-6.46977663e-01 1.09646142e+00 7.52028525e-01
-1.81771189e-01 9.48456824e-01 1.64468549e-02
5.46070874e-01 -6.33792400e-01 -1.45019031e+00
-1.15504665e-02 1.12846863e+00 1.84981868e-01
8.07071701e-02 -9.54183042e-01 5.35116851e-01
3.41117471e-01 -1.28724232e-01 -8.64976227e-01
2.23475501e-01 1.65966094e-01 -5.10879010e-02
-3.24195027e-01 -2.56797969e-01 -1.00232065e+00
-4.64660525e-01 1.65601885e+00 -4.46076952e-02
-1.56447518e+00 4.06930357e-01 1.75152493e+00
1.05132234e+00 3.79940838e-01 -7.78481364e-01
2.59609371e-01 6.71772659e-01 -1.17486012e+00
-1.16151750e-01 -2.13369340e-01 1.90187418e+00
-3.97779703e-01 -2.44972542e-01 1.92939892e-01
3.22416067e-01 7.57217348e-01 -1.46468067e+00
-1.04933763e-02 4.65525806e-01 1.70563948e+00
-2.89658904e+00 2.84448242e+00 -1.78299040e-01
-1.26738083e+00 -5.19488692e-01 1.02004325e+00

layers.0.bias:
8.77201200e-01
4.81547834e-03
-1.42384720e+00
-6.34384930e-01
7.07518518e-01
-2.04255387e-01
-3.54310095e-01
2.86240637e-01
-7.45998621e-01
-1.59115899e+00
1.64644122e-01
1.80825554e-02
2.46107668e-01
-1.21306002e+00
-2.90836543e-01
1.43946290e+00
9.34610724e-01
1.82654703e+00
-6.68276668e-01
5.78918040e-01
-1.44309163e-01
-1.35729384e+00
1.02535832e+00
-7.05530941e-02
1.36946186e-01
5.60703695e-01
8.80503118e-01
-1.57881156e-01
-4.88352716e-01
7.31267482e-02
8.91685039e-02
-6.70209900e-02

layers.2.weight:
-3.76083761e-01 2.17122063e-01 9.10377875e-02 -5.04027903e-01 -4.51762602e-02 1.90708172e-02 1.01759948e-01 -5.12576662e-02 -1.40871897e-01 2.79447699e+00 6.86402842e-02 7.67183453e-02 -2.04514146e-01 2.38963985e+00 -1.68740436e-01 4.50510263e-01 -6.18885159e-02 6.48964226e-01 1.20661743e-01 -2.54765749e-01 2.59199589e-01 -6.08963631e-02 -5.15092432e-01 5.89778185e-01 -1.10402122e-01 6.28894389e-01 -8.08618546e-01 -1.55438751e-01 -2.12930024e-01 -2.34642491e-01 -1.56820908e-01 2.72612751e-01
-4.25025336e-02 1.74166605e-01 -8.85795593e-01 9.28479806e-02 -3.99512500e-01 9.96395648e-02 -7.55777299e-01 -5.41079283e-01 6.23523295e-01 6.46280587e-01 3.81014913e-01 -3.01190823e-01 2.01312497e-01 -1.49384970e-02 -3.64285707e-01 1.42163262e-01 -3.62580299e-01 3.09923738e-01 -3.65774214e-01 -9.54149291e-02 5.81017435e-01 -1.61689416e-01 -4.80815917e-01 -1.40208397e-02 -3.92934345e-02 -1.20667122e-01 -2.83976227e-01 -4.79493856e-01 1.45048285e-02 -1.80987388e-01 -7.63669163e-02 2.29415849e-01
3.79263842e-03 -8.01277161e-02 2.44496658e-01 -6.74324870e-01 -7.70898998e-01 -2.29904540e-02 -4.34813321e-01 2.42731109e-01 6.64929092e-01 9.17266965e-01 -4.68534797e-01 -1.73224136e-01 8.39324519e-02 2.79365599e-01 -5.15951868e-03 -1.04783964e+00 -3.88619453e-01 -9.40995932e-01 1.32547794e-02 6.85858168e-03 -2.20487878e-01 -1.79814756e-01 2.34758139e-01 -1.17429364e+00 -6.62606716e-01 3.44359666e-01 -1.09721303e+00 3.09966773e-01 3.48046541e-01 -2.84455806e-01 1.77947745e-01 4.98789817e-01
1.94348842e-01 -1.46211535e-01 1.04573041e-01 1.29280400e+00 5.34231782e-01 4.38105911e-01 7.12498009e-01 -1.84964731e-01 -2.13013664e-01 4.58195014e-03 1.07700624e-01 -1.04686068e-02 -5.22653341e-01 2.03762323e-01 6.85536742e-01 1.09887469e+00 -3.75178754e-01 7.35369503e-01 2.52000004e-01 -1.00217187e+00 -6.31191730e-01 -1.07037403e-01 4.33120728e-01 1.48837757e+00 -1.22519590e-01 -4.86236423e-01 4.45133150e-01 1.43757209e-01 -6.13064289e-01 -2.03835145e-01 3.00528500e-02 1.05831347e-01
7.17460662e-02 -3.63235444e-01 2.59164363e-01 -4.52498674e-01 1.24256082e-01 -2.65947014e-01 -1.41390800e+00 1.94848612e-01 4.86120395e-02 -5.75113952e-01 4.34369951e-01 -7.77885675e-01 8.13185513e-01 -8.88766944e-01 -2.91959699e-02 -7.79933333e-01 -3.18305731e-01 -7.94890225e-01 -2.08520845e-01 -9.83168855e-02 9.36959982e-01 -5.62743425e-01 3.35270464e-01 -3.43311369e-01 -6.69409037e-01 6.62861466e-01 8.91931057e-02 -7.08673179e-01 -1.67964861e-01 6.14298940e-01 -1.68898895e-01 -1.02464005e-01
-3.08704525e-01 1.95928171e-01 3.82919222e-01 1.37499988e-01 -1.00067365e+00 -2.84383476e-01 -6.73566833e-02 2.98322558e-01 4.29247737e-01 1.64906785e-01 5.86565614e-01 4.13687229e-01 -5.29047288e-02 6.54692650e-02 -2.70337820e-01 -1.31534350e+00 -3.73313576e-01 -1.43544292e+00 7.27256715e-01 -2.58522630e-01 -6.01475358e-01 -5.40338308e-02 -7.63742328e-01 -3.03889304e-01 1.38889894e-01 1.11834094e-01 1.21522561e-01 1.08829248e+00 -1.38325751e-01 -4.66591835e-01 -2.40375400e-01 2.60264516e-01
4.90929782e-02 -1.70234311e-02 -2.33213633e-01 -8.89189448e-03 -1.07646741e-01 1.75195232e-01 -6.32769167e-02 -4.26432997e-01 -9.60431695e-02 2.57611215e-01 2.86769539e-01 8.20936784e-02 2.87027746e-01 -2.89474730e-04 1.56803951e-02 -3.10516655e-01 2.30261739e-02 8.55671242e-02 -1.11962128e-02 -3.06927800e-01 -3.78109694e-01 7.81321451e-02 5.06980717e-02 2.51946971e-02 1.78869128e-01 2.61883378e-01 -3.59904349e-01 -4.51755792e-01 -1.63015217e-01 7.26043284e-02 -1.13443490e-02 1.26620814e-01
2.40764976e-01 1.23020805e-01 -3.67685497e-01 3.58887285e-01 2.06624761e-01 -6.78029716e-01 1.42748505e-01 4.98726457e-01 6.41981363e-02 -3.25023323e-01 -1.16840132e-01 9.44262564e-01 3.13611925e-01 -5.38873196e-01 -1.91054583e-01 1.61892310e-01 5.17611563e-01 1.44456297e-01 2.84363627e-01 4.93685842e-01 -1.43707132e+00 -8.88858318e-01 1.08565696e-01 2.77745515e-01 2.19211802e-01 7.48841822e-01 6.03519201e-01 5.06533206e-01 -5.21757126e-01 4.96282041e-01 1.63023949e-01 -2.75346607e-01
6.95507005e-02 2.93131977e-01 -6.56734884e-01 -2.47177720e-01 1.55718124e+00 -4.45523560e-01 -6.11435354e-01 -3.10954750e-01 -7.34397292e-01 6.77159205e-02 5.02192974e-01 1.69647977e-01 6.83250427e-01 -2.48938739e-01 3.69931683e-02 2.24720907e+00 3.36025894e-01 1.76549280e+00 -6.34259105e-01 -1.16060384e-01 1.43755421e-01 -3.24349821e-01 6.68871701e-02 2.20850617e-01 9.85576957e-02 3.94337922e-01 5.73798977e-02 -1.22100925e-02 2.22955756e-02 1.70543343e-01 2.09925818e+00 -3.48034859e-01
-6.58274949e-01 8.44784230e-02 -7.16066957e-02 -5.62902927e-01 4.39422399e-01 5.23533411e-02 -8.34937841e-02 4.14796978e-01 3.96467239e-01 -1.37590632e-01 -2.65697949e-02 2.74461716e-01 2.24622399e-01 2.05885813e-01 -3.29742223e-01 -4.80240613e-01 2.75544703e-01 -3.32692593e-01 -4.56068397e-01 3.27420566e-04 -5.87528169e-01 -1.91783428e-01 1.41202658e-01 -1.47643238e-01 -1.46429375e-01 -5.11495136e-02 -2.14420915e-01 1.64697334e-01 3.05231243e-01 1.27170190e-01 1.70446768e-01 -5.82849346e-02
1.74130633e-01 -2.94467688e-01 -8.86722729e-02 -3.72663945e-01 -5.40089965e-01 -3.35748792e-01 -3.38141620e-01 1.46302938e-01 4.87002701e-01 2.73219913e-01 -5.40467501e-01 -1.02747552e-01 8.64799976e-01 -3.34734738e-01 -2.22088411e-01 -3.32644403e-01 -6.11747384e-01 -9.99875903e-01 5.97539777e-03 -2.01898869e-02 1.01544356e+00 -2.51069248e-01 -8.43530595e-01 1.70746475e-01 -1.51719689e-01 -5.61239086e-02 -4.42653000e-01 -5.05731583e-01 2.57357389e-01 -4.09331799e-01 7.26611400e-03 4.16415066e-01
-8.05287808e-02 5.12553938e-02 1.66339707e+00 -8.57075632e-01 -9.04710650e-01 1.03771389e-01 -7.77138993e-02 -4.09327030e-01 7.25548029e-01 1.81124067e+00 5.96267208e-02 -1.57779142e-01 2.77493179e-01 3.24605155e+00 -1.01741850e-01 -1.10123026e+00 3.54222447e-01 -2.74958563e+00 5.96556365e-01 -3.29610139e-01 2.45674297e-01 5.78518689e-01 -3.08953971e-01 8.72322500e-01 -9.43290219e-02 -5.66961169e-01 3.11266035e-01 -8.67709816e-02 8.44010264e-02 4.32804041e-02 -1.04121137e-02 -3.23984712e-01
-6.36651039e-01 -1.48439646e-01 9.38320279e-01 4.12305713e-01 -7.29066610e-01 6.18165493e-01 -1.38037466e-02 -9.35677230e-01 3.66849869e-01 5.11142433e-01 2.21986160e-01 1.46215647e-01 -5.10062754e-01 -6.89300895e-02 4.35417116e-01 -4.43521976e+00 -9.42396224e-02 -6.17049742e+00 5.97990215e-01 -1.00404036e+00 -7.15989351e-01 4.49334204e-01 6.19873405e-01 -9.84588116e-02 -2.82527089e-01 -2.53476202e-01 -3.52710545e-01 6.82788849e-01 -6.51026785e-01 -3.27113867e-01 -1.01710284e+00 -2.47964561e-01
-2.19360124e-02 -1.89059064e-01 -5.92607915e-01 -7.68645927e-02 -2.15487152e-01 -7.69512355e-03 2.23485008e-01 3.62180352e-01 3.46785039e-01 -1.73790112e-01 5.31400979e-01 -2.11525381e-01 3.46301645e-01 -8.43342125e-01 -2.79590696e-01 -1.11020759e-01 -2.55907565e-01 1.58532888e-01 -1.27954170e-01 1.19701393e-01 2.69222818e-02 -1.13687508e-01 8.35935995e-02 -2.33285785e-01 -1.14329875e-01 7.74102688e-01 -2.21733972e-02 1.08331796e-02 -1.53360099e-01 2.50399381e-01 1.35347143e-01 3.46802294e-01
-9.63113189e-01 2.05924660e-01 -6.93257600e-02 3.02422851e-01 -1.95022821e-01 6.40306771e-01 -3.35856766e-01 -7.70596713e-02 4.01661307e-01 -1.24868371e-01 -7.98836470e-01 2.77271718e-01 1.91625863e-01 -3.65075946e-01 -2.73851633e-01 -6.74823105e-01 2.61256933e-01 -6.97371900e-01 -4.00062144e-01 3.53588849e-01 1.32740211e+00 9.77271616e-01 -4.05816324e-02 1.84531018e-01 -3.46463948e-01 1.41422391e-01 -6.28214896e-01 4.23972197e-02 7.99591720e-01 -2.81765908e-01 -7.62072131e-02 1.12517543e-01
-5.81193924e-01 -5.40895648e-02 6.18181191e-02 1.41629264e-01 -3.33227456e-01 2.79274911e-01 -9.40837860e-01 -9.22962278e-02 1.08461678e-01 5.22576141e+00 5.70409477e-01 4.22297865e-01 2.13078186e-01 2.67104530e+00 -2.08552778e-02 -4.99081500e-02 -4.26792651e-01 -1.49508879e-01 5.02508171e-02 -2.08624735e-01 -6.97335839e-01 4.12905782e-01 1.94208220e-01 2.68663317e-01 -3.89676988e-01 -4.31229621e-01 -6.26513898e-01 3.34557146e-01 -9.51564685e-02 -6.56084776e-01 2.03798056e-01 -2.45583370e-01
-2.86771394e-02 1.56957641e-01 -5.15874065e-02 3.55848260e-02 -2.24916115e-02 -6.08115224e-03 2.78407056e-02 -6.67650029e-02 1.24618672e-02 -1.88491553e-01 7.66561627e-02 3.66254561e-02 4.45143320e-02 1.09748326e-01 9.27313417e-02 3.17138806e-02 3.73505913e-02 2.41538174e-02 4.85391961e-03 1.07895188e-01 2.53287852e-01 1.19044915e-01 -5.95098501e-03 1.65823027e-02 6.48933128e-02 1.80539452e-02 5.77616431e-02 2.74522841e-01 2.45019365e-02 -2.71825062e-04 2.72936225e-02 2.10220385e-02
2.07416117e-01 -1.30980492e-01 -6.16513908e-01 5.30521758e-02 1.97415441e-01 -2.09433749e-01 -1.90936297e-01 -3.31895262e-01 2.52795428e-01 -6.89483225e-01 5.22606559e-02 -8.75057839e-03 1.95929557e-01 7.06253648e-02 -7.15093538e-02 2.53206283e-01 -3.12705129e-01 5.37226975e-01 -1.01646021e-01 9.14680421e-01 1.99062526e-01 1.02948174e-01 -4.52382177e-01 -1.15476780e-01 -1.76451072e-01 -4.47958350e-01 8.50479066e-01 -4.07064945e-01 1.92480132e-01 3.15126598e-01 -2.53784824e-02 2.42126584e-01
-3.01595598e-01 -8.46144333e-02 -2.71037400e-01 -2.17543438e-01 3.30851883e-01 2.99987458e-02 1.64094239e-01 1.30786672e-01 4.41311955e-01 -3.96440774e-01 -1.69268310e-01 -9.07334089e-01 4.83746856e-01 -1.48603484e-01 -1.75203353e-01 7.35314712e-02 -1.48751795e-01 2.08767444e-01 1.30144969e-01 -9.18532610e-02 -1.82178281e-02 -1.75935537e-01 4.60998923e-01 -3.05852652e-01 2.22876951e-01 2.01950997e-01 -1.88070789e-01 3.53688389e-01 7.04624951e-02 3.39769751e-01 4.48869109e-01 1.40424430e-01
7.04499334e-02 1.75803080e-01 -1.28257768e-02 6.75858855e-02 -4.99947183e-02 1.07782468e-01 -1.98579784e-02 -7.48863667e-02 5.15618734e-02 7.63014853e-02 7.10458532e-02 1.12598203e-01 -6.43397197e-02 -7.22454116e-02 1.14216231e-01 4.51585412e-01 6.01466149e-02 -3.00224125e-01 3.48790437e-02 -9.67853591e-02 -1.03390723e-01 -1.34360403e-01 -4.90798207e-04 -2.32898928e-02 3.39491218e-02 1.31267309e-01 3.50253237e-03 8.74811667e-04 1.10826053e-01 1.25535112e-02 -1.70220304e-02 4.59254310e-02
7.00127423e-01 -1.11618213e-01 6.39123201e-01 5.46679735e-01 -2.53509223e-01 -4.09435600e-01 -7.22352326e-01 -1.77284211e-01 -2.08442152e-01 -9.99214828e-01 -8.22308660e-02 9.59248424e-01 4.70894277e-01 -5.01405716e-01 6.92281723e-01 5.72386742e-01 -6.32441640e-02 -2.53771663e-01 5.81527531e-01 4.65938330e-01 -5.39803386e-01 4.81290929e-02 3.50969404e-01 1.78301603e-01 5.02462573e-02 -3.96236241e-01 1.14625223e-01 3.93967450e-01 -2.03609869e-01 -6.50105253e-02 -2.44186800e-02 4.71529841e-01
2.71712631e-01 -1.13159418e-01 1.28634041e-02 1.95823818e-01 3.79919000e-02 1.35995626e-01 9.33046520e-01 2.18142178e-02 4.84677792e-01 2.28850007e-01 3.85575503e-01 3.20227921e-01 -4.43019509e-01 -5.24026394e-01 1.04391299e-01 -1.02152777e+00 -7.00639635e-02 -6.86469615e-01 -1.72938984e-02 -4.79838759e-01 -5.35269916e-01 -4.62962836e-02 2.48068258e-01 1.77900994e-03 3.05782314e-02 -4.70177740e-01 -6.59214497e-01 4.94957477e-01 -1.41108140e-01 -1.44286528e-01 2.48601437e-01 -2.36267410e-02
1.36648556e-02 -3.20226550e-02 -2.61483490e-01 4.06706870e-01 -2.77269632e-02 4.06164408e-01 3.68407726e-01 -2.49444500e-01 -3.21023226e-01 3.66622120e-01 2.69346721e-02 7.51790702e-02 4.39115047e-01 5.29955924e-01 -1.34363860e-01 -6.25259280e-01 5.33564210e-01 -2.06342041e-01 2.35656388e-02 -2.55328596e-01 -3.05244088e-01 4.94990200e-02 -3.40200126e-01 1.81484029e-01 -3.31893563e-01 -1.06540099e-01 -5.78652509e-02 -5.28045416e-01 7.85390586e-02 -1.14223681e-01 -6.98972587e-03 -3.09908897e-01
7.94463515e-01 -2.93439496e-02 -2.69285470e-01 1.44782826e-01 1.62428752e-01 -5.05579233e-01 -2.01716516e-02 3.28153938e-01 2.69516677e-01 -2.59790659e+00 8.56727287e-02 1.90165162e-01 3.99871737e-01 -1.60665810e+00 1.25101328e-01 3.50425482e-01 1.50309548e-01 2.49020696e-01 -2.10300460e-01 1.44062135e-02 4.64868724e-01 -1.99205264e-01 -3.37327719e-01 -4.88954000e-02 -3.90000194e-01 -1.80458009e-01 -7.77274370e-02 -1.37173429e-01 1.82536468e-01 8.66956785e-02 -1.41349524e-01 -1.53648406e-01
-8.76583099e-01 1.72509596e-01 -9.68229398e-03 1.04667291e-01 -1.38501888e-02 -3.53000730e-01 1.06671989e+00 -7.32056331e-03 -1.01247931e+00 7.43315816e-01 -7.36874342e-01 4.97042015e-02 1.91244394e-01 6.63937181e-02 -7.26069510e-01 8.19089532e-01 6.20701671e-01 6.12218261e-01 -2.54255444e-01 3.21693271e-02 -1.93402231e-01 3.93565178e-01 5.20315409e-01 9.39926922e-01 -4.55576926e-01 5.39261401e-01 -6.37800276e-01 -1.54632866e-01 9.11196709e-01 -4.70450848e-01 8.14872161e-02 6.62636012e-02
-5.87074757e-01 5.74781597e-01 1.42148521e-03 -1.76338077e-01 4.69661504e-01 2.05695674e-01 -2.89695524e-03 5.56044340e-01 -3.23617309e-01 5.27543783e-01 3.61643843e-02 -1.36009812e-01 2.54876196e-01 2.28054538e-01 -5.00339091e-01 -4.42101896e-01 -1.38142616e-01 -2.04132721e-01 3.56462181e-01 -3.78390551e-01 5.81189292e-03 -2.36508399e-01 5.89809194e-02 -5.40088356e-01 7.80627206e-02 -1.67909607e-01 -6.00586236e-01 -4.87795413e-01 2.12002292e-01 -4.00938749e-01 -1.81219503e-01 -2.40785763e-01
-1.21562585e-01 2.36260563e-01 4.41476405e-01 3.54954958e-01 -2.36724466e-01 -3.06364298e-01 -1.57618299e-01 -1.02124540e-02 3.03100049e-01 -4.55841601e-01 -5.93056560e-01 -5.97217754e-02 -2.65949726e-01 -3.29530180e-01 5.41416258e-02 6.22428715e-01 -6.84376284e-02 2.06961870e-01 2.85122752e-01 2.20770866e-01 6.73892349e-02 -7.50713050e-01 1.62036195e-01 1.18956506e-01 2.75674969e-01 1.65982231e-01 8.02631304e-03 -5.72028399e-01 -2.67161131e-01 -1.24426864e-01 6.24323487e-02 -2.57796019e-01
-7.82296836e-01 4.59764808e-01 -6.29762352e-01 -9.97990072e-01 -1.86167508e-01 -2.32784227e-01 -3.63779545e-01 3.79573673e-01 9.59703550e-02 4.38605696e-01 -6.35753050e-02 1.85864687e-01 1.66623801e-01 2.72501051e-01 -8.29186011e-03 1.18863368e+00 6.80596828e-01 1.22150862e+00 -6.84989214e-01 6.80473447e-02 5.21994650e-01 -7.51961470e-01 -6.36686862e-01 4.10953909e-01 -1.50523990e-01 -4.50481981e-01 2.91671276e-01 3.06251526e-01 5.25125802e-01 -8.02526951e-01 1.91420838e-01 -2.66905755e-01
1.41424015e-01 -5.37482321e-01 -4.73265983e-02 -1.05240770e-01 -6.04624629e-01 5.36764681e-01 8.75153169e-02 -4.71569777e-01 5.16927838e-01 9.32356358e-01 -2.01974452e-01 1.00883454e-01 5.41714430e-01 4.27208662e-01 1.44316163e-02 -1.05199111e+00 -4.59319025e-01 -1.02697790e+00 4.01400775e-02 2.02875465e-01 2.55758494e-01 3.39626729e-01 2.03232750e-01 1.48777127e-01 2.38716453e-01 9.50302333e-02 -4.01140898e-01 -2.68999189e-01 -2.64467984e-01 -3.29678595e-01 4.24671948e-01 3.47317666e-01
-1.32014714e-02 -9.38541591e-01 3.25445592e-01 1.62882102e+00 1.49447396e-01 5.22357747e-02 -1.63952857e-01 -3.07600468e-01 -1.80332273e-01 1.86967462e-01 1.13305414e+00 -1.03583658e+00 -1.14863741e+00 -4.10075039e-01 1.55386508e-01 -1.11307919e-01 -1.19667125e+00 5.79602480e-01 6.69590592e-01 -7.11699784e-01 8.29643488e-01 1.47849649e-01 -2.41091419e-02 7.48431236e-02 -7.11260661e-02 -5.53485096e-01 2.49973789e-01 5.10271452e-02 -9.24554825e-01 1.30616534e+00 -6.60132825e-01 3.96959558e-02
-7.90111780e-01 -2.37911582e-01 7.07291365e-01 2.24725351e-01 -1.39300036e+00 3.13761055e-01 3.44222426e-01 -2.09018350e-01 -4.80963111e-01 -1.34573177e-01 -8.85807931e-01 1.80116296e-01 3.63389581e-01 1.67123169e-01 2.32027471e-01 -8.52973580e-01 2.76817501e-01 -1.33361423e+00 6.95850492e-01 -4.30899054e-01 -1.08635747e+00 5.32996356e-01 7.28739873e-02 -6.50598168e-01 9.25275907e-02 4.93522882e-01 -1.74382944e-02 2.93776631e-01 -5.90430081e-01 -1.35135904e-01 -9.00607556e-02 7.95903951e-02
-2.81661004e-01 -3.78017843e-01 -1.90429449e-01 -1.28641129e-01 -1.98039293e-01 -6.12332672e-02 2.47506067e-01 2.36720592e-01 -6.62365735e-01 1.31784487e+00 -1.33100629e-01 -1.02343567e-01 -5.25666535e-01 5.10526717e-01 -1.30240485e-01 4.60270494e-02 2.90455087e-03 1.80808783e-01 3.48710571e-03 -2.01607183e-01 2.10681304e-01 1.12714663e-01 3.68020326e-01 5.80143481e-02 3.54481600e-02 -8.47931430e-02 -1.65514782e-01 2.02065840e-01 2.74730057e-01 3.31663728e-01 -1.88673586e-02 1.16734810e-01
-1.11758836e-01 -3.99878502e-01 2.95802616e-02 -1.05458841e-01 -3.83109689e-01 4.95765209e-01 -1.73125103e-01 -4.17003840e-01 2.78062504e-02 -3.74694347e-01 3.38749215e-02 4.21093047e-01 2.06846252e-01 4.74221468e-01 3.66610914e-01 -5.21357358e-01 -5.00106514e-01 -1.24134147e+00 -7.64838904e-02 -3.49632978e-01 -8.59900117e-02 8.84558141e-01 4.87190366e-01 6.15648091e-01 -4.64241117e-01 1.41258195e-01 1.23573758e-01 -2.41090879e-01 -3.51181537e-01 -2.63717026e-01 -8.87526050e-02 -8.63889754e-02
3.37758325e-02 -5.91809414e-02 1.26339898e-01 -9.08846483e-02 2.53142297e-01 -8.74027982e-02 1.77792851e-02 -3.31075311e-01 -1.70469195e-01 3.54329497e-01 1.34235695e-01 1.83971852e-01 7.96467066e-02 -3.08043033e-01 -5.05329370e-02 -2.93689907e-01 6.54113516e-02 1.24200583e-01 -1.78150281e-01 -5.37728786e-01 1.37155980e-01 -1.59683600e-01 -1.16026379e-01 -3.01939733e-02 -1.94391422e-02 2.10625529e-01 -6.12657405e-02 3.18703614e-02 9.71649289e-02 7.06312880e-02 -3.05942092e-02 6.06010389e-03
6.17276244e-02 -5.94341278e-01 -2.00380668e-01 7.48084307e-01 -1.93927184e-01 -4.23865080e-01 2.34885752e-01 -1.04167238e-01 -4.18341666e-01 3.07483721e+00 -5.76151609e-01 9.71500993e-01 6.68700337e-01 8.95543516e-01 8.45987797e-01 2.56289214e-01 2.38739066e-02 2.41346762e-01 4.84190315e-01 3.66151124e-01 2.51047790e-01 1.94129258e-01 -1.52129441e-01 1.05678141e+00 -3.52435187e-02 1.53029174e-01 -3.22849959e-01 2.74398774e-01 8.02854598e-02 2.46777833e-02 1.37774944e+00 8.44417233e-03
-1.14446536e-01 1.80188805e-01 1.35104612e-01 7.49465823e-02 1.64321940e-02 -5.68647683e-02 2.14817468e-02 1.02051072e-01 -3.86621803e-03 -4.14954461e-02 1.74907401e-01 7.86324367e-02 8.81631747e-02 -1.07246898e-02 1.55067801e-01 1.98500931e-01 2.56207474e-02 -1.28671423e-01 -5.33668743e-03 8.90440494e-02 -1.62438527e-01 -5.55834807e-02 -2.21465435e-02 -1.15660243e-02 -4.57555234e-01 -2.25764036e-01 4.82677147e-02 -1.29650235e-01 -4.85460944e-02 -5.49303703e-02 1.97021905e-02 -4.59735841e-01
2.81307171e-03 -6.87100589e-02 -4.05814908e-02 2.38597151e-02 -2.63464332e-01 1.45611055e-02 -4.95844185e-02 1.63213342e-01 5.41517921e-02 -3.92304957e-02 -3.34407715e-03 -2.44890321e-02 -6.53335378e-02 5.64454682e-02 -9.18822438e-02 2.19743341e-01 -1.27904102e-01 -9.18316692e-02 3.83197591e-02 3.22888792e-01 -2.46554554e-01 -8.98104087e-02 2.08283793e-02 -2.44375262e-02 1.23619642e-02 -9.24828872e-02 -6.48669451e-02 -5.66418879e-02 -4.82269712e-02 5.10097817e-02 3.30639705e-02 -7.47927791e-03
8.09433341e-01 -2.91015148e-01 3.96423370e-01 3.47281486e-01 -6.07647717e-01 2.69956142e-02 -5.60207069e-01 -1.26152551e-02 7.22890377e-01 8.65404829e-02 -1.94328278e-01 4.76478748e-02 4.84761409e-02 2.65210360e-01 7.68949151e-01 -9.70013440e-01 -4.74982977e-01 -1.10849929e+00 6.33828461e-01 -2.87061632e-01 -7.49425590e-01 2.62476742e-01 -1.29065767e-01 2.16833562e-01 7.89630890e-01 -4.09868918e-02 2.30664045e-01 -7.67627284e-02 -5.50100088e-01 2.34125897e-01 1.25950292e-01 1.17312655e-01
1.14091143e-01 -4.30527180e-01 -2.38992825e-01 4.10364419e-01 1.42299876e-01 -5.71390867e-01 1.12522222e-01 2.51336559e-03 2.52406925e-01 -2.28680089e-01 -2.29118466e-01 4.47566450e-01 3.51009578e-01 -2.38825068e-01 2.75569111e-01 -6.70145452e-01 -3.61489564e-01 -8.36052299e-01 4.16005254e-01 -4.27881777e-01 -2.31176451e-01 -5.09207956e-02 3.79058778e-01 6.71863854e-01 -1.58809647e-01 -3.27523500e-01 4.42288369e-01 -4.20668684e-02 -1.01983219e-01 -4.18074965e-01 9.15053859e-02 2.60749131e-01
5.91787733e-02 3.96364219e-02 7.25322664e-01 1.18197322e-01 -1.26645613e+00 -3.53083998e-01 2.03827485e-01 -1.48468778e-01 7.63078392e-01 5.82505405e-01 -1.00921363e-01 -4.38757211e-01 -9.30918031e-04 6.15405917e-01 -5.24705537e-02 -2.65684319e+00 -2.44881541e-01 -3.12061810e+00 2.11874783e-01 2.06914861e-02 -7.88263500e-01 6.42320335e-01 1.51441231e-01 1.71322197e-01 1.63999557e-01 9.94368419e-02 3.49187702e-01 1.91698253e-01 -2.05226511e-01 -7.65584946e-01 -7.28955150e-01 2.28203207e-01
-2.16150492e-01 -2.35627368e-01 -2.42507875e-01 -2.80050457e-01 -2.83269912e-01 5.65731823e-01 1.21837057e-01 -9.21987891e-02 -8.33934620e-02 3.71988803e-01 -1.85065687e-01 1.46808326e-01 5.83595484e-02 -2.85245776e-01 -1.39529303e-01 -5.13482392e-01 3.08763891e-01 -6.14129066e-01 -3.06335688e-01 2.56684721e-02 -3.08021158e-01 3.88850361e-01 -1.34072244e-01 3.39574069e-01 3.81355256e-01 -5.12830555e-01 4.81848478e-01 3.44993509e-02 9.52418819e-02 1.35221362e-01 -1.00734182e-01 2.87584402e-02
5.20943403e-01 7.02733457e-01 6.75490439e-01 -4.15110946e-01 2.11847544e-01 1.25678688e-01 1.46527618e-01 -1.02074422e-01 -8.10153484e-01 9.14023697e-01 -3.00531209e-01 -2.26571992e-01 -4.25521880e-01 1.09613407e+00 1.41661018e-01 1.76027298e-01 4.34009507e-02 -8.92926455e-01 2.82081336e-01 -2.63983518e-01 3.41633931e-02 6.99283898e-01 -1.59966886e-01 -4.09062445e-01 6.64217830e-01 -7.50803709e-01 4.78557169e-01 -6.16529584e-02 -2.90514648e-01 -6.14240050e-01 -1.72946583e-02 -4.84124720e-01
-5.57032763e-04 -4.14104939e-01 1.39720574e-01 -1.30192563e-01 -9.21031758e-02 1.05190970e-01 5.94044030e-02 -3.34380329e-01 -5.13526618e-01 -3.59064192e-01 -6.06870539e-02 -4.35495600e-02 -1.44927248e-01 3.77381086e-01 5.42097270e-01 4.19580013e-01 2.35241681e-01 -3.65630895e-01 5.19958213e-02 1.35099590e-01 -2.40613505e-01 2.52516985e-01 -3.56040835e-01 2.17937782e-01 -6.46004230e-02 -3.06864172e-01 4.52120453e-01 7.05622137e-01 -4.40584332e-01 -4.12265122e-01 2.45658576e-01 3.43560874e-01
-1.27415657e+00 1.08044140e-01 1.52013421e-01 -1.32652915e+00 -1.17977858e-01 -4.42558639e-02 1.78857923e-01 5.67802072e-01 9.66359451e-02 3.97171527e-01 -1.00093412e+00 7.28596985e-01 1.10974693e+00 3.40086102e-01 -6.25513136e-01 3.06706369e-01 5.76322615e-01 -3.98063242e-01 -3.28820854e-01 1.04849374e+00 -5.26929140e-01 -2.87689924e-01 -3.14382762e-01 -9.28529575e-02 6.27035558e-01 1.01897168e+00 8.40750813e-01 5.96051753e-01 5.22679567e-01 -1.04523146e+00 1.94675326e-01 1.96009070e-01
-9.17249918e-02 8.11673403e-02 2.90156037e-01 -4.97749448e-02 3.68167728e-01 -8.65919665e-02 -1.90911870e-02 3.99448723e-02 -3.88890803e-02 2.05102429e-01 1.40284467e-02 2.59333290e-02 -7.40641309e-03 -1.28674567e-01 1.00896306e-01 -1.43736720e-01 9.12578702e-02 4.26611304e-02 -1.30225467e-02 -4.16940093e-01 1.42129660e-01 -1.09989651e-01 8.73679947e-03 2.01919898e-02 1.40082300e-01 -1.35706244e-02 7.18496293e-02 1.41554117e-01 2.85540670e-02 -9.03401002e-02 -2.88774502e-02 5.90022057e-02
-1.09565228e-01 2.18927473e-01 2.93203980e-01 -1.49745941e-01 2.56595790e-01 1.02556922e-01 6.90468431e-01 3.23445231e-01 8.95044953e-02 -1.19793952e+00 -3.75874400e-01 5.63656032e-01 6.87812746e-01 -3.11576903e-01 -4.53220755e-01 2.84058094e-01 4.83571887e-01 -1.74257204e-01 -4.62909713e-02 -5.21332681e-01 1.03336024e+00 -2.72955120e-01 2.99415141e-02 -1.26369572e+00 -2.59457808e-02 5.57223201e-01 -1.02361333e+00 -9.47354198e-01 3.02769125e-01 -1.40071228e-01 -3.25832255e-02 -3.82419348e-01
6.06525362e-01 -3.25510651e-01 -2.98760086e-01 4.58713353e-01 -7.26611242e-02 -4.53762524e-02 -7.59039223e-02 -1.69424072e-01 5.14917016e-01 -9.53252017e-02 -9.37960446e-02 -6.94552884e-02 7.39272356e-01 -3.29375058e-01 3.72133642e-01 -3.99817526e-01 -4.66824882e-02 -5.34081638e-01 3.00033301e-01 -9.33372006e-02 -3.21080357e-01 9.94433835e-02 1.70443639e-01 1.69562072e-01 -5.83687536e-02 -2.34728277e-01 8.13736677e-01 4.86760318e-01 -4.01151508e-01 3.55253875e-01 1.58282533e-01 3.38034600e-01
-2.75323510e-01 3.57957274e-01 -1.68584615e-01 -4.39808145e-02 -6.02678776e-01 -1.96672127e-01 7.20719993e-02 4.67995644e-01 -8.64363387e-02 -5.70803225e-01 -1.74994931e-01 -3.09292488e-02 -3.43057424e-01 1.61197215e-01 2.25426286e-01 -1.63804993e-01 -8.33794996e-02 2.86536306e-01 1.41080115e-02 3.64757270e-01 -2.44558126e-01 -3.55465561e-02 6.61995914e-03 -5.94752394e-02 -1.31803140e-01 -1.07222207e-01 2.72632748e-01 -2.49742031e-01 1.25211045e-01 8.65519699e-03 2.70329565e-02 1.88544646e-01
-1.51678454e-03 -5.55671632e-01 -8.19279850e-02 -1.19643986e-01 -1.01633675e-01 -9.07040238e-02 -1.17039112e-02 -1.43209159e-01 -4.25907761e-01 4.96361881e-01 -2.06406880e-02 8.15133825e-02 3.70123297e-01 3.55291843e-01 -1.13686159e-01 -6.51245177e-01 -2.05005959e-01 -1.41093358e-01 -3.75332460e-02 5.48301712e-02 1.23277992e-01 -2.15195771e-02 6.44314766e-01 2.84932349e-02 -3.36853176e-01 2.47323275e-01 3.23814243e-01 5.56600839e-02 -2.77996957e-02 1.12558968e-01 -2.96486751e-03 -2.51704723e-01
1.02370429e+00 4.19719964e-02 -6.20974541e-01 1.97826222e-01 2.24020451e-01 9.22109783e-02 4.74387288e-01 1.56315386e-01 -2.74403363e-01 -9.36417878e-01 -8.33502889e-01 1.35502613e+00 8.43790844e-02 -9.16414618e-01 2.70666122e-01 5.03776789e-01 8.93788263e-02 5.01059175e-01 -1.33848637e-01 1.84582889e-01 -1.50949335e+00 -4.22793567e-01 -8.28089535e-01 -3.18627268e-01 -3.59481245e-01 -5.73728466e-03 2.49186888e-01 5.40362775e-01 -4.23162580e-02 5.88703007e-02 -7.23244920e-02 4.48995471e-01
-9.37569290e-02 1.05570056e-01 -1.01326919e+00 -6.22772845e-03 3.29506397e-01 3.10809225e-01 5.82379960e-02 -3.44401374e-02 2.76060738e-02 4.61739421e-01 -3.57088894e-01 -1.21302497e+00 3.13292354e-01 2.81174988e-01 -3.86702269e-01 7.71253526e-01 -1.04426421e-01 1.47108984e+00 -3.89276713e-01 4.55444083e-02 2.12307319e-01 -1.92339227e-01 -7.90919214e-02 8.03572357e-01 -3.59947085e-01 7.10495412e-01 -3.02528404e-02 -1.70575559e-01 6.92178011e-02 1.81658447e-01 6.86643779e-01 1.65048148e-02
-1.23695247e-02 4.07853991e-01 -1.64687723e-01 -5.94608307e-01 -1.03635602e-01 7.30125785e-01 2.88844973e-01 7.77097821e-01 3.60712230e-01 2.92950273e-01 9.81218755e-01 -2.97766894e-01 6.31468892e-02 2.80819356e-01 1.30405175e-02 -7.90071368e-01 3.09648991e-01 -7.47158602e-02 -3.04359555e-01 -5.54053307e-01 -6.32141903e-02 -2.43745461e-01 2.52544731e-01 1.46621719e-01 -2.50526786e-01 1.48886234e-01 5.51187545e-02 1.08129643e-02 -5.55587769e-01 2.73155987e-01 -2.04222292e-01 1.39490947e-01
1.10956676e-01 -1.85358934e-02 -1.36538088e-01 -7.88264535e-03 2.43590958e-02 5.14797196e-02 5.84965805e-03 8.89260694e-02 -1.68204717e-02 -6.52659982e-02 -7.07837269e-02 -3.72041374e-01 2.60693640e-01 2.13279292e-01 5.97250238e-02 1.20629810e-01 5.25414199e-02 -7.59298652e-02 8.87618214e-02 2.47505188e-01 1.40055895e-01 2.73393631e-01 -7.35002337e-03 2.75392383e-01 -1.01686828e-01 -2.68485487e-01 -1.93197846e-01 -2.05902636e-01 -3.17306876e-01 -1.55979916e-01 -1.53045021e-02 -2.85268396e-01
4.39045608e-01 1.23761497e-01 5.47596991e-01 3.90309781e-01 3.31164956e-01 3.91130209e-01 9.41966891e-01 -3.64417285e-01 7.54793108e-01 -8.59277695e-02 -6.21000528e-01 1.82808384e-01 -5.18322766e-01 -4.97858703e-01 -9.06189978e-02 2.07763895e-01 -4.77672517e-01 -5.05280316e-01 2.85471082e-01 4.42540757e-02 -1.17494129e-01 5.73962986e-01 1.81628868e-01 6.32604301e-01 2.71253958e-02 -1.32227048e-01 -2.34758586e-01 1.69216186e-01 1.74445346e-01 4.06291306e-01 -1.51928231e-01 1.16391564e-02
-4.06680584e-01 -6.04815900e-01 1.61443353e+00 3.85798141e-02 -9.40517068e-01 -9.30301175e-02 -1.16248393e+00 -9.16698515e-01 2.25565746e-01 1.11527431e+00 -3.68614867e-02 -4.36303973e-01 -2.41969973e-01 1.10738826e+00 7.11529315e-01 -1.98349392e+00 9.40651968e-02 -2.73155642e+00 1.66718245e+00 8.10965776e-01 -4.95209873e-01 1.79275465e+00 -3.47063392e-01 2.27933183e-01 4.19910312e-01 -6.42173707e-01 -3.04079592e-01 3.34910870e-01 2.53598273e-01 -2.42365873e-03 7.24117994e-01 7.79741406e-02
1.29158972e-02 -1.33185033e-02 6.82738498e-02 4.15128320e-02 3.88814569e-01 -1.69303399e-02 2.04471257e-02 9.79472697e-03 4.93925586e-02 -7.84328580e-03 -6.07033353e-03 -7.31303990e-02 1.01708904e-01 1.12002785e-03 -1.24877756e-02 -5.27442992e-02 3.50145530e-03 -3.64047326e-02 -5.98367862e-02 8.52195695e-02 1.44215062e-01 4.05383296e-02 -2.39496306e-02 -6.44695992e-03 -1.29544035e-01 -1.44145131e-01 1.56335589e-02 3.40850770e-01 -2.67884079e-02 -5.86064383e-02 2.64164954e-02 -2.44885325e-01
-5.09464264e-01 -8.72043222e-02 -1.84207588e-01 9.74116623e-02 -1.84165299e-01 1.71985090e-01 -5.38028181e-01 6.29823148e-01 2.17517421e-01 1.16718747e-02 4.14555855e-02 3.08659494e-01 3.45253646e-01 1.28104329e-01 3.85465503e-01 -2.55959749e-01 -2.25755155e-01 5.00694625e-02 -1.62213981e-01 -1.80175990e-01 2.27360621e-01 -7.08234489e-01 1.00677935e-02 -2.18132496e-01 -1.65791050e-01 -3.07460606e-01 -4.56273764e-01 9.08031464e-02 -2.96575338e-01 -6.46015257e-02 -1.16498142e-01 3.73158604e-01
-7.51164779e-02 -2.30401292e-01 6.44148052e-01 2.29255930e-01 -6.38335109e-01 3.01030278e-01 3.81133854e-01 -5.51093817e-01 4.81057465e-01 4.00730312e-01 -1.09562688e-01 4.38324273e-01 -6.14116862e-02 1.87749714e-01 2.16828153e-01 -2.04801488e+00 9.14214253e-02 -1.01506209e+00 -1.68916564e-02 1.78405389e-01 3.79340607e-04 2.11699009e-01 2.97044903e-01 1.39769033e-01 -1.45950317e-01 -5.01281381e-01 -1.09001897e-01 -2.98067451e-01 -3.41630399e-01 -5.11668205e-01 4.24813330e-01 -3.71372044e-01
-1.66639969e-01 9.71014239e-03 -1.40078351e-01 1.34115770e-01 -6.34544417e-02 -3.62941362e-02 2.86432743e-01 -1.82018355e-01 -6.43344164e-01 1.60425651e+00 -3.91007155e-01 -5.78757674e-02 -2.55403340e-01 1.22067153e+00 -1.87868267e-01 7.61114806e-02 1.31495679e-02 4.31948639e-02 -1.25872687e-01 -2.82741100e-01 4.11469005e-02 2.17882022e-01 2.37188712e-02 -2.19170958e-01 -1.32546753e-01 9.00451988e-02 4.12758499e-01 4.31768268e-01 2.08639428e-01 -4.78557855e-01 3.11081290e-01 -9.67055559e-02
-3.59634608e-02 -1.90197885e-01 5.56990385e-01 4.79319781e-01 1.03563793e-01 -4.35689270e-01 -1.18094099e+00 1.24658033e-01 2.55542397e-01 3.50381672e-01 8.73693600e-02 -5.46022952e-02 1.13740727e-01 1.20256357e-01 -2.67517060e-01 9.33332801e-01 1.97862498e-02 5.02628982e-01 -1.34573594e-01 -3.01503181e-01 8.46709907e-01 3.58084410e-01 3.28829646e-01 -5.94906449e-01 9.31247845e-02 3.86250429e-02 -2.02121079e-01 1.94494873e-01 -1.27775714e-01 3.31936598e-01 -2.30174825e-01 -3.70337129e-01
1.18527210e+00 -3.34511489e-01 4.81160671e-01 9.14527416e-01 -3.16107392e-01 1.73001319e-01 -7.10214138e-01 -5.10740817e-01 4.78736401e-01 -1.17105567e+00 -3.43087852e-01 8.00972223e-01 -1.17175865e+00 -3.19250792e-01 6.26758695e-01 -2.97972590e-01 -3.34051996e-02 4.83116060e-02 5.31993628e-01 7.98217177e-01 2.45068654e-01 -4.25943613e-01 -2.06948447e+00 -5.82270801e-01 5.34552515e-01 6.27844512e-01 -8.74733508e-01 -3.13931316e-01 4.88327183e-02 1.19062793e+00 -6.91079199e-01 -9.66325402e-02
-2.92126127e-02 1.77377671e-01 -3.04855518e-02 -4.77679074e-02 -1.84510261e-01 -4.48311977e-02 3.61170843e-02 -5.32641597e-02 -5.17894663e-02 -1.82176363e-02 4.71893772e-02 9.13845822e-02 8.28013122e-02 -3.97089049e-02 1.48646548e-01 -1.32620290e-01 8.81375223e-02 1.88746855e-01 -3.54022346e-03 -2.81916827e-01 1.41388491e-01 4.16694768e-02 -1.91108007e-02 -3.62398177e-02 -3.04523200e-01 -4.13341485e-02 2.15559546e-02 -7.82214850e-02 -8.76845047e-03 -5.95410028e-03 -9.22107045e-03 -2.15339288e-01
1.58449784e-02 3.44666272e-01 1.66690922e+00 4.47960526e-01 -1.33006620e+00 2.37698466e-01 -2.26057976e-01 -5.22683203e-01 8.38242233e-01 6.17492020e-01 1.53086826e-01 -3.58615071e-01 -8.91059339e-01 7.44984865e-01 4.68918681e-02 -3.64127135e+00 -1.42632678e-01 -4.74019194e+00 3.20850998e-01 1.49383575e-01 -1.17918003e+00 1.03883862e+00 4.26604867e-01 1.94472387e-01 1.99262574e-01 -1.56025052e-01 -5.24735510e-01 6.42735600e-01 -1.85159668e-01 -8.20111763e-03 1.09155618e-01 2.55430862e-02
-8.13684702e-01 1.60453573e-01 1.12656035e-01 -7.00557411e-01 -2.96357237e-02 -1.36900827e-01 -2.61264324e-01 4.63885665e-01 -2.01432910e-02 -7.09656114e-03 1.58244908e-01 -3.40573698e-01 3.98823261e-01 4.70693767e-01 -3.72835040e-01 -4.44384098e-01 1.78873330e-01 -2.17690691e-01 -3.09181988e-01 1.28617331e-01 1.17988944e-01 6.69204116e-01 2.47414455e-01 -2.43300647e-01 -7.96957463e-02 2.74273038e-01 -6.70331359e-01 5.66193014e-02 6.01854920e-02 -5.22099078e-01 -1.44134045e-01 -7.67553329e-01

layers.2.bias:
-1.40285683e+00
-7.82501459e-01
4.16895896e-01
-6.11938298e-01
1.30462259e-01
-3.62602443e-01
2.72695005e-01
2.14643598e+00
5.99487960e-01
7.91522503e-01
-9.10908639e-01
-1.34738886e+00
-3.46496344e-01
8.56608808e-01
-2.79646218e-01
-7.25919425e-01
-7.09730908e-02
-7.26740837e-01
3.14896971e-01
-8.17657933e-02
-1.17434666e-01
7.98845470e-01
7.80991018e-01
-1.10116981e-01
-3.83397967e-01
9.99416947e-01
-9.69260395e-01
-1.06932974e+00
4.96772230e-01
-1.10002804e+00
-1.01232773e-03
-3.98889333e-02
7.45076060e-01
1.20103493e-01
-3.70191276e-01
-2.31139623e-02
-1.44578770e-01
1.36146033e+00
1.00645363e+00
-1.10772170e-01
9.61521864e-01
-1.74733043e-01
-5.19163549e-01
1.36638415e+00
2.61947513e-01
-9.84321356e-01
1.05046713e+00
-3.79045784e-01
7.69250214e-01
1.78597033e+00
2.37552479e-01
3.03473294e-01
1.24210887e-01
-5.95150828e-01
1.17770441e-01
-2.46771779e-02
5.46430707e-01
-1.36664391e-01
-6.45215884e-02
-5.68025947e-01
7.32441187e-01
5.47952987e-02
-3.29869390e-01
6.79569423e-01

layers.4.weight:
3.22690994e-01 1.75805297e-02 -5.93949594e-02 1.82314385e-02 -6.88359365e-02 9.13518742e-02 -4.38739429e-04 -6.77891970e-01 2.07685605e-01 -3.86890143e-01 4.51175943e-02 8.84904623e-01 -1.59741116e+00 -7.36034662e-02 8.56396370e-03 -1.47281897e+00 -6.78769895e-04 7.32778609e-02 -1.25328355e-04 2.30007499e-04 4.52739149e-02 -7.02389702e-02 -2.54200702e-03 2.37993211e-01 -6.41222000e-02 -3.98462527e-02 1.73945632e-02 7.64028311e-01 -3.93660367e-01 3.87848616e-01 -2.88173091e-02 -1.56975999e-01 -5.36953844e-02 6.58962585e-04 1.01848967e-01 -1.35774520e-04 -1.62068696e-04 -1.89584166e-01 -7.65317585e-03 3.02459449e-01 -1.21397600e-02 2.43068919e-01 2.81449296e-02 -1.24884896e-01 4.58299357e-04 1.29071146e-01 -7.34350085e-03 -7.53231812e-04 -1.07129946e-01 -6.33240163e-01 -9.44602787e-02 -2.50058621e-02 2.71672034e-04 1.93582149e-04 -1.12175393e+00 -3.26510810e-04 -1.77581329e-04 -3.17441404e-01 -5.77115677e-02 2.50646099e-02 -3.08551826e-02 -3.54756448e-05 9.41727757e-01 -1.89091880e-02

layers.4.bias:
-1.05876493e+00

