layers.0.weight:
3.31696361e-01 -5.67613244e-01 7.97264636e-01
5.69172144e-01 -8.09445798e-01 -5.80563486e-01
-8.31293464e-02 -6.13938749e-01 -5.77727258e-01
-1.07055378e+00 1.15616508e-01 4.58123112e+00
2.67282110e-02 4.11940843e-01 1.16166264e-01
-5.79876065e-01 8.58121514e-01 -1.84879377e-01
-1.31842160e+00 4.86020595e-01 -9.88645032e-02
-6.01682402e-02 7.88846374e-01 -9.23566997e-01
6.03414774e-01 -9.26082134e-01 5.12713566e-02
-1.11527514e+00 5.86289167e-02 -1.64189592e-01
7.53551662e-01 -9.85680073e-02 1.41279221e+00
-7.16238439e-01 -1.31785080e-01 -1.29353356e+00
-4.30584475e-02 7.12955832e-01 -1.57757306e+00
-1.16726887e+00 2.10410804e-02 5.00053525e-01
-6.46977663e-01 1.09646142e+00 7.52028525e-01
-1.81771189e-01 9.48456824e-01 1.64468549e-02
5.46070874e-01 -6.33792400e-01 -1.45019031e+00
-1.15504665e-02 1.12846863e+00 1.84981868e-01
8.07071701e-02 -9.54183042e-01 5.35116851e-01
3.41117471e-01 -1.28724232e-01 -8.64976227e-01
2.23475501e-01 1.65966094e-01 -5.10879010e-02
-3.24195027e-01 -2.56797969e-01 -1.00232065e+00
-4.64660525e-01 1.65601885e+00 -4.46076952e-02
-1.56447518e+00 4.06930357e-01 1.75152493e+00
1.05132234e+00 3.79940838e-01 -7.78481364e-01
2.59609371e-01 6.71772659e-01 -1.17486012e+00
-1.16151750e-01 -2.13369340e-01 1.90187418e+00
-3.97779703e-01 -2.44972542e-01 1.92939892e-01
3.22416067e-01 7.57217348e-01 -1.46468067e+00
-1.04933763e-02 4.65525806e-01 1.70563948e+00
-2.89658904e+00 2.84448242e+00 -1.78299040e-01
-1.26738083e+00 -5.19488692e-01 1.02004325e+00

layers.0.bias:
8.77201200e-01
4.81547834e-03
-1.42384720e+00
-6.34384930e-01
7.07518518e-01
-2.04255387e-01
-3.54310095e-01
2.86240637e-01
-7.45998621e-01
-1.59115899e+00
1.64644122e-01
1.80825554e-02
2.46107668e-01
-1.21306002e+00
-2.90836543e-01
1.43946290e+00
9.34610724e-01
1.82654703e+00
-6.68276668e-01
5.78918040e-01
-1.44309163e-01
-1.35729384e+00
1.02535832e+00
-7.05530941e-02
1.36946186e-01
5.60703695e-01
8.80503118e-01
-1.57881156e-01
-4.88352716e-01
7.31267482e-02
8.91685039e-02
-6.70209900e-02

layers.2.weight:
-3.91525149e-01 1.69369817e-01 1.54261857e-01 -4.54143554e-01 -2.39956647e-01 2.02695895e-02 3.50609645e-02 -8.31369311e-02 -9.81778838e-03 3.11002612e+00 9.86001566e-02 1.15329944e-01 -2.64143735e-01 2.47282195e+00 -2.01384366e-01 2.81038195e-01 -1.30387932e-01 4.67548251e-01 1.38065159e-01 -3.37925106e-01 2.70949513e-01 -6.31870180e-02 -6.24210656e-01 6.54646277e-01 -5.38910180e-02 5.78072608e-01 -7.67951965e-01 -1.58911034e-01 -1.36112913e-01 -1.83120862e-01 -7.65475705e-02 2.21588880e-01
1.21248007e-01 1.01018034e-01 -8.82316053e-01 -3.69884968e-02 -3.78152996e-01 -4.74287719e-02 -3.37653100e-01 -5.02989173e-01 1.92582697e-01 6.12299085e-01 1.59040615e-01 1.37506649e-01 3.18791479e-01 2.02395201e-01 -3.43322307e-01 4.08773571e-01 -3.75675350e-01 3.62816542e-01 -3.41485322e-01 -2.06406619e-02 3.02393228e-01 -1.37675732e-01 -5.61125934e-01 -8.20737481e-02 -8.35997611e-02 -1.82854813e-02 -4.01606321e-01 -2.94819772e-01 5.38263097e-02 -3.22851241e-01 1.17468216e-01 2.52701193e-01
-1.02500124e-02 6.78301752e-02 3.48107129e-01 -7.01014340e-01 -1.09356654e+00 -4.31580134e-02 -4.43334252e-01 2.71452516e-01 5.10964513e-01 6.62753582e-01 -5.04406452e-01 -1.29469156e-01 1.10308334e-01 9.10975635e-02 -1.90342709e-01 -8.25028241e-01 -3.75290066e-01 -9.11142588e-01 -5.45673333e-02 -1.45336138e-02 -2.44987309e-02 -2.30812013e-01 3.55651349e-01 -1.52719212e+00 -1.70830011e-01 3.74577969e-01 -1.11950803e+00 2.23753020e-01 3.64418060e-01 -3.20241749e-01 8.84459391e-02 1.19367324e-01
2.36351863e-01 -1.33731648e-01 1.08780473e-01 1.34696710e+00 1.94387347e-01 4.03606325e-01 6.61116719e-01 -2.34463125e-01 -1.90939158e-01 -4.07816693e-02 1.61482781e-01 -6.20859861e-02 -5.76373100e-01 1.68072358e-01 6.88514113e-01 2.84501761e-01 -3.33017230e-01 -1.38087422e-01 2.95050830e-01 -1.04501414e+00 -1.00054026e+00 -1.56179622e-01 4.64878917e-01 1.58843231e+00 -2.12034941e+00 -5.59524059e-01 4.98237014e-01 9.10533071e-01 -6.55576706e-01 -1.77407384e-01 -2.29238383e-02 1.01074219e+00
1.46463647e-01 -3.24234992e-01 2.94360101e-01 -5.06689191e-01 6.50575757e-02 -4.04531062e-01 -9.98576701e-01 1.83152914e-01 -1.00127887e-02 -6.45970404e-01 3.65925670e-01 -6.56958044e-01 8.52549613e-01 -8.52178693e-01 -9.85386521e-02 -7.80866802e-01 -2.62319356e-01 -9.49805856e-01 -1.25150040e-01 -3.95575650e-02 7.78852344e-01 -5.18296897e-01 1.96482435e-01 -4.27769363e-01 -7.45267212e-01 6.91978633e-01 3.67848910e-02 -5.62559307e-01 -1.72675312e-01 5.53616941e-01 -4.46467280e-01 -3.93449503e-04
-5.33797204e-01 2.92626649e-01 5.09393752e-01 1.88707009e-01 -1.27428818e+00 -2.05635592e-01 -5.48925519e-01 2.48285353e-01 7.74574518e-01 2.45918646e-01 7.07172871e-01 1.23366646e-01 -1.06705062e-01 -2.25529581e-01 -3.92391562e-01 -1.78823233e+00 -3.45237970e-01 -2.14959049e+00 6.78543627e-01 -2.54289389e-01 -4.31758940e-01 1.71655102e-03 -4.86243784e-01 -1.14292450e-01 6.05815724e-02 2.65567414e-02 1.76045448e-01 9.57078755e-01 -2.28820041e-01 -4.13510919e-01 -1.15238190e+00 3.53365660e-01
5.05744070e-02 -2.02941615e-02 -2.86512882e-01 -6.28425274e-03 -9.25170258e-02 2.04265296e-01 -8.14895704e-02 -4.13128018e-01 -1.24874018e-01 2.28347689e-01 2.84157187e-01 8.72426555e-02 2.92533547e-01 -1.07860668e-02 -3.38075310e-03 -3.30231994e-01 1.30241197e-02 7.78344274e-02 -4.55793962e-02 -3.02332580e-01 -3.61430913e-01 3.58148664e-02 5.93457706e-02 1.89328808e-02 1.88705131e-01 2.79018819e-01 -3.51287246e-01 -4.63192612e-01 -1.50920525e-01 7.16826916e-02 -2.36546192e-02 1.12177894e-01
2.53816038e-01 1.12901621e-01 -3.47045869e-01 3.47922742e-01 1.68845057e-01 -6.08606458e-01 1.46443561e-01 4.97478426e-01 4.75002751e-02 -2.44822383e-01 -1.36008129e-01 9.65151548e-01 3.21873635e-01 -4.51132506e-01 -1.77152112e-01 2.01435506e-01 5.28408408e-01 1.38140842e-01 2.34680623e-01 5.08737862e-01 -1.46230018e+00 -8.76221240e-01 1.24754906e-01 3.91454846e-01 1.78649485e-01 7.47848034e-01 5.96775711e-01 5.44663608e-01 -6.60754025e-01 4.86453950e-01 1.67636082e-01 -2.43756920e-01
2.25686252e-01 1.93601891e-01 -5.43827653e-01 -2.53163397e-01 1.21428430e+00 -5.46947479e-01 -3.52788389e-01 -4.04954821e-01 -9.78801370e-01 6.41466796e-01 3.38292718e-01 5.10726690e-01 6.75943375e-01 -3.43207389e-01 1.85474530e-01 1.87933052e+00 2.98530459e-01 1.18392813e+00 -4.70934689e-01 -1.16615541e-01 3.25928256e-02 -2.76886553e-01 4.72360142e-02 2.22276300e-01 6.46723956e-02 3.68402630e-01 5.94706051e-02 3.30945067e-02 -1.04490563e-01 1.54382348e-01 2.33224964e+00 -2.30402470e-01
-6.43582225e-01 2.12936655e-01 -4.22646068e-02 -5.43237329e-01 2.20657334e-01 2.04175618e-02 -8.31242576e-02 3.97441208e-01 5.42333901e-01 -1.47855148e-01 -5.15056448e-03 2.62815684e-01 2.05816209e-01 2.83694446e-01 -4.71978217e-01 -9.11915123e-01 3.26170504e-01 -7.73713887e-01 -4.32279199e-01 -1.11140974e-01 -6.90839648e-01 -2.02652782e-01 1.08805276e-01 2.52785534e-02 -2.50321478e-01 -7.50705302e-02 -1.94823205e-01 3.36055100e-01 2.83167005e-01 1.34022668e-01 -6.24483414e-02 -2.78723873e-02
2.86547065e-01 -2.84112930e-01 8.19332451e-02 -4.06232834e-01 -8.14848602e-01 -6.27297163e-01 -2.88238049e-01 1.33865044e-01 5.51551580e-01 1.65963665e-01 -5.71660161e-01 -7.88398758e-02 8.93137872e-01 -5.80096006e-01 -1.76616952e-01 -4.58121955e-01 -6.46105409e-01 -1.40805483e+00 9.86290202e-02 -1.15919383e-02 1.08347416e+00 -2.21072301e-01 -1.26483631e+00 -5.62584735e-02 -6.16547167e-02 -2.71870866e-02 -4.78807032e-01 -5.90547204e-01 2.45595545e-01 -4.35773522e-01 5.70025817e-02 3.65024775e-01
-1.14106484e-01 -3.42750736e-02 1.63636291e+00 -8.34471405e-01 -9.86974359e-01 4.51133624e-02 4.80059385e-02 -3.84472132e-01 2.01877818e-01 2.07116580e+00 3.77978757e-02 -1.66746713e-02 2.61416376e-01 3.18987584e+00 -1.91830531e-01 -9.17173564e-01 2.83579350e-01 -2.76575708e+00 5.56980789e-01 -3.71338964e-01 2.56690055e-01 5.54050505e-01 -4.75989848e-01 8.14555705e-01 -2.76479591e-02 -5.55375934e-01 3.27699065e-01 -1.19710684e-01 1.88311741e-01 6.01855740e-02 3.66309762e-01 -3.82419288e-01
-5.21048486e-01 -1.99698091e-01 8.98612261e-01 3.86234224e-01 -5.59827864e-01 5.39014637e-01 5.63930310e-02 -9.63473439e-01 3.31259489e-01 6.61734581e-01 1.34422898e-01 3.39335799e-01 -4.89927530e-01 -1.15624323e-01 4.39433575e-01 -4.00851822e+00 -9.68237296e-02 -5.85791492e+00 6.54002547e-01 -9.48847532e-01 -7.32880056e-01 4.10650432e-01 5.18355906e-01 -1.12967998e-01 -2.07862273e-01 -2.31174216e-01 -3.74501437e-01 5.75278223e-01 -6.49909079e-01 -3.54954123e-01 -6.53632879e-01 -2.95947790e-01
-2.21527852e-02 -1.18141301e-01 -5.90157807e-01 -1.17285438e-01 -1.64921179e-01 -3.40312347e-02 2.46543229e-01 3.82994711e-01 2.80441672e-01 -4.32520866e-01 5.17223418e-01 -3.00673068e-01 3.84416550e-01 -8.35037231e-01 -3.00086617e-01 -2.02075541e-02 -1.78185925e-01 2.44783506e-01 -1.33833379e-01 1.94602221e-01 6.16127765e-03 -8.84692818e-02 1.34349927e-01 -2.40939260e-01 -1.43515974e-01 8.03142488e-01 -5.66578805e-02 2.47732792e-02 -1.59310639e-01 2.08590090e-01 1.79932222e-01 3.77344757e-01
-1.01487029e+00 6.72752634e-02 -1.41528189e-01 4.43742275e-01 -1.60314977e-01 7.27113485e-01 -3.99402440e-01 -1.58638015e-01 4.14389223e-01 -5.42058945e-02 -6.57585442e-01 1.31302163e-01 5.74241430e-02 -2.11971313e-01 -1.33157194e-01 -6.77415490e-01 1.12808771e-01 -6.05291545e-01 -4.07290250e-01 2.07498059e-01 1.49497557e+00 8.04760337e-01 1.13959663e-01 3.67567539e-01 -3.17444205e-01 1.62368082e-02 -4.91017014e-01 -1.34804407e-02 7.45748699e-01 -1.35166749e-01 -1.04383133e-01 8.25896338e-02
-5.03375888e-01 -6.19517453e-02 2.12585643e-01 1.82963103e-01 -3.52729023e-01 1.98931530e-01 -1.07292974e+00 -8.25446397e-02 2.25274682e-01 4.87832355e+00 6.97613776e-01 2.37118348e-01 1.85206816e-01 2.42633581e+00 9.52808186e-02 -1.52370691e-01 -5.10989904e-01 -2.64507830e-01 6.39111251e-02 -2.78205931e-01 -5.86214125e-01 4.35850233e-01 2.45224118e-01 1.40390977e-01 -3.02011281e-01 -4.29709882e-01 -6.04166567e-01 2.28787705e-01 -1.01921313e-01 -5.97402275e-01 -1.36286035e-01 -3.30236644e-01
-5.49716428e-02 1.65436223e-01 1.51644014e-02 3.57955210e-02 -6.54917806e-02 -2.18688808e-02 1.48059167e-02 -6.29591867e-02 3.27223092e-02 -1.88444167e-01 8.47879425e-02 9.26458184e-03 3.87781709e-02 1.15352660e-01 1.07779190e-01 5.36249094e-02 4.14505079e-02 3.13160159e-02 2.40356792e-02 9.29347873e-02 2.30408341e-01 1.85335383e-01 3.14680021e-03 2.73354109e-02 3.94634455e-02 2.85293325e-03 5.03309332e-02 3.17176223e-01 1.62461884e-02 3.95290926e-03 -7.05392985e-03 4.57403883e-02
1.62350237e-01 -2.07505733e-01 -8.25964272e-01 1.18837692e-01 4.45463240e-01 -1.43040046e-01 -2.08691835e-01 -3.58342916e-01 -4.24397178e-02 -6.95481420e-01 9.09467712e-02 -1.21595431e-02 1.33385032e-01 1.24137424e-01 -2.37588249e-02 4.57465589e-01 -3.78584206e-01 6.96899474e-01 -1.87195748e-01 8.58076513e-01 2.20311984e-01 -6.76571578e-02 -3.06194246e-01 -4.48626243e-02 -1.95979476e-01 -5.01930475e-01 9.16166902e-01 -4.21571463e-01 1.56837970e-01 3.80408466e-01 2.35409826e-01 2.60963172e-01
-2.46355534e-01 -1.20703310e-01 -2.93784320e-01 -2.29186177e-01 3.83324981e-01 -2.57023238e-02 2.24760637e-01 1.55857965e-01 3.36266845e-01 -4.21604842e-01 -1.90524638e-01 -8.58372211e-01 4.97773439e-01 -1.76352009e-01 -1.39369860e-01 2.45694473e-01 -1.75549164e-01 2.81701177e-01 1.32412955e-01 -8.99674073e-02 -2.75923163e-02 -1.80608690e-01 4.09340560e-01 -3.62340927e-01 2.39568517e-01 2.33209267e-01 -2.03831479e-01 3.43462735e-01 7.35449120e-02 3.30327243e-01 5.28319836e-01 1.19022697e-01
6.74888864e-02 1.65953845e-01 -8.79738033e-02 7.29250759e-02 4.50303312e-04 1.45932302e-01 -6.63729524e-03 -6.01591431e-02 1.16467942e-02 6.85939118e-02 4.55575548e-02 1.44959450e-01 -6.16185479e-02 -1.18441097e-01 1.20947763e-01 4.14496630e-01 7.05723837e-02 -3.55367154e-01 -1.44929253e-02 -8.72728899e-02 -1.03363365e-01 -1.84995219e-01 -7.43741030e-03 -1.04733082e-02 3.65925767e-02 1.40139908e-01 1.65579449e-02 3.64010572e-03 9.87611935e-02 1.30496584e-02 -3.01595684e-02 3.55206728e-02
6.99315131e-01 -1.77471682e-01 4.62585658e-01 5.64376235e-01 1.79485139e-02 -3.97194505e-01 -6.73918009e-01 -1.42815217e-01 -3.77656281e-01 -1.14244914e+00 -6.94994777e-02 9.64915931e-01 4.64735836e-01 -6.76916242e-01 7.56795466e-01 6.96092427e-01 -1.06847711e-01 -1.48488197e-03 4.78288174e-01 4.44264561e-01 -5.12095988e-01 -2.89872047e-02 4.34412301e-01 8.87980536e-02 1.09083064e-01 -3.70548338e-01 1.29447281e-01 3.34933162e-01 -1.34018734e-01 -4.62578014e-02 1.46199137e-01 4.20337349e-01
1.47188261e-01 -1.97573379e-01 1.41936421e-01 1.79429933e-01 -1.04552098e-01 2.59211570e-01 9.52305377e-01 4.21345644e-02 3.92571151e-01 3.84273022e-01 3.56344521e-01 3.45730871e-01 -4.29554284e-01 -3.47335845e-01 2.10757360e-01 -9.88870680e-01 -1.21154405e-01 -8.22978318e-01 -6.42170757e-02 -5.09391189e-01 -4.79620367e-01 8.54839385e-03 4.53624457e-01 8.11240673e-02 7.76879936e-02 -4.67767954e-01 -6.77054226e-01 4.59154159e-01 -8.79211128e-02 -1.59665510e-01 3.60751003e-01 -1.00017279e-01
8.20090715e-03 -5.45182042e-02 -1.00765169e-01 3.99943918e-01 -2.27484778e-01 3.31952333e-01 4.02132243e-01 -2.60865301e-01 -2.73766696e-01 3.81284684e-01 4.06541713e-02 6.93557933e-02 4.43669498e-01 5.87141156e-01 -9.19485241e-02 -6.83964372e-01 4.89791483e-01 -3.76938581e-01 9.26442593e-02 -2.80413777e-01 -2.57600665e-01 7.50069469e-02 -4.99230325e-01 1.66025326e-01 -3.15624803e-01 -9.82946754e-02 -6.70185238e-02 -5.54343939e-01 1.03388228e-01 -1.20200500e-01 -1.41659200e-01 -3.24614257e-01
7.17594802e-01 3.54797542e-02 -3.19834709e-01 9.91914570e-02 3.43805820e-01 -4.22194302e-01 4.80020083e-02 3.97647649e-01 1.35610819e-01 -2.74289966e+00 3.47364172e-02 2.38197461e-01 4.55731839e-01 -1.66094625e+00 6.50984719e-02 5.13579488e-01 2.40140676e-01 4.22582954e-01 -3.29695076e-01 9.26381871e-02 4.46663171e-01 -1.93965599e-01 -2.09932834e-01 -6.15442097e-02 -4.12953943e-01 -1.20378159e-01 -1.14183925e-01 -1.50477514e-01 2.96092987e-01 3.20257060e-02 -6.11420460e-02 -1.26973331e-01
-1.03199077e+00 1.58937097e-01 1.32904857e-01 1.05159886e-01 -3.70613962e-01 -3.06974739e-01 1.14501286e+00 1.30529637e-02 -1.02298534e+00 8.15592825e-01 -6.87702119e-01 -1.81116592e-02 1.94592431e-01 8.12077597e-02 -7.08981514e-01 3.05600882e-01 6.07056558e-01 2.49694392e-01 -2.00746618e-02 1.22011555e-02 -6.48299307e-02 4.79106575e-01 5.18708289e-01 9.40724075e-01 -5.49702227e-01 5.35335362e-01 -6.40780091e-01 -1.60686038e-02 8.84132564e-01 -4.65499490e-01 9.99243930e-02 1.57762364e-01
-5.67172229e-01 6.00690246e-01 -2.99211834e-02 -1.64425239e-01 6.00602984e-01 1.84587300e-01 -2.16323994e-02 5.40727913e-01 -2.93450087e-01 5.13077974e-01 4.67943028e-02 -1.52253270e-01 2.42394179e-01 2.05848873e-01 -5.32564938e-01 -1.14527799e-01 -1.12166144e-01 6.13849349e-02 3.73988628e-01 -3.61743957e-01 3.98210101e-02 -2.52668381e-01 3.03681772e-02 -5.33893287e-01 1.59418449e-01 -1.84241280e-01 -5.86548567e-01 -5.72227359e-01 1.85140029e-01 -3.83281857e-01 -2.43196011e-01 -3.32604080e-01
-3.17850262e-02 2.38684893e-01 4.70714450e-01 3.36420983e-01 -2.83428103e-01 -4.15958703e-01 -1.16253123e-01 -2.72687934e-02 3.14459741e-01 -6.03875160e-01 -6.28257334e-01 3.84430364e-02 -2.53877580e-01 -2.79764533e-01 4.77490164e-02 5.99467874e-01 -6.94452301e-02 1.23299882e-01 3.43938351e-01 2.34380499e-01 -1.07226809e-02 -7.48674512e-01 7.60955140e-02 7.07297176e-02 2.89538652e-01 1.74347341e-01 -6.19094120e-03 -5.05394399e-01 -2.78291225e-01 -1.47473410e-01 -4.41154353e-02 -2.70408750e-01
-7.58024514e-01 4.45445657e-01 -6.05498850e-01 -1.00264609e+00 -2.90763736e-01 -2.58643925e-01 -3.74380797e-01 3.74157757e-01 1.83513984e-01 3.88785690e-01 -4.48508076e-02 1.85927406e-01 1.68942302e-01 2.23385900e-01 1.12575591e-02 8.65849137e-01 6.61602437e-01 1.09369683e+00 -6.09027684e-01 5.41653521e-02 5.79282522e-01 -7.67130256e-01 -6.37105942e-01 3.95305187e-01 -1.40395626e-01 -4.31711435e-01 2.82726824e-01 2.37457111e-01 6.58906639e-01 -8.07451546e-01 1.25585660e-01 -2.57072330e-01
-1.15275182e-01 -5.65727413e-01 9.58861932e-02 -7.47718289e-02 -7.41807044e-01 6.95394516e-01 -4.13057692e-02 -4.71798033e-01 5.85818946e-01 9.85031545e-01 -1.51868954e-01 3.96964140e-03 5.13569057e-01 4.83042419e-01 7.41676912e-02 -1.14325500e+00 -5.04922807e-01 -1.12928748e+00 -3.67447436e-02 1.57059565e-01 4.04514462e-01 3.65501761e-01 3.11748087e-01 2.16981664e-01 3.91782850e-01 5.86544983e-02 -3.74344170e-01 -4.20880914e-01 -2.49105260e-01 -2.93309331e-01 3.81100386e-01 1.76950574e-01
1.14613157e-02 -1.01060319e+00 2.96143264e-01 1.65126896e+00 1.66222900e-01 4.11262922e-02 -7.47139603e-02 -3.34868699e-01 -2.53611356e-01 2.20660523e-01 1.14123595e+00 -1.02139020e+00 -1.17290533e+00 -3.45087111e-01 2.18650296e-01 -1.37733713e-01 -1.23652077e+00 5.99444687e-01 7.00103760e-01 -6.28600419e-01 8.01276445e-01 1.26050591e-01 -3.75267267e-02 -7.97646940e-02 9.85670462e-03 -5.80473125e-01 2.73016989e-01 -1.08945491e-02 -9.47488248e-01 1.33106172e+00 -5.25521696e-01 6.13837168e-02
-5.81176221e-01 -1.35402709e-01 6.96835458e-01 2.53465116e-01 -7.91887879e-01 7.85286799e-02 1.84521690e-01 -2.08930328e-01 -7.60117918e-02 -2.44112477e-01 -9.27578866e-01 2.05134898e-01 3.28906029e-01 2.40897879e-01 9.31807831e-02 -7.08296597e-01 2.76623279e-01 -8.69601429e-01 3.83114606e-01 -4.65723574e-01 -9.92277265e-01 3.96345705e-01 -2.00778693e-01 -5.86799979e-01 8.82716402e-02 4.38544273e-01 1.14450678e-02 1.93799496e-01 -5.95960617e-01 -1.12261944e-01 -5.06356835e-01 9.71672684e-02
-3.03053826e-01 -3.64203900e-01 -1.12274520e-01 -1.27469078e-01 -2.73523748e-01 -5.30584119e-02 1.98338315e-01 2.40770787e-01 -6.59581602e-01 1.38428926e+00 -1.20011136e-01 -1.37044266e-01 -5.29900551e-01 6.00022376e-01 -1.31248251e-01 7.54748732e-02 1.31553160e-02 1.82208121e-01 1.33482469e-02 -2.01622382e-01 1.96758166e-01 1.39703736e-01 3.72117937e-01 1.30822927e-01 -7.40540260e-03 -9.90533456e-02 -1.64482638e-01 2.32942089e-01 2.39379063e-01 3.34485114e-01 -1.27458066e-01 1.58290043e-01
-1.90690681e-01 -1.92948148e-01 1.43735081e-01 -1.76776260e-01 -6.07249439e-01 4.59448546e-01 -3.26206386e-01 -3.52248132e-01 2.74759948e-01 -4.59317982e-01 2.26080436e-02 3.91367346e-01 2.73977309e-01 3.76420826e-01 1.53018624e-01 -7.60388494e-01 -3.43895614e-01 -1.47754967e+00 -8.19558650e-02 -2.54377365e-01 -8.78886953e-02 9.90134597e-01 4.19636101e-01 5.56759775e-01 -4.66490924e-01 2.02318996e-01 4.62089032e-02 -2.46655092e-01 -3.03395450e-01 -3.36789697e-01 -4.30051148e-01 -7.91025236e-02
7.52121732e-02 -7.88631439e-02 2.60003023e-02 -7.90691897e-02 3.57192069e-01 -5.91393821e-02 7.03546479e-02 -3.25455517e-01 -2.00983733e-01 3.37363660e-01 1.30225077e-01 2.23481253e-01 7.57141560e-02 -3.52965742e-01 -5.14833517e-02 -3.16314250e-01 5.70630245e-02 1.43314168e-01 -2.06802085e-01 -5.34137607e-01 1.65766284e-01 -2.44409710e-01 -1.13193482e-01 -8.00455064e-02 4.05446105e-02 2.26433784e-01 -4.57802266e-02 -3.76091786e-02 1.13738917e-01 7.93990567e-02 1.00762390e-01 -4.79935333e-02
1.31324098e-01 -6.38927400e-01 -2.87934482e-01 8.74471128e-01 -2.64271796e-01 -4.15733993e-01 1.77009076e-01 -2.35808149e-01 -3.22771594e-02 3.06229663e+00 -4.61685538e-01 8.99711192e-01 5.47226608e-01 1.03648877e+00 8.27379525e-01 3.52760591e-02 -7.40013570e-02 8.55272859e-02 6.47640586e-01 2.51790017e-01 2.81333745e-01 4.99499366e-02 -2.11360216e-01 1.16915846e+00 -2.18657833e-02 3.75240222e-02 -1.91946059e-01 2.74142176e-01 -6.88559338e-02 1.41601905e-01 7.23569334e-01 -1.51994023e-02
-1.52174205e-01 1.95308238e-01 2.12605461e-01 7.59237111e-02 -3.37849855e-02 -6.97492585e-02 -4.68564732e-03 1.10059470e-01 2.16939561e-02 -4.23576050e-02 1.84047729e-01 4.46800925e-02 8.23734477e-02 -1.88918207e-02 1.64499998e-01 2.36661568e-01 3.02034151e-02 -1.15248516e-01 8.14738311e-03 7.31673837e-02 -1.81340635e-01 1.86885055e-02 -1.08233597e-02 9.00896825e-03 -4.95280892e-01 -2.42496282e-01 4.20213602e-02 -8.62826854e-02 -5.57153039e-02 -4.98497561e-02 -1.57595631e-02 -4.23049361e-01
1.65836830e-02 -9.06266421e-02 -1.18909068e-01 2.52198987e-02 -1.69001520e-01 6.35808259e-02 -3.75863500e-02 1.76434413e-01 2.98650917e-02 -1.88358836e-02 -3.30141187e-02 9.00090672e-03 -5.77593483e-02 6.81805005e-03 -4.73073721e-02 2.04319477e-01 -9.89301428e-02 -1.70787737e-01 -2.61879712e-02 3.45425427e-01 -2.37336785e-01 -1.55101568e-01 9.88257467e-04 9.21424199e-03 1.39122726e-02 -8.08109716e-02 -5.66736124e-02 -7.26001933e-02 -7.68725649e-02 5.07956259e-02 8.07287404e-04 -1.06521314e-02
5.55565715e-01 -2.10064858e-01 4.80572999e-01 3.48415315e-01 -8.33994269e-01 -9.03517473e-03 -6.47657275e-01 1.15629798e-02 8.95503581e-01 1.73655108e-01 -1.34197772e-01 -3.21005434e-02 4.53805290e-02 2.51094431e-01 6.34611845e-01 -1.27137423e+00 -4.20243680e-01 -1.16358495e+00 7.05336094e-01 -2.70849913e-01 -6.31305218e-01 2.98718363e-01 -3.49986851e-01 2.68457234e-01 7.09959984e-01 -6.34750873e-02 2.28881150e-01 -2.28661299e-01 -5.27095020e-01 2.32982233e-01 -8.84547085e-02 2.21157804e-01
-6.98369294e-02 -4.79481131e-01 -2.67055482e-01 4.33739871e-01 -5.47482036e-02 -4.14426386e-01 1.52100891e-01 2.37025488e-02 2.76283443e-01 -1.27458543e-01 -2.18869016e-01 4.29209948e-01 3.31905186e-01 -1.57886311e-01 3.60450834e-01 -1.27635360e+00 -3.51113021e-01 -1.31840253e+00 3.67256224e-01 -4.70081866e-01 -1.68392628e-01 -6.85866028e-02 4.52675343e-01 6.28220677e-01 -1.00529134e-01 -3.48638803e-01 4.58234727e-01 -2.93094497e-02 1.66622305e-03 -4.00617987e-01 1.24130294e-01 1.74923897e-01
-1.21210277e-01 -2.74241306e-02 8.55102420e-01 3.32651325e-02 -1.21400511e+00 -2.48490468e-01 1.06836073e-01 -3.38566564e-02 7.50862896e-01 6.53548539e-01 -1.97604492e-01 -3.40636820e-01 8.67307708e-02 5.20117104e-01 2.75216904e-02 -2.32773566e+00 -2.94772059e-01 -3.00705814e+00 2.48058476e-02 5.73220514e-02 -7.03607142e-01 7.29836166e-01 2.80797482e-01 -6.02315925e-02 4.28100884e-01 2.21764445e-01 2.55657166e-01 -1.31171653e-02 4.05996181e-02 -8.37929308e-01 -1.83391675e-01 -3.06858681e-02
-2.46896476e-01 -1.32285655e-01 -1.21571854e-01 -3.55975896e-01 -5.12236774e-01 5.74699640e-01 9.81167182e-02 -3.27532776e-02 7.77693689e-02 3.54225397e-01 -2.35008687e-01 1.09232269e-01 1.32571906e-01 -2.97797799e-01 -1.91419318e-01 -7.89956987e-01 3.82361680e-01 -9.60174322e-01 -3.41091216e-01 5.48286177e-02 -2.81672120e-01 4.84924912e-01 -1.46139532e-01 3.34066421e-01 3.76993090e-01 -4.48308110e-01 4.06439006e-01 3.94991599e-02 1.38252303e-01 5.42645492e-02 -3.06292146e-01 5.71037363e-03
5.17513990e-01 6.71609521e-01 6.64904892e-01 -3.96537244e-01 1.25808612e-01 1.35962278e-01 2.07305208e-01 -1.52169466e-01 -7.61333585e-01 1.21622729e+00 -3.18875045e-01 -1.78033620e-01 -4.48986292e-01 1.19401407e+00 1.68796882e-01 5.51036112e-02 9.24678054e-03 -1.05287218e+00 3.40153754e-01 -2.94402689e-01 2.03706436e-02 6.78731561e-01 -2.48939112e-01 -3.88314754e-01 6.16604984e-01 -7.90355682e-01 5.00274956e-01 -3.61415856e-02 -3.68017316e-01 -5.97059429e-01 2.18691658e-02 -4.30418193e-01
-1.58351995e-02 -4.53672886e-01 9.46660042e-02 -1.17704064e-01 -6.46859780e-02 1.47747293e-01 4.97561097e-02 -3.34446728e-01 -4.62758213e-01 -3.47800016e-01 -5.00813313e-02 -4.98669185e-02 -1.54829040e-01 4.58225965e-01 5.85439861e-01 2.83258021e-01 1.89774886e-01 -2.86869794e-01 8.38750526e-02 8.40230808e-02 -1.91822752e-01 2.37096533e-01 -3.70285273e-01 2.18234107e-01 -1.63965952e-02 -3.14515173e-01 4.61971134e-01 6.74348831e-01 -4.29443717e-01 -3.98887515e-01 2.64692694e-01 2.76410609e-01
-1.24351144e+00 4.58681546e-02 9.42208618e-02 -1.28479433e+00 -1.59217995e-02 1.29048496e-01 2.17726693e-01 7.33740270e-01 3.36317010e-02 3.84638935e-01 -9.60767388e-01 6.10243201e-01 1.05484915e+00 3.87188971e-01 -5.54059625e-01 4.14653480e-01 5.19692242e-01 -2.94224173e-01 -5.12059629e-01 9.90894318e-01 -5.19441426e-01 -3.32676768e-01 -1.28405914e-01 -2.29431614e-02 5.66458166e-01 9.25411999e-01 8.81932795e-01 5.98771870e-01 4.77591008e-01 -9.96787190e-01 1.91490322e-01 2.48091668e-01
-7.15963915e-02 7.78691918e-02 2.28022844e-01 -4.30692174e-02 3.95916522e-01 -6.91099390e-02 4.48046578e-03 4.62867692e-02 -6.80869743e-02 1.96976081e-01 6.18368527e-03 5.36256507e-02 -7.43496465e-03 -1.52300954e-01 8.41990113e-02 -1.78114250e-01 8.96241069e-02 2.67346315e-02 -3.44655178e-02 -4.08719987e-01 1.58273086e-01 -1.62109703e-01 2.92382203e-03 -2.49429699e-03 1.61916345e-01 -9.07467387e-04 8.44582170e-02 1.14770912e-01 3.17262188e-02 -8.76958668e-02 3.11534572e-03 3.60985771e-02
-1.30391285e-01 5.84071614e-02 2.24967524e-01 -1.15837064e-02 1.78087920e-01 2.90103946e-02 5.21982014e-01 2.22911164e-01 2.83506721e-01 -1.46187139e+00 -2.37135783e-01 4.24252093e-01 5.53339064e-01 -6.67325675e-01 -2.31268033e-01 -2.37828627e-01 3.61114055e-01 -6.99311852e-01 3.24768834e-02 -6.30726874e-01 1.09462452e+00 -4.47042733e-01 -5.14834784e-02 -1.38037395e+00 1.10243894e-01 4.40161169e-01 -9.00925636e-01 -1.12620854e+00 5.03569126e-01 2.36197049e-03 -1.90860674e-01 -4.03420597e-01
5.60122430e-01 -3.79087657e-01 -3.87524813e-01 5.01518309e-01 1.15510330e-01 -6.98397961e-03 -4.73723486e-02 -1.73163697e-01 4.66490448e-01 -1.51146188e-01 -7.05055743e-02 -1.03788450e-01 7.00294018e-01 -4.09746319e-01 4.34183598e-01 -2.91314095e-01 -9.38498825e-02 -3.62385660e-01 1.30440250e-01 -1.35931015e-01 -2.71322012e-01 6.05355166e-02 2.08723858e-01 1.56505972e-01 1.19090024e-02 -2.58515328e-01 8.54178548e-01 4.16239053e-01 -3.53426844e-01 3.98967564e-01 1.71317920e-01 2.73919314e-01
-2.74479210e-01 3.41084719e-01 -1.02197260e-01 -5.37934974e-02 -6.31926894e-01 -2.40316227e-01 1.01458505e-01 4.51571435e-01 -6.98203370e-02 -5.42272806e-01 -1.73401862e-01 -3.95648442e-02 -3.42642039e-01 1.87998325e-01 2.67204225e-01 -1.35756716e-01 -9.28691328e-02 2.80813098e-01 5.65822832e-02 3.55241537e-01 -2.53319949e-01 1.42074553e-02 -1.19932201e-02 -3.75825912e-02 -1.43292069e-01 -1.23513877e-01 2.57467866e-01 -2.44539872e-01 1.06225431e-01 3.81167908e-03 -1.99228600e-02 2.00956941e-01
2.42240392e-02 -5.84649861e-01 -1.03174271e-02 -8.48642141e-02 -2.19272748e-01 -8.84413794e-02 4.23289696e-03 -2.02156410e-01 -4.59531009e-01 5.30538619e-01 7.70793343e-03 5.44228218e-02 3.31125379e-01 4.65240240e-01 -7.23382235e-02 -6.06536150e-01 -2.28002891e-01 -2.29738563e-01 1.56520791e-02 3.31050828e-02 9.52274650e-02 -2.07268205e-02 7.02779770e-01 1.20556198e-01 -3.91716957e-01 1.95463568e-01 3.63242805e-01 1.03490055e-01 -1.15051620e-01 1.45178735e-01 -6.03382662e-03 -1.95979536e-01
9.64605987e-01 -5.72338067e-02 -5.72494984e-01 1.99362472e-01 2.48500839e-01 1.52540848e-01 5.60510218e-01 1.68529913e-01 -3.36427629e-01 -8.44381928e-01 -8.68828118e-01 1.37498021e+00 8.47639292e-02 -8.33064139e-01 3.56224924e-01 7.71472573e-01 -4.85979989e-02 7.27267802e-01 -1.66081175e-01 -3.35716903e-02 -1.61970675e+00 -3.55346471e-01 -7.84984469e-01 -8.46033022e-02 -5.21721244e-01 -1.33877154e-02 2.49612927e-01 7.17694819e-01 -4.89205010e-02 7.08236322e-02 -1.18101696e-02 5.57196319e-01
-8.05183277e-02 9.20232832e-02 -1.10465634e+00 9.10724774e-02 3.89932096e-01 3.30190539e-01 5.50416261e-02 -9.75929499e-02 1.13776177e-01 4.61180508e-01 -2.38141924e-01 -1.32632506e+00 2.22848326e-01 4.10935760e-01 -4.24981385e-01 5.88437319e-01 -8.64503607e-02 1.51724374e+00 -3.34376693e-01 -1.59630664e-02 1.80857792e-01 -2.80915499e-01 -2.66776886e-02 9.52941120e-01 -5.37046850e-01 6.25844955e-01 6.13289401e-02 -8.52693543e-02 -3.23220380e-02 2.78816670e-01 5.27687609e-01 1.53920218e-01
-3.57350223e-02 2.67910480e-01 -1.16216063e-01 -6.32169962e-01 -1.26928790e-02 8.26910853e-01 4.31479365e-01 8.09472263e-01 5.53982817e-02 3.69069725e-01 9.79780972e-01 -3.12800735e-01 1.01273216e-01 4.44057465e-01 1.62537873e-01 -4.40401793e-01 2.42995888e-01 9.33975726e-02 -3.58396143e-01 -5.61140776e-01 -1.12541690e-01 -1.66787744e-01 5.21866977e-01 2.09632307e-01 -3.41089159e-01 1.78246468e-01 1.88243147e-02 7.70318955e-02 -5.92688084e-01 2.45316222e-01 -2.10623145e-02 2.21305922e-01
1.16015077e-01 2.05344949e-02 -1.63157955e-01 1.21312030e-02 -5.14257923e-02 4.65197377e-02 9.00060683e-03 6.73240498e-02 -3.08128577e-02 2.22474262e-02 -6.90391362e-02 -3.53413910e-01 2.44533852e-01 2.38081187e-01 2.29811165e-02 6.46199211e-02 9.28715989e-02 -1.08858131e-01 1.09168403e-01 2.72801340e-01 1.38628602e-01 2.37502053e-01 -1.51478210e-02 2.37415016e-01 -8.78834128e-02 -2.79232711e-01 -1.65560842e-01 -2.04064354e-01 -3.30747515e-01 -1.43693954e-01 1.73511803e-02 -2.85215169e-01
3.70759457e-01 -6.18284941e-03 5.67076385e-01 3.77430737e-01 2.93637037e-01 5.39982855e-01 1.20446587e+00 -3.62749726e-01 4.15189415e-01 2.91999131e-01 -6.56039834e-01 2.50280440e-01 -5.08540094e-01 2.46001542e-01 -6.57625198e-02 4.10419255e-01 -5.80519617e-01 -4.16386783e-01 2.83266127e-01 -1.33690117e-02 -2.59316027e-01 6.23035014e-01 4.59897041e-01 8.02891374e-01 -1.84715539e-01 -1.60601854e-01 -2.42306575e-01 4.00362879e-01 8.90678912e-02 3.91358674e-01 2.03753754e-01 1.96715191e-01
-5.26883245e-01 -4.63658005e-01 1.55328596e+00 1.19134150e-01 -9.33202386e-01 -2.05918476e-02 -1.31924295e+00 -9.12846029e-01 4.29186255e-01 9.15631831e-01 8.71021599e-02 -6.59721851e-01 -3.11418325e-01 8.37657928e-01 5.82734108e-01 -2.09082770e+00 2.12426633e-01 -2.80470514e+00 1.63304913e+00 8.25300276e-01 -4.51086730e-01 1.77394223e+00 -2.90020972e-01 2.18544260e-01 2.89597839e-01 -7.07404792e-01 -2.27490470e-01 3.13714504e-01 1.86014906e-01 7.56082460e-02 4.67509657e-01 2.37621978e-01
-1.61044556e-03 -4.74776234e-03 1.36891127e-01 4.46761549e-02 3.43903691e-01 -4.03337479e-02 -1.69090815e-02 8.68200231e-03 8.26699585e-02 -1.70574803e-02 1.14054834e-04 -9.03022736e-02 9.29296836e-02 9.15703177e-03 -6.63242349e-03 -1.51803959e-02 -2.17531575e-03 -7.07303546e-03 -3.06380838e-02 6.60541505e-02 1.13968037e-01 1.07686624e-01 -9.48799308e-03 -9.56065394e-03 -1.29966944e-01 -1.60330608e-01 1.11527489e-02 3.83299649e-01 -2.96757482e-02 -5.18518724e-02 3.20725963e-02 -2.45608032e-01
-4.05801386e-01 -2.85084341e-02 -1.10971443e-01 -8.11658353e-02 -2.88084298e-01 1.49609119e-01 2.41167843e-02 7.50362158e-01 -2.30075702e-01 3.38421702e-01 -2.57356107e-01 9.07272339e-01 5.21330237e-01 3.45107257e-01 2.73930222e-01 8.40684697e-02 -1.71226293e-01 -5.21083139e-02 -2.63413161e-01 -5.00323176e-02 -1.65137708e-01 -5.95074117e-01 -1.28078997e-01 -2.15236112e-01 -3.38731080e-01 -1.44105449e-01 -6.17922783e-01 4.43897963e-01 -2.57151842e-01 -2.63155937e-01 2.95506477e-01 5.06668091e-01
-2.55301863e-01 -1.80524573e-01 7.19972372e-01 2.35147238e-01 -7.91794419e-01 4.21957135e-01 2.86294758e-01 -5.23472369e-01 5.52626133e-01 4.34699208e-01 -8.77451152e-02 3.64158720e-01 -6.43871427e-02 1.58981740e-01 1.73367381e-01 -2.18040395e+00 1.45307779e-01 -1.19201469e+00 -1.09622434e-01 1.92569599e-01 1.86347608e-02 2.58476675e-01 3.76015037e-01 2.13239163e-01 -1.84618905e-01 -5.18174112e-01 -1.03053465e-01 -2.71769375e-01 -3.63615543e-01 -5.06229520e-01 3.55127484e-01 -3.62003446e-01
-2.19969243e-01 2.84789614e-02 2.87943780e-02 2.06705585e-01 -4.31757122e-01 -2.72966474e-02 1.37891158e-01 -2.79586434e-01 -5.03982067e-01 1.86428928e+00 -3.07861924e-01 -1.58769667e-01 -3.45758140e-01 1.37309277e+00 -1.77070692e-01 -1.05658077e-01 -5.36173992e-02 -1.51692331e-01 -4.25489172e-02 -3.65906537e-01 9.73610207e-02 2.20484614e-01 -1.89427976e-02 -1.39405012e-01 -1.78030163e-01 -2.58666798e-02 4.84599978e-01 4.51534867e-01 1.39713272e-01 -4.05429184e-01 6.24255359e-01 -5.35411052e-02
-1.51406927e-02 -1.00610092e-01 8.92176628e-01 2.96208382e-01 -3.69537234e-01 -5.87027729e-01 -1.11199701e+00 3.20605695e-01 2.97011465e-01 1.51372835e-01 -9.51520056e-02 1.26709834e-01 2.99078196e-01 -1.29175127e-01 -3.12366039e-01 5.29383957e-01 7.26382658e-02 -1.27170503e-01 -3.04164290e-01 -2.09073827e-01 7.99807787e-01 5.85593224e-01 1.93505734e-01 -8.30171108e-01 1.64882034e-01 2.46080741e-01 -3.94669980e-01 2.37325937e-01 2.10831031e-01 1.48355290e-01 -4.78611141e-01 -4.19205666e-01
9.29090798e-01 -6.58386871e-02 4.51298892e-01 9.07336116e-01 -3.34597111e-01 -9.87459645e-02 -8.85843337e-01 -5.26893973e-01 1.02954090e+00 -2.64201736e+00 -1.58512130e-01 4.29079235e-01 -1.16970599e+00 -3.45177323e-01 8.53809118e-02 -7.30578721e-01 1.06518432e-01 -2.80756891e-01 5.26699245e-01 8.81857157e-01 3.44376326e-01 -4.68686938e-01 -2.12914062e+00 -5.68290174e-01 5.98427474e-01 6.18155777e-01 -8.77584100e-01 -4.74926293e-01 -3.57283803e-04 1.17058039e+00 -9.28700864e-01 -1.41966879e-01
-3.92262749e-02 1.88830748e-01 1.42050805e-02 -4.71892729e-02 -2.11796910e-01 -6.74389005e-02 3.52232754e-02 -4.66845073e-02 -2.02115867e-02 -3.40699106e-02 6.46200478e-02 6.92563727e-02 7.76797161e-02 -2.78128814e-02 1.50077283e-01 -1.20329276e-01 9.00525600e-02 2.17070863e-01 1.08273486e-02 -3.00049573e-01 1.23635150e-01 8.41151103e-02 -7.48639833e-03 -3.41506302e-02 -3.05050135e-01 -5.17964140e-02 1.31444642e-02 -6.10971414e-02 7.66563090e-03 -2.80980533e-03 3.83649766e-03 -2.16858044e-01
-1.54268682e-01 2.62250870e-01 1.81552792e+00 3.54611367e-01 -1.34696627e+00 3.64400744e-01 -2.49368340e-01 -4.18000847e-01 7.85406530e-01 6.52807593e-01 1.10218376e-01 -3.27767134e-01 -7.96306789e-01 9.50821757e-01 1.11425973e-01 -3.51945090e+00 -2.44997948e-01 -4.64757681e+00 1.98912650e-01 1.46538109e-01 -1.08052516e+00 1.12939060e+00 5.31963348e-01 1.24422371e-01 3.46511871e-01 -3.72202024e-02 -6.26757085e-01 5.35220802e-01 1.14872726e-02 -8.79189447e-02 4.49325293e-02 -1.13701992e-01
-7.55029142e-01 2.52226532e-01 1.80666551e-01 -6.47476077e-01 -1.24207050e-01 -2.24155307e-01 -2.54081160e-01 3.67751330e-01 6.75616041e-02 -5.01391217e-02 2.04894915e-01 -3.71569306e-01 3.36478591e-01 5.48301995e-01 -4.95601147e-01 -2.15331733e-01 1.05164625e-01 -1.20800421e-01 -1.79983243e-01 -1.26016989e-01 8.39248002e-02 6.57805443e-01 1.29607916e-01 -2.53100574e-01 -2.42809370e-01 1.73929423e-01 -6.15535975e-01 3.05634290e-01 -2.43304353e-02 -4.68804598e-01 -1.85150325e-01 -7.06226468e-01

layers.2.bias:
-1.45849395e+00
-5.12762725e-01
4.11718547e-01
-5.83352029e-01
2.55211502e-01
-5.73655963e-01
2.62386680e-01
2.16858697e+00
6.99345887e-01
8.02121282e-01
-9.60155725e-01
-1.36835754e+00
-2.30730727e-01
8.96852911e-01
-4.19782698e-01
-8.19555938e-01
-8.11893046e-02
-6.77722514e-01
3.37487310e-01
-7.54374713e-02
-9.44905803e-02
7.06685662e-01
7.28853881e-01
-4.57178876e-02
-4.94430125e-01
1.03014231e+00
-9.04576898e-01
-1.10411394e+00
3.42782170e-01
-1.07673323e+00
3.29587683e-02
-3.91767733e-02
7.40811527e-01
1.46550700e-01
-4.16753918e-01
-3.98329347e-02
-1.21376418e-01
1.24755692e+00
9.00402069e-01
-1.58217475e-01
8.89694095e-01
-1.84422716e-01
-5.86636364e-01
1.40746164e+00
2.66811788e-01
-1.14055681e+00
1.00600719e+00
-3.81788373e-01
7.74346828e-01
1.69987941e+00
2.51756012e-01
3.33340615e-01
1.20711841e-01
-5.47972918e-01
4.65983301e-02
-2.72341445e-02
8.27715158e-01
-1.85925841e-01
-2.00288311e-01
-5.95355093e-01
7.47346759e-01
5.86135872e-02
-4.11181152e-01
6.43404603e-01

layers.4.weight:
4.85521853e-01 1.15427778e-04 -6.93262890e-02 3.15189511e-02 -5.68404607e-02 -1.51089981e-01 6.00443454e-04 -6.99542582e-01 -1.55801564e-01 -4.12904710e-01 5.75310476e-02 7.45805800e-01 -1.85736215e+00 -1.12651683e-01 1.39210475e-04 -1.25428283e+00 -3.86714615e-04 6.96200207e-02 -1.27839958e-02 6.73047558e-04 4.36385274e-02 -3.84839587e-02 7.56865647e-03 2.35867053e-01 -6.54262081e-02 -3.01509928e-02 -1.60341356e-02 7.47053862e-01 -4.38294709e-01 3.88937563e-01 -3.07066441e-02 -1.13124043e-01 -1.57396764e-01 6.03931770e-03 9.88448337e-02 -5.36061416e-04 4.84896969e-04 -1.37908027e-01 3.73037495e-02 1.15365796e-01 -6.45717233e-02 3.23947102e-01 1.08388597e-02 -1.25823751e-01 6.07887225e-04 2.88104445e-01 5.50544914e-03 -4.22768644e-04 -9.31627899e-02 -6.55265808e-01 -2.14496572e-02 -7.28228986e-02 -4.11625690e-04 -4.27850857e-02 -1.14501381e+00 -1.22601865e-04 7.80678019e-02 -3.29544663e-01 -1.18711494e-01 5.24825193e-02 6.56579956e-02 -3.71244125e-04 7.77190506e-01 -1.96201112e-02

layers.4.bias:
-1.08062494e+00

