layers.0.weight:
3.31696361e-01 -5.67613244e-01 7.97264636e-01
5.69172144e-01 -8.09445798e-01 -5.80563486e-01
-8.31293464e-02 -6.13938749e-01 -5.77727258e-01
-1.07055378e+00 1.15616508e-01 4.58123112e+00
2.67282110e-02 4.11940843e-01 1.16166264e-01
-5.79876065e-01 8.58121514e-01 -1.84879377e-01
-1.31842160e+00 4.86020595e-01 -9.88645032e-02
-6.01682402e-02 7.88846374e-01 -9.23566997e-01
6.03414774e-01 -9.26082134e-01 5.12713566e-02
-1.11527514e+00 5.86289167e-02 -1.64189592e-01
7.53551662e-01 -9.85680073e-02 1.41279221e+00
-7.16238439e-01 -1.31785080e-01 -1.29353356e+00
-4.30584475e-02 7.12955832e-01 -1.57757306e+00
-1.16726887e+00 2.10410804e-02 5.00053525e-01
-6.46977663e-01 1.09646142e+00 7.52028525e-01
-1.81771189e-01 9.48456824e-01 1.64468549e-02
5.46070874e-01 -6.33792400e-01 -1.45019031e+00
-1.15504665e-02 1.12846863e+00 1.84981868e-01
8.07071701e-02 -9.54183042e-01 5.35116851e-01
3.41117471e-01 -1.28724232e-01 -8.64976227e-01
2.23475501e-01 1.65966094e-01 -5.10879010e-02
-3.24195027e-01 -2.56797969e-01 -1.00232065e+00
-4.64660525e-01 1.65601885e+00 -4.46076952e-02
-1.56447518e+00 4.06930357e-01 1.75152493e+00
1.05132234e+00 3.79940838e-01 -7.78481364e-01
2.59609371e-01 6.71772659e-01 -1.17486012e+00
-1.16151750e-01 -2.13369340e-01 1.90187418e+00
-3.97779703e-01 -2.44972542e-01 1.92939892e-01
3.22416067e-01 7.57217348e-01 -1.46468067e+00
-1.04933763e-02 4.65525806e-01 1.70563948e+00
-2.89658904e+00 2.84448242e+00 -1.78299040e-01
-1.26738083e+00 -5.19488692e-01 1.02004325e+00

layers.0.bias:
8.77201200e-01
4.81547834e-03
-1.42384720e+00
-6.34384930e-01
7.07518518e-01
-2.04255387e-01
-3.54310095e-01
2.86240637e-01
-7.45998621e-01
-1.59115899e+00
1.64644122e-01
1.80825554e-02
2.46107668e-01
-1.21306002e+00
-2.90836543e-01
1.43946290e+00
9.34610724e-01
1.82654703e+00
-6.68276668e-01
5.78918040e-01
-1.44309163e-01
-1.35729384e+00
1.02535832e+00
-7.05530941e-02
1.36946186e-01
5.60703695e-01
8.80503118e-01
-1.57881156e-01
-4.88352716e-01
7.31267482e-02
8.91685039e-02
-6.70209900e-02

layers.2.weight:
-3.13589245e-01 1.02290422e-01 1.12305127e-01 -4.64449286e-01 -1.60841763e-01 7.99300745e-02 1.82726800e-01 -1.19863905e-01 -1.33333534e-01 3.18405676e+00 5.98827517e-03 2.21960083e-01 -2.59941876e-01 2.50888515e+00 -7.41271526e-02 3.59017044e-01 -1.54643267e-01 5.13118744e-01 1.71863839e-01 -3.38009894e-01 2.15945706e-01 -7.74001032e-02 -5.39638996e-01 6.18312776e-01 -9.94383469e-02 5.61848998e-01 -7.70045221e-01 -8.89246687e-02 -2.18248248e-01 -1.94886953e-01 -1.53723881e-01 2.61345685e-01
-4.90085110e-02 1.98945135e-01 -8.96118224e-01 1.29870418e-02 -3.26365292e-01 9.90356058e-02 -7.62755036e-01 -4.72263068e-01 5.54615498e-01 6.06527805e-01 3.13413531e-01 -1.96434185e-01 2.75831729e-01 -5.60229123e-02 -3.65500689e-01 3.32809955e-01 -3.01652193e-01 4.31245983e-01 -4.39606577e-01 -2.66086403e-02 6.17699802e-01 -1.62247375e-01 -4.11828101e-01 -9.72481072e-02 1.30946962e-02 -5.35925888e-02 -3.63949448e-01 -5.42327404e-01 1.09935716e-01 -2.61548340e-01 2.33198870e-02 1.78391308e-01
5.25834784e-02 8.24863762e-02 -1.44629227e-02 -6.48635328e-01 -6.96139097e-01 -1.14214756e-01 -5.85421562e-01 2.26055980e-01 5.64902484e-01 6.32490098e-01 -4.42961931e-01 -1.93251520e-01 5.92601486e-02 -6.30843267e-02 -1.74162343e-01 -8.82744670e-01 -6.67894036e-02 -7.39396393e-01 9.49553723e-05 2.52333224e-01 -5.53151548e-01 -3.44525039e-01 3.01501453e-01 -1.04403913e+00 -6.42755866e-01 3.21454912e-01 -1.06697738e+00 3.61624479e-01 3.26510519e-01 -2.79062033e-01 -9.59867029e-04 4.91516978e-01
2.56631911e-01 -4.93968315e-02 8.03370327e-02 1.35444629e+00 3.98716569e-01 3.73635054e-01 6.49780035e-01 -2.53147691e-01 -1.27892256e-01 -5.28929494e-02 1.69479862e-01 -7.16441348e-02 -5.85785985e-01 1.50135100e-01 6.09291971e-01 5.57441771e-01 -2.59381294e-01 4.59225208e-01 3.39943647e-01 -8.96926284e-01 -8.97017837e-01 -1.60157874e-01 3.58466268e-01 1.39096057e+00 -5.93200862e-01 -5.66890597e-01 5.06946683e-01 3.74762058e-01 -6.75678432e-01 -1.55461371e-01 -3.19186449e-02 5.14665723e-01
1.53483540e-01 -3.44588816e-01 2.14698225e-01 -4.36093718e-01 1.02907889e-01 -3.94474030e-01 -1.34584534e+00 8.26529786e-02 2.33409896e-01 -7.55503476e-01 4.60524052e-01 -7.81137407e-01 7.63175786e-01 -9.11802113e-01 -1.14639595e-01 -8.46701443e-01 -3.00100952e-01 -8.34658563e-01 -7.64358714e-02 -7.56554455e-02 7.96324790e-01 -6.07786596e-01 2.78131127e-01 -3.28949869e-01 -8.59148085e-01 5.88446975e-01 1.11875303e-01 -5.80080092e-01 -2.77722061e-01 6.27534330e-01 -1.72493756e-01 1.29686251e-01
-4.43280935e-01 2.44132280e-01 3.32614213e-01 2.62618780e-01 -9.04018342e-01 -2.04141974e-01 -4.73385692e-01 2.54536033e-01 7.10894763e-01 9.74032581e-02 7.02501476e-01 1.99642703e-01 -1.69382870e-01 -3.00125390e-01 -3.10643852e-01 -1.31895697e+00 -3.76049757e-01 -1.46709156e+00 6.45620406e-01 -3.05487633e-01 -4.74951625e-01 -9.32295099e-02 -5.50059736e-01 -2.48800546e-01 2.24694476e-01 2.32439600e-02 2.37999573e-01 9.46287811e-01 -1.39090329e-01 -3.33981276e-01 -8.10436964e-01 1.97204188e-01
1.04924858e-01 7.87199195e-03 -2.80944675e-01 -3.09092179e-02 -6.44098446e-02 1.06984936e-01 5.32867620e-03 -3.97549480e-01 -1.32596374e-01 2.47767910e-01 2.50021935e-01 1.44784123e-01 3.26522321e-01 4.70387116e-02 -3.56029570e-02 -2.46164784e-01 4.15485241e-02 1.53810576e-01 -5.36967767e-03 -2.74127364e-01 -4.44077581e-01 4.15161252e-02 -9.67702921e-03 1.52467117e-02 1.91401005e-01 3.08590889e-01 -3.74818683e-01 -4.12762403e-01 -1.65998310e-01 4.69814725e-02 -4.11385596e-02 1.01578951e-01
2.42235467e-01 1.22340873e-01 -3.79686922e-01 3.68703514e-01 2.58717418e-01 -6.26712143e-01 7.66692609e-02 4.76502091e-01 9.06583741e-02 -2.69511044e-01 -1.17088623e-01 9.49855566e-01 2.88061708e-01 -5.46888888e-01 -1.88862324e-01 1.62534490e-01 5.12201846e-01 1.66782320e-01 2.11714104e-01 4.87223715e-01 -1.42906189e+00 -8.97785127e-01 1.57867447e-01 3.15824121e-01 2.31507570e-01 7.19091117e-01 6.14249229e-01 4.95192200e-01 -5.28351247e-01 5.06018162e-01 2.80954689e-01 -2.85992712e-01
4.08643521e-02 1.46297872e-01 -6.02496028e-01 -1.95368960e-01 1.32231045e+00 -3.65550995e-01 -4.66195554e-01 -3.40133876e-01 -7.05478609e-01 3.27239513e-01 5.01544118e-01 2.46957496e-01 6.32917166e-01 -1.68945454e-02 2.34133109e-01 1.77586925e+00 2.46014446e-01 1.38820982e+00 -6.12504601e-01 -2.07901865e-01 2.12344661e-01 -3.53893578e-01 1.49254441e-01 2.26255089e-01 3.31112504e-01 3.63168538e-01 1.01512097e-01 -1.04976885e-01 5.79929426e-02 2.21516788e-01 2.20378351e+00 -5.86408973e-01
-6.29976153e-01 1.70277670e-01 -4.54465896e-02 -5.46948612e-01 2.44310364e-01 -1.43165020e-02 -8.94548371e-02 3.64223003e-01 5.02993107e-01 -2.00617090e-01 -3.98405921e-03 2.63354510e-01 1.92512587e-01 2.48982996e-01 -4.57523197e-01 -8.52046669e-01 2.95266360e-01 -6.28639579e-01 -3.96966308e-01 -6.10162206e-02 -6.65937662e-01 -1.97380111e-01 6.61872178e-02 -4.36508767e-02 -2.32767224e-01 -9.35340300e-02 -1.98741317e-01 2.85223722e-01 2.87101775e-01 1.32758364e-01 -2.10985709e-02 -5.22055244e-03
3.41017932e-01 -2.48828322e-01 -6.89366683e-02 -4.29438233e-01 -4.40581292e-01 -5.59221625e-01 -4.01699603e-01 1.97416857e-01 5.24367809e-01 1.77586870e-03 -5.85609972e-01 -5.97232766e-02 9.20700967e-01 -4.93174583e-01 -2.42168874e-01 -2.81775028e-01 -6.07897520e-01 -8.48318279e-01 -5.34725226e-02 1.51522057e-02 1.06386006e+00 -2.45493859e-01 -9.88093793e-01 8.51883441e-02 3.71279754e-02 5.40578365e-03 -5.02303302e-01 -6.17543817e-01 3.69664907e-01 -4.62661207e-01 -1.87528372e-01 2.38921165e-01
-9.06527862e-02 -1.41837627e-01 1.66236603e+00 -8.53889883e-01 -7.79426217e-01 1.92239340e-02 2.67936178e-02 -4.04622585e-01 1.03684306e-01 1.73499489e+00 1.69979215e-01 -4.13073897e-01 2.75452405e-01 3.23129249e+00 1.57880206e-02 -7.05144584e-01 2.46886134e-01 -2.49964380e+00 5.81198096e-01 -3.45886886e-01 3.18564236e-01 5.77262044e-01 -3.99068654e-01 8.48268151e-01 -4.20614034e-02 -5.61024010e-01 3.11038345e-01 -1.52134433e-01 1.01665057e-01 5.77669740e-02 2.82560498e-01 -3.77213329e-01
-5.07191777e-01 -1.31484196e-01 8.48389745e-01 3.80903035e-01 -2.94829667e-01 5.07936716e-01 9.62728448e-03 -9.36561227e-01 2.91255087e-01 4.98582900e-01 1.62256464e-01 2.46741712e-01 -4.80579823e-01 -2.16840148e-01 4.05992627e-01 -3.52067876e+00 -5.56852892e-02 -5.41008615e+00 6.23786390e-01 -9.20069635e-01 -7.44388342e-01 4.03841466e-01 5.17298102e-01 -1.38240293e-01 -2.71785498e-01 -2.21417189e-01 -3.78917366e-01 6.05012059e-01 -6.56306803e-01 -3.53754818e-01 -7.40244925e-01 -2.42332727e-01
-5.84183373e-02 -1.13142960e-01 -5.62061667e-01 -1.19668067e-01 -2.09202215e-01 4.94331867e-02 1.66705295e-01 4.11110491e-01 4.10319954e-01 -2.86440879e-01 4.91421849e-01 -2.63272196e-01 3.87126923e-01 -8.80383074e-01 -3.30173552e-01 -1.47375628e-01 -1.91381320e-01 1.24523006e-01 -2.05599874e-01 1.78094283e-01 7.10462034e-02 -7.97730386e-02 1.76684588e-01 -2.69934297e-01 -7.20446408e-02 8.14551532e-01 -6.31000549e-02 -3.64273563e-02 -1.18337080e-01 2.06443131e-01 1.23474866e-01 3.02809149e-01
-8.63885224e-01 1.64422289e-01 1.76754966e-01 5.10942757e-01 -6.55767858e-01 6.05180919e-01 -3.92063826e-01 -3.69710416e-01 5.34107268e-01 2.37022623e-01 -5.86570978e-01 7.77479112e-02 -2.68127266e-02 -2.97422032e-03 -2.25609049e-01 -1.07213664e+00 5.95371723e-02 -1.25987148e+00 4.81279120e-02 1.43016607e-01 1.37901831e+00 9.25724149e-01 -1.39178127e-01 3.71352494e-01 -6.86870456e-01 -9.27522928e-02 -4.12472039e-01 2.42116332e-01 4.62480247e-01 -7.88547695e-02 2.40528025e-02 4.72234398e-01
-4.55017358e-01 -1.80487931e-02 3.93535458e-02 1.52812779e-01 -2.70928442e-01 9.75096673e-02 -1.03538370e+00 -1.31713465e-01 1.65820017e-01 4.78581381e+00 6.24563634e-01 3.20210755e-01 1.96400046e-01 2.59097910e+00 -2.18003243e-02 -4.31216285e-02 -4.24124599e-01 -1.21716358e-01 1.36441484e-01 -1.99289367e-01 -6.64998174e-01 3.87991369e-01 2.15815783e-01 2.84757227e-01 -3.87146711e-01 -4.49980766e-01 -6.14879489e-01 3.02645355e-01 -1.82707265e-01 -6.41162276e-01 2.04959422e-01 -2.48637646e-01
-4.76976112e-02 1.63689509e-01 -9.81128775e-03 3.43681239e-02 -7.01436624e-02 1.31003773e-02 -3.33676767e-03 -7.56837204e-02 2.40215324e-02 -2.25102052e-01 8.59834403e-02 2.49689557e-02 3.12181041e-02 7.68073499e-02 9.25916955e-02 3.62713113e-02 3.53770070e-02 -2.56997477e-02 7.15911202e-03 9.11896229e-02 2.28379652e-01 1.66159421e-01 6.87925145e-03 2.35028788e-02 2.42727119e-02 -4.21913015e-03 5.13078868e-02 3.15100491e-01 3.39831337e-02 -1.15638622e-03 2.05895845e-02 6.57715872e-02
3.09269816e-01 -7.84049332e-02 -6.31809592e-01 4.98466603e-02 1.84190720e-01 -3.69831234e-01 -3.46121967e-01 -3.08180004e-01 3.72556627e-01 -1.06700194e+00 1.17453933e-01 -9.84664932e-02 2.20402047e-01 2.38016844e-02 -1.60498112e-01 1.78339273e-01 -2.83693582e-01 4.84426528e-01 -1.09923966e-01 9.50293303e-01 1.88821778e-01 6.49453029e-02 -4.69787627e-01 -1.18592657e-01 -6.93621337e-02 -4.02064830e-01 8.48314345e-01 -4.82383281e-01 2.27913618e-01 3.11394691e-01 -1.10113211e-01 1.11340046e-01
-1.91376045e-01 -7.59580731e-02 -3.73773932e-01 -1.80667073e-01 5.72569072e-01 -1.05265692e-01 2.11121902e-01 7.96719417e-02 3.88841808e-01 -6.63620114e-01 -8.74484181e-02 -1.03147614e+00 4.46375489e-01 -1.80809706e-01 -2.20954239e-01 3.63224328e-01 -1.45821616e-01 4.91932452e-01 1.96771547e-01 -8.51083547e-02 -8.42340142e-02 -2.22688541e-01 3.86924505e-01 -2.81949997e-01 1.75428301e-01 1.65490568e-01 -1.48232937e-01 3.95994067e-01 -2.79553384e-02 3.79321456e-01 6.05957091e-01 1.83999285e-01
5.49438000e-02 1.75438225e-01 -5.39003983e-02 7.51651525e-02 -7.64220394e-03 1.14859298e-01 4.42525884e-03 -4.79355156e-02 2.81459633e-02 9.37271863e-02 5.25852218e-02 1.13103710e-01 -5.44323176e-02 -8.94348249e-02 1.30704910e-01 4.20782059e-01 7.93735385e-02 -3.13331306e-01 1.52413524e-03 -8.43096599e-02 -9.71348807e-02 -1.61232263e-01 -1.07554696e-03 -4.65920568e-03 4.49573621e-02 1.45237014e-01 1.62303094e-02 5.00466023e-03 7.81463385e-02 1.96980648e-02 -5.94289452e-02 2.43185963e-02
6.46826506e-01 -1.14323266e-01 5.07485807e-01 5.37454784e-01 -1.42206729e-03 -4.17241931e-01 -5.78573227e-01 -7.73941725e-02 -3.90801460e-01 -1.10478878e+00 -9.48324576e-02 9.76012111e-01 5.21943033e-01 -5.83407402e-01 6.80001318e-01 8.28749001e-01 -2.85995472e-02 3.66846845e-02 4.76892799e-01 5.09466290e-01 -5.92573404e-01 1.55263217e-02 4.01684821e-01 1.32616967e-01 3.21711116e-02 -3.19091022e-01 1.07827663e-01 3.87661427e-01 -1.76493600e-01 -7.42029101e-02 2.58767307e-02 4.91825640e-01
2.58653551e-01 -1.62337869e-01 1.08439930e-01 1.64802164e-01 -9.23547745e-02 1.33271813e-01 9.61072385e-01 -3.35956109e-03 4.43928301e-01 2.62587339e-01 3.74832302e-01 3.46085429e-01 -4.37389284e-01 -4.64992374e-01 1.63518935e-01 -1.04279470e+00 -1.11031383e-01 -8.12809885e-01 -1.00873858e-02 -4.73155707e-01 -4.81952876e-01 -8.03228468e-03 2.95311540e-01 -1.96969565e-02 7.13471398e-02 -4.67208445e-01 -6.90780163e-01 4.31019664e-01 -1.03644796e-01 -1.73549607e-01 3.24589431e-01 -5.94010800e-02
-3.99595238e-02 -4.64757942e-02 -2.39967495e-01 4.18065369e-01 6.07824214e-02 4.70128953e-01 1.18997395e-01 -2.41387933e-01 -2.38902166e-01 2.96075493e-01 7.29474351e-02 -4.42902185e-02 4.28103000e-01 3.82426053e-01 -8.79295394e-02 -5.12842894e-01 5.31766772e-01 -8.23927224e-02 -2.49922015e-02 -2.47156993e-01 -1.03106342e-01 4.93689254e-02 -2.22837672e-01 1.76314130e-01 -1.94124728e-01 -1.04294457e-01 -5.09296171e-02 -7.57781327e-01 1.14208281e-01 -9.30935740e-02 -9.34506878e-02 -4.29287106e-01
6.92483664e-01 2.13354174e-02 -2.07193762e-01 1.16610974e-01 1.70474380e-01 -4.20061380e-01 -1.49179488e-01 4.10910517e-01 3.38592708e-01 -2.77124262e+00 8.23924169e-02 1.39595583e-01 4.45905685e-01 -1.78762150e+00 1.19305633e-01 3.28188211e-01 1.90817684e-01 2.19939336e-01 -3.04039657e-01 4.96471114e-02 5.57007074e-01 -1.56619936e-01 -2.89712191e-01 -1.07464477e-01 -3.17722559e-01 -1.15095362e-01 -1.08842246e-01 -2.50243217e-01 2.97231764e-01 6.13353364e-02 -3.07715535e-01 -2.21059427e-01
-7.20637977e-01 8.57622847e-02 -7.07838088e-02 1.44737467e-01 -9.10857245e-02 -4.32877153e-01 9.75985050e-01 -1.47770897e-01 -1.06854105e+00 9.89037573e-01 -8.19209874e-01 2.65618175e-01 1.08809017e-01 1.16647340e-01 -5.99738181e-01 5.51850379e-01 5.51126063e-01 6.42173409e-01 3.49525124e-01 -2.50063799e-02 -2.69658774e-01 3.08375925e-01 3.53330553e-01 9.78224456e-01 -3.19140583e-01 4.59452093e-01 -5.99562287e-01 3.21574323e-02 9.09095168e-01 -4.33986396e-01 3.04603666e-01 -1.19114690e-01
-5.69507122e-01 6.15751565e-01 7.42066698e-03 -1.80416167e-01 4.64193821e-01 1.64747313e-01 -1.72710028e-02 5.12114942e-01 -2.85730064e-01 5.06986022e-01 4.01393846e-02 -1.38285488e-01 2.37524584e-01 2.15198308e-01 -5.49521565e-01 -3.59646708e-01 -1.22827403e-01 -1.73618570e-01 4.05702025e-01 -4.00842696e-01 -1.91257279e-02 -2.32250556e-01 7.09085027e-03 -4.51298833e-01 6.59859255e-02 -1.94139123e-01 -6.03634775e-01 -4.47497517e-01 2.09207267e-01 -4.05994624e-01 -2.53648281e-01 -2.56772220e-01
-1.08089454e-01 2.53201395e-01 4.12587762e-01 3.35281432e-01 -2.96830684e-01 -3.40781242e-01 2.24103168e-01 9.21186060e-03 8.74852613e-02 -3.66681129e-01 -6.81679845e-01 9.80651230e-02 -2.43508726e-01 -9.79550034e-02 -4.54580933e-02 7.38455713e-01 -4.98794466e-02 2.24082753e-01 3.07463735e-01 2.20847726e-01 -1.83401987e-01 -7.40830779e-01 5.38195595e-02 1.53190061e-01 9.33132023e-02 1.66752696e-01 -4.73897252e-03 -2.68321067e-01 -2.88463712e-01 -1.54129922e-01 1.49207607e-01 -9.91729200e-02
-7.55352020e-01 5.11369467e-01 -5.79201996e-01 -1.05490136e+00 -2.42736965e-01 -2.79904574e-01 -3.61007750e-01 4.78823364e-01 9.26404446e-02 4.35479730e-01 -1.27280951e-01 2.56925315e-01 2.44468153e-01 2.84088343e-01 -6.25521839e-02 1.08462596e+00 7.31773317e-01 1.10305405e+00 -6.39235675e-01 1.16873436e-01 4.29436624e-01 -7.05986381e-01 -7.11337626e-01 3.79340500e-01 -2.29975864e-01 -3.70513499e-01 2.36514330e-01 4.13075894e-01 5.03721476e-01 -8.61173391e-01 2.25537255e-01 -2.01949567e-01
1.19455285e-01 -6.10562265e-01 -3.99622731e-02 -7.57933035e-02 -5.85737765e-01 7.19099164e-01 9.26149860e-02 -4.92886186e-01 3.81187767e-01 1.48430264e+00 -2.61010528e-01 1.96552768e-01 4.96563554e-01 4.61625606e-01 1.17233671e-01 -9.52640474e-01 -5.21768451e-01 -9.23713803e-01 -2.43418831e-02 1.47942901e-01 2.59069413e-01 3.32311690e-01 3.11279237e-01 1.64926603e-01 3.10455978e-01 4.80797365e-02 -3.73348504e-01 -2.70979792e-01 -2.32411489e-01 -2.99342930e-01 6.03689492e-01 2.64672399e-01
-3.36219668e-02 -1.05319571e+00 3.09916228e-01 1.62572241e+00 2.69771338e-01 9.88079831e-02 -5.11291027e-02 -2.66779989e-01 -2.94120908e-01 2.52343029e-01 1.11940932e+00 -1.00373554e+00 -1.12863731e+00 -3.06356639e-01 2.61385798e-01 4.80926521e-02 -1.29282486e+00 7.63049662e-01 6.18985176e-01 -7.09824443e-01 8.88754487e-01 1.48998633e-01 2.68603526e-02 -1.18332997e-01 1.21036261e-01 -5.22651792e-01 2.47529745e-01 -7.30201453e-02 -9.19024527e-01 1.31127620e+00 -5.10275900e-01 -1.03991546e-01
-7.08137095e-01 -2.31582806e-01 6.54740095e-01 1.67832017e-01 -5.86825013e-01 3.52297544e-01 2.90738076e-01 -2.77889520e-01 -5.93102336e-01 -1.83957890e-01 -1.18195355e+00 5.12805462e-01 3.70534867e-01 1.34221658e-01 1.90657154e-01 -7.06893325e-01 2.85746455e-01 -8.92306864e-01 5.01190364e-01 -4.16909575e-01 -1.26262128e+00 4.95694101e-01 7.94516355e-02 -6.68562949e-01 1.98314160e-01 4.86633003e-01 -7.35627413e-02 2.52272159e-01 -5.11595488e-01 -1.93180799e-01 4.77757007e-02 -4.20492664e-02
-2.76824147e-01 -4.60212559e-01 -1.79236457e-01 -1.12095349e-01 -1.43144712e-01 -9.50475596e-03 2.69976735e-01 2.45289341e-01 -7.41335034e-01 1.37951815e+00 -1.09616801e-01 -1.32726967e-01 -5.42070925e-01 5.56724370e-01 -3.16501632e-02 8.18466991e-02 -3.03029027e-02 1.88294545e-01 -5.21776900e-02 -2.23026901e-01 2.07287103e-01 1.12418689e-01 4.99242872e-01 9.58457366e-02 -8.93692207e-03 -9.77807343e-02 -1.50804445e-01 2.12990582e-01 2.37704381e-01 3.51091981e-01 1.89104334e-01 1.65880963e-01
-1.81640804e-01 -2.97227889e-01 9.93356705e-02 -1.50555655e-01 -4.92708743e-01 5.24224877e-01 -3.01836014e-01 -3.90082389e-01 1.55788943e-01 -3.48077208e-01 2.17507612e-02 3.93494695e-01 2.35602483e-01 3.34146380e-01 2.98484832e-01 -6.84422910e-01 -4.13840979e-01 -1.35452831e+00 -1.02338813e-01 -2.93347299e-01 -4.88998881e-03 9.48403537e-01 4.88299668e-01 5.46199918e-01 -4.20296371e-01 1.65787920e-01 7.50194266e-02 -3.11615407e-01 -2.97454029e-01 -3.07813466e-01 -1.61575019e-01 -1.15628317e-01
4.97300774e-02 -5.57950884e-02 7.82120675e-02 -8.55214074e-02 3.12487990e-01 -9.36811641e-02 5.36484830e-02 -3.09753299e-01 -1.84456483e-01 4.12129194e-01 1.31312340e-01 1.86826393e-01 9.03367847e-02 -3.03150654e-01 -5.18638045e-02 -3.09090823e-01 7.81816170e-02 1.90704852e-01 -1.87452659e-01 -5.22805452e-01 1.70633346e-01 -2.03093439e-01 -1.20182849e-01 -4.61840145e-02 1.63724739e-02 2.31510177e-01 -5.21574542e-02 -1.61536001e-02 8.32542330e-02 7.62772784e-02 -3.80593129e-02 -3.05480734e-02
5.52048422e-02 -5.71153283e-01 -1.57961115e-01 7.28484333e-01 -4.10262138e-01 -2.73000151e-01 9.31838751e-02 -5.31488582e-02 1.25060603e-01 3.37123561e+00 -6.38491988e-01 1.03696513e+00 7.01418161e-01 7.92454362e-01 7.80809283e-01 -1.21115394e-01 -1.75289356e-03 -8.53068680e-02 4.44871902e-01 3.18398923e-01 2.82494038e-01 2.22228542e-01 -1.48032233e-01 9.70556974e-01 7.42845163e-02 2.03745842e-01 -3.51824135e-01 2.48509869e-01 1.64634347e-01 -2.75427912e-04 6.39061928e-01 -1.12859629e-01
-1.20074198e-01 1.79404065e-01 1.72866642e-01 7.08169863e-02 -1.23107582e-02 -4.81156483e-02 -3.26700434e-02 9.24132764e-02 1.42973438e-02 -6.68775141e-02 1.77886218e-01 8.42399523e-02 7.60531425e-02 -4.04705703e-02 1.60486236e-01 2.40550771e-01 1.34538589e-02 -1.35062739e-01 -7.43726268e-04 7.04796761e-02 -1.85209259e-01 -1.50804743e-02 -1.28251454e-02 1.48974056e-03 -4.81273890e-01 -2.46884331e-01 3.87530439e-02 -1.02173641e-01 -3.15006748e-02 -5.84423654e-02 3.53338793e-02 -4.34764117e-01
7.60126917e-04 -7.97093734e-02 -4.05635014e-02 2.62023509e-02 -2.41249055e-01 1.65713485e-02 -4.40590158e-02 1.41315103e-01 6.57581538e-02 -5.56319095e-02 -1.36278570e-02 -3.50477360e-03 -7.83877894e-02 6.27902001e-02 -7.14879781e-02 2.39096686e-01 -1.18879288e-01 -9.75197777e-02 3.38689648e-02 3.29310298e-01 -2.47510448e-01 -9.13980082e-02 1.56531502e-02 -4.99590114e-02 1.53760090e-02 -1.11290529e-01 -6.18440695e-02 -6.02033027e-02 -3.70003767e-02 5.00096940e-02 2.59535108e-02 -3.55700403e-03
9.25117016e-01 -2.60483414e-01 4.46195930e-01 3.42638314e-01 -7.01854169e-01 -5.95081896e-02 -7.12655067e-01 -1.48910791e-01 1.01545656e+00 3.41293812e-02 -1.87977925e-01 5.31802140e-02 6.13536919e-03 2.02093169e-01 7.37685621e-01 -1.49432755e+00 -4.60478693e-01 -1.11815608e+00 9.68216836e-01 -2.80004948e-01 -7.18543947e-01 2.58397043e-01 -2.20741406e-01 2.07633734e-01 8.03719401e-01 -1.02504000e-01 2.23676205e-01 -2.04318106e-01 -5.41415930e-01 2.28445649e-01 5.77891581e-02 1.69532582e-01
-1.19127400e-01 -3.70588362e-01 -1.40772536e-01 3.29769671e-01 1.95643291e-01 -4.12213296e-01 1.79267954e-02 1.74784943e-01 2.48167157e-01 -1.27308935e-01 -2.93896168e-01 4.33459073e-01 4.43536311e-01 -4.04633313e-01 2.67103523e-01 -6.73529029e-01 -2.50234812e-01 -7.85059273e-01 1.52083024e-01 -3.40596437e-01 -1.14434762e-02 8.00658390e-02 5.22107303e-01 5.39890349e-01 5.87807447e-02 -2.19396204e-01 3.53432804e-01 -3.61853004e-01 7.91863501e-02 -4.89059299e-01 1.73110083e-01 6.05123602e-02
-6.44069985e-02 -6.46810010e-02 7.60609388e-01 7.19128773e-02 -1.02734268e+00 -2.39339858e-01 -9.99009907e-02 -6.87807426e-02 7.99603760e-01 5.32248259e-01 -1.71204209e-01 -3.62938255e-01 4.89946157e-02 6.23345852e-01 7.35457093e-02 -2.37070537e+00 -3.21460277e-01 -2.57142282e+00 5.31278066e-02 2.83646211e-02 -6.27007961e-01 6.65520430e-01 3.11294734e-01 9.07794759e-02 6.48789585e-01 1.81193605e-01 2.94845998e-01 -8.82262886e-02 1.97955109e-02 -8.00771773e-01 -4.70771343e-01 -3.13481838e-01
-2.38319755e-01 -1.89957470e-01 -1.54826358e-01 -3.58939171e-01 -4.44126219e-01 6.33555293e-01 8.96743387e-02 -5.54519668e-02 -4.29182872e-02 5.47930479e-01 -2.97538728e-01 2.77434647e-01 1.18119754e-01 -3.17120075e-01 -1.29054680e-01 -6.53686702e-01 3.78182918e-01 -8.03451478e-01 -3.33876967e-01 8.65435079e-02 -2.71746010e-01 4.63756204e-01 -1.28127635e-01 2.66000032e-01 4.37833965e-01 -4.62248713e-01 4.03053194e-01 -7.58036412e-03 1.52759418e-01 5.13583273e-02 -1.48706630e-01 -2.92226169e-02
5.11017025e-01 6.21015847e-01 6.36692047e-01 -3.76353920e-01 1.99554846e-01 1.36397675e-01 2.88972110e-01 -1.71606123e-01 -8.98277938e-01 1.29764163e+00 -3.37968141e-01 -8.60552639e-02 -4.65065598e-01 1.20693004e+00 2.14903831e-01 1.71538979e-01 -2.18154117e-02 -8.97554457e-01 3.72254193e-01 -3.16100299e-01 -4.56530089e-03 6.51942492e-01 -2.43679151e-01 -3.75098318e-01 6.18984938e-01 -8.03640902e-01 5.22675455e-01 -2.27898080e-02 -3.41296881e-01 -5.79235852e-01 3.91177312e-02 -4.32456523e-01
-9.43085700e-02 -3.90283018e-01 2.03492001e-01 -2.13736117e-01 -9.64251757e-02 1.85470909e-01 1.92334101e-01 -1.73739389e-01 -5.94738841e-01 -2.49708399e-01 -1.47935569e-01 3.51207927e-02 -3.38631086e-02 4.40667540e-01 5.07368386e-01 4.19524670e-01 2.88892537e-01 -3.24343115e-01 -6.09209687e-02 1.78578183e-01 -2.38325074e-01 3.34174573e-01 -3.55540663e-01 1.40646085e-01 -4.44206186e-02 -1.86129540e-01 3.63786370e-01 7.06773579e-01 -3.24631959e-01 -4.91616726e-01 2.36408085e-01 3.17307949e-01
-1.26948440e+00 2.22598433e-01 2.48213276e-01 -1.39318752e+00 -3.64539266e-01 -1.85722277e-01 1.42015219e-01 4.72335935e-01 2.52822816e-01 4.16530937e-01 -1.05119503e+00 8.84437144e-01 1.10983551e+00 3.53550941e-01 -8.37178230e-01 1.38668701e-01 6.26956940e-01 -6.10414982e-01 -1.89628094e-01 1.07930160e+00 -5.63621283e-01 -2.13137731e-01 -4.63237464e-01 -3.46842445e-02 6.09497547e-01 9.94085491e-01 7.73801446e-01 6.67659342e-01 5.79639554e-01 -1.12172055e+00 -3.43566611e-02 1.79925054e-01
-8.11158940e-02 8.53843689e-02 2.54575878e-01 -4.18158285e-02 3.99538010e-01 -1.02395847e-01 1.73506122e-02 5.42100705e-02 -5.17509766e-02 2.42483735e-01 9.25138034e-03 2.86232438e-02 -8.76952428e-04 -1.21654473e-01 9.78524759e-02 -1.67391911e-01 1.02007821e-01 8.17847475e-02 -1.55649846e-02 -4.02896672e-01 1.63812146e-01 -1.42938912e-01 2.15166970e-03 3.33479198e-04 1.75699338e-01 1.99934538e-03 8.38951245e-02 1.14110790e-01 1.01487851e-02 -8.27881396e-02 -1.55879576e-02 1.99733712e-02
-1.14198409e-01 1.42994940e-01 2.50795394e-01 -7.01624230e-02 2.04638407e-01 1.17616855e-01 6.04944110e-01 2.74194330e-01 1.59249932e-01 -1.27379560e+00 -2.96163321e-01 4.83198732e-01 6.11615777e-01 -3.71015161e-01 -3.54051620e-01 -1.52570918e-01 4.29975003e-01 -3.52415651e-01 -3.15671526e-02 -6.83296680e-01 1.13043189e+00 -3.43871176e-01 1.00264937e-01 -1.30343843e+00 1.03883140e-01 4.92268801e-01 -9.51892078e-01 -1.07706237e+00 3.40603650e-01 -6.41514808e-02 -1.60255238e-01 -3.99705052e-01
6.73150837e-01 -2.57614493e-01 -2.04789937e-01 3.86048526e-01 -1.69066563e-01 -1.16009682e-01 -2.62724049e-02 -9.97987166e-02 5.36670506e-01 -1.16086580e-01 -1.96347103e-01 1.66117381e-02 8.11474979e-01 -3.72485727e-01 3.08253974e-01 -3.44452769e-01 2.43689064e-02 -6.79804683e-01 2.56510973e-01 -2.11145561e-02 -4.14272457e-01 1.95186123e-01 7.10333139e-02 9.93842855e-02 -4.27680798e-02 -1.65362552e-01 7.42333055e-01 5.60585797e-01 -3.96714061e-01 2.83131182e-01 1.30154237e-01 3.07474911e-01
-3.11617583e-01 3.25322419e-01 -1.15959592e-01 -2.55090408e-02 -6.63349271e-01 -1.57057568e-01 -2.62419344e-03 4.32414055e-01 -1.16388919e-02 -6.09791219e-01 -1.23370156e-01 -1.04343012e-01 -3.77214670e-01 1.28907606e-01 2.81549931e-01 -2.85242021e-01 -1.11472562e-01 1.73930481e-01 2.61436105e-02 3.34227592e-01 -1.59280628e-01 -9.68006812e-03 5.31020537e-02 -4.72956561e-02 -1.11332975e-01 -1.43855795e-01 2.83875108e-01 -3.23633909e-01 1.34206519e-01 3.07710692e-02 4.08305526e-02 1.78076237e-01
1.78954843e-03 -5.80534101e-01 -8.72848332e-02 -7.28514791e-02 -1.54956311e-01 -7.22622722e-02 -8.18177536e-02 -1.91051453e-01 -3.58843446e-01 4.87023205e-01 2.66288240e-02 3.24326530e-02 3.21582764e-01 4.12267029e-01 -1.11994587e-01 -6.92989647e-01 -2.59022862e-01 -1.95511177e-01 -4.32425085e-03 3.76265217e-03 1.32729128e-01 -4.56665568e-02 6.52281463e-01 9.00411084e-02 -3.68919522e-01 1.95547864e-01 3.71021539e-01 6.35330006e-02 -6.33522570e-02 1.58471316e-01 1.70895606e-02 -2.18272939e-01
8.98292005e-01 2.02824086e-01 -4.49381649e-01 3.75984348e-02 -3.02320793e-02 1.35042429e-01 5.71586132e-01 1.86592519e-01 -7.85661414e-02 -8.06603014e-01 -9.79555011e-01 1.51894188e+00 2.05090776e-01 -8.07162464e-01 1.14254937e-01 3.31632435e-01 2.57452518e-01 3.16530854e-01 -5.21714985e-03 3.46401542e-01 -1.57976949e+00 -2.62598008e-01 -1.05539942e+00 -4.37749505e-01 -3.82314384e-01 2.93957815e-02 8.96709263e-02 6.89092100e-01 9.85601619e-02 -1.10366724e-01 -5.27017284e-04 4.18152094e-01
-1.29743174e-01 -1.98063135e-01 -9.50493991e-01 3.70638222e-02 1.50265351e-01 3.90472502e-01 2.78287053e-01 -6.55511394e-02 -2.42898390e-02 6.45016611e-01 -3.18498820e-01 -1.22659290e+00 2.71292239e-01 6.91819906e-01 -2.08117723e-01 5.86691678e-01 -3.46531779e-01 1.24055028e+00 -3.42499524e-01 -9.41377878e-02 2.20726207e-01 -1.72335982e-01 -3.04348227e-02 8.11274707e-01 -3.69602591e-01 6.63948596e-01 8.97343643e-03 -1.14921220e-01 1.19498186e-02 2.29819283e-01 6.75808907e-01 1.26577215e-02
-7.28499666e-02 4.22843605e-01 -7.60814995e-02 -6.51357591e-01 -2.00399145e-01 7.76237667e-01 2.05781549e-01 8.39973271e-01 4.29056436e-01 2.55419165e-01 9.49538589e-01 -3.10452431e-01 1.21632785e-01 2.18744501e-01 8.91856663e-03 -8.94153953e-01 3.21152806e-01 -2.12260157e-01 -3.69547248e-01 -5.14774382e-01 1.41124874e-02 -1.55230507e-01 2.54475236e-01 1.08833902e-01 -1.96060523e-01 2.13578776e-01 -2.91999034e-03 -6.69232979e-02 -5.06023824e-01 2.16509834e-01 -2.52294302e-01 8.52098018e-02
8.25121477e-02 2.92299800e-02 -8.53058398e-02 8.03080667e-03 -9.43712443e-02 4.12744954e-02 1.86574440e-02 4.25717942e-02 -7.06962310e-03 -5.61718717e-02 -4.43660766e-02 -3.74612123e-01 2.29096815e-01 2.20762417e-01 -7.71484198e-03 9.70653296e-02 6.20754994e-02 -6.00919686e-02 1.48109496e-01 2.37669677e-01 1.10107817e-01 3.13518792e-01 -3.22646881e-03 1.95996687e-01 -1.08352371e-01 -3.07896316e-01 -1.81636930e-01 -1.74700513e-01 -2.92716175e-01 -1.42917946e-01 6.35127723e-02 -2.59089202e-01
4.65543389e-01 2.40821794e-01 5.11528432e-01 3.54530990e-01 5.40322542e-01 3.53195608e-01 7.79937148e-01 -3.04257870e-01 8.56611490e-01 -2.37080514e-01 -6.50622308e-01 1.92652240e-01 -4.62600112e-01 -5.93320489e-01 -2.61978328e-01 4.05887365e-01 -4.22997892e-01 -2.97224760e-01 2.30836600e-01 1.19901523e-01 -9.87908244e-02 5.69995224e-01 1.66389152e-01 5.35901189e-01 8.35674033e-02 -6.09936677e-02 -2.68224001e-01 7.73726851e-02 1.94974557e-01 3.73687744e-01 -1.57104596e-01 -2.01820377e-02
-3.18332732e-01 -5.43927908e-01 1.53813517e+00 8.76047611e-02 -1.07762051e+00 -1.46725580e-01 -1.08613217e+00 -9.73995805e-01 4.16883647e-01 1.07461250e+00 7.19804168e-02 -5.13315201e-01 -2.90630519e-01 1.13702583e+00 6.19204819e-01 -2.35525513e+00 1.16223283e-01 -3.02881980e+00 1.78210402e+00 7.87307501e-01 -5.10139644e-01 1.68852592e+00 -4.20409322e-01 2.46496543e-01 3.78594339e-01 -6.84802175e-01 -2.55618334e-01 3.32821876e-01 2.13938251e-01 3.54557186e-02 4.03534055e-01 1.16814956e-01
1.27835739e-02 -1.67401619e-02 1.06787369e-01 4.07310724e-02 3.54062855e-01 -1.14949243e-02 -3.15619074e-02 -4.78069438e-03 6.99030831e-02 -3.09619438e-02 -2.98271095e-03 -6.27839789e-02 8.66384059e-02 -1.49273276e-02 -8.08014069e-03 -1.61521565e-02 -1.17782466e-02 -3.87209505e-02 -4.71991636e-02 6.49852380e-02 1.17694125e-01 8.29363912e-02 -1.44128269e-02 -1.51876565e-02 -1.39351442e-01 -1.67011812e-01 9.66139510e-03 3.73208523e-01 -1.29887722e-02 -5.88138700e-02 4.79673184e-02 -2.32215270e-01
-3.98160934e-01 -1.89839937e-02 -1.27762288e-01 -8.61631408e-02 -2.86814511e-01 1.06995389e-01 9.78565961e-02 7.35172272e-01 -2.30279759e-01 3.93127203e-01 -2.91760594e-01 9.94678438e-01 5.21653652e-01 4.28267092e-01 2.51374364e-01 1.82228431e-01 -1.67315692e-01 6.14226721e-02 -1.88682020e-01 -5.45443669e-02 -2.25997299e-01 -5.89746952e-01 -2.56541342e-01 -2.19760165e-01 -3.56194109e-01 -1.63075864e-01 -6.22077703e-01 5.11232436e-01 -2.61074632e-01 -2.68937200e-01 7.29338303e-02 5.21072745e-01
-4.92797159e-02 -2.60445058e-01 6.31110370e-01 2.50466883e-01 -6.37848258e-01 4.20281678e-01 2.73300797e-01 -5.52958608e-01 5.02004445e-01 5.97492099e-01 -1.48755223e-01 4.76045430e-01 -8.03341642e-02 1.30541846e-01 3.19282472e-01 -2.08716702e+00 8.64357501e-02 -9.92771327e-01 -3.73150245e-03 1.54946044e-01 2.96661397e-03 2.05910057e-01 4.36117500e-01 1.64391443e-01 -9.90943015e-02 -5.12879372e-01 -9.05564055e-02 -2.80145347e-01 -3.48337978e-01 -4.89644676e-01 3.74239862e-01 -4.39123660e-01
-1.64089829e-01 -8.44721943e-02 -2.19700679e-01 2.36718640e-01 -5.54032102e-02 -2.03655865e-02 2.24171564e-01 -2.66047299e-01 -5.12685001e-01 1.62823248e+00 -2.88696259e-01 -1.47542045e-01 -3.60745728e-01 1.37276363e+00 -1.15109280e-01 -3.75420228e-02 -7.94435963e-02 -2.43108626e-02 -8.95379111e-02 -3.91231298e-01 5.76573014e-02 1.16052523e-01 8.92609060e-02 -8.99074301e-02 -1.31134197e-01 -1.13643426e-02 5.12983501e-01 4.35368389e-01 1.56557232e-01 -3.77090305e-01 3.68363470e-01 -1.00852475e-01
-9.97736305e-02 -1.89248264e-01 6.95275843e-01 4.16524291e-01 -1.04163893e-01 -3.95053148e-01 -1.12393105e+00 2.68645108e-01 1.68536901e-01 3.70273054e-01 -6.10715430e-03 2.02278607e-02 1.87904581e-01 1.41872182e-01 -2.41650179e-01 7.44285047e-01 3.32587287e-02 3.02414954e-01 -3.90111864e-01 -2.75822788e-01 7.72732913e-01 5.16151845e-01 3.89918268e-01 -6.26049697e-01 1.64041266e-01 1.30356923e-01 -2.65987456e-01 3.25242996e-01 -2.00628508e-02 2.67520636e-01 -2.14125842e-01 -4.88811225e-01
8.40948045e-01 -2.81543642e-01 5.26735902e-01 8.38255644e-01 -2.27963939e-01 3.45779151e-01 -1.07066596e+00 -4.30008441e-01 6.85765564e-01 -1.50526929e+00 -3.75794888e-01 7.04838872e-01 -1.09509313e+00 -5.42676032e-01 6.33824348e-01 -4.18876380e-01 3.86811718e-02 3.86526547e-02 3.87101620e-01 8.87535334e-01 4.58292067e-01 -3.62894773e-01 -1.86792099e+00 -6.62973642e-01 7.45941162e-01 7.06863284e-01 -9.50827539e-01 -5.88314116e-01 1.25796348e-01 1.12212062e+00 -9.84458745e-01 -2.83728659e-01
-2.62724161e-02 1.85203612e-01 4.14274819e-03 -5.49306571e-02 -2.27684215e-01 -3.66884023e-02 -7.74915377e-03 -6.42242208e-02 -3.43679823e-02 -3.90629917e-02 5.76393418e-02 9.16081965e-02 7.28319734e-02 -6.86864108e-02 1.51004463e-01 -1.13231532e-01 8.39820504e-02 1.69104755e-01 5.40394010e-03 -2.97618002e-01 1.20666631e-01 7.29126781e-02 -4.09362977e-03 -1.94228292e-02 -3.34671944e-01 -6.00848012e-02 8.98655318e-03 -5.71019463e-02 1.68587808e-02 -1.36260623e-02 2.18479857e-02 -1.83197334e-01
7.85751715e-02 3.24445128e-01 1.59575820e+00 4.76571888e-01 -1.22737730e+00 1.79859385e-01 -1.39177009e-01 -5.34565508e-01 8.87690663e-01 5.06434321e-01 1.72125682e-01 -3.73827577e-01 -9.16003048e-01 9.41913724e-01 1.88867748e-02 -3.51677084e+00 -2.24961773e-01 -4.59835291e+00 3.20734113e-01 9.45220068e-02 -1.22021902e+00 9.72719729e-01 3.81770998e-01 1.54477894e-01 2.70167917e-01 -1.72122896e-01 -4.97590363e-01 6.55098379e-01 -1.55960962e-01 1.82002708e-02 -2.65790641e-01 -3.22114751e-02
-8.62617671e-01 1.81404576e-01 1.93782568e-01 -7.73362935e-01 -8.88309926e-02 -1.41943976e-01 -2.69176275e-01 4.88995403e-01 4.57613682e-03 1.74821001e-02 1.00660458e-01 -2.77717561e-01 4.51950371e-01 4.76267844e-01 -3.90988350e-01 -3.74195814e-01 1.96501136e-01 -2.22509921e-01 -2.91241378e-01 1.49681032e-01 1.64653867e-01 7.44540513e-01 2.13427171e-01 -2.24159911e-01 -3.28615904e-02 3.14608365e-01 -7.46917784e-01 5.44685163e-02 1.59078941e-01 -5.93024075e-01 -7.83179402e-02 -8.42220962e-01

layers.2.bias:
-1.42492461e+00
-7.46317863e-01
7.22139120e-01
-5.63498497e-01
2.49920994e-01
-4.84217763e-01
3.66711736e-01
2.13622379e+00
5.00374138e-01
7.92980492e-01
-8.98186564e-01
-1.40185678e+00
-1.87564090e-01
8.25880945e-01
-4.96730506e-01
-7.32415855e-01
-9.29568410e-02
-6.28614306e-01
4.10731047e-01
-7.18332231e-02
2.24578334e-03
7.36001134e-01
6.83842599e-01
-1.57352492e-01
-3.47501367e-01
9.93007243e-01
-8.49312007e-01
-9.82726872e-01
4.58315909e-01
-1.10203624e+00
1.53281242e-01
-3.37548889e-02
6.55256927e-01
1.39355451e-01
-4.27725673e-01
-3.28252614e-02
-1.53887540e-01
1.32655609e+00
8.85170817e-01
-2.05355823e-01
9.06203330e-01
-1.58836365e-01
-5.27877986e-01
1.29968262e+00
2.76144683e-01
-1.05665076e+00
1.12504900e+00
-4.70321387e-01
7.37805188e-01
1.62176538e+00
1.42795399e-01
2.17732117e-01
9.91817862e-02
-4.88907844e-01
1.27139211e-01
-3.34227905e-02
8.48729908e-01
-1.62945807e-01
-9.72426087e-02
-5.88847995e-01
5.91589212e-01
4.60528843e-02
-2.97754705e-01
6.32658064e-01

layers.4.weight:
5.50521612e-01 -7.09287683e-03 -4.94148992e-02 2.47385702e-03 -7.81424418e-02 -6.76152408e-02 6.67026080e-03 -6.27764940e-01 -3.41954008e-02 -3.78130078e-01 4.64800820e-02 7.09169805e-01 -1.59144771e+00 -1.61050968e-02 -2.27658693e-02 -1.11283660e+00 -1.90086488e-04 1.01883002e-01 1.03820451e-01 1.71683496e-04 6.42179921e-02 -6.21562414e-02 -3.07235285e-04 2.40109369e-01 -1.15058526e-01 -1.29901012e-02 -9.66672160e-05 7.48395205e-01 -5.47592938e-01 3.90338808e-01 -3.65673341e-02 -1.09184891e-01 -9.75452065e-02 5.70763485e-04 2.26566434e-01 -2.98213563e-04 -4.52944223e-04 -1.60717055e-01 -1.03524879e-04 9.32276100e-02 -9.27729085e-02 3.20050538e-01 3.36040137e-03 -1.27457380e-01 1.11739821e-04 1.28321081e-01 3.29850055e-03 -1.36289662e-02 -7.94669390e-02 -5.83077729e-01 -2.57743150e-02 -3.72921079e-02 -7.91749859e-04 -1.81757103e-04 -1.14957893e+00 -6.85334729e-04 1.22589000e-01 -3.88648838e-01 -4.70028855e-02 7.95225799e-03 -5.10492548e-02 4.27293126e-04 7.74138153e-01 -2.14025490e-02

layers.4.bias:
-1.00853872e+00

