layers.0.weight:
3.31696361e-01 -5.67613244e-01 7.97264636e-01
5.69172144e-01 -8.09445798e-01 -5.80563486e-01
-8.31293464e-02 -6.13938749e-01 -5.77727258e-01
-1.07055378e+00 1.15616508e-01 4.58123112e+00
2.67282110e-02 4.11940843e-01 1.16166264e-01
-5.79876065e-01 8.58121514e-01 -1.84879377e-01
-1.31842160e+00 4.86020595e-01 -9.88645032e-02
-6.01682402e-02 7.88846374e-01 -9.23566997e-01
6.03414774e-01 -9.26082134e-01 5.12713566e-02
-1.11527514e+00 5.86289167e-02 -1.64189592e-01
7.53551662e-01 -9.85680073e-02 1.41279221e+00
-7.16238439e-01 -1.31785080e-01 -1.29353356e+00
-4.30584475e-02 7.12955832e-01 -1.57757306e+00
-1.16726887e+00 2.10410804e-02 5.00053525e-01
-6.46977663e-01 1.09646142e+00 7.52028525e-01
-1.81771189e-01 9.48456824e-01 1.64468549e-02
5.46070874e-01 -6.33792400e-01 -1.45019031e+00
-1.15504665e-02 1.12846863e+00 1.84981868e-01
8.07071701e-02 -9.54183042e-01 5.35116851e-01
3.41117471e-01 -1.28724232e-01 -8.64976227e-01
2.23475501e-01 1.65966094e-01 -5.10879010e-02
-3.24195027e-01 -2.56797969e-01 -1.00232065e+00
-4.64660525e-01 1.65601885e+00 -4.46076952e-02
-1.56447518e+00 4.06930357e-01 1.75152493e+00
1.05132234e+00 3.79940838e-01 -7.78481364e-01
2.59609371e-01 6.71772659e-01 -1.17486012e+00
-1.16151750e-01 -2.13369340e-01 1.90187418e+00
-3.97779703e-01 -2.44972542e-01 1.92939892e-01
3.22416067e-01 7.57217348e-01 -1.46468067e+00
-1.04933763e-02 4.65525806e-01 1.70563948e+00
-2.89658904e+00 2.84448242e+00 -1.78299040e-01
-1.26738083e+00 -5.19488692e-01 1.02004325e+00

layers.0.bias:
8.77201200e-01
4.81547834e-03
-1.42384720e+00
-6.34384930e-01
7.07518518e-01
-2.04255387e-01
-3.54310095e-01
2.86240637e-01
-7.45998621e-01
-1.59115899e+00
1.64644122e-01
1.80825554e-02
2.46107668e-01
-1.21306002e+00
-2.90836543e-01
1.43946290e+00
9.34610724e-01
1.82654703e+00
-6.68276668e-01
5.78918040e-01
-1.44309163e-01
-1.35729384e+00
1.02535832e+00
-7.05530941e-02
1.36946186e-01
5.60703695e-01
8.80503118e-01
-1.57881156e-01
-4.88352716e-01
7.31267482e-02
8.91685039e-02
-6.70209900e-02

layers.2.weight:
-3.55492383e-01 2.21254051e-01 6.95947036e-02 -4.98523414e-01 1.66039839e-02 3.84804793e-02 1.15354963e-01 -3.94699425e-02 -1.34735554e-01 2.81957197e+00 7.06827566e-02 8.12432840e-02 -2.06247821e-01 2.41917753e+00 -1.91578463e-01 4.59377170e-01 -5.68249710e-02 6.49324059e-01 1.15667813e-01 -2.57948607e-01 2.28419051e-01 -6.23220205e-02 -5.41882753e-01 5.94974458e-01 -1.44001514e-01 6.30931795e-01 -8.02995622e-01 -1.17827140e-01 -1.93487585e-01 -2.31919006e-01 -7.69712329e-02 3.05806875e-01
-9.22352076e-02 1.57672808e-01 -8.66062224e-01 3.28833014e-02 -3.31655353e-01 1.59933642e-01 -7.75784791e-01 -4.35027421e-01 5.11731744e-01 6.51053548e-01 3.22620362e-01 -2.55913228e-01 2.85885543e-01 -1.06155552e-01 -2.91990310e-01 2.90135324e-01 -2.97865987e-01 3.78249764e-01 -4.79946196e-01 -7.84633332e-04 6.79097593e-01 -1.24726772e-01 -4.02373910e-01 -1.14836983e-01 6.48490191e-02 -1.26492213e-02 -3.43788862e-01 -6.12282276e-01 1.13225676e-01 -2.39926547e-01 -3.12621631e-02 1.31015763e-01
-2.15862438e-01 6.41291216e-02 2.23697856e-01 -5.46925426e-01 -8.90873373e-01 1.58007205e-01 -2.12461501e-01 1.11952662e-01 2.87051022e-01 1.18808544e+00 -3.37265521e-01 -3.06534320e-01 -4.59114052e-02 3.61531228e-01 -1.39788151e-01 -9.23076510e-01 -4.05944675e-01 -8.34184110e-01 1.02013215e-01 1.73523396e-01 -2.42175922e-01 -2.62858450e-01 5.84345639e-01 -1.09565580e+00 -7.39547253e-01 1.96362019e-01 -9.62644160e-01 3.52005869e-01 1.17855497e-01 -1.72351122e-01 3.30213279e-01 7.93788970e-01
8.85801539e-02 -1.33413553e-01 -6.51830792e-01 1.20631194e+00 1.10478878e+00 5.92597783e-01 7.72258699e-01 -2.90453453e-02 -4.10297334e-01 -4.27948087e-01 2.06521042e-02 8.12014267e-02 -4.16718721e-01 -2.84139663e-01 5.77050984e-01 1.14295018e+00 -2.96655949e-02 1.09162605e+00 5.29943071e-02 -3.01649362e-01 -7.36971557e-01 -3.81223023e-01 7.51926959e-01 1.85658240e+00 -9.25505757e-02 -3.25266600e-01 3.56477559e-01 -9.39156115e-02 -4.51962829e-01 -2.51193017e-01 1.62471011e-01 5.25943823e-02
4.16052435e-03 -3.56287092e-01 3.73466909e-01 -5.26770771e-01 -2.63338089e-02 -2.10858911e-01 -1.00884342e+00 2.44207010e-01 8.24226066e-02 -3.82598341e-01 3.50486785e-01 -6.83266282e-01 8.87360930e-01 -7.77709365e-01 -3.32958139e-02 -9.44083333e-01 -2.85641015e-01 -9.67541754e-01 -1.80936575e-01 -5.46211898e-02 9.28116083e-01 -4.64781880e-01 2.56760180e-01 -4.24295604e-01 -7.68699944e-01 7.17032433e-01 1.64169688e-02 -6.50612712e-01 -1.71060041e-01 5.42222798e-01 -1.45140693e-01 3.24641727e-02
-4.22630191e-01 2.01578856e-01 6.72894657e-01 1.48732886e-01 -1.08408701e+00 -2.02522114e-01 -1.70923412e-01 1.80858240e-01 3.73661220e-01 8.14095959e-02 6.77758813e-01 1.29095897e-01 -7.86047056e-02 -1.91342123e-02 -2.06352875e-01 -1.39009166e+00 -3.67530674e-01 -1.86346459e+00 8.53277445e-01 -2.16572195e-01 -5.57675362e-01 1.07206717e-01 -4.72497582e-01 -1.80321440e-01 -4.11238819e-01 3.06761358e-02 1.48493081e-01 1.22188497e+00 -5.00695348e-01 -4.40400839e-01 -8.00149679e-01 8.11107635e-01
3.67865078e-02 1.63040310e-02 -2.10943758e-01 -1.05107669e-02 -1.70023590e-01 1.60733074e-01 -1.01540454e-01 -4.43138212e-01 -1.11999951e-01 2.35346854e-01 2.97697723e-01 7.81629011e-02 2.79158413e-01 2.84171347e-02 -3.65742706e-02 -3.20226759e-01 2.03489568e-02 6.72860071e-02 5.12663228e-03 -3.21758270e-01 -4.05624270e-01 8.65660757e-02 7.26016685e-02 3.60386036e-02 1.89791039e-01 2.49667466e-01 -3.62191767e-01 -4.31753308e-01 -1.46592170e-01 6.72418848e-02 -2.13394035e-02 1.03381388e-01
3.46322685e-01 1.22240447e-01 -3.73236209e-01 3.60025316e-01 2.48760581e-01 -6.53981328e-01 2.03734636e-01 4.87102091e-01 7.36912563e-02 -2.10301638e-01 -1.37375027e-01 9.70542729e-01 3.03002059e-01 -5.14322817e-01 -1.73700154e-01 1.60990700e-01 5.05987585e-01 1.40107974e-01 2.09386960e-01 4.83167470e-01 -1.47632992e+00 -8.93340111e-01 1.33724228e-01 3.09818715e-01 1.57880098e-01 7.24038005e-01 6.07898533e-01 5.74749768e-01 -6.33912504e-01 4.98342365e-01 9.92261097e-02 -2.28172436e-01
1.62897944e-01 8.58021341e-03 -7.02579260e-01 -1.63806185e-01 1.82699692e+00 -4.43416804e-01 -6.64690316e-01 -4.18080896e-01 -9.91469085e-01 1.91655442e-01 5.20188570e-01 1.78923145e-01 5.95720112e-01 -7.58252382e-01 3.95361006e-01 2.78097606e+00 1.89266846e-01 2.04201698e+00 -5.63897371e-01 -1.33846760e-01 2.63219178e-01 -4.01819289e-01 1.78164139e-01 3.23943257e-01 1.84150591e-01 3.26380730e-01 1.40738249e-01 -2.02678517e-01 -4.13114540e-02 2.71369934e-01 2.21329546e+00 -4.08120096e-01
-6.22937620e-01 1.29964352e-01 -9.98738110e-02 -5.33370078e-01 4.56148624e-01 2.31859051e-02 -4.68714088e-02 3.72045994e-01 4.23407018e-01 -1.49499893e-01 -3.06160096e-03 2.53073305e-01 1.84452832e-01 1.47547886e-01 -3.62046987e-01 -5.75766385e-01 3.50367725e-01 -3.49192977e-01 -4.22171742e-01 -1.94231011e-02 -6.42644227e-01 -2.22521380e-01 1.03786193e-01 -7.90602639e-02 -2.18034983e-01 -1.00601979e-01 -1.84826717e-01 2.28864968e-01 2.64986366e-01 1.54600710e-01 1.34641483e-01 1.11560209e-03
3.89592111e-01 -2.21557751e-01 2.07282931e-01 -4.28062737e-01 -1.01584065e+00 -5.39242327e-01 -2.83657581e-01 1.48181736e-01 6.00753725e-01 3.60036731e-01 -5.95722795e-01 -4.87994291e-02 9.14106250e-01 -3.28665912e-01 -2.63893336e-01 -4.36300308e-01 -5.66553712e-01 -1.21997905e+00 8.64293203e-02 3.19159962e-02 9.42919016e-01 -1.50726393e-01 -1.29607463e+00 9.07318667e-02 -3.84052098e-01 -1.98188480e-02 -4.94644791e-01 -3.51238698e-01 1.96843952e-01 -4.64421183e-01 -9.05470774e-02 7.00006962e-01
-1.10683866e-01 -1.47494167e-01 1.60263288e+00 -7.70431876e-01 -7.54377544e-01 1.86334610e-01 -1.13759011e-01 -4.45315897e-01 6.43377304e-01 1.87772727e+00 1.51748478e-01 -2.57458746e-01 1.97377294e-01 3.31633806e+00 5.17560206e-02 -9.03712153e-01 1.92581818e-01 -2.50495338e+00 5.88095844e-01 -4.52662021e-01 3.37663978e-01 5.07203639e-01 -2.16178373e-01 9.48329091e-01 -1.10228229e-02 -6.29360497e-01 3.89877766e-01 -1.57190025e-01 9.71455872e-02 1.38633460e-01 -1.83212645e-02 -4.16400462e-01
-6.03123665e-01 -9.52417105e-02 7.62061834e-01 6.34620070e-01 -7.62814105e-01 6.31962001e-01 2.55478591e-01 -1.05915713e+00 5.58031261e-01 7.15513945e-01 3.69875580e-01 1.30741462e-01 -7.21049249e-01 -3.55433859e-02 4.74215329e-01 -5.34848356e+00 -7.84571543e-02 -6.31528139e+00 6.55054331e-01 -1.19274032e+00 -6.81373954e-01 2.32280776e-01 6.00712836e-01 7.04817995e-02 -2.17692494e-01 -4.37262684e-01 -1.40351281e-01 6.25413954e-01 -6.86878741e-01 -1.18779905e-01 -8.88471663e-01 -3.03946793e-01
3.46099772e-03 -1.06859423e-01 -5.82274735e-01 -9.84296352e-02 -2.33304337e-01 -9.88452043e-03 2.40794495e-01 3.72488081e-01 4.31246907e-01 -1.57374218e-01 4.86168236e-01 -1.33479089e-01 3.67198020e-01 -8.26834619e-01 -3.93012404e-01 -1.58368960e-01 -2.05070242e-01 1.11443348e-01 -1.24586649e-01 1.52258560e-01 -1.27584571e-02 -1.07635885e-01 9.00904741e-03 -2.51513302e-01 -1.01987988e-01 7.92150319e-01 -3.99804078e-02 3.42806913e-02 -1.57532662e-01 2.23677129e-01 1.62567809e-01 3.29059392e-01
-9.52158391e-01 2.65933633e-01 -6.21835552e-02 2.97730774e-01 -6.42046183e-02 6.47047698e-01 -3.71366799e-01 -6.72252178e-02 4.19427812e-01 -1.63926482e-01 -8.00368845e-01 2.80054957e-01 1.96419001e-01 -3.61175448e-01 -3.30629289e-01 -6.59121513e-01 2.67710119e-01 -6.29812896e-01 -4.31689411e-01 3.58028084e-01 1.32142377e+00 9.95135009e-01 -1.88543508e-03 1.49859577e-01 -3.38176399e-01 1.48212850e-01 -6.33419871e-01 5.36027215e-02 8.36095631e-01 -2.88336426e-01 -9.11219791e-02 1.04199618e-01
-5.52510023e-01 -7.26145133e-02 6.62719682e-02 1.39687687e-01 -2.58636594e-01 3.50574940e-01 -9.44841206e-01 -8.73331949e-02 8.03186148e-02 5.23476219e+00 5.72569549e-01 4.16075379e-01 2.10670575e-01 2.64889717e+00 -3.68428504e-04 -2.19730027e-02 -4.36619997e-01 -8.52978751e-02 2.25428324e-02 -2.11125270e-01 -6.77538514e-01 4.09704149e-01 3.40670913e-01 2.73551852e-01 -3.64203662e-01 -4.30878818e-01 -6.30256414e-01 3.08530092e-01 -9.04722437e-02 -6.54902577e-01 2.42188275e-01 -2.69489408e-01
-3.61559391e-02 1.51445523e-01 -6.76396042e-02 3.39080691e-02 -7.99655299e-06 4.76985686e-02 8.72714724e-03 -4.83707562e-02 -7.91884959e-03 -2.02996179e-01 5.84289841e-02 4.56922241e-02 5.01146093e-02 8.01612064e-02 9.80013311e-02 1.10098533e-02 4.74445149e-02 3.25489300e-03 -9.81529709e-03 9.37785804e-02 2.29312971e-01 1.25655785e-01 -1.41490595e-02 6.55386373e-02 6.03567585e-02 9.81119834e-03 5.56125604e-02 3.05394977e-01 9.36727598e-03 -2.92454124e-03 1.35811083e-02 1.26080485e-02
9.10607874e-02 -1.70323268e-01 -6.40306413e-01 6.92772046e-02 1.80649027e-01 -1.64225221e-01 -2.02781633e-01 -3.11073542e-01 2.46361300e-01 -6.55072451e-01 9.00295675e-02 -5.23134507e-02 1.88903913e-01 8.71518254e-02 -3.42018418e-02 2.16602549e-01 -3.30001593e-01 5.14247060e-01 -1.43398434e-01 8.92476618e-01 3.38383704e-01 6.30049184e-02 -4.52706486e-01 -1.02757998e-01 -1.44654110e-01 -4.53695893e-01 8.62259150e-01 -5.79988718e-01 2.58802891e-01 3.32945645e-01 -5.53482398e-03 2.25523442e-01
-2.70667404e-01 -3.51714753e-02 -3.78946871e-01 -2.09799543e-01 5.69434106e-01 2.16129962e-02 2.21440181e-01 1.54797375e-01 2.34721780e-01 -3.95218253e-01 -1.61652893e-01 -9.06043410e-01 4.80977684e-01 -2.31325284e-01 -2.21895024e-01 4.42992270e-01 -7.32819140e-02 4.94591862e-01 6.39557391e-02 -3.55248712e-02 -5.92266880e-02 -2.22863764e-01 4.92021888e-01 -3.22028339e-01 1.60904571e-01 2.09160060e-01 -1.76982835e-01 3.56372535e-01 4.40237336e-02 3.43363315e-01 7.77906179e-01 2.25442544e-01
6.31237477e-02 1.66658208e-01 -1.50870625e-02 7.40280524e-02 -2.13227030e-02 8.50028917e-02 -1.79745182e-02 -7.15102181e-02 5.34760095e-02 7.19659179e-02 6.97871596e-02 1.08591013e-01 -6.63262233e-02 -1.24953046e-01 1.53315023e-01 4.84976649e-01 5.40057383e-02 -2.94558704e-01 1.44868195e-02 -8.59229788e-02 -8.84542614e-02 -1.32712394e-01 1.86891314e-02 -5.21350391e-02 2.80975476e-02 1.38117790e-01 1.07964734e-02 -1.46089597e-02 1.00720473e-01 2.15365440e-02 1.81611872e-03 7.04247877e-02
5.83003879e-01 -1.80891752e-01 6.69728994e-01 5.54035962e-01 -2.40927383e-01 -3.01477879e-01 -7.58690715e-01 -1.42541409e-01 -2.45121717e-01 -9.59204614e-01 -6.24729134e-02 9.25515294e-01 4.79402244e-01 -5.49553692e-01 7.73525178e-01 5.36318898e-01 -8.74614194e-02 -3.31526339e-01 5.37245989e-01 4.61331755e-01 -4.49846834e-01 5.85033707e-02 4.01709765e-01 1.69694096e-01 1.21106818e-01 -3.57855052e-01 1.19459026e-01 2.98583597e-01 -1.41424641e-01 -5.44981025e-02 1.00936614e-01 4.12701130e-01
2.67427713e-01 -7.82967061e-02 6.31470457e-02 1.41172245e-01 8.36859271e-02 1.43443331e-01 8.68533134e-01 7.70562366e-02 4.82234180e-01 2.09274903e-01 3.22376609e-01 3.68023723e-01 -3.89159888e-01 -6.50729835e-01 8.29557255e-02 -9.34117675e-01 -2.44641807e-02 -6.74924612e-01 -9.17972475e-02 -4.13622469e-01 -5.26222944e-01 1.71292685e-02 2.59877473e-01 -5.50056733e-02 1.22494422e-01 -4.04335916e-01 -7.12863088e-01 4.07988012e-01 -1.22229129e-01 -1.94278538e-01 2.26979434e-01 -1.14927545e-01
4.37618308e-02 2.38963038e-01 -1.88430756e-01 3.40376526e-01 -2.54708290e-01 3.61362934e-01 3.75056684e-01 -2.16539145e-01 -5.53974696e-02 3.63824189e-01 -4.87325154e-02 1.75377920e-01 4.99462634e-01 6.07414782e-01 -3.77854615e-01 -9.58275437e-01 7.05544114e-01 -4.56844479e-01 5.85384890e-02 -1.86635748e-01 -4.36119258e-01 1.10532887e-01 -5.10920584e-01 1.33158669e-01 -3.43801886e-01 -5.77188358e-02 -1.21182732e-01 -3.75667393e-01 1.07694648e-01 -1.94014415e-01 -9.60844010e-02 -3.31429809e-01
7.74232805e-01 -1.23775274e-01 -3.34547460e-01 2.35543907e-01 2.27386504e-01 -4.58666623e-01 -4.23040539e-02 2.69479096e-01 2.23366722e-01 -2.59802985e+00 1.75212458e-01 1.05118290e-01 3.13524842e-01 -1.54648006e+00 2.11895049e-01 3.85285676e-01 6.08534329e-02 3.27890486e-01 -2.03455299e-01 -7.92824775e-02 5.01079082e-01 -2.78105527e-01 -2.58278549e-01 2.68723443e-02 -3.67958814e-01 -2.58973062e-01 1.06846932e-02 -1.51667476e-01 2.10942999e-01 1.76260039e-01 1.12666925e-02 -1.88132495e-01
-1.04244912e+00 3.79923023e-02 -1.64987445e-01 2.40027621e-01 1.56693593e-01 -2.21197426e-01 9.75870311e-01 -1.72849029e-01 -1.10937572e+00 8.44618201e-01 -6.08427107e-01 -7.91607127e-02 4.28898893e-02 2.25597337e-01 -5.92771709e-01 6.71762049e-01 4.84247506e-01 7.38082469e-01 -8.23433250e-02 -1.17635585e-01 -2.54562218e-02 2.34224558e-01 6.77062452e-01 1.08468664e+00 -3.02899808e-01 3.81938785e-01 -5.07069826e-01 -1.79873869e-01 8.85265887e-01 -3.35073560e-01 2.58297563e-01 -1.79171413e-01
-5.90611160e-01 6.42284453e-01 1.20521169e-02 -1.85375914e-01 4.47261095e-01 1.81399837e-01 7.61064440e-02 5.04995763e-01 -2.62278497e-01 5.60425997e-01 1.79599375e-02 -9.79758501e-02 2.42018893e-01 3.07742119e-01 -5.70136905e-01 -3.54153275e-01 -7.77646229e-02 -1.50147974e-01 4.33728129e-01 -3.95830035e-01 -3.55533063e-02 -2.27759227e-01 -3.09623871e-02 -5.06035507e-01 6.16242401e-02 -2.30846301e-01 -6.08825505e-01 -4.47555989e-01 2.00700879e-01 -4.11533386e-01 -2.06734270e-01 -2.39498913e-01
-1.54746383e-01 4.62635122e-02 3.76057297e-01 4.18118000e-01 -4.68158424e-02 -2.66108513e-01 -1.17776260e-01 -1.83767620e-02 9.84799191e-02 -4.35802460e-01 -5.21518350e-01 -1.44675434e-01 -3.19937617e-01 -3.10013741e-01 2.18272924e-01 9.42472398e-01 -2.14534193e-01 4.41936433e-01 2.33941942e-01 1.40464008e-01 1.66119590e-01 -8.03516090e-01 2.75944442e-01 1.56937152e-01 2.85976559e-01 1.22571371e-01 6.76369146e-02 -6.89089596e-01 -2.75094271e-01 -5.04594631e-02 1.04461305e-01 -2.43089095e-01
-1.01224649e+00 4.57894415e-01 -8.26202631e-01 -1.01500618e+00 1.83528244e-01 -1.33781701e-01 -3.21087450e-01 6.24348879e-01 -1.50867015e-01 5.75166643e-01 -3.15840952e-02 1.71470225e-01 2.01971933e-01 3.60880166e-01 -2.54672933e-02 1.88742936e+00 7.04974592e-01 1.93369555e+00 -1.75526941e+00 9.15705189e-02 7.21726656e-01 -8.56618822e-01 -5.16462624e-01 3.95114005e-01 7.52132684e-02 -3.69868368e-01 2.63340741e-01 -1.47281781e-01 9.72005844e-01 -8.18718076e-01 5.16589522e-01 -4.72182602e-01
2.28399888e-01 -5.03675222e-01 1.01407662e-01 -1.39547080e-01 -8.79304826e-01 4.64262456e-01 3.89635302e-02 -5.12478828e-01 5.94307363e-01 8.93889964e-01 -2.54190445e-01 1.45002797e-01 5.67335010e-01 3.77364129e-01 -6.77491259e-03 -1.20896029e+00 -4.28123981e-01 -1.37147951e+00 2.49587700e-01 2.38170907e-01 1.72110111e-01 4.10888344e-01 9.54927877e-02 1.24131918e-01 2.10276484e-01 1.14446528e-01 -4.32739049e-01 -7.99074173e-02 -3.57179284e-01 -3.62769872e-01 3.69317830e-01 3.43869030e-01
-3.59798297e-02 -9.97219324e-01 3.37161452e-01 1.61710083e+00 1.25159919e-01 9.84206647e-02 -1.52042881e-01 -2.53355235e-01 -2.35898271e-01 1.98229000e-01 1.11986864e+00 -1.02676094e+00 -1.11871374e+00 -3.39928299e-01 2.10485429e-01 -1.45797864e-01 -1.30552876e+00 5.12651443e-01 6.12285256e-01 -7.28271127e-01 8.75215888e-01 1.58804923e-01 3.40292528e-02 2.19166167e-02 1.50366197e-03 -4.99221891e-01 2.38478810e-01 9.92857292e-03 -9.03452694e-01 1.29451537e+00 -6.10167861e-01 -2.63137557e-02
-6.78827465e-01 -1.80431902e-01 2.96185017e-01 1.12882614e-01 3.07158381e-02 2.82265753e-01 3.04327101e-01 2.33185459e-02 -5.40087402e-01 -2.37330943e-01 -1.00220275e+00 3.13063800e-01 4.71901715e-01 8.68633538e-02 1.73254296e-01 -1.21095791e-01 3.54895234e-01 -2.24703714e-01 -6.89026266e-02 -3.42707336e-01 -8.42734218e-01 2.02751145e-01 1.00816742e-01 -6.92383707e-01 1.53413460e-01 5.80504119e-01 -1.30805314e-01 3.68827760e-01 -5.18968821e-01 -2.42584586e-01 -1.78085104e-01 2.50803004e-03
-3.35755765e-01 -3.93935174e-01 -1.43536806e-01 -1.34044617e-01 -2.37651184e-01 9.22546685e-02 2.79924184e-01 2.62886554e-01 -6.91016614e-01 1.53934789e+00 -1.33234859e-01 -1.20391041e-01 -5.31827927e-01 5.47604382e-01 -6.83234781e-02 4.13435288e-02 -1.67289414e-02 1.83872983e-01 -1.21258557e-01 -2.17155099e-01 2.09353000e-01 1.65777475e-01 6.58888638e-01 7.74235055e-02 9.41593386e-03 -8.63411799e-02 -1.74239412e-01 1.98766515e-01 2.77229577e-01 3.29073280e-01 4.43404764e-01 1.52969360e-01
-1.03778400e-01 -3.44740957e-01 9.31044370e-02 -1.45400628e-01 -4.43750232e-01 5.05810678e-01 -2.77742565e-01 -3.93446773e-01 1.47158504e-01 -3.91889244e-01 -1.64436772e-02 4.59924817e-01 2.40903646e-01 3.39398801e-01 3.31661582e-01 -6.79678082e-01 -4.30954635e-01 -1.37286115e+00 -8.97295624e-02 -2.90376604e-01 -6.30697235e-02 9.34104562e-01 4.82729286e-01 5.55651486e-01 -3.37552816e-01 1.85390487e-01 8.30309913e-02 -3.07201535e-01 -3.34201008e-01 -3.02247465e-01 -2.00486392e-01 -2.24669755e-01
4.99488004e-02 -5.62562160e-02 1.31337956e-01 -8.67510960e-02 2.55257964e-01 -1.39339179e-01 4.53290157e-02 -3.40139985e-01 -1.60571024e-01 3.52723330e-01 1.55157134e-01 1.70178950e-01 7.62769878e-02 -2.94498950e-01 -4.66477796e-02 -2.79878467e-01 5.45991622e-02 1.55090362e-01 -1.60644069e-01 -5.23975372e-01 1.69753596e-01 -1.71266466e-01 -1.19229078e-01 -9.17313695e-02 -4.94293030e-03 2.22241968e-01 -5.74026220e-02 -1.57168303e-02 1.07398033e-01 7.65575245e-02 -2.86615710e-03 7.80372415e-03
6.25962913e-02 -4.77174252e-01 -2.15233222e-01 7.44711339e-01 -3.68050247e-01 -5.15299916e-01 1.05784126e-01 -1.52811959e-01 4.86987606e-02 2.96847963e+00 -5.73193967e-01 9.95150149e-01 6.64749265e-01 8.32683384e-01 6.73773289e-01 1.98783129e-02 8.93850029e-02 5.57018816e-02 6.56818032e-01 3.91076505e-01 2.36143947e-01 1.78172126e-01 -3.70987386e-01 1.04505908e+00 2.38546054e-03 1.46244138e-01 -3.26075315e-01 2.86503732e-01 9.86474827e-02 1.15286205e-02 8.31328154e-01 -3.21114250e-02
-1.13004506e-01 1.69654697e-01 1.18901081e-01 7.64973685e-02 4.31804992e-02 -5.52684851e-02 4.21957951e-03 1.27723321e-01 1.95827149e-02 -3.12042180e-02 1.62517771e-01 8.36074129e-02 9.18253362e-02 -2.46491749e-02 1.78781644e-01 1.94772795e-01 2.35162377e-02 -1.57256499e-01 -5.71800582e-02 8.86515826e-02 -1.64529949e-01 -5.37540913e-02 -1.97253358e-02 7.90589675e-03 -4.77282375e-01 -2.16326922e-01 4.96478342e-02 -1.10291861e-01 -6.04342297e-02 -5.21300323e-02 4.63469792e-03 -4.39391315e-01
-4.96668741e-03 -8.44640434e-02 -6.20556362e-02 2.92279497e-02 -2.05757052e-01 1.06433732e-02 -2.09819693e-02 1.71930775e-01 7.46473819e-02 -3.80606651e-02 -1.17689539e-02 -2.28625480e-02 -6.73250929e-02 2.73852609e-02 -4.45142239e-02 2.21334234e-01 -1.10837571e-01 -1.33623883e-01 -7.11650029e-03 3.39220017e-01 -2.35377818e-01 -1.04857385e-01 1.46491444e-02 -2.72793099e-02 4.52670921e-03 -8.61924514e-02 -5.87064661e-02 -6.68104589e-02 -6.12552688e-02 5.82288206e-02 9.10740625e-03 1.23752933e-02
1.04101539e+00 -1.89809054e-01 4.36587751e-01 2.50868410e-01 -4.95793432e-01 -1.12273790e-01 -4.81972903e-01 3.25992592e-02 8.45412314e-01 -2.74485033e-02 -2.82078654e-01 1.46416813e-01 1.10079683e-01 1.52495861e-01 6.82216406e-01 -7.90186346e-01 -3.85115206e-01 -9.37363684e-01 5.47985792e-01 -2.01988250e-01 -8.80463123e-01 3.01310122e-01 -2.60910213e-01 1.26482397e-01 7.00336218e-01 -6.97312551e-03 1.36876419e-01 -4.17653807e-02 -6.02240086e-01 1.37806743e-01 -2.62416929e-01 2.12931484e-01
2.52301514e-01 -4.17458534e-01 -1.97572410e-01 4.16821897e-01 4.03282121e-02 -6.50628507e-01 1.75342709e-02 -1.26322836e-01 3.90989333e-01 -3.33626688e-01 -2.34585017e-01 4.50071305e-01 3.26618791e-01 -3.27358365e-01 2.69540936e-01 -8.61739218e-01 -3.50150019e-01 -1.03201759e+00 7.89591134e-01 -4.17849898e-01 -3.04403156e-01 -4.39902768e-02 3.13291371e-01 6.72584951e-01 -1.31166026e-01 -3.62882942e-01 4.52496827e-01 3.91594768e-02 -2.46454209e-01 -4.11750793e-01 -1.09414026e-01 2.13250995e-01
6.62446693e-02 -7.24018812e-02 9.52308595e-01 1.58882678e-01 -2.04979730e+00 -3.35948944e-01 3.61411572e-01 -3.04124683e-01 9.35051799e-01 6.91790521e-01 -1.00146718e-01 -4.24998790e-01 -5.67366332e-02 5.47873080e-01 9.85552892e-02 -3.22747183e+00 -3.34892273e-01 -4.29462099e+00 4.77761894e-01 -3.05434205e-02 -7.77636290e-01 7.13959932e-01 1.16619423e-01 1.24023229e-01 8.66304636e-02 3.60539444e-02 3.92508745e-01 2.82646596e-01 -3.61016959e-01 -7.19412386e-01 -1.05417454e+00 3.45614672e-01
-2.24802986e-01 -2.15873033e-01 -2.16017187e-01 -3.27795506e-01 -2.74601668e-01 5.90605557e-01 1.53719544e-01 -5.85622154e-02 -1.25895098e-01 3.97285759e-01 -2.43983090e-01 2.06616223e-01 9.48828682e-02 -2.98249334e-01 -1.46228150e-01 -4.84225363e-01 3.43083590e-01 -6.14317000e-01 -3.57697010e-01 6.20413497e-02 -3.07127088e-01 4.36717391e-01 -8.61720666e-02 3.17131758e-01 4.22212481e-01 -4.79772776e-01 4.34586912e-01 2.05880236e-02 1.11437812e-01 8.69455859e-02 -9.19194072e-02 -2.93350853e-02
4.28777009e-01 6.90935731e-01 7.02245295e-01 -4.15080190e-01 9.52478722e-02 1.32755384e-01 2.09216610e-01 -1.15421355e-01 -7.88519621e-01 9.80620503e-01 -2.94267058e-01 -2.33531326e-01 -4.27594692e-01 1.13391137e+00 1.49048358e-01 9.33321416e-02 3.98049429e-02 -1.02153707e+00 3.32709908e-01 -2.68008530e-01 2.62974035e-02 7.24136353e-01 -1.76432878e-01 -4.04233307e-01 5.34962952e-01 -7.67452359e-01 4.79783088e-01 -9.15348902e-03 -3.61046016e-01 -6.13750398e-01 -2.35097818e-02 -3.31290036e-01
-1.83663536e-02 -3.32690597e-01 2.55116254e-01 -2.25513667e-01 -2.55625397e-01 7.99004957e-02 8.62856731e-02 -2.72732019e-01 -4.49422777e-01 -3.80001098e-01 -1.56255558e-01 5.61421104e-02 -5.14184497e-02 3.71699899e-01 5.04485011e-01 3.11008692e-01 3.33156079e-01 -4.97338891e-01 6.38974011e-02 2.21167699e-01 -2.60768771e-01 3.55745852e-01 -3.96831691e-01 1.11759886e-01 -3.09744161e-02 -2.22880647e-01 3.57200205e-01 7.18908608e-01 -3.85267764e-01 -5.10398269e-01 2.42893413e-01 3.19578737e-01
-1.13186228e+00 -3.12640041e-01 -8.58624429e-02 -1.10113287e+00 2.48267055e-01 1.27557233e-01 6.17089391e-01 5.93916953e-01 -3.22475880e-01 7.90592670e-01 -9.94271338e-01 8.04589391e-01 9.24644411e-01 7.19634950e-01 -3.50458443e-01 6.31749928e-01 2.44555429e-01 -1.61418959e-01 -4.76930439e-01 7.36460567e-01 -8.17119241e-01 -5.15235662e-01 -1.98524103e-01 1.57053649e-01 3.68441254e-01 8.19592357e-01 1.06676924e+00 9.04550910e-01 2.84306377e-01 -8.14011097e-01 3.42352659e-01 4.44414824e-01
-8.64585638e-02 9.44016725e-02 3.01698178e-01 -4.20547575e-02 3.46168429e-01 -1.43603995e-01 6.57528080e-03 2.55824197e-02 -2.97036357e-02 2.14665681e-01 3.35870348e-02 1.13747278e-02 -1.76156405e-02 -1.13633983e-01 9.32479724e-02 -1.40222386e-01 8.42116103e-02 5.65973520e-02 4.79011796e-04 -4.03863132e-01 1.66998014e-01 -1.11824960e-01 1.26972878e-02 -4.71597128e-02 1.49287790e-01 -7.84345157e-03 7.95788914e-02 1.14225827e-01 3.04139182e-02 -8.14429447e-02 -5.83035359e-03 6.59984723e-02
5.95396869e-02 1.68360204e-01 6.57621771e-02 1.09106861e-02 4.86195087e-01 8.09631422e-02 5.31777918e-01 4.15599227e-01 -5.01512066e-02 -1.38633466e+00 -2.15325966e-01 4.03480887e-01 5.70963979e-01 -5.70360422e-01 -4.04352427e-01 2.62342840e-01 5.02982080e-01 2.23245239e-03 -1.79746509e-01 -5.47264159e-01 9.89065289e-01 -4.59345847e-01 1.32007539e-01 -1.26223218e+00 4.25490364e-03 6.65899515e-01 -8.59436035e-01 -1.01316166e+00 1.77485302e-01 1.41435210e-02 -6.82177171e-02 -3.03667337e-01
7.21667826e-01 -2.91065007e-01 -1.55857012e-01 4.40476656e-01 -3.87805045e-01 -1.42522112e-01 -1.93710327e-01 -3.08886886e-01 7.53142238e-01 -1.62619144e-01 -1.26316234e-01 -4.13359851e-02 7.12280214e-01 -3.63451838e-01 3.52251470e-01 -8.89418006e-01 -2.95683183e-02 -1.02041900e+00 8.47076178e-01 -8.98298621e-02 -4.07195032e-01 1.59773096e-01 7.75401741e-02 1.46722332e-01 -5.56987077e-02 -2.89399147e-01 7.97274590e-01 6.30112529e-01 -5.43906450e-01 3.36553931e-01 -1.20218679e-01 3.01821172e-01
-2.47837171e-01 3.27698380e-01 -1.75959572e-01 -4.53850403e-02 -5.80618799e-01 -1.72568128e-01 1.21462986e-01 4.69173670e-01 -9.51806307e-02 -5.64061403e-01 -1.88648701e-01 -9.03721806e-03 -3.35086405e-01 1.67257771e-01 2.56289840e-01 -1.92252308e-01 -8.37865546e-02 2.61030853e-01 4.28168140e-02 3.61012846e-01 -2.52803296e-01 -4.46213111e-02 -3.85745205e-02 -3.55753079e-02 -1.19022511e-01 -1.07596673e-01 2.71938086e-01 -2.45755866e-01 1.10046111e-01 7.07921106e-03 2.61312127e-02 1.68157801e-01
6.40749931e-02 -4.77644712e-01 -8.83255228e-02 -1.19564854e-01 -9.96375978e-02 -1.78294614e-01 -1.27948046e-01 -1.66111380e-01 -3.14908862e-01 4.28261727e-01 -2.14847364e-02 8.45976099e-02 3.60931993e-01 2.53010601e-01 -2.09787771e-01 -6.51490748e-01 -1.81866482e-01 -1.39422581e-01 -6.32134126e-03 6.78330585e-02 7.62074515e-02 -2.97068618e-02 5.55239260e-01 4.35125642e-02 -3.15780222e-01 2.38151580e-01 3.24453026e-01 6.84613362e-02 -4.99552488e-02 1.11582316e-01 -1.23709597e-01 -2.82383859e-01
8.09288621e-01 6.48931861e-02 -4.13475573e-01 7.04318285e-02 -3.91152054e-02 3.28618228e-01 6.61603808e-01 3.61289352e-01 -2.51856446e-01 -7.18886256e-01 -9.79635596e-01 1.48932016e+00 2.11171195e-01 -7.73940384e-01 2.95120209e-01 2.83948928e-01 2.08410636e-01 2.58122474e-01 -1.60740659e-01 1.01944610e-01 -1.44236076e+00 -2.23043978e-01 -8.40774596e-01 -1.82556391e-01 -3.64017904e-01 1.36617661e-01 1.17360570e-01 6.72978699e-01 4.28853370e-02 -6.89285174e-02 1.55419022e-01 3.71362984e-01
-1.36392102e-01 3.79382446e-02 -1.11317420e+00 4.73969709e-03 7.18947411e-01 4.03853714e-01 -4.95163575e-02 -2.99908826e-03 -1.79705083e-01 4.72482473e-01 -3.29219997e-01 -1.29381847e+00 3.09437692e-01 5.43711334e-03 -3.38099539e-01 1.30018806e+00 -4.78236564e-02 2.00515342e+00 -4.56530958e-01 1.06617749e-01 3.09967905e-01 -2.16336042e-01 1.25737548e-01 7.59328306e-01 -3.13443959e-01 7.17677176e-01 -2.23943740e-02 -3.12463582e-01 7.39405379e-02 2.02694982e-01 8.68059039e-01 -2.67893653e-02
-4.11962867e-02 4.65763360e-01 -1.36512369e-01 -6.44258857e-01 -1.65041134e-01 7.45320141e-01 3.56959641e-01 7.96258032e-01 4.01337981e-01 3.59147400e-01 9.23331618e-01 -2.32836887e-01 9.89293084e-02 3.19548219e-01 -5.89417033e-02 -8.48543763e-01 3.43059242e-01 -1.41649351e-01 -3.11080992e-01 -5.29057980e-01 -7.35512525e-02 -2.02011377e-01 2.07357645e-01 1.41089231e-01 -2.60397524e-01 1.67945936e-01 6.41554594e-03 3.15670371e-02 -5.51018894e-01 2.21955419e-01 -2.27650896e-01 1.35991290e-01
7.69073069e-02 2.81490553e-02 -9.84866917e-02 -8.41427315e-03 -9.49494615e-02 5.70807457e-02 -8.06403288e-04 7.32871071e-02 -2.44538970e-02 -5.83497845e-02 -6.49472475e-02 -3.73640388e-01 2.53404975e-01 2.67409474e-01 -1.97116770e-02 8.36727694e-02 5.82995415e-02 -9.81230512e-02 1.22243769e-01 2.27965504e-01 9.66187268e-02 2.97765166e-01 -6.43672608e-03 2.89443791e-01 -1.14419088e-01 -2.85785973e-01 -1.94244742e-01 -1.43856093e-01 -2.97911346e-01 -1.61101088e-01 -1.51069248e-02 -2.90035248e-01
4.09089357e-01 -1.28888302e-02 5.50149918e-01 4.11263525e-01 3.40278059e-01 4.24345016e-01 9.58127856e-01 -3.73011947e-01 7.26391256e-01 -5.44889160e-02 -5.94796777e-01 1.47344500e-01 -5.33890724e-01 -3.21529597e-01 1.76832117e-02 2.55854905e-01 -6.31023288e-01 -4.84723657e-01 2.85717517e-01 -4.73817997e-02 -8.05394873e-02 5.69139123e-01 2.76560783e-01 6.67836726e-01 4.01732661e-02 -1.50473788e-01 -2.18398184e-01 1.58734232e-01 1.85784236e-01 4.32785571e-01 -1.19273022e-01 -1.22392294e-03
-3.06048363e-01 -4.94900197e-01 1.59475958e+00 1.34663776e-01 -1.35892367e+00 -2.14492053e-01 -9.81472909e-01 -1.09628868e+00 3.84983629e-01 9.51677620e-01 -1.00695314e-02 -4.21665251e-01 -3.50830764e-01 8.00811708e-01 6.42657936e-01 -3.08744884e+00 1.58919439e-01 -3.48983717e+00 1.93822217e+00 7.88604200e-01 -6.73825026e-01 1.77367115e+00 -4.79900479e-01 1.75267890e-01 2.27629080e-01 -7.63316035e-01 -1.98598221e-01 6.25685930e-01 1.70942713e-02 7.40020499e-02 1.76222175e-01 3.15217674e-01
-5.79450093e-03 -2.66858633e-03 6.94255978e-02 4.12834510e-02 3.75248671e-01 2.89649777e-02 -1.73096247e-02 2.06188634e-02 1.50163192e-02 -1.27498694e-02 -2.44554244e-02 -6.85430989e-02 1.00465149e-01 -7.72169605e-03 -2.93415468e-02 -5.41571490e-02 1.17618060e-02 -5.34030162e-02 -7.22561851e-02 6.56891689e-02 1.05383143e-01 6.52049556e-02 -9.35907383e-03 4.16150130e-02 -1.39394790e-01 -1.59281179e-01 1.49209956e-02 4.00424600e-01 -4.47026603e-02 -6.04352802e-02 -3.26416665e-03 -2.57096142e-01
-4.24399018e-01 1.51546672e-01 -8.23622942e-02 -1.23173684e-01 -3.19720179e-01 2.92542819e-02 -1.30585626e-01 7.48297751e-01 1.18671916e-02 -2.37831008e-02 -2.35245362e-01 7.59875178e-01 5.49880683e-01 3.02004784e-01 1.17303491e-01 3.36008370e-02 -7.05296174e-02 1.53579260e-03 -1.89414904e-01 1.55696757e-02 -1.22073047e-01 -5.76139152e-01 -2.50969172e-01 -2.52978295e-01 -3.18191051e-01 -1.33823767e-01 -6.60523891e-01 4.07560885e-01 -2.13070020e-01 -3.05611700e-01 -2.26883262e-01 4.85203028e-01
-2.61142687e-03 -2.27319270e-01 7.06817687e-01 2.51241177e-01 -8.55315983e-01 2.49620348e-01 4.20494109e-01 -6.74586236e-01 5.19636333e-01 3.66778165e-01 -1.13803655e-01 4.42073345e-01 -9.39868316e-02 1.73387095e-01 2.20729515e-01 -2.50506926e+00 7.55113587e-02 -1.33914125e+00 2.52199680e-01 1.62243202e-01 -4.03194614e-02 2.19039127e-01 2.49179751e-01 1.40602320e-01 -5.53482287e-02 -5.35511792e-01 -8.43303427e-02 -2.55445838e-01 -4.55501616e-01 -4.92117494e-01 2.28395879e-01 -4.95298654e-01
-2.56331235e-01 -3.90117094e-02 -1.81866229e-01 1.75073355e-01 -1.35590255e-01 8.77575055e-02 1.59018815e-01 -1.86827004e-01 -4.79058653e-01 1.68957889e+00 -3.47359896e-01 -1.06392764e-01 -2.96512187e-01 1.31589282e+00 -1.35149658e-01 -6.43526986e-02 -2.73877271e-02 -8.72839242e-03 -1.67718455e-01 -3.42829943e-01 1.49543747e-01 1.78484112e-01 1.64690912e-01 -1.60109401e-01 -6.31991960e-03 5.50618768e-02 4.47391987e-01 3.39480609e-01 2.65363306e-01 -4.36969250e-01 3.86492670e-01 -2.29993388e-01
-1.05874643e-01 -2.33323678e-01 5.27352929e-01 5.60005665e-01 -5.70146255e-02 -3.74649227e-01 -1.10462558e+00 6.64629564e-02 2.52931029e-01 4.30538058e-01 1.69532716e-01 -1.39891937e-01 4.31393646e-02 1.61450535e-01 -2.20242232e-01 6.76885664e-01 -2.32549347e-02 3.43064308e-01 -1.11993916e-01 -3.76467347e-01 9.11700010e-01 2.98562169e-01 3.33515584e-01 -5.36274731e-01 -1.76346581e-02 -3.91039774e-02 -1.23831369e-01 2.30938628e-01 -1.58329293e-01 4.11475599e-01 -1.78066120e-01 -2.36143917e-01
1.28943491e+00 -3.76935273e-01 5.04525244e-01 9.57521021e-01 -3.27579081e-01 6.68953806e-02 -5.27213156e-01 -7.50787735e-01 4.93854344e-01 -1.07136345e+00 -3.08352590e-01 7.58095086e-01 -1.24239945e+00 -3.82055819e-01 6.96803212e-01 -5.04553974e-01 -7.31896311e-02 -1.98782653e-01 8.32338035e-01 7.79781520e-01 1.20252825e-01 -4.38097179e-01 -1.98160338e+00 -5.53954899e-01 3.05080026e-01 4.92856264e-01 -8.15307200e-01 -1.65667921e-01 -3.75124127e-01 1.23457336e+00 -1.10606956e+00 1.43561065e-01
-2.89389845e-02 1.94626644e-01 -4.91140597e-02 -4.78206016e-02 -1.85761496e-01 -2.08872301e-03 2.30041146e-02 -4.20109332e-02 -7.56694302e-02 -2.65780054e-02 4.01162058e-02 9.64148417e-02 8.40252787e-02 -4.22404073e-02 1.33108154e-01 -1.71999544e-01 1.13137245e-01 1.74607903e-01 -5.62997581e-03 -2.93344468e-01 1.15177095e-01 3.58798057e-02 -2.13435907e-02 6.87074242e-03 -3.02622676e-01 -5.12282252e-02 2.04401836e-02 -4.90914918e-02 -8.93887691e-03 -9.31688305e-03 5.82196657e-03 -2.39442259e-01
-1.15741149e-01 2.14065701e-01 1.75665927e+00 5.47931075e-01 -1.54394960e+00 2.94135332e-01 -3.34617943e-01 -5.72640240e-01 8.89285386e-01 4.81296957e-01 2.40836680e-01 -4.91724223e-01 -9.87806082e-01 5.81239164e-01 2.10253343e-01 -4.46525097e+00 -3.20927471e-01 -5.00880671e+00 3.06969315e-01 -4.98902611e-03 -1.11494267e+00 1.11659741e+00 5.11751413e-01 1.37988001e-01 5.59059978e-02 -2.65449405e-01 -4.30467010e-01 7.34501719e-01 -2.97387093e-01 1.03454746e-01 -3.16103429e-01 2.57043868e-01
-9.18884337e-01 1.67559206e-01 1.88837945e-01 -7.13550329e-01 -1.50599673e-01 -7.61070698e-02 -1.39443725e-01 3.52113873e-01 7.16025010e-02 2.02036217e-01 1.46501020e-01 -3.26739669e-01 3.77452940e-01 6.18790567e-01 -3.74587238e-01 -4.35652912e-01 1.64132178e-01 -2.68409193e-01 -1.97742015e-01 6.37458041e-02 1.12380065e-01 7.15199947e-01 2.17455313e-01 -1.38744995e-01 -1.10991389e-01 1.50483176e-01 -6.88074648e-01 1.06504939e-01 9.48467329e-02 -5.33802688e-01 -1.77406341e-01 -7.89810061e-01

layers.2.bias:
-1.38223648e+00
-7.89791942e-01
3.29203367e-01
-8.19587335e-02
9.42544714e-02
-4.63407367e-01
2.61244208e-01
2.16307974e+00
6.02818072e-01
8.25695336e-01
-8.84807467e-01
-1.45361614e+00
-3.91916484e-01
8.96593869e-01
-2.81629264e-01
-7.35923946e-01
-7.18716010e-02
-8.11114669e-01
4.12601203e-01
-7.78146535e-02
-1.50170684e-01
8.26797664e-01
8.14346373e-01
-1.57659009e-01
-5.56767166e-01
9.83123600e-01
-1.01202130e+00
-1.10198450e+00
5.36713302e-01
-1.11138070e+00
1.79324463e-01
-9.74516571e-02
7.44994700e-01
1.25784248e-01
-3.68626565e-01
-1.46156289e-02
-1.32755160e-01
1.48598969e+00
1.06677079e+00
-2.06440151e-01
9.52179909e-01
-1.97726801e-01
-5.18555045e-01
1.61252272e+00
2.59766251e-01
-7.05874860e-01
1.04098785e+00
-3.62533271e-01
8.21243525e-01
1.56995809e+00
2.37351045e-01
2.75930941e-01
9.87486243e-02
-6.49381578e-01
1.43610239e-01
-3.60030085e-02
7.91731000e-01
-1.39700800e-01
-1.91727161e-01
-6.38683200e-01
8.14483941e-01
5.90868555e-02
-5.10507405e-01
5.34786403e-01

layers.4.weight:
3.08975041e-01 1.30396402e-02 -7.99514353e-02 3.47501561e-02 1.18724704e-02 9.19180438e-02 2.02186115e-04 -7.01600671e-01 -1.78198949e-01 -4.28650796e-01 7.63613880e-02 9.04916704e-01 -1.73977196e+00 -8.76718983e-02 -1.53891472e-02 -1.47700357e+00 2.68175936e-04 1.14180088e-01 1.44161284e-01 -1.33347712e-04 1.19528100e-02 -1.04329079e-01 -1.15149133e-01 2.61409760e-01 -6.64615035e-02 -6.42339289e-02 8.13844353e-02 1.11557961e+00 -4.42983925e-01 4.13196415e-01 -3.75075750e-02 -1.80902079e-01 -1.20140627e-01 -8.92585842e-04 4.98183332e-02 -3.43269639e-04 -1.80575473e-04 -2.40219623e-01 -8.83232951e-02 4.82084274e-01 -1.08285196e-01 2.49543861e-01 3.89735512e-02 -1.58633515e-01 -2.91014701e-04 1.35969833e-01 -8.12883303e-02 -2.01628776e-04 -4.36999276e-02 -6.62908375e-01 -2.00397268e-01 -3.97023335e-02 4.09570552e-04 3.02910595e-03 -1.37921131e+00 2.71425641e-04 -2.79784836e-02 -4.08447474e-01 -8.63623470e-02 2.53879800e-02 -1.22860529e-01 1.53437140e-05 1.02921760e+00 -4.42330875e-02

layers.4.bias:
-1.08243358e+00

